~o
<STREAMINFO> 1 39
<VECSIZE> 39<NULLD><MFCC_D_A_0><DIAGC>
~s "silst"
<MEAN> 39
 -1.171535e+01 -3.561693e+00 -9.072213e-01 -2.179371e+00 -1.866517e+00 -1.690357e+00 -2.768919e+00 -2.092706e+00 -2.815009e+00 -1.982356e+00 -1.801052e+00 -1.252465e+00 4.831486e+01 -3.138897e-01 -1.714602e-01 -2.185456e-01 -1.229639e-01 -1.564851e-01 -1.054891e-01 -9.431113e-02 -3.138930e-03 -1.465843e-02 -6.688904e-02 -5.520194e-02 1.984823e-02 -2.568785e-01 1.527207e-01 5.155803e-02 3.269106e-02 3.646085e-02 2.724440e-02 1.496670e-02 -1.041089e-02 -2.922606e-02 -2.487986e-02 1.971820e-02 1.988840e-02 -8.318316e-03 1.013846e-01
<VARIANCE> 39
 1.725561e+01 1.369566e+01 1.967113e+01 1.268297e+01 1.261230e+01 1.153732e+01 1.073881e+01 1.220990e+01 1.281272e+01 1.075482e+01 1.013888e+01 9.147482e+00 1.547887e+01 5.942066e-01 7.628866e-01 9.475052e-01 8.402160e-01 9.419299e-01 9.364820e-01 1.058150e+00 1.056550e+00 1.141222e+00 1.052412e+00 9.269201e-01 8.097804e-01 2.294378e-01 1.217167e-01 1.329853e-01 1.574889e-01 1.496760e-01 1.806953e-01 1.924706e-01 2.073670e-01 2.102286e-01 2.289273e-01 2.064217e-01 1.860985e-01 1.586494e-01 4.960204e-02
<GCONST> 7.816312e+01
~h "a"
<BEGINHMM>
<NUMSTATES> 5
<STATE> 2
<MEAN> 39
 9.501767e+00 2.076191e+00 -3.874022e+00 -4.655334e+00 -1.536265e-01 -6.355132e+00 -7.855579e+00 -3.146202e+00 -1.870472e+00 -2.295132e+00 -1.510850e+00 -1.180069e+00 6.329878e+01 -4.439138e-01 4.115752e-01 5.596749e-01 -1.071652e-01 -1.307401e-01 5.172800e-01 6.893297e-01 1.205064e-01 -1.733020e-01 -1.181472e-01 -6.184762e-02 -5.575561e-02 -3.815895e-01 -1.101588e-01 4.156711e-02 1.858650e-01 1.400455e-01 6.545903e-02 8.377558e-02 3.044063e-02 -5.953293e-02 -6.778896e-02 1.396913e-02 -1.525957e-02 -5.660766e-02 -8.220233e-02
<VARIANCE> 39
 7.405312e+01 5.136446e+01 8.644655e+01 6.851147e+01 5.699883e+01 5.806570e+01 7.273068e+01 7.161642e+01 3.284319e+01 4.414343e+01 3.052659e+01 2.934305e+01 3.637238e+01 7.066315e-01 1.148691e+00 2.110260e+00 1.561125e+00 1.748278e+00 1.974487e+00 2.157016e+00 2.001019e+00 1.524570e+00 1.580679e+00 1.331642e+00 1.193112e+00 4.130588e-01 1.118276e-01 1.713736e-01 3.001317e-01 2.059454e-01 2.288636e-01 2.866647e-01 3.024541e-01 2.866414e-01 2.385404e-01 2.441248e-01 2.170421e-01 1.945842e-01 6.206335e-02
<GCONST> 1.063889e+02
<STATE> 3
<MEAN> 39
 2.875621e+00 3.136867e+00 1.211675e+00 -3.795165e+00 -5.143109e-01 -3.019934e+00 -2.725337e+00 -2.186417e+00 -3.473641e+00 -3.722487e+00 -2.433538e+00 -1.528745e+00 5.854264e+01 -4.620914e-01 3.440678e-02 3.866738e-01 2.735975e-01 1.415713e-01 2.424015e-01 2.253653e-01 5.571994e-02 -8.827278e-03 2.682767e-02 -6.534790e-02 -7.686908e-02 -3.230402e-01 1.021001e-03 -6.879396e-02 -4.763743e-02 4.331929e-02 5.490441e-02 -1.487407e-02 -8.867148e-02 -4.095382e-02 1.745988e-02 5.705640e-02 4.565082e-02 1.373097e-02 1.057656e-02
<VARIANCE> 39
 7.999361e+01 7.831845e+01 9.671639e+01 6.240675e+01 4.514352e+01 3.362343e+01 4.142339e+01 3.564261e+01 2.469568e+01 1.941539e+01 2.263287e+01 2.421177e+01 3.130523e+01 5.119014e-01 7.398357e-01 1.348340e+00 1.154312e+00 1.258999e+00 1.163292e+00 1.220264e+00 1.160611e+00 1.081780e+00 1.024467e+00 9.375778e-01 8.658585e-01 2.392488e-01 7.674229e-02 1.205058e-01 1.842682e-01 1.618809e-01 1.979275e-01 2.149395e-01 2.138882e-01 1.887183e-01 1.928011e-01 1.634796e-01 1.695590e-01 1.519562e-01 3.741398e-02
<GCONST> 9.337135e+01
<STATE> 4
<MEAN> 39
 -7.347703e-02 2.698828e+00 5.201844e+00 -1.671981e+00 8.056839e-01 -1.450798e+00 -2.190899e+00 -2.032301e+00 -2.886275e+00 -2.131789e+00 -2.003383e+00 -2.193558e+00 5.725996e+01 -7.802140e-01 -5.341887e-01 4.880892e-02 7.576994e-02 7.258786e-02 1.036962e-01 -5.104619e-02 -2.813171e-02 2.065263e-02 1.551997e-01 6.217202e-02 4.679684e-03 -3.773689e-01 1.370326e-01 -1.365338e-01 -2.527508e-01 -1.513274e-01 -1.297450e-01 -1.592359e-01 -1.522891e-01 -6.825529e-02 -8.067758e-03 2.548668e-02 3.751305e-02 7.551541e-03 1.102686e-01
<VARIANCE> 39
 7.645065e+01 6.704068e+01 6.338496e+01 6.720395e+01 4.812603e+01 4.258279e+01 4.973328e+01 3.736192e+01 2.872390e+01 2.541856e+01 2.458893e+01 2.302091e+01 3.186813e+01 2.042579e+00 2.322915e+00 2.902938e+00 3.254611e+00 2.886585e+00 2.600898e+00 2.373777e+00 1.828766e+00 1.705213e+00 1.553309e+00 1.416506e+00 1.392264e+00 6.792262e-01 3.017411e-01 4.072210e-01 4.304852e-01 5.167772e-01 5.067695e-01 4.391122e-01 4.378752e-01 3.447609e-01 3.536788e-01 2.927940e-01 2.785345e-01 2.506748e-01 1.308200e-01
<GCONST> 1.147191e+02
<TRANSP> 5
 0.000000e+00 1.000000e+00 0.000000e+00 0.000000e+00 0.000000e+00
 0.000000e+00 6.602901e-01 3.397099e-01 0.000000e+00 0.000000e+00
 0.000000e+00 0.000000e+00 7.081910e-01 2.918090e-01 0.000000e+00
 0.000000e+00 0.000000e+00 0.000000e+00 5.490144e-01 4.509856e-01
 0.000000e+00 0.000000e+00 0.000000e+00 0.000000e+00 0.000000e+00
<ENDHMM>
~h "b"
<BEGINHMM>
<NUMSTATES> 5
<STATE> 2
<MEAN> 39
 1.505914e+00 -2.468866e+00 6.836747e-01 -1.614387e+00 2.578772e-01 -1.859207e+00 -5.111051e+00 -4.344743e+00 -5.473572e+00 -2.414322e+00 -1.407227e+00 -2.859854e+00 6.051830e+01 7.382680e-01 -1.750408e-01 -6.303923e-01 -3.065204e-01 -1.358692e-01 -5.135437e-01 -3.533457e-01 -1.154853e-01 -1.832483e-01 -1.054579e-01 1.399211e-01 3.041859e-02 5.920846e-01 1.180646e-01 -2.127467e-02 -1.495127e-01 -4.188052e-02 2.415802e-02 -8.812816e-02 -8.326972e-02 7.414679e-02 2.927344e-03 -4.320555e-02 1.554620e-02 2.970737e-02 7.456467e-02
<VARIANCE> 39
 9.655103e+01 8.966566e+01 8.407342e+01 9.402365e+01 7.357906e+01 7.304580e+01 8.006633e+01 4.828624e+01 4.577552e+01 4.320773e+01 3.190278e+01 2.952004e+01 5.259479e+01 8.707454e+00 6.689399e+00 7.600183e+00 6.472127e+00 5.503183e+00 5.584760e+00 5.283166e+00 4.394547e+00 4.281979e+00 3.144948e+00 2.536436e+00 2.463966e+00 4.850941e+00 1.230118e+00 1.080158e+00 1.203120e+00 1.059869e+00 9.595894e-01 1.020648e+00 8.796455e-01 7.429988e-01 7.822665e-01 5.523514e-01 4.430666e-01 4.220418e-01 8.291643e-01
<GCONST> 1.428888e+02
<STATE> 3
<MEAN> 39
 8.995632e+00 -1.318615e+00 -3.636343e+00 -1.436396e+00 1.041386e+00 -4.255676e+00 -6.975629e+00 -3.443322e+00 -6.275376e+00 -3.941321e+00 -1.736253e+00 -1.148705e+00 6.485961e+01 1.483423e-01 -3.059102e-01 -4.378697e-01 -3.043881e-02 -1.513082e-01 -7.299528e-03 1.211368e-01 3.233060e-01 9.944926e-02 -1.483318e-01 1.982323e-01 1.430951e-01 1.062853e-01 -3.427121e-01 5.788416e-02 3.676080e-01 1.012640e-01 -6.600118e-02 1.404045e-01 2.162265e-01 -1.260512e-02 5.159576e-02 4.661101e-02 -6.472585e-02 -5.924844e-02 -2.104014e-01
<VARIANCE> 39
 6.653099e+01 8.314877e+01 8.013839e+01 8.141943e+01 7.895396e+01 1.151907e+02 6.698643e+01 6.262512e+01 5.196768e+01 5.507227e+01 5.004935e+01 3.166494e+01 3.904737e+01 3.069730e+00 3.944608e+00 3.585988e+00 2.727783e+00 3.028095e+00 3.591397e+00 3.071007e+00 2.622785e+00 2.661913e+00 2.599004e+00 1.915727e+00 2.036420e+00 1.371242e+00 5.067198e-01 6.145630e-01 6.246236e-01 4.213489e-01 5.476355e-01 5.917875e-01 5.037608e-01 4.134454e-01 5.982056e-01 4.927815e-01 4.089299e-01 3.288120e-01 2.121213e-01
<GCONST> 1.284109e+02
<STATE> 4
<MEAN> 39
 7.651888e+00 -3.914088e+00 -6.467705e+00 -1.800786e+00 7.879314e-01 -3.936411e+00 -5.836672e+00 -5.051703e+00 -6.527922e+00 -3.540175e+00 -2.108161e-01 -6.673009e-01 6.363806e+01 -2.337620e-01 1.857513e-01 2.841507e-01 4.229810e-02 -3.372116e-02 1.434641e-01 2.410100e-01 1.019475e-01 -4.161869e-02 -4.677844e-02 -8.887206e-02 -7.330600e-03 -1.965335e-01 -9.123968e-02 7.404113e-02 1.415802e-01 4.594387e-02 1.695579e-02 5.517227e-02 1.327157e-02 -6.061134e-02 5.162150e-03 4.222921e-02 -4.163632e-02 -3.147223e-02 -7.850382e-02
<VARIANCE> 39
 7.323982e+01 1.442326e+02 7.347831e+01 8.425688e+01 6.393119e+01 6.310910e+01 6.056363e+01 3.942159e+01 4.625371e+01 2.778374e+01 3.362196e+01 2.517331e+01 3.033955e+01 6.208870e-01 1.168339e+00 1.844414e+00 1.877656e+00 1.523109e+00 1.416719e+00 1.519630e+00 1.327860e+00 1.808550e+00 1.331817e+00 1.110557e+00 9.670743e-01 3.781000e-01 1.044839e-01 1.609031e-01 2.436573e-01 2.135681e-01 2.031314e-01 2.479527e-01 2.600338e-01 1.933368e-01 2.799504e-01 1.930914e-01 2.013128e-01 1.749020e-01 4.838377e-02
<GCONST> 1.031232e+02
<TRANSP> 5
 0.000000e+00 1.000000e+00 0.000000e+00 0.000000e+00 0.000000e+00
 0.000000e+00 7.818386e-01 2.181614e-01 0.000000e+00 0.000000e+00
 0.000000e+00 0.000000e+00 5.709527e-01 4.290473e-01 0.000000e+00
 0.000000e+00 0.000000e+00 0.000000e+00 8.526946e-01 1.473054e-01
 0.000000e+00 0.000000e+00 0.000000e+00 0.000000e+00 0.000000e+00
<ENDHMM>
~h "d"
<BEGINHMM>
<NUMSTATES> 5
<STATE> 2
<MEAN> 39
 -1.923398e+00 -3.174529e+00 -3.124347e+00 -5.059730e+00 -3.973754e-01 -2.008159e+00 -2.031103e+00 -2.046559e+00 -3.897182e+00 -3.320606e+00 -1.204079e+00 1.026393e-01 5.640295e+01 -3.031997e-01 -2.333295e-02 -1.810341e-02 3.918911e-03 -3.924407e-02 3.124042e-04 1.547201e-02 -7.942256e-03 -6.536162e-02 -7.090193e-02 -3.579237e-03 1.592367e-02 -2.517400e-01 8.298895e-03 3.810335e-02 5.219202e-02 4.307745e-02 7.547171e-03 -2.932559e-02 -5.477827e-02 -2.658699e-02 1.345629e-02 2.313689e-02 6.439844e-04 -2.871490e-02 -3.679958e-03
<VARIANCE> 39
 7.151448e+01 8.180700e+01 8.738144e+01 5.680661e+01 4.052353e+01 4.192959e+01 3.909336e+01 4.149881e+01 3.112095e+01 2.857942e+01 2.319013e+01 2.671505e+01 2.893579e+01 4.162241e-01 8.112128e-01 1.303443e+00 1.124163e+00 1.118776e+00 1.215022e+00 1.318483e+00 1.347188e+00 1.199293e+00 1.269490e+00 1.067649e+00 1.011660e+00 2.057457e-01 5.286745e-02 8.656114e-02 1.410787e-01 1.528409e-01 1.618768e-01 1.962614e-01 2.142540e-01 2.208391e-01 2.053534e-01 2.079208e-01 2.051217e-01 1.789608e-01 2.327054e-02
<GCONST> 9.342683e+01
<STATE> 3
<MEAN> 39
 -1.170343e+01 -1.757064e+00 -8.883770e-01 -1.942246e+00 -2.982083e+00 -2.435924e+00 -3.659477e+00 -2.366071e+00 -3.308228e+00 -2.142673e+00 -2.200764e+00 -1.474424e+00 4.669297e+01 -6.009355e-02 4.158943e-02 -1.711249e-04 3.462589e-02 -3.036466e-02 1.044613e-02 -1.309653e-02 2.156501e-02 2.134671e-04 1.376228e-03 -1.671067e-02 -1.192442e-02 -9.937571e-02 1.133165e-02 7.065459e-04 1.863333e-03 9.571592e-03 1.309171e-02 1.438707e-02 8.015565e-03 -1.082622e-03 -2.083486e-04 1.795645e-03 -2.065864e-04 -3.156876e-04 8.391656e-03
<VARIANCE> 39
 2.386076e+01 1.359009e+01 1.118662e+01 1.326384e+01 1.075874e+01 1.291700e+01 1.192755e+01 1.128126e+01 1.161474e+01 9.421308e+00 8.796611e+00 8.469856e+00 2.035246e+01 9.411176e-02 1.784739e-01 3.084720e-01 3.706038e-01 4.733292e-01 5.865281e-01 6.491071e-01 7.313719e-01 7.717199e-01 7.124732e-01 6.947920e-01 6.899308e-01 4.602770e-02 1.791984e-02 3.545281e-02 5.933091e-02 7.613371e-02 1.000960e-01 1.209320e-01 1.305140e-01 1.491736e-01 1.560725e-01 1.415472e-01 1.381645e-01 1.417287e-01 7.253140e-03
<GCONST> 5.783395e+01
<STATE> 4
<MEAN> 39
 -3.592449e+00 1.979135e+00 2.651700e+00 -1.814117e+00 -1.476215e+00 -3.207407e+00 -4.414267e+00 -3.189706e+00 -4.153139e+00 -3.590320e+00 -2.797928e+00 -2.632581e+00 5.328782e+01 -1.729112e-01 9.578084e-02 3.224414e-01 3.922213e-01 3.658287e-01 2.251013e-01 -2.021565e-02 -8.448667e-02 1.460531e-02 1.442618e-02 -6.064970e-02 -3.896375e-02 -1.415347e-01 2.087318e-01 4.065241e-02 1.817739e-02 1.323094e-01 1.325746e-01 1.264707e-02 -2.564739e-02 -7.882780e-02 -3.783929e-02 7.928310e-02 -1.320464e-02 -5.501934e-02 1.344036e-01
<VARIANCE> 39
 1.083958e+02 6.472548e+01 6.724902e+01 4.119513e+01 3.115001e+01 2.910398e+01 3.182939e+01 2.921333e+01 2.397500e+01 1.841885e+01 1.767803e+01 2.027541e+01 5.887953e+01 6.384246e-01 8.657468e-01 1.191612e+00 1.194943e+00 1.038677e+00 8.328736e-01 9.721119e-01 1.211185e+00 1.157686e+00 8.505064e-01 9.978560e-01 7.229343e-01 2.410112e-01 2.679875e-01 3.111864e-01 3.389541e-01 3.075445e-01 2.811056e-01 2.507866e-01 3.013071e-01 2.477644e-01 2.660314e-01 2.192546e-01 2.221892e-01 1.616672e-01 1.015662e-01
<GCONST> 9.771862e+01
<TRANSP> 5
 0.000000e+00 1.000000e+00 0.000000e+00 0.000000e+00 0.000000e+00
 0.000000e+00 8.483021e-01 1.516979e-01 0.000000e+00 0.000000e+00
 0.000000e+00 0.000000e+00 9.445376e-01 5.546242e-02 0.000000e+00
 0.000000e+00 0.000000e+00 0.000000e+00 4.043623e-01 5.956377e-01
 0.000000e+00 0.000000e+00 0.000000e+00 0.000000e+00 0.000000e+00
<ENDHMM>
~h "e"
<BEGINHMM>
<NUMSTATES> 5
<STATE> 2
<MEAN> 39
 -2.917278e+00 2.693501e-01 3.010246e+00 -2.329442e+00 -4.261894e-01 -2.042704e+00 -3.199710e+00 -3.263399e+00 -3.993446e+00 -2.549953e+00 -2.425796e+00 -2.143400e+00 5.523621e+01 1.220924e-02 -1.172107e-01 -1.330571e-01 7.136601e-02 -3.437537e-02 1.150325e-01 -1.097222e-02 -1.685512e-01 -8.695471e-02 8.856384e-03 5.322305e-02 6.067409e-02 -2.276425e-02 5.382992e-01 1.358203e-02 -1.873764e-01 -2.290897e-02 2.241962e-02 -2.280609e-01 -3.081596e-01 -1.734659e-01 -1.061208e-02 8.449604e-02 7.830504e-02 -2.836718e-02 3.824621e-01
<VARIANCE> 39
 9.778712e+01 6.342611e+01 5.986469e+01 5.231967e+01 4.162904e+01 3.643475e+01 4.076702e+01 3.677290e+01 2.623235e+01 2.972479e+01 2.169073e+01 2.116942e+01 4.761018e+01 3.792530e+00 3.543782e+00 3.925698e+00 3.438710e+00 2.814002e+00 2.646581e+00 2.883278e+00 2.639199e+00 2.088814e+00 1.941395e+00 1.684942e+00 1.487023e+00 1.591520e+00 6.976532e-01 6.788658e-01 6.605932e-01 5.947446e-01 5.132501e-01 5.313616e-01 6.397855e-01 5.396514e-01 4.179897e-01 4.055420e-01 3.492179e-01 2.932341e-01 3.541873e-01
<GCONST> 1.226331e+02
<STATE> 3
<MEAN> 39
 1.222988e+00 -7.855949e-01 1.921925e+00 -1.732351e+00 -8.611417e-01 -4.121807e+00 -5.130849e+00 -4.127122e+00 -4.988690e+00 -2.906558e+00 -2.153425e+00 -2.400126e+00 5.853341e+01 2.104337e+00 1.039394e-01 -7.322633e-01 4.905040e-02 3.098706e-01 -8.681848e-01 -1.356008e+00 -6.563457e-01 -1.064675e-02 2.192470e-01 2.093240e-01 -4.573801e-02 1.463504e+00 8.358410e-02 5.996552e-03 -7.455610e-02 5.329999e-02 1.283451e-01 -1.813022e-01 -2.711651e-01 3.637693e-02 1.358793e-01 5.909481e-02 6.955696e-03 -3.174573e-02 5.533294e-02
<VARIANCE> 39
 9.541813e+01 9.551093e+01 8.216883e+01 8.012878e+01 7.464003e+01 6.851152e+01 6.449692e+01 5.729788e+01 4.091265e+01 3.897517e+01 3.246709e+01 2.268454e+01 5.130379e+01 8.626287e+00 9.121971e+00 6.661835e+00 7.295269e+00 5.932346e+00 6.209735e+00 7.186663e+00 5.681464e+00 3.752203e+00 3.809009e+00 3.322973e+00 2.300370e+00 4.281167e+00 9.554499e-01 1.194517e+00 9.141369e-01 1.020251e+00 8.451076e-01 9.403587e-01 9.037772e-01 7.245453e-01 5.817876e-01 5.895268e-01 5.463767e-01 3.610819e-01 5.706551e-01
<GCONST> 1.421238e+02
<STATE> 4
<MEAN> 39
 9.261922e+00 -2.210462e-01 -1.646246e+00 1.378271e+00 5.058891e+00 -8.299966e+00 -1.438978e+01 -7.423563e+00 -2.983388e+00 -5.501990e-02 -5.644094e-01 -3.532320e+00 6.375034e+01 -1.224846e-02 1.292930e-01 9.959145e-02 2.691462e-02 8.349292e-02 8.226041e-02 8.820797e-02 7.433194e-02 1.187091e-01 9.426039e-02 2.913985e-02 1.282237e-03 -2.984507e-02 -3.095689e-01 -6.754558e-03 1.602900e-01 -1.054281e-01 -1.573379e-01 1.874872e-01 3.637181e-01 1.608411e-01 -2.042493e-02 -9.130064e-02 -6.442101e-02 2.676664e-02 -1.902752e-01
<VARIANCE> 39
 5.136086e+01 5.069403e+01 7.468613e+01 7.933727e+01 5.494659e+01 6.144459e+01 8.779416e+01 7.416541e+01 3.923610e+01 4.816608e+01 3.942432e+01 3.266724e+01 3.258925e+01 3.016144e+00 3.083825e+00 3.838534e+00 3.490049e+00 2.517407e+00 4.529344e+00 5.121713e+00 2.960671e+00 2.443859e+00 2.356255e+00 2.192956e+00 1.771020e+00 1.654874e+00 3.892525e-01 4.984574e-01 5.204244e-01 4.779644e-01 3.847105e-01 6.147405e-01 7.332523e-01 5.315080e-01 4.195890e-01 3.903039e-01 3.905428e-01 2.920813e-01 1.953937e-01
<GCONST> 1.258845e+02
<TRANSP> 5
 0.000000e+00 1.000000e+00 0.000000e+00 0.000000e+00 0.000000e+00
 0.000000e+00 4.955406e-01 5.044594e-01 0.000000e+00 0.000000e+00
 0.000000e+00 0.000000e+00 5.883207e-01 4.116793e-01 0.000000e+00
 0.000000e+00 0.000000e+00 0.000000e+00 7.652162e-01 2.347838e-01
 0.000000e+00 0.000000e+00 0.000000e+00 0.000000e+00 0.000000e+00
<ENDHMM>
~h "f"
<BEGINHMM>
<NUMSTATES> 5
<STATE> 2
<MEAN> 39
 -1.894830e+00 -1.409052e+00 3.084934e+00 -1.821928e+00 -1.369711e+00 -3.308393e+00 -3.517527e+00 -2.992376e+00 -3.864289e+00 -1.840386e+00 -5.888499e-01 -2.090331e+00 5.648946e+01 -2.245758e-01 -1.501883e+00 9.697866e-02 -9.167478e-01 -3.883874e-01 -2.446589e-01 -4.580441e-01 -1.168988e+00 1.464691e-01 1.157136e+00 -7.069030e-02 -2.520050e-01 8.143317e-01 3.884845e-01 -4.195075e-01 1.569600e-02 -3.555712e-01 -1.247148e-01 -6.067908e-01 -4.528832e-01 -1.461590e-02 -1.283998e-01 -6.388646e-02 -1.551056e-01 -1.819861e-01 6.716213e-01
<VARIANCE> 39
 7.310312e+01 3.313014e+01 4.825790e+01 3.700311e+01 4.860990e+01 5.304679e+01 4.897250e+01 5.237209e+01 3.072347e+01 5.997660e+01 1.710256e+01 2.270444e+01 4.143044e+01 1.458155e+01 1.337977e+01 1.555576e+01 6.971844e+00 5.465138e+00 8.305914e+00 6.607415e+00 4.030474e+00 4.205546e+00 4.672553e+00 2.546750e+00 4.416591e+00 5.790278e+00 1.143416e+00 1.795630e+00 8.965888e-01 1.177753e+00 8.790121e-01 7.400074e-01 6.964613e-01 5.054847e-01 8.286908e-01 9.451786e-01 2.433894e-01 7.005441e-01 5.945707e-01
<GCONST> 1.408448e+02
<STATE> 3
<MEAN> 39
 -7.027541e+00 -1.561354e+01 1.126144e+01 -8.277996e+00 -3.617985e+00 -2.184167e+00 -2.800840e+00 -4.835904e+00 -8.003313e+00 1.632956e+00 -1.555691e-01 -4.552520e+00 6.356641e+01 1.814080e-01 -2.597595e-01 -6.851370e-01 -3.972477e-02 8.066227e-02 -5.939967e-01 -9.632888e-02 -4.271783e-01 -2.897226e-02 -1.155623e-01 -1.450024e-01 -1.164559e-01 2.431756e-01 3.204343e-01 5.961269e-01 -1.469413e-01 2.520936e-01 7.800719e-02 -9.441861e-02 -2.125938e-02 1.392206e-01 1.433197e-01 -1.799776e-01 -2.422060e-02 7.268517e-02 -1.308228e-01
<VARIANCE> 39
 8.708248e+01 7.945708e+01 1.618297e+02 7.913730e+01 5.553617e+01 9.471014e+01 6.295550e+01 4.847840e+01 4.923265e+01 4.047836e+01 2.923452e+01 2.172519e+01 2.890336e+01 1.056103e+01 9.266791e+00 8.786993e+00 7.827603e+00 3.675959e+00 5.887291e+00 4.918162e+00 3.155874e+00 4.139073e+00 5.374493e+00 2.719590e+00 1.821221e+00 3.520817e+00 1.267700e+00 1.450650e+00 1.800762e+00 1.232856e+00 6.582947e-01 1.293791e+00 8.279543e-01 7.013334e-01 6.489667e-01 1.148992e+00 6.725591e-01 4.462965e-01 4.984744e-01
<GCONST> 1.430853e+02
<STATE> 4
<MEAN> 39
 4.258378e+00 -6.760119e+00 2.354849e+00 -1.738472e+00 -3.631129e-01 -1.076073e+01 -1.085455e+01 -5.525899e+00 -5.381308e+00 -1.186270e+00 -5.539907e-01 -5.033770e+00 6.512984e+01 5.074404e-01 5.831813e-01 -9.712993e-02 2.307191e-01 2.403661e-01 2.229108e-01 -3.022406e-01 2.797898e-01 2.280385e-01 -1.661651e-01 -2.662925e-01 -1.504444e-02 -6.948607e-02 -2.505134e-01 9.503829e-02 1.937807e-01 4.764124e-02 1.211617e-02 2.029200e-01 2.056271e-01 5.589806e-02 5.262263e-02 3.706056e-02 -5.698863e-03 1.778767e-02 -2.019461e-01
<VARIANCE> 39
 1.077658e+02 8.901533e+01 8.624715e+01 8.269301e+01 8.190792e+01 8.756525e+01 9.304635e+01 6.735741e+01 5.331184e+01 6.614377e+01 4.265963e+01 5.084617e+01 3.885229e+01 6.839973e+00 5.736945e+00 5.518950e+00 6.427232e+00 3.403708e+00 7.445235e+00 7.129969e+00 4.179739e+00 4.403574e+00 3.065309e+00 2.905992e+00 3.761093e+00 4.079429e+00 9.571481e-01 1.363775e+00 1.049333e+00 1.148282e+00 6.501597e-01 1.534390e+00 1.061451e+00 8.773803e-01 7.750025e-01 7.007805e-01 5.316414e-01 6.663818e-01 6.721197e-01
<GCONST> 1.454485e+02
<TRANSP> 5
 0.000000e+00 1.000000e+00 0.000000e+00 0.000000e+00 0.000000e+00
 0.000000e+00 5.389320e-01 4.610680e-01 0.000000e+00 0.000000e+00
 0.000000e+00 0.000000e+00 7.618523e-01 2.381477e-01 0.000000e+00
 0.000000e+00 0.000000e+00 0.000000e+00 7.597019e-01 2.402981e-01
 0.000000e+00 0.000000e+00 0.000000e+00 0.000000e+00 0.000000e+00
<ENDHMM>
~h "g"
<BEGINHMM>
<NUMSTATES> 5
<STATE> 2
<MEAN> 39
 1.149131e+01 1.102086e+00 -5.871660e+00 -7.963197e+00 -3.072676e+00 -8.272317e+00 -6.337138e+00 1.092317e+00 -2.745704e+00 -7.281434e+00 -2.840735e+00 4.317452e-01 6.478284e+01 3.911660e-01 1.762892e-01 -2.790537e-01 -7.112958e-01 -1.203976e+00 -6.721529e-01 8.715780e-01 1.613420e+00 7.580643e-01 -6.581867e-01 -8.237112e-01 -1.503177e-01 1.775791e-01 -2.771604e-01 7.163275e-02 3.343983e-01 1.661469e-01 9.785205e-02 1.504301e-01 8.130667e-02 -1.761358e-01 -4.154906e-02 1.648060e-01 4.512867e-02 -8.745873e-02 -1.830729e-01
<VARIANCE> 39
 4.691855e+01 6.780057e+01 9.147455e+01 3.389942e+01 4.640695e+01 4.308824e+01 3.126784e+01 8.620653e+01 5.528945e+01 3.332131e+01 3.749178e+01 1.997475e+01 3.205274e+01 2.105216e+00 2.150507e+00 2.928725e+00 2.210748e+00 2.336691e+00 2.183059e+00 1.788894e+00 1.960130e+00 2.153968e+00 2.127124e+00 1.581970e+00 1.499466e+00 1.007858e+00 1.926671e-01 3.128185e-01 3.226408e-01 2.998233e-01 3.710886e-01 3.775531e-01 2.962744e-01 3.782005e-01 4.593819e-01 2.818148e-01 2.809052e-01 2.327167e-01 8.229771e-02
<GCONST> 1.129739e+02
<STATE> 3
<MEAN> 39
 9.845713e+00 6.864690e+00 1.169972e+00 -8.289210e+00 -8.267204e+00 -9.908470e+00 -1.049759e+00 5.861601e+00 -9.111251e-01 -7.572605e+00 -5.014272e+00 -1.815809e+00 6.255595e+01 -6.149812e-01 3.043291e-01 9.057932e-01 6.406958e-01 5.584759e-01 7.273223e-01 4.120714e-01 -4.806128e-01 -4.575760e-01 1.583849e-01 1.562023e-01 -1.541540e-01 -4.431070e-01 -1.349863e-01 -1.606886e-01 -5.990207e-03 2.135329e-01 3.315874e-01 2.512184e-01 -2.530546e-02 -2.551391e-01 -1.433555e-01 1.609762e-01 2.044377e-01 3.716242e-02 -5.645056e-02
<VARIANCE> 39
 2.918027e+01 4.495959e+01 5.579562e+01 2.363105e+01 4.017666e+01 5.945793e+01 4.218463e+01 6.369698e+01 3.417096e+01 3.329676e+01 2.372959e+01 2.184096e+01 1.853009e+01 8.915179e-01 1.402408e+00 2.507350e+00 1.655390e+00 2.859958e+00 3.005433e+00 1.862420e+00 2.098249e+00 1.853817e+00 1.825185e+00 1.389354e+00 1.281547e+00 4.880384e-01 1.604489e-01 3.036068e-01 3.337305e-01 2.631067e-01 4.154606e-01 4.948671e-01 3.686078e-01 3.981216e-01 2.451449e-01 2.957343e-01 3.275756e-01 2.220056e-01 8.548284e-02
<GCONST> 1.075015e+02
<STATE> 4
<MEAN> 39
 1.501065e+00 -1.604229e+00 6.521975e+00 -2.325006e-01 -2.875706e+00 -3.803531e+00 1.233888e+00 -1.290466e+00 -8.063621e+00 -3.653157e+00 1.067780e+00 -3.011032e+00 6.046664e+01 -9.705852e-01 -1.183533e+00 3.114980e-01 2.890863e-01 2.064293e-01 3.439960e-01 -3.242219e-02 -6.405185e-01 -2.128642e-01 6.382446e-01 5.060245e-01 2.857298e-03 -1.294607e-01 6.012829e-02 8.461512e-02 -1.390966e-01 -2.624326e-01 -1.425079e-01 -1.748489e-01 -1.326019e-01 1.135997e-01 1.587373e-01 -6.715640e-02 -1.553627e-01 -1.303078e-02 2.000410e-02
<VARIANCE> 39
 9.185721e+01 1.259990e+02 8.265662e+01 6.244962e+01 8.141990e+01 4.856305e+01 9.207233e+01 4.557543e+01 7.022220e+01 4.296575e+01 3.436538e+01 3.002938e+01 2.077688e+01 3.769973e+00 6.900712e+00 4.435897e+00 5.445224e+00 5.111530e+00 4.246119e+00 6.798299e+00 3.476678e+00 4.987031e+00 3.297039e+00 3.418284e+00 2.171317e+00 1.087563e+00 3.384465e-01 8.720845e-01 7.119802e-01 6.216651e-01 7.861623e-01 6.835252e-01 1.026490e+00 4.233528e-01 7.767950e-01 6.206977e-01 5.066747e-01 4.417073e-01 1.374759e-01
<GCONST> 1.340634e+02
<TRANSP> 5
 0.000000e+00 1.000000e+00 0.000000e+00 0.000000e+00 0.000000e+00
 0.000000e+00 6.843354e-01 3.156646e-01 0.000000e+00 0.000000e+00
 0.000000e+00 0.000000e+00 7.898803e-01 2.101197e-01 0.000000e+00
 0.000000e+00 0.000000e+00 0.000000e+00 7.326095e-01 2.673905e-01
 0.000000e+00 0.000000e+00 0.000000e+00 0.000000e+00 0.000000e+00
<ENDHMM>
~h "i"
<BEGINHMM>
<NUMSTATES> 5
<STATE> 2
<MEAN> 39
 -6.320300e+00 -4.750278e+00 6.910453e+00 -3.639121e+00 -5.346681e-01 -1.441161e+00 -3.060482e+00 -5.350991e+00 -4.058757e+00 -3.524324e-01 -2.311888e+00 -3.597414e+00 5.719759e+01 3.605101e-01 -2.401891e-01 -8.950493e-02 4.626347e-01 1.445002e-01 -2.720907e-01 -5.305284e-01 -5.682601e-01 -1.503392e-01 1.530313e-01 -2.991723e-02 -1.318657e-01 2.933307e-01 6.100364e-01 1.007601e-01 -2.325183e-01 1.136378e-01 7.470567e-02 -4.250299e-01 -4.864864e-01 -1.003826e-01 -3.744155e-02 -1.304263e-02 5.496250e-02 -4.335937e-02 3.545004e-01
<VARIANCE> 39
 9.612594e+01 9.822419e+01 9.103188e+01 9.365259e+01 5.869491e+01 5.043044e+01 5.688988e+01 4.552737e+01 4.171267e+01 3.524139e+01 2.619563e+01 2.324483e+01 4.517313e+01 9.315066e+00 8.167348e+00 7.801370e+00 8.476480e+00 4.759917e+00 5.830979e+00 6.865322e+00 4.295944e+00 3.765572e+00 3.406688e+00 2.747723e+00 2.343787e+00 3.077118e+00 8.305823e-01 1.110345e+00 1.010881e+00 1.145348e+00 8.241086e-01 9.462460e-01 1.043339e+00 7.168891e-01 6.538954e-01 5.766565e-01 4.803351e-01 4.178157e-01 4.871593e-01
<GCONST> 1.402436e+02
<STATE> 3
<MEAN> 39
 4.524489e+00 -2.422481e+00 3.272434e+00 1.153500e+00 7.194124e-01 -9.192533e+00 -8.845693e+00 -4.247375e+00 -6.206983e+00 -3.337351e+00 -1.688720e+00 -4.710746e+00 6.269301e+01 1.748977e+00 2.593684e-01 -6.206834e-01 4.222901e-01 5.001056e-01 -1.111393e+00 -1.473202e+00 -1.525109e-01 4.441550e-02 2.510951e-02 2.163003e-01 -7.910799e-02 1.052338e+00 -3.344573e-01 -6.143710e-02 3.757164e-03 -1.256309e-01 -4.065491e-02 1.210164e-01 2.245621e-01 2.439069e-01 1.814958e-01 -9.396702e-03 -3.792073e-02 2.248918e-02 -1.981165e-01
<VARIANCE> 39
 7.514636e+01 8.349303e+01 9.357526e+01 1.061258e+02 8.653724e+01 1.057423e+02 1.296518e+02 1.103231e+02 5.192441e+01 5.617028e+01 3.737933e+01 4.379850e+01 3.977567e+01 7.851095e+00 7.361584e+00 6.190085e+00 8.085671e+00 5.439666e+00 7.881801e+00 9.814362e+00 6.474676e+00 4.582838e+00 4.653011e+00 3.624304e+00 3.733330e+00 3.878745e+00 7.612213e-01 1.312415e+00 9.648165e-01 1.102725e+00 8.479278e-01 1.177182e+00 1.311332e+00 9.956372e-01 8.654516e-01 8.341839e-01 6.798586e-01 6.361430e-01 4.855602e-01
<GCONST> 1.487165e+02
<STATE> 4
<MEAN> 39
 7.741990e+00 -7.099970e-02 1.866877e+00 6.269866e+00 7.060659e+00 -1.091076e+01 -1.776813e+01 -8.914095e+00 -1.929706e+00 8.088997e-01 -2.062546e+00 -6.112797e+00 6.295709e+01 -1.687564e-01 1.819578e-01 1.672156e-02 -3.442999e-01 -1.682670e-01 3.680151e-01 4.812213e-01 1.984171e-01 9.340219e-02 -3.697090e-02 5.540206e-02 1.665312e-01 -1.576116e-01 -2.307655e-01 2.594070e-02 9.246459e-02 -1.754797e-01 -1.525419e-01 2.350847e-01 3.676463e-01 9.589005e-02 -8.138641e-02 -1.047469e-01 -3.532072e-02 6.933808e-02 -1.544636e-01
<VARIANCE> 39
 4.642236e+01 3.929745e+01 6.565272e+01 9.186342e+01 4.518023e+01 6.884167e+01 7.789191e+01 7.545538e+01 4.342025e+01 3.587000e+01 3.683902e+01 3.372583e+01 2.391188e+01 2.116853e+00 2.401895e+00 2.963827e+00 3.549106e+00 2.032962e+00 4.159197e+00 5.154095e+00 2.763256e+00 2.649372e+00 2.277346e+00 1.911269e+00 1.904101e+00 1.017872e+00 3.143722e-01 3.937334e-01 4.219150e-01 4.674363e-01 3.290470e-01 6.168298e-01 7.820588e-01 5.080575e-01 4.236804e-01 3.967011e-01 3.382989e-01 3.074731e-01 1.509620e-01
<GCONST> 1.219717e+02
<TRANSP> 5
 0.000000e+00 1.000000e+00 0.000000e+00 0.000000e+00 0.000000e+00
 0.000000e+00 7.015044e-01 2.984957e-01 0.000000e+00 0.000000e+00
 0.000000e+00 0.000000e+00 6.741973e-01 3.258028e-01 0.000000e+00
 0.000000e+00 0.000000e+00 0.000000e+00 8.198624e-01 1.801376e-01
 0.000000e+00 0.000000e+00 0.000000e+00 0.000000e+00 0.000000e+00
<ENDHMM>
~h "j"
<BEGINHMM>
<NUMSTATES> 5
<STATE> 2
<MEAN> 39
 6.604681e+00 3.952284e+00 1.240561e+00 -2.779000e+00 7.800171e-01 -5.344223e+00 -7.407420e+00 -3.623827e+00 -6.744179e-01 -4.056880e-01 -2.073387e+00 -3.514381e+00 6.113814e+01 -8.709629e-01 3.812049e-01 8.689506e-01 3.447695e-01 3.233146e-01 7.692746e-01 8.366807e-01 1.980999e-01 -1.232317e-01 -1.564876e-01 -5.356278e-01 -2.215010e-01 -6.559706e-01 -2.055763e-01 -9.784540e-02 1.199109e-01 1.273703e-03 -9.446011e-02 8.464706e-02 2.417466e-01 1.133282e-01 -1.916107e-01 -1.767485e-01 8.442976e-03 1.493503e-01 -1.031122e-01
<VARIANCE> 39
 6.616618e+01 6.962567e+01 7.463875e+01 5.318312e+01 5.689129e+01 3.992188e+01 5.811480e+01 4.436102e+01 3.653963e+01 3.266147e+01 3.260611e+01 1.598535e+01 2.202327e+01 2.444307e+00 2.436475e+00 3.437767e+00 2.739908e+00 2.841953e+00 2.596713e+00 3.926935e+00 2.135543e+00 2.016797e+00 1.878904e+00 1.660066e+00 1.161382e+00 1.192268e+00 2.749696e-01 4.096006e-01 4.116105e-01 3.930846e-01 3.050401e-01 3.292765e-01 3.826573e-01 3.931240e-01 4.122236e-01 2.795412e-01 3.830928e-01 2.391284e-01 1.406550e-01
<GCONST> 1.160216e+02
<STATE> 3
<MEAN> 39
 1.746687e+00 5.817707e+00 7.517748e+00 -1.846780e-01 1.979139e+00 7.414341e-03 -7.545416e-01 -2.156214e+00 -3.576710e+00 -2.834927e+00 -3.005318e+00 -3.122199e+00 5.784908e+01 -9.903803e-01 -4.982269e-01 -8.853734e-02 -1.799600e-01 -1.011510e-01 2.048134e-01 6.570842e-01 4.437195e-01 -2.113335e-01 -2.936276e-01 -1.783952e-01 2.704594e-01 -5.810877e-01 1.408816e-01 -1.795584e-01 -3.171627e-01 -1.339158e-01 -1.574324e-01 -3.214316e-01 -3.423167e-01 -1.959579e-02 1.055631e-01 1.927866e-02 1.711950e-02 2.438579e-02 1.137773e-01
<VARIANCE> 39
 5.780460e+01 5.488319e+01 7.564412e+01 5.078494e+01 3.711832e+01 3.298315e+01 2.908121e+01 2.912422e+01 2.789853e+01 2.231254e+01 1.709795e+01 1.511769e+01 2.127284e+01 1.484816e+00 1.962946e+00 2.870101e+00 2.329255e+00 1.991971e+00 1.729727e+00 1.841136e+00 1.575552e+00 1.364008e+00 1.318816e+00 1.365105e+00 1.090748e+00 5.106740e-01 1.783810e-01 1.907595e-01 3.245916e-01 2.798857e-01 2.972934e-01 2.818584e-01 2.913078e-01 3.098632e-01 3.319034e-01 2.304002e-01 2.517330e-01 1.996493e-01 9.992323e-02
<GCONST> 1.039475e+02
<STATE> 4
<MEAN> 39
 2.366574e+00 1.155268e+00 -1.939683e+00 -5.703762e+00 -1.909718e+00 -1.263019e+00 -2.503196e+00 -1.028877e+00 -2.435727e+00 -3.891285e+00 -3.988784e+00 -1.300323e+00 5.897842e+01 -2.419140e-01 -1.269846e-01 -6.137487e-02 -3.266439e-02 -1.298471e-01 -6.062204e-02 -2.368559e-02 4.233789e-02 -2.275391e-02 -8.024277e-02 -8.268698e-02 6.358374e-03 -1.875534e-01 8.540683e-02 1.161009e-02 6.277110e-02 1.126607e-01 8.106878e-03 -6.306580e-02 -1.298548e-01 -1.543718e-01 -4.373628e-02 8.004312e-02 1.063129e-01 -1.125938e-02 6.123755e-02
<VARIANCE> 39
 1.472608e+02 4.899265e+01 8.463914e+01 3.598010e+01 2.866059e+01 3.471785e+01 3.508560e+01 2.609325e+01 2.511849e+01 2.065422e+01 2.190992e+01 1.610155e+01 6.511687e+01 3.035436e-01 5.666795e-01 6.922613e-01 8.888901e-01 9.930514e-01 6.458157e-01 1.019125e+00 1.182992e+00 8.158414e-01 1.004711e+00 8.319063e-01 7.168317e-01 1.278768e-01 9.506729e-02 1.010840e-01 1.218115e-01 1.500200e-01 1.780215e-01 1.489059e-01 1.676551e-01 1.964790e-01 1.670777e-01 1.490082e-01 1.636977e-01 1.093430e-01 4.649417e-02
<GCONST> 8.684774e+01
<TRANSP> 5
 0.000000e+00 1.000000e+00 0.000000e+00 0.000000e+00 0.000000e+00
 0.000000e+00 4.850698e-01 5.149302e-01 0.000000e+00 0.000000e+00
 0.000000e+00 0.000000e+00 6.120223e-01 3.879777e-01 0.000000e+00
 0.000000e+00 0.000000e+00 0.000000e+00 7.648696e-01 2.351304e-01
 0.000000e+00 0.000000e+00 0.000000e+00 0.000000e+00 0.000000e+00
<ENDHMM>
~h "k"
<BEGINHMM>
<NUMSTATES> 5
<STATE> 2
<MEAN> 39
 8.476771e+00 -5.385196e-01 -3.505091e+00 -8.443547e-01 3.053866e+00 -7.204761e+00 -1.096904e+01 -5.729591e+00 -3.164767e+00 -1.468834e+00 -2.421510e-01 -1.145733e+00 6.299092e+01 4.874182e-01 -3.625149e-01 -5.775560e-01 3.249890e-01 6.975928e-01 -3.831769e-01 -9.036264e-01 -4.488121e-01 3.239050e-01 7.950078e-01 4.204861e-01 -2.334699e-01 4.204593e-01 -3.176374e-01 8.764932e-02 3.562061e-01 3.332525e-02 -1.364482e-01 1.172323e-01 2.999287e-01 1.479995e-01 1.754724e-02 -1.080771e-02 -1.309272e-01 -1.346590e-01 -2.091993e-01
<VARIANCE> 39
 8.771144e+01 5.409070e+01 8.022593e+01 8.481856e+01 5.142787e+01 6.730476e+01 7.823216e+01 6.187522e+01 2.886414e+01 2.920123e+01 2.578576e+01 2.412863e+01 4.977259e+01 2.320901e+00 2.108031e+00 3.243697e+00 2.570195e+00 2.068029e+00 3.298529e+00 4.369939e+00 2.887165e+00 1.977926e+00 2.599778e+00 1.361017e+00 1.558812e+00 1.292015e+00 3.786200e-01 3.847995e-01 4.949243e-01 4.439683e-01 3.637130e-01 5.104775e-01 5.487006e-01 4.519254e-01 3.010393e-01 3.259648e-01 2.720104e-01 2.408825e-01 1.657631e-01
<GCONST> 1.201245e+02
<STATE> 3
<MEAN> 39
 1.027242e+01 -2.161779e+00 -3.562805e+00 2.049875e+00 5.451008e+00 -1.082860e+01 -1.505420e+01 -6.163647e+00 -2.546450e+00 8.876003e-01 1.324308e+00 -2.662294e+00 6.500500e+01 -3.390011e-01 3.407411e-01 5.564039e-01 1.432957e-01 1.549084e-01 2.868792e-01 9.140457e-02 -5.451904e-02 1.324721e-01 2.005891e-01 -2.093784e-02 -2.732449e-01 -2.835248e-01 -1.457646e-01 1.308141e-01 1.847519e-01 -3.951110e-02 -6.079420e-02 2.092400e-01 2.101611e-01 1.869490e-02 -7.120107e-02 -1.040029e-01 -7.256666e-02 -7.878195e-03 -1.310559e-01
<VARIANCE> 39
 5.988613e+01 3.926505e+01 5.921223e+01 6.309960e+01 3.836819e+01 6.263065e+01 7.418641e+01 5.392014e+01 2.652535e+01 3.046569e+01 2.471250e+01 1.796859e+01 3.760778e+01 5.648381e-01 1.095633e+00 1.625212e+00 1.987811e+00 1.061753e+00 1.782316e+00 1.852824e+00 1.233458e+00 1.320370e+00 1.318101e+00 1.008478e+00 1.137019e+00 4.186093e-01 1.636776e-01 1.814008e-01 2.859233e-01 2.639643e-01 2.181508e-01 3.126530e-01 3.105280e-01 2.788823e-01 1.943904e-01 2.492573e-01 1.724080e-01 1.532948e-01 8.681266e-02
<GCONST> 1.018026e+02
<STATE> 4
<MEAN> 39
 6.453791e+00 2.744763e+00 3.902149e+00 5.253239e+00 7.662508e+00 -6.952582e+00 -1.412523e+01 -7.826912e+00 -7.543669e-01 1.562711e+00 -1.560399e+00 -5.249848e+00 6.144611e+01 -5.861170e-01 4.123293e-01 5.303313e-01 -4.640419e-01 -3.998398e-01 8.349646e-01 1.115718e+00 3.189179e-01 -1.698226e-01 -2.986000e-01 -9.458531e-02 1.368908e-01 -4.685220e-01 -5.836693e-02 -5.169952e-02 -5.374538e-02 -1.602640e-01 -1.909176e-01 4.044578e-02 2.152270e-01 1.063258e-01 -1.049263e-01 -1.483691e-01 1.699283e-02 1.358743e-01 -2.658495e-02
<VARIANCE> 39
 4.513504e+01 3.031318e+01 5.570367e+01 7.832275e+01 4.472120e+01 5.423253e+01 8.945086e+01 5.901374e+01 4.053900e+01 3.746148e+01 2.929430e+01 2.704548e+01 2.533755e+01 1.415885e+00 1.988529e+00 2.497475e+00 3.214523e+00 1.835998e+00 3.327131e+00 4.363092e+00 2.346034e+00 2.202880e+00 2.079232e+00 1.833216e+00 1.830321e+00 7.851866e-01 1.673208e-01 2.765210e-01 3.022677e-01 3.614198e-01 2.985394e-01 4.633296e-01 6.567991e-01 3.801169e-01 3.815613e-01 3.533517e-01 2.667367e-01 2.555872e-01 1.123125e-01
<GCONST> 1.150923e+02
<TRANSP> 5
 0.000000e+00 1.000000e+00 0.000000e+00 0.000000e+00 0.000000e+00
 0.000000e+00 4.055893e-01 5.944108e-01 0.000000e+00 0.000000e+00
 0.000000e+00 0.000000e+00 6.202812e-01 3.797188e-01 0.000000e+00
 0.000000e+00 0.000000e+00 0.000000e+00 6.848415e-01 3.151585e-01
 0.000000e+00 0.000000e+00 0.000000e+00 0.000000e+00 0.000000e+00
<ENDHMM>
~h "l"
<BEGINHMM>
<NUMSTATES> 5
<STATE> 2
<MEAN> 39
 8.474597e-01 -3.598902e+00 3.241579e+00 -3.943965e+00 1.125855e+00 -5.812910e+00 -5.300639e+00 -3.827190e+00 -6.512794e+00 -3.336745e+00 -1.053340e+00 -4.281873e+00 6.190147e+01 7.491732e-01 -3.951222e-02 -5.599450e-01 -4.057621e-01 -2.123546e-01 -3.656738e-01 -2.738562e-01 2.034706e-02 3.620030e-02 3.690404e-02 1.379073e-01 9.016176e-02 5.194858e-01 2.548257e-01 5.407498e-02 -7.702861e-02 7.427613e-02 1.724716e-02 -1.727263e-01 -1.580165e-01 5.562405e-02 6.891818e-02 -6.433612e-03 -2.945438e-04 -6.100036e-03 1.408376e-01
<VARIANCE> 39
 1.193851e+02 7.489732e+01 9.132844e+01 8.639657e+01 5.168425e+01 7.848145e+01 8.364058e+01 8.297119e+01 5.569063e+01 4.508807e+01 3.727707e+01 3.979794e+01 7.276893e+01 9.953731e+00 5.940620e+00 7.180848e+00 6.316960e+00 4.009799e+00 6.243758e+00 7.040005e+00 5.635150e+00 5.081825e+00 3.283421e+00 3.458649e+00 2.749154e+00 4.003345e+00 1.230776e+00 1.007241e+00 1.009876e+00 9.707097e-01 6.055976e-01 1.042768e+00 1.138685e+00 8.636269e-01 9.194762e-01 5.441275e-01 6.505118e-01 4.844804e-01 6.133697e-01
<GCONST> 1.449519e+02
<STATE> 3
<MEAN> 39
 7.851190e+00 3.792711e-01 -2.232146e+00 -3.222756e+00 -1.887759e-01 -8.133740e+00 -9.758696e+00 -4.664372e+00 -3.476498e+00 -2.103099e+00 -1.257910e+00 -2.093773e+00 6.261998e+01 1.409316e+00 -3.714620e-02 -8.213505e-01 4.730109e-02 9.491938e-02 -8.635834e-01 -9.109795e-01 3.798121e-01 7.666290e-01 7.182921e-02 6.461713e-02 1.659880e-01 9.309399e-01 -6.405011e-01 -1.558086e-01 2.966581e-01 1.063056e-01 6.576508e-02 3.175322e-01 3.667256e-01 1.196396e-01 5.173857e-02 -2.263825e-02 -8.765475e-02 7.070843e-04 -3.516172e-01
<VARIANCE> 39
 8.805697e+01 6.440191e+01 8.579070e+01 9.162321e+01 7.287585e+01 7.268768e+01 9.896178e+01 7.479794e+01 4.122130e+01 4.149707e+01 3.195277e+01 2.863752e+01 4.009062e+01 5.984391e+00 5.422950e+00 4.895370e+00 5.473147e+00 4.338658e+00 5.196585e+00 5.546488e+00 4.764307e+00 3.598641e+00 3.043683e+00 2.799030e+00 2.295515e+00 2.866699e+00 7.128361e-01 7.707974e-01 8.352388e-01 6.297605e-01 6.314110e-01 7.368907e-01 8.341224e-01 7.292157e-01 6.360009e-01 4.908982e-01 4.735956e-01 3.012613e-01 2.805342e-01
<GCONST> 1.363080e+02
<STATE> 4
<MEAN> 39
 9.825400e+00 -2.494361e-01 -5.010460e+00 -3.714813e+00 1.796983e+00 -7.140608e+00 -1.081902e+01 -5.544783e+00 -2.823826e+00 -2.002277e+00 -2.028513e-01 -6.204240e-01 6.404386e+01 -3.327628e-01 1.301855e-01 3.169510e-01 -2.260808e-02 -6.960902e-02 2.449007e-01 3.953117e-01 2.563483e-01 2.105511e-01 -1.719826e-02 -8.795166e-02 3.438446e-02 -2.158480e-01 -2.802993e-01 2.023491e-02 2.373957e-01 3.843727e-02 -2.280099e-03 1.909730e-01 1.917101e-01 -1.213790e-02 -7.289878e-02 -1.743800e-02 -6.037336e-02 -6.074332e-02 -1.779708e-01
<VARIANCE> 39
 7.461887e+01 4.967849e+01 7.996204e+01 5.975439e+01 4.849429e+01 4.415403e+01 6.844247e+01 7.195077e+01 3.288431e+01 3.997565e+01 3.240839e+01 2.776177e+01 3.593204e+01 2.514344e+00 2.762954e+00 3.923620e+00 2.603116e+00 2.293061e+00 3.099898e+00 2.648919e+00 2.915117e+00 2.128966e+00 1.687866e+00 1.734690e+00 1.277559e+00 1.353748e+00 4.418761e-01 4.031877e-01 5.242465e-01 3.786913e-01 3.210015e-01 5.019423e-01 4.970368e-01 4.456910e-01 3.404131e-01 2.973197e-01 3.039524e-01 2.505331e-01 1.998913e-01
<GCONST> 1.195979e+02
<TRANSP> 5
 0.000000e+00 1.000000e+00 0.000000e+00 0.000000e+00 0.000000e+00
 0.000000e+00 7.754197e-01 2.245802e-01 0.000000e+00 0.000000e+00
 0.000000e+00 0.000000e+00 3.400971e-01 6.599029e-01 0.000000e+00
 0.000000e+00 0.000000e+00 0.000000e+00 6.371400e-01 3.628600e-01
 0.000000e+00 0.000000e+00 0.000000e+00 0.000000e+00 0.000000e+00
<ENDHMM>
~h "m"
<BEGINHMM>
<NUMSTATES> 5
<STATE> 2
<MEAN> 39
 -1.235851e+00 -1.270758e+00 2.979017e+00 -2.697131e+00 4.225478e-01 -3.332184e+00 -7.619090e+00 -7.126545e+00 -4.564743e+00 -2.293200e+00 -2.090676e+00 -3.879779e+00 5.831874e+01 1.287539e+00 2.618085e-01 -1.140426e-01 7.788795e-01 7.158631e-01 -7.285225e-01 -1.339143e+00 -8.146771e-01 -1.573731e-01 2.485069e-01 7.667363e-02 -3.340355e-01 8.139699e-01 2.422765e-01 6.163224e-02 -2.821770e-02 1.587183e-01 9.394969e-02 -3.470628e-01 -3.575285e-01 4.869360e-02 1.891654e-01 1.179620e-01 -2.125980e-02 -1.208559e-01 1.517116e-01
<VARIANCE> 39
 1.232747e+02 8.271349e+01 6.429607e+01 9.121169e+01 6.909293e+01 6.181135e+01 8.050791e+01 6.208249e+01 4.405791e+01 4.016215e+01 3.011919e+01 2.939357e+01 4.752761e+01 9.470237e+00 8.687202e+00 5.699064e+00 7.022613e+00 5.113381e+00 5.747006e+00 8.232450e+00 4.776880e+00 4.198623e+00 3.775589e+00 3.074468e+00 2.859838e+00 2.999104e+00 1.077547e+00 1.228938e+00 8.632880e-01 9.616821e-01 7.383370e-01 8.365107e-01 1.254219e+00 7.968632e-01 7.810434e-01 6.795990e-01 5.504748e-01 4.892010e-01 4.411893e-01
<GCONST> 1.426218e+02
<STATE> 3
<MEAN> 39
 7.504828e+00 -2.999920e-01 -4.654499e-01 1.038174e+00 3.308949e+00 -8.914749e+00 -1.445105e+01 -7.634963e+00 -4.559238e+00 -1.909161e+00 -1.648312e+00 -4.871742e+00 6.325281e+01 5.024266e-01 -3.259995e-01 -2.279170e-01 7.577482e-01 5.434821e-01 -1.127620e+00 -1.285567e+00 -6.152861e-02 5.868336e-01 6.585395e-01 1.269547e-01 -4.364895e-01 4.715121e-01 -5.953677e-01 -1.208571e-01 1.095179e-01 -2.176968e-01 -2.762080e-01 3.629382e-01 7.216361e-01 3.483035e-01 7.855396e-02 -5.817759e-02 -6.092835e-02 1.335673e-01 -3.786563e-01
<VARIANCE> 39
 7.724829e+01 6.188203e+01 6.978613e+01 1.128109e+02 8.597677e+01 6.346133e+01 1.115638e+02 9.669373e+01 4.080042e+01 5.555068e+01 3.666346e+01 4.508260e+01 4.921635e+01 3.433021e+00 3.278822e+00 3.507019e+00 4.763386e+00 3.104392e+00 5.160758e+00 5.196427e+00 2.865003e+00 2.789660e+00 2.560439e+00 2.760864e+00 2.550034e+00 1.859248e+00 5.901897e-01 8.643954e-01 6.542061e-01 8.420286e-01 6.039252e-01 6.874298e-01 1.008055e+00 6.888029e-01 4.772879e-01 5.065110e-01 5.363168e-01 3.863551e-01 2.573395e-01
<GCONST> 1.344284e+02
<STATE> 4
<MEAN> 39
 7.611591e+00 2.718723e+00 3.645696e+00 5.420559e+00 6.219504e+00 -1.100903e+01 -1.776384e+01 -9.586749e+00 -1.616967e+00 1.259590e+00 -3.181760e+00 -7.584951e+00 6.227569e+01 -4.469600e-01 3.182209e-01 4.730030e-01 -1.048090e-01 -1.490115e-01 5.395413e-01 7.978206e-01 3.328655e-01 5.000450e-02 -1.214907e-01 -3.676910e-02 1.397082e-01 -3.662556e-01 -1.380324e-01 -2.951599e-02 -6.903909e-03 -1.442039e-01 -8.569206e-02 2.113235e-01 2.592234e-01 5.297453e-02 -9.393548e-02 -8.498353e-02 4.195545e-02 1.269350e-01 -8.923253e-02
<VARIANCE> 39
 3.107034e+01 4.299626e+01 6.204046e+01 7.113745e+01 5.240326e+01 5.606780e+01 7.992226e+01 7.033299e+01 3.585457e+01 3.252680e+01 3.279897e+01 3.237639e+01 2.154330e+01 1.078232e+00 1.297399e+00 2.053399e+00 2.429717e+00 1.349765e+00 2.787692e+00 3.429389e+00 1.850069e+00 1.711534e+00 1.446085e+00 1.435101e+00 1.300213e+00 6.335804e-01 1.542088e-01 2.573133e-01 2.820500e-01 3.424640e-01 2.422119e-01 4.117565e-01 5.553609e-01 2.986385e-01 2.766715e-01 2.680039e-01 2.486927e-01 2.314519e-01 7.855252e-02
<GCONST> 1.095089e+02
<TRANSP> 5
 0.000000e+00 1.000000e+00 0.000000e+00 0.000000e+00 0.000000e+00
 0.000000e+00 7.096900e-01 2.903100e-01 0.000000e+00 0.000000e+00
 0.000000e+00 0.000000e+00 3.846096e-01 6.153904e-01 0.000000e+00
 0.000000e+00 0.000000e+00 0.000000e+00 8.292972e-01 1.707027e-01
 0.000000e+00 0.000000e+00 0.000000e+00 0.000000e+00 0.000000e+00
<ENDHMM>
~h "n"
<BEGINHMM>
<NUMSTATES> 5
<STATE> 2
<MEAN> 39
 7.251864e+00 7.667570e-01 -3.208058e+00 -5.240175e+00 -1.236008e+00 -5.665123e+00 -5.329357e+00 -1.559444e+00 -3.320393e+00 -4.005284e+00 -1.266801e+00 -9.453678e-02 6.208333e+01 -1.298440e-01 1.240062e-01 1.454436e-02 -3.608088e-01 -3.303582e-01 7.097326e-02 4.059147e-01 3.898313e-01 3.707248e-02 -2.042568e-01 -3.982269e-02 1.267011e-01 -1.197843e-01 -1.933771e-01 4.812278e-02 2.605297e-01 1.608271e-01 9.036480e-02 1.344009e-01 3.375140e-02 -1.603223e-01 -5.288124e-02 8.843926e-02 -1.596292e-02 -1.111012e-01 -1.275495e-01
<VARIANCE> 39
 9.789999e+01 5.930175e+01 9.455331e+01 5.289666e+01 4.546064e+01 4.362916e+01 5.483036e+01 5.430815e+01 2.957900e+01 3.382721e+01 3.245484e+01 3.294053e+01 5.219786e+01 2.040388e+00 2.506528e+00 3.724013e+00 2.877980e+00 2.521655e+00 2.768126e+00 2.569217e+00 2.393543e+00 2.010977e+00 1.843580e+00 1.526463e+00 1.534685e+00 9.772156e-01 2.926432e-01 3.814159e-01 5.116571e-01 3.458657e-01 2.889510e-01 4.466982e-01 4.249175e-01 3.154535e-01 3.067630e-01 2.831058e-01 2.814148e-01 2.290973e-01 1.383621e-01
<GCONST> 1.170482e+02
<STATE> 3
<MEAN> 39
 4.353490e+00 1.042750e+00 -3.249131e-01 -4.030281e+00 -1.633881e+00 -5.177921e+00 -4.663741e+00 -1.757983e+00 -3.868603e+00 -3.686347e+00 -1.481171e+00 -1.180359e+00 6.008340e+01 -5.386158e-01 3.479315e-01 5.752934e-01 4.911022e-02 -6.017089e-02 3.838534e-01 4.562764e-01 6.184833e-02 5.146665e-02 5.707861e-02 -9.922065e-02 -7.837944e-02 -4.475676e-01 -1.521807e-01 8.391399e-03 1.702473e-01 1.431388e-01 1.198819e-01 1.161891e-01 -8.091893e-03 -1.569705e-01 1.289910e-02 1.197300e-01 -1.662569e-02 -1.072083e-01 -8.956192e-02
<VARIANCE> 39
 1.072469e+02 6.607370e+01 7.435210e+01 5.534236e+01 4.961121e+01 5.099279e+01 5.984787e+01 5.516500e+01 2.965178e+01 3.672421e+01 3.454118e+01 3.136606e+01 5.363774e+01 2.354759e+00 3.547466e+00 4.341271e+00 2.907892e+00 2.752049e+00 3.284721e+00 3.139633e+00 2.840172e+00 2.152539e+00 2.265409e+00 1.717304e+00 1.780310e+00 1.307281e+00 2.619290e-01 6.041288e-01 5.689483e-01 4.220847e-01 3.551601e-01 4.779965e-01 4.894699e-01 3.653156e-01 3.496658e-01 3.781068e-01 3.241901e-01 3.042826e-01 1.487675e-01
<GCONST> 1.217745e+02
<STATE> 4
<MEAN> 39
 3.906163e+00 2.658755e+00 3.502660e+00 -3.603632e+00 -2.965596e+00 -5.413405e+00 -3.504225e+00 -1.553273e+00 -4.669546e+00 -4.211992e+00 -2.162304e+00 -3.019613e+00 5.990958e+01 -4.714854e-01 -8.644888e-02 3.056540e-01 2.057130e-01 1.844691e-01 2.733645e-01 1.653276e-01 -1.766756e-01 -4.233689e-02 1.019222e-01 -1.666654e-02 -5.210061e-02 -2.581727e-01 1.134453e-02 -1.082874e-01 -1.183597e-01 -2.189377e-02 4.401926e-02 -4.590198e-02 -7.868847e-02 2.362784e-04 2.331208e-02 -1.049838e-02 -4.436309e-03 2.978978e-02 3.756513e-02
<VARIANCE> 39
 7.135944e+01 7.165641e+01 5.932757e+01 5.634584e+01 6.834813e+01 7.008691e+01 6.793403e+01 7.130650e+01 4.504902e+01 4.285068e+01 3.967329e+01 2.729931e+01 3.000769e+01 3.023998e+00 4.179097e+00 4.032944e+00 3.480596e+00 3.370715e+00 4.090408e+00 3.673726e+00 3.260603e+00 2.613091e+00 2.767107e+00 2.150274e+00 1.833603e+00 1.219036e+00 3.638362e-01 5.922130e-01 5.191498e-01 5.414206e-01 5.905699e-01 6.378268e-01 5.392724e-01 5.175242e-01 4.512329e-01 4.919475e-01 3.554610e-01 3.104778e-01 1.629365e-01
<GCONST> 1.264991e+02
<TRANSP> 5
 0.000000e+00 1.000000e+00 0.000000e+00 0.000000e+00 0.000000e+00
 0.000000e+00 3.953530e-01 6.046470e-01 0.000000e+00 0.000000e+00
 0.000000e+00 0.000000e+00 1.492052e-01 8.507948e-01 0.000000e+00
 0.000000e+00 0.000000e+00 0.000000e+00 7.014154e-01 2.985846e-01
 0.000000e+00 0.000000e+00 0.000000e+00 0.000000e+00 0.000000e+00
<ENDHMM>
~h "o"
<BEGINHMM>
<NUMSTATES> 5
<STATE> 2
<MEAN> 39
 7.119626e+00 1.473053e+00 -1.233604e+00 -4.038169e+00 -4.838166e-01 -6.333630e+00 -6.671542e+00 -1.590025e+00 -3.199544e+00 -3.084861e+00 -6.683406e-01 -1.367126e+00 6.198275e+01 -6.062245e-01 1.784435e-01 5.829158e-01 4.907493e-03 -2.043315e-01 4.443918e-01 9.212046e-01 5.335408e-01 -7.609624e-02 -4.105081e-01 -2.580775e-01 1.766547e-02 -4.167853e-01 -1.228637e-01 2.643590e-02 1.383179e-01 6.529049e-02 1.697067e-02 4.169413e-02 -1.059831e-02 -8.863008e-02 -6.159446e-02 -2.817735e-03 -5.148299e-02 -6.602567e-02 -8.480400e-02
<VARIANCE> 39
 8.581138e+01 5.615495e+01 9.375394e+01 6.439967e+01 6.209280e+01 6.091320e+01 6.299674e+01 1.046938e+02 3.784443e+01 5.884465e+01 3.496668e+01 3.192780e+01 4.590328e+01 1.351915e+00 2.074963e+00 2.320016e+00 1.919617e+00 2.328411e+00 2.564170e+00 2.757035e+00 2.594344e+00 1.872658e+00 1.920645e+00 1.555149e+00 1.321213e+00 7.244674e-01 1.663665e-01 2.787656e-01 3.517931e-01 3.156467e-01 3.274501e-01 4.109222e-01 3.869323e-01 3.519852e-01 2.984635e-01 2.796293e-01 2.607478e-01 2.295090e-01 9.522288e-02
<GCONST> 1.154864e+02
<STATE> 3
<MEAN> 39
 2.466108e+00 -6.708403e-01 6.402491e-01 -3.510467e+00 -2.608239e+00 -4.793406e+00 -2.458241e+00 -5.145515e-01 -3.815936e+00 -4.156773e+00 -1.274870e+00 -9.701357e-01 5.957514e+01 -5.509135e-01 1.097108e-01 5.065019e-01 2.340814e-01 7.631111e-02 2.182894e-01 2.573625e-01 1.009955e-01 -1.438341e-01 -1.158468e-01 -7.892017e-02 -9.089576e-02 -3.896623e-01 3.120892e-02 -2.986388e-02 -6.245987e-02 4.189982e-02 8.378670e-02 -3.222279e-02 -1.380431e-01 -1.238935e-01 -9.071132e-03 9.256150e-02 3.551193e-02 -1.645306e-02 1.647938e-02
<VARIANCE> 39
 1.026168e+02 1.333939e+02 9.993892e+01 6.888935e+01 6.162540e+01 6.415147e+01 5.164283e+01 4.836236e+01 3.610782e+01 3.465623e+01 2.792347e+01 3.283723e+01 3.798085e+01 1.320135e+00 2.104525e+00 2.137107e+00 1.764803e+00 1.687422e+00 1.909951e+00 2.093270e+00 1.826058e+00 1.664102e+00 1.498439e+00 1.336861e+00 1.205890e+00 7.075868e-01 1.715434e-01 3.077756e-01 3.191134e-01 2.974565e-01 2.798062e-01 3.453488e-01 3.628612e-01 3.129113e-01 3.104590e-01 2.470419e-01 2.367608e-01 2.005360e-01 9.144736e-02
<GCONST> 1.118241e+02
<STATE> 4
<MEAN> 39
 6.230698e-01 3.668288e+00 5.651988e+00 -9.301745e-01 -6.023543e-01 -2.721955e+00 -2.466100e+00 -1.553748e+00 -2.876048e+00 -2.739805e+00 -2.502163e+00 -2.957888e+00 5.735902e+01 -7.041271e-01 -3.568016e-01 8.670689e-02 8.244496e-02 1.309900e-01 2.307332e-01 1.053704e-01 -1.055505e-01 -9.533115e-02 8.487386e-02 2.876804e-02 3.004068e-02 -3.724774e-01 1.242132e-01 -1.615677e-01 -2.482400e-01 -1.426546e-01 -8.583406e-02 -1.216195e-01 -1.332127e-01 -8.944867e-02 -1.774522e-03 7.310879e-02 6.310076e-02 4.577290e-02 1.234800e-01
<VARIANCE> 39
 7.772498e+01 6.643963e+01 5.770538e+01 6.300117e+01 6.053806e+01 5.914452e+01 4.966108e+01 4.435244e+01 3.048730e+01 2.831990e+01 2.136500e+01 1.893503e+01 3.235191e+01 2.248441e+00 2.691695e+00 2.650781e+00 2.677682e+00 2.584651e+00 2.465282e+00 2.524441e+00 2.035065e+00 1.905255e+00 1.630715e+00 1.438624e+00 1.213562e+00 8.277667e-01 3.288198e-01 4.175811e-01 4.240561e-01 4.209191e-01 4.284764e-01 4.509643e-01 5.072716e-01 3.935691e-01 3.824387e-01 3.494652e-01 2.662131e-01 2.047509e-01 1.460554e-01
<GCONST> 1.154871e+02
<TRANSP> 5
 0.000000e+00 1.000000e+00 0.000000e+00 0.000000e+00 0.000000e+00
 0.000000e+00 4.910333e-01 5.089667e-01 0.000000e+00 0.000000e+00
 0.000000e+00 0.000000e+00 5.215374e-01 4.784626e-01 0.000000e+00
 0.000000e+00 0.000000e+00 0.000000e+00 5.433077e-01 4.566922e-01
 0.000000e+00 0.000000e+00 0.000000e+00 0.000000e+00 0.000000e+00
<ENDHMM>
~h "p"
<BEGINHMM>
<NUMSTATES> 5
<STATE> 2
<MEAN> 39
 -3.988312e+00 -3.918650e-01 4.850199e+00 -1.353006e+00 -4.647073e-01 -1.561081e+00 -3.282739e+00 -4.680987e+00 -4.368966e+00 -1.324553e+00 -2.363854e+00 -3.140644e+00 5.503009e+01 -2.914089e-01 -5.863531e-01 -4.551636e-01 -3.158111e-01 -3.624698e-01 1.853099e-01 2.121790e-01 -6.205595e-02 -1.245975e-01 7.316099e-02 1.227831e-01 7.385125e-02 -9.989212e-02 6.022338e-01 -1.281540e-01 -2.276024e-01 -1.809797e-01 -1.651359e-01 -3.913284e-01 -3.124212e-01 -1.195942e-01 -2.152389e-02 -6.142706e-02 4.683808e-02 1.443480e-02 5.322216e-01
<VARIANCE> 39
 8.061820e+01 7.539658e+01 5.860109e+01 4.999537e+01 4.478438e+01 2.771928e+01 3.466061e+01 3.267621e+01 2.334152e+01 2.695435e+01 1.798041e+01 1.715086e+01 3.712815e+01 4.904953e+00 6.124106e+00 5.012583e+00 4.105302e+00 4.172975e+00 3.482273e+00 3.866541e+00 3.159767e+00 2.849645e+00 2.838649e+00 2.317034e+00 2.013083e+00 2.196481e+00 6.601694e-01 9.368270e-01 6.292242e-01 8.482428e-01 6.242213e-01 5.485758e-01 5.907201e-01 6.576162e-01 5.448822e-01 4.577139e-01 3.457827e-01 3.218401e-01 4.383396e-01
<GCONST> 1.268072e+02
<STATE> 3
<MEAN> 39
 -1.463328e+00 -4.718544e-01 2.571764e+00 -2.185237e+00 -1.504083e+00 -3.841740e+00 -5.463098e+00 -5.873603e+00 -3.712917e+00 -5.858594e-01 -2.089267e+00 -3.018824e+00 5.645525e+01 2.159968e+00 3.446594e-02 -4.156210e-01 -4.026753e-01 -5.445306e-01 -1.305257e+00 -1.074552e+00 -4.758544e-01 -1.602574e-01 -2.543786e-01 3.351344e-02 -1.561261e-01 1.724110e+00 2.514927e-01 6.573214e-02 1.413779e-02 -4.532648e-02 3.008245e-02 -3.704990e-01 -3.006326e-01 1.475607e-01 3.007419e-02 -2.262767e-01 -4.607718e-02 -1.053639e-02 2.299108e-01
<VARIANCE> 39
 8.548766e+01 8.045346e+01 5.307790e+01 7.693401e+01 8.294633e+01 6.154296e+01 6.302429e+01 5.592906e+01 2.712512e+01 3.118910e+01 2.236468e+01 2.099442e+01 4.238169e+01 9.471964e+00 1.154947e+01 6.492261e+00 7.132983e+00 6.869051e+00 6.321615e+00 9.001312e+00 6.650472e+00 4.767904e+00 4.553821e+00 3.354501e+00 2.340189e+00 4.285541e+00 8.400438e-01 1.139792e+00 8.391364e-01 8.868551e-01 1.026914e+00 1.082360e+00 1.154264e+00 9.019177e-01 5.755075e-01 6.837969e-01 4.343876e-01 3.356746e-01 4.938377e-01
<GCONST> 1.414030e+02
<STATE> 4
<MEAN> 39
 5.088334e+00 -4.779975e+00 1.206498e+00 -4.290525e+00 7.287532e-01 -9.416759e+00 -7.012349e+00 -1.274168e+00 -6.386715e+00 -4.326330e+00 -5.436003e-03 -4.440635e+00 6.567161e+01 2.212918e-01 -4.939106e-03 -1.159605e-01 -9.043166e-02 2.112668e-02 -1.462844e-01 -7.228900e-02 1.773594e-01 -4.058101e-02 -1.391237e-01 5.637566e-03 5.803308e-02 1.651129e-01 -1.450675e-01 5.591775e-02 6.858856e-02 3.069529e-02 3.280495e-02 1.087470e-01 7.213791e-02 3.845296e-02 4.710836e-02 5.102414e-02 -3.205000e-02 -3.326491e-03 -1.419097e-01
<VARIANCE> 39
 1.418082e+02 8.197854e+01 1.023894e+02 8.964340e+01 9.568351e+01 7.781210e+01 9.845273e+01 1.066471e+02 7.324614e+01 6.464354e+01 5.366159e+01 4.719055e+01 4.219377e+01 7.050740e+00 6.164853e+00 5.326370e+00 5.491035e+00 5.271088e+00 6.798795e+00 5.891171e+00 6.034439e+00 5.530687e+00 4.289350e+00 3.454119e+00 3.113327e+00 3.258381e+00 8.821900e-01 1.162014e+00 8.106380e-01 9.369017e-01 9.111276e-01 1.149599e+00 1.024023e+00 1.055859e+00 9.682487e-01 7.690344e-01 6.400463e-01 5.828173e-01 5.731538e-01
<GCONST> 1.474362e+02
<TRANSP> 5
 0.000000e+00 1.000000e+00 0.000000e+00 0.000000e+00 0.000000e+00
 0.000000e+00 5.080889e-01 4.919111e-01 0.000000e+00 0.000000e+00
 0.000000e+00 0.000000e+00 4.827197e-01 5.172803e-01 0.000000e+00
 0.000000e+00 0.000000e+00 0.000000e+00 8.767175e-01 1.232825e-01
 0.000000e+00 0.000000e+00 0.000000e+00 0.000000e+00 0.000000e+00
<ENDHMM>
~h "r"
<BEGINHMM>
<NUMSTATES> 5
<STATE> 2
<MEAN> 39
 8.334366e+00 3.298957e+00 -3.302276e-02 -4.865013e+00 -4.455902e+00 -1.037544e+01 -6.898031e+00 -1.509349e-01 -2.516822e+00 -4.507903e+00 -3.624304e+00 -4.191683e+00 6.237128e+01 -2.498308e-01 2.614294e-01 3.270849e-01 -2.545149e-01 -2.929478e-01 8.648413e-02 2.224216e-01 2.156862e-01 2.157385e-01 6.554880e-02 -8.875714e-02 -1.190479e-01 -2.124113e-01 -1.055103e-01 -4.256332e-02 7.581393e-02 1.546314e-01 1.499527e-01 2.003055e-01 8.005298e-02 -1.306562e-01 -9.357187e-02 5.868952e-02 6.259406e-02 4.543768e-02 -7.440178e-02
<VARIANCE> 39
 6.718654e+01 7.979473e+01 8.109225e+01 8.778900e+01 1.132348e+02 6.566402e+01 5.928518e+01 5.299669e+01 4.523538e+01 3.897845e+01 4.333495e+01 3.221756e+01 3.339674e+01 8.984969e-01 1.447928e+00 1.821667e+00 1.782795e+00 2.072695e+00 2.377420e+00 1.886066e+00 2.026681e+00 1.478677e+00 1.602855e+00 1.467977e+00 1.145311e+00 5.621730e-01 1.445744e-01 2.547160e-01 2.814563e-01 2.811779e-01 3.249094e-01 3.852406e-01 3.391521e-01 3.220511e-01 2.369239e-01 2.690435e-01 2.570577e-01 2.059651e-01 8.894047e-02
<GCONST> 1.112677e+02
<STATE> 3
<MEAN> 39
 3.880199e+00 4.370590e+00 4.343189e+00 -2.871676e+00 -2.209527e+00 -6.810620e+00 -5.376841e+00 -2.001512e+00 -2.693234e+00 -3.111109e+00 -3.472173e+00 -4.051066e+00 5.938794e+01 -4.815746e-01 -7.222277e-02 2.470900e-01 2.389302e-01 2.895249e-01 5.344298e-01 3.367022e-01 -1.019855e-01 -7.547297e-02 6.200737e-02 2.848542e-02 6.937316e-02 -3.214150e-01 -1.482851e-02 -8.679478e-02 -6.239824e-02 1.199205e-01 1.220037e-01 1.057280e-01 1.246014e-02 -8.491695e-02 -5.891185e-02 4.444937e-02 5.765102e-02 5.747984e-02 -1.205642e-02
<VARIANCE> 39
 8.446413e+01 8.713256e+01 7.285180e+01 8.982224e+01 8.584435e+01 5.935452e+01 6.254929e+01 4.573408e+01 3.789590e+01 3.094396e+01 3.047642e+01 2.806731e+01 3.376561e+01 9.131185e-01 1.106436e+00 1.547099e+00 1.574478e+00 1.603343e+00 2.017519e+00 1.658165e+00 1.580411e+00 1.381780e+00 1.337135e+00 1.261613e+00 9.932861e-01 4.101657e-01 1.574256e-01 1.988352e-01 1.977354e-01 2.434139e-01 2.694713e-01 3.414371e-01 3.269446e-01 2.676080e-01 2.325872e-01 2.213333e-01 2.327529e-01 1.836738e-01 8.056328e-02
<GCONST> 1.062287e+02
<STATE> 4
<MEAN> 39
 2.179359e+00 1.591697e+00 2.760478e+00 -2.868987e+00 -8.840698e-01 -5.244569e+00 -5.526051e+00 -3.683013e+00 -2.888895e+00 -1.756393e+00 -2.330087e+00 -3.295215e+00 5.899194e+01 -7.035439e-01 -3.258580e-01 4.181524e-02 1.592615e-01 3.353754e-01 5.929000e-01 3.836990e-01 -2.313439e-01 -1.596050e-01 6.377899e-02 1.188078e-01 2.478311e-01 -4.051524e-01 4.497838e-02 -4.893632e-02 -1.018218e-01 -1.634285e-02 -4.836180e-02 -5.934877e-02 -6.555556e-02 -2.909789e-02 -4.053462e-03 -1.160032e-02 1.928505e-02 3.388652e-02 2.355437e-02
<VARIANCE> 39
 1.036088e+02 8.481843e+01 7.838733e+01 7.079303e+01 6.331808e+01 4.640285e+01 8.093136e+01 5.437932e+01 3.756847e+01 3.617683e+01 2.939348e+01 2.748822e+01 4.022363e+01 2.632567e+00 2.595983e+00 2.657023e+00 2.438810e+00 2.840648e+00 2.643474e+00 3.350695e+00 2.305125e+00 1.991023e+00 1.784041e+00 1.461480e+00 1.298135e+00 9.793747e-01 3.891027e-01 4.093760e-01 3.815506e-01 4.071305e-01 4.171437e-01 4.795532e-01 5.755847e-01 3.826600e-01 3.203890e-01 3.219836e-01 2.799630e-01 2.397933e-01 1.710571e-01
<GCONST> 1.195369e+02
<TRANSP> 5
 0.000000e+00 1.000000e+00 0.000000e+00 0.000000e+00 0.000000e+00
 0.000000e+00 5.570592e-01 4.429409e-01 0.000000e+00 0.000000e+00
 0.000000e+00 0.000000e+00 4.724329e-01 5.275671e-01 0.000000e+00
 0.000000e+00 0.000000e+00 0.000000e+00 3.922615e-01 6.077385e-01
 0.000000e+00 0.000000e+00 0.000000e+00 0.000000e+00 0.000000e+00
<ENDHMM>
~h "s"
<BEGINHMM>
<NUMSTATES> 5
<STATE> 2
<MEAN> 39
 -2.390886e+00 -1.063356e+00 5.307497e+00 -2.835253e-01 5.407203e-02 -9.710090e-01 -2.576177e+00 -4.564980e+00 -4.525329e+00 -8.450878e-01 -1.103854e+00 -3.021475e+00 5.665011e+01 -7.145966e-01 -1.041540e+00 1.612717e-01 -3.689427e-01 -6.398911e-01 1.382524e-01 4.286177e-01 -5.154371e-02 -1.987840e-01 2.140991e-01 4.380887e-02 -9.293014e-02 -1.443356e-02 3.145132e-01 -1.324884e-01 -2.334631e-01 -2.180657e-01 -8.181629e-02 -3.943250e-01 -3.370458e-01 -5.918029e-02 6.132700e-03 -3.978517e-02 -1.297143e-02 -8.276690e-03 3.199673e-01
<VARIANCE> 39
 7.497242e+01 7.416573e+01 6.231447e+01 5.499675e+01 6.050528e+01 4.431273e+01 6.430033e+01 4.248743e+01 3.367472e+01 3.422055e+01 2.634307e+01 1.898033e+01 3.595760e+01 5.518545e+00 6.293725e+00 6.025486e+00 4.784436e+00 4.455945e+00 4.509286e+00 4.925826e+00 3.049327e+00 3.255052e+00 2.913805e+00 2.593536e+00 2.060896e+00 1.964170e+00 6.847723e-01 9.570215e-01 7.397286e-01 7.866053e-01 7.842242e-01 7.522619e-01 7.900974e-01 5.251404e-01 5.028530e-01 5.228035e-01 4.017287e-01 3.581423e-01 3.757565e-01
<GCONST> 1.316880e+02
<STATE> 3
<MEAN> 39
 -1.802237e+00 -6.338137e+00 4.483261e+00 -4.598642e+00 -2.318417e-01 -5.902992e+00 -5.365860e+00 -4.733153e+00 -4.770070e+00 -1.394127e+00 -1.108543e+00 -3.513217e+00 6.187158e+01 8.516780e-01 8.236045e-02 -5.562973e-01 -3.072101e-01 2.333449e-02 -6.700430e-01 -5.234364e-01 2.594285e-02 5.672983e-02 -2.354799e-01 -1.139921e-01 7.436217e-02 6.161911e-01 9.608739e-02 1.869736e-01 -1.110493e-01 6.046038e-02 4.334613e-02 -4.236927e-02 -5.708011e-02 1.120142e-01 8.897330e-02 -6.818230e-02 -3.712602e-03 4.593398e-02 -6.342494e-02
<VARIANCE> 39
 1.304539e+02 1.017509e+02 1.243652e+02 1.093965e+02 7.811053e+01 8.528323e+01 8.743845e+01 6.265231e+01 5.753576e+01 4.492822e+01 3.902164e+01 3.122677e+01 5.636824e+01 1.210990e+01 9.059216e+00 8.310449e+00 8.071390e+00 4.545014e+00 6.998163e+00 6.821560e+00 5.525517e+00 4.973273e+00 4.038428e+00 3.434320e+00 2.902062e+00 4.690844e+00 1.302864e+00 1.393283e+00 1.212895e+00 1.248188e+00 7.680164e-01 1.313502e+00 1.032100e+00 9.066852e-01 8.676629e-01 7.076759e-01 6.662458e-01 5.201374e-01 6.838988e-01
<GCONST> 1.489599e+02
<STATE> 4
<MEAN> 39
 4.974751e+00 -7.916100e-02 3.527651e-01 -3.058169e+00 -3.003365e-02 -6.678556e+00 -7.352914e+00 -2.933163e+00 -3.329103e+00 -2.629151e+00 -1.180708e+00 -2.352136e+00 6.159007e+01 3.275208e-02 3.620036e-02 -3.207946e-01 -1.588183e-01 -5.646731e-02 -9.449364e-02 -2.779873e-02 2.438875e-01 2.326037e-01 -5.617418e-02 4.571130e-02 1.512685e-01 -5.695719e-02 -2.053723e-01 -2.653590e-02 1.287775e-01 4.194617e-02 1.630197e-02 1.585289e-01 1.354747e-01 -6.150246e-02 -4.596935e-02 3.492546e-02 -1.839763e-04 -2.368292e-02 -1.289608e-01
<VARIANCE> 39
 1.078049e+02 7.669143e+01 8.440993e+01 8.075996e+01 7.298382e+01 6.127816e+01 9.154171e+01 7.591455e+01 4.164995e+01 4.251130e+01 3.269987e+01 3.643092e+01 4.585555e+01 3.763612e+00 3.269012e+00 4.681377e+00 3.598091e+00 3.132297e+00 3.545246e+00 4.126181e+00 3.490195e+00 2.403405e+00 2.357350e+00 2.151418e+00 1.966862e+00 1.701749e+00 5.978758e-01 5.780175e-01 6.587504e-01 6.053315e-01 4.838838e-01 6.086873e-01 7.616940e-01 5.662125e-01 4.243805e-01 4.527143e-01 4.183941e-01 3.502532e-01 2.399597e-01
<GCONST> 1.302385e+02
<TRANSP> 5
 0.000000e+00 1.000000e+00 0.000000e+00 0.000000e+00 0.000000e+00
 0.000000e+00 5.568058e-01 4.431942e-01 0.000000e+00 0.000000e+00
 0.000000e+00 0.000000e+00 7.246197e-01 2.753803e-01 0.000000e+00
 0.000000e+00 0.000000e+00 0.000000e+00 6.094327e-01 3.905673e-01
 0.000000e+00 0.000000e+00 0.000000e+00 0.000000e+00 0.000000e+00
<ENDHMM>
~h "t"
<BEGINHMM>
<NUMSTATES> 5
<STATE> 2
<MEAN> 39
 6.918106e+00 1.421155e+00 3.544244e-01 -2.905594e+00 -1.640328e+00 -6.708740e+00 -5.345692e+00 -2.612789e-01 -4.390820e+00 -4.368007e+00 -1.401798e+00 -1.943205e+00 6.182077e+01 -2.922040e-01 3.025545e-01 2.441805e-01 -1.234488e-01 -2.214524e-01 1.969855e-01 3.846452e-01 2.560979e-01 2.378188e-01 -6.940152e-02 -7.983486e-02 -4.601178e-02 -2.796514e-01 -1.565180e-01 -3.875280e-02 6.405471e-02 1.487289e-01 1.791913e-01 1.421657e-01 2.757132e-03 -1.594756e-01 -6.463374e-02 4.921036e-02 4.370555e-02 -4.452999e-02 -9.956844e-02
<VARIANCE> 39
 8.172124e+01 9.114796e+01 8.138373e+01 6.816767e+01 6.460852e+01 6.765260e+01 6.942516e+01 7.242804e+01 4.357124e+01 4.475640e+01 3.991471e+01 3.837455e+01 4.453132e+01 1.120616e+00 1.397965e+00 2.260036e+00 1.810585e+00 2.204821e+00 2.769936e+00 2.266503e+00 2.396399e+00 1.799415e+00 1.717313e+00 1.711037e+00 1.345089e+00 6.216152e-01 1.822732e-01 3.587376e-01 3.405942e-01 2.813819e-01 3.305752e-01 4.676022e-01 4.656451e-01 3.839192e-01 3.410486e-01 3.027719e-01 3.263531e-01 2.614321e-01 1.012858e-01
<GCONST> 1.159887e+02
<STATE> 3
<MEAN> 39
 6.146668e+00 2.385082e+00 9.528748e-01 -3.799483e+00 -2.683147e+00 -6.180433e+00 -3.890315e+00 -2.974681e-01 -3.005692e+00 -4.088868e+00 -2.408457e+00 -1.818137e+00 6.117622e+01 -4.953796e-01 2.787789e-01 4.765752e-01 2.506472e-01 2.423130e-01 4.906491e-01 3.433551e-01 -1.148000e-01 1.163159e-02 3.512361e-02 -6.722605e-02 -1.158327e-01 -4.004685e-01 -4.986223e-02 -5.887230e-02 1.685739e-03 1.240119e-01 1.662834e-01 7.925271e-02 -3.770664e-02 -1.132328e-01 -8.150057e-02 -2.967305e-03 5.695369e-03 -1.849332e-02 -2.474482e-02
<VARIANCE> 39
 8.507276e+01 9.532061e+01 9.162898e+01 7.456464e+01 5.932355e+01 6.719019e+01 5.837836e+01 6.454874e+01 4.007088e+01 3.982179e+01 3.617905e+01 3.269933e+01 3.635606e+01 7.338627e-01 1.121494e+00 1.985006e+00 1.472281e+00 1.647053e+00 1.963778e+00 1.727628e+00 1.896279e+00 1.134323e+00 1.274844e+00 9.985819e-01 9.398608e-01 3.825462e-01 1.000219e-01 1.859024e-01 2.501062e-01 2.129180e-01 2.594406e-01 3.543532e-01 3.397700e-01 2.781172e-01 2.536779e-01 2.485011e-01 2.231194e-01 2.187022e-01 4.791404e-02
<GCONST> 1.061733e+02
<STATE> 4
<MEAN> 39
 2.623487e+00 4.669141e+00 4.670078e+00 -2.541398e+00 2.124357e-01 -2.722026e+00 -3.533304e+00 -2.509619e+00 -3.376432e+00 -3.197744e+00 -2.692506e+00 -2.376224e+00 5.835490e+01 -4.152953e-01 -8.705655e-02 2.236259e-01 3.165874e-01 2.596088e-01 1.733963e-01 5.034699e-02 -6.855740e-02 -1.788120e-02 1.088576e-02 -6.859154e-02 -1.034338e-01 -2.541862e-01 3.437772e-02 -9.139378e-02 -1.004396e-01 -2.132402e-02 -7.857935e-03 -4.732038e-02 -4.002898e-02 -1.392667e-02 4.798789e-03 4.246020e-02 2.651131e-02 4.419569e-03 4.057493e-02
<VARIANCE> 39
 6.126867e+01 6.379567e+01 7.083889e+01 7.103428e+01 5.300595e+01 4.161767e+01 4.727681e+01 3.895495e+01 2.533744e+01 2.521724e+01 2.397287e+01 2.314431e+01 2.218093e+01 7.727371e-01 9.497215e-01 1.562954e+00 1.749902e+00 1.723157e+00 1.735756e+00 1.566392e+00 1.479532e+00 1.147533e+00 1.184282e+00 1.114139e+00 9.866877e-01 3.126376e-01 1.270484e-01 1.482031e-01 2.913585e-01 2.649930e-01 2.571515e-01 3.000132e-01 2.918512e-01 2.493125e-01 2.274972e-01 2.324274e-01 2.260348e-01 1.944561e-01 5.791128e-02
<GCONST> 1.008089e+02
<TRANSP> 5
 0.000000e+00 1.000000e+00 0.000000e+00 0.000000e+00 0.000000e+00
 0.000000e+00 3.209497e-01 6.790504e-01 0.000000e+00 0.000000e+00
 0.000000e+00 0.000000e+00 4.083527e-01 5.916473e-01 0.000000e+00
 0.000000e+00 0.000000e+00 0.000000e+00 7.044302e-01 2.955698e-01
 0.000000e+00 0.000000e+00 0.000000e+00 0.000000e+00 0.000000e+00
<ENDHMM>
~h "u"
<BEGINHMM>
<NUMSTATES> 5
<STATE> 2
<MEAN> 39
 -3.707095e+00 -6.083831e-01 5.380264e+00 -1.420266e+00 8.490162e-01 -2.582097e+00 -5.391960e+00 -3.677861e+00 -3.664310e+00 -1.820754e+00 -2.019693e+00 -2.873955e+00 5.578953e+01 -2.003990e-01 -8.402218e-01 -1.319609e-01 -4.810483e-01 -2.454584e-01 1.539566e-01 9.497687e-03 -7.710923e-02 -8.416572e-02 3.910576e-02 -1.661037e-01 4.155938e-03 2.428035e-01 4.674028e-01 -7.815012e-02 -1.848894e-01 -1.778791e-01 -1.563352e-01 -3.363068e-01 -2.283407e-01 -1.037472e-01 -2.674389e-02 7.774144e-03 8.204625e-03 -5.352256e-02 4.108510e-01
<VARIANCE> 39
 7.726649e+01 6.411804e+01 6.444465e+01 6.995818e+01 4.401058e+01 4.420330e+01 4.873627e+01 3.499772e+01 2.689060e+01 2.887700e+01 2.421281e+01 1.808360e+01 3.880586e+01 7.466928e+00 7.954577e+00 6.945776e+00 6.201085e+00 4.153772e+00 4.364942e+00 4.352598e+00 3.140255e+00 3.265189e+00 2.772610e+00 2.965833e+00 2.024212e+00 2.742315e+00 9.657570e-01 1.060173e+00 8.347474e-01 1.087782e+00 6.757149e-01 8.083419e-01 7.318642e-01 4.912528e-01 5.509316e-01 4.813831e-01 4.611031e-01 3.482666e-01 4.879147e-01
<GCONST> 1.327987e+02
<STATE> 3
<MEAN> 39
 -2.279189e+00 -5.828364e+00 3.283835e+00 -7.341879e+00 -3.426523e+00 -7.685225e+00 -6.782642e+00 -4.877903e+00 -3.763466e+00 -3.710157e+00 -4.646345e+00 -3.785722e+00 6.261826e+01 9.231256e-01 3.429981e-02 -5.560511e-01 1.141294e-02 -1.727826e-01 -5.780673e-01 -3.979801e-01 -8.560567e-02 -2.280468e-02 -2.152434e-01 -3.170715e-02 1.033320e-01 5.520404e-01 1.699737e-01 2.010373e-01 -1.368053e-01 9.758319e-02 3.462566e-02 -1.406814e-01 -7.794289e-02 1.093613e-01 4.381654e-02 -9.248883e-02 2.503537e-02 3.062497e-02 -1.687611e-02
<VARIANCE> 39
 1.280862e+02 9.748735e+01 1.396083e+02 1.035819e+02 7.929481e+01 1.245871e+02 9.030866e+01 6.187130e+01 6.081225e+01 6.350438e+01 4.829658e+01 4.729646e+01 4.045138e+01 1.350257e+01 9.068324e+00 9.904043e+00 7.894355e+00 4.896669e+00 9.676354e+00 6.635307e+00 4.806075e+00 4.671379e+00 5.644314e+00 3.896717e+00 3.533030e+00 3.965911e+00 1.437957e+00 1.501611e+00 1.458358e+00 1.135379e+00 7.894657e-01 1.708689e+00 8.642942e-01 7.859005e-01 8.340807e-01 1.020862e+00 7.179140e-01 6.603585e-01 5.221840e-01
<GCONST> 1.515972e+02
<STATE> 4
<MEAN> 39
 6.222294e+00 -3.790880e+00 -1.581937e+00 -3.318604e-01 3.684582e+00 -9.580579e+00 -1.355486e+01 -6.326210e+00 -3.318484e+00 -1.589090e+00 -1.608100e+00 -3.222235e+00 6.370717e+01 4.727255e-01 1.569174e-01 -5.180300e-01 -1.941138e-01 -8.237103e-02 -1.386431e-01 1.977002e-01 3.474993e-01 1.433081e-01 -1.089944e-01 1.369737e-01 2.568915e-01 2.023135e-01 -4.029723e-01 -2.441571e-02 1.690963e-01 -9.435923e-02 -7.401539e-02 2.610592e-01 3.790485e-01 1.739961e-01 -9.625898e-03 1.466010e-03 9.052153e-03 3.507756e-02 -2.411972e-01
<VARIANCE> 39
 1.005001e+02 6.565213e+01 1.127776e+02 1.201021e+02 7.399966e+01 7.048871e+01 8.921400e+01 6.272862e+01 4.306439e+01 4.786694e+01 4.929388e+01 3.548321e+01 4.220390e+01 6.721703e+00 4.471795e+00 6.408521e+00 5.926152e+00 2.765385e+00 5.758692e+00 6.239825e+00 3.655706e+00 2.934962e+00 3.523801e+00 2.872578e+00 2.395082e+00 2.835477e+00 8.960172e-01 9.496995e-01 8.538150e-01 9.080392e-01 5.356154e-01 8.956826e-01 1.146952e+00 7.594778e-01 4.805067e-01 7.149635e-01 5.784253e-01 4.337088e-01 4.324002e-01
<GCONST> 1.396796e+02
<TRANSP> 5
 0.000000e+00 1.000000e+00 0.000000e+00 0.000000e+00 0.000000e+00
 0.000000e+00 6.024752e-01 3.975248e-01 0.000000e+00 0.000000e+00
 0.000000e+00 0.000000e+00 7.530449e-01 2.469551e-01 0.000000e+00
 0.000000e+00 0.000000e+00 0.000000e+00 6.720451e-01 3.279549e-01
 0.000000e+00 0.000000e+00 0.000000e+00 0.000000e+00 0.000000e+00
<ENDHMM>
~h "w"
<BEGINHMM>
<NUMSTATES> 5
<STATE> 2
<MEAN> 39
 4.576765e+00 3.522905e+00 8.713460e+00 8.550476e+00 5.728023e+00 -8.187136e+00 -1.097755e+01 -4.431063e+00 1.136185e+00 -2.639885e+00 -7.392044e+00 -6.400442e+00 6.044060e+01 -2.346563e-01 1.231621e-01 1.872344e-01 -1.359150e-01 -7.236224e-02 1.939577e-01 3.121969e-01 5.318275e-01 2.622718e-01 -1.786431e-01 -4.984966e-01 -4.727162e-01 -1.704071e-01 -3.809293e-02 9.256050e-03 -6.709322e-02 -1.519003e-01 -4.994942e-02 1.883688e-01 1.776783e-01 -6.540801e-02 -1.619825e-01 -1.967388e-02 1.423801e-01 1.529827e-01 -3.625080e-02
<VARIANCE> 39
 3.447978e+01 4.952563e+01 1.180256e+02 1.470785e+02 7.832776e+01 2.479585e+01 4.759612e+01 5.505670e+01 4.887411e+01 1.142537e+01 3.389826e+01 1.337249e+01 1.330964e+01 3.069938e-01 6.472387e-01 1.058998e+00 1.343869e+00 6.430288e-01 2.006437e+00 1.781026e+00 1.706555e+00 8.344030e-01 1.801885e+00 1.334552e+00 1.198869e+00 1.249575e-01 1.120918e-01 1.847306e-01 1.598191e-01 1.065215e-01 1.773932e-01 1.943024e-01 2.768319e-01 2.220898e-01 2.163866e-01 1.948425e-01 1.860198e-01 1.477979e-01 4.889039e-02
<GCONST> 9.437072e+01
<STATE> 3
<MEAN> 39
 6.291713e+00 2.463406e+00 -4.443067e-01 -4.769043e+00 1.498278e+00 -7.696351e-01 -1.327799e+00 -3.829312e-02 -1.741112e+00 -5.662686e+00 -4.945714e+00 -1.285759e+00 6.139788e+01 -9.699914e-01 -8.877133e-02 4.347756e-01 -2.798232e-01 -8.976224e-02 9.117510e-01 9.373366e-01 -8.470449e-02 -5.879221e-01 -1.701396e-01 2.707391e-01 2.382564e-01 -5.825105e-01 -4.880536e-02 -9.410417e-02 -4.272461e-02 7.495169e-02 -3.052884e-02 -1.569790e-01 -1.254466e-01 -1.235745e-01 -2.093653e-02 4.207293e-02 1.703352e-02 1.032871e-01 -1.732239e-02
<VARIANCE> 39
 5.430310e+01 4.538010e+01 1.013057e+02 6.461752e+01 4.343131e+01 3.149040e+01 4.394938e+01 3.921411e+01 4.257519e+01 2.686753e+01 2.242178e+01 3.270393e+01 1.668719e+01 7.412208e-01 1.617249e+00 1.337613e+00 2.070982e+00 1.785815e+00 2.212061e+00 2.086680e+00 1.444629e+00 1.698448e+00 1.178818e+00 1.457820e+00 1.576941e+00 1.798891e-01 8.994670e-02 1.655007e-01 1.687181e-01 1.804555e-01 2.196626e-01 3.180707e-01 3.143914e-01 2.202144e-01 2.877135e-01 1.718234e-01 2.603827e-01 2.072790e-01 2.919151e-02
<GCONST> 1.003986e+02
<STATE> 4
<MEAN> 39
 -5.959141e+00 -6.332111e+00 1.062498e+01 6.105423e-02 -3.961766e+00 5.663918e-01 1.266654e+00 -7.750232e-01 -4.045839e+00 -4.022941e+00 1.276898e-02 -3.047468e+00 5.756690e+01 -4.445352e-01 -1.861688e-01 -6.770665e-01 -6.411463e-03 -2.397146e-01 -3.117124e-01 4.255003e-01 -1.014515e-01 -3.194675e-01 1.592499e-01 7.612126e-02 5.822331e-04 -4.562371e-01 8.595097e-02 3.335730e-02 -1.666840e-01 4.340626e-02 3.996354e-02 -2.282166e-01 -1.866353e-01 -1.441779e-02 2.398191e-02 -5.260877e-02 -8.605590e-02 -1.083943e-02 2.203358e-03
<VARIANCE> 39
 8.146986e+01 1.758680e+02 8.562572e+01 5.542522e+01 1.200713e+02 3.088575e+01 6.086604e+01 2.578808e+01 3.165317e+01 1.752703e+01 1.909521e+01 1.264500e+01 2.062455e+01 5.663618e-01 9.985529e-01 1.217267e+00 9.414362e-01 1.245160e+00 2.180952e+00 2.147683e+00 1.751211e+00 1.546207e+00 1.331445e+00 9.746699e-01 6.545927e-01 2.833449e-01 5.801552e-02 1.387845e-01 1.093801e-01 2.042479e-01 1.514772e-01 1.371583e-01 5.177153e-01 2.575899e-01 2.401708e-01 3.059638e-01 1.549927e-01 1.750261e-01 4.252875e-02
<GCONST> 9.713517e+01
<TRANSP> 5
 0.000000e+00 1.000000e+00 0.000000e+00 0.000000e+00 0.000000e+00
 0.000000e+00 7.173797e-01 2.826203e-01 0.000000e+00 0.000000e+00
 0.000000e+00 0.000000e+00 6.933272e-01 3.066728e-01 0.000000e+00
 0.000000e+00 0.000000e+00 0.000000e+00 6.764374e-01 3.235626e-01
 0.000000e+00 0.000000e+00 0.000000e+00 0.000000e+00 0.000000e+00
<ENDHMM>
~h "x"
<BEGINHMM>
<NUMSTATES> 5
<STATE> 2
<MEAN> 39
 1.035317e+00 -1.067610e+00 4.471287e-01 -2.256858e+00 1.353132e+00 -1.905113e+00 -6.568694e+00 -8.935279e+00 -5.152453e+00 -9.521296e-01 -1.548379e+00 -2.199411e+00 5.854903e+01 2.001829e-01 1.564175e-01 -3.203406e-01 -7.348865e-02 2.222791e-01 -1.023144e-01 1.050389e-01 3.410465e-01 -1.500748e-01 -2.109727e-01 1.287940e-01 1.993617e-01 4.331148e-02 2.147223e-01 2.289533e-02 -1.939618e-01 -1.362363e-01 7.294041e-02 -3.052983e-02 -1.750050e-01 -5.523587e-02 8.032160e-02 1.366731e-01 1.163084e-01 4.786673e-02 1.258667e-01
<VARIANCE> 39
 1.235965e+02 5.841893e+01 6.538049e+01 5.489201e+01 4.213479e+01 8.084406e+01 8.465655e+01 3.906311e+01 2.612803e+01 3.021081e+01 2.246080e+01 1.245984e+01 5.224440e+01 3.776070e+00 1.619744e+00 3.074970e+00 1.758960e+00 1.587594e+00 2.387532e+00 2.825302e+00 2.871148e+00 1.206154e+00 2.340553e+00 1.024143e+00 6.812103e-01 1.387877e+00 7.969903e-01 3.616853e-01 5.205769e-01 4.147840e-01 3.838680e-01 4.536659e-01 8.978416e-01 5.969129e-01 2.502192e-01 5.857439e-01 2.056198e-01 1.425434e-01 2.994017e-01
<GCONST> 1.173720e+02
<STATE> 3
<MEAN> 39
 4.583487e+00 -4.838194e-01 -2.360955e+00 -1.483320e+00 1.785272e+00 -6.968465e+00 -1.134146e+01 -7.839189e+00 -4.025202e+00 -1.598193e+00 -1.241284e+00 -1.364509e+00 6.007570e+01 1.862487e+00 -2.543896e-01 -1.723062e+00 -5.617925e-01 3.491969e-01 -9.424305e-01 -1.519992e+00 -4.802558e-01 6.092554e-02 4.441207e-01 5.480294e-01 -6.244821e-02 1.225131e+00 -1.660555e-01 -1.354365e-01 1.502964e-02 3.726078e-02 1.047549e-01 1.215414e-01 1.419864e-01 2.251777e-01 1.217539e-01 5.292471e-03 8.340295e-03 7.041345e-03 -5.164176e-02
<VARIANCE> 39
 1.146861e+02 4.383164e+01 4.801254e+01 7.786433e+01 4.316176e+01 8.406136e+01 8.499252e+01 3.997694e+01 2.528598e+01 2.362089e+01 2.669541e+01 1.551117e+01 6.176525e+01 5.368598e+00 2.336191e+00 3.140131e+00 2.193965e+00 1.765479e+00 2.770016e+00 4.773798e+00 2.919691e+00 1.798025e+00 2.188131e+00 1.398719e+00 9.700756e-01 2.117380e+00 6.808565e-01 2.705542e-01 4.489315e-01 3.134490e-01 2.765358e-01 4.043397e-01 6.141264e-01 3.980095e-01 2.301420e-01 3.233061e-01 2.585593e-01 1.207080e-01 2.511674e-01
<GCONST> 1.177021e+02
<STATE> 4
<MEAN> 39
 1.062371e+01 2.641468e-01 -3.997477e+00 1.003947e+00 6.506955e+00 -9.023105e+00 -1.639092e+01 -9.891850e+00 -1.769349e+00 2.023612e+00 2.746132e-01 -2.963413e+00 6.419463e+01 -2.127211e-01 3.422885e-01 3.003716e-01 -1.881418e-01 3.043973e-02 5.342083e-01 4.325132e-01 -5.977124e-02 -1.232026e-01 1.913545e-02 1.006706e-01 3.636976e-02 -2.088550e-01 -1.111075e-01 2.621923e-02 1.338289e-01 1.062142e-02 -4.200691e-02 1.087255e-01 1.469876e-01 4.066410e-02 -2.081257e-02 -5.812186e-02 -5.582351e-02 8.789429e-03 -6.896255e-02
<VARIANCE> 39
 3.343858e+01 2.792729e+01 5.586271e+01 6.638859e+01 3.377589e+01 4.393844e+01 5.207184e+01 3.334184e+01 4.024017e+01 3.105279e+01 2.246101e+01 1.534233e+01 2.089891e+01 5.757230e-01 8.671135e-01 2.169361e+00 1.974560e+00 1.042670e+00 1.494077e+00 1.933702e+00 1.075216e+00 1.180505e+00 1.575962e+00 1.134825e+00 9.308196e-01 3.404903e-01 9.650796e-02 1.656514e-01 2.932554e-01 2.275482e-01 1.645288e-01 2.587146e-01 3.273889e-01 1.631916e-01 1.917945e-01 2.069890e-01 2.171684e-01 1.477548e-01 5.935548e-02
<GCONST> 9.662395e+01
<TRANSP> 5
 0.000000e+00 1.000000e+00 0.000000e+00 0.000000e+00 0.000000e+00
 0.000000e+00 5.875902e-01 4.124099e-01 0.000000e+00 0.000000e+00
 0.000000e+00 0.000000e+00 3.943085e-01 6.056915e-01 0.000000e+00
 0.000000e+00 0.000000e+00 0.000000e+00 8.823047e-01 1.176953e-01
 0.000000e+00 0.000000e+00 0.000000e+00 0.000000e+00 0.000000e+00
<ENDHMM>
~h "en"
<BEGINHMM>
<NUMSTATES> 5
<STATE> 2
<MEAN> 39
 -4.314049e-01 -5.443133e-01 7.105690e-01 -1.882667e+00 -3.413527e-01 -4.598181e+00 -6.314186e+00 -3.848403e+00 -3.601575e+00 -2.169887e+00 -1.884693e+00 -2.491360e+00 5.700534e+01 -2.864336e-03 -3.153083e-03 -6.210326e-04 -1.859146e-03 -1.025149e-03 4.018572e-05 -4.212186e-04 -9.370550e-04 -1.112693e-03 -1.571401e-03 -1.379302e-03 -1.582626e-03 3.459415e-04 -2.076533e-04 1.121370e-04 -6.082775e-04 5.937807e-05 7.690147e-05 -5.380236e-05 9.022583e-05 2.522134e-04 1.281000e-04 2.276354e-04 9.980684e-05 1.737125e-04 -8.036671e-04
<VARIANCE> 39
 1.333756e+02 6.639448e+01 7.486684e+01 6.636140e+01 5.702890e+01 5.689030e+01 7.521648e+01 5.588811e+01 3.375542e+01 3.396556e+01 2.727465e+01 2.558422e+01 7.908179e+01 3.510822e+00 2.990041e+00 3.288318e+00 2.986253e+00 2.462860e+00 3.071138e+00 3.491724e+00 2.597442e+00 2.153173e+00 2.003538e+00 1.724022e+00 1.500141e+00 1.490820e+00 4.316568e-01 4.629386e-01 4.683719e-01 4.500415e-01 3.964934e-01 5.051396e-01 5.511611e-01 4.319685e-01 3.792876e-01 3.504571e-01 3.135985e-01 2.653124e-01 2.156326e-01
<GCONST> 1.230944e+02
<STATE> 3
<MEAN> 39
 -4.314049e-01 -5.443133e-01 7.105690e-01 -1.882667e+00 -3.413527e-01 -4.598181e+00 -6.314186e+00 -3.848403e+00 -3.601575e+00 -2.169887e+00 -1.884693e+00 -2.491360e+00 5.700534e+01 -2.864336e-03 -3.153083e-03 -6.210326e-04 -1.859146e-03 -1.025149e-03 4.018572e-05 -4.212186e-04 -9.370550e-04 -1.112693e-03 -1.571401e-03 -1.379302e-03 -1.582626e-03 3.459415e-04 -2.076533e-04 1.121370e-04 -6.082775e-04 5.937807e-05 7.690147e-05 -5.380236e-05 9.022583e-05 2.522134e-04 1.281000e-04 2.276354e-04 9.980684e-05 1.737125e-04 -8.036671e-04
<VARIANCE> 39
 1.333756e+02 6.639448e+01 7.486684e+01 6.636140e+01 5.702890e+01 5.689030e+01 7.521648e+01 5.588811e+01 3.375542e+01 3.396556e+01 2.727465e+01 2.558422e+01 7.908179e+01 3.510822e+00 2.990041e+00 3.288318e+00 2.986253e+00 2.462860e+00 3.071138e+00 3.491724e+00 2.597442e+00 2.153173e+00 2.003538e+00 1.724022e+00 1.500141e+00 1.490820e+00 4.316568e-01 4.629386e-01 4.683719e-01 4.500415e-01 3.964934e-01 5.051396e-01 5.511611e-01 4.319685e-01 3.792876e-01 3.504571e-01 3.135985e-01 2.653124e-01 2.156326e-01
<GCONST> 1.230944e+02
<STATE> 4
<MEAN> 39
 -4.314049e-01 -5.443133e-01 7.105690e-01 -1.882667e+00 -3.413527e-01 -4.598181e+00 -6.314186e+00 -3.848403e+00 -3.601575e+00 -2.169887e+00 -1.884693e+00 -2.491360e+00 5.700534e+01 -2.864336e-03 -3.153083e-03 -6.210326e-04 -1.859146e-03 -1.025149e-03 4.018572e-05 -4.212186e-04 -9.370550e-04 -1.112693e-03 -1.571401e-03 -1.379302e-03 -1.582626e-03 3.459415e-04 -2.076533e-04 1.121370e-04 -6.082775e-04 5.937807e-05 7.690147e-05 -5.380236e-05 9.022583e-05 2.522134e-04 1.281000e-04 2.276354e-04 9.980684e-05 1.737125e-04 -8.036671e-04
<VARIANCE> 39
 1.333756e+02 6.639448e+01 7.486684e+01 6.636140e+01 5.702890e+01 5.689030e+01 7.521648e+01 5.588811e+01 3.375542e+01 3.396556e+01 2.727465e+01 2.558422e+01 7.908179e+01 3.510822e+00 2.990041e+00 3.288318e+00 2.986253e+00 2.462860e+00 3.071138e+00 3.491724e+00 2.597442e+00 2.153173e+00 2.003538e+00 1.724022e+00 1.500141e+00 1.490820e+00 4.316568e-01 4.629386e-01 4.683719e-01 4.500415e-01 3.964934e-01 5.051396e-01 5.511611e-01 4.319685e-01 3.792876e-01 3.504571e-01 3.135985e-01 2.653124e-01 2.156326e-01
<GCONST> 1.230944e+02
<TRANSP> 5
 0.000000e+00 1.000000e+00 0.000000e+00 0.000000e+00 0.000000e+00
 0.000000e+00 6.000000e-01 4.000000e-01 0.000000e+00 0.000000e+00
 0.000000e+00 0.000000e+00 6.000000e-01 4.000000e-01 0.000000e+00
 0.000000e+00 0.000000e+00 0.000000e+00 7.000000e-01 3.000000e-01
 0.000000e+00 0.000000e+00 0.000000e+00 0.000000e+00 0.000000e+00
<ENDHMM>
~h "js"
<BEGINHMM>
<NUMSTATES> 5
<STATE> 2
<MEAN> 39
 -4.314049e-01 -5.443133e-01 7.105690e-01 -1.882667e+00 -3.413527e-01 -4.598181e+00 -6.314186e+00 -3.848403e+00 -3.601575e+00 -2.169887e+00 -1.884693e+00 -2.491360e+00 5.700534e+01 -2.864336e-03 -3.153083e-03 -6.210326e-04 -1.859146e-03 -1.025149e-03 4.018572e-05 -4.212186e-04 -9.370550e-04 -1.112693e-03 -1.571401e-03 -1.379302e-03 -1.582626e-03 3.459415e-04 -2.076533e-04 1.121370e-04 -6.082775e-04 5.937807e-05 7.690147e-05 -5.380236e-05 9.022583e-05 2.522134e-04 1.281000e-04 2.276354e-04 9.980684e-05 1.737125e-04 -8.036671e-04
<VARIANCE> 39
 1.333756e+02 6.639448e+01 7.486684e+01 6.636140e+01 5.702890e+01 5.689030e+01 7.521648e+01 5.588811e+01 3.375542e+01 3.396556e+01 2.727465e+01 2.558422e+01 7.908179e+01 3.510822e+00 2.990041e+00 3.288318e+00 2.986253e+00 2.462860e+00 3.071138e+00 3.491724e+00 2.597442e+00 2.153173e+00 2.003538e+00 1.724022e+00 1.500141e+00 1.490820e+00 4.316568e-01 4.629386e-01 4.683719e-01 4.500415e-01 3.964934e-01 5.051396e-01 5.511611e-01 4.319685e-01 3.792876e-01 3.504571e-01 3.135985e-01 2.653124e-01 2.156326e-01
<GCONST> 1.230944e+02
<STATE> 3
<MEAN> 39
 -4.314049e-01 -5.443133e-01 7.105690e-01 -1.882667e+00 -3.413527e-01 -4.598181e+00 -6.314186e+00 -3.848403e+00 -3.601575e+00 -2.169887e+00 -1.884693e+00 -2.491360e+00 5.700534e+01 -2.864336e-03 -3.153083e-03 -6.210326e-04 -1.859146e-03 -1.025149e-03 4.018572e-05 -4.212186e-04 -9.370550e-04 -1.112693e-03 -1.571401e-03 -1.379302e-03 -1.582626e-03 3.459415e-04 -2.076533e-04 1.121370e-04 -6.082775e-04 5.937807e-05 7.690147e-05 -5.380236e-05 9.022583e-05 2.522134e-04 1.281000e-04 2.276354e-04 9.980684e-05 1.737125e-04 -8.036671e-04
<VARIANCE> 39
 1.333756e+02 6.639448e+01 7.486684e+01 6.636140e+01 5.702890e+01 5.689030e+01 7.521648e+01 5.588811e+01 3.375542e+01 3.396556e+01 2.727465e+01 2.558422e+01 7.908179e+01 3.510822e+00 2.990041e+00 3.288318e+00 2.986253e+00 2.462860e+00 3.071138e+00 3.491724e+00 2.597442e+00 2.153173e+00 2.003538e+00 1.724022e+00 1.500141e+00 1.490820e+00 4.316568e-01 4.629386e-01 4.683719e-01 4.500415e-01 3.964934e-01 5.051396e-01 5.511611e-01 4.319685e-01 3.792876e-01 3.504571e-01 3.135985e-01 2.653124e-01 2.156326e-01
<GCONST> 1.230944e+02
<STATE> 4
<MEAN> 39
 -4.314049e-01 -5.443133e-01 7.105690e-01 -1.882667e+00 -3.413527e-01 -4.598181e+00 -6.314186e+00 -3.848403e+00 -3.601575e+00 -2.169887e+00 -1.884693e+00 -2.491360e+00 5.700534e+01 -2.864336e-03 -3.153083e-03 -6.210326e-04 -1.859146e-03 -1.025149e-03 4.018572e-05 -4.212186e-04 -9.370550e-04 -1.112693e-03 -1.571401e-03 -1.379302e-03 -1.582626e-03 3.459415e-04 -2.076533e-04 1.121370e-04 -6.082775e-04 5.937807e-05 7.690147e-05 -5.380236e-05 9.022583e-05 2.522134e-04 1.281000e-04 2.276354e-04 9.980684e-05 1.737125e-04 -8.036671e-04
<VARIANCE> 39
 1.333756e+02 6.639448e+01 7.486684e+01 6.636140e+01 5.702890e+01 5.689030e+01 7.521648e+01 5.588811e+01 3.375542e+01 3.396556e+01 2.727465e+01 2.558422e+01 7.908179e+01 3.510822e+00 2.990041e+00 3.288318e+00 2.986253e+00 2.462860e+00 3.071138e+00 3.491724e+00 2.597442e+00 2.153173e+00 2.003538e+00 1.724022e+00 1.500141e+00 1.490820e+00 4.316568e-01 4.629386e-01 4.683719e-01 4.500415e-01 3.964934e-01 5.051396e-01 5.511611e-01 4.319685e-01 3.792876e-01 3.504571e-01 3.135985e-01 2.653124e-01 2.156326e-01
<GCONST> 1.230944e+02
<TRANSP> 5
 0.000000e+00 1.000000e+00 0.000000e+00 0.000000e+00 0.000000e+00
 0.000000e+00 6.000000e-01 4.000000e-01 0.000000e+00 0.000000e+00
 0.000000e+00 0.000000e+00 6.000000e-01 4.000000e-01 0.000000e+00
 0.000000e+00 0.000000e+00 0.000000e+00 7.000000e-01 3.000000e-01
 0.000000e+00 0.000000e+00 0.000000e+00 0.000000e+00 0.000000e+00
<ENDHMM>
~h "ks"
<BEGINHMM>
<NUMSTATES> 5
<STATE> 2
<MEAN> 39
 1.028589e+01 -2.386420e+00 -3.373881e+00 -5.224833e+00 -1.431363e+00 -6.844414e+00 -3.979790e+00 6.559150e+00 -4.749141e+00 -8.196049e+00 5.751685e+00 -1.258982e+00 6.643140e+01 -5.941955e-01 -3.224927e-01 6.425565e-01 -9.934046e-01 -5.158755e-01 7.722542e-02 -4.683325e-01 1.363666e+00 5.913484e-01 -6.106415e-01 7.039114e-01 -2.646532e-01 -2.176644e-02 -1.676501e-01 2.873747e-01 2.737854e-01 6.957563e-03 1.034090e-01 1.930426e-01 5.593309e-03 -3.498408e-01 -2.258299e-01 4.190431e-01 -2.049820e-01 -3.731523e-01 -2.728432e-01
<VARIANCE> 39
 3.376771e+01 7.133015e+01 6.371456e+01 5.512566e+01 1.866343e+01 3.010621e+01 4.866199e+01 1.054067e+02 5.479397e+01 9.680962e+01 4.770734e+01 2.059714e+01 3.640662e+01 8.168389e-01 2.784257e+00 2.033183e+00 1.583850e+00 2.240186e+00 3.902142e+00 3.265348e+00 2.290303e+00 1.824544e+00 2.114160e+00 2.734230e+00 1.337715e+00 1.134621e+00 1.677138e-01 5.676610e-01 2.809812e-01 3.369525e-01 4.512306e-01 8.013980e-01 3.108844e-01 1.536074e-01 4.161857e-01 4.810964e-01 4.104855e-01 3.247218e-01 1.306695e-01
<GCONST> 1.160813e+02
<STATE> 3
<MEAN> 39
 5.776900e+00 1.276698e+00 -5.567384e-02 -3.805883e+00 -1.337460e+00 -3.742739e+00 -6.657592e+00 4.045026e-01 -2.453702e+00 -1.672523e+00 3.083797e+00 -6.253657e-01 6.154504e+01 -1.065970e+00 2.803040e-02 7.241259e-01 -3.855553e-01 -4.726612e-01 -3.289036e-01 5.862604e-01 3.307886e-01 -5.449018e-01 4.882625e-02 -2.471265e-01 -5.051383e-01 -7.301121e-01 1.018030e-01 -1.002441e-01 -1.404676e-01 -2.129103e-01 1.610265e-01 4.129520e-02 -1.315680e-02 -3.220891e-01 -3.863223e-01 1.213721e-01 6.471939e-02 -2.329113e-01 1.747806e-01
<VARIANCE> 39
 7.156726e+01 5.911637e+01 8.553600e+01 7.908167e+01 2.139270e+01 3.687812e+01 5.977190e+01 1.281890e+02 4.918114e+01 6.390619e+01 2.512126e+01 1.480784e+01 6.354247e+01 4.844863e-01 1.908089e+00 2.380268e+00 2.288439e+00 1.190853e+00 7.869109e-01 9.450045e-01 7.803660e-01 1.465788e+00 3.109520e+00 2.828214e+00 5.318117e-01 1.286296e-01 2.857890e-01 4.757040e-01 2.002276e-01 1.103445e+00 4.167096e-01 5.264047e-01 9.915872e-01 8.871683e-01 4.840397e-01 3.716930e-01 3.667177e-01 2.178444e-01 4.538819e-01
<GCONST> 1.135233e+02
<STATE> 4
<MEAN> 39
 1.042174e+00 -4.214474e+00 5.297154e+00 -1.194336e+01 -4.054888e+00 -7.092820e+00 -3.187524e+00 6.939490e+00 -6.851680e+00 -4.676928e+00 1.095544e+00 -1.969277e+00 6.341944e+01 7.882695e-02 1.756181e-01 9.117786e-02 -3.374159e-02 -2.984098e-01 -3.145632e-01 3.422486e-01 2.889448e-01 -2.667718e-01 -8.997129e-02 -1.324655e-01 -4.587439e-02 4.400313e-04 -4.910435e-02 4.898734e-03 3.932595e-02 5.557049e-02 6.656347e-02 1.047261e-01 -3.222886e-02 -1.209236e-01 1.254652e-01 1.808993e-02 -9.105943e-03 -1.766384e-02 -1.317515e-02
<VARIANCE> 39
 1.889437e+02 1.190721e+02 1.176784e+02 7.125311e+01 5.826761e+01 6.571560e+01 3.747079e+01 9.494808e+01 9.532604e+01 5.934517e+01 2.242846e+01 6.064590e+01 3.140008e+01 8.033820e+00 6.796623e+00 7.638877e+00 7.812095e+00 2.994149e+00 3.723881e+00 3.125636e+00 3.475052e+00 3.581306e+00 2.957565e+00 2.326335e+00 1.891886e+00 3.164462e+00 9.649256e-01 9.989859e-01 9.857392e-01 1.191672e+00 5.392424e-01 7.661860e-01 5.596840e-01 5.644379e-01 6.838236e-01 4.383928e-01 4.245833e-01 3.372590e-01 5.748150e-01
<GCONST> 1.387285e+02
<TRANSP> 5
 0.000000e+00 1.000000e+00 0.000000e+00 0.000000e+00 0.000000e+00
 0.000000e+00 5.684813e-01 4.315186e-01 0.000000e+00 0.000000e+00
 0.000000e+00 0.000000e+00 8.509067e-02 9.149094e-01 0.000000e+00
 0.000000e+00 0.000000e+00 0.000000e+00 9.247336e-01 7.526644e-02
 0.000000e+00 0.000000e+00 0.000000e+00 0.000000e+00 0.000000e+00
<ENDHMM>
~h "ny"
<BEGINHMM>
<NUMSTATES> 5
<STATE> 2
<MEAN> 39
 2.579695e-01 1.563051e+00 1.658870e+00 -4.268377e+00 2.195842e-01 1.464625e-01 -1.365056e+00 -3.536780e+00 -2.777641e+00 5.733728e-01 6.196509e-01 -4.827211e-01 5.742696e+01 -7.245672e-01 -6.234598e-01 3.487203e-01 3.968838e-01 -1.272404e-02 1.793744e-01 7.970932e-02 1.945096e-02 -3.524220e-02 2.457586e-01 2.489831e-01 -2.551373e-01 -2.537415e-01 5.270481e-02 -8.796517e-02 -1.163106e-01 -1.589777e-02 6.072467e-02 -1.938012e-02 -5.926625e-02 -2.375036e-02 8.461726e-02 -3.486060e-03 -4.644325e-02 4.886296e-03 6.410722e-02
<VARIANCE> 39
 5.942853e+01 5.764452e+01 4.635951e+01 2.849263e+01 3.378626e+01 2.242251e+01 3.150757e+01 2.639030e+01 2.735479e+01 1.542456e+01 1.068080e+01 1.668657e+01 1.757205e+01 9.500715e-01 1.792203e+00 1.750716e+00 1.383876e+00 2.491606e+00 1.214197e+00 1.149315e+00 1.464787e+00 1.118744e+00 1.189628e+00 1.205019e+00 1.252120e+00 4.163784e-01 9.982766e-02 2.164470e-01 2.139581e-01 1.837861e-01 2.820475e-01 1.850921e-01 1.814553e-01 1.881290e-01 2.494257e-01 2.797877e-01 2.367177e-01 2.355973e-01 4.421079e-02
<GCONST> 9.524768e+01
<STATE> 3
<MEAN> 39
 -7.877448e+00 -4.261983e+00 1.156597e+00 -3.396239e+00 -2.630348e+00 -1.085148e+00 -3.778959e+00 -7.093431e+00 -5.676971e+00 -1.210109e-01 -8.011112e-01 -2.550682e+00 5.244712e+01 -2.279518e-01 4.074422e-02 1.073492e-01 1.372106e-01 -1.760592e-01 4.689511e-03 2.794322e-01 6.947280e-02 1.938815e-02 4.173447e-02 -1.151387e-01 -4.795890e-02 -2.261233e-01 2.868487e-02 3.534328e-02 -2.581928e-02 2.008622e-02 1.260571e-02 -2.906771e-02 1.992091e-02 4.656925e-03 1.557590e-02 3.971621e-03 -2.512930e-02 -1.414327e-02 -1.831148e-03
<VARIANCE> 39
 4.143821e+01 4.145642e+01 6.496733e+01 1.000864e+01 4.049429e+01 2.126112e+01 3.413419e+01 1.757308e+01 1.571772e+01 2.612639e+01 1.143674e+01 1.103167e+01 2.912746e+01 1.454218e-01 2.407236e-01 6.318967e-01 4.044769e-01 5.671078e-01 8.691627e-01 6.745272e-01 7.571022e-01 7.397907e-01 6.871299e-01 6.631786e-01 5.653505e-01 7.273769e-02 2.893049e-02 5.083499e-02 1.132663e-01 8.558081e-02 1.139695e-01 1.595862e-01 1.053553e-01 1.235244e-01 1.133236e-01 1.312391e-01 1.021986e-01 9.967515e-02 1.158921e-02
<GCONST> 6.985105e+01
<STATE> 4
<MEAN> 39
 3.603309e+00 5.095749e+00 5.875589e+00 -1.367710e+00 -2.621074e+00 -2.924161e+00 2.497783e+00 -1.649576e-02 -5.058538e+00 -3.447914e+00 -1.607492e+00 -4.009887e+00 5.928811e+01 -2.587805e-01 -4.575752e-01 -7.233360e-01 -6.719492e-02 4.590316e-01 5.156872e-01 7.910526e-01 4.410096e-01 -1.797129e-02 -3.395388e-01 4.290265e-02 3.273492e-01 -1.834399e-01 9.765450e-02 7.674059e-02 -3.620185e-03 -8.577975e-02 -9.776650e-02 -2.628011e-01 -3.249668e-01 -5.381331e-04 5.582341e-02 -4.339244e-03 8.627491e-02 1.135990e-01 4.399290e-02
<VARIANCE> 39
 8.574158e+01 7.593745e+01 4.295954e+01 3.382458e+01 5.448694e+01 4.468950e+01 6.451222e+01 3.480642e+01 5.707166e+01 6.350816e+01 4.764095e+01 3.666854e+00 2.927925e+01 4.976484e-01 3.567984e-01 9.095130e-01 8.061407e-01 1.477550e+00 1.899825e+00 1.288566e+00 1.530208e+00 1.507413e+00 1.682078e+00 1.898132e+00 9.219461e-01 3.480176e-01 1.066852e-01 9.711795e-02 2.548495e-01 2.341055e-01 3.607477e-01 3.703649e-01 2.219953e-01 2.896435e-01 2.094147e-01 4.088674e-01 2.848602e-01 7.463744e-02 6.352662e-02
<GCONST> 9.888566e+01
<TRANSP> 5
 0.000000e+00 1.000000e+00 0.000000e+00 0.000000e+00 0.000000e+00
 0.000000e+00 7.541908e-01 2.458091e-01 0.000000e+00 0.000000e+00
 0.000000e+00 0.000000e+00 8.467602e-01 1.532398e-01 0.000000e+00
 0.000000e+00 0.000000e+00 0.000000e+00 6.071652e-01 3.928348e-01
 0.000000e+00 0.000000e+00 0.000000e+00 0.000000e+00 0.000000e+00
<ENDHMM>
~h "rr"
<BEGINHMM>
<NUMSTATES> 5
<STATE> 2
<MEAN> 39
 7.696226e+00 1.356000e+01 9.465604e+00 -2.893286e+00 -5.155588e+00 -8.235386e+00 -4.116086e+00 -1.067846e-01 -8.486562e-01 -3.555662e+00 -6.542086e+00 -3.931378e+00 5.904318e+01 5.420876e-02 -3.969491e-03 1.270040e-01 -3.880131e-01 -6.599343e-01 -7.958087e-01 -3.937435e-01 3.357103e-01 8.682669e-01 6.729596e-01 3.805562e-01 -3.431460e-02 1.045402e-01 -1.116332e-01 -2.096279e-01 7.591367e-02 2.792851e-01 2.365519e-01 1.818558e-01 -1.006424e-01 -4.329351e-01 -4.102011e-01 5.723556e-02 2.927826e-01 1.221985e-01 -9.275228e-03
<VARIANCE> 39
 1.333756e+00 1.120652e+00 5.509048e+00 1.181433e+01 1.607938e+01 1.783540e+01 4.106436e+00 8.974157e+00 9.542352e+00 1.345166e+01 1.484798e+01 5.271289e+00 7.908179e-01 7.004845e-02 9.684104e-02 6.162763e-02 1.530550e-01 2.643982e-01 9.445734e-01 5.266447e-01 9.955311e-01 8.975525e-01 5.138247e-01 7.283868e-01 2.269874e-01 6.208691e-02 6.334280e-02 1.633716e-01 1.931885e-02 1.393692e-01 1.183554e-01 1.722674e-01 3.835388e-01 3.259191e-01 1.313589e-01 3.445024e-01 3.572925e-01 3.200370e-02 1.783225e-02
<GCONST> 4.940414e+01
<STATE> 3
<MEAN> 39
 7.486998e+00 1.312849e+01 9.166905e+00 -6.658577e+00 -1.148869e+01 -1.371958e+01 -4.495163e+00 2.624439e+00 3.291941e+00 -1.590343e+00 -5.288017e+00 -5.625236e+00 5.946383e+01 -6.365582e-01 1.051719e-01 1.061473e+00 8.289832e-01 -1.972491e-01 8.833174e-02 2.890872e-01 -3.070796e-01 -2.936137e-01 5.058782e-01 8.583686e-01 8.492351e-02 -3.599726e-01 -2.653269e-01 -3.104599e-01 5.379352e-02 3.606787e-01 3.818561e-01 5.105095e-01 2.673288e-01 -2.837266e-01 -4.839206e-01 -2.518539e-01 8.725265e-02 1.495404e-01 -7.408317e-02
<VARIANCE> 39
 1.980033e+00 1.047994e+00 1.020139e+01 6.817893e+00 7.448668e+00 4.996267e+00 7.521647e-01 6.660743e+00 7.813136e+00 7.722745e+00 1.595657e+01 7.628618e+00 7.908179e-01 3.510822e-02 3.085289e-01 1.964331e-01 1.575357e-01 8.683804e-01 1.134043e+00 4.200715e-01 1.380909e-01 1.525952e+00 1.653840e+00 1.266194e+00 3.201935e-02 1.490820e-02 3.841330e-02 7.070953e-02 3.126194e-02 3.963158e-02 3.688513e-02 3.862473e-02 7.129893e-02 7.379713e-02 1.285432e-01 3.430806e-02 1.051576e-01 2.536728e-02 4.341322e-03
<GCONST> 3.200249e+01
<STATE> 4
<MEAN> 39
 4.033317e+00 1.100368e+01 9.825584e+00 -4.023794e+00 -8.088150e+00 -9.326468e+00 -9.889885e-01 3.502111e+00 2.873720e+00 -7.274548e-01 -4.077148e+00 -4.947033e+00 5.805210e+01 -1.056292e+00 -1.045313e+00 2.225682e-01 1.412972e+00 1.628221e+00 1.484682e+00 1.114228e+00 2.042496e-01 -4.273856e-01 -7.314745e-02 4.517175e-01 7.921932e-01 -4.025896e-01 -9.993894e-02 -4.422615e-01 -2.235153e-01 8.188341e-02 1.330824e-01 4.601385e-02 4.536982e-02 -4.117662e-02 -2.522765e-01 -2.353179e-01 -1.343904e-01 4.007833e-02 4.915307e-02
<VARIANCE> 39
 6.280818e+00 5.737136e+00 2.453895e+00 1.122796e+01 3.113280e+01 2.977168e+01 1.430782e+01 7.833536e+00 4.153837e+00 1.941517e+00 6.483998e+00 9.312265e+00 1.487600e+00 1.799918e-01 8.254386e-01 2.226510e-01 2.847890e-01 1.062647e+00 1.594233e+00 4.857349e-01 5.043821e-01 1.197324e+00 5.312187e-01 7.488158e-01 5.819129e-01 4.034134e-02 4.308731e-02 8.121262e-02 6.330488e-02 5.263345e-02 4.103219e-01 6.480699e-01 1.513088e-01 1.125530e-01 2.931867e-01 4.945049e-02 1.102196e-01 1.674171e-01 9.916266e-03
<GCONST> 5.707976e+01
<TRANSP> 5
 0.000000e+00 1.000000e+00 0.000000e+00 0.000000e+00 0.000000e+00
 0.000000e+00 7.002428e-01 2.997572e-01 0.000000e+00 0.000000e+00
 0.000000e+00 0.000000e+00 3.461160e-01 6.538839e-01 0.000000e+00
 0.000000e+00 0.000000e+00 0.000000e+00 6.914710e-01 3.085290e-01
 0.000000e+00 0.000000e+00 0.000000e+00 0.000000e+00 0.000000e+00
<ENDHMM>
~h "sp"
<BEGINHMM>
<NUMSTATES> 3
<STATE> 2
~s "silst"
<TRANSP> 3
 0.000000e+00 1.845906e-01 8.154094e-01
 0.000000e+00 9.002274e-01 9.977258e-02
 0.000000e+00 0.000000e+00 0.000000e+00
<ENDHMM>
~h "sil"
<BEGINHMM>
<NUMSTATES> 5
<STATE> 2
<MEAN> 39
 3.875560e+00 1.667814e+00 1.305435e+00 -1.881648e+00 -1.128150e-01 -4.480371e+00 -8.325666e+00 -6.093822e+00 -3.553483e+00 -1.860176e+00 -2.359121e+00 -2.640886e+00 6.016361e+01 3.421373e-02 -4.820917e-04 3.000492e-02 -3.459421e-04 1.076943e-02 2.638062e-03 -4.457403e-03 -2.014034e-02 -1.035736e-02 -5.998346e-03 -6.306469e-03 -1.028533e-02 5.303390e-02 -1.857417e-02 -5.258675e-03 -1.048065e-02 -7.040273e-03 -4.450893e-03 -1.964413e-03 2.032156e-03 3.677677e-03 2.135955e-03 -2.993899e-03 -2.909216e-03 -7.716836e-05 -1.716233e-02
<VARIANCE> 39
 9.972388e+01 7.446604e+01 9.538419e+01 7.723096e+01 7.073263e+01 6.765559e+01 9.494256e+01 7.426771e+01 3.806870e+01 4.321009e+01 3.210278e+01 2.722080e+01 4.202779e+01 4.629466e+00 3.511777e+00 4.288441e+00 3.259604e+00 3.201565e+00 3.118484e+00 4.232450e+00 3.256375e+00 2.272482e+00 2.171811e+00 1.881906e+00 1.582356e+00 1.792141e+00 5.556798e-01 5.200496e-01 5.830778e-01 4.799892e-01 4.892060e-01 4.844166e-01 6.332316e-01 5.251199e-01 3.908901e-01 3.557616e-01 3.323333e-01 2.770304e-01 2.471348e-01
<GCONST> 1.275556e+02
<STATE> 3
~s "silst"
<STATE> 4
<MEAN> 39
 -1.431711e+01 -2.533205e+00 -1.603945e+00 -1.149819e+00 -3.402180e+00 -2.099382e+00 -3.787295e+00 -2.280927e+00 -3.438216e+00 -2.313082e+00 -2.428002e+00 -1.548502e+00 4.427084e+01 -3.164010e-02 7.617685e-03 -1.845412e-02 1.351380e-02 -9.273606e-03 9.195521e-03 -4.302300e-03 9.395747e-03 -4.696247e-03 -3.792732e-03 -6.254592e-03 -2.533203e-03 -5.053267e-02 8.675076e-03 1.908545e-03 4.362374e-03 5.213852e-03 6.301127e-03 2.558172e-03 1.227319e-03 4.314216e-03 2.890687e-03 1.043170e-03 1.227501e-05 -4.307364e-04 7.068180e-03
<VARIANCE> 39
 1.578454e+01 1.083322e+01 8.609694e+00 8.348445e+00 7.532649e+00 9.347707e+00 9.308066e+00 9.128427e+00 9.548297e+00 8.431104e+00 7.491713e+00 6.435852e+00 1.345485e+01 7.770352e-02 1.330909e-01 2.350698e-01 3.350626e-01 4.335265e-01 5.599460e-01 6.367800e-01 7.143254e-01 7.427391e-01 7.110193e-01 6.734355e-01 6.228066e-01 3.602538e-02 1.678144e-02 2.808955e-02 4.936745e-02 7.134728e-02 9.130831e-02 1.184919e-01 1.328254e-01 1.500609e-01 1.542115e-01 1.489447e-01 1.384856e-01 1.296147e-01 6.244419e-03
<GCONST> 5.188633e+01
<TRANSP> 5
 0.000000e+00 1.000000e+00 0.000000e+00 0.000000e+00 0.000000e+00
 0.000000e+00 9.754477e-01 1.690874e-02 7.643498e-03 0.000000e+00
 0.000000e+00 0.000000e+00 8.309883e-01 1.690117e-01 0.000000e+00
 0.000000e+00 1.753075e-02 0.000000e+00 9.715724e-01 1.089685e-02
 0.000000e+00 0.000000e+00 0.000000e+00 0.000000e+00 0.000000e+00
<ENDHMM>
~h "tsh"
<BEGINHMM>
<NUMSTATES> 5
<STATE> 2
<MEAN> 39
 3.036494e+00 -9.958412e+00 4.429243e+00 -4.983168e+00 3.214345e+00 -5.955678e+00 -8.011131e+00 -3.312063e+00 -8.477186e+00 -1.597925e+00 5.101603e+00 -5.705151e+00 6.820080e+01 -2.141337e-01 -2.953046e-01 4.419788e-02 -1.349054e-01 1.461082e-01 -3.350355e-02 1.976199e-01 -2.093146e-01 -2.991886e-02 1.738975e-01 1.579051e-02 -2.804837e-02 1.273208e-01 8.925516e-05 6.346403e-02 -7.080946e-03 8.327246e-02 -6.016136e-02 -1.039727e-02 -1.844718e-02 3.240376e-02 1.114640e-01 6.830651e-03 -5.593512e-02 1.017454e-02 -8.145212e-02
<VARIANCE> 39
 1.769514e+02 5.517368e+01 9.372081e+01 9.223442e+01 5.381796e+01 3.620807e+01 1.268427e+02 5.639491e+01 7.296825e+01 4.223059e+01 4.455310e+01 3.926310e+01 3.368997e+01 1.008862e+01 3.517128e+00 7.542387e+00 5.614464e+00 5.771653e+00 4.270166e+00 6.514076e+00 5.165123e+00 6.754611e+00 4.108437e+00 4.066669e+00 3.101863e+00 2.633693e+00 1.287609e+00 6.544469e-01 1.176897e+00 7.823271e-01 1.013820e+00 7.903359e-01 9.211068e-01 9.024776e-01 1.216200e+00 7.648153e-01 8.179643e-01 5.618367e-01 5.406495e-01
<GCONST> 1.441327e+02
<STATE> 3
<MEAN> 39
 -1.630545e+00 -3.064711e+00 -1.547434e-01 -6.244485e+00 1.148019e+00 -4.086283e+00 -1.746099e+00 -6.653719e+00 -7.006226e+00 5.629402e-01 -1.838290e+00 -2.410225e+00 5.830102e+01 1.987318e+00 1.512948e+00 -4.861637e-01 9.522799e-01 -3.580499e-01 -5.964028e-01 -1.760517e+00 -1.699618e-01 6.986345e-01 9.154883e-02 -2.745574e-01 -5.552998e-01 1.558525e-01 1.090188e-01 9.546712e-03 7.093561e-02 -5.856125e-02 3.182525e-04 -7.610612e-02 -4.998556e-02 -5.892389e-02 -5.722006e-02 -6.402229e-02 1.512340e-01 -1.221767e-01 1.920848e-01
<VARIANCE> 39
 1.383668e+02 6.455919e+01 6.189452e+01 5.685149e+01 9.415996e+01 6.410385e+01 1.448506e+02 6.301106e+01 4.269221e+01 2.716526e+01 1.176116e+01 2.564200e+01 5.031222e+01 5.484153e+00 4.320572e+00 3.449426e+00 6.215510e+00 3.290260e+00 3.431251e+00 6.079101e+00 6.150449e+00 2.618972e+00 2.844684e+00 2.218586e+00 1.645625e+00 5.831470e+00 1.028138e+00 7.286165e-01 6.691784e-01 1.418535e+00 6.427441e-01 6.209489e-01 1.434466e+00 1.143709e+00 4.899716e-01 6.420677e-01 3.445069e-01 3.934931e-01 8.926153e-01
<GCONST> 1.367579e+02
<STATE> 4
<MEAN> 39
 9.590055e+00 5.964627e+00 2.567614e+00 1.999229e+00 5.037411e+00 -7.836012e+00 -1.586208e+01 -1.167878e+01 -6.673496e-01 4.110059e+00 -4.267435e-01 -6.379027e+00 6.243500e+01 -3.386021e-01 4.240401e-01 6.101333e-01 -7.490712e-02 -1.469279e-01 3.816267e-01 8.190183e-01 4.447567e-01 -1.006514e-03 -1.072606e-01 1.914608e-02 1.084138e-01 -2.782383e-01 -1.762241e-01 -4.031476e-02 7.938651e-02 -5.564647e-02 2.911769e-02 2.359844e-01 2.811767e-01 1.350762e-01 -5.589578e-02 -2.201651e-01 -9.585491e-02 1.129145e-01 -9.442720e-02
<VARIANCE> 39
 3.155088e+01 2.478671e+01 8.106436e+01 3.749276e+01 3.217164e+01 3.103055e+01 7.271371e+01 3.525385e+01 4.264305e+01 3.799445e+01 1.079385e+01 1.346533e+01 2.041819e+01 6.060334e-01 7.902703e-01 1.850186e+00 9.256837e-01 7.386694e-01 1.143940e+00 2.049231e+00 1.098315e+00 1.431975e+00 1.762104e+00 7.445604e-01 1.262263e+00 3.391412e-01 1.522877e-01 1.774994e-01 2.794450e-01 9.405828e-02 1.609568e-01 1.694893e-01 2.668925e-01 2.171336e-01 2.331200e-01 2.264797e-01 1.712238e-01 1.203127e-01 7.004227e-02
<GCONST> 9.354465e+01
<TRANSP> 5
 0.000000e+00 1.000000e+00 0.000000e+00 0.000000e+00 0.000000e+00
 0.000000e+00 9.188172e-01 8.118282e-02 0.000000e+00 0.000000e+00
 0.000000e+00 0.000000e+00 7.588214e-01 2.411787e-01 0.000000e+00
 0.000000e+00 0.000000e+00 0.000000e+00 8.130196e-01 1.869804e-01
 0.000000e+00 0.000000e+00 0.000000e+00 0.000000e+00 0.000000e+00
<ENDHMM>
