~o
<STREAMINFO> 1 39
<VECSIZE> 39<NULLD><MFCC_D_A_0><DIAGC>
~s "silst"
<MEAN> 39
 -1.110083e+01 -3.735975e+00 -1.523690e+00 -2.514561e+00 -2.394750e+00 -2.887749e+00 -4.009987e+00 -2.805732e+00 -3.361838e+00 -2.097784e+00 -1.982251e+00 -1.312219e+00 4.846249e+01 -1.921039e-01 -7.406588e-02 -1.443526e-01 -5.353183e-02 -9.265078e-02 -3.970602e-02 -6.457270e-02 1.977160e-02 5.860860e-04 -3.110578e-02 -2.237112e-02 2.172843e-02 -1.895717e-01 8.546446e-02 3.099252e-02 2.863347e-02 3.698541e-02 2.558253e-02 1.430031e-02 6.361533e-04 -8.561603e-03 -5.356964e-03 1.628455e-02 1.620387e-02 1.106134e-03 5.702145e-02
<VARIANCE> 39
 1.604145e+01 1.549362e+01 1.796489e+01 1.278004e+01 1.372748e+01 1.337783e+01 1.298199e+01 1.425326e+01 1.312925e+01 1.082919e+01 1.020592e+01 9.070108e+00 1.243849e+01 3.388210e-01 4.986760e-01 6.433873e-01 6.379523e-01 7.822024e-01 8.199821e-01 9.398341e-01 9.676533e-01 9.993444e-01 9.622532e-01 8.653044e-01 7.738451e-01 1.408885e-01 7.275108e-02 9.403381e-02 1.155929e-01 1.223111e-01 1.574753e-01 1.652931e-01 1.825021e-01 1.947584e-01 2.040618e-01 1.979390e-01 1.737496e-01 1.537666e-01 2.934632e-02
<GCONST> 7.287152e+01
~h "a"
<BEGINHMM>
<NUMSTATES> 5
<STATE> 2
<MEAN> 39
 1.310423e+01 -4.226409e-01 -8.705210e+00 -5.739442e+00 -8.280238e-01 -7.307366e+00 -8.371082e+00 -2.263512e+00 -3.762962e-01 -2.072681e+00 -1.926521e+00 7.540833e-01 6.579867e+01 -3.522324e-01 4.310499e-01 5.898977e-01 -3.925235e-02 -1.009032e-01 4.202878e-01 5.730190e-01 1.167702e-01 -2.101596e-01 -1.893531e-01 -8.787787e-02 -7.403673e-02 -3.308371e-01 -1.537641e-01 1.163163e-01 2.912315e-01 1.680513e-01 6.629711e-02 9.215408e-02 3.492937e-02 -1.012263e-01 -1.129369e-01 1.936959e-03 -1.803298e-02 -8.603971e-02 -1.250759e-01
<VARIANCE> 39
 3.990168e+01 4.875121e+01 6.383468e+01 5.728070e+01 5.030420e+01 4.706133e+01 5.354261e+01 6.465476e+01 2.818183e+01 3.995623e+01 2.860303e+01 2.922606e+01 2.566383e+01 4.818437e-01 9.822033e-01 2.037509e+00 1.436006e+00 1.291068e+00 1.473114e+00 1.951287e+00 2.040254e+00 1.285529e+00 1.554764e+00 1.168022e+00 1.036358e+00 3.566305e-01 8.688804e-02 1.349081e-01 2.221517e-01 1.819803e-01 1.853115e-01 2.244577e-01 2.499929e-01 2.717871e-01 1.933104e-01 2.139335e-01 1.917164e-01 1.657697e-01 5.224610e-02
<GCONST> 9.946655e+01
<STATE> 3
<MEAN> 39
 5.341034e+00 3.138143e+00 -2.598262e-01 -3.855821e+00 -1.429196e+00 -3.558154e+00 -2.604549e+00 -1.875313e+00 -3.839858e+00 -4.124163e+00 -2.357910e+00 -3.490198e-01 5.970546e+01 -5.443031e-01 1.995122e-01 7.309823e-01 4.885316e-01 2.275923e-01 3.278345e-01 2.801009e-01 -2.058633e-02 -1.276956e-01 -5.309543e-02 -9.111018e-02 -1.576696e-01 -3.885759e-01 -3.885736e-02 -1.117029e-01 -6.730075e-02 4.474440e-02 7.057748e-02 -2.491191e-02 -7.611988e-02 4.257310e-03 6.376638e-02 7.313776e-02 4.128950e-02 1.031135e-02 -8.677980e-04
<VARIANCE> 39
 5.646997e+01 9.157198e+01 9.857289e+01 6.708299e+01 4.371846e+01 4.912553e+01 4.039299e+01 3.567080e+01 2.703992e+01 2.110184e+01 2.358358e+01 2.903178e+01 2.289099e+01 4.798961e-01 5.968008e-01 1.375997e+00 1.177644e+00 1.148975e+00 1.225200e+00 1.219446e+00 1.146923e+00 1.015399e+00 1.038706e+00 9.343652e-01 8.726428e-01 2.474005e-01 8.027767e-02 1.003081e-01 1.665000e-01 1.608729e-01 1.721642e-01 1.979581e-01 1.995266e-01 1.975458e-01 1.772489e-01 1.673039e-01 1.591368e-01 1.544250e-01 3.294192e-02
<GCONST> 9.264700e+01
<STATE> 4
<MEAN> 39
 1.180196e+00 1.874479e+00 2.884200e+00 -1.440240e+00 6.557449e-01 -1.770193e+00 -2.684994e+00 -2.432834e+00 -3.222503e+00 -2.419601e+00 -2.125403e+00 -1.420082e+00 5.773839e+01 -1.155861e+00 -7.753206e-01 3.308486e-02 2.697366e-02 1.085757e-02 6.857999e-02 7.164034e-02 5.000047e-02 1.370579e-02 1.516934e-01 1.397463e-01 3.175160e-02 -5.475225e-01 1.478783e-01 -1.750700e-01 -2.978601e-01 -2.322506e-01 -1.960043e-01 -2.689598e-01 -1.828240e-01 1.104474e-03 4.630785e-02 1.956107e-02 3.068447e-04 4.085547e-02 1.472582e-01
<VARIANCE> 39
 6.683527e+01 6.172254e+01 6.866902e+01 5.798503e+01 4.356622e+01 4.960436e+01 4.331713e+01 3.466980e+01 2.709474e+01 2.708090e+01 2.325311e+01 2.031021e+01 2.545265e+01 2.470772e+00 2.478120e+00 3.518029e+00 3.213197e+00 2.920279e+00 2.792068e+00 2.579832e+00 2.043012e+00 1.742072e+00 1.684954e+00 1.493727e+00 1.506983e+00 9.330718e-01 3.235596e-01 4.056818e-01 4.686250e-01 5.007282e-01 4.643380e-01 4.390901e-01 4.421030e-01 3.846597e-01 3.270731e-01 3.353708e-01 2.788463e-01 2.620778e-01 1.167722e-01
<GCONST> 1.152778e+02
<TRANSP> 5
 0.000000e+00 1.000000e+00 0.000000e+00 0.000000e+00 0.000000e+00
 0.000000e+00 7.676385e-01 2.323615e-01 0.000000e+00 0.000000e+00
 0.000000e+00 0.000000e+00 7.447962e-01 2.552038e-01 0.000000e+00
 0.000000e+00 0.000000e+00 0.000000e+00 6.542763e-01 3.457237e-01
 0.000000e+00 0.000000e+00 0.000000e+00 0.000000e+00 0.000000e+00
<ENDHMM>
~h "b"
<BEGINHMM>
<NUMSTATES> 5
<STATE> 2
<MEAN> 39
 3.076912e+00 -1.567647e+00 3.714819e-01 -8.690430e-01 -1.095571e+00 -5.653801e+00 -5.944772e+00 -4.444999e+00 -2.935530e+00 -7.596432e-01 -3.101449e+00 -2.350561e+00 5.993170e+01 1.560979e+00 -9.541176e-02 -8.866807e-01 -5.561827e-01 -3.405634e-01 -7.531760e-01 -6.011546e-01 -1.714777e-01 5.353951e-02 -1.440433e-01 9.973199e-02 4.127546e-01 1.174765e+00 1.887040e-01 -9.540839e-02 -1.458177e-01 -5.629819e-02 -2.405733e-02 -1.148545e-01 -1.548092e-01 -7.094100e-03 5.168687e-02 2.645737e-02 4.461077e-02 5.379370e-02 1.498335e-01
<VARIANCE> 39
 9.737196e+01 9.813265e+01 9.456997e+01 8.599831e+01 7.667502e+01 7.446165e+01 6.229550e+01 5.355470e+01 3.213238e+01 3.221379e+01 2.551290e+01 1.751823e+01 5.476358e+01 9.840214e+00 7.097044e+00 7.669098e+00 6.404047e+00 4.121898e+00 5.481770e+00 5.719903e+00 5.601408e+00 3.409280e+00 2.779943e+00 2.683886e+00 2.124218e+00 4.208004e+00 1.178106e+00 1.063024e+00 9.321932e-01 8.606423e-01 6.995015e-01 9.731784e-01 9.168978e-01 8.923745e-01 5.235916e-01 4.497855e-01 3.656572e-01 3.492155e-01 6.622016e-01
<GCONST> 1.393107e+02
<STATE> 3
<MEAN> 39
 1.237156e+01 -4.524851e-02 -5.374027e+00 -2.220116e+00 -2.639866e-01 -8.328102e+00 -9.943798e+00 -4.852825e+00 -4.093150e+00 -3.353710e+00 -3.024867e+00 -9.966108e-01 6.575201e+01 3.747946e-01 -7.433485e-01 -8.726929e-01 -3.141593e-01 2.145980e-01 -6.109948e-02 -9.163040e-02 3.173973e-01 2.620349e-01 -2.897100e-02 2.533336e-01 4.680501e-01 5.032204e-01 -4.306456e-01 5.676844e-03 3.549272e-01 1.969832e-01 -6.498325e-02 1.609289e-01 2.699317e-01 7.598130e-02 2.331612e-02 6.876253e-02 -6.148887e-02 -1.570441e-01 -2.700537e-01
<VARIANCE> 39
 5.128619e+01 9.103445e+01 7.824568e+01 6.985584e+01 7.076256e+01 1.452953e+02 6.078275e+01 7.401564e+01 3.369201e+01 4.144511e+01 4.231214e+01 3.117818e+01 2.935259e+01 1.486337e+00 2.536702e+00 3.025751e+00 2.725802e+00 3.569439e+00 3.085787e+00 3.502732e+00 3.355647e+00 2.666304e+00 2.230474e+00 1.876057e+00 1.636748e+00 8.702285e-01 3.459900e-01 4.779499e-01 5.587693e-01 4.667794e-01 5.324841e-01 7.096733e-01 6.587449e-01 5.958910e-01 4.969505e-01 4.060420e-01 3.503982e-01 2.320436e-01 1.777792e-01
<GCONST> 1.243649e+02
<STATE> 4
<MEAN> 39
 9.673030e+00 -6.065432e+00 -7.692988e+00 -7.499809e-01 -1.051240e+00 -9.271336e+00 -1.005573e+01 -5.158444e+00 -3.349462e+00 -9.575725e-01 -6.895614e-01 3.930535e-01 6.477808e+01 -3.102279e-01 2.313852e-01 3.976209e-01 1.060672e-01 -3.298015e-02 1.300819e-01 2.545364e-01 1.840123e-01 2.241883e-02 -5.093680e-02 -6.474143e-02 -6.206550e-02 -2.669640e-01 -1.068267e-01 1.098280e-01 1.572576e-01 7.242505e-02 2.904782e-02 6.579128e-02 4.519115e-02 -2.677089e-02 -5.287442e-02 -5.963771e-03 -4.028999e-02 -8.070832e-02 -1.009962e-01
<VARIANCE> 39
 7.176558e+01 1.445240e+02 6.772845e+01 8.925940e+01 4.717220e+01 9.136147e+01 5.788688e+01 6.232074e+01 3.361737e+01 3.802574e+01 2.888436e+01 3.073101e+01 3.319585e+01 5.050743e-01 1.004457e+00 1.362008e+00 1.410516e+00 1.118218e+00 1.270813e+00 1.384880e+00 1.392806e+00 1.457992e+00 1.376640e+00 1.244304e+00 9.616396e-01 3.254848e-01 1.040179e-01 1.547220e-01 2.348146e-01 1.946673e-01 1.632434e-01 2.263976e-01 2.190569e-01 2.404149e-01 2.599708e-01 2.250287e-01 2.142541e-01 1.696401e-01 5.122870e-02
<GCONST> 1.017898e+02
<TRANSP> 5
 0.000000e+00 1.000000e+00 0.000000e+00 0.000000e+00 0.000000e+00
 0.000000e+00 6.988443e-01 3.011557e-01 0.000000e+00 0.000000e+00
 0.000000e+00 0.000000e+00 5.498151e-01 4.501849e-01 0.000000e+00
 0.000000e+00 0.000000e+00 0.000000e+00 8.151237e-01 1.848763e-01
 0.000000e+00 0.000000e+00 0.000000e+00 0.000000e+00 0.000000e+00
<ENDHMM>
~h "d"
<BEGINHMM>
<NUMSTATES> 5
<STATE> 2
<MEAN> 39
 -3.363925e+00 -7.104408e+00 -5.228055e+00 -1.541197e+00 -5.382096e-01 -4.543517e+00 -4.107539e+00 -1.861894e+00 -4.179332e+00 -3.078004e+00 -5.803548e-01 8.709430e-01 5.556257e+01 -2.500783e-01 6.169955e-02 5.121619e-02 5.584645e-03 -6.905705e-02 -4.206663e-03 5.048495e-03 -1.884766e-02 -1.599633e-03 -2.430534e-02 -3.646294e-02 1.524186e-02 -2.287876e-01 5.732722e-03 4.788636e-02 4.790437e-02 1.798909e-02 -4.197905e-03 -1.680838e-02 -2.869522e-02 -2.032023e-02 -4.348777e-03 5.706662e-03 -1.919886e-02 -2.536467e-02 -8.859371e-03
<VARIANCE> 39
 4.415461e+01 8.833000e+01 8.538798e+01 5.677029e+01 4.135847e+01 6.180935e+01 5.002158e+01 3.570115e+01 3.149645e+01 3.220169e+01 2.130791e+01 2.434690e+01 1.968539e+01 3.286256e-01 6.904793e-01 9.820672e-01 9.495234e-01 1.088614e+00 1.146623e+00 1.204283e+00 1.135438e+00 1.196287e+00 1.147057e+00 1.013927e+00 9.189040e-01 1.817772e-01 4.035831e-02 7.398432e-02 1.103828e-01 1.368760e-01 1.637269e-01 1.928013e-01 1.973162e-01 1.888250e-01 2.253204e-01 1.885423e-01 1.824509e-01 1.549809e-01 1.797247e-02
<GCONST> 8.994647e+01
<STATE> 3
<MEAN> 39
 -1.124280e+01 -2.088760e+00 -1.027046e+00 -2.425428e+00 -3.662326e+00 -3.074883e+00 -4.340986e+00 -2.868202e+00 -3.903719e+00 -2.645598e+00 -2.636212e+00 -1.696880e+00 4.754765e+01 -7.648554e-02 3.482885e-02 -8.745635e-03 3.844911e-02 -2.974618e-02 2.703534e-02 7.334741e-03 2.174890e-02 -1.273986e-02 -1.271133e-02 -1.820730e-02 -6.739304e-03 -1.141008e-01 1.395249e-02 -6.438752e-04 2.138597e-03 1.007180e-02 1.693244e-02 1.156992e-02 2.316283e-04 -3.475358e-04 1.531348e-04 7.984268e-04 -4.322078e-04 -3.142835e-03 1.085548e-02
<VARIANCE> 39
 2.812472e+01 1.649975e+01 1.208747e+01 9.414410e+00 1.109453e+01 1.260178e+01 1.072786e+01 1.076239e+01 1.063448e+01 9.917320e+00 9.168124e+00 7.721783e+00 1.616189e+01 1.001253e-01 1.694716e-01 2.902908e-01 3.823911e-01 4.873672e-01 5.787117e-01 6.380205e-01 7.491020e-01 7.581320e-01 7.194071e-01 6.924693e-01 6.630878e-01 4.428001e-02 1.940008e-02 3.490703e-02 5.802951e-02 7.806072e-02 1.018209e-01 1.195617e-01 1.334232e-01 1.552706e-01 1.573587e-01 1.460016e-01 1.414065e-01 1.377403e-01 7.306393e-03
<GCONST> 5.755052e+01
<STATE> 4
<MEAN> 39
 -2.804942e+00 1.494215e+00 1.776547e+00 -5.636988e-01 -1.419917e+00 -3.407549e+00 -4.581647e+00 -3.099277e+00 -4.249575e+00 -3.367656e+00 -2.974859e+00 -1.795324e+00 5.381609e+01 -9.660406e-02 1.680991e-01 3.355769e-01 3.749589e-01 3.576565e-01 3.473793e-01 1.011419e-01 1.477198e-02 -3.424288e-02 -9.370542e-02 -1.576397e-01 -1.039087e-01 -1.237229e-01 2.391367e-01 5.400228e-02 1.101244e-01 2.186630e-01 1.876297e-01 4.425168e-02 -2.063555e-02 -4.870801e-02 9.663595e-03 6.749484e-02 2.240904e-02 -6.211798e-02 1.733386e-01
<VARIANCE> 39
 1.105686e+02 6.638856e+01 6.657064e+01 3.197158e+01 2.946594e+01 4.015687e+01 2.825009e+01 3.057265e+01 2.281951e+01 2.133294e+01 1.816638e+01 1.435546e+01 5.636662e+01 4.240053e-01 4.811535e-01 7.819984e-01 7.934082e-01 8.748637e-01 8.353230e-01 9.057100e-01 1.017619e+00 9.944781e-01 9.016058e-01 7.613138e-01 6.820242e-01 1.609665e-01 2.276110e-01 3.271137e-01 3.990763e-01 2.789137e-01 2.250797e-01 2.871741e-01 3.092689e-01 2.406219e-01 2.430069e-01 2.281161e-01 2.211454e-01 1.962630e-01 9.716633e-02
<GCONST> 9.431779e+01
<TRANSP> 5
 0.000000e+00 1.000000e+00 0.000000e+00 0.000000e+00 0.000000e+00
 0.000000e+00 8.474013e-01 1.525987e-01 0.000000e+00 0.000000e+00
 0.000000e+00 0.000000e+00 9.300907e-01 6.990936e-02 0.000000e+00
 0.000000e+00 0.000000e+00 0.000000e+00 3.903876e-01 6.096125e-01
 0.000000e+00 0.000000e+00 0.000000e+00 0.000000e+00 0.000000e+00
<ENDHMM>
~h "e"
<BEGINHMM>
<NUMSTATES> 5
<STATE> 2
<MEAN> 39
 -3.624579e+00 1.085241e+00 5.574322e+00 6.808292e-01 1.079934e+00 -1.362593e+00 -3.708705e+00 -3.483679e+00 -3.697489e+00 -2.270358e+00 -2.722665e+00 -2.673660e+00 5.467620e+01 -1.198554e-01 -2.698838e-01 -2.371132e-01 1.117470e-01 -3.856257e-03 7.188717e-02 5.693780e-02 -1.030390e-01 -1.231737e-01 -3.785141e-02 1.991225e-02 3.386037e-02 -7.295074e-02 5.894501e-01 -9.242173e-02 -3.240351e-01 -2.617902e-02 -2.380994e-02 -3.763486e-01 -4.474788e-01 -2.572802e-01 -1.532149e-03 1.677342e-01 1.068034e-01 -1.031556e-02 4.339639e-01
<VARIANCE> 39
 7.284081e+01 7.523994e+01 5.938894e+01 5.658661e+01 3.790158e+01 3.465283e+01 3.487617e+01 2.748364e+01 2.095558e+01 2.224449e+01 1.648121e+01 1.384432e+01 3.154898e+01 3.194308e+00 3.684288e+00 3.836014e+00 3.324394e+00 2.679828e+00 2.320354e+00 2.683300e+00 2.354578e+00 1.899011e+00 1.891477e+00 1.547053e+00 1.261472e+00 1.183371e+00 5.914289e-01 6.920049e-01 6.089079e-01 6.002150e-01 4.884593e-01 4.904584e-01 6.315175e-01 5.035341e-01 3.847809e-01 3.908372e-01 3.015351e-01 2.688448e-01 2.827257e-01
<GCONST> 1.181308e+02
<STATE> 3
<MEAN> 39
 1.467126e+00 -2.725608e+00 9.211881e-01 -2.395010e-02 -3.484481e-01 -6.168917e+00 -7.643552e+00 -4.758369e+00 -4.688522e+00 -1.308081e+00 -1.989435e+00 -2.628922e+00 5.942390e+01 2.599446e+00 -3.935888e-03 -1.025718e+00 2.866900e-01 5.005208e-01 -1.191890e+00 -1.886691e+00 -9.661827e-01 -2.470989e-02 4.076219e-01 2.396981e-01 -3.985088e-02 1.797535e+00 9.268908e-02 2.755863e-02 -3.059405e-02 5.681377e-02 1.275795e-01 -9.713143e-02 -2.355344e-01 2.516381e-02 1.725644e-01 3.461113e-02 -1.603174e-02 -1.645746e-02 5.234771e-02
<VARIANCE> 39
 1.040085e+02 1.034778e+02 8.589371e+01 8.645229e+01 7.018454e+01 8.812434e+01 8.724824e+01 7.607684e+01 4.687608e+01 4.724698e+01 3.085162e+01 2.308229e+01 4.996215e+01 8.841313e+00 8.836658e+00 7.145679e+00 6.750082e+00 5.449409e+00 6.157811e+00 8.535781e+00 6.672573e+00 3.969173e+00 4.341990e+00 3.089108e+00 2.597105e+00 4.072008e+00 1.167776e+00 1.207016e+00 9.618573e-01 8.938297e-01 7.665430e-01 1.027257e+00 1.140031e+00 9.628924e-01 6.605150e-01 6.666253e-01 5.009199e-01 4.218346e-01 6.233897e-01
<GCONST> 1.449088e+02
<STATE> 4
<MEAN> 39
 1.144635e+01 -2.048987e+00 -2.785037e+00 4.131230e+00 5.752561e+00 -1.070445e+01 -1.797404e+01 -9.658126e+00 -2.310818e+00 2.554595e+00 -5.738819e-01 -3.845488e+00 6.543222e+01 -9.340699e-02 1.894912e-01 1.966031e-01 -2.099226e-03 6.856912e-02 2.083807e-01 2.064762e-01 1.046450e-01 1.615168e-01 1.111584e-01 3.585041e-02 -8.263181e-03 -1.026528e-01 -3.512389e-01 2.110584e-02 2.067353e-01 -1.072938e-01 -1.468460e-01 2.251545e-01 4.138874e-01 1.710450e-01 -5.179590e-02 -9.216955e-02 -5.533495e-02 3.259061e-02 -2.215105e-01
<VARIANCE> 39
 2.965504e+01 5.228374e+01 5.868039e+01 6.310085e+01 4.249755e+01 5.799412e+01 7.561092e+01 8.513899e+01 3.880813e+01 4.282871e+01 3.263904e+01 3.126924e+01 2.333257e+01 2.018049e+00 2.390364e+00 3.005930e+00 2.518182e+00 1.868326e+00 3.446637e+00 4.341626e+00 2.627507e+00 2.153333e+00 2.204333e+00 1.656428e+00 1.572496e+00 1.302981e+00 3.525940e-01 4.584120e-01 4.478717e-01 3.794285e-01 3.198511e-01 4.865987e-01 6.426515e-01 4.930452e-01 3.724502e-01 3.841365e-01 3.095027e-01 2.732120e-01 1.895220e-01
<GCONST> 1.193055e+02
<TRANSP> 5
 0.000000e+00 1.000000e+00 0.000000e+00 0.000000e+00 0.000000e+00
 0.000000e+00 6.536117e-01 3.463883e-01 0.000000e+00 0.000000e+00
 0.000000e+00 0.000000e+00 7.144482e-01 2.855518e-01 0.000000e+00
 0.000000e+00 0.000000e+00 0.000000e+00 8.407838e-01 1.592163e-01
 0.000000e+00 0.000000e+00 0.000000e+00 0.000000e+00 0.000000e+00
<ENDHMM>
~h "f"
<BEGINHMM>
<NUMSTATES> 5
<STATE> 2
<MEAN> 39
 -6.087580e-01 -1.407378e+00 7.787290e-01 -1.406883e+00 -1.376539e-01 -3.437140e+00 -3.480188e+00 -2.977024e+00 -3.751338e+00 -1.519128e+00 -1.574070e+00 -2.602490e+00 5.685206e+01 -3.718535e-01 -1.325249e+00 4.679925e-01 -7.429584e-01 -6.567189e-01 1.256853e-01 3.353127e-01 -1.871926e-01 -6.118396e-01 3.832694e-01 4.647106e-01 8.780268e-02 5.509915e-01 3.398518e-01 -3.539190e-01 2.170128e-02 -4.791698e-01 -3.955919e-01 -6.885204e-01 -3.167993e-01 -8.358400e-02 1.659153e-02 3.519988e-02 -2.094821e-01 3.201604e-02 5.965969e-01
<VARIANCE> 39
 6.497336e+01 4.475869e+01 3.481973e+01 2.712785e+01 3.341952e+01 4.181424e+01 4.575991e+01 3.708811e+01 2.824602e+01 4.378692e+01 1.925150e+01 1.825328e+01 2.374285e+01 1.097101e+01 1.461228e+01 7.175867e+00 6.321924e+00 4.158609e+00 3.424343e+00 5.466039e+00 3.910923e+00 3.976344e+00 5.122840e+00 2.350974e+00 3.456292e+00 3.152205e+00 1.033757e+00 1.433734e+00 5.053577e-01 6.330875e-01 4.445901e-01 5.833922e-01 4.424671e-01 4.420584e-01 4.731808e-01 7.642881e-01 2.579171e-01 3.784888e-01 2.333559e-01
<GCONST> 1.296729e+02
<STATE> 3
<MEAN> 39
 -5.865833e+00 -1.483220e+01 7.536552e+00 -6.072280e+00 -1.735878e+00 -8.993193e+00 -4.269230e-01 -1.923882e+00 -8.733338e+00 3.185613e+00 -2.960237e-01 -2.512576e+00 6.353404e+01 -1.272623e-01 -6.766491e-01 -1.548060e-01 -7.814406e-01 -3.464174e-01 -9.697834e-01 -5.304768e-01 -4.401541e-02 -3.252641e-01 -8.117592e-02 -2.958418e-01 1.500123e-01 3.757330e-01 6.499987e-01 7.456461e-01 -4.574896e-01 2.731181e-01 1.164756e-01 -2.857354e-02 -3.009700e-01 5.814809e-02 2.282376e-01 -2.578213e-01 -1.374758e-01 6.230295e-02 -8.642481e-02
<VARIANCE> 39
 7.136389e+01 1.054077e+02 1.333792e+02 1.014094e+02 6.603326e+01 7.109800e+01 8.421865e+01 5.341906e+01 7.709814e+01 5.504751e+01 1.830915e+01 2.515242e+01 3.190723e+01 1.344341e+01 1.112863e+01 7.655794e+00 7.035437e+00 4.385503e+00 4.556086e+00 3.880376e+00 3.166184e+00 4.634669e+00 3.987545e+00 2.306837e+00 1.842420e+00 2.384671e+00 8.277044e-01 1.268398e+00 8.953651e-01 1.291011e+00 6.044406e-01 6.250593e-01 5.679711e-01 5.445120e-01 8.734613e-01 6.263918e-01 3.724731e-01 5.133410e-01 3.857806e-01
<GCONST> 1.394966e+02
<STATE> 4
<MEAN> 39
 5.045886e+00 -7.990139e+00 -2.527860e+00 -3.155338e+00 -1.060573e+00 -9.819563e+00 -6.488636e+00 -1.914749e+00 -5.902668e+00 -3.968509e-01 -1.360005e+00 -3.887210e-01 6.391159e+01 9.501696e-01 9.238566e-01 -7.443613e-01 3.381453e-01 5.672379e-02 -5.954504e-03 -3.307823e-01 -2.420339e-02 3.687641e-01 -3.372529e-01 -4.659006e-02 9.412991e-02 -4.631291e-02 -5.512583e-01 -1.759811e-01 1.256557e-01 1.365720e-01 2.797387e-01 2.979648e-01 3.002893e-01 1.040788e-01 2.764012e-02 -1.335474e-02 6.055222e-02 -4.065405e-02 -2.817646e-01
<VARIANCE> 39
 1.046132e+02 1.295010e+02 5.576772e+01 5.978609e+01 6.577368e+01 9.434160e+01 7.674760e+01 8.355730e+01 5.537715e+01 4.735610e+01 2.804706e+01 3.229891e+01 2.649302e+01 6.155947e+00 5.443628e+00 3.944483e+00 4.527189e+00 3.198981e+00 5.453241e+00 3.237944e+00 6.431143e+00 3.347002e+00 3.350447e+00 2.756644e+00 2.072335e+00 3.003350e+00 1.036314e+00 1.553900e+00 7.306876e-01 6.655576e-01 6.211367e-01 1.035321e+00 8.178014e-01 1.171653e+00 5.853832e-01 8.026774e-01 5.690005e-01 4.979598e-01 4.184110e-01
<GCONST> 1.386926e+02
<TRANSP> 5
 0.000000e+00 1.000000e+00 0.000000e+00 0.000000e+00 0.000000e+00
 0.000000e+00 5.741172e-01 4.258829e-01 0.000000e+00 0.000000e+00
 0.000000e+00 0.000000e+00 6.704510e-01 3.295490e-01 0.000000e+00
 0.000000e+00 0.000000e+00 0.000000e+00 6.708741e-01 3.291258e-01
 0.000000e+00 0.000000e+00 0.000000e+00 0.000000e+00 0.000000e+00
<ENDHMM>
~h "g"
<BEGINHMM>
<NUMSTATES> 5
<STATE> 2
<MEAN> 39
 1.418879e+01 -6.538113e-01 -7.297032e+00 -4.542438e+00 -3.575063e+00 -1.079180e+01 -6.733656e+00 3.746520e+00 -1.026162e+00 -8.183292e+00 -3.482535e+00 2.595525e+00 6.658196e+01 1.325489e-01 3.512473e-02 -2.243810e-01 -8.691788e-01 -9.339043e-01 -5.013467e-01 5.302538e-01 1.108893e+00 2.767392e-01 -5.762592e-01 -3.505932e-01 7.437137e-02 1.704447e-01 -2.217238e-01 2.584094e-01 3.892747e-01 1.176023e-01 7.686372e-02 2.668422e-01 1.545798e-02 -4.016777e-01 -1.023886e-01 2.653535e-01 1.984077e-02 -2.644305e-01 -2.215851e-01
<VARIANCE> 39
 2.451653e+01 7.648029e+01 9.198920e+01 3.234106e+01 4.355501e+01 5.373087e+01 3.958560e+01 5.360791e+01 2.283642e+01 4.743833e+01 2.611370e+01 4.863342e+01 2.404614e+01 1.402304e+00 3.084557e+00 2.909330e+00 1.885880e+00 1.684870e+00 3.109625e+00 1.807109e+00 3.367084e+00 1.639618e+00 2.397470e+00 1.754932e+00 2.434290e+00 1.107596e+00 1.393040e-01 2.914496e-01 3.563672e-01 2.121979e-01 1.935802e-01 5.276958e-01 3.086727e-01 3.948014e-01 2.124984e-01 3.244791e-01 2.620482e-01 2.411643e-01 1.126837e-01
<GCONST> 1.117051e+02
<STATE> 3
<MEAN> 39
 1.168829e+01 7.763489e+00 1.529284e+00 -6.407787e+00 -9.904598e+00 -1.314557e+01 -4.069091e+00 5.154260e+00 -4.590750e-04 -6.023702e+00 -5.654408e+00 -3.201780e+00 6.314854e+01 -4.449043e-01 1.550347e-01 5.152687e-01 3.201680e-01 3.566522e-01 5.845976e-01 3.347911e-01 -2.698687e-01 -3.259295e-01 8.073141e-02 8.761969e-02 -1.285508e-01 -3.619238e-01 -1.231146e-01 -1.259201e-01 7.215642e-02 2.136992e-01 2.416654e-01 2.054658e-01 2.272435e-02 -1.771177e-01 -1.070958e-01 9.685122e-02 9.736276e-02 1.079161e-03 -4.232936e-02
<VARIANCE> 39
 1.398065e+01 3.125461e+01 3.844724e+01 2.784151e+01 4.854397e+01 8.036230e+01 5.072578e+01 3.759917e+01 2.716669e+01 3.462138e+01 2.495224e+01 2.717049e+01 1.287717e+01 6.663863e-01 1.162909e+00 1.614446e+00 1.396505e+00 2.343589e+00 2.848987e+00 1.697030e+00 1.918383e+00 1.308098e+00 2.141769e+00 1.349611e+00 1.347038e+00 4.437789e-01 1.189209e-01 1.584391e-01 1.655589e-01 1.997807e-01 3.053275e-01 4.119772e-01 3.139014e-01 2.744061e-01 1.824358e-01 3.283001e-01 2.584136e-01 2.343069e-01 5.572707e-02
<GCONST> 1.005164e+02
<STATE> 4
<MEAN> 39
 5.112662e+00 2.196485e+00 4.546526e+00 7.025869e-01 -1.891632e+00 -3.061938e+00 -1.609612e+00 -1.512609e+00 -5.411305e+00 -2.069678e+00 -1.056683e+00 -3.640859e+00 6.040814e+01 -7.720085e-01 -9.444370e-01 3.772081e-01 6.857572e-01 4.805383e-01 4.424812e-01 -1.570495e-01 -8.360453e-01 -2.709544e-01 6.954165e-01 2.616628e-01 -2.027475e-01 -1.527767e-01 9.073240e-02 -6.613629e-02 -2.283715e-01 -1.543621e-01 -5.579698e-02 -2.980081e-01 -2.753077e-01 6.470269e-02 2.184239e-01 -4.943518e-02 -1.598686e-01 2.009621e-02 7.975212e-02
<VARIANCE> 39
 5.262662e+01 7.348833e+01 7.056223e+01 4.799677e+01 6.713023e+01 7.481137e+01 9.104325e+01 4.508535e+01 4.755171e+01 3.934203e+01 3.785791e+01 2.853511e+01 2.039771e+01 3.439315e+00 5.649125e+00 5.011358e+00 3.799845e+00 4.493744e+00 4.082315e+00 7.256746e+00 3.947617e+00 4.413796e+00 3.241603e+00 2.589175e+00 2.353602e+00 1.667374e+00 4.167205e-01 7.622471e-01 6.144555e-01 7.575679e-01 8.632755e-01 5.033678e-01 1.035814e+00 6.617282e-01 7.421798e-01 6.377454e-01 5.256062e-01 4.630008e-01 2.315662e-01
<GCONST> 1.328516e+02
<TRANSP> 5
 0.000000e+00 1.000000e+00 0.000000e+00 0.000000e+00 0.000000e+00
 0.000000e+00 6.097091e-01 3.902909e-01 0.000000e+00 0.000000e+00
 0.000000e+00 0.000000e+00 8.335611e-01 1.664389e-01 0.000000e+00
 0.000000e+00 0.000000e+00 0.000000e+00 6.650367e-01 3.349634e-01
 0.000000e+00 0.000000e+00 0.000000e+00 0.000000e+00 0.000000e+00
<ENDHMM>
~h "i"
<BEGINHMM>
<NUMSTATES> 5
<STATE> 2
<MEAN> 39
 -6.178060e+00 -6.434252e+00 5.389378e+00 -2.240232e+00 4.745442e-01 -2.838121e+00 -4.478207e+00 -5.149898e+00 -4.354688e+00 1.106764e+00 -2.201373e+00 -3.347485e+00 5.687813e+01 7.084641e-01 -8.605561e-02 -2.853152e-01 9.293706e-01 4.090275e-01 -3.704987e-01 -6.330063e-01 -5.720481e-01 -2.239597e-01 1.264823e-01 -3.013491e-02 -3.314314e-01 3.508507e-01 7.095205e-01 2.667393e-01 -1.267445e-01 2.870529e-01 2.180093e-01 -3.812179e-01 -5.169909e-01 -2.240095e-01 -3.759915e-02 -4.840549e-03 -6.227373e-02 -1.416418e-01 3.741951e-01
<VARIANCE> 39
 7.198156e+01 1.157013e+02 7.790243e+01 8.383244e+01 5.426624e+01 5.667959e+01 5.604346e+01 4.185345e+01 4.327517e+01 4.787900e+01 2.650556e+01 2.349789e+01 3.642047e+01 7.125545e+00 8.609100e+00 5.677166e+00 7.047771e+00 4.668680e+00 4.479482e+00 5.884577e+00 4.420466e+00 3.097513e+00 3.373395e+00 2.493274e+00 2.364917e+00 2.486847e+00 6.079009e-01 1.095855e+00 7.889574e-01 8.578078e-01 6.724550e-01 7.593662e-01 8.805482e-01 7.749461e-01 5.636240e-01 5.469034e-01 4.608468e-01 3.877797e-01 3.630140e-01
<GCONST> 1.363196e+02
<STATE> 3
<MEAN> 39
 6.198798e+00 -2.978466e+00 2.042667e+00 6.155978e+00 4.223871e+00 -1.013109e+01 -1.355225e+01 -7.983015e+00 -5.633705e+00 -2.677562e-01 -3.717792e+00 -6.289433e+00 6.271665e+01 2.113709e+00 5.741111e-01 -4.471420e-01 6.938002e-01 5.209072e-01 -1.185401e+00 -1.832072e+00 -5.871782e-01 2.079327e-01 3.825803e-02 -2.961667e-01 -4.160467e-01 1.217885e+00 -4.808560e-01 -1.747693e-01 5.302700e-02 -2.758698e-01 -2.461539e-01 1.084104e-01 3.055296e-01 3.751005e-01 2.873501e-01 1.994640e-02 -2.154495e-02 7.324913e-02 -2.429233e-01
<VARIANCE> 39
 5.658242e+01 8.775510e+01 7.089146e+01 1.269535e+02 9.024709e+01 9.991534e+01 9.625542e+01 1.239518e+02 4.522398e+01 5.625297e+01 4.172247e+01 4.160946e+01 2.913297e+01 6.899258e+00 7.105046e+00 5.093566e+00 9.761687e+00 6.027551e+00 7.461251e+00 9.145102e+00 7.978256e+00 4.548067e+00 4.636869e+00 4.013613e+00 3.985073e+00 2.861017e+00 8.163741e-01 1.297685e+00 8.856816e-01 1.148181e+00 9.070998e-01 1.163127e+00 1.279212e+00 1.378252e+00 8.295880e-01 8.047810e-01 6.984082e-01 6.435834e-01 3.965906e-01
<GCONST> 1.477924e+02
<STATE> 4
<MEAN> 39
 8.835409e+00 -1.459490e-01 3.751934e+00 1.009174e+01 6.613489e+00 -1.258663e+01 -1.891583e+01 -9.567950e+00 -1.036516e+00 1.732694e+00 -5.237769e+00 -7.936656e+00 6.354795e+01 -8.135164e-02 2.340201e-01 -1.132854e-01 -5.135196e-01 -2.333287e-01 3.955225e-01 6.122868e-01 3.394199e-01 9.810296e-02 -4.787738e-02 1.995672e-01 3.110746e-01 -1.319605e-01 -1.643040e-01 5.762035e-03 1.261567e-02 -2.074562e-01 -1.220889e-01 2.228145e-01 3.416842e-01 1.060105e-01 -1.060703e-01 -9.640647e-02 4.429513e-02 1.322847e-01 -1.086918e-01
<VARIANCE> 39
 2.465557e+01 5.261064e+01 5.893099e+01 9.036240e+01 5.004446e+01 6.779996e+01 6.222472e+01 5.373580e+01 3.873534e+01 4.176160e+01 4.460363e+01 3.742060e+01 2.082350e+01 1.040154e+00 1.674229e+00 2.641416e+00 3.105382e+00 1.722396e+00 3.144428e+00 3.801238e+00 2.633286e+00 2.279505e+00 2.253062e+00 2.117713e+00 2.157703e+00 7.725137e-01 1.990665e-01 2.904352e-01 3.317583e-01 3.796186e-01 2.704346e-01 4.790116e-01 6.376709e-01 4.543211e-01 3.725561e-01 3.863071e-01 3.580083e-01 3.275606e-01 1.204127e-01
<GCONST> 1.166604e+02
<TRANSP> 5
 0.000000e+00 1.000000e+00 0.000000e+00 0.000000e+00 0.000000e+00
 0.000000e+00 7.547979e-01 2.452020e-01 0.000000e+00 0.000000e+00
 0.000000e+00 0.000000e+00 7.305329e-01 2.694670e-01 0.000000e+00
 0.000000e+00 0.000000e+00 0.000000e+00 8.662540e-01 1.337460e-01
 0.000000e+00 0.000000e+00 0.000000e+00 0.000000e+00 0.000000e+00
<ENDHMM>
~h "j"
<BEGINHMM>
<NUMSTATES> 5
<STATE> 2
<MEAN> 39
 7.641562e+00 5.222009e+00 1.199448e+00 -1.342629e+00 -7.388566e-02 -4.847842e+00 -6.147353e+00 -2.459317e+00 -2.396145e+00 -3.613539e+00 -3.771820e+00 -2.532003e+00 6.087791e+01 -1.072320e+00 7.344770e-01 1.277580e+00 3.017398e-01 2.110311e-01 1.258805e+00 1.319650e+00 3.658651e-01 1.825449e-01 1.403020e-01 -1.922091e-01 -3.944879e-01 -8.764740e-01 -2.097612e-01 -1.707447e-01 1.164303e-01 3.045694e-01 1.251697e-01 -6.479257e-02 -2.042379e-02 -9.081274e-03 -2.919480e-02 1.164905e-01 1.347743e-01 3.519259e-02 -8.194700e-02
<VARIANCE> 39
 5.313665e+01 5.539079e+01 7.561559e+01 5.418349e+01 7.233886e+01 3.783184e+01 3.731770e+01 4.815072e+01 2.248172e+01 2.521564e+01 2.175928e+01 2.115828e+01 3.369709e+01 2.230533e+00 2.646176e+00 3.041618e+00 2.786038e+00 4.028101e+00 2.744430e+00 2.601657e+00 3.251994e+00 2.123212e+00 2.168712e+00 1.761370e+00 2.417445e+00 9.232422e-01 2.509361e-01 3.751970e-01 3.848801e-01 3.123779e-01 5.211623e-01 4.035610e-01 3.370092e-01 4.106433e-01 3.595872e-01 3.013670e-01 2.643400e-01 3.492436e-01 1.084794e-01
<GCONST> 1.158832e+02
<STATE> 3
<MEAN> 39
 1.818503e+00 6.870405e+00 7.859011e+00 2.100590e+00 2.428845e+00 -8.088990e-01 -1.313548e+00 -1.564497e+00 -2.292346e+00 -2.576929e+00 -2.926097e+00 -3.606388e+00 5.695230e+01 -1.060820e+00 -5.231293e-01 1.963978e-01 2.096833e-01 -1.072464e-01 1.615636e-01 4.029176e-01 1.714977e-01 -1.351880e-01 -1.502258e-01 -5.196691e-03 1.430940e-01 -5.964696e-01 1.533484e-01 -1.848680e-01 -3.073995e-01 -1.195588e-01 -8.051628e-02 -2.615867e-01 -2.610638e-01 -7.680742e-02 -6.630927e-02 -4.702591e-02 -1.234590e-02 6.543386e-02 1.351873e-01
<VARIANCE> 39
 3.452495e+01 3.364165e+01 5.548639e+01 3.888091e+01 3.811856e+01 2.219913e+01 3.280860e+01 3.382396e+01 2.593205e+01 1.657931e+01 1.288756e+01 1.169256e+01 1.498750e+01 9.334294e-01 1.249050e+00 1.945682e+00 1.739733e+00 2.436918e+00 1.930654e+00 1.876975e+00 1.870460e+00 1.663979e+00 1.212782e+00 9.157038e-01 1.270258e+00 3.361505e-01 1.176899e-01 1.398647e-01 2.069090e-01 2.346240e-01 3.655698e-01 3.534093e-01 3.165886e-01 2.878596e-01 3.089813e-01 2.341823e-01 1.836536e-01 2.322971e-01 4.998903e-02
<GCONST> 9.753991e+01
<STATE> 4
<MEAN> 39
 3.033401e+00 3.523962e+00 5.928566e-01 -2.147222e+00 -4.026980e-01 -2.149731e+00 -4.668692e+00 -3.605747e+00 -4.300218e+00 -5.431979e+00 -5.103926e+00 -1.852232e+00 5.847689e+01 -1.844804e-01 -1.657185e-01 -1.183371e-01 -2.622496e-02 5.302848e-02 1.041707e-01 8.962788e-02 3.039380e-02 -1.179292e-01 -6.929050e-02 -4.025681e-02 6.655205e-02 -1.015560e-01 6.722346e-02 -3.183648e-02 -4.652346e-02 2.141286e-02 2.704361e-02 -3.215584e-02 -7.245871e-02 -6.421695e-02 -1.914258e-02 4.001964e-02 5.524448e-02 -1.224022e-02 5.619723e-02
<VARIANCE> 39
 8.290799e+01 5.505919e+01 1.214766e+02 5.564415e+01 3.320124e+01 2.614675e+01 2.503724e+01 2.766078e+01 2.078400e+01 2.023932e+01 1.608895e+01 2.127002e+01 4.472733e+01 2.845393e-01 4.304853e-01 6.693799e-01 7.200868e-01 9.191387e-01 6.769846e-01 8.279252e-01 7.071752e-01 6.585267e-01 7.597723e-01 8.336828e-01 7.276796e-01 9.852014e-02 8.560536e-02 9.790863e-02 1.643636e-01 1.170405e-01 1.585622e-01 1.629763e-01 1.990249e-01 1.788138e-01 1.285012e-01 1.191820e-01 1.818893e-01 1.592841e-01 3.661710e-02
<GCONST> 8.380582e+01
<TRANSP> 5
 0.000000e+00 1.000000e+00 0.000000e+00 0.000000e+00 0.000000e+00
 0.000000e+00 5.619287e-01 4.380713e-01 0.000000e+00 0.000000e+00
 0.000000e+00 0.000000e+00 6.688371e-01 3.311629e-01 0.000000e+00
 0.000000e+00 0.000000e+00 0.000000e+00 7.060972e-01 2.939028e-01
 0.000000e+00 0.000000e+00 0.000000e+00 0.000000e+00 0.000000e+00
<ENDHMM>
~h "k"
<BEGINHMM>
<NUMSTATES> 5
<STATE> 2
<MEAN> 39
 7.633267e+00 -5.426219e-01 -3.842305e+00 -1.331120e+00 -8.389878e-02 -8.814442e+00 -1.112616e+01 -5.983856e+00 -2.940811e+00 -6.390485e-01 -1.544189e+00 -2.421426e+00 6.197958e+01 1.411565e+00 -2.579260e-01 -8.628048e-01 9.779033e-02 4.263537e-01 -7.866641e-01 -1.162588e+00 -1.682404e-01 3.854327e-01 4.194388e-01 3.217496e-01 -6.400476e-02 1.038916e+00 -1.575773e-01 4.411412e-02 1.770941e-01 4.267184e-02 -3.556654e-03 9.733228e-02 1.789778e-01 1.269765e-01 3.342680e-02 -2.812487e-02 -4.491675e-02 -5.750905e-02 -9.272725e-02
<VARIANCE> 39
 8.256634e+01 6.689582e+01 5.862548e+01 8.579301e+01 8.184896e+01 6.102798e+01 7.339137e+01 6.068509e+01 2.936456e+01 3.307621e+01 2.672963e+01 2.675710e+01 4.463204e+01 5.222701e+00 4.477619e+00 4.718296e+00 4.005786e+00 4.398544e+00 3.906203e+00 4.564909e+00 3.382368e+00 2.180343e+00 2.623096e+00 2.079578e+00 2.053837e+00 2.895833e+00 9.126484e-01 7.783039e-01 8.824554e-01 5.765218e-01 6.462379e-01 6.179802e-01 8.217268e-01 4.936094e-01 3.649043e-01 4.077237e-01 3.770133e-01 3.302431e-01 4.973250e-01
<GCONST> 1.313902e+02
<STATE> 3
<MEAN> 39
 1.216775e+01 -2.233841e+00 -5.257632e+00 2.660625e+00 5.275908e+00 -1.237007e+01 -1.889755e+01 -8.252768e+00 -5.197597e-02 2.268860e+00 -8.850535e-01 -3.826773e+00 6.598807e+01 -2.232613e-01 3.074994e-01 4.432125e-01 1.630216e-01 1.611777e-01 1.128555e-01 -5.223492e-02 -4.608427e-02 1.512864e-01 2.169595e-01 -5.943040e-02 -2.830725e-01 -2.090236e-01 -1.519274e-01 1.526937e-01 2.072064e-01 -6.671245e-03 -7.183423e-03 2.178124e-01 1.990785e-01 -3.626109e-02 -9.867494e-02 -6.289483e-02 -4.781504e-02 -2.120205e-02 -1.442725e-01
<VARIANCE> 39
 2.539970e+01 4.430391e+01 4.600311e+01 8.668836e+01 4.618185e+01 4.607869e+01 6.208753e+01 6.712835e+01 3.391130e+01 3.226044e+01 2.497951e+01 2.804401e+01 1.623341e+01 2.362974e-01 6.759250e-01 9.802456e-01 1.050118e+00 6.875434e-01 1.138522e+00 9.437047e-01 1.095161e+00 1.015678e+00 9.491509e-01 8.516454e-01 8.991399e-01 2.116283e-01 8.175735e-02 1.189875e-01 1.556972e-01 1.566219e-01 1.361567e-01 2.101767e-01 2.143333e-01 1.883091e-01 1.527199e-01 1.687322e-01 1.511676e-01 1.400980e-01 5.372194e-02
<GCONST> 8.990740e+01
<STATE> 4
<MEAN> 39
 6.812225e+00 3.642999e+00 3.859101e+00 5.066073e+00 5.706180e+00 -7.334076e+00 -1.517295e+01 -9.011993e+00 -8.422646e-01 1.928275e+00 -3.394919e+00 -6.656529e+00 6.102212e+01 -1.090737e+00 5.516713e-01 8.995328e-01 -4.133110e-01 -4.022132e-01 1.183450e+00 1.628017e+00 4.391093e-01 -4.420152e-01 -5.982405e-01 -8.857359e-02 2.919839e-01 -8.461431e-01 -1.059255e-01 -1.970276e-01 -1.355057e-01 -1.655096e-01 -1.940687e-01 -7.943251e-02 1.537061e-01 1.682321e-01 -4.069736e-02 -1.625638e-01 -1.140569e-02 1.922107e-01 -2.328619e-03
<VARIANCE> 39
 3.390831e+01 3.563064e+01 4.940607e+01 7.527247e+01 5.586928e+01 5.252966e+01 8.349978e+01 5.575285e+01 4.448372e+01 3.373820e+01 3.527875e+01 2.647420e+01 1.813020e+01 1.703917e+00 2.002145e+00 2.458321e+00 2.942775e+00 2.323516e+00 2.812233e+00 4.021730e+00 2.165474e+00 2.391500e+00 2.073916e+00 1.422769e+00 1.929628e+00 9.557166e-01 2.023800e-01 2.726870e-01 3.150842e-01 3.424382e-01 3.439234e-01 4.486539e-01 6.543369e-01 3.342451e-01 3.856340e-01 3.471320e-01 2.532825e-01 3.137006e-01 1.190570e-01
<GCONST> 1.151055e+02
<TRANSP> 5
 0.000000e+00 1.000000e+00 0.000000e+00 0.000000e+00 0.000000e+00
 0.000000e+00 6.890078e-01 3.109922e-01 0.000000e+00 0.000000e+00
 0.000000e+00 0.000000e+00 8.241805e-01 1.758195e-01 0.000000e+00
 0.000000e+00 0.000000e+00 0.000000e+00 7.194876e-01 2.805123e-01
 0.000000e+00 0.000000e+00 0.000000e+00 0.000000e+00 0.000000e+00
<ENDHMM>
~h "l"
<BEGINHMM>
<NUMSTATES> 5
<STATE> 2
<MEAN> 39
 -1.032611e+00 -4.520894e+00 3.374526e+00 -1.529087e+00 -4.244208e-01 -6.824390e+00 -4.253986e+00 -2.810622e+00 -6.488678e+00 -1.890370e+00 -3.085792e+00 -2.259829e+00 5.954754e+01 6.969115e-01 1.865843e-01 -2.874064e-01 -2.358287e-01 -5.413564e-02 -2.974245e-01 -1.735816e-01 4.193249e-02 -3.272912e-02 -1.011312e-01 -2.254572e-03 1.661211e-01 4.673406e-01 3.872266e-01 3.409123e-02 -2.602278e-01 -1.244688e-01 -5.420390e-02 -1.955708e-01 -2.020144e-01 3.672740e-02 1.129616e-01 -2.013478e-02 4.439531e-02 7.901382e-02 2.416030e-01
<VARIANCE> 39
 1.234762e+02 1.163743e+02 9.731274e+01 9.068279e+01 5.830595e+01 1.004287e+02 9.611627e+01 8.249637e+01 5.509511e+01 6.850423e+01 2.892267e+01 2.809550e+01 6.746143e+01 1.031073e+01 7.014930e+00 7.444213e+00 6.508800e+00 5.195148e+00 6.257275e+00 6.553678e+00 5.317083e+00 4.483589e+00 4.842846e+00 2.755295e+00 2.582430e+00 3.324829e+00 1.146139e+00 1.034134e+00 9.482161e-01 1.062247e+00 7.988660e-01 1.151945e+00 1.010986e+00 9.036567e-01 7.875120e-01 8.568879e-01 4.660608e-01 4.860748e-01 5.155890e-01
<GCONST> 1.460355e+02
<STATE> 3
<MEAN> 39
 1.058315e+01 9.058846e-01 -4.337605e+00 -1.766211e+00 -1.103077e+00 -1.043140e+01 -1.112289e+01 -3.763131e+00 -3.162578e+00 -3.529246e+00 -3.117211e+00 -9.504139e-01 6.343507e+01 2.211385e+00 -2.642599e-01 -1.842709e+00 -1.043117e+00 -2.549164e-01 -8.392569e-01 -8.187201e-01 5.084993e-01 9.043447e-01 1.062747e-01 1.875859e-01 4.712836e-01 1.591585e+00 -6.734509e-01 -1.795303e-01 2.434467e-01 2.298206e-04 3.698930e-02 4.018527e-01 3.947135e-01 8.851597e-02 4.489246e-02 4.260460e-02 -9.194905e-02 -6.961359e-02 -3.746284e-01
<VARIANCE> 39
 4.870276e+01 7.318325e+01 8.770168e+01 8.533771e+01 9.391563e+01 6.659760e+01 7.035732e+01 7.798211e+01 3.907677e+01 5.202217e+01 3.955947e+01 3.234400e+01 2.753534e+01 5.529163e+00 4.846474e+00 5.812034e+00 5.539839e+00 6.195217e+00 4.448245e+00 4.190537e+00 4.281193e+00 3.063802e+00 3.817896e+00 2.769015e+00 2.537321e+00 2.519630e+00 6.103612e-01 8.058137e-01 9.970385e-01 8.639312e-01 9.798213e-01 8.136402e-01 6.838298e-01 6.870434e-01 5.294361e-01 5.982081e-01 5.231220e-01 3.944594e-01 2.726494e-01
<GCONST> 1.366428e+02
<STATE> 4
<MEAN> 39
 1.295594e+01 -1.277796e+00 -7.379782e+00 -2.034239e+00 2.201028e+00 -8.275951e+00 -1.119326e+01 -3.620259e+00 -2.473505e+00 -3.113062e+00 -1.667361e+00 5.511687e-01 6.576858e+01 -2.475274e-01 1.783321e-01 2.735034e-01 -4.325145e-02 -1.082660e-02 3.139910e-01 3.774720e-01 5.554977e-02 7.907886e-02 5.864200e-02 1.592864e-02 -2.953288e-02 -1.840326e-01 -2.497173e-01 8.018912e-02 2.774565e-01 1.080397e-01 -1.768278e-02 1.056565e-01 1.805490e-01 1.018470e-02 -7.885229e-02 -1.770688e-02 -7.807530e-02 -1.073950e-01 -1.857344e-01
<VARIANCE> 39
 3.741819e+01 5.317112e+01 6.558041e+01 7.435933e+01 5.777915e+01 6.103755e+01 5.479922e+01 6.697762e+01 2.918521e+01 3.902868e+01 3.289863e+01 2.570489e+01 2.692351e+01 1.259503e+00 1.691959e+00 3.190942e+00 2.632296e+00 2.137077e+00 2.698393e+00 2.176677e+00 2.439520e+00 1.715698e+00 1.860479e+00 1.655067e+00 1.373582e+00 9.544211e-01 2.453580e-01 2.860973e-01 4.869958e-01 3.602766e-01 2.922898e-01 4.243704e-01 3.391975e-01 3.362969e-01 2.767346e-01 3.203149e-01 3.230897e-01 2.576493e-01 1.545363e-01
<GCONST> 1.140227e+02
<TRANSP> 5
 0.000000e+00 1.000000e+00 0.000000e+00 0.000000e+00 0.000000e+00
 0.000000e+00 7.874354e-01 2.125647e-01 0.000000e+00 0.000000e+00
 0.000000e+00 0.000000e+00 5.549078e-01 4.450922e-01 0.000000e+00
 0.000000e+00 0.000000e+00 0.000000e+00 7.591690e-01 2.408310e-01
 0.000000e+00 0.000000e+00 0.000000e+00 0.000000e+00 0.000000e+00
<ENDHMM>
~h "m"
<BEGINHMM>
<NUMSTATES> 5
<STATE> 2
<MEAN> 39
 6.397812e-01 1.654309e+00 4.839158e+00 -8.903852e-01 -7.232381e-01 -3.255129e+00 -3.153309e+00 -3.168248e+00 -4.108912e+00 -2.082921e+00 -3.050485e+00 -3.241434e+00 5.765203e+01 1.339209e+00 7.925470e-02 -4.276547e-01 4.154817e-01 4.981753e-01 -7.294773e-01 -1.259315e+00 -6.756393e-01 8.233070e-03 4.173017e-01 1.811033e-01 -1.290623e-01 8.727865e-01 2.862907e-01 -7.606974e-02 -1.596971e-01 1.281493e-01 1.193722e-01 -3.345273e-01 -4.958492e-01 -1.196641e-01 1.618904e-01 1.513865e-01 3.439809e-02 -7.497700e-02 2.163408e-01
<VARIANCE> 39
 8.697147e+01 9.778163e+01 6.082092e+01 5.804532e+01 5.786530e+01 5.797832e+01 5.227061e+01 4.885959e+01 3.002572e+01 3.508142e+01 2.475499e+01 2.240314e+01 3.581595e+01 6.483550e+00 7.645463e+00 6.184174e+00 6.088381e+00 5.103642e+00 5.170213e+00 7.091200e+00 4.803144e+00 3.198779e+00 3.826324e+00 3.036937e+00 2.537459e+00 2.654758e+00 6.844640e-01 9.029760e-01 8.725156e-01 9.564351e-01 7.396782e-01 8.150881e-01 8.409698e-01 6.862101e-01 5.198778e-01 6.227698e-01 4.439096e-01 4.087587e-01 3.779989e-01
<GCONST> 1.360452e+02
<STATE> 3
<MEAN> 39
 1.013101e+01 3.200253e-01 1.102090e-03 4.429514e+00 4.414253e+00 -1.008567e+01 -1.530504e+01 -8.158807e+00 -2.472183e+00 1.227065e+00 -1.750030e+00 -4.748610e+00 6.391321e+01 8.431060e-01 -8.251770e-01 -6.148106e-01 8.910977e-01 5.624536e-01 -1.775961e+00 -2.037438e+00 4.436001e-02 1.119776e+00 8.582690e-01 8.967875e-03 -3.134871e-01 8.505189e-01 -6.075600e-01 1.117131e-01 3.439573e-01 -2.419251e-01 -3.487629e-01 3.713887e-01 9.237807e-01 5.950220e-01 2.887983e-02 -3.277255e-01 -2.217273e-01 6.235828e-02 -4.058527e-01
<VARIANCE> 39
 3.440499e+01 6.250418e+01 6.706774e+01 9.718257e+01 6.434956e+01 5.607567e+01 8.181242e+01 7.326346e+01 3.827693e+01 4.877440e+01 3.143004e+01 3.648410e+01 2.471567e+01 3.025448e+00 3.898158e+00 4.387465e+00 5.690135e+00 3.285572e+00 5.226819e+00 6.121118e+00 3.310473e+00 2.426729e+00 3.586235e+00 2.319354e+00 2.886880e+00 1.653137e+00 4.001593e-01 8.416061e-01 7.391428e-01 6.787743e-01 5.052930e-01 6.188361e-01 6.617961e-01 6.154421e-01 4.656805e-01 5.561445e-01 4.722872e-01 4.738502e-01 1.899251e-01
<GCONST> 1.305637e+02
<STATE> 4
<MEAN> 39
 8.592154e+00 1.679573e+00 4.142634e+00 7.787647e+00 5.700056e+00 -1.193895e+01 -1.751434e+01 -8.019092e+00 4.880644e-01 2.989609e+00 -3.183250e+00 -6.717278e+00 6.301794e+01 -3.827366e-01 4.699029e-01 3.705038e-01 -2.179697e-01 -1.600352e-01 5.640789e-01 7.854445e-01 2.596515e-01 -9.670323e-02 -2.985302e-01 -1.899280e-02 1.547690e-01 -3.913254e-01 -9.116179e-02 5.080058e-02 1.555432e-02 -1.369311e-01 -6.326084e-02 2.448362e-01 2.964713e-01 2.734609e-02 -1.649915e-01 -1.425603e-01 2.443092e-02 1.031092e-01 -8.113759e-02
<VARIANCE> 39
 2.326506e+01 6.115261e+01 5.622733e+01 6.419971e+01 4.125563e+01 5.312588e+01 7.966640e+01 6.230727e+01 3.226056e+01 4.514304e+01 3.313300e+01 2.969740e+01 2.255655e+01 6.344767e-01 1.419557e+00 1.746043e+00 1.916798e+00 1.245314e+00 2.709118e+00 3.168917e+00 1.890687e+00 1.869423e+00 1.732438e+00 1.233958e+00 1.410073e+00 5.155583e-01 9.800711e-02 2.421696e-01 2.885580e-01 2.901043e-01 2.255411e-01 3.866223e-01 4.814931e-01 2.942930e-01 3.017144e-01 3.072681e-01 2.235346e-01 2.408977e-01 6.849020e-02
<GCONST> 1.072031e+02
<TRANSP> 5
 0.000000e+00 1.000000e+00 0.000000e+00 0.000000e+00 0.000000e+00
 0.000000e+00 7.247961e-01 2.752039e-01 0.000000e+00 0.000000e+00
 0.000000e+00 0.000000e+00 5.289244e-01 4.710757e-01 0.000000e+00
 0.000000e+00 0.000000e+00 0.000000e+00 8.386721e-01 1.613279e-01
 0.000000e+00 0.000000e+00 0.000000e+00 0.000000e+00 0.000000e+00
<ENDHMM>
~h "n"
<BEGINHMM>
<NUMSTATES> 5
<STATE> 2
<MEAN> 39
 1.120466e+01 2.699999e-01 -5.212568e+00 -4.162441e+00 -1.821409e+00 -7.523791e+00 -7.012412e+00 -8.250469e-01 -1.468834e+00 -4.358670e+00 -2.729055e+00 9.536862e-01 6.468533e+01 -2.149264e-01 3.151102e-01 2.685119e-01 -2.523557e-01 -3.546219e-01 1.511825e-01 4.494479e-01 2.501122e-01 -3.665287e-02 -1.478435e-01 -3.408574e-02 7.510414e-02 -2.389346e-01 -2.391316e-01 1.173052e-01 3.377040e-01 2.295421e-01 1.395661e-01 1.495214e-01 6.285556e-02 -1.306648e-01 -1.008002e-01 8.306593e-02 -2.364790e-02 -1.590884e-01 -1.854748e-01
<VARIANCE> 39
 5.696124e+01 7.371725e+01 8.062023e+01 4.908256e+01 5.524501e+01 5.263182e+01 4.355612e+01 4.904355e+01 3.267789e+01 3.208249e+01 2.924238e+01 3.429282e+01 3.177971e+01 1.030267e+00 1.994910e+00 2.863429e+00 1.977455e+00 2.058283e+00 2.180827e+00 2.416839e+00 2.418526e+00 1.596076e+00 1.644687e+00 1.255824e+00 1.298606e+00 6.799192e-01 1.737825e-01 2.569825e-01 3.468103e-01 2.431813e-01 2.291898e-01 2.842792e-01 3.213775e-01 2.804739e-01 2.441850e-01 2.438539e-01 2.240191e-01 2.140509e-01 9.488179e-02
<GCONST> 1.091264e+02
<STATE> 3
<MEAN> 39
 6.315889e+00 2.776370e+00 5.863019e-01 -1.762416e+00 -8.008838e-01 -5.894010e+00 -6.331983e+00 -2.558050e+00 -3.224244e+00 -3.337588e+00 -2.079799e+00 -1.298755e+00 6.061174e+01 -1.055685e+00 6.273963e-01 1.179911e+00 3.416434e-01 -2.815363e-02 8.787522e-01 9.866426e-01 3.919005e-02 -2.514650e-01 -4.304295e-02 -2.439913e-01 -3.250711e-01 -8.657678e-01 -1.674859e-01 -1.972006e-01 7.636126e-02 2.374535e-01 1.553873e-01 5.254898e-02 2.173236e-02 -4.990191e-02 1.304180e-02 1.238377e-01 -3.482281e-02 -1.628845e-01 -3.398720e-02
<VARIANCE> 39
 7.604865e+01 7.209184e+01 6.996083e+01 5.189791e+01 5.833136e+01 5.993489e+01 4.651768e+01 4.330472e+01 2.705898e+01 2.761255e+01 2.601954e+01 2.798264e+01 3.343199e+01 1.869188e+00 3.317467e+00 3.912691e+00 3.041955e+00 2.910314e+00 3.206173e+00 3.271459e+00 3.124675e+00 2.070107e+00 1.901800e+00 1.757649e+00 1.822251e+00 1.037077e+00 2.704687e-01 4.721089e-01 4.435125e-01 3.328058e-01 3.545642e-01 4.167930e-01 4.509873e-01 3.829836e-01 3.592157e-01 3.810972e-01 2.588910e-01 2.509870e-01 1.191090e-01
<GCONST> 1.179082e+02
<STATE> 4
<MEAN> 39
 3.580459e+00 3.861835e+00 4.707221e+00 -1.631927e+00 -2.096701e+00 -3.825189e+00 -3.381573e+00 -2.450942e+00 -4.186999e+00 -3.244905e+00 -2.731875e+00 -3.277263e+00 5.919620e+01 -3.841127e-01 -1.986040e-01 1.908478e-01 1.070654e-01 -8.170225e-02 9.563391e-02 2.526052e-01 8.987388e-02 1.644754e-02 4.302502e-03 -5.190756e-02 -1.101405e-02 -1.730217e-01 1.074058e-01 -1.921846e-01 -2.508902e-01 -8.515950e-02 -1.842140e-02 -1.800429e-01 -1.728579e-01 4.700911e-02 9.151574e-02 2.353800e-02 3.963134e-02 7.739380e-02 1.234852e-01
<VARIANCE> 39
 5.845883e+01 7.671109e+01 5.769819e+01 5.617231e+01 6.505689e+01 6.625606e+01 5.170178e+01 5.203140e+01 3.482983e+01 3.371872e+01 2.831537e+01 2.107456e+01 2.136483e+01 3.759585e+00 4.500890e+00 4.099820e+00 3.451789e+00 3.508379e+00 3.658676e+00 3.429373e+00 3.311363e+00 2.681420e+00 2.402288e+00 2.061425e+00 1.767528e+00 1.542038e+00 4.090264e-01 6.598427e-01 5.560603e-01 5.678554e-01 5.892524e-01 5.992952e-01 6.100790e-01 5.759996e-01 4.424500e-01 4.623982e-01 3.709636e-01 3.005146e-01 1.886113e-01
<GCONST> 1.250084e+02
<TRANSP> 5
 0.000000e+00 1.000000e+00 0.000000e+00 0.000000e+00 0.000000e+00
 0.000000e+00 6.628537e-01 3.371463e-01 0.000000e+00 0.000000e+00
 0.000000e+00 0.000000e+00 8.980586e-02 9.101941e-01 0.000000e+00
 0.000000e+00 0.000000e+00 0.000000e+00 7.342563e-01 2.657437e-01
 0.000000e+00 0.000000e+00 0.000000e+00 0.000000e+00 0.000000e+00
<ENDHMM>
~h "o"
<BEGINHMM>
<NUMSTATES> 5
<STATE> 2
<MEAN> 39
 1.129049e+01 2.755525e+00 -2.077555e+00 -3.483648e+00 -4.889888e+00 -1.181892e+01 -8.017815e+00 1.227710e+00 -7.219460e-01 -4.872796e+00 -4.735336e+00 -1.433226e+00 6.408537e+01 -4.554644e-01 3.852766e-01 6.032045e-01 -1.620211e-02 -1.571118e-01 3.617894e-01 6.423587e-01 3.171847e-01 -4.008396e-02 -2.309562e-01 -1.194719e-01 -9.589781e-02 -3.949502e-01 -1.887872e-01 5.473293e-03 1.889956e-01 2.020080e-01 1.749657e-01 2.096924e-01 7.065451e-02 -1.821729e-01 -1.530698e-01 6.317570e-02 4.970534e-02 -7.523103e-02 -1.306494e-01
<VARIANCE> 39
 5.737037e+01 6.791553e+01 6.691331e+01 5.637871e+01 7.286446e+01 8.434323e+01 5.940269e+01 8.251013e+01 4.663186e+01 5.296548e+01 3.627083e+01 3.531245e+01 2.766573e+01 8.416031e-01 1.296806e+00 1.806680e+00 1.599078e+00 2.653958e+00 3.157288e+00 2.157758e+00 2.960029e+00 2.185930e+00 1.729175e+00 1.378061e+00 1.420195e+00 5.223215e-01 1.101747e-01 1.625784e-01 2.225067e-01 2.228409e-01 2.991438e-01 3.873841e-01 2.581118e-01 3.951079e-01 3.104175e-01 2.499193e-01 2.387513e-01 2.445606e-01 5.914617e-02
<GCONST> 1.104794e+02
<STATE> 3
<MEAN> 39
 4.393008e+00 4.450049e+00 4.308149e+00 -3.268714e+00 -6.193183e+00 -8.442685e+00 -2.715508e+00 1.244345e+00 -2.438290e+00 -4.576117e+00 -3.567013e+00 -2.639797e+00 5.957016e+01 -6.938250e-01 7.754779e-02 6.064855e-01 5.326307e-01 4.569492e-01 5.592619e-01 3.823571e-01 -8.420673e-02 -2.150921e-01 -6.764141e-02 6.689113e-03 -1.147065e-01 -4.779716e-01 -4.965654e-02 -1.519342e-01 -6.424307e-02 1.259344e-01 1.612991e-01 5.951582e-02 -6.297181e-02 -9.802852e-02 -2.816298e-02 7.497813e-02 3.084897e-02 6.941390e-03 -6.474005e-04
<VARIANCE> 39
 7.559023e+01 1.284924e+02 6.522519e+01 6.828499e+01 6.913657e+01 6.847963e+01 4.134785e+01 4.238465e+01 3.890858e+01 2.834360e+01 2.862305e+01 2.527299e+01 1.846062e+01 9.285867e-01 1.203182e+00 1.791930e+00 1.579672e+00 1.895797e+00 2.073418e+00 1.770755e+00 1.727510e+00 1.449194e+00 1.409547e+00 1.189377e+00 1.079240e+00 4.363062e-01 1.324562e-01 1.831404e-01 2.030267e-01 2.297761e-01 2.779941e-01 3.180905e-01 2.944496e-01 2.449795e-01 2.315438e-01 2.290087e-01 1.924230e-01 1.810145e-01 4.932694e-02
<GCONST> 1.043271e+02
<STATE> 4
<MEAN> 39
 5.303772e-01 4.480469e+00 6.614647e+00 1.197802e+00 -1.365569e-01 -2.731965e+00 -1.860569e+00 -9.468955e-01 -2.660570e+00 -3.168283e+00 -3.376130e+00 -2.992276e+00 5.695639e+01 -1.022801e+00 -8.327172e-01 -2.146421e-01 2.069992e-01 2.697803e-01 3.700877e-01 1.993713e-01 -1.580699e-01 -1.912731e-01 1.203790e-01 1.724597e-01 1.080470e-01 -5.332859e-01 2.006505e-01 -2.114882e-01 -3.226037e-01 -2.610390e-01 -2.815881e-01 -3.489969e-01 -2.230675e-01 -2.300470e-02 1.979217e-02 6.075837e-02 4.268148e-02 3.594433e-02 1.939386e-01
<VARIANCE> 39
 6.126679e+01 5.876424e+01 4.744465e+01 5.120820e+01 4.574884e+01 5.380253e+01 3.846233e+01 3.631250e+01 3.036888e+01 2.545392e+01 2.040941e+01 1.755492e+01 2.107285e+01 2.444984e+00 2.353752e+00 2.548009e+00 2.600051e+00 3.068590e+00 2.988544e+00 2.397500e+00 2.267009e+00 1.963911e+00 1.852222e+00 1.493673e+00 1.477634e+00 8.111022e-01 3.241960e-01 4.194490e-01 3.967083e-01 3.542635e-01 4.405613e-01 4.452932e-01 4.410371e-01 4.227331e-01 3.412360e-01 3.962495e-01 3.041927e-01 2.625536e-01 1.239556e-01
<GCONST> 1.138328e+02
<TRANSP> 5
 0.000000e+00 1.000000e+00 0.000000e+00 0.000000e+00 0.000000e+00
 0.000000e+00 6.350729e-01 3.649271e-01 0.000000e+00 0.000000e+00
 0.000000e+00 0.000000e+00 6.726027e-01 3.273974e-01 0.000000e+00
 0.000000e+00 0.000000e+00 0.000000e+00 6.224203e-01 3.775797e-01
 0.000000e+00 0.000000e+00 0.000000e+00 0.000000e+00 0.000000e+00
<ENDHMM>
~h "p"
<BEGINHMM>
<NUMSTATES> 5
<STATE> 2
<MEAN> 39
 -4.814871e+00 5.248694e-01 4.137977e+00 2.541047e-01 7.235950e-02 -1.925903e+00 -2.831190e+00 -3.709388e+00 -3.792463e+00 -1.839206e+00 -2.346982e+00 -2.170062e+00 5.333935e+01 -5.954904e-01 -6.367433e-01 -5.492035e-01 -3.630312e-01 -3.071642e-01 1.081159e-01 1.572682e-01 7.157864e-02 3.968564e-02 5.298648e-02 -1.664065e-03 1.365932e-01 -3.343897e-01 7.392574e-01 -9.584642e-02 -2.589728e-01 -1.552908e-01 -7.490075e-02 -4.063698e-01 -3.131200e-01 -5.777908e-02 1.637987e-02 1.266543e-03 8.507743e-03 -2.411291e-02 6.165707e-01
<VARIANCE> 39
 5.812194e+01 4.658965e+01 4.001341e+01 3.230214e+01 3.070728e+01 2.302048e+01 2.691197e+01 2.412266e+01 1.892327e+01 2.287727e+01 1.378388e+01 1.087833e+01 2.527368e+01 3.577187e+00 2.700461e+00 3.199592e+00 2.419924e+00 2.884976e+00 2.619647e+00 2.743869e+00 2.156312e+00 1.886207e+00 1.964760e+00 1.492079e+00 1.295861e+00 1.810878e+00 7.101744e-01 6.368787e-01 4.320982e-01 5.044862e-01 5.595448e-01 5.286516e-01 4.900646e-01 4.578195e-01 3.935331e-01 3.677727e-01 2.729622e-01 2.439956e-01 3.752799e-01
<GCONST> 1.141196e+02
<STATE> 3
<MEAN> 39
 -1.551178e+00 -2.080650e+00 -2.009261e-01 -1.660631e+00 -2.907434e+00 -5.086985e+00 -4.818571e+00 -3.738970e+00 -3.001925e+00 -5.217476e-01 -2.230798e+00 -2.265903e+00 5.587292e+01 3.894150e+00 6.017923e-01 -9.501908e-01 -8.166684e-01 -8.275175e-01 -1.940388e+00 -1.147559e+00 8.499044e-02 9.008400e-02 -2.966348e-01 -3.746173e-01 -3.946438e-02 2.743175e+00 5.267001e-01 2.831641e-01 -3.691234e-03 -4.543300e-02 -7.775585e-02 -3.965430e-01 -2.776652e-01 1.398115e-01 1.204902e-01 -2.153420e-01 -1.213304e-01 5.035338e-02 3.432516e-01
<VARIANCE> 39
 8.304472e+01 6.988369e+01 5.817439e+01 5.677566e+01 5.810199e+01 5.197206e+01 4.661552e+01 4.355591e+01 2.366890e+01 3.066247e+01 1.643980e+01 1.538221e+01 4.536467e+01 1.103860e+01 1.061160e+01 6.540583e+00 6.796797e+00 6.982400e+00 5.870885e+00 5.944371e+00 5.570598e+00 4.330448e+00 3.670545e+00 2.751765e+00 1.827440e+00 4.908222e+00 1.354970e+00 1.003347e+00 8.115504e-01 6.979051e-01 9.248050e-01 9.458883e-01 7.251478e-01 8.252023e-01 5.638709e-01 4.760993e-01 4.123905e-01 2.934149e-01 6.945573e-01
<GCONST> 1.370528e+02
<STATE> 4
<MEAN> 39
 8.762724e+00 -4.855011e+00 -3.773523e+00 -1.769000e+00 -1.152231e+00 -1.179695e+01 -8.774883e+00 -2.089875e+00 -2.989197e+00 -1.444018e+00 -3.614895e+00 -8.587468e-01 6.529120e+01 6.719880e-01 1.136845e-01 -2.896419e-01 -9.586097e-02 8.119424e-02 -3.480396e-01 -3.975941e-01 1.726214e-01 2.851072e-01 -2.778021e-01 -1.144663e-01 2.001590e-01 4.822258e-01 -5.042056e-01 1.500576e-02 1.601954e-01 1.152900e-01 1.236204e-01 3.451952e-01 1.377451e-01 -7.012543e-02 2.353759e-02 1.003133e-01 7.648686e-02 -2.174138e-02 -4.066496e-01
<VARIANCE> 39
 1.228024e+02 1.073389e+02 1.210577e+02 1.034571e+02 9.274426e+01 6.563974e+01 7.219929e+01 9.065427e+01 6.225224e+01 6.780486e+01 3.529303e+01 3.719583e+01 3.453009e+01 8.126926e+00 4.934995e+00 4.506417e+00 5.286456e+00 4.967268e+00 5.560013e+00 4.863017e+00 5.066161e+00 4.558580e+00 3.995609e+00 2.604740e+00 2.541073e+00 3.780147e+00 1.148879e+00 1.030030e+00 7.653971e-01 9.544182e-01 9.083818e-01 1.067866e+00 9.000717e-01 9.304116e-01 9.363388e-01 8.018239e-01 5.094072e-01 5.093999e-01 5.190724e-01
<GCONST> 1.440312e+02
<TRANSP> 5
 0.000000e+00 1.000000e+00 0.000000e+00 0.000000e+00 0.000000e+00
 0.000000e+00 6.810555e-01 3.189445e-01 0.000000e+00 0.000000e+00
 0.000000e+00 0.000000e+00 5.259057e-01 4.740944e-01 0.000000e+00
 0.000000e+00 0.000000e+00 0.000000e+00 7.610855e-01 2.389145e-01
 0.000000e+00 0.000000e+00 0.000000e+00 0.000000e+00 0.000000e+00
<ENDHMM>
~h "r"
<BEGINHMM>
<NUMSTATES> 5
<STATE> 2
<MEAN> 39
 1.167609e+01 1.129032e+00 -5.204036e+00 -5.487343e+00 -4.840381e+00 -9.952927e+00 -7.018086e+00 4.866111e-01 -4.180552e-01 -4.333713e+00 -4.961317e+00 -1.259606e+00 6.462022e+01 -1.605793e-01 1.778013e-01 2.041859e-01 -2.288134e-01 -4.383730e-01 -1.881258e-01 1.864828e-01 2.937374e-01 2.053681e-01 5.155035e-02 -7.627492e-02 -1.546120e-01 -1.288862e-01 -1.387569e-01 4.493125e-02 1.623814e-01 1.477908e-01 1.668213e-01 1.980899e-01 4.640942e-02 -1.735956e-01 -1.494053e-01 5.285487e-02 6.751713e-02 -1.027706e-02 -1.022462e-01
<VARIANCE> 39
 5.603135e+01 7.135754e+01 7.526881e+01 5.251559e+01 6.167833e+01 7.339940e+01 4.776502e+01 6.089314e+01 4.096273e+01 3.809182e+01 3.120954e+01 2.698954e+01 3.114493e+01 5.606108e-01 1.189688e+00 1.684020e+00 1.178723e+00 1.796616e+00 1.824266e+00 1.322420e+00 1.832313e+00 1.515193e+00 1.421483e+00 1.158532e+00 1.112876e+00 4.134394e-01 1.169377e-01 1.802104e-01 2.426816e-01 2.119770e-01 2.778270e-01 2.762877e-01 2.388230e-01 2.702836e-01 2.289532e-01 1.984376e-01 2.087877e-01 2.068502e-01 6.762140e-02
<GCONST> 1.036026e+02
<STATE> 3
<MEAN> 39
 4.345312e+00 4.159200e+00 2.820193e+00 -3.578928e+00 -3.273605e+00 -6.934329e+00 -6.549560e+00 -1.611067e+00 -4.315567e-01 -1.319938e+00 -3.646638e+00 -4.079730e+00 5.952309e+01 -5.405507e-01 1.608562e-02 3.824680e-01 3.845952e-01 4.244512e-01 5.750147e-01 3.401822e-01 -1.654410e-01 -2.025058e-01 6.687226e-02 1.141447e-01 4.052510e-02 -3.658947e-01 -3.868231e-02 -1.259383e-01 -9.789521e-02 6.699470e-02 1.402952e-01 1.143266e-01 5.223322e-02 -2.822919e-02 -6.465992e-02 -1.467660e-02 4.524178e-02 7.151389e-02 -7.030872e-03
<VARIANCE> 39
 7.283024e+01 8.511163e+01 7.672276e+01 7.130221e+01 6.925154e+01 6.488997e+01 6.710490e+01 4.673631e+01 3.000764e+01 2.866035e+01 2.414455e+01 1.932229e+01 2.482790e+01 6.243080e-01 8.650947e-01 1.696931e+00 1.412951e+00 1.647210e+00 1.806516e+00 1.508197e+00 1.535003e+00 1.219226e+00 1.108430e+00 1.071594e+00 1.000539e+00 3.140089e-01 1.325704e-01 1.405120e-01 2.159219e-01 2.212717e-01 2.761814e-01 2.974149e-01 2.926782e-01 2.725003e-01 1.981193e-01 1.894926e-01 2.218831e-01 1.767298e-01 6.140109e-02
<GCONST> 1.016290e+02
<STATE> 4
<MEAN> 39
 4.067385e+00 1.676026e+00 1.713881e-01 -3.068852e+00 -8.042421e-01 -4.896196e+00 -6.010649e+00 -4.364565e+00 -3.045595e+00 -1.408421e+00 -2.109734e+00 -2.074686e+00 5.950251e+01 -5.897552e-01 -3.630519e-01 -6.071534e-02 2.193088e-01 4.231732e-01 5.255012e-01 2.302980e-01 -1.570179e-01 -1.706077e-01 5.009110e-02 2.393460e-01 1.840922e-01 -3.342613e-01 4.590784e-02 -1.004576e-01 -1.022255e-01 -5.597122e-02 -9.016708e-02 -1.146171e-01 -1.043125e-02 1.056601e-01 7.054823e-02 -2.217648e-02 -2.275221e-02 7.189676e-03 6.033406e-02
<VARIANCE> 39
 8.788456e+01 6.202599e+01 7.226000e+01 6.125050e+01 5.692611e+01 5.183616e+01 5.664392e+01 5.520667e+01 2.824621e+01 2.729099e+01 2.493315e+01 2.395308e+01 3.546823e+01 5.178026e+00 3.610889e+00 4.717304e+00 3.285609e+00 3.906444e+00 3.487595e+00 3.632054e+00 3.238898e+00 2.411437e+00 2.026568e+00 2.058822e+00 1.745548e+00 2.296877e+00 5.863386e-01 5.808887e-01 6.058223e-01 4.621670e-01 5.756761e-01 5.320817e-01 6.174379e-01 5.429874e-01 4.433530e-01 3.803887e-01 3.388399e-01 3.075204e-01 2.758045e-01
<GCONST> 1.258100e+02
<TRANSP> 5
 0.000000e+00 1.000000e+00 0.000000e+00 0.000000e+00 0.000000e+00
 0.000000e+00 6.852006e-01 3.147994e-01 0.000000e+00 0.000000e+00
 0.000000e+00 0.000000e+00 6.190193e-01 3.809807e-01 0.000000e+00
 0.000000e+00 0.000000e+00 0.000000e+00 6.711081e-01 3.288919e-01
 0.000000e+00 0.000000e+00 0.000000e+00 0.000000e+00 0.000000e+00
<ENDHMM>
~h "s"
<BEGINHMM>
<NUMSTATES> 5
<STATE> 2
<MEAN> 39
 -3.769335e+00 -4.388918e+00 7.779402e+00 -2.734448e-01 -1.423324e+00 -3.412718e-01 -2.301315e+00 -6.390100e+00 -4.974741e+00 1.551705e+00 -5.177653e-01 -3.326467e+00 5.781119e+01 -1.508888e+00 -1.711349e+00 5.663060e-01 -6.712895e-01 -8.979465e-01 1.967688e-01 6.049075e-01 7.310290e-02 -3.726186e-01 3.530846e-01 1.545466e-02 -1.551758e-01 -1.676756e-01 2.196564e-01 -3.449441e-02 -1.713518e-01 -3.290678e-01 -9.854862e-02 -3.950144e-01 -3.344074e-01 -3.113494e-02 -6.713885e-02 -1.029199e-01 -8.018885e-02 3.431565e-03 2.307396e-01
<VARIANCE> 39
 6.944712e+01 8.044719e+01 5.202576e+01 5.351572e+01 7.467444e+01 4.200166e+01 6.576466e+01 4.536222e+01 3.903012e+01 4.031164e+01 2.887635e+01 2.119887e+01 2.121981e+01 4.509891e+00 5.898815e+00 6.242775e+00 5.096875e+00 4.488159e+00 3.752269e+00 4.401984e+00 3.128360e+00 3.102385e+00 3.301848e+00 2.622535e+00 2.029692e+00 9.663970e-01 5.220607e-01 9.319648e-01 5.942265e-01 8.765796e-01 7.912590e-01 5.261256e-01 6.144733e-01 5.249524e-01 5.047651e-01 5.198997e-01 3.908585e-01 3.285935e-01 1.931614e-01
<GCONST> 1.288587e+02
<STATE> 3
<MEAN> 39
 -4.451204e+00 -1.099445e+01 7.809073e+00 -4.075558e+00 -7.854298e-01 -7.954541e+00 -3.639767e+00 -5.264233e+00 -6.402994e+00 2.911214e+00 -2.614295e+00 -2.765920e+00 6.249612e+01 6.548182e-01 2.491711e-01 -5.897277e-01 -4.586002e-01 -1.514409e-01 -6.221629e-01 -3.378145e-01 7.999352e-02 3.044241e-02 -3.856477e-01 -1.721270e-01 1.423400e-01 3.737230e-01 2.699555e-01 2.880813e-01 -2.462681e-01 1.211495e-01 5.149430e-02 -7.263992e-03 -1.026140e-01 8.062639e-02 1.752585e-01 -1.406002e-01 -2.462778e-02 5.416151e-02 -3.887068e-02
<VARIANCE> 39
 1.258788e+02 1.088687e+02 1.141378e+02 1.257239e+02 7.815815e+01 1.002643e+02 1.056174e+02 8.342763e+01 6.111015e+01 7.843227e+01 3.751932e+01 2.897885e+01 3.652946e+01 1.218626e+01 9.553726e+00 7.953313e+00 8.740198e+00 4.445178e+00 5.691298e+00 6.171175e+00 5.093504e+00 4.622315e+00 5.025721e+00 3.129589e+00 2.637660e+00 3.263093e+00 1.104938e+00 1.359954e+00 1.030632e+00 1.242313e+00 7.646335e-01 1.033356e+00 8.640457e-01 8.699892e-01 8.596554e-01 8.096340e-01 5.772954e-01 4.635602e-01 4.563017e-01
<GCONST> 1.476735e+02
<STATE> 4
<MEAN> 39
 5.809298e+00 -2.611959e+00 -3.636871e-01 -3.185516e+00 -2.558771e+00 -8.769854e+00 -7.034630e+00 -1.828050e+00 -2.830697e+00 -2.903166e+00 -3.610927e+00 -1.334263e+00 6.300813e+01 -2.475471e-02 1.835645e-01 -3.350716e-01 -8.939495e-02 1.887211e-01 6.858475e-02 -3.979256e-02 2.865561e-01 3.504585e-01 -1.171191e-01 -1.896561e-02 1.658591e-01 -1.894449e-01 -2.323640e-01 -6.691611e-02 1.636207e-01 1.593537e-01 8.390506e-02 1.947186e-01 1.279157e-01 -9.476088e-02 -6.523844e-02 1.412983e-01 6.064504e-02 -8.199057e-02 -1.386129e-01
<VARIANCE> 39
 1.287486e+02 9.824760e+01 1.015394e+02 9.289868e+01 7.096111e+01 8.426568e+01 7.816898e+01 8.243479e+01 4.538893e+01 5.261813e+01 3.115725e+01 4.039744e+01 3.861805e+01 2.311282e+00 2.841178e+00 3.704659e+00 2.718127e+00 2.997134e+00 3.346813e+00 3.168427e+00 3.446624e+00 2.468955e+00 2.330250e+00 1.750127e+00 1.840934e+00 1.316019e+00 5.654383e-01 5.641152e-01 5.675483e-01 5.025225e-01 5.091251e-01 5.911270e-01 5.723771e-01 5.576745e-01 4.198186e-01 4.520591e-01 3.431823e-01 3.470849e-01 1.990101e-01
<GCONST> 1.282497e+02
<TRANSP> 5
 0.000000e+00 1.000000e+00 0.000000e+00 0.000000e+00 0.000000e+00
 0.000000e+00 7.182814e-01 2.817187e-01 0.000000e+00 0.000000e+00
 0.000000e+00 0.000000e+00 7.920461e-01 2.079538e-01 0.000000e+00
 0.000000e+00 0.000000e+00 0.000000e+00 6.605102e-01 3.394898e-01
 0.000000e+00 0.000000e+00 0.000000e+00 0.000000e+00 0.000000e+00
<ENDHMM>
~h "t"
<BEGINHMM>
<NUMSTATES> 5
<STATE> 2
<MEAN> 39
 8.024193e+00 5.774075e-01 -2.973378e+00 -4.057971e+00 -1.702085e+00 -7.096101e+00 -7.388879e+00 -1.729581e+00 -2.969397e+00 -3.668346e+00 -2.348105e+00 -1.328038e+00 6.217162e+01 -2.582665e-01 2.094688e-01 -1.522726e-02 -3.354754e-01 -4.553672e-01 -2.773146e-02 5.064595e-01 6.820139e-01 2.654750e-01 -2.824790e-01 -2.008057e-01 -4.862733e-02 -2.566503e-01 -2.497304e-01 -1.734130e-02 2.286738e-01 1.994060e-01 6.980602e-02 7.914565e-02 3.367808e-02 -1.479891e-01 -4.097689e-02 1.171253e-01 -3.176508e-02 -8.770116e-02 -1.510074e-01
<VARIANCE> 39
 1.106621e+02 6.908840e+01 8.214856e+01 6.074907e+01 5.174936e+01 6.254834e+01 4.890986e+01 7.424013e+01 3.302286e+01 3.566374e+01 3.894698e+01 3.862173e+01 5.138346e+01 1.336040e+00 1.885829e+00 2.344505e+00 2.122965e+00 2.115004e+00 2.359209e+00 2.051092e+00 2.924786e+00 1.966414e+00 1.750896e+00 1.436912e+00 1.542417e+00 7.024481e-01 3.049181e-01 3.268408e-01 3.700577e-01 2.901099e-01 2.885857e-01 3.804546e-01 4.357136e-01 4.964915e-01 3.158331e-01 3.105751e-01 2.980828e-01 3.086613e-01 1.298271e-01
<GCONST> 1.163206e+02
<STATE> 3
<MEAN> 39
 9.060100e+00 3.068885e+00 -2.636535e+00 -5.838442e+00 -5.124594e+00 -8.909429e+00 -6.048135e+00 -3.601283e-02 -1.802902e+00 -4.462523e+00 -4.107198e+00 -1.741775e+00 6.228562e+01 -5.747077e-01 3.605559e-01 6.946393e-01 1.229581e-01 -5.973369e-02 3.316581e-01 3.507257e-01 -3.362113e-02 -7.344307e-02 -4.792772e-03 -1.687377e-01 -2.355756e-01 -4.499657e-01 -9.031207e-02 -8.505400e-03 1.029117e-01 1.619095e-01 1.956136e-01 1.278125e-01 -2.083221e-02 -1.313611e-01 -8.553196e-02 2.872544e-02 1.896840e-02 1.853425e-03 -6.369238e-02
<VARIANCE> 39
 7.920004e+01 7.305766e+01 7.761973e+01 5.370903e+01 5.982621e+01 6.288290e+01 4.021359e+01 6.572266e+01 3.159552e+01 3.714164e+01 3.318011e+01 3.581037e+01 3.705431e+01 4.943129e-01 8.188462e-01 1.307291e+00 1.119246e+00 1.500708e+00 1.528892e+00 1.235111e+00 1.754452e+00 1.135363e+00 1.337271e+00 9.434029e-01 9.182479e-01 3.055039e-01 7.717431e-02 1.275216e-01 1.503226e-01 1.396050e-01 1.883094e-01 2.385280e-01 2.146114e-01 2.366171e-01 1.662898e-01 1.901119e-01 1.614104e-01 1.643590e-01 4.339061e-02
<GCONST> 9.792731e+01
<STATE> 4
<MEAN> 39
 2.752587e+00 4.638255e+00 4.431984e+00 -2.525055e-01 -4.412905e-01 -3.609509e+00 -4.112126e+00 -3.021100e+00 -3.820864e+00 -3.420283e+00 -3.203576e+00 -2.654269e+00 5.793515e+01 -6.954607e-01 -1.356253e-01 3.036431e-01 3.321283e-01 2.411445e-01 1.950106e-01 1.769195e-01 1.238680e-01 1.147162e-01 1.109223e-01 9.355642e-03 5.330577e-03 -4.408768e-01 6.946630e-02 -1.545884e-01 -1.910374e-01 -4.954521e-02 -3.569852e-02 -9.838209e-02 -5.990110e-02 3.365878e-02 5.866896e-02 6.578181e-02 5.803568e-02 3.340803e-02 7.554545e-02
<VARIANCE> 39
 6.807448e+01 7.317915e+01 6.564303e+01 6.422992e+01 4.997952e+01 4.899361e+01 3.567185e+01 4.294733e+01 3.328992e+01 2.851894e+01 1.983973e+01 2.017047e+01 2.845681e+01 7.191821e-01 8.467448e-01 1.587414e+00 1.600051e+00 1.911809e+00 1.852971e+00 1.572365e+00 1.566184e+00 1.099670e+00 1.191503e+00 9.930357e-01 9.153166e-01 3.063657e-01 1.139828e-01 1.518336e-01 2.049129e-01 2.290888e-01 2.620510e-01 2.963779e-01 2.550274e-01 2.428619e-01 2.078055e-01 2.217126e-01 1.913255e-01 1.567594e-01 6.014141e-02
<GCONST> 9.961728e+01
<TRANSP> 5
 0.000000e+00 1.000000e+00 0.000000e+00 0.000000e+00 0.000000e+00
 0.000000e+00 3.319216e-01 6.680784e-01 0.000000e+00 0.000000e+00
 0.000000e+00 0.000000e+00 6.235126e-01 3.764874e-01 0.000000e+00
 0.000000e+00 0.000000e+00 0.000000e+00 6.213793e-01 3.786207e-01
 0.000000e+00 0.000000e+00 0.000000e+00 0.000000e+00 0.000000e+00
<ENDHMM>
~h "u"
<BEGINHMM>
<NUMSTATES> 5
<STATE> 2
<MEAN> 39
 -3.039806e+00 4.283845e-01 5.563476e+00 1.992477e+00 6.085467e-01 -2.015814e+00 -3.615060e+00 -3.262683e+00 -3.767279e+00 -1.902454e+00 -3.251922e+00 -3.778254e+00 5.510213e+01 2.865380e-01 -2.745764e-01 -6.089436e-01 -7.653797e-01 -6.432735e-01 -3.961869e-01 -6.782867e-02 6.960283e-02 -1.236422e-02 -1.952595e-01 -3.874455e-02 1.998458e-01 3.014807e-01 6.037550e-01 -4.688920e-02 -2.392720e-01 -2.128087e-01 -2.772832e-01 -4.799603e-01 -2.537070e-01 -7.635772e-02 -3.425599e-02 9.242312e-02 5.796369e-02 -2.414507e-02 4.787314e-01
<VARIANCE> 39
 6.032954e+01 6.309154e+01 4.796505e+01 5.444440e+01 4.463791e+01 4.704015e+01 4.762516e+01 3.240472e+01 2.383491e+01 2.890541e+01 1.762148e+01 1.320296e+01 3.055901e+01 6.347860e+00 6.819085e+00 5.053850e+00 4.247139e+00 5.523056e+00 4.173943e+00 4.439815e+00 3.722735e+00 2.492767e+00 2.930145e+00 2.540522e+00 2.036517e+00 2.470801e+00 5.675926e-01 8.864487e-01 6.261104e-01 6.810015e-01 8.536217e-01 5.904827e-01 6.513515e-01 5.793779e-01 4.112415e-01 4.686986e-01 3.962890e-01 3.441659e-01 3.012849e-01
<GCONST> 1.274614e+02
<STATE> 3
<MEAN> 39
 -4.504308e-01 -6.351002e+00 4.676033e+00 -2.650909e+00 -1.191341e+00 -1.021500e+01 -6.330564e+00 -2.359154e+00 -5.022788e+00 -1.486762e+00 -3.257580e+00 -3.645737e+00 6.194473e+01 1.440024e+00 1.649532e-01 -8.035709e-01 -3.144812e-01 -4.044580e-01 -8.642744e-01 -6.514447e-01 -1.934140e-01 -9.625059e-02 -7.459639e-02 -3.019425e-02 6.825444e-02 8.565916e-01 8.540370e-02 2.046670e-01 -9.076893e-03 1.635568e-01 2.132725e-01 1.084776e-01 -1.245792e-01 2.927291e-02 1.253536e-01 -3.367817e-02 -1.766640e-02 2.443103e-03 -6.751896e-02
<VARIANCE> 39
 1.111568e+02 1.635799e+02 1.172232e+02 1.056820e+02 1.072779e+02 8.790173e+01 7.917190e+01 7.606947e+01 6.013493e+01 5.726336e+01 3.517916e+01 3.254128e+01 3.907338e+01 1.064668e+01 9.792242e+00 8.811494e+00 7.470935e+00 6.663258e+00 5.779529e+00 5.738057e+00 5.650985e+00 5.121550e+00 5.145047e+00 4.038290e+00 3.518784e+00 3.428486e+00 9.184358e-01 1.347610e+00 1.115722e+00 1.030952e+00 1.157832e+00 9.809079e-01 8.692811e-01 1.008876e+00 8.444512e-01 8.811747e-01 6.876065e-01 6.461288e-01 4.141707e-01
<GCONST> 1.490998e+02
<STATE> 4
<MEAN> 39
 9.372653e+00 -1.534903e+00 -1.186380e+00 2.379300e+00 3.367572e-01 -8.829531e+00 -1.076414e+01 -3.923860e+00 -3.959747e+00 -2.259276e+00 -3.421602e+00 -3.186044e+00 6.426780e+01 4.230274e-01 2.723998e-01 -3.794148e-01 -4.883737e-01 -2.068847e-01 2.161883e-02 5.423721e-02 1.807813e-01 3.143558e-01 -2.247543e-02 1.341000e-01 2.532347e-01 2.017147e-01 -3.799622e-01 2.986238e-02 1.967991e-01 -2.465228e-02 -2.858855e-03 2.851911e-01 3.117803e-01 7.278179e-02 3.292840e-03 -1.440569e-02 -3.746846e-02 -1.569817e-02 -2.605873e-01
<VARIANCE> 39
 6.637336e+01 9.337065e+01 8.320877e+01 8.777947e+01 7.311958e+01 8.467133e+01 7.101534e+01 5.846169e+01 3.984047e+01 3.816266e+01 2.999959e+01 3.601707e+01 3.653525e+01 3.643183e+00 3.763525e+00 4.525241e+00 4.093898e+00 3.778613e+00 4.216055e+00 4.684656e+00 3.790977e+00 2.979418e+00 2.687080e+00 2.320729e+00 2.487798e+00 2.101919e+00 5.942383e-01 6.935301e-01 7.655685e-01 5.935414e-01 5.201946e-01 5.990224e-01 7.443524e-01 6.435899e-01 5.013191e-01 4.838535e-01 4.895495e-01 4.545660e-01 2.897882e-01
<GCONST> 1.323016e+02
<TRANSP> 5
 0.000000e+00 1.000000e+00 0.000000e+00 0.000000e+00 0.000000e+00
 0.000000e+00 6.168897e-01 3.831104e-01 0.000000e+00 0.000000e+00
 0.000000e+00 0.000000e+00 6.134188e-01 3.865812e-01 0.000000e+00
 0.000000e+00 0.000000e+00 0.000000e+00 6.553436e-01 3.446564e-01
 0.000000e+00 0.000000e+00 0.000000e+00 0.000000e+00 0.000000e+00
<ENDHMM>
~h "w"
<BEGINHMM>
<NUMSTATES> 5
<STATE> 2
<MEAN> 39
 4.764351e+00 3.948256e+00 6.107535e+00 3.998548e+00 3.019104e+00 -6.397904e+00 -9.364661e+00 -5.584727e+00 -2.134027e+00 -1.798196e+00 -4.783064e+00 -5.119460e+00 5.960685e+01 -5.980614e-01 -3.700432e-02 4.948886e-01 6.152943e-01 3.600982e-01 1.931163e-01 3.532213e-01 4.562182e-01 3.217977e-02 -2.676354e-01 6.166011e-02 -5.718172e-04 -3.584354e-01 -1.523743e-01 -2.695980e-01 -1.817856e-01 -2.184497e-01 7.725950e-02 2.771596e-01 1.962767e-01 5.267416e-02 -3.324205e-02 -2.542803e-02 1.708189e-01 2.083790e-01 2.111896e-02
<VARIANCE> 39
 5.615440e+01 5.462383e+01 8.100034e+01 1.322909e+02 6.134490e+01 3.872547e+01 6.777198e+01 7.326829e+01 2.928709e+01 1.980621e+01 2.521915e+01 3.486465e+01 1.997674e+01 5.240285e-01 5.657130e-01 8.703034e-01 1.476157e+00 1.142485e+00 2.246800e+00 1.702544e+00 1.101284e+00 1.557414e+00 1.047818e+00 9.734516e-01 1.131027e+00 1.792424e-01 1.305021e-01 2.773856e-01 2.278192e-01 2.414670e-01 2.446614e-01 2.913405e-01 3.660763e-01 3.584575e-01 2.225293e-01 2.781646e-01 1.513494e-01 1.329316e-01 6.865360e-02
<GCONST> 1.006203e+02
<STATE> 3
<MEAN> 39
 3.118782e+00 4.295830e+00 5.733434e+00 -2.599149e-01 1.675368e+00 -2.354548e+00 -3.254246e+00 -1.730116e+00 -2.078320e+00 -2.704592e+00 -2.925295e+00 -2.053558e+00 5.893295e+01 -1.272975e+00 -9.784188e-01 1.094407e-01 -1.223884e-01 2.793475e-01 8.509028e-01 6.065077e-01 2.548682e-01 3.583672e-01 -1.012167e-01 2.455320e-01 5.179802e-01 -4.117979e-01 -9.752830e-02 -1.906812e-01 -1.837779e-01 -2.242969e-01 -4.618473e-02 -6.855749e-02 -2.112579e-01 -1.308037e-01 5.097263e-02 3.358582e-02 7.321216e-03 1.919508e-03 3.595999e-03
<VARIANCE> 39
 7.164998e+01 6.219649e+01 8.292375e+01 8.089754e+01 4.656075e+01 5.155802e+01 5.325877e+01 5.438866e+01 2.898780e+01 2.528627e+01 1.217062e+01 1.651671e+01 2.068200e+01 1.450913e+00 2.079174e+00 1.494093e+00 4.396858e+00 2.501557e+00 2.433223e+00 1.896394e+00 1.151396e+00 1.704891e+00 7.740890e-01 8.775457e-01 1.259034e+00 3.984252e-01 1.133848e-01 2.543734e-01 2.462714e-01 2.673316e-01 2.172850e-01 2.753999e-01 2.984479e-01 2.118011e-01 3.267240e-01 2.029377e-01 2.093817e-01 1.880952e-01 3.727626e-02
<GCONST> 1.035244e+02
<STATE> 4
<MEAN> 39
 1.320665e+00 2.165047e+00 3.910167e+00 -1.401591e+00 1.354022e+00 -1.962325e+00 -2.658081e+00 -1.050172e+00 -2.081507e+00 -3.073503e+00 -2.753087e+00 -1.078820e+00 5.801826e+01 -9.332101e-01 -8.613292e-01 -4.839378e-01 -3.461850e-01 1.667567e-01 2.729917e-01 -8.780003e-03 -2.892736e-01 -5.828044e-02 2.414574e-02 2.788560e-01 2.630993e-01 -3.368728e-01 1.338088e-01 4.660583e-02 -5.619098e-02 -1.349951e-01 -2.218907e-01 -2.864642e-01 -3.100912e-01 -1.063340e-01 -6.601603e-02 7.593797e-02 4.315947e-02 -1.319780e-01 6.521156e-02
<VARIANCE> 39
 9.278326e+01 5.323324e+01 8.405318e+01 8.378651e+01 4.937320e+01 6.404901e+01 4.832982e+01 3.863642e+01 2.058462e+01 2.057117e+01 1.183554e+01 1.570934e+01 3.015485e+01 1.570912e+00 1.485969e+00 2.166017e+00 1.626742e+00 1.254667e+00 2.508809e+00 2.149220e+00 1.219433e+00 9.517487e-01 8.248338e-01 5.274942e-01 5.782143e-01 6.737269e-01 8.832388e-02 2.198291e-01 2.230893e-01 3.252786e-01 2.305247e-01 2.461252e-01 1.765140e-01 1.851749e-01 2.434267e-01 2.496051e-01 2.475635e-01 1.043827e-01 3.147096e-02
<GCONST> 9.893598e+01
<TRANSP> 5
 0.000000e+00 1.000000e+00 0.000000e+00 0.000000e+00 0.000000e+00
 0.000000e+00 3.757524e-01 6.242475e-01 0.000000e+00 0.000000e+00
 0.000000e+00 0.000000e+00 3.498397e-01 6.501604e-01 0.000000e+00
 0.000000e+00 0.000000e+00 0.000000e+00 1.635479e-01 8.364521e-01
 0.000000e+00 0.000000e+00 0.000000e+00 0.000000e+00 0.000000e+00
<ENDHMM>
~h "x"
<BEGINHMM>
<NUMSTATES> 5
<STATE> 2
<MEAN> 39
 5.368859e+00 1.855904e+00 2.077281e+00 1.195401e+00 2.242138e+00 -4.358691e+00 -7.140621e+00 -7.749573e+00 -5.822281e+00 -1.662864e+00 -1.747115e+00 -1.777197e+00 6.088869e+01 2.041094e-01 -1.010429e-01 -2.270396e-01 1.316771e-02 1.094823e-01 -2.472992e-01 -3.317368e-01 -3.348522e-01 -5.751161e-02 2.384084e-01 1.139009e-01 1.002041e-01 2.007685e-01 3.901799e-01 -7.662970e-02 -3.612804e-01 -8.474439e-02 9.542698e-02 -2.851618e-01 -5.149477e-01 -2.174354e-01 8.250028e-02 1.869676e-01 1.642207e-01 -6.614659e-02 2.219685e-01
<VARIANCE> 39
 7.892146e+01 6.881029e+01 5.340669e+01 4.101775e+01 4.885231e+01 3.506927e+01 5.042512e+01 5.004405e+01 6.053669e+01 5.585570e+01 1.383371e+01 2.630023e+01 3.386051e+01 1.561394e+00 2.141391e+00 2.023993e+00 2.066521e+00 1.953105e+00 2.694523e+00 3.538335e+00 3.840492e+00 2.119725e+00 1.760425e+00 1.671626e+00 7.886524e-01 8.355642e-01 7.074274e-01 4.635082e-01 6.011633e-01 3.472587e-01 3.716840e-01 4.693862e-01 9.938613e-01 8.214934e-01 3.623359e-01 5.327132e-01 3.641149e-01 2.153389e-01 3.531546e-01
<GCONST> 1.192528e+02
<STATE> 3
<MEAN> 39
 1.007531e+01 6.608914e-01 -1.941163e+00 1.292412e+00 3.380081e+00 -8.442883e+00 -1.420195e+01 -1.110743e+01 -4.062073e+00 1.620535e+00 -4.301262e-01 -2.103126e+00 6.405732e+01 1.746011e+00 -7.750895e-01 -1.975695e+00 -3.496389e-01 6.751286e-01 -1.121303e+00 -2.161223e+00 -8.213906e-01 5.497259e-01 9.797498e-01 4.439539e-01 -2.820429e-01 1.220777e+00 -2.513626e-01 -1.423755e-02 1.113342e-01 4.367575e-02 -8.881588e-02 1.252152e-01 3.161185e-01 3.907194e-01 2.113446e-01 -5.347963e-02 -7.262253e-02 -7.276232e-02 -1.864799e-01
<VARIANCE> 39
 4.894177e+01 6.875776e+01 5.474816e+01 5.125413e+01 5.095071e+01 4.195993e+01 5.977481e+01 6.211930e+01 3.776101e+01 3.898922e+01 1.822866e+01 1.994686e+01 2.224834e+01 3.381865e+00 2.721737e+00 2.891494e+00 2.130806e+00 2.685461e+00 2.623320e+00 4.069591e+00 5.318565e+00 2.635995e+00 2.494752e+00 1.775989e+00 8.550931e-01 1.984800e+00 5.216845e-01 4.435767e-01 5.345815e-01 2.815432e-01 3.241833e-01 3.582353e-01 5.558738e-01 5.612464e-01 3.277595e-01 3.157811e-01 3.548456e-01 1.696833e-01 2.640944e-01
<GCONST> 1.188852e+02
<STATE> 4
<MEAN> 39
 1.161959e+01 -2.677166e-01 -2.932546e+00 4.640927e+00 7.514049e+00 -1.025031e+01 -1.919410e+01 -1.241837e+01 -5.409799e-01 5.801044e+00 5.687929e-01 -4.786929e+00 6.522414e+01 -1.821542e-01 2.544236e-01 2.314091e-01 -1.111234e-01 -1.532250e-02 3.577366e-01 3.800385e-01 1.481037e-01 5.447009e-02 3.965073e-02 8.052281e-02 -1.894780e-03 -1.919655e-01 -9.295768e-02 1.102140e-01 1.514186e-01 -3.111593e-02 -7.300025e-02 1.311539e-01 2.290547e-01 7.042401e-02 -8.581347e-02 -1.227312e-01 -2.840387e-02 6.339347e-02 -8.453450e-02
<VARIANCE> 39
 1.900518e+01 3.236765e+01 4.069478e+01 6.255428e+01 3.017752e+01 4.980769e+01 4.252777e+01 4.729644e+01 4.839850e+01 5.124524e+01 2.794618e+01 1.656748e+01 1.102562e+01 4.319215e-01 8.445988e-01 1.678430e+00 1.930584e+00 8.906436e-01 1.272997e+00 1.972136e+00 1.329272e+00 1.638654e+00 1.953403e+00 1.233912e+00 1.182915e+00 3.008515e-01 8.703170e-02 1.253188e-01 2.432852e-01 2.187500e-01 1.365905e-01 1.662756e-01 2.657008e-01 2.728924e-01 2.118445e-01 2.666930e-01 1.989733e-01 1.802845e-01 5.289348e-02
<GCONST> 9.581268e+01
<TRANSP> 5
 0.000000e+00 1.000000e+00 0.000000e+00 0.000000e+00 0.000000e+00
 0.000000e+00 4.564849e-01 5.435150e-01 0.000000e+00 0.000000e+00
 0.000000e+00 0.000000e+00 5.472633e-01 4.527367e-01 0.000000e+00
 0.000000e+00 0.000000e+00 0.000000e+00 8.887503e-01 1.112497e-01
 0.000000e+00 0.000000e+00 0.000000e+00 0.000000e+00 0.000000e+00
<ENDHMM>
~h "en"
<BEGINHMM>
<NUMSTATES> 5
<STATE> 2
<MEAN> 39
 -4.314049e-01 -5.443133e-01 7.105690e-01 -1.882667e+00 -3.413527e-01 -4.598181e+00 -6.314186e+00 -3.848403e+00 -3.601575e+00 -2.169887e+00 -1.884693e+00 -2.491360e+00 5.700534e+01 -2.864336e-03 -3.153083e-03 -6.210326e-04 -1.859146e-03 -1.025149e-03 4.018572e-05 -4.212186e-04 -9.370550e-04 -1.112693e-03 -1.571401e-03 -1.379302e-03 -1.582626e-03 3.459415e-04 -2.076533e-04 1.121370e-04 -6.082775e-04 5.937807e-05 7.690147e-05 -5.380236e-05 9.022583e-05 2.522134e-04 1.281000e-04 2.276354e-04 9.980684e-05 1.737125e-04 -8.036671e-04
<VARIANCE> 39
 1.333756e+02 6.639448e+01 7.486684e+01 6.636140e+01 5.702890e+01 5.689030e+01 7.521648e+01 5.588811e+01 3.375542e+01 3.396556e+01 2.727465e+01 2.558422e+01 7.908179e+01 3.510822e+00 2.990041e+00 3.288318e+00 2.986253e+00 2.462860e+00 3.071138e+00 3.491724e+00 2.597442e+00 2.153173e+00 2.003538e+00 1.724022e+00 1.500141e+00 1.490820e+00 4.316568e-01 4.629386e-01 4.683719e-01 4.500415e-01 3.964934e-01 5.051396e-01 5.511611e-01 4.319685e-01 3.792876e-01 3.504571e-01 3.135985e-01 2.653124e-01 2.156326e-01
<GCONST> 1.230944e+02
<STATE> 3
<MEAN> 39
 -4.314049e-01 -5.443133e-01 7.105690e-01 -1.882667e+00 -3.413527e-01 -4.598181e+00 -6.314186e+00 -3.848403e+00 -3.601575e+00 -2.169887e+00 -1.884693e+00 -2.491360e+00 5.700534e+01 -2.864336e-03 -3.153083e-03 -6.210326e-04 -1.859146e-03 -1.025149e-03 4.018572e-05 -4.212186e-04 -9.370550e-04 -1.112693e-03 -1.571401e-03 -1.379302e-03 -1.582626e-03 3.459415e-04 -2.076533e-04 1.121370e-04 -6.082775e-04 5.937807e-05 7.690147e-05 -5.380236e-05 9.022583e-05 2.522134e-04 1.281000e-04 2.276354e-04 9.980684e-05 1.737125e-04 -8.036671e-04
<VARIANCE> 39
 1.333756e+02 6.639448e+01 7.486684e+01 6.636140e+01 5.702890e+01 5.689030e+01 7.521648e+01 5.588811e+01 3.375542e+01 3.396556e+01 2.727465e+01 2.558422e+01 7.908179e+01 3.510822e+00 2.990041e+00 3.288318e+00 2.986253e+00 2.462860e+00 3.071138e+00 3.491724e+00 2.597442e+00 2.153173e+00 2.003538e+00 1.724022e+00 1.500141e+00 1.490820e+00 4.316568e-01 4.629386e-01 4.683719e-01 4.500415e-01 3.964934e-01 5.051396e-01 5.511611e-01 4.319685e-01 3.792876e-01 3.504571e-01 3.135985e-01 2.653124e-01 2.156326e-01
<GCONST> 1.230944e+02
<STATE> 4
<MEAN> 39
 -4.314049e-01 -5.443133e-01 7.105690e-01 -1.882667e+00 -3.413527e-01 -4.598181e+00 -6.314186e+00 -3.848403e+00 -3.601575e+00 -2.169887e+00 -1.884693e+00 -2.491360e+00 5.700534e+01 -2.864336e-03 -3.153083e-03 -6.210326e-04 -1.859146e-03 -1.025149e-03 4.018572e-05 -4.212186e-04 -9.370550e-04 -1.112693e-03 -1.571401e-03 -1.379302e-03 -1.582626e-03 3.459415e-04 -2.076533e-04 1.121370e-04 -6.082775e-04 5.937807e-05 7.690147e-05 -5.380236e-05 9.022583e-05 2.522134e-04 1.281000e-04 2.276354e-04 9.980684e-05 1.737125e-04 -8.036671e-04
<VARIANCE> 39
 1.333756e+02 6.639448e+01 7.486684e+01 6.636140e+01 5.702890e+01 5.689030e+01 7.521648e+01 5.588811e+01 3.375542e+01 3.396556e+01 2.727465e+01 2.558422e+01 7.908179e+01 3.510822e+00 2.990041e+00 3.288318e+00 2.986253e+00 2.462860e+00 3.071138e+00 3.491724e+00 2.597442e+00 2.153173e+00 2.003538e+00 1.724022e+00 1.500141e+00 1.490820e+00 4.316568e-01 4.629386e-01 4.683719e-01 4.500415e-01 3.964934e-01 5.051396e-01 5.511611e-01 4.319685e-01 3.792876e-01 3.504571e-01 3.135985e-01 2.653124e-01 2.156326e-01
<GCONST> 1.230944e+02
<TRANSP> 5
 0.000000e+00 1.000000e+00 0.000000e+00 0.000000e+00 0.000000e+00
 0.000000e+00 6.000000e-01 4.000000e-01 0.000000e+00 0.000000e+00
 0.000000e+00 0.000000e+00 6.000000e-01 4.000000e-01 0.000000e+00
 0.000000e+00 0.000000e+00 0.000000e+00 7.000000e-01 3.000000e-01
 0.000000e+00 0.000000e+00 0.000000e+00 0.000000e+00 0.000000e+00
<ENDHMM>
~h "js"
<BEGINHMM>
<NUMSTATES> 5
<STATE> 2
<MEAN> 39
 -4.314049e-01 -5.443133e-01 7.105690e-01 -1.882667e+00 -3.413527e-01 -4.598181e+00 -6.314186e+00 -3.848403e+00 -3.601575e+00 -2.169887e+00 -1.884693e+00 -2.491360e+00 5.700534e+01 -2.864336e-03 -3.153083e-03 -6.210326e-04 -1.859146e-03 -1.025149e-03 4.018572e-05 -4.212186e-04 -9.370550e-04 -1.112693e-03 -1.571401e-03 -1.379302e-03 -1.582626e-03 3.459415e-04 -2.076533e-04 1.121370e-04 -6.082775e-04 5.937807e-05 7.690147e-05 -5.380236e-05 9.022583e-05 2.522134e-04 1.281000e-04 2.276354e-04 9.980684e-05 1.737125e-04 -8.036671e-04
<VARIANCE> 39
 1.333756e+02 6.639448e+01 7.486684e+01 6.636140e+01 5.702890e+01 5.689030e+01 7.521648e+01 5.588811e+01 3.375542e+01 3.396556e+01 2.727465e+01 2.558422e+01 7.908179e+01 3.510822e+00 2.990041e+00 3.288318e+00 2.986253e+00 2.462860e+00 3.071138e+00 3.491724e+00 2.597442e+00 2.153173e+00 2.003538e+00 1.724022e+00 1.500141e+00 1.490820e+00 4.316568e-01 4.629386e-01 4.683719e-01 4.500415e-01 3.964934e-01 5.051396e-01 5.511611e-01 4.319685e-01 3.792876e-01 3.504571e-01 3.135985e-01 2.653124e-01 2.156326e-01
<GCONST> 1.230944e+02
<STATE> 3
<MEAN> 39
 -4.314049e-01 -5.443133e-01 7.105690e-01 -1.882667e+00 -3.413527e-01 -4.598181e+00 -6.314186e+00 -3.848403e+00 -3.601575e+00 -2.169887e+00 -1.884693e+00 -2.491360e+00 5.700534e+01 -2.864336e-03 -3.153083e-03 -6.210326e-04 -1.859146e-03 -1.025149e-03 4.018572e-05 -4.212186e-04 -9.370550e-04 -1.112693e-03 -1.571401e-03 -1.379302e-03 -1.582626e-03 3.459415e-04 -2.076533e-04 1.121370e-04 -6.082775e-04 5.937807e-05 7.690147e-05 -5.380236e-05 9.022583e-05 2.522134e-04 1.281000e-04 2.276354e-04 9.980684e-05 1.737125e-04 -8.036671e-04
<VARIANCE> 39
 1.333756e+02 6.639448e+01 7.486684e+01 6.636140e+01 5.702890e+01 5.689030e+01 7.521648e+01 5.588811e+01 3.375542e+01 3.396556e+01 2.727465e+01 2.558422e+01 7.908179e+01 3.510822e+00 2.990041e+00 3.288318e+00 2.986253e+00 2.462860e+00 3.071138e+00 3.491724e+00 2.597442e+00 2.153173e+00 2.003538e+00 1.724022e+00 1.500141e+00 1.490820e+00 4.316568e-01 4.629386e-01 4.683719e-01 4.500415e-01 3.964934e-01 5.051396e-01 5.511611e-01 4.319685e-01 3.792876e-01 3.504571e-01 3.135985e-01 2.653124e-01 2.156326e-01
<GCONST> 1.230944e+02
<STATE> 4
<MEAN> 39
 -4.314049e-01 -5.443133e-01 7.105690e-01 -1.882667e+00 -3.413527e-01 -4.598181e+00 -6.314186e+00 -3.848403e+00 -3.601575e+00 -2.169887e+00 -1.884693e+00 -2.491360e+00 5.700534e+01 -2.864336e-03 -3.153083e-03 -6.210326e-04 -1.859146e-03 -1.025149e-03 4.018572e-05 -4.212186e-04 -9.370550e-04 -1.112693e-03 -1.571401e-03 -1.379302e-03 -1.582626e-03 3.459415e-04 -2.076533e-04 1.121370e-04 -6.082775e-04 5.937807e-05 7.690147e-05 -5.380236e-05 9.022583e-05 2.522134e-04 1.281000e-04 2.276354e-04 9.980684e-05 1.737125e-04 -8.036671e-04
<VARIANCE> 39
 1.333756e+02 6.639448e+01 7.486684e+01 6.636140e+01 5.702890e+01 5.689030e+01 7.521648e+01 5.588811e+01 3.375542e+01 3.396556e+01 2.727465e+01 2.558422e+01 7.908179e+01 3.510822e+00 2.990041e+00 3.288318e+00 2.986253e+00 2.462860e+00 3.071138e+00 3.491724e+00 2.597442e+00 2.153173e+00 2.003538e+00 1.724022e+00 1.500141e+00 1.490820e+00 4.316568e-01 4.629386e-01 4.683719e-01 4.500415e-01 3.964934e-01 5.051396e-01 5.511611e-01 4.319685e-01 3.792876e-01 3.504571e-01 3.135985e-01 2.653124e-01 2.156326e-01
<GCONST> 1.230944e+02
<TRANSP> 5
 0.000000e+00 1.000000e+00 0.000000e+00 0.000000e+00 0.000000e+00
 0.000000e+00 6.000000e-01 4.000000e-01 0.000000e+00 0.000000e+00
 0.000000e+00 0.000000e+00 6.000000e-01 4.000000e-01 0.000000e+00
 0.000000e+00 0.000000e+00 0.000000e+00 7.000000e-01 3.000000e-01
 0.000000e+00 0.000000e+00 0.000000e+00 0.000000e+00 0.000000e+00
<ENDHMM>
~h "ks"
<BEGINHMM>
<NUMSTATES> 5
<STATE> 2
<MEAN> 39
 7.545958e+00 -2.130396e+00 -6.341263e+00 -3.938944e+00 8.063285e-01 -7.460562e+00 -1.062380e+01 -4.451258e+00 -1.173298e+00 8.807545e-01 5.587626e-01 -1.735480e+00 6.234445e+01 -1.207580e+00 -7.068902e-02 7.253039e-01 -4.567634e-01 -1.718644e+00 -7.334964e-01 6.042546e-01 1.322361e+00 5.051968e-01 -9.186575e-01 2.098469e-01 9.083157e-01 -8.822189e-01 -9.128270e-02 -1.184570e-01 1.042570e-01 -1.054035e-01 -3.503481e-01 1.732600e-01 2.885420e-01 -2.858125e-01 -3.586330e-01 -1.493863e-01 -3.688543e-01 -5.887479e-03 1.121259e-02
<VARIANCE> 39
 9.071625e+01 3.381425e+01 6.822639e+01 3.909199e+01 1.892154e+01 4.188762e+01 4.202827e+01 2.246986e+01 9.855957e+00 3.007458e+01 2.253914e+01 2.011809e+01 3.561392e+01 3.109811e+00 1.811543e+00 5.277988e+00 1.968435e+00 3.268128e+00 3.127207e+00 2.448013e+00 3.894078e+00 1.231093e+00 3.133364e+00 1.858125e+00 1.276161e+00 2.018055e+00 5.983765e-01 5.851342e-01 8.540976e-01 2.493762e-01 3.832127e-01 7.235587e-01 1.741618e-01 2.473780e-01 1.528535e-01 1.211271e-01 2.479630e-01 2.392689e-01 4.158939e-01
<GCONST> 1.133515e+02
<STATE> 3
<MEAN> 39
 2.317807e+00 -1.288415e+00 -3.488581e+00 -4.227427e+00 -3.369829e+00 -8.277544e+00 -1.287152e+01 -6.841950e+00 -6.161637e-01 3.056733e+00 8.010498e-01 -1.510936e+00 5.765639e+01 -1.167632e+00 -6.233668e-02 4.424190e-01 -8.022106e-01 -1.386718e+00 -9.849508e-02 8.599600e-01 1.619744e-01 -7.939734e-01 -7.401313e-01 1.313388e-02 4.847994e-01 -8.084649e-01 4.586900e-01 -3.945818e-01 -2.587033e-01 -2.954017e-01 4.617676e-01 5.246239e-01 3.700222e-01 -2.995993e-01 -5.950440e-01 -2.526151e-02 -2.474148e-01 -5.821326e-02 5.820028e-01
<VARIANCE> 39
 7.682854e+01 2.154418e+01 5.364825e+01 3.830882e+01 2.829169e+01 3.669369e+01 5.595322e+01 4.354308e+01 1.498033e+01 2.129358e+01 1.494371e+01 1.409883e+01 3.968053e+01 4.523023e-01 1.530140e+00 3.156775e+00 1.853211e+00 2.905191e+00 1.352818e+00 1.061443e+00 1.751125e+00 1.427853e+00 1.028935e+00 1.392195e+00 1.123209e+00 4.281564e-01 4.283582e-01 5.160203e-01 3.678366e-01 1.358064e+00 6.017864e-01 3.004544e-01 1.746854e-01 3.505963e-01 5.376624e-01 1.917018e-01 3.715233e-01 1.864453e-01 5.832365e-01
<GCONST> 1.074395e+02
<STATE> 4
<MEAN> 39
 -6.567822e+00 -1.155807e+01 3.452430e+00 -1.146537e+01 -3.686772e+00 -7.213500e+00 -1.734251e+00 -9.611872e+00 -5.308085e+00 6.697025e+00 -4.179955e+00 -7.229619e-01 6.068392e+01 5.239404e-01 -2.761117e-01 3.688461e-02 -8.264377e-02 -2.273543e-01 1.773801e-01 5.140715e-01 3.308360e-01 -1.789128e-01 -3.727150e-01 -3.148246e-01 -8.677915e-03 5.337016e-01 1.951617e-02 1.287476e-01 9.336258e-02 1.133484e-01 7.461400e-02 2.320565e-02 -1.534788e-01 7.865670e-02 2.150453e-01 4.265742e-02 -9.808864e-03 -7.372910e-02 -3.238861e-02
<VARIANCE> 39
 1.398377e+02 9.143402e+01 1.185292e+02 1.271869e+02 7.091825e+01 5.338804e+01 4.601850e+01 6.751981e+01 3.414304e+01 9.902441e+01 5.105153e+01 1.020622e+01 4.587538e+01 7.885507e+00 1.274388e+01 7.862517e+00 1.212525e+01 4.293025e+00 6.853206e+00 4.547354e+00 4.314190e+00 5.936081e+00 6.420973e+00 5.326365e+00 8.267044e-01 5.882807e+00 9.901712e-01 1.622243e+00 1.156017e+00 1.499838e+00 6.943137e-01 1.537959e+00 6.648028e-01 6.874114e-01 9.705493e-01 1.047927e+00 9.542806e-01 1.480314e-01 1.048325e+00
<GCONST> 1.460768e+02
<TRANSP> 5
 0.000000e+00 1.000000e+00 0.000000e+00 0.000000e+00 0.000000e+00
 0.000000e+00 1.984407e-01 8.015593e-01 0.000000e+00 0.000000e+00
 0.000000e+00 0.000000e+00 3.551162e-01 6.448838e-01 0.000000e+00
 0.000000e+00 0.000000e+00 0.000000e+00 8.737680e-01 1.262320e-01
 0.000000e+00 0.000000e+00 0.000000e+00 0.000000e+00 0.000000e+00
<ENDHMM>
~h "ny"
<BEGINHMM>
<NUMSTATES> 5
<STATE> 2
<MEAN> 39
 -1.485758e-01 -6.894319e+00 4.295640e-01 -2.127270e+00 -2.171978e+00 -2.627433e+00 -1.687030e+00 -4.428473e+00 -3.977648e+00 -1.600543e+00 -2.043326e+00 -1.674717e-01 6.155233e+01 -3.564652e-01 -6.878935e-01 -3.406272e-01 -5.619590e-01 -6.723024e-01 1.619601e-02 5.515122e-01 5.500055e-01 5.523443e-01 4.525592e-01 -3.751740e-01 -1.312916e-01 -6.043920e-02 1.108109e-01 8.045348e-02 -2.910008e-02 2.752241e-01 7.138859e-02 -5.400494e-03 -7.923045e-02 -8.811111e-02 -5.865782e-02 5.527483e-02 2.538468e-02 -7.971266e-02 3.982852e-02
<VARIANCE> 39
 1.249919e+02 1.231205e+02 1.117033e+02 3.954875e+01 4.958259e+01 5.467252e+01 5.609032e+01 4.414365e+01 2.772023e+01 2.605624e+01 1.256694e+01 2.584795e+01 4.755182e+01 5.922983e-01 1.361240e+00 9.543288e-01 2.137779e+00 1.646847e+00 9.316295e-01 1.033300e+00 1.967044e+00 2.126140e+00 1.449339e+00 6.411740e-01 1.148321e+00 1.582303e-01 1.154884e-01 1.653666e-01 2.316456e-01 1.750008e-01 1.883522e-01 2.521496e-01 3.165136e-01 1.534683e-01 2.357745e-01 2.334113e-01 8.108687e-02 2.214077e-01 4.024044e-02
<GCONST> 9.890128e+01
<STATE> 3
<MEAN> 39
 -3.082109e+00 -7.281388e+00 4.383466e+00 -2.629428e+00 -4.686124e+00 -2.825025e+00 -1.857659e+00 -2.799423e+00 -3.800578e+00 1.207886e+00 -2.872671e+00 -3.501986e+00 5.984586e+01 -2.256059e-01 -1.592957e-01 -2.105895e-01 -3.909886e-03 -4.859892e-01 -5.575258e-01 3.196680e-01 -6.438722e-02 -7.679835e-03 1.228995e-01 -2.956263e-01 2.745715e-01 -1.772487e-01 5.288631e-02 1.180538e-01 4.861043e-02 3.975033e-01 1.668339e-01 -1.293881e-01 -5.440102e-02 2.576915e-02 -8.329141e-02 -1.633036e-01 1.033255e-01 1.579830e-01 -2.151547e-02
<VARIANCE> 39
 1.416948e+02 1.275932e+02 1.412890e+02 5.356007e+01 4.558607e+01 4.474374e+01 6.836768e+01 5.518883e+01 3.378902e+01 5.223038e+01 2.159437e+01 1.596157e+01 5.188514e+01 4.502071e-01 4.551917e-01 5.189451e-01 1.564554e+00 1.131439e+00 8.855385e-01 7.841818e-01 8.900233e-01 1.048149e+00 5.118139e-01 3.459883e-01 4.622605e-01 7.398027e-02 4.255062e-02 1.851652e-01 2.316689e-01 1.223303e-01 1.650313e-01 1.560831e-01 1.749814e-01 2.700034e-01 1.864200e-01 1.446640e-01 1.663010e-01 6.506352e-02 1.885289e-02
<GCONST> 8.909521e+01
<STATE> 4
<MEAN> 39
 -3.264369e+00 -7.789692e+00 3.483637e+00 -1.403985e-01 -5.768070e+00 -5.965147e+00 -3.571275e+00 -2.393986e+00 -3.150534e+00 -1.109156e+00 -3.049873e+00 -1.816559e+00 5.839824e+01 -3.231009e-01 -5.158898e-02 -1.085442e-01 2.529417e-01 -2.166317e-01 -4.102963e-01 3.046643e-01 4.529331e-01 -2.205113e-01 -4.759195e-01 1.979963e-01 6.597204e-01 -3.141656e-01 -2.787066e-02 1.600309e-01 6.701282e-02 3.000472e-01 4.241817e-01 2.567021e-01 2.167931e-01 2.439166e-01 -8.980677e-02 -2.921287e-02 1.669156e-01 -3.846201e-02 -9.852808e-02
<VARIANCE> 39
 1.189051e+02 1.232462e+02 1.085268e+02 3.871250e+01 4.001980e+01 3.360360e+01 8.026601e+01 7.636427e+01 3.148516e+01 4.808699e+01 2.092495e+01 1.556422e+01 5.667629e+01 9.384174e-01 5.374370e-01 7.412476e-01 1.907043e+00 7.588086e-01 9.983592e-01 7.986594e-01 1.179161e+00 1.103644e+00 6.063207e-01 5.274036e-01 4.870776e-01 1.122005e-01 4.006206e-02 1.856079e-01 2.815620e-01 1.456571e-01 1.002404e-01 1.734631e-01 2.375252e-01 4.931158e-01 2.115763e-01 1.231063e-01 6.267758e-02 1.192074e-01 2.161782e-02
<GCONST> 9.138863e+01
<TRANSP> 5
 0.000000e+00 1.000000e+00 0.000000e+00 0.000000e+00 0.000000e+00
 0.000000e+00 4.249929e-01 5.750071e-01 0.000000e+00 0.000000e+00
 0.000000e+00 0.000000e+00 3.419374e-01 6.580626e-01 0.000000e+00
 0.000000e+00 0.000000e+00 0.000000e+00 5.517930e-02 9.448208e-01
 0.000000e+00 0.000000e+00 0.000000e+00 0.000000e+00 0.000000e+00
<ENDHMM>
~h "rr"
<BEGINHMM>
<NUMSTATES> 5
<STATE> 2
<MEAN> 39
 3.992393e+00 1.010293e+01 1.097202e+01 3.016289e+00 2.207554e+00 9.017153e-01 4.536512e+00 4.501842e+00 -2.334646e-01 -4.954126e-01 -2.780494e+00 -8.715236e+00 5.754035e+01 -6.186962e-01 5.829319e-01 8.208135e-01 1.236385e-01 2.074141e-01 4.809505e-01 -3.628148e-01 -6.288351e-01 4.427566e-01 1.254966e+00 3.690019e-01 -1.462775e-01 -5.188492e-01 -7.985133e-02 -3.292632e-01 -7.972129e-03 5.818726e-02 2.762046e-01 -1.869276e-01 -8.664280e-01 3.402251e-02 2.313589e-01 -5.075518e-01 4.734337e-01 5.747494e-01 9.268519e-02
<VARIANCE> 39
 1.393146e+01 3.379154e+00 4.540578e+00 1.843105e+01 2.312374e+01 3.109334e+01 2.039378e+01 1.077701e+01 6.102377e+00 3.426375e+01 9.635337e+00 3.027815e+01 2.570798e+00 1.016527e-01 3.449770e-01 5.954038e-01 1.329066e-01 5.037557e-01 5.428554e-01 8.342568e-01 6.162066e-01 3.773736e-01 6.537101e-02 6.328864e-02 7.174906e-01 1.106595e-01 7.075796e-02 1.984680e-01 1.914515e-01 4.496507e-02 2.506633e-01 5.778375e-02 4.941980e-01 5.227517e-01 7.219721e-01 7.659728e-01 2.588182e-02 3.115213e-02 5.748181e-03
<GCONST> 5.956173e+01
<STATE> 3
<MEAN> 39
 3.441522e+00 1.114748e+01 1.205612e+01 3.687953e+00 2.545388e+00 -3.805017e-01 1.692396e+00 3.342993e+00 1.347132e+00 3.184340e-01 -2.715454e+00 -7.550153e+00 5.693393e+01 -7.345072e-01 3.217490e-01 7.959544e-01 5.945790e-01 6.957844e-01 3.723501e-01 -5.538846e-01 -7.676881e-01 3.583281e-01 3.154628e-01 2.536416e-01 6.160191e-01 -5.106407e-01 -1.777322e-01 -3.964726e-01 -1.811392e-01 1.411265e-01 2.455458e-01 4.450977e-02 -1.605568e-01 1.446281e-01 -6.839108e-02 -6.189275e-01 1.373984e-01 4.104178e-01 -1.664135e-02
<VARIANCE> 39
 1.017262e+01 2.248848e+00 1.006057e+00 1.364741e+01 1.460260e+01 2.710983e+01 4.056920e+01 5.922728e+00 7.374530e-01 1.107513e+01 5.193165e+00 1.461496e+01 1.863610e+00 2.069822e-01 1.816268e-01 9.563386e-01 2.532120e-01 7.595087e-01 1.808359e+00 5.535745e-01 3.402070e-01 2.798407e-01 6.494005e-01 9.319574e-02 4.470981e-01 1.428885e-01 4.162181e-02 6.856585e-02 7.172119e-03 7.901372e-02 1.331302e-01 8.859542e-02 6.241003e-02 3.215336e-01 1.494866e-01 3.581043e-01 1.195348e-02 8.832189e-02 2.156326e-03
<GCONST> 4.545770e+01
<STATE> 4
<MEAN> 39
 3.346356e+00 1.162522e+01 1.235316e+01 3.140073e+00 3.207778e+00 4.126253e-01 1.534847e+00 3.789249e+00 1.231980e+00 -8.159725e-01 -2.821645e+00 -7.133515e+00 5.693025e+01 -9.621223e-01 -2.639393e-01 5.349437e-01 1.260212e+00 1.008831e+00 5.960138e-01 -3.728433e-01 -2.490053e-01 4.046006e-01 -6.058824e-01 -1.533976e-01 9.204974e-01 -6.329068e-01 -3.212497e-01 -4.930982e-01 -3.121045e-01 -9.658994e-02 -3.174047e-02 4.127930e-02 1.007953e-01 -1.464943e-02 -2.614790e-01 -2.022000e-01 4.330887e-02 2.370046e-01 -1.306099e-01
<VARIANCE> 39
 6.062991e+00 2.792823e+00 8.010783e-01 6.590134e+00 6.650986e+00 1.306944e+01 5.511249e+01 5.108659e+00 1.731119e+00 7.003500e+00 1.371954e+01 1.849004e+01 1.186568e+00 2.370454e-01 9.464860e-02 6.619976e-01 1.152458e+00 7.951962e-01 1.107615e+00 4.825234e-02 2.829879e-01 4.726622e-01 1.554617e+00 6.917152e-02 1.306532e+00 1.229866e-01 5.683724e-03 3.278266e-02 9.111319e-02 8.897544e-02 4.983805e-02 2.451743e-02 4.694504e-01 1.288647e-01 9.011533e-03 2.946953e-02 2.827837e-02 1.230783e-01 2.156326e-03
<GCONST> 3.823280e+01
<TRANSP> 5
 0.000000e+00 1.000000e+00 0.000000e+00 0.000000e+00 0.000000e+00
 0.000000e+00 8.221048e-21 1.000000e+00 0.000000e+00 0.000000e+00
 0.000000e+00 0.000000e+00 7.862789e-30 1.000000e+00 0.000000e+00
 0.000000e+00 0.000000e+00 0.000000e+00 2.498200e-01 7.501801e-01
 0.000000e+00 0.000000e+00 0.000000e+00 0.000000e+00 0.000000e+00
<ENDHMM>
~h "sp"
<BEGINHMM>
<NUMSTATES> 3
<STATE> 2
~s "silst"
<TRANSP> 3
 0.000000e+00 2.034105e-01 7.965894e-01
 0.000000e+00 9.432232e-01 5.677686e-02
 0.000000e+00 0.000000e+00 0.000000e+00
<ENDHMM>
~h "sil"
<BEGINHMM>
<NUMSTATES> 5
<STATE> 2
<MEAN> 39
 -3.350046e+00 -3.369431e-01 -3.258473e-01 -1.214165e+00 -1.750384e+00 -4.192557e+00 -5.945158e+00 -3.240603e+00 -2.923762e+00 -1.185396e+00 -1.342443e+00 -1.751438e+00 5.306265e+01 -1.556082e-01 -2.097514e-01 -5.616876e-02 -1.105750e-01 -2.456553e-02 -3.474146e-02 -5.223290e-02 -7.109965e-02 -6.780514e-02 -8.305880e-02 -6.077821e-02 -7.315502e-02 6.407681e-02 -7.138261e-02 -1.107704e-02 -6.518058e-02 -3.078349e-02 -1.946560e-02 1.398762e-02 2.287492e-02 1.929740e-02 1.536696e-02 1.136084e-02 1.158266e-02 2.714761e-02 -9.834132e-02
<VARIANCE> 39
 9.853484e+01 6.594493e+01 8.630833e+01 5.425954e+01 5.610832e+01 5.699732e+01 8.291144e+01 5.127015e+01 3.428374e+01 2.777271e+01 2.258155e+01 1.700988e+01 5.885865e+01 4.305136e+00 3.900458e+00 4.409955e+00 2.782284e+00 3.028781e+00 3.411419e+00 4.241490e+00 2.426496e+00 2.388048e+00 1.865298e+00 1.647825e+00 1.369910e+00 2.203797e+00 5.699726e-01 5.753767e-01 7.550231e-01 4.567901e-01 4.637023e-01 5.285919e-01 6.984935e-01 3.989765e-01 4.232410e-01 3.267750e-01 2.838988e-01 2.609530e-01 3.485403e-01
<GCONST> 1.248130e+02
<STATE> 3
~s "silst"
<STATE> 4
<MEAN> 39
 -1.426796e+01 -2.495317e+00 -1.756435e+00 -6.082778e-01 -3.283981e+00 -1.965635e+00 -3.841306e+00 -2.067852e+00 -3.268643e+00 -2.097707e+00 -2.290194e+00 -1.380957e+00 4.389253e+01 -1.407308e-02 9.789029e-03 -9.907464e-03 1.171837e-02 -3.943431e-03 3.599051e-03 -8.734948e-03 9.632292e-04 -6.717890e-03 -1.032671e-02 -1.706737e-02 -1.402640e-02 -2.833120e-02 6.114999e-03 -1.181865e-03 3.824094e-04 1.104452e-03 5.893160e-04 -9.432000e-04 1.089877e-04 1.587460e-03 1.679123e-03 7.899203e-04 -1.746158e-03 -1.782681e-03 5.711889e-03
<VARIANCE> 39
 1.134251e+01 1.079943e+01 1.040211e+01 7.217715e+00 7.292049e+00 9.334893e+00 9.132638e+00 8.828189e+00 9.174330e+00 7.899276e+00 6.953955e+00 5.927207e+00 7.607894e+00 6.965265e-02 1.299153e-01 2.220884e-01 3.164614e-01 4.161938e-01 5.198701e-01 6.009966e-01 6.957178e-01 7.115717e-01 6.980692e-01 6.438024e-01 5.867959e-01 2.966080e-02 1.496751e-02 2.791000e-02 4.752526e-02 6.580706e-02 8.653367e-02 1.073967e-01 1.257620e-01 1.451279e-01 1.488871e-01 1.464279e-01 1.312751e-01 1.199593e-01 5.554228e-03
<GCONST> 4.909105e+01
<TRANSP> 5
 0.000000e+00 1.000000e+00 0.000000e+00 0.000000e+00 0.000000e+00
 0.000000e+00 8.103076e-01 1.479877e-01 4.170478e-02 0.000000e+00
 0.000000e+00 0.000000e+00 8.611348e-01 1.388652e-01 0.000000e+00
 0.000000e+00 1.087008e-02 0.000000e+00 9.760047e-01 1.312526e-02
 0.000000e+00 0.000000e+00 0.000000e+00 0.000000e+00 0.000000e+00
<ENDHMM>
~h "tsh"
<BEGINHMM>
<NUMSTATES> 5
<STATE> 2
<MEAN> 39
 3.527625e+00 -1.015650e+01 4.661120e+00 -4.161392e+00 2.852733e+00 -6.404685e+00 -8.597337e+00 -3.211039e+00 -7.717165e+00 -1.323688e+00 5.302356e+00 -5.673596e+00 6.852052e+01 -8.919477e-02 -1.323497e-01 1.068080e-01 -2.381245e-01 -5.937466e-02 5.656739e-02 2.690447e-01 -4.041551e-02 1.111504e-02 -7.095248e-03 2.257073e-02 4.042464e-02 1.544265e-01 -3.080396e-02 -1.861348e-02 -4.246325e-02 2.380736e-02 -2.063624e-02 1.631575e-02 1.232405e-02 9.543876e-02 2.094098e-02 -1.577970e-02 -4.129171e-02 2.217897e-03 -6.709249e-02
<VARIANCE> 39
 1.736360e+02 5.359291e+01 9.710679e+01 9.253446e+01 5.420323e+01 3.530446e+01 1.163093e+02 5.511574e+01 6.593494e+01 3.979064e+01 4.197871e+01 4.130003e+01 3.116443e+01 1.075377e+01 3.311289e+00 7.413752e+00 5.303419e+00 5.487117e+00 4.313502e+00 6.213375e+00 5.106622e+00 6.315020e+00 3.621332e+00 3.919143e+00 3.068462e+00 2.969802e+00 1.375353e+00 6.673800e-01 1.190433e+00 7.745249e-01 1.057276e+00 8.248375e-01 8.781582e-01 8.964601e-01 1.236955e+00 7.076102e-01 8.020313e-01 5.243335e-01 5.845791e-01
<GCONST> 1.435027e+02
<STATE> 3
<MEAN> 39
 8.877521e-01 -3.770995e-01 2.177822e+00 -5.970270e+00 -7.220562e+00 -7.240335e+00 -1.094450e+00 -1.501680e+00 -3.048049e+00 1.760461e+00 -1.763698e+00 -2.903763e+00 5.819841e+01 1.285434e+00 1.580867e+00 -4.498626e-01 1.425416e-01 -9.340031e-01 -5.262635e-01 -8.233756e-01 1.092810e+00 5.543992e-01 1.903818e-01 -1.492645e-01 -2.610625e-01 -3.771001e-01 -1.804307e-01 -1.743483e-01 1.218420e-01 -1.847162e-02 2.778915e-01 -7.855115e-02 1.729211e-01 -9.195434e-02 -1.089184e-01 -1.002848e-01 1.019382e-01 -1.387019e-01 1.576416e-01
<VARIANCE> 39
 1.361957e+02 1.214624e+02 7.117728e+01 5.753384e+01 5.356014e+01 6.891186e+01 9.032484e+01 2.170397e+01 2.926247e+01 1.997511e+01 1.874116e+01 3.813165e+01 4.703548e+01 4.508863e+00 4.010799e+00 3.151254e+00 7.938272e+00 1.153669e+00 4.923138e+00 4.767525e+00 4.150096e+00 1.286275e+00 1.032321e+00 1.842536e+00 9.908855e-01 5.981131e+00 7.747942e-01 5.907839e-01 5.342961e-01 1.785323e+00 2.470649e-01 9.898738e-01 8.023001e-01 9.629592e-01 3.058883e-01 3.658663e-01 3.903480e-01 2.050001e-01 9.050007e-01
<GCONST> 1.284967e+02
<STATE> 4
<MEAN> 39
 9.521673e+00 2.271848e+00 -1.432611e+00 -8.422966e-01 -3.526052e+00 -9.079882e+00 -7.000303e+00 -9.750242e-01 -6.415560e-01 -6.962242e-01 -1.034667e-01 -2.215295e-01 6.221207e+01 -4.464807e-01 -9.014773e-02 -2.306216e-01 -4.642510e-01 2.110500e-01 5.890794e-01 9.687130e-01 6.189611e-01 -9.086423e-02 -3.769914e-01 -2.952155e-01 -2.203615e-01 -3.502753e-01 -2.875983e-01 -6.603159e-02 1.335789e-01 1.843950e-01 2.792706e-01 8.734579e-02 8.279057e-02 4.342895e-02 -8.429762e-02 -1.632315e-01 -1.969309e-01 -1.673705e-01 -1.846463e-01
<VARIANCE> 39
 4.897434e+01 9.630988e+01 1.354764e+02 1.793637e+01 6.000180e+01 3.383165e+01 3.952658e+01 2.527880e+01 2.622534e+01 1.710432e+01 1.964237e+01 5.824310e+01 3.716292e+01 9.678224e-01 1.048555e+00 1.158779e+00 7.607067e-01 1.197080e+00 6.624043e-01 7.498062e-01 2.041956e+00 1.633749e+00 2.313637e+00 4.753558e-01 5.669597e-01 3.960831e-01 2.856503e-01 2.281387e-01 1.453782e-01 5.943744e-02 3.193559e-01 3.958145e-01 2.069246e-01 3.096009e-01 2.136896e-01 2.407228e-01 2.381822e-01 1.862624e-01 1.332588e-01
<GCONST> 9.799677e+01
<TRANSP> 5
 0.000000e+00 1.000000e+00 0.000000e+00 0.000000e+00 0.000000e+00
 0.000000e+00 9.149535e-01 8.504647e-02 0.000000e+00 0.000000e+00
 0.000000e+00 0.000000e+00 5.723581e-01 4.276419e-01 0.000000e+00
 0.000000e+00 0.000000e+00 0.000000e+00 5.265668e-03 9.947343e-01
 0.000000e+00 0.000000e+00 0.000000e+00 0.000000e+00 0.000000e+00
<ENDHMM>
