~o
<STREAMINFO> 1 39
<VECSIZE> 39<NULLD><MFCC_D_A_0><DIAGC>
~s "silst"
<MEAN> 39
 -1.105307e+01 -3.767110e+00 -1.753654e+00 -2.576347e+00 -2.593339e+00 -3.199715e+00 -4.371454e+00 -3.029408e+00 -3.563997e+00 -2.206450e+00 -1.980248e+00 -1.183155e+00 4.834893e+01 -1.468702e-01 -3.225635e-02 -1.008883e-01 -1.989476e-02 -6.441554e-02 -1.437974e-02 -4.672668e-02 1.775657e-02 -5.394240e-03 -2.195711e-02 -1.077883e-02 1.839274e-02 -1.637273e-01 5.798499e-02 2.172966e-02 2.358197e-02 3.154800e-02 2.116671e-02 1.051849e-02 4.160912e-03 8.453485e-04 -4.949477e-04 1.119466e-02 7.454541e-03 -2.582293e-03 3.907070e-02
<VARIANCE> 39
 1.656706e+01 1.662046e+01 1.772664e+01 1.215870e+01 1.333879e+01 1.407201e+01 1.304261e+01 1.385622e+01 1.282285e+01 1.075723e+01 1.022320e+01 8.979085e+00 1.241711e+01 2.490191e-01 3.938076e-01 5.462114e-01 5.590407e-01 7.100202e-01 7.665161e-01 8.559906e-01 8.998472e-01 9.584639e-01 9.104232e-01 8.219898e-01 7.446086e-01 1.075171e-01 5.218894e-02 7.401247e-02 9.759581e-02 1.105499e-01 1.440181e-01 1.550457e-01 1.686142e-01 1.843176e-01 1.995865e-01 1.894322e-01 1.665161e-01 1.489818e-01 2.091832e-02
<GCONST> 6.963288e+01
~h "a"
<BEGINHMM>
<NUMSTATES> 5
<STATE> 2
<MEAN> 39
 1.423717e+01 -1.216511e+00 -1.107578e+01 -7.626288e+00 -1.309110e+00 -6.936383e+00 -7.144465e+00 -8.726875e-01 -7.215810e-02 -3.013604e+00 -2.060327e+00 1.955312e+00 6.668655e+01 -3.056730e-01 4.215770e-01 5.843557e-01 -1.509502e-02 -8.204290e-02 3.614547e-01 4.634730e-01 4.753924e-02 -2.169147e-01 -1.379072e-01 -5.825623e-02 -8.940168e-02 -2.964790e-01 -1.769973e-01 1.720259e-01 3.641852e-01 1.948616e-01 7.626301e-02 7.902075e-02 -8.044291e-03 -1.661919e-01 -1.364128e-01 4.523922e-02 9.621408e-03 -1.141543e-01 -1.542668e-01
<VARIANCE> 39
 2.860905e+01 3.785866e+01 4.000641e+01 4.378170e+01 3.709503e+01 3.935344e+01 3.879064e+01 5.162821e+01 2.618412e+01 3.632280e+01 2.855739e+01 2.401808e+01 2.025591e+01 4.000177e-01 9.509506e-01 1.790647e+00 1.237396e+00 1.125374e+00 1.267355e+00 1.673733e+00 1.915827e+00 1.070194e+00 1.433715e+00 1.113288e+00 9.424764e-01 3.225142e-01 7.534324e-02 1.219092e-01 1.949125e-01 1.545663e-01 1.527083e-01 2.122479e-01 2.015977e-01 2.224036e-01 1.643419e-01 1.898358e-01 1.821087e-01 1.463764e-01 4.730903e-02
<GCONST> 9.324232e+01
<STATE> 3
<MEAN> 39
 5.948883e+00 2.965067e+00 -9.435155e-01 -4.128885e+00 -1.414221e+00 -3.219326e+00 -2.222650e+00 -1.651367e+00 -4.197984e+00 -4.384861e+00 -1.824660e+00 3.175047e-01 6.015350e+01 -6.347023e-01 3.300257e-01 9.507114e-01 6.075920e-01 2.861964e-01 3.757947e-01 2.851217e-01 -9.601192e-02 -1.769065e-01 -2.077713e-02 -1.035098e-01 -2.498588e-01 -4.770500e-01 -6.323094e-02 -1.266680e-01 -6.540580e-02 4.962642e-02 7.536808e-02 -1.302857e-02 -4.680522e-02 4.096108e-02 8.597938e-02 6.165970e-02 2.197915e-02 1.187351e-02 -1.207295e-02
<VARIANCE> 39
 5.074935e+01 9.576665e+01 9.218156e+01 6.553815e+01 4.174222e+01 4.918660e+01 4.146655e+01 3.520716e+01 3.009145e+01 2.198314e+01 2.561958e+01 3.084599e+01 2.158025e+01 5.460616e-01 7.271659e-01 1.686913e+00 1.272074e+00 1.223096e+00 1.391818e+00 1.306028e+00 1.245795e+00 1.071804e+00 1.134876e+00 9.959804e-01 9.524099e-01 3.212711e-01 9.651125e-02 1.041846e-01 1.876114e-01 1.687716e-01 1.802496e-01 2.129607e-01 2.136979e-01 2.079315e-01 1.833701e-01 1.790199e-01 1.666384e-01 1.601854e-01 4.147471e-02
<GCONST> 9.524203e+01
<STATE> 4
<MEAN> 39
 2.342746e+00 1.926902e+00 1.413974e+00 -2.554408e+00 3.767679e-01 -1.479258e+00 -2.377015e+00 -2.020415e+00 -3.088705e+00 -2.454797e+00 -1.798340e+00 -8.176350e-01 5.834134e+01 -1.249486e+00 -6.076247e-01 3.448432e-01 1.431628e-01 1.246770e-02 1.143097e-01 1.190552e-01 5.814049e-02 1.855884e-02 1.701545e-01 9.148285e-02 -4.797467e-02 -6.326682e-01 1.200112e-01 -2.180701e-01 -3.017648e-01 -2.400221e-01 -1.940335e-01 -2.663639e-01 -1.768559e-01 2.144521e-02 5.651055e-02 3.196035e-03 -2.141471e-02 4.188383e-02 1.510640e-01
<VARIANCE> 39
 6.671751e+01 5.868552e+01 6.731068e+01 5.188565e+01 4.027378e+01 4.971481e+01 4.273535e+01 3.542258e+01 2.864747e+01 2.642872e+01 2.309315e+01 1.945756e+01 2.614873e+01 2.912335e+00 2.629182e+00 3.939106e+00 3.356361e+00 2.788901e+00 3.004492e+00 2.832387e+00 2.192937e+00 1.688835e+00 1.666326e+00 1.514323e+00 1.438214e+00 1.132005e+00 3.827731e-01 4.351875e-01 5.034716e-01 5.013857e-01 4.607474e-01 4.740597e-01 4.827751e-01 3.910722e-01 3.043270e-01 3.170151e-01 2.783931e-01 2.568039e-01 1.372839e-01
<GCONST> 1.162207e+02
<TRANSP> 5
 0.000000e+00 1.000000e+00 0.000000e+00 0.000000e+00 0.000000e+00
 0.000000e+00 7.840518e-01 2.159482e-01 0.000000e+00 0.000000e+00
 0.000000e+00 0.000000e+00 7.099453e-01 2.900548e-01 0.000000e+00
 0.000000e+00 0.000000e+00 0.000000e+00 6.878178e-01 3.121823e-01
 0.000000e+00 0.000000e+00 0.000000e+00 0.000000e+00 0.000000e+00
<ENDHMM>
~h "b"
<BEGINHMM>
<NUMSTATES> 5
<STATE> 2
<MEAN> 39
 3.136027e+00 6.881335e-01 2.272775e+00 -4.790755e-01 -6.060410e-01 -5.667284e+00 -5.490050e+00 -3.873905e+00 -3.028615e+00 -1.441457e+00 -3.394607e+00 -2.705910e+00 5.945887e+01 1.596470e+00 1.760362e-01 -9.748555e-01 -8.490347e-01 -4.118670e-01 -6.255251e-01 -5.209495e-01 -5.883340e-02 -2.791533e-02 -2.266241e-01 -9.674020e-03 4.347840e-01 1.052771e+00 2.948954e-01 -1.610857e-01 -3.130374e-01 -8.289409e-02 1.708145e-02 -1.878881e-01 -2.590661e-01 -7.044501e-02 7.919843e-02 8.405000e-02 5.887151e-02 6.964599e-02 2.317388e-01
<VARIANCE> 39
 9.181684e+01 9.702572e+01 8.148494e+01 8.132042e+01 8.200109e+01 7.927838e+01 4.955314e+01 4.254473e+01 2.943688e+01 2.919462e+01 2.195016e+01 1.653095e+01 4.368809e+01 9.580705e+00 6.142616e+00 7.026033e+00 5.430911e+00 4.193437e+00 4.903672e+00 5.699550e+00 5.231553e+00 3.364005e+00 2.396771e+00 2.218148e+00 1.802389e+00 3.623566e+00 1.171975e+00 9.408848e-01 8.092653e-01 7.815621e-01 6.871782e-01 7.999462e-01 7.617625e-01 8.143505e-01 4.993709e-01 4.774900e-01 3.771868e-01 3.184145e-01 5.076089e-01
<GCONST> 1.356600e+02
<STATE> 3
<MEAN> 39
 1.314415e+01 5.761345e-01 -5.589530e+00 -2.008217e+00 -4.409242e-01 -8.592587e+00 -9.980582e+00 -4.569273e+00 -3.996823e+00 -3.692866e+00 -3.377053e+00 -1.166880e+00 6.570155e+01 3.924380e-01 -9.113528e-01 -9.884357e-01 -7.812032e-02 4.268600e-01 -1.733301e-01 -4.160717e-01 2.305081e-02 2.458279e-01 1.260996e-01 3.533294e-01 5.327985e-01 5.758613e-01 -3.829300e-01 -7.082401e-02 3.118814e-01 2.245381e-01 -1.363438e-02 1.086637e-01 1.920772e-01 9.106353e-02 8.396819e-02 8.536042e-02 -2.856524e-02 -1.026534e-01 -2.263701e-01
<VARIANCE> 39
 3.523637e+01 8.732120e+01 6.603108e+01 5.857696e+01 6.871904e+01 1.289038e+02 5.323408e+01 7.371980e+01 3.295423e+01 3.442554e+01 3.481419e+01 3.048843e+01 2.651241e+01 1.115822e+00 2.692345e+00 2.673553e+00 2.295419e+00 3.540613e+00 4.173701e+00 3.643096e+00 4.526365e+00 2.562472e+00 2.621857e+00 1.697207e+00 1.712525e+00 9.801194e-01 3.500774e-01 4.393889e-01 5.120291e-01 3.916900e-01 5.956762e-01 9.376752e-01 5.757132e-01 7.866096e-01 4.623877e-01 4.179735e-01 3.072451e-01 2.558611e-01 2.015963e-01
<GCONST> 1.233326e+02
<STATE> 4
<MEAN> 39
 9.809746e+00 -7.373974e+00 -7.853468e+00 7.998955e-01 -2.564809e-01 -1.062022e+01 -1.185393e+01 -5.549502e+00 -2.481491e+00 1.911806e-01 -3.292257e-01 2.854165e-01 6.502407e+01 -3.079247e-01 2.269407e-01 3.725640e-01 1.065345e-01 4.766031e-02 1.123428e-01 1.904588e-01 1.695948e-01 3.368687e-02 6.179463e-03 -7.729527e-02 -1.121844e-01 -2.720000e-01 -1.137223e-01 1.080006e-01 1.446147e-01 6.783095e-02 4.489721e-02 9.231517e-02 8.541626e-02 7.146731e-03 -6.818467e-02 -5.110134e-02 -3.930390e-02 -6.157782e-02 -1.167669e-01
<VARIANCE> 39
 7.076568e+01 1.377790e+02 5.742205e+01 7.110818e+01 4.665459e+01 7.758308e+01 6.031603e+01 7.141085e+01 2.984594e+01 3.536703e+01 2.360406e+01 3.381080e+01 3.720907e+01 4.921287e-01 9.449949e-01 1.283149e+00 1.251137e+00 9.750583e-01 1.307082e+00 1.419991e+00 1.444138e+00 1.424441e+00 1.331341e+00 1.198397e+00 1.002773e+00 3.590725e-01 9.897520e-02 1.589329e-01 2.173856e-01 1.853251e-01 1.485379e-01 2.429630e-01 2.277549e-01 2.265351e-01 2.419225e-01 2.196132e-01 2.120561e-01 1.844319e-01 5.439562e-02
<GCONST> 1.007297e+02
<TRANSP> 5
 0.000000e+00 1.000000e+00 0.000000e+00 0.000000e+00 0.000000e+00
 0.000000e+00 6.638647e-01 3.361354e-01 0.000000e+00 0.000000e+00
 0.000000e+00 0.000000e+00 6.408194e-01 3.591806e-01 0.000000e+00
 0.000000e+00 0.000000e+00 0.000000e+00 7.970428e-01 2.029572e-01
 0.000000e+00 0.000000e+00 0.000000e+00 0.000000e+00 0.000000e+00
<ENDHMM>
~h "d"
<BEGINHMM>
<NUMSTATES> 5
<STATE> 2
<MEAN> 39
 -3.380137e+00 -7.621517e+00 -5.179268e+00 -7.621828e-01 -2.976065e-01 -4.948793e+00 -4.489696e+00 -1.724282e+00 -3.990858e+00 -2.855601e+00 -6.432728e-01 7.295702e-01 5.571292e+01 -2.414207e-01 6.144357e-02 2.505641e-02 -5.250375e-02 -1.030816e-01 -8.832771e-03 3.963706e-02 2.903778e-02 1.467021e-02 -5.216508e-02 -4.570557e-02 2.869171e-02 -2.182405e-01 4.435828e-03 4.670615e-02 4.340972e-02 1.150822e-02 -5.263214e-03 -6.072635e-03 -2.435301e-02 -2.956181e-02 -1.263321e-02 -3.835209e-03 -2.693968e-02 -3.593986e-02 -1.028527e-02
<VARIANCE> 39
 4.379795e+01 9.245350e+01 9.214446e+01 6.041242e+01 4.372971e+01 6.763797e+01 5.272150e+01 3.549396e+01 3.150554e+01 3.256054e+01 2.218394e+01 2.573780e+01 2.083200e+01 3.262060e-01 7.223079e-01 9.572644e-01 9.210905e-01 1.093334e+00 1.137332e+00 1.172231e+00 1.164649e+00 1.215241e+00 1.153639e+00 1.052434e+00 9.123142e-01 1.893502e-01 3.908607e-02 7.694262e-02 1.127984e-01 1.385032e-01 1.672100e-01 1.882899e-01 1.876839e-01 1.910883e-01 2.304479e-01 1.899875e-01 1.868359e-01 1.501714e-01 1.860844e-02
<GCONST> 9.060444e+01
<STATE> 3
<MEAN> 39
 -1.065606e+01 -1.766262e+00 -9.019890e-01 -2.509584e+00 -3.922548e+00 -3.071761e+00 -4.170986e+00 -2.600097e+00 -3.794074e+00 -2.768894e+00 -2.865855e+00 -1.834643e+00 4.805845e+01 -7.773261e-02 4.018435e-02 -6.316546e-03 3.457897e-02 -3.104346e-02 2.478841e-02 8.512828e-03 2.490646e-02 -1.708338e-02 -3.255351e-02 -3.454413e-02 -2.362733e-02 -1.129036e-01 1.465103e-02 1.134974e-03 7.447661e-03 1.810154e-02 2.261337e-02 1.554286e-02 6.263871e-04 -4.170602e-03 -8.384309e-04 3.533546e-03 1.487060e-03 -6.136401e-03 1.087738e-02
<VARIANCE> 39
 3.749513e+01 1.869036e+01 1.410148e+01 1.182429e+01 1.254525e+01 1.583396e+01 1.234845e+01 1.222832e+01 1.158005e+01 1.076367e+01 9.557859e+00 8.047654e+00 2.149346e+01 1.000255e-01 1.778934e-01 2.990490e-01 3.872296e-01 4.939551e-01 5.821792e-01 6.597138e-01 8.055396e-01 7.377487e-01 7.223013e-01 6.863345e-01 6.742234e-01 4.597852e-02 2.016168e-02 3.595163e-02 6.130169e-02 7.896043e-02 9.918579e-02 1.184608e-01 1.379313e-01 1.619727e-01 1.486900e-01 1.395808e-01 1.361266e-01 1.400663e-01 8.098889e-03
<GCONST> 5.989130e+01
<STATE> 4
<MEAN> 39
 -1.115064e+00 1.986231e+00 2.196857e+00 -6.964539e-01 -1.067016e+00 -3.422057e+00 -4.861256e+00 -3.215702e+00 -4.360545e+00 -3.783787e+00 -3.547737e+00 -1.661529e+00 5.528314e+01 -1.091005e-01 2.036538e-01 3.717558e-01 4.179240e-01 3.842273e-01 3.769994e-01 1.785322e-01 7.309707e-02 -3.418320e-02 -1.498451e-01 -1.681045e-01 -1.455775e-01 -1.409545e-01 1.914592e-01 6.101487e-02 1.357552e-01 2.246172e-01 1.824731e-01 5.255208e-02 -1.020850e-02 -5.835040e-02 -1.463224e-02 7.429669e-02 3.777010e-02 -7.321582e-02 1.354423e-01
<VARIANCE> 39
 1.185575e+02 7.178373e+01 7.874770e+01 3.867934e+01 3.517497e+01 4.623019e+01 3.164807e+01 3.712098e+01 2.699867e+01 2.576099e+01 2.226538e+01 1.543524e+01 6.336284e+01 3.840363e-01 5.043063e-01 7.837909e-01 8.083507e-01 8.551289e-01 9.228514e-01 9.508719e-01 1.201276e+00 9.489507e-01 9.133622e-01 7.748552e-01 6.679662e-01 1.547265e-01 2.065137e-01 3.029465e-01 3.866105e-01 2.582119e-01 2.147775e-01 2.782301e-01 2.871592e-01 2.712342e-01 2.472115e-01 2.397186e-01 2.202766e-01 1.879470e-01 1.015816e-01
<GCONST> 9.613139e+01
<TRANSP> 5
 0.000000e+00 1.000000e+00 0.000000e+00 0.000000e+00 0.000000e+00
 0.000000e+00 8.280835e-01 1.719165e-01 0.000000e+00 0.000000e+00
 0.000000e+00 0.000000e+00 9.052317e-01 9.476823e-02 0.000000e+00
 0.000000e+00 0.000000e+00 0.000000e+00 4.007159e-01 5.992842e-01
 0.000000e+00 0.000000e+00 0.000000e+00 0.000000e+00 0.000000e+00
<ENDHMM>
~h "e"
<BEGINHMM>
<NUMSTATES> 5
<STATE> 2
<MEAN> 39
 -3.316966e+00 1.614507e+00 5.849549e+00 1.886996e+00 1.889124e+00 -1.255569e+00 -3.630455e+00 -3.499518e+00 -3.904950e+00 -2.576860e+00 -2.810778e+00 -2.691336e+00 5.466113e+01 -4.302159e-03 -1.938732e-01 -2.251262e-01 1.693968e-01 6.363667e-02 6.899177e-02 5.893601e-02 -1.122926e-01 -1.370111e-01 -3.518470e-02 8.927494e-02 8.455208e-02 -1.747515e-02 5.754887e-01 -1.309880e-01 -3.623954e-01 -6.214064e-02 -1.127807e-02 -3.784070e-01 -5.151726e-01 -3.050013e-01 1.983279e-02 2.284458e-01 1.297510e-01 -1.189059e-02 4.342278e-01
<VARIANCE> 39
 6.880042e+01 7.715605e+01 6.221026e+01 6.092107e+01 3.552901e+01 3.617881e+01 3.545954e+01 2.624013e+01 2.010164e+01 2.036356e+01 1.555772e+01 1.321105e+01 3.036830e+01 3.102407e+00 3.916750e+00 3.999602e+00 3.194288e+00 2.696818e+00 2.346328e+00 2.733392e+00 2.403067e+00 1.897475e+00 1.915018e+00 1.592285e+00 1.271708e+00 1.163480e+00 5.972546e-01 6.940063e-01 5.932924e-01 5.807587e-01 4.932412e-01 4.868242e-01 6.027150e-01 5.046183e-01 4.009864e-01 3.926928e-01 3.068672e-01 2.674461e-01 2.808992e-01
<GCONST> 1.179803e+02
<STATE> 3
<MEAN> 39
 1.894086e+00 -3.405839e+00 6.020602e-01 4.734611e-01 9.826143e-01 -7.004806e+00 -9.045163e+00 -5.544633e+00 -4.598247e+00 -6.255559e-01 -1.438502e+00 -2.535820e+00 5.998253e+01 2.655090e+00 -9.004144e-02 -1.177255e+00 3.618894e-01 6.180674e-01 -1.290600e+00 -2.186965e+00 -1.139808e+00 4.223993e-02 5.434569e-01 3.171180e-01 -5.798760e-02 1.828806e+00 5.990629e-02 4.624756e-02 1.557073e-02 3.744361e-02 9.552941e-02 -7.042253e-02 -1.662375e-01 6.997436e-02 1.760352e-01 1.729025e-02 -4.356569e-02 -3.480016e-02 3.720386e-02
<VARIANCE> 39
 1.067763e+02 9.742780e+01 8.635847e+01 8.216305e+01 6.318972e+01 8.990166e+01 9.869712e+01 8.646272e+01 4.772038e+01 4.939652e+01 3.108649e+01 2.454109e+01 5.063722e+01 8.859165e+00 8.264786e+00 6.549852e+00 6.514490e+00 4.998567e+00 6.165939e+00 9.023711e+00 6.824910e+00 4.087919e+00 4.445827e+00 3.035465e+00 2.516965e+00 3.945666e+00 1.264838e+00 1.162615e+00 9.078107e-01 8.665349e-01 7.324210e-01 1.024950e+00 1.327312e+00 1.055805e+00 6.635463e-01 6.773301e-01 4.878080e-01 4.260022e-01 6.490051e-01
<GCONST> 1.451126e+02
<STATE> 4
<MEAN> 39
 1.152705e+01 -2.003166e+00 -2.854848e+00 4.389443e+00 6.392726e+00 -1.079976e+01 -1.923565e+01 -1.110269e+01 -2.205183e+00 3.332274e+00 -9.748682e-02 -3.911344e+00 6.552403e+01 -1.477472e-01 2.569184e-01 2.664435e-01 -2.767039e-02 4.464046e-02 2.932243e-01 3.014451e-01 1.312466e-01 1.476794e-01 9.974927e-02 1.611359e-02 -3.703536e-02 -1.556712e-01 -3.492800e-01 5.189366e-02 2.390472e-01 -9.695501e-02 -1.445151e-01 2.442162e-01 4.485459e-01 1.944378e-01 -7.260939e-02 -1.179976e-01 -6.497291e-02 3.425342e-02 -2.282278e-01
<VARIANCE> 39
 2.473320e+01 4.822597e+01 4.990628e+01 5.480806e+01 3.386882e+01 5.413063e+01 6.073829e+01 7.129520e+01 3.754105e+01 3.803944e+01 2.993823e+01 2.761856e+01 2.124886e+01 1.579913e+00 2.025084e+00 2.689015e+00 2.174958e+00 1.522439e+00 2.882212e+00 3.842511e+00 2.332559e+00 2.014051e+00 2.173460e+00 1.522417e+00 1.483904e+00 1.088624e+00 3.150628e-01 4.112601e-01 4.074914e-01 3.339750e-01 2.806101e-01 4.243768e-01 5.884610e-01 4.502129e-01 3.428357e-01 3.728653e-01 2.906145e-01 2.655721e-01 1.658949e-01
<GCONST> 1.146688e+02
<TRANSP> 5
 0.000000e+00 1.000000e+00 0.000000e+00 0.000000e+00 0.000000e+00
 0.000000e+00 6.519520e-01 3.480480e-01 0.000000e+00 0.000000e+00
 0.000000e+00 0.000000e+00 7.212269e-01 2.787731e-01 0.000000e+00
 0.000000e+00 0.000000e+00 0.000000e+00 8.449337e-01 1.550664e-01
 0.000000e+00 0.000000e+00 0.000000e+00 0.000000e+00 0.000000e+00
<ENDHMM>
~h "f"
<BEGINHMM>
<NUMSTATES> 5
<STATE> 2
<MEAN> 39
 -1.427602e+00 -2.689446e+00 1.959640e-01 -4.443923e-01 2.328420e+00 -1.659160e+00 -2.734503e+00 -3.001748e+00 -3.402021e+00 -1.117973e+00 -1.701882e+00 -2.575406e+00 5.670964e+01 -4.531370e-01 -1.471202e+00 -4.492306e-01 -1.041890e+00 -5.122294e-01 1.111278e-01 2.447837e-01 -1.112261e-01 -8.517581e-01 -2.806931e-01 5.118511e-01 5.140018e-01 3.642312e-01 5.512980e-01 -8.874795e-02 -5.713598e-02 -4.285288e-01 -5.434297e-01 -7.626207e-01 -3.552046e-01 -9.525944e-02 -2.803236e-02 -4.102503e-02 -1.451791e-01 -2.183762e-02 5.643002e-01
<VARIANCE> 39
 4.411504e+01 5.092868e+01 3.811199e+01 4.310222e+01 5.747710e+01 4.906450e+01 4.227493e+01 4.080122e+01 1.978613e+01 2.941739e+01 1.616361e+01 2.273074e+01 1.740837e+01 8.882585e+00 1.304004e+01 5.668944e+00 6.032380e+00 3.793381e+00 3.458860e+00 4.275079e+00 3.524810e+00 3.722170e+00 3.961497e+00 1.720348e+00 2.679106e+00 3.472639e+00 7.113975e-01 1.429271e+00 5.964466e-01 6.060365e-01 3.978118e-01 6.832138e-01 3.587542e-01 4.060225e-01 4.844653e-01 4.919647e-01 2.516266e-01 3.331630e-01 2.620463e-01
<GCONST> 1.268785e+02
<STATE> 3
<MEAN> 39
 -5.135927e+00 -1.576730e+01 1.602739e+00 -3.536676e+00 6.936803e-01 -8.660885e+00 -3.695662e-01 -3.234545e+00 -8.373540e+00 2.856180e+00 -3.567212e-01 -6.856375e-01 6.238424e+01 1.349895e-01 -3.809883e-01 -2.718282e-01 -8.725947e-01 -6.184422e-01 -1.328665e+00 -5.806483e-01 3.145309e-01 -5.485934e-01 -1.928894e-01 1.212907e-02 2.650769e-01 3.725408e-01 6.785781e-01 8.466666e-01 -1.434065e-01 3.045302e-01 5.236378e-02 2.623270e-02 -2.845609e-01 4.931634e-02 3.192094e-01 -6.989731e-02 -4.669335e-02 -1.262840e-01 -3.134584e-02
<VARIANCE> 39
 6.273384e+01 1.400816e+02 9.797803e+01 5.105199e+01 7.437698e+01 8.146806e+01 7.892522e+01 3.873857e+01 5.338801e+01 4.954940e+01 1.630548e+01 2.176083e+01 3.441034e+01 1.062162e+01 1.089850e+01 5.009340e+00 5.238438e+00 4.716106e+00 4.819713e+00 3.456039e+00 3.109826e+00 3.903880e+00 2.399600e+00 2.222816e+00 1.877819e+00 2.591539e+00 6.607998e-01 1.128869e+00 8.504985e-01 8.960469e-01 6.595889e-01 6.349702e-01 4.181604e-01 4.923070e-01 8.626385e-01 6.407206e-01 4.037487e-01 5.594721e-01 3.701757e-01
<GCONST> 1.353467e+02
<STATE> 4
<MEAN> 39
 6.804461e+00 -6.657656e+00 -4.480228e+00 -3.772906e+00 -3.106976e-02 -7.895118e+00 -6.109006e+00 -1.029475e+00 -4.857679e+00 -1.208603e+00 -4.278895e-01 1.275675e-01 6.422622e+01 1.246576e+00 1.051053e+00 -6.398507e-01 1.074290e-01 5.234802e-02 1.854980e-02 -2.803407e-01 -5.877434e-02 5.047542e-01 -1.890249e-01 -8.830038e-02 -1.335588e-01 2.587525e-01 -3.148002e-01 -1.202822e-01 1.157159e-01 3.232332e-01 2.763586e-01 2.023178e-01 1.218479e-01 -5.415739e-02 5.181572e-02 3.271977e-02 -1.324626e-01 -1.033644e-01 -1.817108e-01
<VARIANCE> 39
 9.510685e+01 1.058800e+02 5.132612e+01 6.429850e+01 7.037133e+01 8.785854e+01 5.053197e+01 7.797379e+01 4.134270e+01 3.225588e+01 2.781321e+01 2.836411e+01 3.170610e+01 4.866323e+00 6.084695e+00 4.871889e+00 3.706108e+00 3.356282e+00 4.588605e+00 2.183091e+00 5.023638e+00 2.600705e+00 3.201816e+00 2.762410e+00 1.900262e+00 2.594591e+00 9.552339e-01 1.696104e+00 7.777467e-01 7.422371e-01 5.410380e-01 8.654650e-01 4.396431e-01 9.289848e-01 4.986829e-01 6.803266e-01 5.133339e-01 4.626943e-01 5.102044e-01
<GCONST> 1.345569e+02
<TRANSP> 5
 0.000000e+00 1.000000e+00 0.000000e+00 0.000000e+00 0.000000e+00
 0.000000e+00 5.555701e-01 4.444300e-01 0.000000e+00 0.000000e+00
 0.000000e+00 0.000000e+00 5.667038e-01 4.332961e-01 0.000000e+00
 0.000000e+00 0.000000e+00 0.000000e+00 6.679718e-01 3.320282e-01
 0.000000e+00 0.000000e+00 0.000000e+00 0.000000e+00 0.000000e+00
<ENDHMM>
~h "g"
<BEGINHMM>
<NUMSTATES> 5
<STATE> 2
<MEAN> 39
 1.493884e+01 -7.174003e-01 -6.766598e+00 -3.843741e+00 -3.780473e+00 -1.093952e+01 -6.056527e+00 3.813773e+00 -1.569615e+00 -7.663848e+00 -3.517906e+00 1.711977e+00 6.717493e+01 1.417071e-01 1.634867e-01 -7.071525e-02 -7.983600e-01 -8.673525e-01 -3.869382e-01 5.050057e-01 9.924434e-01 3.709465e-01 -3.021040e-01 -3.018534e-01 -5.058907e-02 1.221103e-01 -2.054064e-01 1.825509e-01 2.554224e-01 6.473421e-02 5.664959e-02 2.150598e-01 3.946672e-02 -2.516140e-01 -3.518322e-02 2.250335e-01 1.607171e-02 -1.752998e-01 -1.848596e-01
<VARIANCE> 39
 2.109454e+01 7.124841e+01 8.312154e+01 3.771734e+01 4.249633e+01 4.927883e+01 3.625635e+01 6.122592e+01 3.340755e+01 4.573557e+01 2.413105e+01 5.102148e+01 2.371688e+01 1.177999e+00 2.887819e+00 2.713323e+00 1.605969e+00 1.346277e+00 2.799756e+00 1.691031e+00 2.615744e+00 1.825263e+00 2.242556e+00 1.615308e+00 2.750872e+00 1.147781e+00 1.140709e-01 2.614954e-01 2.773631e-01 2.022088e-01 1.783980e-01 4.598202e-01 2.847292e-01 2.995424e-01 2.665448e-01 2.625447e-01 2.559243e-01 2.793440e-01 8.888066e-02
<GCONST> 1.094834e+02
<STATE> 3
<MEAN> 39
 1.113903e+01 9.654825e+00 3.135405e+00 -6.696764e+00 -9.362856e+00 -1.217917e+01 -5.319055e+00 2.003508e+00 -4.258372e-01 -4.461339e+00 -5.514362e+00 -4.758078e+00 6.237000e+01 -3.901474e-01 1.161894e-01 3.900794e-01 2.145758e-01 2.540393e-01 5.128489e-01 4.047323e-01 -1.246525e-01 -1.772412e-01 2.182837e-02 3.584288e-02 3.034154e-02 -2.902348e-01 -1.296598e-01 -1.324681e-01 5.404400e-02 2.144658e-01 2.224303e-01 1.627048e-01 2.915277e-02 -1.400787e-01 -9.403038e-02 5.556445e-02 8.408820e-02 7.149470e-02 -5.474956e-02
<VARIANCE> 39
 1.174698e+01 2.845645e+01 3.809100e+01 3.217781e+01 4.388725e+01 4.601014e+01 4.072403e+01 3.195191e+01 3.087434e+01 2.974843e+01 1.794244e+01 2.299763e+01 1.072346e+01 5.713468e-01 1.029518e+00 1.533350e+00 1.563017e+00 2.241925e+00 2.089348e+00 1.312653e+00 1.496629e+00 1.498578e+00 2.004826e+00 1.260197e+00 1.069831e+00 4.529862e-01 9.657236e-02 1.153447e-01 1.497926e-01 1.855109e-01 2.655400e-01 3.200613e-01 2.443911e-01 2.425800e-01 1.971760e-01 2.576072e-01 1.952224e-01 2.040315e-01 5.289822e-02
<GCONST> 9.525594e+01
<STATE> 4
<MEAN> 39
 7.303694e+00 2.952024e+00 2.697693e+00 4.394710e-03 -1.556193e+00 -4.663194e+00 -3.736700e+00 -2.418296e+00 -4.320057e+00 -1.527679e+00 -1.858755e+00 -3.235533e+00 6.146546e+01 -6.053413e-01 -1.070907e+00 -1.015852e-01 5.618028e-01 6.549748e-01 3.169573e-01 -2.231716e-01 -4.230753e-01 -1.538327e-01 3.343953e-01 3.487341e-01 1.522396e-01 -6.008357e-02 3.509653e-02 -5.085311e-02 -1.066935e-01 -2.992403e-02 -7.588763e-03 -1.577406e-01 -1.887224e-01 6.283820e-02 9.914345e-02 -1.381506e-01 -1.393263e-01 1.119314e-02 4.016411e-02
<VARIANCE> 39
 5.070975e+01 6.983543e+01 7.550022e+01 5.033331e+01 6.614449e+01 7.763448e+01 9.334501e+01 4.722059e+01 3.477380e+01 3.754082e+01 3.638041e+01 2.539891e+01 2.714466e+01 2.904638e+00 4.540318e+00 5.121696e+00 4.014416e+00 5.166809e+00 4.313264e+00 7.795166e+00 4.814584e+00 3.724068e+00 3.042790e+00 3.090894e+00 2.580335e+00 2.060627e+00 3.530192e-01 6.440198e-01 6.816979e-01 7.884407e-01 1.018918e+00 6.315088e-01 1.223168e+00 8.071610e-01 7.126058e-01 6.752264e-01 5.984905e-01 4.932384e-01 3.145148e-01
<GCONST> 1.342261e+02
<TRANSP> 5
 0.000000e+00 1.000000e+00 0.000000e+00 0.000000e+00 0.000000e+00
 0.000000e+00 6.044822e-01 3.955179e-01 0.000000e+00 0.000000e+00
 0.000000e+00 0.000000e+00 8.165792e-01 1.834208e-01 0.000000e+00
 0.000000e+00 0.000000e+00 0.000000e+00 7.054330e-01 2.945670e-01
 0.000000e+00 0.000000e+00 0.000000e+00 0.000000e+00 0.000000e+00
<ENDHMM>
~h "i"
<BEGINHMM>
<NUMSTATES> 5
<STATE> 2
<MEAN> 39
 -6.297567e+00 -6.037023e+00 4.474962e+00 -9.530687e-01 1.497959e+00 -3.210332e+00 -5.324126e+00 -5.332886e+00 -3.926664e+00 2.870454e-01 -2.701855e+00 -3.377789e+00 5.616048e+01 1.155516e+00 1.317678e-01 -3.965532e-01 1.355098e+00 6.806568e-01 -3.368920e-01 -1.040867e+00 -8.020791e-01 -1.769810e-01 1.589882e-01 -5.946274e-02 -4.556631e-01 4.597724e-01 8.252898e-01 3.058150e-01 -4.609130e-02 3.446650e-01 2.801479e-01 -3.820876e-01 -6.483679e-01 -3.318362e-01 -4.798590e-02 6.371140e-02 -6.700232e-02 -2.131646e-01 4.682334e-01
<VARIANCE> 39
 6.705424e+01 1.153562e+02 6.677402e+01 7.457616e+01 5.010295e+01 5.438589e+01 4.838345e+01 4.241189e+01 3.800596e+01 4.083596e+01 2.326950e+01 2.064170e+01 3.438883e+01 6.654318e+00 8.472264e+00 5.345791e+00 6.955424e+00 4.690281e+00 4.587670e+00 5.822140e+00 4.392156e+00 3.233781e+00 3.285899e+00 2.479090e+00 2.531586e+00 2.702413e+00 5.180699e-01 1.072287e+00 7.845067e-01 8.495603e-01 6.692176e-01 7.835376e-01 8.444181e-01 7.609026e-01 5.849927e-01 5.495516e-01 4.262116e-01 3.794095e-01 3.389321e-01
<GCONST> 1.347723e+02
<STATE> 3
<MEAN> 39
 6.618060e+00 -2.500763e+00 2.451336e+00 8.127813e+00 6.145340e+00 -9.169107e+00 -1.508954e+01 -1.053211e+01 -5.631742e+00 4.217404e-01 -3.741595e+00 -6.889169e+00 6.274386e+01 2.301604e+00 6.608990e-01 -2.840050e-01 1.004858e+00 6.093187e-01 -1.389581e+00 -2.028031e+00 -6.369867e-01 1.963302e-01 5.153464e-02 -3.713089e-01 -5.851779e-01 1.328889e+00 -5.852855e-01 -1.929014e-01 4.577911e-02 -4.151670e-01 -3.805211e-01 8.473103e-02 4.783265e-01 5.466670e-01 3.302704e-01 -5.062199e-02 -6.257264e-02 1.181486e-01 -2.938537e-01
<VARIANCE> 39
 4.386612e+01 7.068340e+01 6.487034e+01 1.120055e+02 7.065170e+01 8.713730e+01 9.252384e+01 9.524529e+01 4.225938e+01 5.118369e+01 4.012335e+01 4.012593e+01 2.807548e+01 6.416051e+00 6.833392e+00 5.113339e+00 1.088535e+01 6.119042e+00 7.250773e+00 9.075222e+00 7.454883e+00 4.575998e+00 4.299454e+00 3.809329e+00 4.151919e+00 2.779442e+00 7.469387e-01 1.252061e+00 8.727029e-01 1.171479e+00 8.582208e-01 1.132017e+00 1.205755e+00 1.242460e+00 7.972973e-01 7.127542e-01 6.781094e-01 6.389772e-01 4.004803e-01
<GCONST> 1.453980e+02
<STATE> 4
<MEAN> 39
 8.448504e+00 -1.831329e-01 5.198645e+00 1.194792e+01 7.286059e+00 -1.319933e+01 -1.973084e+01 -9.576975e+00 -6.853608e-01 1.919821e+00 -6.232819e+00 -9.131619e+00 6.335400e+01 -8.739463e-02 2.634511e-01 -1.614352e-01 -6.808301e-01 -3.308526e-01 4.499511e-01 7.181290e-01 4.072573e-01 1.149309e-01 -7.027675e-02 1.994679e-01 3.737662e-01 -1.454967e-01 -1.573723e-01 -6.206631e-03 -2.953522e-02 -2.548330e-01 -1.331373e-01 2.476583e-01 3.653450e-01 9.741088e-02 -1.156946e-01 -9.850542e-02 7.536259e-02 1.734257e-01 -1.012630e-01
<VARIANCE> 39
 2.087550e+01 5.229908e+01 5.315115e+01 8.155358e+01 4.683109e+01 6.583930e+01 5.920173e+01 5.080235e+01 3.895703e+01 3.841423e+01 4.377564e+01 3.571031e+01 1.934290e+01 1.007421e+00 1.577185e+00 2.488594e+00 3.050967e+00 1.727216e+00 3.254524e+00 3.695169e+00 2.632125e+00 2.230045e+00 2.163854e+00 2.197543e+00 2.136729e+00 7.561907e-01 1.872957e-01 2.884728e-01 3.001834e-01 3.716610e-01 2.766568e-01 4.795212e-01 6.102660e-01 4.426247e-01 3.598803e-01 3.706982e-01 3.575154e-01 3.228109e-01 1.128292e-01
<GCONST> 1.152545e+02
<TRANSP> 5
 0.000000e+00 1.000000e+00 0.000000e+00 0.000000e+00 0.000000e+00
 0.000000e+00 7.098159e-01 2.901841e-01 0.000000e+00 0.000000e+00
 0.000000e+00 0.000000e+00 7.068463e-01 2.931537e-01 0.000000e+00
 0.000000e+00 0.000000e+00 0.000000e+00 8.596962e-01 1.403038e-01
 0.000000e+00 0.000000e+00 0.000000e+00 0.000000e+00 0.000000e+00
<ENDHMM>
~h "j"
<BEGINHMM>
<NUMSTATES> 5
<STATE> 2
<MEAN> 39
 9.727781e+00 3.401868e+00 -1.070441e-01 6.958220e-01 1.907251e+00 -6.285805e+00 -8.373734e+00 -3.484274e+00 -3.071538e+00 -3.820134e+00 -3.468971e+00 -2.180658e+00 6.290086e+01 -1.039163e+00 7.450413e-01 1.349404e+00 3.742712e-01 1.658696e-01 1.107300e+00 1.229620e+00 2.549758e-01 -4.237202e-02 -1.233112e-01 -2.867269e-01 -4.127298e-01 -8.529980e-01 -1.886266e-01 -1.144661e-01 8.475919e-02 1.735510e-01 4.733334e-02 -1.446013e-02 4.353963e-02 4.965395e-03 3.899857e-02 1.363139e-01 1.450476e-01 1.143996e-02 -8.655977e-02
<VARIANCE> 39
 3.786764e+01 6.605272e+01 7.296863e+01 6.537103e+01 8.701894e+01 4.620434e+01 4.761755e+01 5.255072e+01 2.454652e+01 2.525053e+01 2.268457e+01 2.417410e+01 2.189680e+01 1.533280e+00 2.049708e+00 2.676919e+00 3.515638e+00 3.742333e+00 2.906530e+00 2.458272e+00 3.321848e+00 2.503871e+00 1.967684e+00 1.916986e+00 2.744556e+00 7.283563e-01 2.191903e-01 2.921305e-01 3.162634e-01 2.981650e-01 4.639287e-01 4.212110e-01 3.452101e-01 4.572280e-01 4.395955e-01 2.972545e-01 3.246781e-01 4.261740e-01 1.017459e-01
<GCONST> 1.158438e+02
<STATE> 3
<MEAN> 39
 1.647938e+00 6.433388e+00 8.730765e+00 3.613374e+00 3.018537e+00 -1.156920e+00 -2.093512e+00 -2.736910e+00 -2.853540e+00 -2.153078e+00 -2.370672e+00 -3.302561e+00 5.711790e+01 -1.161004e+00 -5.115119e-01 3.377043e-01 2.833018e-01 -1.319417e-01 9.979604e-02 3.744039e-01 1.155159e-01 -2.286102e-01 -2.684292e-01 1.330117e-02 1.233536e-01 -6.457993e-01 1.425648e-01 -1.703310e-01 -2.989292e-01 -1.115372e-01 -6.734235e-02 -2.547784e-01 -2.440948e-01 -2.850219e-02 -4.900586e-02 -6.516078e-02 -1.080701e-02 4.114410e-02 1.240071e-01
<VARIANCE> 39
 2.835989e+01 4.250097e+01 4.793375e+01 2.550725e+01 3.597348e+01 2.841037e+01 3.804636e+01 3.252509e+01 2.855368e+01 1.664927e+01 1.173116e+01 1.086659e+01 1.180970e+01 8.053043e-01 1.334176e+00 1.729463e+00 1.611948e+00 2.374157e+00 1.890980e+00 1.987363e+00 1.732368e+00 1.618111e+00 1.317920e+00 9.628876e-01 1.212393e+00 2.928701e-01 9.600190e-02 1.313471e-01 1.830667e-01 1.823167e-01 3.465555e-01 3.904656e-01 3.216141e-01 3.155068e-01 3.178202e-01 2.400612e-01 1.563137e-01 1.956326e-01 4.427604e-02
<GCONST> 9.569183e+01
<STATE> 4
<MEAN> 39
 2.480993e+00 2.851059e+00 1.405361e+00 -5.394148e-01 1.314286e+00 -1.893965e+00 -5.457150e+00 -5.338242e+00 -5.647381e+00 -5.504415e+00 -4.141608e+00 -1.422999e+00 5.838269e+01 -2.134989e-01 -9.520277e-02 -4.711740e-02 -3.327436e-02 -5.089521e-03 9.945276e-02 1.906779e-01 1.458705e-01 -1.005963e-01 -1.446903e-01 -6.761118e-02 4.100463e-02 -1.367538e-01 6.358627e-02 -6.315586e-02 -9.663336e-02 1.757723e-02 5.154707e-02 -2.482180e-02 -2.283077e-02 1.487542e-02 4.062897e-02 7.922450e-02 3.332556e-02 -3.517596e-02 5.393827e-02
<VARIANCE> 39
 6.371171e+01 7.126479e+01 1.309937e+02 4.632897e+01 3.444911e+01 2.502259e+01 2.167447e+01 1.853179e+01 2.158983e+01 2.013589e+01 1.684437e+01 2.175680e+01 3.303106e+01 3.083875e-01 4.241129e-01 6.055745e-01 8.225241e-01 9.167635e-01 7.198998e-01 6.754986e-01 6.443000e-01 7.060020e-01 7.624093e-01 8.024644e-01 7.189115e-01 1.193267e-01 7.987548e-02 1.031140e-01 1.500149e-01 9.291290e-02 1.429645e-01 1.739787e-01 1.999977e-01 1.579068e-01 1.301082e-01 1.355407e-01 1.817892e-01 1.750400e-01 3.385172e-02
<GCONST> 8.267316e+01
<TRANSP> 5
 0.000000e+00 1.000000e+00 0.000000e+00 0.000000e+00 0.000000e+00
 0.000000e+00 6.130968e-01 3.869031e-01 0.000000e+00 0.000000e+00
 0.000000e+00 0.000000e+00 6.505910e-01 3.494091e-01 0.000000e+00
 0.000000e+00 0.000000e+00 0.000000e+00 7.238750e-01 2.761250e-01
 0.000000e+00 0.000000e+00 0.000000e+00 0.000000e+00 0.000000e+00
<ENDHMM>
~h "k"
<BEGINHMM>
<NUMSTATES> 5
<STATE> 2
<MEAN> 39
 5.079729e+00 -1.608381e+00 -3.213581e+00 -2.357133e+00 -1.173572e+00 -8.996747e+00 -1.020894e+01 -4.756393e+00 -2.710677e+00 -8.236210e-01 -1.675247e+00 -2.799087e+00 6.080211e+01 1.556166e+00 4.657632e-02 -6.546035e-01 -9.943826e-02 2.270460e-02 -8.278501e-01 -9.070829e-01 -1.106040e-01 2.641878e-01 2.044109e-01 1.333268e-01 -3.351486e-02 1.095836e+00 -3.285467e-02 2.452534e-02 9.095287e-02 6.425386e-02 5.203840e-02 4.578165e-02 6.974959e-02 1.048688e-01 4.286247e-02 -3.523923e-02 -4.231825e-02 -2.799451e-03 -1.106371e-02
<VARIANCE> 39
 1.098803e+02 7.224361e+01 5.938830e+01 8.282128e+01 9.419753e+01 6.851237e+01 7.635349e+01 6.666576e+01 3.515074e+01 3.473340e+01 2.811154e+01 2.814020e+01 5.825352e+01 6.254134e+00 5.486601e+00 4.954673e+00 4.672334e+00 5.163705e+00 4.939721e+00 4.809095e+00 3.683473e+00 2.646337e+00 2.853884e+00 2.342268e+00 2.219859e+00 3.470990e+00 1.030772e+00 9.568816e-01 8.897146e-01 7.063975e-01 7.610221e-01 9.012187e-01 9.258636e-01 6.065124e-01 4.898882e-01 5.175289e-01 4.350344e-01 3.804711e-01 6.089835e-01
<GCONST> 1.369169e+02
<STATE> 3
<MEAN> 39
 1.217867e+01 -2.139332e+00 -4.335127e+00 3.530092e+00 4.608720e+00 -1.355538e+01 -1.994251e+01 -8.876379e+00 -2.581273e-02 2.403973e+00 -1.762633e+00 -4.549374e+00 6.596786e+01 -1.999992e-01 2.461939e-01 3.321243e-01 5.406979e-02 8.798587e-02 1.292387e-01 7.531936e-02 9.955092e-02 1.996336e-01 1.302291e-01 -9.780459e-02 -2.048344e-01 -1.727677e-01 -1.767291e-01 1.394805e-01 1.993171e-01 -2.245209e-02 -1.424424e-03 2.322951e-01 2.007682e-01 -4.481233e-02 -9.495205e-02 -3.507094e-02 -2.638251e-02 -3.457718e-02 -1.563438e-01
<VARIANCE> 39
 2.123722e+01 4.714675e+01 4.157448e+01 8.111037e+01 5.778369e+01 4.533702e+01 7.386488e+01 7.094499e+01 3.612395e+01 3.206541e+01 3.179900e+01 2.712993e+01 1.483565e+01 2.340104e-01 6.935577e-01 9.944131e-01 1.011223e+00 6.680835e-01 1.121074e+00 1.018981e+00 1.046750e+00 1.050389e+00 9.091111e-01 8.298064e-01 9.698794e-01 1.980492e-01 9.226648e-02 1.298365e-01 1.655557e-01 1.487654e-01 1.277097e-01 2.131165e-01 2.047130e-01 1.677760e-01 1.686918e-01 1.577814e-01 1.536516e-01 1.384695e-01 5.916835e-02
<GCONST> 9.032919e+01
<STATE> 4
<MEAN> 39
 7.177830e+00 2.745562e+00 2.026837e+00 3.815008e+00 4.025323e+00 -7.950103e+00 -1.445661e+01 -9.114756e+00 -1.993364e+00 1.495962e+00 -2.817973e+00 -6.251819e+00 6.138874e+01 -1.410534e+00 5.680339e-01 8.682351e-01 -6.392533e-01 -4.427582e-01 1.453403e+00 1.971895e+00 5.347999e-01 -5.784230e-01 -6.881897e-01 -6.076467e-02 3.785897e-01 -1.093899e+00 -1.936768e-01 -2.570973e-01 -1.293767e-01 -1.682428e-01 -2.043630e-01 -5.577424e-02 1.589430e-01 1.503392e-01 -6.084716e-02 -1.875501e-01 -2.953997e-02 2.077035e-01 -5.798376e-02
<VARIANCE> 39
 3.758754e+01 4.124506e+01 4.960099e+01 8.293289e+01 7.091059e+01 5.302347e+01 7.843679e+01 6.921080e+01 4.385732e+01 3.957337e+01 2.715248e+01 2.699822e+01 2.092301e+01 1.968851e+00 2.256178e+00 2.533496e+00 2.616013e+00 2.433049e+00 2.420353e+00 2.824643e+00 2.088728e+00 2.251573e+00 1.991270e+00 1.541734e+00 1.909908e+00 1.062568e+00 2.369474e-01 3.150165e-01 3.597976e-01 3.442936e-01 3.862114e-01 4.609869e-01 5.402631e-01 3.166963e-01 3.694375e-01 3.250526e-01 2.660558e-01 3.216836e-01 1.413857e-01
<GCONST> 1.161368e+02
<TRANSP> 5
 0.000000e+00 1.000000e+00 0.000000e+00 0.000000e+00 0.000000e+00
 0.000000e+00 7.976974e-01 2.023027e-01 0.000000e+00 0.000000e+00
 0.000000e+00 0.000000e+00 7.987763e-01 2.012237e-01 0.000000e+00
 0.000000e+00 0.000000e+00 0.000000e+00 6.404839e-01 3.595161e-01
 0.000000e+00 0.000000e+00 0.000000e+00 0.000000e+00 0.000000e+00
<ENDHMM>
~h "l"
<BEGINHMM>
<NUMSTATES> 5
<STATE> 2
<MEAN> 39
 -4.575878e-01 -2.811496e+00 3.363886e+00 8.724381e-01 -6.183652e-01 -5.474034e+00 -3.491605e+00 -2.271945e+00 -7.083179e+00 -2.938816e+00 -3.277222e+00 -2.184960e+00 5.821917e+01 7.889494e-01 2.400087e-01 -2.294270e-01 -2.637325e-01 -4.434165e-02 -2.972488e-01 -1.935554e-01 1.521802e-02 -7.484403e-03 -1.261254e-01 -5.633773e-02 1.669711e-01 5.360957e-01 3.835687e-01 2.429046e-02 -3.040423e-01 -1.782327e-01 -5.856848e-02 -2.021834e-01 -2.085267e-01 4.479119e-02 1.284309e-01 -1.306302e-02 3.775262e-02 8.270196e-02 2.465534e-01
<VARIANCE> 39
 1.003749e+02 1.170516e+02 8.663266e+01 8.497433e+01 5.598511e+01 8.299625e+01 8.606044e+01 7.415215e+01 4.659093e+01 7.067715e+01 2.609822e+01 2.680617e+01 6.241605e+01 8.903594e+00 7.382679e+00 7.183889e+00 5.896072e+00 4.432545e+00 5.701766e+00 5.917072e+00 4.761958e+00 4.108073e+00 4.595604e+00 2.441978e+00 2.525622e+00 3.204399e+00 9.626759e-01 1.075232e+00 9.817590e-01 9.539183e-01 6.800590e-01 1.068087e+00 9.778790e-01 8.042045e-01 7.868922e-01 8.102548e-01 4.136269e-01 4.595663e-01 4.693797e-01
<GCONST> 1.429057e+02
<STATE> 3
<MEAN> 39
 1.121138e+01 1.299603e+00 -4.296690e+00 -1.394475e+00 -2.286860e-01 -9.716322e+00 -1.044198e+01 -3.516368e+00 -3.859933e+00 -4.717708e+00 -3.412252e+00 -4.034280e-01 6.379684e+01 1.985567e+00 -4.495757e-01 -2.156292e+00 -1.419757e+00 -4.959445e-01 -7.424537e-01 -6.303505e-01 5.942008e-01 9.616205e-01 1.826442e-01 2.746729e-01 4.487454e-01 1.480756e+00 -5.250641e-01 -1.359263e-01 1.646169e-01 -6.208884e-03 1.608218e-02 3.643112e-01 3.113770e-01 1.618224e-02 7.404055e-02 1.418165e-01 -2.020302e-02 -1.106039e-01 -3.069114e-01
<VARIANCE> 39
 3.991951e+01 6.784406e+01 8.812351e+01 8.523315e+01 7.912022e+01 6.116637e+01 5.539851e+01 6.161142e+01 3.667716e+01 4.594808e+01 3.968047e+01 2.972168e+01 2.413167e+01 4.322028e+00 4.236862e+00 5.629994e+00 5.691184e+00 5.953922e+00 4.720786e+00 3.580448e+00 3.903695e+00 3.167429e+00 3.896329e+00 2.810227e+00 2.551203e+00 2.201333e+00 5.501301e-01 7.239144e-01 1.048109e+00 9.449309e-01 9.302915e-01 8.086267e-01 5.846715e-01 5.860146e-01 4.956279e-01 5.645319e-01 5.364831e-01 4.075011e-01 2.574619e-01
<GCONST> 1.339940e+02
<STATE> 4
<MEAN> 39
 1.348067e+01 -1.346086e+00 -7.866401e+00 -1.571704e+00 2.546345e+00 -7.370863e+00 -1.091232e+01 -4.187903e+00 -2.815239e+00 -3.345065e+00 -1.693036e+00 6.080582e-01 6.605592e+01 -2.204316e-01 1.678989e-01 2.435088e-01 -5.290341e-03 4.387201e-02 2.897377e-01 2.597517e-01 -4.605454e-02 8.869667e-02 1.468454e-01 -5.491819e-02 -1.286397e-01 -1.856995e-01 -2.100253e-01 1.095883e-01 2.944092e-01 1.261509e-01 -2.034899e-02 6.558038e-02 1.381647e-01 2.266275e-02 -4.707686e-02 -1.839638e-02 -9.856606e-02 -1.109531e-01 -1.641743e-01
<VARIANCE> 39
 3.713071e+01 5.210620e+01 6.479530e+01 7.649246e+01 4.610926e+01 6.426981e+01 4.566231e+01 5.292994e+01 3.236148e+01 3.570823e+01 3.508824e+01 3.010317e+01 2.630638e+01 9.410851e-01 1.592119e+00 2.975015e+00 2.864285e+00 2.401855e+00 3.020987e+00 2.237909e+00 2.326027e+00 2.008407e+00 2.047600e+00 1.721436e+00 1.620169e+00 7.898250e-01 1.975047e-01 2.510627e-01 4.789041e-01 3.997170e-01 3.010810e-01 5.051112e-01 3.584248e-01 3.507653e-01 3.047268e-01 3.394049e-01 3.471121e-01 2.778237e-01 1.343723e-01
<GCONST> 1.139753e+02
<TRANSP> 5
 0.000000e+00 1.000000e+00 0.000000e+00 0.000000e+00 0.000000e+00
 0.000000e+00 7.512850e-01 2.487150e-01 0.000000e+00 0.000000e+00
 0.000000e+00 0.000000e+00 5.633710e-01 4.366290e-01 0.000000e+00
 0.000000e+00 0.000000e+00 0.000000e+00 7.365953e-01 2.634048e-01
 0.000000e+00 0.000000e+00 0.000000e+00 0.000000e+00 0.000000e+00
<ENDHMM>
~h "m"
<BEGINHMM>
<NUMSTATES> 5
<STATE> 2
<MEAN> 39
 2.229967e+00 3.348391e+00 4.493949e+00 -8.554258e-01 -3.251091e-01 -2.521604e+00 -2.498417e+00 -2.516674e+00 -3.977712e+00 -3.178272e+00 -3.775290e+00 -3.595386e+00 5.797290e+01 1.217592e+00 1.293641e-01 -4.208056e-01 2.893896e-01 3.782383e-01 -5.387238e-01 -1.004464e+00 -5.180125e-01 7.139437e-02 2.595587e-01 8.054192e-02 -7.534306e-02 7.925717e-01 2.376872e-01 -1.921012e-01 -1.944602e-01 1.398312e-01 1.454096e-01 -3.348178e-01 -4.848102e-01 -9.552878e-02 1.435510e-01 1.967449e-01 1.012717e-01 -1.360474e-02 2.164558e-01
<VARIANCE> 39
 8.716606e+01 8.723524e+01 7.089447e+01 6.167120e+01 4.251431e+01 5.015030e+01 4.208986e+01 4.510106e+01 2.666153e+01 3.274174e+01 2.190815e+01 2.466808e+01 3.655015e+01 5.653103e+00 6.935405e+00 6.474376e+00 5.350796e+00 4.332345e+00 4.811447e+00 6.548177e+00 4.831121e+00 2.718579e+00 3.754462e+00 2.913760e+00 2.880500e+00 2.788699e+00 6.490713e-01 8.391630e-01 8.434671e-01 8.833314e-01 6.816281e-01 7.423474e-01 7.786397e-01 7.005691e-01 4.657414e-01 5.857353e-01 3.856344e-01 4.505991e-01 3.698496e-01
<GCONST> 1.338216e+02
<STATE> 3
<MEAN> 39
 1.061949e+01 7.576317e-01 -4.427323e-01 4.424458e+00 4.975050e+00 -9.547098e+00 -1.540087e+01 -8.027185e+00 -1.632607e+00 1.343053e+00 -2.077326e+00 -5.103831e+00 6.406357e+01 7.875114e-01 -9.153876e-01 -6.623842e-01 9.719021e-01 6.461656e-01 -1.843032e+00 -2.291214e+00 -2.152321e-02 1.351004e+00 1.033723e+00 -1.526488e-02 -2.869371e-01 8.161266e-01 -5.838721e-01 2.061037e-01 4.906121e-01 -2.073772e-01 -3.727822e-01 3.790602e-01 9.448121e-01 5.661774e-01 -1.278741e-02 -3.356318e-01 -2.540589e-01 1.193966e-02 -4.124624e-01
<VARIANCE> 39
 2.899773e+01 5.806458e+01 6.216210e+01 8.793006e+01 6.013652e+01 5.546996e+01 8.029376e+01 7.101548e+01 3.724481e+01 4.299662e+01 3.265192e+01 3.806588e+01 2.250211e+01 2.806701e+00 4.041829e+00 4.680819e+00 6.727618e+00 4.152028e+00 4.739916e+00 7.666399e+00 4.519335e+00 2.184685e+00 3.977838e+00 2.397368e+00 3.349695e+00 1.696626e+00 3.443673e-01 7.943931e-01 6.487773e-01 7.237638e-01 5.359079e-01 6.040305e-01 7.808447e-01 6.987738e-01 4.689018e-01 5.349854e-01 4.933829e-01 5.635264e-01 1.821409e-01
<GCONST> 1.311163e+02
<STATE> 4
<MEAN> 39
 8.854386e+00 1.616066e+00 4.527440e+00 8.626729e+00 6.123661e+00 -1.220749e+01 -1.781373e+01 -7.753705e+00 9.226272e-01 3.386111e+00 -2.899623e+00 -6.848112e+00 6.326464e+01 -3.033948e-01 5.149320e-01 3.546138e-01 -3.249053e-01 -2.010153e-01 6.250324e-01 7.977152e-01 1.800635e-01 -2.028929e-01 -2.961726e-01 7.591867e-02 2.571172e-01 -3.531179e-01 -7.373345e-02 7.056388e-02 1.886709e-02 -1.402905e-01 -5.992175e-02 2.486742e-01 3.001799e-01 2.054918e-02 -1.927432e-01 -1.645465e-01 1.451198e-02 9.749087e-02 -7.549164e-02
<VARIANCE> 39
 1.935179e+01 6.139696e+01 5.340576e+01 5.697762e+01 3.694080e+01 5.471548e+01 7.147217e+01 6.019184e+01 3.618694e+01 4.988432e+01 2.873526e+01 2.870953e+01 2.216174e+01 4.873665e-01 1.379670e+00 1.629294e+00 1.886811e+00 1.186586e+00 2.814530e+00 3.249514e+00 1.718349e+00 2.100187e+00 1.730926e+00 1.224521e+00 1.451978e+00 4.662571e-01 7.859661e-02 2.170207e-01 2.575445e-01 3.083692e-01 2.099676e-01 4.092695e-01 4.936894e-01 2.860383e-01 3.445002e-01 3.154801e-01 2.257325e-01 2.500598e-01 6.325679e-02
<GCONST> 1.059532e+02
<TRANSP> 5
 0.000000e+00 1.000000e+00 0.000000e+00 0.000000e+00 0.000000e+00
 0.000000e+00 7.649757e-01 2.350244e-01 0.000000e+00 0.000000e+00
 0.000000e+00 0.000000e+00 5.383381e-01 4.616619e-01 0.000000e+00
 0.000000e+00 0.000000e+00 0.000000e+00 8.305650e-01 1.694350e-01
 0.000000e+00 0.000000e+00 0.000000e+00 0.000000e+00 0.000000e+00
<ENDHMM>
~h "n"
<BEGINHMM>
<NUMSTATES> 5
<STATE> 2
<MEAN> 39
 1.092982e+01 9.416040e-01 -4.364071e+00 -3.538077e+00 -1.311577e+00 -7.223639e+00 -6.958943e+00 -1.121990e+00 -1.828028e+00 -4.187192e+00 -2.633727e+00 2.639538e-02 6.430682e+01 -2.748225e-01 4.358113e-01 3.669114e-01 -2.655410e-01 -2.551127e-01 3.594850e-01 5.744181e-01 1.851052e-01 -1.295077e-01 -2.389738e-01 -2.964111e-02 1.266694e-01 -2.897888e-01 -2.314325e-01 1.096462e-01 3.318650e-01 2.364211e-01 1.288790e-01 1.491946e-01 6.687087e-02 -1.126997e-01 -8.550744e-02 6.983550e-02 -3.993826e-02 -1.603324e-01 -1.790579e-01
<VARIANCE> 39
 5.794566e+01 7.146646e+01 8.698804e+01 4.716273e+01 5.863040e+01 5.582756e+01 4.487978e+01 5.163514e+01 2.958441e+01 3.562476e+01 3.133437e+01 3.320309e+01 3.516536e+01 1.051437e+00 2.158413e+00 2.931093e+00 2.220677e+00 2.195264e+00 2.399020e+00 3.063569e+00 2.547735e+00 1.598389e+00 1.844564e+00 1.302334e+00 1.278603e+00 7.411405e-01 1.709606e-01 2.583499e-01 3.400777e-01 2.486992e-01 2.384035e-01 2.732854e-01 3.279256e-01 2.912946e-01 2.247977e-01 2.544976e-01 2.387200e-01 2.242816e-01 9.004189e-02
<GCONST> 1.104701e+02
<STATE> 3
<MEAN> 39
 6.482044e+00 4.281921e+00 1.860538e+00 -8.456804e-01 4.278571e-01 -4.750048e+00 -6.258464e+00 -3.163937e+00 -3.152596e+00 -3.137044e+00 -2.089234e+00 -1.694522e+00 6.038867e+01 -1.055605e+00 8.392223e-01 1.414289e+00 3.618390e-01 4.176961e-02 1.027379e+00 1.195433e+00 1.194392e-01 -3.488885e-01 -1.929553e-01 -2.966967e-01 -3.604138e-01 -8.816317e-01 -9.489229e-02 -2.523175e-01 -6.923638e-03 2.112723e-01 1.207574e-01 -3.526971e-02 -2.474514e-02 7.718507e-03 5.504198e-02 1.149085e-01 -3.673702e-02 -1.282376e-01 1.625137e-02
<VARIANCE> 39
 6.817218e+01 6.041537e+01 7.264711e+01 4.444801e+01 4.639143e+01 5.153502e+01 3.984533e+01 3.535495e+01 2.205341e+01 2.579332e+01 2.304793e+01 2.483834e+01 3.136202e+01 1.610791e+00 3.331621e+00 3.960069e+00 2.972211e+00 3.033699e+00 3.220737e+00 3.545901e+00 3.202151e+00 1.998140e+00 2.056805e+00 1.827578e+00 1.862240e+00 1.033904e+00 2.394146e-01 3.492578e-01 3.934388e-01 3.234382e-01 3.097255e-01 4.036637e-01 4.516033e-01 3.083702e-01 2.948718e-01 3.164521e-01 2.215802e-01 2.174627e-01 1.069460e-01
<GCONST> 1.145420e+02
<STATE> 4
<MEAN> 39
 4.108366e+00 5.777188e+00 5.462576e+00 -1.290804e-01 3.082032e-01 -2.497261e+00 -3.271847e+00 -2.754494e+00 -3.963434e+00 -3.451410e+00 -3.092893e+00 -3.346816e+00 5.897016e+01 -2.171563e-01 -2.477874e-01 -8.288294e-03 1.194422e-02 -9.703245e-02 -4.765584e-02 2.325636e-01 2.154532e-01 -6.113788e-03 -8.797817e-02 -6.190022e-02 9.168480e-02 -6.856827e-02 1.396345e-01 -2.539615e-01 -3.005047e-01 -1.045327e-01 -7.379258e-02 -2.381933e-01 -2.111438e-01 4.178915e-02 1.225528e-01 8.220883e-02 6.610027e-02 7.296228e-02 1.548873e-01
<VARIANCE> 39
 4.958334e+01 6.222276e+01 6.290935e+01 5.042995e+01 5.377318e+01 5.458110e+01 3.893449e+01 3.801896e+01 3.017714e+01 3.035354e+01 2.522632e+01 2.237798e+01 2.067141e+01 3.165319e+00 3.769816e+00 4.232675e+00 3.116838e+00 3.105453e+00 3.284283e+00 3.172518e+00 3.000781e+00 2.391967e+00 2.060366e+00 1.760368e+00 1.704917e+00 1.451745e+00 3.745008e-01 5.827803e-01 5.842062e-01 5.351742e-01 5.244791e-01 5.815237e-01 5.953768e-01 5.269179e-01 4.152977e-01 3.953220e-01 3.288988e-01 2.943960e-01 1.960548e-01
<GCONST> 1.211419e+02
<TRANSP> 5
 0.000000e+00 1.000000e+00 0.000000e+00 0.000000e+00 0.000000e+00
 0.000000e+00 5.933068e-01 4.066932e-01 0.000000e+00 0.000000e+00
 0.000000e+00 0.000000e+00 1.868749e-01 8.131251e-01 0.000000e+00
 0.000000e+00 0.000000e+00 0.000000e+00 7.042660e-01 2.957340e-01
 0.000000e+00 0.000000e+00 0.000000e+00 0.000000e+00 0.000000e+00
<ENDHMM>
~h "o"
<BEGINHMM>
<NUMSTATES> 5
<STATE> 2
<MEAN> 39
 1.264232e+01 4.534597e+00 -1.893039e+00 -5.216967e+00 -7.562646e+00 -1.363170e+01 -7.687836e+00 3.017305e+00 -3.219202e-01 -6.411342e+00 -6.386399e+00 -1.984401e+00 6.455254e+01 -3.060958e-01 4.396515e-01 5.617840e-01 -1.307443e-01 -4.278039e-01 9.395286e-02 5.997199e-01 4.571293e-01 1.266584e-01 -1.071815e-01 -1.053632e-01 -1.677772e-01 -3.076816e-01 -2.131595e-01 -2.959444e-03 2.106392e-01 2.661088e-01 2.975774e-01 3.097595e-01 6.736009e-02 -2.807797e-01 -2.068777e-01 1.242323e-01 1.263632e-01 -6.502928e-02 -1.433762e-01
<VARIANCE> 39
 3.325005e+01 5.746587e+01 4.841951e+01 4.585370e+01 6.126948e+01 8.750022e+01 4.636304e+01 6.841916e+01 4.020889e+01 4.067412e+01 2.926611e+01 3.116679e+01 2.010866e+01 5.563148e-01 9.884465e-01 1.485656e+00 1.452791e+00 2.920125e+00 3.431630e+00 1.863475e+00 3.258994e+00 2.393323e+00 1.767348e+00 1.446476e+00 1.324268e+00 4.172176e-01 9.944017e-02 1.446652e-01 1.998221e-01 2.106636e-01 2.879706e-01 3.912148e-01 2.870762e-01 3.982608e-01 3.279320e-01 2.755277e-01 2.468971e-01 2.591628e-01 5.692313e-02
<GCONST> 1.065208e+02
<STATE> 3
<MEAN> 39
 6.451845e+00 8.147138e+00 5.233766e+00 -4.595412e+00 -8.090734e+00 -9.777141e+00 -3.043684e+00 2.034531e+00 -8.363547e-01 -4.283069e+00 -4.649606e+00 -3.751406e+00 5.982384e+01 -7.060050e-01 -2.729255e-02 6.145891e-01 7.070455e-01 7.275958e-01 7.837247e-01 4.197823e-01 -2.024865e-01 -2.697568e-01 4.183821e-02 1.009973e-01 -1.186136e-01 -4.479876e-01 -9.582274e-02 -1.994220e-01 -6.793896e-02 1.424215e-01 1.952965e-01 1.038513e-01 -9.247873e-03 -8.621856e-02 -5.866189e-02 4.080430e-02 5.056730e-02 3.870292e-02 -1.122263e-02
<VARIANCE> 39
 4.027428e+01 7.727237e+01 4.678832e+01 5.214074e+01 5.202727e+01 6.095721e+01 3.854467e+01 3.747815e+01 3.370488e+01 2.785481e+01 2.528582e+01 2.321102e+01 1.247701e+01 6.860868e-01 8.238753e-01 1.308811e+00 1.352901e+00 1.916247e+00 2.281269e+00 1.605604e+00 1.616133e+00 1.400412e+00 1.334012e+00 1.169379e+00 1.059288e+00 3.111983e-01 1.036255e-01 1.423509e-01 1.635447e-01 1.999869e-01 2.683118e-01 3.151240e-01 2.836387e-01 2.316750e-01 2.079671e-01 2.328541e-01 2.140335e-01 1.776117e-01 3.498556e-02
<GCONST> 9.822218e+01
<STATE> 4
<MEAN> 39
 1.004799e+00 4.939274e+00 6.244740e+00 4.605956e-01 -1.059267e+00 -3.206006e+00 -1.454231e+00 5.018502e-02 -2.194915e+00 -3.331458e+00 -3.693443e+00 -3.109253e+00 5.707344e+01 -1.175017e+00 -1.050983e+00 -2.715810e-01 3.233180e-01 4.864512e-01 6.076410e-01 3.113673e-01 -3.212573e-01 -4.167352e-01 8.352025e-02 3.380652e-01 2.316703e-01 -5.608987e-01 1.587454e-01 -2.156428e-01 -2.651278e-01 -2.654414e-01 -3.442815e-01 -3.904683e-01 -2.174803e-01 -2.478023e-02 -2.073577e-03 4.370113e-02 3.454586e-02 3.417472e-02 1.785030e-01
<VARIANCE> 39
 5.612173e+01 4.883566e+01 4.579514e+01 4.963021e+01 4.088054e+01 5.262331e+01 3.638036e+01 3.660527e+01 3.199590e+01 2.737761e+01 1.919998e+01 1.995486e+01 2.101604e+01 2.154063e+00 2.182882e+00 2.433557e+00 2.847354e+00 3.020481e+00 3.230145e+00 2.577787e+00 2.331108e+00 2.155191e+00 2.006625e+00 1.450501e+00 1.444234e+00 7.472463e-01 3.274041e-01 4.096706e-01 3.782721e-01 3.894408e-01 4.381654e-01 4.488099e-01 4.440553e-01 4.340086e-01 3.906014e-01 4.184944e-01 2.965694e-01 2.806877e-01 1.101072e-01
<GCONST> 1.137260e+02
<TRANSP> 5
 0.000000e+00 1.000000e+00 0.000000e+00 0.000000e+00 0.000000e+00
 0.000000e+00 6.833324e-01 3.166676e-01 0.000000e+00 0.000000e+00
 0.000000e+00 0.000000e+00 7.373596e-01 2.626404e-01 0.000000e+00
 0.000000e+00 0.000000e+00 0.000000e+00 6.282703e-01 3.717297e-01
 0.000000e+00 0.000000e+00 0.000000e+00 0.000000e+00 0.000000e+00
<ENDHMM>
~h "p"
<BEGINHMM>
<NUMSTATES> 5
<STATE> 2
<MEAN> 39
 -5.085127e+00 6.275027e-01 3.568602e+00 1.550435e-02 2.482447e-01 -2.434291e+00 -3.345387e+00 -3.542353e+00 -3.808217e+00 -2.415919e+00 -2.496241e+00 -2.002296e+00 5.294283e+01 -6.345752e-01 -4.950563e-01 -5.817312e-01 -4.203092e-01 -3.402662e-01 -4.011889e-02 1.829082e-02 2.030287e-01 1.242022e-01 -4.764024e-02 -2.820784e-02 1.692403e-01 -4.398522e-01 7.574021e-01 -5.912646e-02 -2.372202e-01 -1.275634e-01 -9.713921e-02 -3.116266e-01 -2.221712e-01 -4.371415e-02 1.365171e-02 7.222503e-02 5.311333e-02 -4.395308e-02 6.004587e-01
<VARIANCE> 39
 4.387370e+01 3.812556e+01 3.711511e+01 3.243873e+01 2.253954e+01 2.202089e+01 2.633988e+01 2.115744e+01 1.658375e+01 1.515065e+01 1.024834e+01 9.222455e+00 1.801248e+01 3.187604e+00 1.735878e+00 2.248669e+00 1.592309e+00 1.878584e+00 1.861622e+00 1.971808e+00 1.722100e+00 1.319735e+00 1.419505e+00 1.299331e+00 1.105528e+00 1.617770e+00 5.595103e-01 5.028377e-01 4.007483e-01 3.473720e-01 3.881671e-01 4.938556e-01 4.572787e-01 4.317906e-01 3.123920e-01 3.095414e-01 2.507270e-01 2.339242e-01 2.960043e-01
<GCONST> 1.057174e+02
<STATE> 3
<MEAN> 39
 -1.901726e+00 -1.742209e+00 -1.029175e+00 -2.946175e+00 -3.609893e+00 -5.121702e+00 -4.381061e+00 -2.657584e+00 -3.070675e+00 -1.238838e+00 -1.943593e+00 -1.936211e+00 5.532192e+01 4.474549e+00 8.735679e-01 -9.772901e-01 -9.916500e-01 -1.302720e+00 -2.028103e+00 -9.662700e-01 3.494182e-01 2.054216e-01 -2.481761e-01 -3.518035e-01 -1.282248e-01 3.022740e+00 6.440239e-01 2.882522e-01 -1.048249e-02 -6.246828e-02 -1.740254e-01 -4.213611e-01 -2.347873e-01 1.278500e-01 1.315784e-01 -2.319126e-01 -2.258480e-01 3.286294e-02 4.206371e-01
<VARIANCE> 39
 7.554656e+01 6.267037e+01 4.587036e+01 4.757214e+01 3.893757e+01 5.057389e+01 3.205526e+01 2.852824e+01 2.256226e+01 1.927402e+01 1.419374e+01 9.632788e+00 4.487794e+01 7.259042e+00 9.065135e+00 6.540373e+00 4.962719e+00 5.197362e+00 6.275955e+00 4.586732e+00 4.935966e+00 3.243105e+00 3.256748e+00 2.455023e+00 1.671900e+00 4.103695e+00 1.242831e+00 1.039815e+00 8.505465e-01 6.556670e-01 6.798634e-01 9.088432e-01 5.835016e-01 6.254879e-01 4.622460e-01 4.283841e-01 4.174513e-01 2.933000e-01 7.529895e-01
<GCONST> 1.306609e+02
<STATE> 4
<MEAN> 39
 1.020586e+01 -4.523597e+00 -4.760257e+00 -2.783954e+00 -2.540629e+00 -1.227542e+01 -9.427992e+00 -8.915555e-01 -2.238681e+00 -1.784381e+00 -3.575147e+00 -6.647148e-01 6.577746e+01 1.004449e+00 1.508787e-01 -4.624751e-01 -1.407827e-01 9.391308e-03 -4.430528e-01 -3.475635e-01 2.853653e-01 3.567975e-01 -2.582868e-01 -1.559951e-01 2.832106e-01 6.905801e-01 -6.388603e-01 -9.838591e-02 1.650700e-01 1.452410e-01 2.096825e-01 3.643095e-01 1.730677e-01 -1.062893e-01 -4.097417e-02 9.003017e-02 1.106084e-01 1.809849e-02 -4.380186e-01
<VARIANCE> 39
 1.121958e+02 1.182633e+02 1.054722e+02 8.981601e+01 9.248508e+01 6.260966e+01 6.710059e+01 6.530145e+01 6.231100e+01 5.787186e+01 3.015510e+01 3.404136e+01 3.410742e+01 8.017047e+00 4.821390e+00 5.068956e+00 4.691178e+00 5.356422e+00 5.706007e+00 4.502334e+00 5.053093e+00 4.187979e+00 3.679692e+00 2.356326e+00 2.575184e+00 4.019752e+00 1.054085e+00 9.753509e-01 8.135539e-01 8.089383e-01 9.713727e-01 1.172793e+00 8.081662e-01 9.964400e-01 8.421525e-01 7.035068e-01 4.413612e-01 5.089707e-01 5.676064e-01
<GCONST> 1.422668e+02
<TRANSP> 5
 0.000000e+00 1.000000e+00 0.000000e+00 0.000000e+00 0.000000e+00
 0.000000e+00 7.521054e-01 2.478946e-01 0.000000e+00 0.000000e+00
 0.000000e+00 0.000000e+00 5.599539e-01 4.400461e-01 0.000000e+00
 0.000000e+00 0.000000e+00 0.000000e+00 7.726057e-01 2.273943e-01
 0.000000e+00 0.000000e+00 0.000000e+00 0.000000e+00 0.000000e+00
<ENDHMM>
~h "r"
<BEGINHMM>
<NUMSTATES> 5
<STATE> 2
<MEAN> 39
 1.181988e+01 9.516430e-02 -5.992799e+00 -4.667507e+00 -3.719625e+00 -9.251254e+00 -6.824638e+00 6.091945e-01 -5.362258e-01 -3.921683e+00 -4.319979e+00 -5.499132e-01 6.481901e+01 -1.957535e-01 1.323223e-01 1.938034e-01 -5.826786e-02 -2.426510e-01 -1.356308e-01 1.072150e-01 2.312590e-01 1.776891e-01 1.432656e-02 -6.819402e-02 -1.136743e-01 -1.616115e-01 -1.350592e-01 6.881649e-02 1.892066e-01 1.465358e-01 1.137966e-01 1.392169e-01 4.916375e-02 -1.206003e-01 -1.148883e-01 7.421657e-03 3.767828e-02 -1.021601e-02 -1.100019e-01
<VARIANCE> 39
 5.961876e+01 6.704937e+01 7.069276e+01 4.546666e+01 5.965566e+01 7.047067e+01 5.338571e+01 7.317963e+01 4.684474e+01 4.310247e+01 3.189720e+01 2.787448e+01 3.531202e+01 5.641778e-01 1.328126e+00 1.857715e+00 1.178333e+00 1.663189e+00 1.619665e+00 1.375587e+00 1.963331e+00 1.604184e+00 1.342928e+00 1.149933e+00 1.194773e+00 4.422948e-01 1.106832e-01 1.966013e-01 2.585502e-01 1.908786e-01 2.498467e-01 2.422463e-01 2.349676e-01 2.974139e-01 2.279245e-01 1.896597e-01 2.105585e-01 2.104682e-01 6.765456e-02
<GCONST> 1.041206e+02
<STATE> 3
<MEAN> 39
 3.530000e+00 2.236643e+00 9.932091e-01 -3.373665e+00 -1.772550e+00 -5.638186e+00 -6.512981e+00 -2.170271e+00 -1.456596e+00 -1.731833e+00 -3.174143e+00 -3.483401e+00 5.916224e+01 -5.804513e-01 -1.053860e-02 3.915536e-01 4.027906e-01 3.278892e-01 3.984097e-01 2.697802e-01 -4.616216e-02 -1.233059e-01 -8.922115e-03 7.156140e-02 6.802525e-02 -3.999457e-01 -2.617047e-02 -1.047584e-01 -9.270400e-02 3.801920e-02 9.453805e-02 8.828935e-02 5.563899e-02 -1.078894e-02 -4.117079e-02 -2.474346e-02 1.295618e-02 5.274240e-02 -5.347888e-03
<VARIANCE> 39
 8.431920e+01 8.203309e+01 7.496616e+01 7.016597e+01 6.929826e+01 6.220781e+01 5.690365e+01 4.666083e+01 2.443933e+01 2.340310e+01 2.350425e+01 1.893571e+01 2.933254e+01 6.960203e-01 1.086325e+00 2.019323e+00 1.484505e+00 1.733202e+00 1.652219e+00 1.497270e+00 1.617637e+00 1.237893e+00 1.106965e+00 1.165898e+00 1.124464e+00 3.703671e-01 1.516965e-01 1.766174e-01 2.501305e-01 2.264317e-01 3.088255e-01 2.926438e-01 3.183952e-01 3.097217e-01 2.055048e-01 2.047671e-01 2.191662e-01 1.994796e-01 7.246497e-02
<GCONST> 1.033797e+02
<STATE> 4
<MEAN> 39
 4.877594e+00 6.152997e-01 -1.656551e+00 -2.744485e+00 2.653839e-01 -4.505085e+00 -6.809957e+00 -5.242245e+00 -3.526458e+00 -1.251891e+00 -1.316804e+00 -1.331641e+00 5.995347e+01 -3.415221e-01 -2.006611e-01 -1.671898e-01 -6.615892e-03 2.030142e-01 3.636599e-01 2.342228e-01 -1.962458e-02 -7.448546e-02 9.525537e-03 1.380949e-01 1.372982e-01 -2.226469e-01 5.456065e-02 -6.879410e-02 -6.623945e-02 -9.634204e-02 -1.268885e-01 -1.072449e-01 9.070129e-03 1.144282e-01 7.064977e-02 -2.044323e-02 -3.515364e-02 -8.391905e-03 7.325970e-02
<VARIANCE> 39
 8.581947e+01 5.158216e+01 6.177365e+01 5.583593e+01 6.236896e+01 5.895975e+01 5.855341e+01 5.793977e+01 2.970814e+01 2.805763e+01 2.412922e+01 2.392046e+01 3.732280e+01 5.960425e+00 4.058968e+00 4.962072e+00 3.551366e+00 4.274615e+00 4.057089e+00 4.266378e+00 3.928622e+00 2.656994e+00 2.298898e+00 2.063590e+00 1.881895e+00 2.788931e+00 7.215029e-01 7.459645e-01 7.138407e-01 5.414289e-01 6.959924e-01 6.536987e-01 7.124282e-01 6.617405e-01 4.726194e-01 4.306229e-01 3.429049e-01 3.300515e-01 3.491988e-01
<GCONST> 1.292481e+02
<TRANSP> 5
 0.000000e+00 1.000000e+00 0.000000e+00 0.000000e+00 0.000000e+00
 0.000000e+00 6.250648e-01 3.749352e-01 0.000000e+00 0.000000e+00
 0.000000e+00 0.000000e+00 5.830395e-01 4.169605e-01 0.000000e+00
 0.000000e+00 0.000000e+00 0.000000e+00 7.194455e-01 2.805545e-01
 0.000000e+00 0.000000e+00 0.000000e+00 0.000000e+00 0.000000e+00
<ENDHMM>
~h "s"
<BEGINHMM>
<NUMSTATES> 5
<STATE> 2
<MEAN> 39
 -4.512238e+00 -6.077404e+00 9.245303e+00 -2.428041e-01 -2.910398e+00 -1.820961e-01 -1.771668e+00 -6.909209e+00 -5.430546e+00 2.369124e+00 -8.803606e-03 -3.850888e+00 5.828033e+01 -1.873226e+00 -2.048468e+00 8.495301e-01 -7.931176e-01 -1.015375e+00 2.634158e-01 7.109336e-01 1.144297e-01 -4.315900e-01 4.451516e-01 5.357022e-02 -1.934599e-01 -1.788847e-01 1.460566e-01 2.514930e-02 -1.892121e-01 -3.272629e-01 -4.262884e-02 -4.053656e-01 -3.227829e-01 -4.827343e-03 -5.773312e-02 -1.564550e-01 -1.206894e-01 2.689011e-02 1.541359e-01
<VARIANCE> 39
 6.593821e+01 7.726128e+01 4.873210e+01 5.289249e+01 8.451044e+01 4.093727e+01 7.218134e+01 4.868941e+01 4.628686e+01 4.128590e+01 2.977973e+01 2.318380e+01 1.846673e+01 3.474624e+00 5.297301e+00 5.703537e+00 5.127083e+00 4.286381e+00 3.404011e+00 4.419758e+00 3.039589e+00 3.143061e+00 3.501672e+00 2.743343e+00 2.090631e+00 6.294138e-01 4.161415e-01 8.948649e-01 5.480729e-01 8.825061e-01 7.843668e-01 4.656357e-01 5.961689e-01 4.925661e-01 5.130761e-01 5.123815e-01 3.890933e-01 3.279135e-01 1.329285e-01
<GCONST> 1.272789e+02
<STATE> 3
<MEAN> 39
 -6.381304e+00 -1.234946e+01 9.437653e+00 -4.937995e+00 -9.958239e-01 -8.557621e+00 -2.618212e+00 -4.420841e+00 -7.078696e+00 3.077971e+00 -2.552230e+00 -2.752254e+00 6.253973e+01 5.117136e-01 3.655860e-01 -6.944576e-01 -4.117399e-01 -8.976960e-02 -6.479341e-01 -2.611738e-01 6.993750e-02 9.422356e-02 -4.980677e-01 -2.620808e-01 2.241534e-01 1.802919e-01 3.679707e-01 3.341151e-01 -3.003572e-01 1.578059e-01 3.133402e-02 1.763006e-02 -1.243494e-01 5.559552e-02 1.886615e-01 -1.460112e-01 -2.624150e-02 4.768644e-02 -2.516506e-02
<VARIANCE> 39
 1.113886e+02 9.601769e+01 1.045140e+02 1.214350e+02 7.814339e+01 1.000362e+02 9.883922e+01 9.185889e+01 6.125160e+01 8.253159e+01 3.774253e+01 2.814223e+01 3.567955e+01 1.190560e+01 9.156087e+00 7.729822e+00 8.457167e+00 3.986828e+00 5.028798e+00 5.483668e+00 4.731658e+00 4.544995e+00 5.137045e+00 3.110601e+00 2.450819e+00 2.810822e+00 1.031995e+00 1.283821e+00 9.600022e-01 1.218576e+00 7.009877e-01 9.200749e-01 7.814747e-01 8.013847e-01 8.443735e-01 8.608400e-01 5.593694e-01 4.566750e-01 3.943689e-01
<GCONST> 1.458105e+02
<STATE> 4
<MEAN> 39
 2.055747e+00 -4.913404e+00 8.727998e-01 -4.019186e+00 -2.040978e+00 -8.602911e+00 -6.752073e+00 -2.068920e+00 -3.799912e+00 -2.913090e+00 -3.680969e+00 -1.119644e+00 6.190098e+01 6.545929e-02 1.622776e-01 -6.305611e-01 2.059686e-02 2.834316e-01 9.401591e-02 -8.073969e-02 3.222890e-01 4.207100e-01 -1.885177e-01 -6.291334e-02 2.128240e-01 -2.286460e-01 -2.140933e-01 -7.102377e-02 1.703029e-01 2.251805e-01 1.168833e-01 2.249540e-01 1.138397e-01 -1.165691e-01 -5.520822e-02 1.896524e-01 9.702943e-02 -1.111482e-01 -1.317711e-01
<VARIANCE> 39
 1.529387e+02 9.370665e+01 9.880009e+01 1.089377e+02 7.308678e+01 8.212222e+01 7.240502e+01 7.798682e+01 4.076056e+01 5.785526e+01 3.083419e+01 3.689577e+01 3.961509e+01 2.295855e+00 2.837853e+00 3.465355e+00 2.881944e+00 2.897289e+00 3.171535e+00 2.868376e+00 3.493129e+00 2.591776e+00 2.252181e+00 1.685815e+00 1.818917e+00 1.251182e+00 7.001191e-01 6.366512e-01 5.799180e-01 5.377002e-01 4.846554e-01 5.447777e-01 5.403355e-01 5.676271e-01 4.299614e-01 4.509993e-01 3.878885e-01 3.330008e-01 2.091095e-01
<GCONST> 1.284195e+02
<TRANSP> 5
 0.000000e+00 1.000000e+00 0.000000e+00 0.000000e+00 0.000000e+00
 0.000000e+00 7.616277e-01 2.383723e-01 0.000000e+00 0.000000e+00
 0.000000e+00 0.000000e+00 8.039852e-01 1.960147e-01 0.000000e+00
 0.000000e+00 0.000000e+00 0.000000e+00 6.125550e-01 3.874450e-01
 0.000000e+00 0.000000e+00 0.000000e+00 0.000000e+00 0.000000e+00
<ENDHMM>
~h "t"
<BEGINHMM>
<NUMSTATES> 5
<STATE> 2
<MEAN> 39
 6.125764e+00 6.633729e-01 -2.767014e+00 -4.503596e+00 -1.591220e+00 -6.779727e+00 -7.568679e+00 -2.319052e+00 -2.720497e+00 -3.182951e+00 -2.278694e+00 -1.171783e+00 6.084352e+01 -2.544824e-01 9.076145e-02 -1.066252e-01 -4.203536e-01 -5.663729e-01 -1.807818e-01 4.047879e-01 7.761503e-01 3.833098e-01 -2.894961e-01 -2.431605e-01 -7.837901e-02 -2.202064e-01 -2.487882e-01 -9.367952e-02 2.331490e-01 2.360981e-01 5.073800e-02 3.754979e-02 5.514793e-02 -9.470816e-02 -2.850739e-02 1.066541e-01 1.272377e-02 -1.077787e-01 -1.171725e-01
<VARIANCE> 39
 1.139956e+02 5.668035e+01 8.733729e+01 5.768861e+01 5.142303e+01 6.259304e+01 4.411599e+01 6.228971e+01 2.526900e+01 3.440779e+01 3.738964e+01 2.975596e+01 5.329203e+01 1.977623e+00 2.291499e+00 2.252095e+00 1.771603e+00 2.162134e+00 2.264346e+00 2.299959e+00 3.120429e+00 1.946868e+00 1.883068e+00 1.590516e+00 1.153742e+00 8.597476e-01 4.072819e-01 4.107886e-01 4.661498e-01 3.020807e-01 3.617701e-01 4.033038e-01 5.028620e-01 5.502121e-01 3.227708e-01 3.479248e-01 3.121694e-01 2.542883e-01 1.617252e-01
<GCONST> 1.174384e+02
<STATE> 3
<MEAN> 39
 8.803888e+00 3.766112e+00 -2.209898e+00 -5.696420e+00 -4.311193e+00 -7.771719e+00 -6.318590e+00 -1.057621e+00 -2.100719e+00 -3.567473e+00 -3.692624e+00 -2.279640e+00 6.188483e+01 -5.728501e-01 2.932631e-01 6.772968e-01 1.264561e-01 -1.574384e-01 1.495738e-01 3.429001e-01 1.090215e-01 -2.863413e-02 -9.845654e-02 -1.558359e-01 -2.430016e-01 -4.162841e-01 -1.023903e-01 -1.820995e-02 1.339476e-01 2.017801e-01 2.033802e-01 1.269007e-01 -3.032643e-02 -1.526846e-01 -1.142146e-01 9.831805e-04 1.038375e-02 3.513648e-02 -6.409820e-02
<VARIANCE> 39
 8.172583e+01 5.873294e+01 8.485054e+01 5.088169e+01 5.754342e+01 6.955007e+01 3.508080e+01 5.846055e+01 3.119960e+01 3.110556e+01 2.895757e+01 2.534347e+01 4.163789e+01 4.876657e-01 8.311479e-01 1.270332e+00 1.127072e+00 1.386209e+00 1.186066e+00 1.383826e+00 1.804614e+00 1.253454e+00 1.282102e+00 1.056279e+00 8.664548e-01 2.937371e-01 8.499625e-02 1.360534e-01 1.533302e-01 1.369324e-01 1.772049e-01 2.147043e-01 2.174275e-01 2.478092e-01 1.760310e-01 1.737783e-01 1.683159e-01 1.497202e-01 4.791111e-02
<GCONST> 9.695912e+01
<STATE> 4
<MEAN> 39
 1.055837e+00 4.136707e+00 4.590014e+00 -2.393837e-01 -2.102363e-01 -3.280209e+00 -4.088335e+00 -2.950895e+00 -4.020409e+00 -3.740960e+00 -3.187469e+00 -2.619017e+00 5.687800e+01 -9.070162e-01 -2.672032e-01 2.438613e-01 2.807574e-01 8.567996e-02 1.119033e-01 2.680494e-01 2.686043e-01 1.555805e-01 1.989602e-02 -6.106792e-02 1.334041e-02 -5.666242e-01 6.975663e-02 -1.256393e-01 -1.757849e-01 -4.818936e-02 -1.907539e-02 -6.240617e-02 -5.787006e-02 1.025405e-03 4.099428e-02 7.192069e-02 4.213435e-02 2.676007e-02 6.307507e-02
<VARIANCE> 39
 8.524370e+01 5.764594e+01 5.956955e+01 5.929166e+01 4.634278e+01 5.274590e+01 2.808129e+01 3.879086e+01 3.319985e+01 2.454418e+01 1.621849e+01 1.707441e+01 3.619168e+01 7.762352e-01 1.013730e+00 1.701003e+00 1.620310e+00 1.875892e+00 1.748415e+00 1.552134e+00 1.459957e+00 1.179757e+00 1.009554e+00 8.828686e-01 7.862673e-01 2.893322e-01 1.256907e-01 1.607489e-01 2.016205e-01 2.277765e-01 2.649644e-01 2.989960e-01 2.557821e-01 2.650080e-01 2.336880e-01 2.212093e-01 1.762524e-01 1.417235e-01 6.541857e-02
<GCONST> 9.881808e+01
<TRANSP> 5
 0.000000e+00 1.000000e+00 0.000000e+00 0.000000e+00 0.000000e+00
 0.000000e+00 3.303388e-01 6.696613e-01 0.000000e+00 0.000000e+00
 0.000000e+00 0.000000e+00 5.278957e-01 4.721043e-01 0.000000e+00
 0.000000e+00 0.000000e+00 0.000000e+00 6.248488e-01 3.751513e-01
 0.000000e+00 0.000000e+00 0.000000e+00 0.000000e+00 0.000000e+00
<ENDHMM>
~h "u"
<BEGINHMM>
<NUMSTATES> 5
<STATE> 2
<MEAN> 39
 -2.582132e+00 1.864620e+00 5.158037e+00 1.737556e+00 1.899858e-01 -1.992059e+00 -3.361827e+00 -2.553068e+00 -3.574632e+00 -3.114586e+00 -3.773514e+00 -3.554856e+00 5.468730e+01 4.832015e-01 -2.762020e-03 -4.939136e-01 -8.100485e-01 -7.772001e-01 -5.079253e-01 -1.065279e-01 1.125148e-01 1.297339e-02 -7.427493e-02 -2.963780e-02 7.385164e-02 3.333963e-01 6.441997e-01 -5.091546e-02 -2.524640e-01 -2.094653e-01 -3.659392e-01 -5.543935e-01 -2.758864e-01 -2.536908e-02 -1.440980e-02 6.702531e-02 8.057575e-02 1.274995e-02 4.909055e-01
<VARIANCE> 39
 6.739648e+01 5.822472e+01 4.330714e+01 4.898578e+01 4.450481e+01 4.721653e+01 4.273815e+01 2.680424e+01 1.828784e+01 2.109989e+01 1.673780e+01 1.213043e+01 3.160623e+01 6.005405e+00 6.543848e+00 5.291259e+00 4.266596e+00 5.867467e+00 5.043305e+00 3.883034e+00 3.412330e+00 2.235391e+00 2.634195e+00 2.657395e+00 2.108289e+00 2.170586e+00 6.354720e-01 8.434203e-01 6.459314e-01 6.357409e-01 8.220676e-01 6.790460e-01 5.761973e-01 5.849597e-01 3.737904e-01 4.689133e-01 4.109484e-01 3.191632e-01 2.869384e-01
<GCONST> 1.258536e+02
<STATE> 3
<MEAN> 39
 2.501123e+00 -1.679021e+00 2.349387e+00 -3.678968e+00 -5.877492e+00 -1.029933e+01 -6.343655e+00 -1.079154e+00 -3.597905e+00 -2.977676e+00 -3.066857e+00 -2.994076e+00 6.020532e+01 1.810245e+00 1.767825e-01 -8.866906e-01 -4.245197e-01 -5.118557e-01 -1.026944e+00 -6.042504e-01 5.102214e-02 -4.455718e-02 -3.029128e-01 -7.347779e-02 1.670534e-01 1.168832e+00 -5.836537e-02 2.626538e-02 -6.278805e-02 2.147811e-01 3.983028e-01 2.478522e-01 -4.248909e-02 -1.800651e-02 3.024946e-02 -3.014114e-02 2.591443e-02 6.032810e-02 -8.546849e-02
<VARIANCE> 39
 9.468659e+01 1.737694e+02 7.650677e+01 1.127568e+02 1.031389e+02 7.382424e+01 8.711042e+01 6.961511e+01 4.939742e+01 3.652615e+01 4.356033e+01 2.604467e+01 2.865401e+01 8.258334e+00 1.009489e+01 7.156174e+00 5.497139e+00 7.610431e+00 5.998542e+00 4.928447e+00 5.244485e+00 4.199668e+00 3.593176e+00 4.343787e+00 2.836135e+00 3.680029e+00 7.900418e-01 1.441444e+00 1.167162e+00 9.365199e-01 1.260009e+00 1.037758e+00 9.686408e-01 1.072196e+00 7.016784e-01 7.254218e-01 7.506744e-01 5.501747e-01 4.431546e-01
<GCONST> 1.458316e+02
<STATE> 4
<MEAN> 39
 1.058903e+01 1.296818e+00 -1.545718e+00 -6.263626e-01 -3.346792e+00 -9.211607e+00 -8.653915e+00 -2.970603e+00 -3.934246e+00 -3.285591e+00 -3.877202e+00 -2.845057e+00 6.419765e+01 4.104078e-01 1.154784e-01 -4.797957e-01 -4.270343e-01 -8.562776e-02 -3.402667e-02 2.999007e-02 2.328205e-01 1.413971e-01 -3.947629e-02 1.325224e-01 2.073479e-01 2.136176e-01 -4.225416e-01 -2.248636e-02 1.830339e-01 5.107202e-02 8.040068e-02 3.058192e-01 2.232896e-01 -1.352971e-02 1.922870e-02 1.326241e-02 6.631315e-03 -2.976342e-02 -2.848805e-01
<VARIANCE> 39
 5.568781e+01 9.859327e+01 8.133608e+01 8.444910e+01 7.589234e+01 9.255476e+01 4.813083e+01 6.021804e+01 4.717834e+01 3.518471e+01 3.610443e+01 3.346997e+01 3.615184e+01 2.830447e+00 4.673093e+00 4.667247e+00 3.535107e+00 4.598979e+00 3.886595e+00 3.680254e+00 3.828577e+00 2.935944e+00 2.543603e+00 2.646014e+00 2.451376e+00 1.712389e+00 4.295219e-01 7.065387e-01 7.379377e-01 4.769774e-01 6.235126e-01 6.049253e-01 6.662480e-01 5.961456e-01 5.608301e-01 5.010009e-01 5.794617e-01 4.443257e-01 2.157978e-01
<GCONST> 1.310889e+02
<TRANSP> 5
 0.000000e+00 1.000000e+00 0.000000e+00 0.000000e+00 0.000000e+00
 0.000000e+00 6.218920e-01 3.781080e-01 0.000000e+00 0.000000e+00
 0.000000e+00 0.000000e+00 5.579247e-01 4.420753e-01 0.000000e+00
 0.000000e+00 0.000000e+00 0.000000e+00 6.272672e-01 3.727327e-01
 0.000000e+00 0.000000e+00 0.000000e+00 0.000000e+00 0.000000e+00
<ENDHMM>
~h "w"
<BEGINHMM>
<NUMSTATES> 5
<STATE> 2
<MEAN> 39
 8.509992e+00 6.110158e+00 2.002171e+00 -2.972446e+00 -3.396537e+00 -7.750481e+00 -5.443833e+00 -8.909197e-01 -1.595955e+00 -2.805888e+00 -2.838691e+00 -1.590284e+00 6.119650e+01 -8.239992e-01 -2.580211e-01 7.211798e-01 1.020187e+00 8.557552e-01 7.845826e-01 5.739777e-01 3.337890e-02 -1.819900e-01 9.970605e-02 2.927259e-01 2.590451e-01 -4.256670e-01 -2.821966e-01 -3.453591e-01 -2.560908e-01 2.426650e-02 3.399500e-01 3.518306e-01 1.268533e-01 -9.108305e-03 7.650128e-02 1.694768e-02 4.914388e-03 3.038715e-02 -9.991252e-02
<VARIANCE> 39
 5.156340e+01 5.708280e+01 8.232257e+01 3.098972e+01 5.205318e+01 6.091781e+01 2.560238e+01 7.008359e+01 3.607900e+01 3.000766e+01 1.740535e+01 1.634451e+01 3.287403e+01 7.088519e-01 1.370880e+00 1.327462e+00 1.376532e+00 2.605969e+00 3.045086e+00 1.201776e+00 1.786306e+00 1.726600e+00 1.562670e+00 1.071188e+00 1.103629e+00 4.112127e-01 1.179797e-01 3.591084e-01 3.406918e-01 2.248795e-01 2.475016e-01 4.476841e-01 2.593564e-01 3.810591e-01 2.479097e-01 3.023877e-01 1.487228e-01 1.322142e-01 9.564375e-02
<GCONST> 1.037627e+02
<STATE> 3
<MEAN> 39
 6.250813e+00 6.075152e+00 3.716990e+00 -1.410027e+00 -2.404059e+00 -6.206215e+00 -3.230479e+00 5.919436e-01 -1.149462e+00 -2.485694e+00 -1.755100e+00 -1.380968e+00 5.993552e+01 -1.565383e+00 -1.157442e+00 1.473244e-02 8.715881e-01 1.644309e+00 1.620323e+00 8.015200e-01 -1.089185e-01 -1.323943e-01 1.564565e-01 3.936836e-01 4.281504e-01 -7.226405e-01 -1.546685e-01 -2.298686e-01 -2.990605e-01 -2.452945e-01 -9.185567e-03 -4.540893e-02 -1.654566e-01 -1.504811e-01 1.288738e-02 -2.711852e-02 -7.405963e-02 -3.436062e-02 -4.968341e-02
<VARIANCE> 39
 6.069388e+01 5.407786e+01 1.015500e+02 4.250046e+01 5.423133e+01 6.661204e+01 3.329646e+01 4.959985e+01 3.663358e+01 3.896438e+01 1.301085e+01 1.501890e+01 3.521278e+01 1.694495e+00 1.702094e+00 1.555369e+00 1.079222e+00 2.622500e+00 2.700880e+00 1.783269e+00 1.747762e+00 1.364865e+00 1.052754e+00 7.521698e-01 7.358775e-01 6.224073e-01 1.178871e-01 3.124420e-01 3.463894e-01 2.445626e-01 1.820227e-01 4.650511e-01 3.478590e-01 2.340636e-01 1.864589e-01 3.273260e-01 1.724873e-01 1.695627e-01 6.371906e-02
<GCONST> 1.039849e+02
<STATE> 4
<MEAN> 39
 2.150427e+00 2.968970e+00 2.535981e+00 -1.460194e+00 3.525019e-02 -3.149213e+00 -1.629745e+00 -9.945762e-02 -1.269166e+00 -2.335791e+00 -1.836639e+00 -8.248767e-01 5.803917e+01 -1.273393e+00 -1.153495e+00 -5.828643e-01 -3.965977e-02 6.788130e-01 5.931568e-01 -6.482106e-02 -5.251669e-01 -2.989406e-01 -7.226514e-02 2.384591e-01 2.964318e-01 -5.495582e-01 2.124498e-01 1.418190e-01 -2.277077e-02 -1.933076e-01 -3.510212e-01 -4.242825e-01 -3.774452e-01 -1.306937e-01 -4.959441e-02 2.800573e-02 -1.526822e-02 -1.027253e-01 1.057213e-01
<VARIANCE> 39
 8.741359e+01 3.307484e+01 7.050821e+01 3.101151e+01 4.960274e+01 6.652734e+01 3.002204e+01 3.596259e+01 2.009637e+01 2.558618e+01 1.401079e+01 1.100013e+01 4.678797e+01 1.563847e+00 1.752361e+00 1.872370e+00 1.186936e+00 1.680535e+00 2.166796e+00 2.146146e+00 1.196927e+00 1.118669e+00 1.032711e+00 6.456932e-01 7.187560e-01 6.214197e-01 1.351806e-01 2.647078e-01 1.991445e-01 2.621175e-01 2.304741e-01 4.158777e-01 1.869638e-01 1.807132e-01 1.476155e-01 3.140406e-01 2.213764e-01 1.327331e-01 6.814618e-02
<GCONST> 9.919173e+01
<TRANSP> 5
 0.000000e+00 1.000000e+00 0.000000e+00 0.000000e+00 0.000000e+00
 0.000000e+00 1.592532e-01 8.407468e-01 0.000000e+00 0.000000e+00
 0.000000e+00 0.000000e+00 2.653707e-01 7.346293e-01 0.000000e+00
 0.000000e+00 0.000000e+00 0.000000e+00 3.156095e-01 6.843905e-01
 0.000000e+00 0.000000e+00 0.000000e+00 0.000000e+00 0.000000e+00
<ENDHMM>
~h "x"
<BEGINHMM>
<NUMSTATES> 5
<STATE> 2
<MEAN> 39
 5.671996e+00 2.358335e+00 2.264514e+00 2.813505e+00 3.499217e+00 -3.711733e+00 -6.252361e+00 -5.071345e+00 -2.108148e+00 8.617444e-01 -1.238332e+00 -3.399617e+00 6.073903e+01 4.408456e-02 1.064929e-01 -9.758747e-02 -2.183476e-01 -4.752116e-01 -5.171451e-01 -6.193427e-01 -4.599240e-01 1.308935e-01 3.729509e-01 1.191009e-01 -1.377985e-04 9.911954e-02 3.431369e-01 -7.780674e-02 -1.756395e-01 -2.534420e-02 -3.119196e-02 -4.757949e-01 -6.193838e-01 -3.247189e-01 -3.798538e-02 1.998911e-01 1.587139e-01 -7.269984e-02 2.533700e-01
<VARIANCE> 39
 3.700355e+01 5.640049e+01 5.016328e+01 5.306204e+01 6.039605e+01 3.755064e+01 4.685501e+01 5.345967e+01 7.142918e+01 5.358180e+01 1.784994e+01 3.192468e+01 2.266127e+01 1.405704e+00 3.163110e+00 2.550375e+00 2.476836e+00 3.551874e+00 4.066249e+00 4.754419e+00 5.223516e+00 3.843677e+00 2.326310e+00 2.355362e+00 1.408095e+00 9.222738e-01 5.197724e-01 4.961621e-01 6.208783e-01 4.066427e-01 5.564653e-01 6.390372e-01 9.433488e-01 8.066078e-01 5.958756e-01 5.964732e-01 4.957765e-01 3.582950e-01 3.190478e-01
<GCONST> 1.250587e+02
<STATE> 3
<MEAN> 39
 1.035981e+01 -6.653225e-01 -3.296345e+00 1.370519e+00 2.920510e+00 -8.810085e+00 -1.423333e+01 -1.002832e+01 -2.084269e+00 3.925523e+00 2.939946e-01 -2.981714e+00 6.441074e+01 1.456616e+00 -2.806417e-01 -9.716363e-01 -6.899732e-02 4.139556e-01 -1.214970e+00 -2.061372e+00 -1.171113e+00 -7.964987e-02 9.850500e-01 2.845919e-01 -5.230069e-01 9.510565e-01 -1.818705e-01 5.170306e-02 1.575962e-01 2.926728e-02 -1.149103e-02 1.342675e-01 3.632762e-01 4.514877e-01 1.599916e-01 -1.318309e-01 -1.302816e-01 -6.075547e-02 -1.509580e-01
<VARIANCE> 39
 3.632463e+01 8.494693e+01 7.301836e+01 5.743046e+01 5.652533e+01 4.234242e+01 4.131542e+01 5.075927e+01 4.546267e+01 3.940935e+01 1.850960e+01 1.975717e+01 2.055843e+01 2.506196e+00 3.143869e+00 2.995149e+00 1.750972e+00 3.083962e+00 3.057508e+00 3.835326e+00 4.779359e+00 2.339349e+00 2.304249e+00 2.554282e+00 1.208700e+00 1.733315e+00 4.130253e-01 4.597103e-01 3.948267e-01 2.075343e-01 3.835275e-01 3.480192e-01 4.675205e-01 4.598962e-01 3.300334e-01 3.270508e-01 4.204069e-01 2.102212e-01 2.434342e-01
<GCONST> 1.183542e+02
<STATE> 4
<MEAN> 39
 1.135726e+01 3.470358e-02 -2.122730e+00 5.263589e+00 7.750829e+00 -1.009494e+01 -1.911578e+01 -1.259831e+01 -5.928266e-01 6.297046e+00 8.011662e-01 -5.037561e+00 6.500047e+01 -1.704240e-01 2.483917e-01 1.892171e-01 -1.515402e-01 5.394370e-03 3.960050e-01 4.201163e-01 1.590232e-01 1.205780e-03 -8.187471e-02 3.852190e-02 1.066495e-01 -1.903459e-01 -9.387740e-02 9.490475e-02 1.151981e-01 -5.530484e-02 -5.880108e-02 1.543593e-01 2.420964e-01 1.005118e-01 -6.084045e-02 -1.410476e-01 -4.568984e-02 6.885551e-02 -7.704276e-02
<VARIANCE> 39
 1.921172e+01 3.510892e+01 3.921343e+01 5.832494e+01 3.016861e+01 5.258893e+01 3.852503e+01 4.456831e+01 5.002334e+01 4.908428e+01 3.219212e+01 1.661170e+01 1.251950e+01 5.094397e-01 9.002811e-01 1.654367e+00 1.956796e+00 8.505018e-01 1.534292e+00 2.253359e+00 1.419218e+00 1.620455e+00 2.061056e+00 1.109570e+00 1.030429e+00 3.269501e-01 8.866891e-02 1.111089e-01 2.157137e-01 2.070661e-01 1.476306e-01 1.834534e-01 2.722219e-01 2.898456e-01 2.246005e-01 2.678256e-01 2.025120e-01 1.739187e-01 5.275137e-02
<GCONST> 9.642873e+01
<TRANSP> 5
 0.000000e+00 1.000000e+00 0.000000e+00 0.000000e+00 0.000000e+00
 0.000000e+00 5.722024e-01 4.277975e-01 0.000000e+00 0.000000e+00
 0.000000e+00 0.000000e+00 5.371189e-01 4.628811e-01 0.000000e+00
 0.000000e+00 0.000000e+00 0.000000e+00 8.771763e-01 1.228237e-01
 0.000000e+00 0.000000e+00 0.000000e+00 0.000000e+00 0.000000e+00
<ENDHMM>
~h "en"
<BEGINHMM>
<NUMSTATES> 5
<STATE> 2
<MEAN> 39
 -4.314049e-01 -5.443133e-01 7.105690e-01 -1.882667e+00 -3.413527e-01 -4.598181e+00 -6.314186e+00 -3.848403e+00 -3.601575e+00 -2.169887e+00 -1.884693e+00 -2.491360e+00 5.700534e+01 -2.864336e-03 -3.153083e-03 -6.210326e-04 -1.859146e-03 -1.025149e-03 4.018572e-05 -4.212186e-04 -9.370550e-04 -1.112693e-03 -1.571401e-03 -1.379302e-03 -1.582626e-03 3.459415e-04 -2.076533e-04 1.121370e-04 -6.082775e-04 5.937807e-05 7.690147e-05 -5.380236e-05 9.022583e-05 2.522134e-04 1.281000e-04 2.276354e-04 9.980684e-05 1.737125e-04 -8.036671e-04
<VARIANCE> 39
 1.333756e+02 6.639448e+01 7.486684e+01 6.636140e+01 5.702890e+01 5.689030e+01 7.521648e+01 5.588811e+01 3.375542e+01 3.396556e+01 2.727465e+01 2.558422e+01 7.908179e+01 3.510822e+00 2.990041e+00 3.288318e+00 2.986253e+00 2.462860e+00 3.071138e+00 3.491724e+00 2.597442e+00 2.153173e+00 2.003538e+00 1.724022e+00 1.500141e+00 1.490820e+00 4.316568e-01 4.629386e-01 4.683719e-01 4.500415e-01 3.964934e-01 5.051396e-01 5.511611e-01 4.319685e-01 3.792876e-01 3.504571e-01 3.135985e-01 2.653124e-01 2.156326e-01
<GCONST> 1.230944e+02
<STATE> 3
<MEAN> 39
 -4.314049e-01 -5.443133e-01 7.105690e-01 -1.882667e+00 -3.413527e-01 -4.598181e+00 -6.314186e+00 -3.848403e+00 -3.601575e+00 -2.169887e+00 -1.884693e+00 -2.491360e+00 5.700534e+01 -2.864336e-03 -3.153083e-03 -6.210326e-04 -1.859146e-03 -1.025149e-03 4.018572e-05 -4.212186e-04 -9.370550e-04 -1.112693e-03 -1.571401e-03 -1.379302e-03 -1.582626e-03 3.459415e-04 -2.076533e-04 1.121370e-04 -6.082775e-04 5.937807e-05 7.690147e-05 -5.380236e-05 9.022583e-05 2.522134e-04 1.281000e-04 2.276354e-04 9.980684e-05 1.737125e-04 -8.036671e-04
<VARIANCE> 39
 1.333756e+02 6.639448e+01 7.486684e+01 6.636140e+01 5.702890e+01 5.689030e+01 7.521648e+01 5.588811e+01 3.375542e+01 3.396556e+01 2.727465e+01 2.558422e+01 7.908179e+01 3.510822e+00 2.990041e+00 3.288318e+00 2.986253e+00 2.462860e+00 3.071138e+00 3.491724e+00 2.597442e+00 2.153173e+00 2.003538e+00 1.724022e+00 1.500141e+00 1.490820e+00 4.316568e-01 4.629386e-01 4.683719e-01 4.500415e-01 3.964934e-01 5.051396e-01 5.511611e-01 4.319685e-01 3.792876e-01 3.504571e-01 3.135985e-01 2.653124e-01 2.156326e-01
<GCONST> 1.230944e+02
<STATE> 4
<MEAN> 39
 -4.314049e-01 -5.443133e-01 7.105690e-01 -1.882667e+00 -3.413527e-01 -4.598181e+00 -6.314186e+00 -3.848403e+00 -3.601575e+00 -2.169887e+00 -1.884693e+00 -2.491360e+00 5.700534e+01 -2.864336e-03 -3.153083e-03 -6.210326e-04 -1.859146e-03 -1.025149e-03 4.018572e-05 -4.212186e-04 -9.370550e-04 -1.112693e-03 -1.571401e-03 -1.379302e-03 -1.582626e-03 3.459415e-04 -2.076533e-04 1.121370e-04 -6.082775e-04 5.937807e-05 7.690147e-05 -5.380236e-05 9.022583e-05 2.522134e-04 1.281000e-04 2.276354e-04 9.980684e-05 1.737125e-04 -8.036671e-04
<VARIANCE> 39
 1.333756e+02 6.639448e+01 7.486684e+01 6.636140e+01 5.702890e+01 5.689030e+01 7.521648e+01 5.588811e+01 3.375542e+01 3.396556e+01 2.727465e+01 2.558422e+01 7.908179e+01 3.510822e+00 2.990041e+00 3.288318e+00 2.986253e+00 2.462860e+00 3.071138e+00 3.491724e+00 2.597442e+00 2.153173e+00 2.003538e+00 1.724022e+00 1.500141e+00 1.490820e+00 4.316568e-01 4.629386e-01 4.683719e-01 4.500415e-01 3.964934e-01 5.051396e-01 5.511611e-01 4.319685e-01 3.792876e-01 3.504571e-01 3.135985e-01 2.653124e-01 2.156326e-01
<GCONST> 1.230944e+02
<TRANSP> 5
 0.000000e+00 1.000000e+00 0.000000e+00 0.000000e+00 0.000000e+00
 0.000000e+00 6.000000e-01 4.000000e-01 0.000000e+00 0.000000e+00
 0.000000e+00 0.000000e+00 6.000000e-01 4.000000e-01 0.000000e+00
 0.000000e+00 0.000000e+00 0.000000e+00 7.000000e-01 3.000000e-01
 0.000000e+00 0.000000e+00 0.000000e+00 0.000000e+00 0.000000e+00
<ENDHMM>
~h "js"
<BEGINHMM>
<NUMSTATES> 5
<STATE> 2
<MEAN> 39
 -4.314049e-01 -5.443133e-01 7.105690e-01 -1.882667e+00 -3.413527e-01 -4.598181e+00 -6.314186e+00 -3.848403e+00 -3.601575e+00 -2.169887e+00 -1.884693e+00 -2.491360e+00 5.700534e+01 -2.864336e-03 -3.153083e-03 -6.210326e-04 -1.859146e-03 -1.025149e-03 4.018572e-05 -4.212186e-04 -9.370550e-04 -1.112693e-03 -1.571401e-03 -1.379302e-03 -1.582626e-03 3.459415e-04 -2.076533e-04 1.121370e-04 -6.082775e-04 5.937807e-05 7.690147e-05 -5.380236e-05 9.022583e-05 2.522134e-04 1.281000e-04 2.276354e-04 9.980684e-05 1.737125e-04 -8.036671e-04
<VARIANCE> 39
 1.333756e+02 6.639448e+01 7.486684e+01 6.636140e+01 5.702890e+01 5.689030e+01 7.521648e+01 5.588811e+01 3.375542e+01 3.396556e+01 2.727465e+01 2.558422e+01 7.908179e+01 3.510822e+00 2.990041e+00 3.288318e+00 2.986253e+00 2.462860e+00 3.071138e+00 3.491724e+00 2.597442e+00 2.153173e+00 2.003538e+00 1.724022e+00 1.500141e+00 1.490820e+00 4.316568e-01 4.629386e-01 4.683719e-01 4.500415e-01 3.964934e-01 5.051396e-01 5.511611e-01 4.319685e-01 3.792876e-01 3.504571e-01 3.135985e-01 2.653124e-01 2.156326e-01
<GCONST> 1.230944e+02
<STATE> 3
<MEAN> 39
 -4.314049e-01 -5.443133e-01 7.105690e-01 -1.882667e+00 -3.413527e-01 -4.598181e+00 -6.314186e+00 -3.848403e+00 -3.601575e+00 -2.169887e+00 -1.884693e+00 -2.491360e+00 5.700534e+01 -2.864336e-03 -3.153083e-03 -6.210326e-04 -1.859146e-03 -1.025149e-03 4.018572e-05 -4.212186e-04 -9.370550e-04 -1.112693e-03 -1.571401e-03 -1.379302e-03 -1.582626e-03 3.459415e-04 -2.076533e-04 1.121370e-04 -6.082775e-04 5.937807e-05 7.690147e-05 -5.380236e-05 9.022583e-05 2.522134e-04 1.281000e-04 2.276354e-04 9.980684e-05 1.737125e-04 -8.036671e-04
<VARIANCE> 39
 1.333756e+02 6.639448e+01 7.486684e+01 6.636140e+01 5.702890e+01 5.689030e+01 7.521648e+01 5.588811e+01 3.375542e+01 3.396556e+01 2.727465e+01 2.558422e+01 7.908179e+01 3.510822e+00 2.990041e+00 3.288318e+00 2.986253e+00 2.462860e+00 3.071138e+00 3.491724e+00 2.597442e+00 2.153173e+00 2.003538e+00 1.724022e+00 1.500141e+00 1.490820e+00 4.316568e-01 4.629386e-01 4.683719e-01 4.500415e-01 3.964934e-01 5.051396e-01 5.511611e-01 4.319685e-01 3.792876e-01 3.504571e-01 3.135985e-01 2.653124e-01 2.156326e-01
<GCONST> 1.230944e+02
<STATE> 4
<MEAN> 39
 -4.314049e-01 -5.443133e-01 7.105690e-01 -1.882667e+00 -3.413527e-01 -4.598181e+00 -6.314186e+00 -3.848403e+00 -3.601575e+00 -2.169887e+00 -1.884693e+00 -2.491360e+00 5.700534e+01 -2.864336e-03 -3.153083e-03 -6.210326e-04 -1.859146e-03 -1.025149e-03 4.018572e-05 -4.212186e-04 -9.370550e-04 -1.112693e-03 -1.571401e-03 -1.379302e-03 -1.582626e-03 3.459415e-04 -2.076533e-04 1.121370e-04 -6.082775e-04 5.937807e-05 7.690147e-05 -5.380236e-05 9.022583e-05 2.522134e-04 1.281000e-04 2.276354e-04 9.980684e-05 1.737125e-04 -8.036671e-04
<VARIANCE> 39
 1.333756e+02 6.639448e+01 7.486684e+01 6.636140e+01 5.702890e+01 5.689030e+01 7.521648e+01 5.588811e+01 3.375542e+01 3.396556e+01 2.727465e+01 2.558422e+01 7.908179e+01 3.510822e+00 2.990041e+00 3.288318e+00 2.986253e+00 2.462860e+00 3.071138e+00 3.491724e+00 2.597442e+00 2.153173e+00 2.003538e+00 1.724022e+00 1.500141e+00 1.490820e+00 4.316568e-01 4.629386e-01 4.683719e-01 4.500415e-01 3.964934e-01 5.051396e-01 5.511611e-01 4.319685e-01 3.792876e-01 3.504571e-01 3.135985e-01 2.653124e-01 2.156326e-01
<GCONST> 1.230944e+02
<TRANSP> 5
 0.000000e+00 1.000000e+00 0.000000e+00 0.000000e+00 0.000000e+00
 0.000000e+00 6.000000e-01 4.000000e-01 0.000000e+00 0.000000e+00
 0.000000e+00 0.000000e+00 6.000000e-01 4.000000e-01 0.000000e+00
 0.000000e+00 0.000000e+00 0.000000e+00 7.000000e-01 3.000000e-01
 0.000000e+00 0.000000e+00 0.000000e+00 0.000000e+00 0.000000e+00
<ENDHMM>
~h "ks"
<BEGINHMM>
<NUMSTATES> 5
<STATE> 2
<MEAN> 39
 6.626923e+00 -2.089793e+00 -7.734798e+00 -3.434587e+00 2.519332e+00 -6.260786e+00 -1.121791e+01 -6.306232e+00 -6.674348e-01 2.108249e+00 -1.600744e+00 -1.440484e+00 6.085425e+01 -1.857114e+00 1.227774e-01 5.914347e-01 -1.919416e-01 -1.105545e+00 -4.874240e-01 6.482393e-01 1.096874e+00 2.610022e-01 -8.646185e-01 7.114576e-01 1.536305e+00 -1.405816e+00 1.466648e-01 -8.043890e-02 1.306842e-02 -2.040824e-01 -5.501314e-01 -9.422243e-02 1.633561e-01 -2.970154e-01 -5.107774e-01 -3.625911e-01 -1.254880e-01 -2.372743e-02 1.655537e-01
<VARIANCE> 39
 3.959247e+01 2.789345e+01 5.827597e+01 5.429353e+01 2.795772e+01 2.783638e+01 4.915871e+01 3.182497e+01 9.910843e+00 5.165898e+01 1.148370e+01 2.420330e+01 1.970101e+01 3.619700e+00 2.604196e+00 2.423450e+00 3.577676e+00 3.180086e+00 3.408287e+00 1.073957e+00 3.613685e+00 1.670008e+00 1.861817e+00 9.966723e-01 1.341944e+00 2.302364e+00 3.134131e-01 5.329284e-01 1.169087e+00 4.209130e-01 3.981997e-01 6.628624e-01 8.334151e-02 2.103863e-01 1.786347e-01 1.900088e-01 2.611844e-01 2.492258e-01 2.610926e-01
<GCONST> 1.106721e+02
<STATE> 3
<MEAN> 39
 7.862720e-01 -4.137676e-01 -2.937519e+00 -3.081098e+00 -2.620480e+00 -7.604906e+00 -1.267898e+01 -8.160962e+00 4.713184e-01 4.795535e+00 2.233828e-01 -1.093036e+00 5.601035e+01 -1.618538e+00 -1.142011e-01 3.495296e-01 -8.704631e-01 -1.365209e+00 1.423782e-01 1.178375e+00 -1.916696e-01 -1.192614e+00 -8.276410e-01 2.423646e-01 5.164038e-01 -1.118183e+00 7.693262e-01 -4.861918e-01 -4.802487e-01 -4.682578e-01 3.884431e-01 4.947754e-01 2.864837e-01 -3.053276e-01 -8.527678e-01 -2.058324e-01 -1.746960e-01 -1.909305e-01 8.086644e-01
<VARIANCE> 39
 3.723907e+01 1.841469e+01 2.036321e+01 3.488465e+01 3.817015e+01 2.988048e+01 7.440385e+01 2.724674e+01 1.264124e+01 1.665063e+01 4.537199e+00 1.433442e+01 2.335544e+01 5.398968e-01 2.232969e+00 3.174274e+00 2.762128e+00 2.510812e+00 1.438292e+00 1.314722e+00 2.441982e+00 9.024148e-01 1.670133e+00 8.702697e-01 1.213049e+00 2.009275e-01 4.168459e-01 4.606983e-01 4.847930e-01 1.619691e+00 7.736228e-01 3.963220e-01 8.143396e-02 2.794598e-01 5.510930e-01 1.844520e-01 3.146946e-01 1.720896e-01 4.688220e-01
<GCONST> 1.029540e+02
<STATE> 4
<MEAN> 39
 -5.296040e+00 -1.138641e+01 3.279973e+00 -1.072813e+01 -2.698740e+00 -3.105769e+00 -1.803955e+00 -9.138050e+00 -6.628654e+00 5.281750e+00 -1.822094e+00 -1.115577e+00 6.093308e+01 4.268364e-01 -2.912373e-01 7.590573e-02 -2.278496e-01 -1.932948e-01 8.832136e-02 2.286211e-01 3.061213e-01 -2.127620e-01 -3.675621e-01 -6.279722e-02 -3.103518e-02 5.219955e-01 6.025558e-02 1.676797e-01 1.115650e-01 6.379960e-02 1.327579e-02 -8.560613e-02 -1.957554e-01 1.132004e-01 2.108085e-01 1.211742e-02 -2.612061e-02 -7.574528e-02 -9.807250e-03
<VARIANCE> 39
 1.142505e+02 8.952835e+01 8.803465e+01 1.042260e+02 6.133852e+01 8.081672e+01 4.528725e+01 4.600378e+01 3.682972e+01 7.881998e+01 5.143176e+01 8.080725e+00 3.845326e+01 7.819282e+00 1.113522e+01 9.762477e+00 1.095622e+01 5.453573e+00 6.341810e+00 5.130844e+00 3.489472e+00 6.364209e+00 5.382562e+00 4.479994e+00 7.102157e-01 5.042303e+00 1.015377e+00 1.376102e+00 1.439222e+00 1.445365e+00 9.055207e-01 1.308776e+00 7.560970e-01 6.056650e-01 1.097951e+00 9.118411e-01 8.343758e-01 1.101288e-01 9.697601e-01
<GCONST> 1.437533e+02
<TRANSP> 5
 0.000000e+00 1.000000e+00 0.000000e+00 0.000000e+00 0.000000e+00
 0.000000e+00 4.770446e-01 5.229555e-01 0.000000e+00 0.000000e+00
 0.000000e+00 0.000000e+00 3.683938e-01 6.316063e-01 0.000000e+00
 0.000000e+00 0.000000e+00 0.000000e+00 9.134011e-01 8.659897e-02
 0.000000e+00 0.000000e+00 0.000000e+00 0.000000e+00 0.000000e+00
<ENDHMM>
~h "ny"
<BEGINHMM>
<NUMSTATES> 5
<STATE> 2
<MEAN> 39
 4.017719e+00 -1.059462e+00 2.499566e-01 -9.405087e-01 -1.042088e+00 1.291780e+00 -5.147403e+00 -6.621586e+00 -9.011735e+00 -3.910510e+00 -2.040514e+00 -1.881503e+00 6.248359e+01 -2.276324e-01 1.359023e-01 -4.622859e-02 -1.198144e+00 -1.118662e+00 -1.006943e-01 5.455592e-01 1.027175e+00 9.892719e-01 4.571279e-01 -1.571467e-01 -3.871967e-01 -1.540516e-01 1.667032e-01 7.191754e-02 -1.223979e-02 2.389525e-01 1.003102e-01 -8.564397e-02 -4.103483e-02 -1.552279e-02 1.181176e-01 2.446971e-01 -2.720900e-02 -6.011032e-02 6.658134e-02
<VARIANCE> 39
 1.587886e+02 8.948634e+01 1.208483e+02 4.017260e+01 4.977718e+01 8.876545e+01 3.467603e+01 5.492891e+01 4.304355e+01 3.379310e+01 1.509749e+01 9.725115e+00 5.517262e+01 4.539534e-01 4.754117e-01 8.709453e-01 1.637727e+00 1.688425e+00 1.051549e+00 1.752349e+00 1.486810e+00 1.551993e+00 1.049154e+00 7.669119e-01 5.482633e-01 2.132763e-01 1.423591e-01 1.071246e-01 2.467111e-01 2.914795e-01 1.685323e-01 1.537713e-01 3.907116e-01 1.864884e-01 3.480178e-01 2.362137e-01 1.403137e-01 9.361484e-02 5.245580e-02
<GCONST> 9.751749e+01
<STATE> 3
<MEAN> 39
 -3.458642e+00 -8.931143e+00 7.936279e+00 -2.356847e+00 -8.428488e+00 -1.296811e+00 -4.420295e-01 -9.475449e-01 -4.587334e+00 -6.102338e-01 -8.161256e-01 -4.187684e+00 6.075967e+01 -1.108307e-01 1.346133e-01 -1.708327e-02 8.196995e-02 -4.726111e-01 -4.762553e-01 2.943470e-01 -3.965084e-02 1.833200e-01 3.458005e-01 -5.176439e-01 5.301133e-02 -1.976533e-01 5.729024e-02 5.978344e-02 -1.236691e-02 3.183588e-01 1.217176e-01 -1.539283e-01 -3.798331e-02 -1.200900e-01 -1.502473e-01 -1.056036e-01 1.097824e-01 1.976316e-01 -2.384157e-02
<VARIANCE> 39
 1.602355e+02 1.732141e+02 1.667661e+02 4.913573e+01 5.266286e+01 4.887884e+01 4.648399e+01 2.631235e+01 3.569096e+01 5.079147e+01 2.235474e+01 9.810744e+00 4.031202e+01 2.764475e-01 3.777228e-01 6.378167e-01 1.150260e+00 1.587440e+00 8.743966e-01 5.984595e-01 9.805487e-01 8.345547e-01 8.207191e-01 5.139494e-01 4.883507e-01 8.207422e-02 4.593264e-02 5.501061e-02 1.161247e-01 1.750852e-01 1.550569e-01 1.273305e-01 2.263134e-01 1.012530e-01 1.029120e-01 1.972163e-01 2.148160e-01 5.889516e-02 1.309357e-02
<GCONST> 8.525644e+01
<STATE> 4
<MEAN> 39
 -2.981264e+00 -4.181783e+00 4.385863e+00 -1.069085e+00 -6.089190e+00 -6.948161e+00 -4.231150e+00 -1.580350e+00 -2.959191e+00 -1.370567e+00 -3.300136e+00 -2.266735e+00 5.700994e+01 -3.777917e-01 1.596821e-01 6.704545e-02 8.121383e-02 -6.890181e-01 -4.817039e-01 4.843647e-01 4.727407e-01 -5.642417e-02 -3.416263e-01 -7.631479e-02 3.714675e-01 -4.369351e-01 -3.241231e-02 7.228049e-02 2.506091e-02 3.760572e-01 4.955906e-01 3.422443e-01 1.667757e-01 2.464341e-02 -1.669187e-01 -2.025371e-02 2.231653e-01 -2.654178e-02 -6.943409e-02
<VARIANCE> 39
 1.329256e+02 1.156180e+02 7.922329e+01 4.280608e+01 3.423640e+01 3.543358e+01 7.351202e+01 5.803839e+01 3.221473e+01 3.616821e+01 2.278630e+01 1.366926e+01 5.549626e+01 7.233919e-01 9.741327e-01 1.229242e+00 1.316230e+00 1.793918e+00 1.069988e+00 9.208555e-01 9.431465e-01 1.208886e+00 1.044204e+00 1.041540e+00 4.790557e-01 1.257776e-01 6.700361e-02 6.581073e-02 1.568227e-01 1.206718e-01 1.012702e-01 1.753810e-01 1.749085e-01 2.608462e-01 1.395818e-01 8.777810e-02 9.264915e-02 1.268531e-01 1.926868e-02
<GCONST> 9.052632e+01
<TRANSP> 5
 0.000000e+00 1.000000e+00 0.000000e+00 0.000000e+00 0.000000e+00
 0.000000e+00 5.663561e-01 4.336438e-01 0.000000e+00 0.000000e+00
 0.000000e+00 0.000000e+00 5.389625e-01 4.610375e-01 0.000000e+00
 0.000000e+00 0.000000e+00 0.000000e+00 9.407447e-02 9.059256e-01
 0.000000e+00 0.000000e+00 0.000000e+00 0.000000e+00 0.000000e+00
<ENDHMM>
~h "rr"
<BEGINHMM>
<NUMSTATES> 5
<STATE> 2
<MEAN> 39
 3.992197e+00 1.010298e+01 1.097219e+01 3.016086e+00 2.207803e+00 9.023269e-01 4.536939e+00 4.502079e+00 -2.333247e-01 -4.962053e-01 -2.780802e+00 -8.714733e+00 5.754033e+01 -6.186945e-01 5.828704e-01 8.207673e-01 1.236216e-01 2.074357e-01 4.809267e-01 -3.626836e-01 -6.287193e-01 4.427702e-01 1.254966e+00 3.689971e-01 -1.463846e-01 -5.188199e-01 -7.981749e-02 -3.292090e-01 -8.022605e-03 5.815641e-02 2.761422e-01 -1.869603e-01 -8.663515e-01 3.394560e-02 2.312875e-01 -5.074344e-01 4.734388e-01 5.747444e-01 9.267978e-02
<VARIANCE> 39
 1.393152e+01 3.379315e+00 4.540209e+00 1.843255e+01 2.312531e+01 3.109262e+01 2.039221e+01 1.077750e+01 6.101794e+00 3.426372e+01 9.635610e+00 3.027662e+01 2.570901e+00 1.016526e-01 3.449525e-01 5.953677e-01 1.328813e-01 5.037555e-01 5.428275e-01 8.342687e-01 6.162459e-01 3.774487e-01 6.538670e-02 6.331356e-02 7.175423e-01 1.106504e-01 7.075559e-02 1.984577e-01 1.914408e-01 4.496496e-02 2.506532e-01 5.778157e-02 4.941705e-01 5.227181e-01 7.219040e-01 7.659537e-01 2.587429e-02 3.114947e-02 5.747459e-03
<GCONST> 5.956129e+01
<STATE> 3
<MEAN> 39
 3.441331e+00 1.114747e+01 1.205627e+01 3.687734e+00 2.545627e+00 -3.800608e-01 1.693133e+00 3.343242e+00 1.347070e+00 3.180585e-01 -2.715635e+00 -7.549778e+00 5.693394e+01 -7.344725e-01 3.217174e-01 7.958654e-01 5.945470e-01 6.957766e-01 3.722898e-01 -5.537926e-01 -7.676540e-01 3.582820e-01 3.155808e-01 2.536883e-01 6.159479e-01 -5.106099e-01 -1.776997e-01 -3.964353e-01 -1.811545e-01 1.411298e-01 2.455079e-01 4.446683e-02 -1.605853e-01 1.445631e-01 -6.842342e-02 -6.188595e-01 1.373929e-01 4.104168e-01 -1.663825e-02
<VARIANCE> 39
 1.017279e+01 2.249274e+00 1.006015e+00 1.364832e+01 1.460333e+01 2.710947e+01 4.056691e+01 5.922822e+00 7.374952e-01 1.107470e+01 5.193389e+00 1.461447e+01 1.863741e+00 2.069734e-01 1.816036e-01 9.562661e-01 2.532125e-01 7.595720e-01 1.808240e+00 5.535430e-01 3.402288e-01 2.798414e-01 6.493985e-01 9.319168e-02 4.470836e-01 1.428784e-01 4.162278e-02 6.856544e-02 7.171312e-03 7.902110e-02 1.331214e-01 8.859404e-02 6.240937e-02 3.215144e-01 1.494806e-01 3.580882e-01 1.195405e-02 8.831855e-02 2.156326e-03
<GCONST> 4.545742e+01
<STATE> 4
<MEAN> 39
 3.346478e+00 1.162527e+01 1.235303e+01 3.140231e+00 3.208144e+00 4.134990e-01 1.537755e+00 3.790074e+00 1.233442e+00 -8.179520e-01 -2.824492e+00 -7.133596e+00 5.693051e+01 -9.622669e-01 -2.642310e-01 5.349082e-01 1.260617e+00 1.009154e+00 5.959657e-01 -3.730161e-01 -2.494528e-01 4.040739e-01 -6.052552e-01 -1.531319e-01 9.203780e-01 -6.329251e-01 -3.212728e-01 -4.930245e-01 -3.120139e-01 -9.680582e-02 -3.191186e-02 4.116531e-02 1.005933e-01 -1.475085e-02 -2.616068e-01 -2.020487e-01 4.346572e-02 2.370502e-01 -1.306196e-01
<VARIANCE> 39
 6.060797e+00 2.791949e+00 8.007097e-01 6.588461e+00 6.648682e+00 1.306276e+01 5.508594e+01 5.107006e+00 1.734315e+00 7.006108e+00 1.372513e+01 1.848068e+01 1.186205e+00 2.370667e-01 9.475665e-02 6.616127e-01 1.152338e+00 7.951482e-01 1.107074e+00 4.829198e-02 2.832534e-01 4.730257e-01 1.554155e+00 6.956654e-02 1.305799e+00 1.229382e-01 5.684249e-03 3.276894e-02 9.106954e-02 8.907862e-02 4.986935e-02 2.452442e-02 4.691854e-01 1.287918e-01 9.044806e-03 2.949090e-02 2.830525e-02 1.230303e-01 2.156326e-03
<GCONST> 3.824363e+01
<TRANSP> 5
 0.000000e+00 1.000000e+00 0.000000e+00 0.000000e+00 0.000000e+00
 0.000000e+00 8.190119e-22 1.000000e+00 0.000000e+00 0.000000e+00
 0.000000e+00 0.000000e+00 1.064868e-30 1.000000e+00 0.000000e+00
 0.000000e+00 0.000000e+00 0.000000e+00 2.502363e-01 7.497637e-01
 0.000000e+00 0.000000e+00 0.000000e+00 0.000000e+00 0.000000e+00
<ENDHMM>
~h "sp"
<BEGINHMM>
<NUMSTATES> 3
<STATE> 2
~s "silst"
<TRANSP> 3
 0.000000e+00 2.095082e-01 7.904917e-01
 0.000000e+00 9.533516e-01 4.664839e-02
 0.000000e+00 0.000000e+00 0.000000e+00
<ENDHMM>
~h "sil"
<BEGINHMM>
<NUMSTATES> 5
<STATE> 2
<MEAN> 39
 -7.594503e+00 -1.984104e+00 -2.146905e+00 -9.681526e-01 -2.408841e+00 -3.324180e+00 -4.761662e+00 -1.902225e+00 -2.819309e+00 -1.773665e+00 -1.758075e+00 -1.102856e+00 4.939538e+01 -2.389333e-01 -2.835292e-01 -1.254132e-01 -1.412476e-01 -1.144820e-01 -6.974769e-02 -9.460668e-02 -1.837510e-01 -9.165782e-02 -1.022321e-01 -7.062384e-02 -6.222934e-02 1.588063e-02 -6.072252e-02 3.244811e-03 -6.907774e-02 -4.761165e-02 -2.562009e-02 5.180004e-03 1.098082e-02 1.367464e-02 2.581314e-02 3.410186e-02 2.847826e-02 3.784443e-02 -1.004504e-01
<VARIANCE> 39
 6.160033e+01 5.750954e+01 7.423363e+01 4.855885e+01 4.320571e+01 4.717089e+01 5.641436e+01 3.995219e+01 3.230568e+01 2.395133e+01 1.922873e+01 1.304745e+01 3.862401e+01 3.495029e+00 3.652639e+00 4.242867e+00 2.656904e+00 2.739259e+00 2.796576e+00 3.264328e+00 2.241963e+00 2.557774e+00 1.638524e+00 1.503309e+00 1.218587e+00 2.218218e+00 5.443156e-01 6.183708e-01 7.950534e-01 4.445392e-01 4.721630e-01 4.702448e-01 6.170981e-01 3.785566e-01 4.750395e-01 2.838519e-01 2.728999e-01 2.361152e-01 3.889507e-01
<GCONST> 1.202627e+02
<STATE> 3
~s "silst"
<STATE> 4
<MEAN> 39
 -1.443837e+01 -2.484863e+00 -1.776689e+00 -4.899890e-01 -3.251852e+00 -1.879257e+00 -3.796620e+00 -1.997368e+00 -3.218230e+00 -2.062079e+00 -2.294742e+00 -1.404734e+00 4.369513e+01 -1.265319e-02 7.235751e-03 -9.619978e-03 1.052969e-02 -5.974464e-03 3.425179e-03 -7.446310e-03 5.748086e-04 -3.281738e-03 -6.652034e-03 -1.599802e-02 -1.376579e-02 -2.563101e-02 6.318062e-03 -1.474732e-03 -3.640614e-04 2.635430e-04 -6.376271e-04 -1.653294e-03 3.010035e-04 -1.660318e-04 -5.867804e-04 1.511085e-04 -1.724355e-03 -1.758218e-03 5.751852e-03
<VARIANCE> 39
 9.910549e+00 1.033978e+01 1.031674e+01 6.749980e+00 7.037641e+00 8.710257e+00 8.791539e+00 8.525948e+00 8.917666e+00 7.752305e+00 6.844408e+00 5.868280e+00 6.460618e+00 6.719995e-02 1.258077e-01 2.187512e-01 3.119454e-01 4.098707e-01 5.183951e-01 5.925618e-01 6.825823e-01 6.974308e-01 6.930481e-01 6.426893e-01 5.812106e-01 2.826483e-02 1.445851e-02 2.722061e-02 4.678875e-02 6.461791e-02 8.543913e-02 1.076825e-01 1.240819e-01 1.430268e-01 1.462867e-01 1.441307e-01 1.310440e-01 1.186267e-01 5.293657e-03
<GCONST> 4.796156e+01
<TRANSP> 5
 0.000000e+00 1.000000e+00 0.000000e+00 0.000000e+00 0.000000e+00
 0.000000e+00 7.578942e-01 1.928715e-01 4.923430e-02 0.000000e+00
 0.000000e+00 0.000000e+00 8.879003e-01 1.120997e-01 0.000000e+00
 0.000000e+00 1.242535e-02 0.000000e+00 9.741424e-01 1.343223e-02
 0.000000e+00 0.000000e+00 0.000000e+00 0.000000e+00 0.000000e+00
<ENDHMM>
~h "tsh"
<BEGINHMM>
<NUMSTATES> 5
<STATE> 2
<MEAN> 39
 2.746625e+00 -1.137460e+01 4.270849e+00 -3.463129e+00 2.661165e+00 -6.021996e+00 -9.003078e+00 -3.475095e+00 -6.615658e+00 -1.387607e+00 4.619985e+00 -5.398550e+00 6.796791e+01 -5.040042e-03 -2.047565e-02 1.932367e-01 -2.140559e-01 -3.529149e-02 1.553098e-01 2.480588e-01 -1.528861e-01 -4.897410e-02 4.406052e-02 8.095905e-02 3.392702e-02 1.673214e-01 2.197292e-02 7.762177e-02 -3.865477e-02 -1.183831e-02 -1.137143e-02 -5.736200e-03 2.095189e-02 1.056750e-01 -4.429527e-03 -2.268628e-03 -5.137624e-02 -2.015427e-02 -5.456076e-02
<VARIANCE> 39
 1.649537e+02 6.363235e+01 9.480527e+01 9.175362e+01 5.087361e+01 3.817413e+01 1.110810e+02 5.430190e+01 7.435786e+01 3.721289e+01 4.443804e+01 3.845892e+01 3.407810e+01 1.063655e+01 6.071765e+00 7.548403e+00 5.469325e+00 5.501107e+00 4.687020e+00 6.323361e+00 5.102639e+00 6.295952e+00 3.510540e+00 3.978276e+00 2.862425e+00 3.160827e+00 1.315744e+00 8.898963e-01 1.352085e+00 8.178130e-01 1.046186e+00 8.444726e-01 9.263740e-01 9.176520e-01 1.185144e+00 7.002923e-01 7.791920e-01 5.173763e-01 5.830716e-01
<GCONST> 1.448100e+02
<STATE> 3
<MEAN> 39
 1.741964e+00 3.444314e-01 1.715128e+00 -6.142184e+00 -7.200539e+00 -7.876097e+00 -2.164250e+00 -1.549803e+00 -2.589159e+00 1.174883e+00 -2.300792e+00 -3.304090e+00 5.845382e+01 1.427096e+00 2.037115e+00 -2.977518e-01 -3.389610e-01 -1.337096e+00 -7.563078e-01 -7.484785e-01 1.286032e+00 7.011831e-01 5.148922e-02 -4.041378e-01 -4.186969e-01 -3.103119e-01 -2.243357e-01 -4.387605e-01 5.956216e-02 3.631203e-02 2.289345e-01 -6.476555e-02 1.633135e-01 -6.160055e-02 -5.642307e-02 -4.400160e-02 1.765001e-01 -4.153161e-02 2.030425e-01
<VARIANCE> 39
 1.317705e+02 1.085203e+02 6.094991e+01 5.268047e+01 4.858101e+01 6.488765e+01 8.849859e+01 2.257340e+01 2.647507e+01 2.266092e+01 1.583857e+01 3.067983e+01 4.367051e+01 5.871796e+00 4.277288e+00 2.703372e+00 8.342499e+00 1.748841e+00 5.861151e+00 4.403183e+00 4.714350e+00 1.339756e+00 1.346407e+00 2.157299e+00 9.917361e-01 5.912768e+00 8.595439e-01 6.860871e-01 5.715184e-01 1.701778e+00 2.998783e-01 9.767920e-01 7.347596e-01 8.545129e-01 4.549717e-01 3.746559e-01 4.046166e-01 2.869907e-01 8.299305e-01
<GCONST> 1.298039e+02
<STATE> 4
<MEAN> 39
 1.040957e+01 1.617594e+00 -2.878044e+00 -2.758850e+00 -5.354880e+00 -1.038237e+01 -8.723040e+00 -1.936510e+00 1.026071e-01 -7.476546e-01 -1.456441e+00 -7.930843e-01 6.271241e+01 -4.999436e-01 1.562525e-01 -1.455831e-01 -6.973488e-01 -1.677941e-01 4.347877e-01 9.558155e-01 6.640349e-01 3.071029e-01 -1.754812e-01 -2.506678e-01 -2.348955e-01 -4.007951e-01 -3.349954e-01 -2.539898e-01 8.927041e-02 3.489403e-01 3.512264e-01 3.696140e-02 2.316598e-01 8.550832e-02 -2.024599e-01 -7.647842e-02 1.655874e-02 -6.405622e-02 -1.425091e-01
<VARIANCE> 39
 4.844442e+01 1.177148e+02 9.485012e+01 1.966536e+01 4.519030e+01 2.139470e+01 3.904580e+01 6.038835e+01 2.834167e+01 1.876800e+01 2.011398e+01 5.628550e+01 3.698355e+01 1.034712e+00 1.020259e+00 1.261055e+00 4.893153e-01 1.156089e+00 9.079470e-01 8.699023e-01 2.161497e+00 1.817111e+00 1.338570e+00 4.379481e-01 6.184306e-01 4.693950e-01 4.958246e-01 3.012396e-01 9.317559e-02 7.586241e-02 4.469856e-01 6.891760e-01 9.294894e-02 3.574908e-01 2.132030e-01 2.863947e-01 4.356778e-01 2.851855e-01 1.968590e-01
<GCONST> 1.005511e+02
<TRANSP> 5
 0.000000e+00 1.000000e+00 0.000000e+00 0.000000e+00 0.000000e+00
 0.000000e+00 9.222868e-01 7.771320e-02 0.000000e+00 0.000000e+00
 0.000000e+00 0.000000e+00 6.109058e-01 3.890942e-01 0.000000e+00
 0.000000e+00 0.000000e+00 0.000000e+00 8.408704e-02 9.159130e-01
 0.000000e+00 0.000000e+00 0.000000e+00 0.000000e+00 0.000000e+00
<ENDHMM>
