~o
<STREAMINFO> 1 39
<VECSIZE> 39<NULLD><MFCC_D_A_0><DIAGC>
~s "silst"
<MEAN> 39
 -1.267853e+01 -2.724091e+00 -1.368539e+00 -1.028924e+00 -2.387852e+00 -9.887395e-01 -2.317670e+00 -1.695865e+00 -2.933683e+00 -2.308656e+00 -2.118788e+00 -1.335968e+00 4.601405e+01 -2.214001e-01 -1.324598e-01 -1.673477e-01 -1.478391e-01 -1.030475e-01 -8.197056e-02 -1.464857e-01 -1.063541e-01 -4.641514e-02 -6.457304e-02 -5.662375e-02 8.297425e-03 -1.612587e-01 7.127857e-02 4.142863e-02 3.144278e-02 2.035786e-02 5.996659e-03 2.170849e-02 2.547193e-02 8.497905e-03 -1.723208e-04 3.330611e-02 3.493292e-02 9.668203e-03 4.167739e-02
<VARIANCE> 39
 1.933017e+01 1.345083e+01 2.619723e+01 1.163889e+01 1.288663e+01 1.370049e+01 1.341518e+01 1.217297e+01 1.160469e+01 1.060504e+01 9.440981e+00 8.640951e+00 3.505313e+01 7.831012e-01 1.054747e+00 1.318077e+00 9.223300e-01 1.073800e+00 1.043090e+00 1.188987e+00 1.119271e+00 1.077895e+00 1.003105e+00 9.264036e-01 8.005950e-01 5.399599e-01 1.468965e-01 1.769278e-01 2.318436e-01 1.604158e-01 1.954463e-01 1.858843e-01 2.220283e-01 2.115014e-01 2.002418e-01 1.857069e-01 1.806447e-01 1.568113e-01 9.714840e-02
<GCONST> 8.306210e+01
~h "a"
<BEGINHMM>
<NUMSTATES> 5
<STATE> 2
<MEAN> 39
 7.207191e+00 2.165139e+00 -1.280504e+00 -3.381165e+00 3.703852e-01 -5.118689e+00 -6.452845e+00 -3.103468e+00 -2.441287e+00 -2.473270e+00 -1.583055e+00 -1.299720e+00 6.184316e+01 -5.085446e-01 2.849078e-01 4.734713e-01 -9.293123e-02 -1.048798e-01 4.355696e-01 6.029016e-01 1.881672e-01 -5.169910e-02 -1.399775e-01 -1.136093e-01 -2.736285e-02 -3.833431e-01 -6.990963e-02 -7.231034e-03 8.393551e-02 1.087591e-01 4.828205e-02 1.956695e-02 6.550737e-03 -3.394696e-02 -2.694999e-02 2.302411e-02 -6.127764e-03 -4.235940e-02 -4.835026e-02
<VARIANCE> 39
 8.964267e+01 6.578014e+01 9.670185e+01 7.398032e+01 5.927728e+01 4.896008e+01 6.752711e+01 5.732995e+01 3.365673e+01 3.816917e+01 2.903659e+01 2.830378e+01 3.850373e+01 9.627982e-01 1.391714e+00 2.142727e+00 1.647230e+00 1.673311e+00 2.041926e+00 2.259121e+00 1.961726e+00 1.570126e+00 1.464525e+00 1.277431e+00 1.186505e+00 4.797679e-01 1.474008e-01 2.215073e-01 3.410648e-01 2.342370e-01 2.338367e-01 3.409524e-01 3.368101e-01 2.685362e-01 2.656202e-01 2.515948e-01 2.280221e-01 1.891270e-01 7.511927e-02
<GCONST> 1.084562e+02
<STATE> 3
<MEAN> 39
 1.240417e-01 1.445148e+00 1.045308e+00 -2.972787e+00 -1.463882e-02 -2.682601e+00 -3.287817e+00 -2.248068e+00 -3.088166e+00 -2.984646e+00 -2.181770e+00 -1.606605e+00 5.676779e+01 -4.489316e-01 3.416415e-03 2.520227e-01 1.307067e-01 4.976709e-02 1.897618e-01 1.944058e-01 5.264750e-02 1.998515e-02 2.970613e-02 -4.677751e-02 -5.838395e-02 -3.121670e-01 2.335159e-02 -4.501371e-02 -4.006599e-02 3.465674e-02 3.233702e-02 -2.867700e-02 -6.312189e-02 -3.698059e-02 7.309299e-05 3.563214e-02 3.024165e-02 8.351877e-03 2.031889e-02
<VARIANCE> 39
 1.056255e+02 7.096426e+01 8.301744e+01 5.489615e+01 4.197545e+01 3.221167e+01 4.286156e+01 3.377665e+01 2.355523e+01 2.158350e+01 2.123933e+01 2.089985e+01 4.884875e+01 7.137127e-01 9.695727e-01 1.516723e+00 1.267867e+00 1.290145e+00 1.314101e+00 1.281452e+00 1.210141e+00 1.102282e+00 1.074710e+00 1.012949e+00 8.782290e-01 3.172498e-01 9.968788e-02 1.445465e-01 2.038124e-01 1.874024e-01 2.001666e-01 2.426871e-01 2.326321e-01 2.088506e-01 2.107510e-01 1.848531e-01 1.815326e-01 1.603409e-01 4.733644e-02
<GCONST> 9.649680e+01
<STATE> 4
<MEAN> 39
 7.274075e-01 3.118654e+00 4.535695e+00 -1.786608e+00 5.369540e-01 -1.751281e+00 -2.826158e+00 -2.294703e+00 -2.971355e+00 -2.442493e+00 -2.283074e+00 -2.040570e+00 5.755780e+01 -4.771087e-01 -3.079967e-01 1.018276e-02 1.377493e-02 3.628284e-02 1.045316e-01 8.112440e-02 -6.761627e-03 1.170484e-03 9.445810e-02 8.216868e-02 5.069925e-02 -2.339395e-01 1.261755e-01 -1.128570e-01 -1.812760e-01 -5.577692e-02 -3.767885e-02 -1.111281e-01 -1.248813e-01 -8.366913e-02 -1.188464e-02 4.940807e-02 5.283535e-02 -1.034388e-03 1.048920e-01
<VARIANCE> 39
 9.003297e+01 7.221886e+01 7.240739e+01 7.256834e+01 4.550528e+01 4.476395e+01 5.576045e+01 3.633717e+01 2.773943e+01 2.669656e+01 2.334736e+01 2.004175e+01 3.645541e+01 1.829536e+00 1.999024e+00 2.839678e+00 2.773145e+00 2.332992e+00 2.324111e+00 2.274436e+00 1.732683e+00 1.583436e+00 1.511214e+00 1.388332e+00 1.189830e+00 7.030730e-01 3.044881e-01 3.483885e-01 4.417497e-01 4.508460e-01 3.836007e-01 4.208592e-01 4.618139e-01 3.367251e-01 3.182901e-01 2.991400e-01 2.706922e-01 2.278855e-01 1.412717e-01
<GCONST> 1.134170e+02
<TRANSP> 5
 0.000000e+00 1.000000e+00 0.000000e+00 0.000000e+00 0.000000e+00
 0.000000e+00 5.641506e-01 4.358494e-01 0.000000e+00 0.000000e+00
 0.000000e+00 0.000000e+00 7.344935e-01 2.655065e-01 0.000000e+00
 0.000000e+00 0.000000e+00 0.000000e+00 5.235680e-01 4.764320e-01
 0.000000e+00 0.000000e+00 0.000000e+00 0.000000e+00 0.000000e+00
<ENDHMM>
~h "b"
<BEGINHMM>
<NUMSTATES> 5
<STATE> 2
<MEAN> 39
 1.666591e+00 -1.956523e+00 2.260413e+00 -1.345019e+00 -1.128495e-02 -2.715283e+00 -6.488211e+00 -4.167565e+00 -4.417174e+00 -1.242860e+00 -1.027701e+00 -3.039004e+00 6.046588e+01 7.365350e-01 -2.787060e-01 -6.652821e-01 -9.548850e-02 -4.427037e-02 -3.165655e-01 -2.287775e-01 -1.980128e-01 -3.341129e-01 -5.657766e-02 1.924454e-01 6.439249e-02 5.368778e-01 1.685186e-01 3.548330e-02 -1.500996e-01 -2.140941e-02 3.739538e-02 -1.360340e-01 -8.367002e-02 6.360893e-02 -1.151478e-02 -8.972652e-02 8.347638e-03 2.972617e-02 8.602165e-02
<VARIANCE> 39
 9.760223e+01 9.217032e+01 7.768207e+01 7.554122e+01 6.254695e+01 7.102251e+01 8.946374e+01 4.436023e+01 4.209861e+01 3.323366e+01 2.879048e+01 3.035674e+01 5.013366e+01 7.725142e+00 6.104136e+00 5.865904e+00 4.724071e+00 3.612792e+00 4.016358e+00 5.302643e+00 3.657354e+00 3.668769e+00 2.961620e+00 2.412888e+00 2.226818e+00 4.395139e+00 9.924462e-01 1.057751e+00 8.936201e-01 7.515745e-01 6.845968e-01 6.759448e-01 9.527915e-01 6.103690e-01 6.860886e-01 5.245253e-01 4.800599e-01 3.433892e-01 7.521852e-01
<GCONST> 1.376664e+02
<STATE> 3
<MEAN> 39
 6.995687e+00 -1.559862e+00 -2.192798e+00 -1.176827e+00 1.799577e+00 -6.006341e+00 -7.549985e+00 -4.675724e+00 -5.960745e+00 -1.710209e+00 -1.210191e+00 -2.314173e+00 6.329092e+01 3.697769e-01 -3.195105e-02 -4.824642e-01 -2.803682e-02 -1.499314e-01 -2.553945e-01 -1.858657e-02 1.416298e-01 2.193930e-01 -1.688617e-01 1.050211e-01 2.321278e-01 1.652924e-01 -2.658138e-01 7.384686e-02 2.160406e-01 6.088273e-02 -6.841823e-02 1.162409e-01 1.927809e-01 1.123465e-01 1.140406e-01 -3.339211e-02 -7.619345e-02 -5.308280e-02 -2.009881e-01
<VARIANCE> 39
 9.463565e+01 8.790749e+01 8.045758e+01 7.444486e+01 8.956196e+01 1.186351e+02 7.424319e+01 4.698225e+01 5.246695e+01 4.493370e+01 3.355753e+01 2.935823e+01 3.988988e+01 3.856112e+00 3.389791e+00 3.967480e+00 2.839671e+00 2.581337e+00 4.186693e+00 3.375176e+00 2.288129e+00 2.229528e+00 2.333151e+00 1.684322e+00 1.782962e+00 1.896144e+00 6.500149e-01 5.739189e-01 6.416683e-01 3.821332e-01 4.759878e-01 6.998141e-01 5.524854e-01 3.552214e-01 4.667463e-01 4.133319e-01 3.760985e-01 2.779912e-01 3.000192e-01
<GCONST> 1.277521e+02
<STATE> 4
<MEAN> 39
 6.489143e+00 -3.491132e+00 -6.042821e+00 -2.821137e+00 1.378800e-01 -4.306443e+00 -5.062647e+00 -4.475897e+00 -5.869613e+00 -3.194621e+00 2.899295e-01 -2.013223e-01 6.213150e+01 -2.612886e-01 2.275938e-01 2.971244e-01 1.285983e-02 -6.797298e-02 9.885222e-02 2.004458e-01 9.981210e-02 1.216170e-02 -4.788826e-02 -1.056855e-01 -6.883176e-02 -2.289106e-01 -7.841175e-02 4.572577e-02 1.156979e-01 3.377291e-02 7.746318e-03 3.780460e-02 -1.209972e-02 -3.176154e-02 1.611046e-02 2.252542e-02 -5.092500e-02 -7.291999e-02 -5.953846e-02
<VARIANCE> 39
 7.380063e+01 1.486989e+02 8.394122e+01 9.950397e+01 5.922089e+01 6.474223e+01 5.588767e+01 3.206845e+01 4.459381e+01 2.729065e+01 2.666725e+01 2.263367e+01 2.348847e+01 1.044757e+00 1.405483e+00 2.260882e+00 1.935264e+00 1.434490e+00 1.471591e+00 1.624769e+00 1.343456e+00 1.577081e+00 1.190779e+00 1.287924e+00 1.043800e+00 6.167097e-01 1.471471e-01 1.817796e-01 2.915919e-01 2.431063e-01 1.952051e-01 2.449718e-01 2.541198e-01 2.122831e-01 2.752971e-01 1.834293e-01 2.169133e-01 1.710035e-01 7.437424e-02
<GCONST> 1.051410e+02
<TRANSP> 5
 0.000000e+00 1.000000e+00 0.000000e+00 0.000000e+00 0.000000e+00
 0.000000e+00 6.814089e-01 3.185910e-01 0.000000e+00 0.000000e+00
 0.000000e+00 0.000000e+00 3.697194e-01 6.302806e-01 0.000000e+00
 0.000000e+00 0.000000e+00 0.000000e+00 8.479650e-01 1.520350e-01
 0.000000e+00 0.000000e+00 0.000000e+00 0.000000e+00 0.000000e+00
<ENDHMM>
~h "d"
<BEGINHMM>
<NUMSTATES> 5
<STATE> 2
<MEAN> 39
 -1.396509e+00 -2.496248e+00 -2.966564e+00 -5.306847e+00 8.388078e-02 -1.801160e+00 -2.556820e+00 -2.646028e+00 -3.916513e+00 -3.072096e+00 -1.007106e+00 1.250094e-01 5.661374e+01 -3.091137e-01 -9.315463e-02 -8.962402e-02 1.945903e-02 -1.728310e-02 5.995235e-03 6.597159e-02 2.404242e-02 -9.127015e-02 -9.114697e-02 3.326622e-02 8.236760e-02 -2.450877e-01 1.715014e-02 3.641529e-02 4.795627e-02 3.729364e-02 7.098736e-03 -2.390030e-02 -4.518356e-02 -2.921623e-02 3.579775e-03 1.355221e-02 -1.016365e-02 -2.675044e-02 3.168528e-03
<VARIANCE> 39
 7.565184e+01 7.111559e+01 8.578649e+01 4.728337e+01 3.566649e+01 3.528366e+01 3.962238e+01 3.596468e+01 2.882182e+01 2.304209e+01 2.220620e+01 2.469406e+01 3.152986e+01 5.082178e-01 8.528404e-01 1.372982e+00 1.143205e+00 1.129884e+00 1.142773e+00 1.373183e+00 1.316262e+00 1.203261e+00 1.237585e+00 1.084344e+00 9.598743e-01 2.443509e-01 6.043143e-02 9.489303e-02 1.585873e-01 1.584279e-01 1.688743e-01 1.946701e-01 2.123938e-01 2.153407e-01 2.083613e-01 2.062459e-01 1.952444e-01 1.655299e-01 2.913511e-02
<GCONST> 9.326279e+01
<STATE> 3
<MEAN> 39
 -1.124827e+01 -1.737682e+00 -1.161022e+00 -1.898090e+00 -2.532083e+00 -2.270373e+00 -3.408969e+00 -2.300606e+00 -3.237050e+00 -2.158368e+00 -2.056384e+00 -1.407103e+00 4.690311e+01 -8.311750e-02 5.104482e-02 3.208374e-02 5.638030e-02 -3.271565e-02 7.494497e-03 -1.415589e-02 1.902312e-02 -5.030196e-03 -8.821956e-03 -2.904021e-02 -2.200090e-02 -1.177578e-01 1.435828e-02 8.832566e-04 2.924114e-03 8.998740e-03 1.573010e-02 1.298065e-02 7.116012e-04 -5.422404e-03 -1.961968e-03 6.066132e-03 1.437186e-03 -4.535113e-03 1.136958e-02
<VARIANCE> 39
 3.314610e+01 1.592382e+01 1.540771e+01 1.539114e+01 1.105635e+01 1.317630e+01 1.267741e+01 1.257229e+01 1.235176e+01 9.843121e+00 9.423858e+00 9.475217e+00 2.850605e+01 1.206633e-01 2.167431e-01 3.414204e-01 3.966592e-01 5.188712e-01 6.110333e-01 6.774366e-01 7.547039e-01 7.911071e-01 7.165394e-01 6.766782e-01 6.900903e-01 5.579997e-02 2.249155e-02 3.798897e-02 6.387118e-02 7.885888e-02 1.064976e-01 1.244117e-01 1.363161e-01 1.536615e-01 1.616126e-01 1.416534e-01 1.338871e-01 1.402592e-01 8.884138e-03
<GCONST> 6.141112e+01
<STATE> 4
<MEAN> 39
 -2.098713e+00 2.117289e+00 2.518432e+00 -2.008964e+00 -1.637750e+00 -3.679503e+00 -3.976464e+00 -2.837113e+00 -3.513959e+00 -2.945032e+00 -2.172837e+00 -1.935399e+00 5.470568e+01 -3.108736e-01 1.709029e-02 4.084982e-01 3.702893e-01 2.920718e-01 2.311065e-01 -1.447998e-03 -9.831399e-02 -6.841671e-02 6.500051e-02 -9.036870e-02 -1.910789e-01 -1.931831e-01 1.689123e-01 3.296883e-02 9.631368e-03 8.381131e-02 9.481996e-02 2.929977e-02 5.880812e-03 -1.836764e-02 -3.398855e-02 3.559433e-02 -2.187171e-02 -4.283500e-02 1.106237e-01
<VARIANCE> 39
 1.119635e+02 6.346718e+01 6.588596e+01 4.529099e+01 4.343509e+01 3.289340e+01 3.593502e+01 3.328940e+01 2.646773e+01 2.183365e+01 1.550689e+01 1.921606e+01 5.825110e+01 7.723734e-01 1.181650e+00 1.330318e+00 1.557861e+00 1.360209e+00 1.080728e+00 1.198532e+00 1.183443e+00 1.104236e+00 1.056778e+00 9.281084e-01 8.714136e-01 3.118114e-01 2.354379e-01 2.719744e-01 3.140159e-01 3.329029e-01 2.939441e-01 2.542362e-01 2.948219e-01 2.230344e-01 2.430818e-01 2.114266e-01 2.132837e-01 1.782875e-01 1.040832e-01
<GCONST> 1.003460e+02
<TRANSP> 5
 0.000000e+00 1.000000e+00 0.000000e+00 0.000000e+00 0.000000e+00
 0.000000e+00 8.539709e-01 1.460291e-01 0.000000e+00 0.000000e+00
 0.000000e+00 0.000000e+00 9.407740e-01 5.922599e-02 0.000000e+00
 0.000000e+00 0.000000e+00 0.000000e+00 4.647605e-01 5.352395e-01
 0.000000e+00 0.000000e+00 0.000000e+00 0.000000e+00 0.000000e+00
<ENDHMM>
~h "e"
<BEGINHMM>
<NUMSTATES> 5
<STATE> 2
<MEAN> 39
 -9.996748e-01 2.047639e-01 1.635673e+00 -2.650887e+00 -5.761923e-01 -3.311441e+00 -4.475894e+00 -3.367817e+00 -3.805467e+00 -2.734074e+00 -2.483883e+00 -2.096628e+00 5.641228e+01 3.589190e-01 2.590428e-02 -1.337000e-01 8.858912e-02 1.481317e-01 3.951387e-02 -1.594163e-01 -1.383661e-01 -5.765178e-02 -6.835401e-03 1.042939e-02 -2.237400e-02 2.132067e-01 3.624766e-01 6.751137e-02 -6.651889e-02 2.543214e-02 3.924376e-02 -1.326388e-01 -1.820036e-01 -1.348098e-01 -1.503277e-02 7.828456e-02 6.203700e-02 -2.947369e-02 2.444782e-01
<VARIANCE> 39
 1.132655e+02 6.293488e+01 6.968613e+01 5.464225e+01 4.615243e+01 4.492352e+01 5.102028e+01 4.097522e+01 2.973096e+01 3.376750e+01 2.355831e+01 2.367280e+01 5.936646e+01 4.680798e+00 3.686487e+00 4.419532e+00 3.554857e+00 3.050511e+00 3.140248e+00 3.058119e+00 2.880751e+00 2.271154e+00 2.070466e+00 1.835512e+00 1.553141e+00 1.892228e+00 8.139977e-01 6.282267e-01 7.004050e-01 5.969069e-01 5.506725e-01 5.991583e-01 6.727965e-01 4.991994e-01 4.089244e-01 4.205112e-01 3.563859e-01 2.904525e-01 3.696130e-01
<GCONST> 1.259000e+02
<STATE> 3
<MEAN> 39
 1.953684e+00 4.861955e-01 1.436792e+00 -2.513944e+00 -9.684771e-02 -3.684528e+00 -5.178754e+00 -3.586437e+00 -4.156782e+00 -2.588087e+00 -2.239368e+00 -2.265472e+00 5.859413e+01 1.416922e+00 1.099121e-01 -4.234094e-01 6.322729e-02 2.931390e-01 -4.957007e-01 -8.626229e-01 -5.134794e-01 1.504168e-02 2.510276e-01 1.494116e-01 -6.291461e-02 9.972174e-01 5.610856e-02 -6.639732e-03 -2.665783e-03 4.870403e-02 4.411409e-02 -1.526727e-01 -2.001840e-01 -4.823824e-02 7.955638e-02 8.936533e-02 3.218247e-02 -5.404945e-02 5.654799e-02
<VARIANCE> 39
 1.017350e+02 7.648072e+01 9.026905e+01 7.582534e+01 5.704814e+01 6.197688e+01 6.547868e+01 5.026285e+01 3.678491e+01 3.835021e+01 2.892383e+01 2.510490e+01 5.292204e+01 8.446187e+00 6.371108e+00 6.590799e+00 5.934908e+00 4.487978e+00 5.338572e+00 6.363806e+00 4.524875e+00 3.118238e+00 3.149720e+00 2.703359e+00 2.035491e+00 3.658598e+00 8.547267e-01 8.705130e-01 9.467963e-01 8.438241e-01 6.507744e-01 8.059623e-01 8.374527e-01 5.789271e-01 4.973799e-01 5.193557e-01 4.496781e-01 3.515560e-01 4.259318e-01
<GCONST> 1.370803e+02
<STATE> 4
<MEAN> 39
 7.669031e+00 7.244613e-01 -1.015560e+00 -1.596155e-01 3.770642e+00 -7.137665e+00 -1.209222e+01 -7.355328e+00 -2.822160e+00 1.748651e-01 -6.742005e-01 -2.998584e+00 6.241761e+01 1.465483e-01 1.150753e-01 8.812059e-02 1.075980e-01 7.733451e-02 -7.630578e-02 -6.913855e-02 1.980513e-02 1.047760e-01 8.285999e-02 2.707999e-02 -6.277744e-02 9.468624e-02 -2.428944e-01 -2.324670e-03 1.406608e-01 -4.158471e-02 -1.151653e-01 1.153529e-01 2.650251e-01 1.370872e-01 -1.699871e-02 -7.647647e-02 -4.797763e-02 1.209717e-02 -1.516458e-01
<VARIANCE> 39
 6.703712e+01 5.009426e+01 8.038440e+01 7.699632e+01 5.946437e+01 6.201469e+01 1.018023e+02 7.666819e+01 3.880231e+01 4.638895e+01 3.350477e+01 3.262342e+01 3.379895e+01 4.022634e+00 3.171433e+00 4.383617e+00 3.749607e+00 3.076172e+00 4.309273e+00 5.699217e+00 3.409623e+00 2.478422e+00 2.538075e+00 2.060340e+00 1.720287e+00 1.813540e+00 4.737316e-01 5.140459e-01 5.953843e-01 5.143606e-01 4.715539e-01 6.064734e-01 7.195393e-01 5.756857e-01 4.205649e-01 3.915314e-01 3.813824e-01 2.743714e-01 2.101748e-01
<GCONST> 1.279616e+02
<TRANSP> 5
 0.000000e+00 1.000000e+00 0.000000e+00 0.000000e+00 0.000000e+00
 0.000000e+00 3.717872e-01 6.282128e-01 0.000000e+00 0.000000e+00
 0.000000e+00 0.000000e+00 3.799654e-01 6.200346e-01 0.000000e+00
 0.000000e+00 0.000000e+00 0.000000e+00 7.058328e-01 2.941672e-01
 0.000000e+00 0.000000e+00 0.000000e+00 0.000000e+00 0.000000e+00
<ENDHMM>
~h "f"
<BEGINHMM>
<NUMSTATES> 5
<STATE> 2
<MEAN> 39
 -5.803965e-01 -1.781819e+00 5.643279e+00 -2.514908e+00 -1.544019e+00 -1.268046e+00 -4.166362e+00 -3.206737e+00 -4.134902e+00 -1.957255e+00 -3.976658e-01 -3.015575e+00 5.872182e+01 -7.600989e-01 -1.813446e+00 9.833575e-01 -5.716327e-01 -4.066597e-01 2.461091e-01 2.734399e-01 -1.189690e+00 -1.050869e-02 1.359715e+00 -3.425954e-01 -4.579993e-01 7.538286e-01 -9.727545e-03 -4.170297e-01 8.739796e-02 -2.834435e-01 5.739895e-02 -4.795867e-01 -1.923058e-01 -1.715275e-02 2.029432e-02 6.768107e-05 -1.641701e-01 1.911126e-03 4.037947e-01
<VARIANCE> 39
 8.947992e+01 5.395247e+01 6.212827e+01 6.153997e+01 5.036175e+01 6.169030e+01 9.799205e+01 5.588674e+01 2.912267e+01 6.322541e+01 2.868905e+01 1.790684e+01 3.961273e+01 1.297964e+01 1.163884e+01 1.316879e+01 9.002106e+00 6.494446e+00 7.187343e+00 9.625440e+00 4.377609e+00 3.676740e+00 5.108235e+00 2.169907e+00 3.208624e+00 4.503231e+00 1.286478e+00 1.678789e+00 1.152379e+00 1.458526e+00 1.194959e+00 6.257722e-01 1.400219e+00 7.371379e-01 6.039144e-01 1.125947e+00 3.296477e-01 5.489979e-01 5.810659e-01
<GCONST> 1.446445e+02
<STATE> 3
<MEAN> 39
 -7.175139e+00 -1.357360e+01 1.062884e+01 -7.825935e+00 -2.370521e+00 -2.959930e+00 -3.891600e+00 -5.046587e+00 -6.355841e+00 1.387277e+00 -1.404077e+00 -4.319225e+00 6.275275e+01 6.297783e-01 4.832093e-02 -7.033235e-01 7.462777e-02 1.335481e-01 -8.059889e-01 -3.901011e-01 -3.399715e-01 8.926707e-02 -2.754073e-01 -2.538128e-01 -6.205697e-02 3.908607e-01 3.602746e-01 5.029515e-01 -2.276852e-01 2.301109e-01 2.738794e-02 -1.265035e-01 -7.344843e-02 7.306482e-02 3.800708e-02 -2.613311e-01 -3.443348e-02 3.757112e-02 -7.965548e-02
<VARIANCE> 39
 1.084195e+02 9.045909e+01 1.593206e+02 9.645654e+01 7.603770e+01 9.537550e+01 9.177511e+01 3.838026e+01 5.483696e+01 4.602840e+01 2.911917e+01 2.293805e+01 2.844608e+01 1.270959e+01 1.065103e+01 9.154852e+00 9.766532e+00 5.265397e+00 7.334010e+00 5.504027e+00 3.619121e+00 3.924959e+00 5.604912e+00 2.427702e+00 1.845948e+00 2.968118e+00 1.451714e+00 1.642851e+00 1.656774e+00 1.413778e+00 9.228797e-01 1.547976e+00 8.997256e-01 7.009217e-01 7.009529e-01 1.196674e+00 4.981433e-01 3.596999e-01 5.480485e-01
<GCONST> 1.460948e+02
<STATE> 4
<MEAN> 39
 2.466736e+00 -6.511492e+00 1.909825e+00 -3.498506e+00 -6.563729e-01 -9.696762e+00 -6.779600e+00 -1.354404e+00 -5.614211e+00 -3.043782e+00 -1.683430e+00 -3.739960e+00 6.411303e+01 9.990414e-02 6.015954e-02 -7.616360e-02 -9.479521e-02 3.175702e-02 1.210113e-01 3.440000e-02 9.872258e-02 1.108899e-02 -4.210864e-02 -1.662402e-02 8.067060e-02 2.779638e-02 -8.567220e-02 -1.480988e-02 3.323892e-02 -3.218748e-02 7.348663e-03 6.688173e-02 2.073162e-02 -1.821242e-02 -5.085218e-03 5.781086e-02 3.598319e-02 -2.822770e-03 -4.780880e-02
<VARIANCE> 39
 1.424054e+02 7.310597e+01 9.726559e+01 1.018970e+02 7.940852e+01 1.176259e+02 8.713036e+01 9.955598e+01 5.477583e+01 6.219086e+01 4.245594e+01 5.023040e+01 6.120739e+01 7.969559e+00 6.419443e+00 6.150281e+00 7.588811e+00 3.877571e+00 7.330955e+00 5.797797e+00 4.868621e+00 4.595224e+00 3.581931e+00 3.087918e+00 3.987177e+00 3.784730e+00 1.018664e+00 1.193317e+00 8.459583e-01 1.221779e+00 6.491142e-01 1.422050e+00 9.558109e-01 8.256567e-01 8.315037e-01 6.576739e-01 5.645673e-01 7.219549e-01 6.584935e-01
<GCONST> 1.473531e+02
<TRANSP> 5
 0.000000e+00 1.000000e+00 0.000000e+00 0.000000e+00 0.000000e+00
 0.000000e+00 6.100702e-01 3.899298e-01 0.000000e+00 0.000000e+00
 0.000000e+00 0.000000e+00 8.107202e-01 1.892798e-01 0.000000e+00
 0.000000e+00 0.000000e+00 0.000000e+00 9.308094e-01 6.919063e-02
 0.000000e+00 0.000000e+00 0.000000e+00 0.000000e+00 0.000000e+00
<ENDHMM>
~h "g"
<BEGINHMM>
<NUMSTATES> 5
<STATE> 2
<MEAN> 39
 8.187632e+00 3.518737e+00 -1.999829e+00 -6.959293e+00 -2.701068e+00 -6.216303e+00 -4.709264e+00 -6.142696e-01 -3.277492e+00 -5.839680e+00 -3.782565e+00 -2.691673e-01 6.193494e+01 3.669211e-01 2.052118e-01 -2.897505e-01 -6.740385e-01 -8.806763e-01 -4.819406e-01 7.432426e-01 1.319988e+00 5.249062e-01 -6.094775e-01 -5.545913e-01 2.204297e-02 1.984082e-01 -1.701009e-01 2.724682e-02 1.957937e-01 2.159707e-01 1.011926e-01 1.411452e-01 6.302607e-02 -1.454587e-01 1.654984e-02 1.547796e-01 6.437476e-02 -8.216391e-02 -1.229859e-01
<VARIANCE> 39
 7.684535e+01 5.189837e+01 6.464826e+01 3.828175e+01 5.547200e+01 3.745129e+01 4.001700e+01 6.449139e+01 5.661146e+01 4.357317e+01 2.116227e+01 2.649891e+01 3.878791e+01 3.640480e+00 2.003098e+00 2.953810e+00 2.822227e+00 3.109054e+00 2.022971e+00 1.877937e+00 2.488737e+00 1.951376e+00 1.998811e+00 1.852229e+00 1.741642e+00 1.412231e+00 3.600181e-01 2.921475e-01 4.039939e-01 3.066508e-01 3.537707e-01 3.645844e-01 3.236457e-01 4.445502e-01 4.155861e-01 2.840304e-01 3.500310e-01 3.110546e-01 1.418710e-01
<GCONST> 1.168063e+02
<STATE> 3
<MEAN> 39
 7.878955e+00 5.303734e+00 1.475798e-01 -7.280660e+00 -4.783442e+00 -7.025995e+00 -1.486229e+00 2.263348e+00 -2.819199e+00 -7.580288e+00 -5.197591e+00 -1.166640e+00 6.158607e+01 -5.684482e-01 2.800153e-02 4.725421e-01 4.823581e-01 4.367115e-01 5.356507e-01 3.199249e-01 -3.233553e-01 -1.140600e-01 2.200547e-01 1.751970e-01 -9.427624e-02 -3.869342e-01 -1.202973e-01 -1.026991e-01 8.980030e-02 2.231180e-01 2.269701e-01 1.422803e-01 -5.403106e-02 -2.369988e-01 -7.000825e-02 1.667922e-01 1.442625e-01 2.199195e-03 -4.628628e-02
<VARIANCE> 39
 5.652695e+01 5.031981e+01 5.428626e+01 2.909566e+01 5.398345e+01 4.712408e+01 5.683588e+01 7.586989e+01 3.759830e+01 3.850554e+01 2.150112e+01 2.806950e+01 2.668015e+01 1.966226e+00 1.982903e+00 2.854311e+00 2.126550e+00 3.583627e+00 2.803836e+00 1.929985e+00 2.609946e+00 1.485649e+00 2.019799e+00 1.633199e+00 1.881393e+00 8.324082e-01 3.149658e-01 3.680469e-01 4.749291e-01 3.152807e-01 5.139971e-01 5.732737e-01 3.534189e-01 4.030184e-01 2.694801e-01 4.078332e-01 3.462991e-01 3.338285e-01 1.359730e-01
<GCONST> 1.157110e+02
<STATE> 4
<MEAN> 39
 4.149720e+00 -3.251576e-01 3.667552e+00 -1.936331e+00 -1.067137e+00 -3.704658e+00 -9.193945e-02 -1.068686e+00 -7.514985e+00 -4.806131e+00 -5.335869e-01 -2.076436e+00 6.153778e+01 -4.073272e-01 -5.342463e-01 3.212237e-01 8.747903e-02 -1.133443e-01 9.344117e-02 7.261593e-02 -2.356645e-01 -6.080868e-02 3.078945e-01 2.440732e-01 -2.321516e-01 4.734492e-02 3.176381e-02 3.606881e-02 -3.413310e-02 -1.266887e-01 -7.801296e-02 -6.847148e-02 -5.691239e-02 7.362548e-02 6.485952e-02 -5.948021e-02 -8.229617e-02 -1.062728e-02 1.951670e-02
<VARIANCE> 39
 7.308510e+01 8.835815e+01 7.858549e+01 6.640321e+01 8.839556e+01 7.088048e+01 1.039316e+02 7.989432e+01 7.070930e+01 5.115206e+01 3.557786e+01 3.091015e+01 3.018205e+01 4.191953e+00 8.118507e+00 4.942523e+00 5.825140e+00 5.439595e+00 4.158633e+00 7.344737e+00 4.186764e+00 5.488864e+00 3.831958e+00 3.551036e+00 2.487384e+00 1.194565e+00 4.496930e-01 9.498383e-01 7.857293e-01 9.010603e-01 8.918798e-01 6.595589e-01 1.145701e+00 5.753507e-01 8.672804e-01 6.813535e-01 5.205497e-01 4.467641e-01 1.904266e-01
<GCONST> 1.384288e+02
<TRANSP> 5
 0.000000e+00 1.000000e+00 0.000000e+00 0.000000e+00 0.000000e+00
 0.000000e+00 5.534794e-01 4.465206e-01 0.000000e+00 0.000000e+00
 0.000000e+00 0.000000e+00 6.648511e-01 3.351489e-01 0.000000e+00
 0.000000e+00 0.000000e+00 0.000000e+00 7.843943e-01 2.156057e-01
 0.000000e+00 0.000000e+00 0.000000e+00 0.000000e+00 0.000000e+00
<ENDHMM>
~h "i"
<BEGINHMM>
<NUMSTATES> 5
<STATE> 2
<MEAN> 39
 -3.622273e+00 -2.973604e+00 5.254796e+00 -1.624446e+00 -5.491790e-01 -3.497374e+00 -5.606419e+00 -5.007569e+00 -3.956851e+00 -1.213313e+00 -2.898378e+00 -3.778284e+00 5.726998e+01 6.602352e-01 -3.196127e-01 -1.772212e-01 3.685530e-01 1.592154e-01 -3.001345e-01 -5.881319e-01 -5.869974e-01 -1.289391e-01 2.675062e-01 1.639305e-01 -1.481132e-01 5.686916e-01 4.608759e-01 6.827971e-02 -2.251201e-01 -2.956554e-02 6.452845e-02 -2.861266e-01 -3.341108e-01 -7.142656e-02 -2.407509e-02 -1.060806e-02 7.436145e-02 9.265468e-04 2.948107e-01
<VARIANCE> 39
 9.336508e+01 8.894843e+01 8.057186e+01 9.717944e+01 6.618065e+01 8.009948e+01 7.257551e+01 4.646657e+01 3.534732e+01 3.523951e+01 2.824818e+01 2.234248e+01 4.925360e+01 8.417928e+00 7.879781e+00 6.644415e+00 8.508199e+00 4.982075e+00 7.274432e+00 7.510886e+00 3.883015e+00 3.811889e+00 3.279804e+00 3.072525e+00 2.280074e+00 3.370478e+00 9.453062e-01 1.124595e+00 9.547253e-01 1.219014e+00 8.096832e-01 1.267954e+00 1.138165e+00 6.992720e-01 6.932400e-01 5.775112e-01 5.070946e-01 3.873964e-01 5.344710e-01
<GCONST> 1.415604e+02
<STATE> 3
<MEAN> 39
 2.701379e+00 -2.821202e+00 2.456110e+00 -2.189524e-01 7.804382e-02 -6.818717e+00 -8.442554e+00 -5.527042e+00 -4.872417e+00 -1.459116e+00 -1.277433e+00 -4.006435e+00 6.113672e+01 1.599646e+00 2.465456e-01 -6.270957e-01 3.107198e-01 5.006519e-01 -9.340875e-01 -1.320608e+00 -3.390985e-01 6.210813e-02 4.238503e-02 2.322666e-01 6.526712e-03 9.929502e-01 -1.388067e-01 7.880236e-02 -4.315822e-02 -9.057873e-02 3.711193e-02 6.174155e-02 6.383236e-02 2.330643e-01 1.105981e-01 -8.758176e-02 -5.711726e-02 4.774804e-02 -1.444776e-01
<VARIANCE> 39
 9.546037e+01 8.930760e+01 9.694719e+01 1.210385e+02 8.380132e+01 9.726793e+01 1.097409e+02 9.185151e+01 4.987028e+01 4.912468e+01 3.911974e+01 3.743861e+01 4.119562e+01 8.807103e+00 7.796250e+00 6.363244e+00 8.046896e+00 5.808799e+00 7.088089e+00 8.404129e+00 4.877363e+00 4.175323e+00 4.232325e+00 3.175762e+00 2.894756e+00 3.998846e+00 8.345982e-01 1.298820e+00 9.533930e-01 1.109944e+00 8.489276e-01 1.086892e+00 1.128945e+00 8.186562e-01 7.455639e-01 7.359340e-01 5.966706e-01 4.843445e-01 4.537918e-01
<GCONST> 1.465528e+02
<STATE> 4
<MEAN> 39
 6.972770e+00 -9.049448e-02 1.609897e+00 4.292686e+00 6.302607e+00 -9.100314e+00 -1.659468e+01 -8.943186e+00 -2.156710e+00 7.795209e-01 -1.429537e+00 -5.464865e+00 6.249761e+01 6.932542e-03 1.757409e-01 -1.019990e-01 -4.074185e-01 -1.614927e-01 2.535488e-01 3.601563e-01 2.175424e-01 2.618209e-02 -1.077177e-01 7.078495e-02 2.146698e-01 -4.422865e-02 -2.341289e-01 6.399622e-03 1.032616e-01 -1.269056e-01 -1.472434e-01 1.830478e-01 3.371820e-01 1.275534e-01 -3.661836e-02 -8.948110e-02 -7.124679e-02 5.503337e-02 -1.525849e-01
<VARIANCE> 39
 6.726565e+01 4.476749e+01 6.768430e+01 1.024580e+02 5.819369e+01 6.739621e+01 9.219073e+01 7.962020e+01 3.926351e+01 3.848299e+01 3.564132e+01 3.242076e+01 2.824466e+01 3.016913e+00 2.894906e+00 3.457100e+00 3.978196e+00 2.422148e+00 4.374051e+00 5.667198e+00 3.266534e+00 2.483313e+00 2.194210e+00 1.944137e+00 2.019036e+00 1.471262e+00 4.454137e-01 4.841337e-01 4.725243e-01 5.150416e-01 3.929150e-01 6.434177e-01 9.044600e-01 5.772392e-01 4.239603e-01 3.742513e-01 3.434212e-01 3.395686e-01 2.199621e-01
<GCONST> 1.264606e+02
<TRANSP> 5
 0.000000e+00 1.000000e+00 0.000000e+00 0.000000e+00 0.000000e+00
 0.000000e+00 5.850632e-01 4.149368e-01 0.000000e+00 0.000000e+00
 0.000000e+00 0.000000e+00 5.374063e-01 4.625937e-01 0.000000e+00
 0.000000e+00 0.000000e+00 0.000000e+00 7.883006e-01 2.116994e-01
 0.000000e+00 0.000000e+00 0.000000e+00 0.000000e+00 0.000000e+00
<ENDHMM>
~h "j"
<BEGINHMM>
<NUMSTATES> 5
<STATE> 2
<MEAN> 39
 5.891501e+00 2.448953e+00 1.565327e+00 2.144247e-01 2.361296e+00 -6.623211e+00 -9.198625e+00 -3.694541e+00 -6.235712e-01 4.584758e-01 -2.221298e+00 -4.268234e+00 6.107634e+01 -5.118613e-01 4.616661e-01 5.297157e-01 3.185527e-02 -4.780821e-02 9.122456e-01 1.227176e+00 4.327895e-01 6.410744e-02 -1.074833e-01 -2.170195e-01 5.573511e-02 -4.895083e-01 -1.612054e-01 -2.373278e-02 6.522273e-02 -1.601607e-02 -9.025257e-02 5.242778e-02 1.003681e-01 2.456650e-02 -1.128640e-01 -8.522256e-02 7.347330e-02 9.433157e-02 -1.027572e-01
<VARIANCE> 39
 8.673596e+01 6.057157e+01 6.780963e+01 8.067986e+01 5.470575e+01 5.544339e+01 8.681146e+01 6.062093e+01 4.625549e+01 3.265990e+01 2.022272e+01 2.911316e+01 3.294167e+01 2.221932e+00 2.391713e+00 2.564234e+00 2.243893e+00 2.363027e+00 2.349095e+00 2.761142e+00 1.872832e+00 2.265347e+00 1.582041e+00 1.610080e+00 9.129480e-01 1.105799e+00 2.425392e-01 4.647804e-01 4.582687e-01 3.831791e-01 3.172505e-01 4.858523e-01 3.414547e-01 3.420383e-01 4.036530e-01 2.891187e-01 3.681880e-01 1.826638e-01 1.361353e-01
<GCONST> 1.163883e+02
<STATE> 3
<MEAN> 39
 2.490947e+00 3.269862e+00 3.917495e+00 -7.703840e-01 1.047894e+00 -2.368388e+00 -2.946999e+00 -1.793770e+00 -1.836711e+00 -8.917328e-01 -1.637709e+00 -2.185872e+00 5.884490e+01 -7.813803e-01 -5.279213e-01 -2.446502e-01 -3.349207e-01 -4.119070e-01 3.234971e-01 8.656461e-01 3.978541e-01 -3.076045e-01 -3.128380e-01 1.507136e-01 4.291659e-01 -4.206873e-01 1.076528e-01 -1.774168e-01 -2.135837e-01 -6.430237e-02 -1.065787e-01 -2.435227e-01 -3.250546e-01 -7.311647e-02 2.691219e-02 -5.508127e-02 -2.545706e-02 -1.775866e-02 9.944764e-02
<VARIANCE> 39
 8.085120e+01 6.791831e+01 7.386475e+01 6.293524e+01 3.651435e+01 3.814157e+01 5.692818e+01 5.292841e+01 3.639873e+01 3.150723e+01 2.060543e+01 2.295208e+01 3.030893e+01 1.933525e+00 2.757519e+00 2.794722e+00 2.438979e+00 2.517778e+00 2.525023e+00 2.367218e+00 1.699262e+00 1.802575e+00 1.603850e+00 1.381028e+00 1.024592e+00 7.222468e-01 1.991070e-01 3.950394e-01 4.040860e-01 3.174106e-01 4.087710e-01 5.259677e-01 3.045339e-01 2.972848e-01 3.350710e-01 2.404760e-01 3.070247e-01 1.793582e-01 1.044893e-01
<GCONST> 1.123033e+02
<STATE> 4
<MEAN> 39
 -5.375191e+00 -1.747564e+00 -1.953357e+00 -4.127204e+00 -1.589746e+00 -2.318489e+00 -2.363831e+00 -8.963518e-01 -1.794097e+00 -2.225348e+00 -2.153682e+00 -8.946012e-01 5.256410e+01 -2.906619e-01 -1.130218e-01 -4.055037e-02 1.587431e-02 -7.413727e-02 5.944213e-02 5.559503e-02 1.131290e-02 -6.536731e-02 -4.476389e-02 -2.769820e-02 -5.951598e-03 -2.298628e-01 5.976610e-02 1.993760e-02 1.296155e-02 4.731561e-02 2.031852e-02 -3.249639e-02 -5.843968e-02 -3.323785e-02 4.701029e-03 2.361186e-02 2.275795e-02 -1.423080e-02 3.439030e-02
<VARIANCE> 39
 1.206217e+02 4.130667e+01 5.656234e+01 3.100947e+01 2.106393e+01 1.975433e+01 2.509537e+01 2.288178e+01 1.490864e+01 1.423222e+01 1.542376e+01 1.777652e+01 6.380643e+01 5.193052e-01 6.486819e-01 1.028231e+00 9.767361e-01 9.413798e-01 8.965932e-01 8.731790e-01 1.160715e+00 9.505233e-01 1.024351e+00 9.814181e-01 8.625912e-01 1.891323e-01 9.900369e-02 1.132312e-01 1.467528e-01 1.638023e-01 1.813824e-01 1.767304e-01 1.658057e-01 2.044665e-01 1.837699e-01 1.850174e-01 1.936991e-01 1.583917e-01 4.495605e-02
<GCONST> 8.706194e+01
<TRANSP> 5
 0.000000e+00 1.000000e+00 0.000000e+00 0.000000e+00 0.000000e+00
 0.000000e+00 5.312881e-01 4.687119e-01 0.000000e+00 0.000000e+00
 0.000000e+00 0.000000e+00 4.484571e-01 5.515429e-01 0.000000e+00
 0.000000e+00 0.000000e+00 0.000000e+00 8.947099e-01 1.052901e-01
 0.000000e+00 0.000000e+00 0.000000e+00 0.000000e+00 0.000000e+00
<ENDHMM>
~h "k"
<BEGINHMM>
<NUMSTATES> 5
<STATE> 2
<MEAN> 39
 9.167111e+00 -7.001750e-01 -3.332434e+00 1.751080e-01 4.365642e+00 -7.507703e+00 -1.167068e+01 -6.017259e+00 -2.738924e+00 -5.281041e-01 2.336205e-01 -2.167534e+00 6.366502e+01 1.990443e-01 -2.956628e-01 -2.588058e-01 4.417766e-01 5.829388e-01 -2.639848e-01 -7.046015e-01 -2.843379e-01 2.438016e-01 5.305930e-01 3.234513e-01 -6.780715e-02 1.689557e-01 -2.324035e-01 4.537174e-02 2.627674e-01 4.142715e-02 -8.789277e-02 7.040881e-02 1.839215e-01 7.314643e-02 1.836135e-02 -6.934702e-02 -1.334147e-01 -4.370945e-02 -1.394747e-01
<VARIANCE> 39
 9.338561e+01 5.679137e+01 8.305430e+01 6.299609e+01 5.170944e+01 5.414405e+01 8.251162e+01 4.613256e+01 2.967616e+01 2.731209e+01 2.566929e+01 2.093833e+01 4.765170e+01 1.862474e+00 2.580261e+00 3.137907e+00 2.781479e+00 1.829457e+00 3.272213e+00 4.078809e+00 2.177955e+00 1.806810e+00 2.122170e+00 1.537232e+00 1.347224e+00 9.761521e-01 3.203832e-01 4.305810e-01 4.816465e-01 4.245996e-01 3.240935e-01 5.375953e-01 6.129040e-01 3.328605e-01 3.033112e-01 3.109891e-01 2.791786e-01 2.100507e-01 1.566486e-01
<GCONST> 1.176480e+02
<STATE> 3
<MEAN> 39
 7.967933e+00 -6.383047e-01 -1.821607e+00 1.508214e+00 5.429676e+00 -7.638494e+00 -1.236114e+01 -6.457634e+00 -2.303301e+00 5.694192e-01 5.358188e-01 -2.714196e+00 6.296450e+01 -2.077773e-01 1.039935e-01 3.793288e-01 3.387079e-01 2.491744e-01 9.942547e-02 -6.010628e-02 -5.195769e-02 1.037909e-01 1.570564e-01 -2.344616e-02 -1.023897e-01 -1.609244e-01 -1.235101e-01 6.232321e-02 1.257793e-01 -8.233343e-02 -1.326150e-01 9.354853e-02 2.030057e-01 6.614825e-02 -3.308098e-02 -1.270023e-01 -9.382489e-02 1.538939e-03 -7.374151e-02
<VARIANCE> 39
 9.071306e+01 5.967410e+01 8.201347e+01 5.978315e+01 4.584223e+01 5.802927e+01 8.251171e+01 4.748002e+01 3.106555e+01 2.976707e+01 2.682322e+01 1.948974e+01 4.480222e+01 1.715465e+00 2.161310e+00 2.372643e+00 2.835819e+00 1.487461e+00 2.534568e+00 3.110658e+00 1.625395e+00 1.768461e+00 1.814977e+00 1.359074e+00 1.333652e+00 7.914051e-01 2.855681e-01 3.748850e-01 3.834737e-01 4.008292e-01 3.065675e-01 4.527379e-01 5.067379e-01 3.153742e-01 2.899957e-01 3.152360e-01 2.299936e-01 1.871875e-01 1.501306e-01
<GCONST> 1.141635e+02
<STATE> 4
<MEAN> 39
 6.865912e+00 1.660468e+00 2.218199e+00 4.086155e+00 7.045668e+00 -7.087742e+00 -1.388566e+01 -8.203951e+00 -1.025856e+00 1.974205e+00 -6.585790e-01 -4.555409e+00 6.194953e+01 -4.197484e-01 1.591892e-01 3.291739e-01 -3.905690e-01 -2.856941e-01 5.441506e-01 7.606144e-01 2.062507e-01 -9.753864e-02 -1.918389e-01 -7.184632e-02 1.272606e-01 -2.436223e-01 -5.762050e-02 -9.156320e-03 -2.452987e-02 -1.225670e-01 -1.280542e-01 3.837761e-02 1.625963e-01 1.045635e-01 -5.518894e-02 -1.129651e-01 -4.334704e-02 2.351648e-02 -3.393219e-02
<VARIANCE> 39
 5.348913e+01 4.315275e+01 5.795445e+01 6.549723e+01 3.746720e+01 6.308536e+01 8.714661e+01 5.076968e+01 3.753500e+01 3.780570e+01 3.077771e+01 2.608073e+01 2.439284e+01 2.147232e+00 2.474731e+00 3.159315e+00 3.906915e+00 2.243722e+00 3.595516e+00 5.024362e+00 2.612844e+00 2.474789e+00 2.594186e+00 2.305642e+00 1.730035e+00 1.155193e+00 2.413969e-01 3.704010e-01 4.292595e-01 5.204390e-01 3.730235e-01 5.740716e-01 7.281947e-01 4.530815e-01 3.996365e-01 4.580284e-01 3.961940e-01 2.875078e-01 1.355727e-01
<GCONST> 1.207673e+02
<TRANSP> 5
 0.000000e+00 1.000000e+00 0.000000e+00 0.000000e+00 0.000000e+00
 0.000000e+00 4.955891e-01 5.044109e-01 0.000000e+00 0.000000e+00
 0.000000e+00 0.000000e+00 4.543585e-01 5.456415e-01 0.000000e+00
 0.000000e+00 0.000000e+00 0.000000e+00 7.812935e-01 2.187065e-01
 0.000000e+00 0.000000e+00 0.000000e+00 0.000000e+00 0.000000e+00
<ENDHMM>
~h "l"
<BEGINHMM>
<NUMSTATES> 5
<STATE> 2
<MEAN> 39
 1.958817e+00 -9.981731e-01 3.053021e-01 -2.407165e+00 -8.907740e-01 -5.031168e+00 -5.505381e+00 -3.643365e+00 -4.170393e+00 -2.530563e+00 -1.498224e+00 -2.104881e+00 5.888744e+01 1.116950e+00 -1.643921e-02 -6.663252e-01 -4.886643e-01 -2.982123e-01 -4.777204e-01 -3.939573e-01 2.034175e-01 9.825616e-02 1.222196e-03 1.603990e-01 1.556667e-01 7.721758e-01 1.704418e-01 3.553871e-02 1.412502e-02 7.329409e-02 5.814535e-02 -9.080380e-02 -1.433445e-01 6.153096e-02 1.138404e-01 7.034292e-03 -5.792818e-02 -3.585490e-02 1.161816e-01
<VARIANCE> 39
 1.094223e+02 6.234000e+01 7.847026e+01 7.619130e+01 6.568279e+01 6.405440e+01 7.299788e+01 6.049763e+01 3.614999e+01 3.664890e+01 2.678928e+01 2.538082e+01 5.764879e+01 7.869850e+00 5.702029e+00 5.037357e+00 4.947432e+00 3.934827e+00 5.605063e+00 5.544122e+00 4.745424e+00 3.204370e+00 3.693108e+00 2.569151e+00 2.208993e+00 3.659453e+00 9.954185e-01 9.149386e-01 6.882537e-01 8.491815e-01 6.460974e-01 9.007029e-01 8.238640e-01 6.647450e-01 5.855906e-01 6.090410e-01 4.898122e-01 4.044348e-01 5.640498e-01
<GCONST> 1.375948e+02
<STATE> 3
<MEAN> 39
 5.738986e+00 -6.504424e-01 -1.537187e+00 -2.450372e+00 -1.906215e-01 -6.856739e+00 -8.060751e+00 -3.966882e+00 -3.652257e+00 -1.964913e+00 -9.459579e-01 -1.734869e+00 6.128122e+01 8.348666e-01 1.549180e-01 -3.022653e-01 -4.146928e-02 1.759842e-02 -4.572755e-01 -5.164772e-01 3.197138e-01 4.049162e-01 1.880797e-02 -6.101751e-02 5.954562e-02 5.179693e-01 -3.181179e-01 -3.059950e-02 1.594239e-01 1.022735e-01 6.830212e-02 1.603850e-01 1.866749e-01 1.073873e-01 4.430786e-02 -3.138935e-02 -1.045699e-01 -2.945212e-02 -2.009754e-01
<VARIANCE> 39
 1.045959e+02 6.572516e+01 7.878027e+01 7.368381e+01 6.464301e+01 6.385896e+01 8.966908e+01 6.696584e+01 3.875533e+01 3.657497e+01 2.883097e+01 2.712681e+01 4.920628e+01 7.195100e+00 4.843675e+00 3.871328e+00 4.965115e+00 3.922463e+00 4.637702e+00 5.400007e+00 4.055210e+00 3.354307e+00 3.142549e+00 2.619873e+00 2.147228e+00 3.719809e+00 8.002014e-01 7.416868e-01 5.564082e-01 6.408532e-01 5.930107e-01 7.609352e-01 8.093618e-01 6.400550e-01 5.483254e-01 4.987967e-01 4.610652e-01 3.466481e-01 4.090171e-01
<GCONST> 1.348799e+02
<STATE> 4
<MEAN> 39
 7.774574e+00 -2.176685e-01 -2.816587e+00 -2.178777e+00 1.226832e+00 -7.159616e+00 -9.417259e+00 -3.903521e+00 -2.455149e+00 -1.629440e+00 -9.360787e-01 -1.438199e+00 6.252043e+01 -3.336205e-01 2.307369e-01 3.647043e-01 -5.540425e-02 -5.313843e-02 3.508547e-01 4.142285e-01 3.361945e-01 2.009294e-01 -1.264486e-01 -2.848033e-01 -5.224160e-02 -2.746871e-01 -2.061756e-01 -4.853101e-03 1.227896e-01 1.803144e-02 1.285005e-02 1.421610e-01 1.840096e-01 4.895443e-03 -7.327170e-02 -3.505928e-02 -2.264565e-02 -1.438201e-02 -1.325758e-01
<VARIANCE> 39
 9.499225e+01 5.686546e+01 8.761352e+01 6.443869e+01 5.136784e+01 5.150853e+01 7.724396e+01 6.438903e+01 3.099215e+01 3.433599e+01 2.555969e+01 3.336627e+01 4.608242e+01 3.209116e+00 3.179219e+00 3.605865e+00 2.970825e+00 2.723724e+00 3.555509e+00 3.579842e+00 2.706910e+00 2.158840e+00 2.026177e+00 1.846525e+00 1.599264e+00 1.753595e+00 5.301418e-01 4.650824e-01 4.416946e-01 4.021663e-01 3.820956e-01 5.329775e-01 5.699292e-01 4.560464e-01 3.679075e-01 3.435105e-01 3.350174e-01 2.751094e-01 2.685966e-01
<GCONST> 1.233737e+02
<TRANSP> 5
 0.000000e+00 1.000000e+00 0.000000e+00 0.000000e+00 0.000000e+00
 0.000000e+00 3.986932e-01 6.013068e-01 0.000000e+00 0.000000e+00
 0.000000e+00 0.000000e+00 3.057466e-01 6.942534e-01 0.000000e+00
 0.000000e+00 0.000000e+00 0.000000e+00 4.656047e-01 5.343953e-01
 0.000000e+00 0.000000e+00 0.000000e+00 0.000000e+00 0.000000e+00
<ENDHMM>
~h "m"
<BEGINHMM>
<NUMSTATES> 5
<STATE> 2
<MEAN> 39
 1.939892e+00 -3.781092e-01 2.865201e+00 -4.355431e-03 1.425254e+00 -4.183691e+00 -8.117092e+00 -6.891973e+00 -5.213574e+00 -2.857835e+00 -2.554780e+00 -3.914933e+00 5.966276e+01 1.042613e+00 6.736743e-02 -3.538249e-01 4.518153e-01 3.424966e-01 -5.883649e-01 -1.104585e+00 -5.021300e-01 -1.720537e-02 1.486151e-01 -1.468011e-01 -3.460664e-01 5.578516e-01 3.700296e-02 -5.514552e-02 -6.411888e-02 -1.028933e-02 3.672991e-02 -2.103551e-01 -2.000387e-01 5.270951e-02 1.659260e-01 6.908386e-02 4.573935e-03 -1.219274e-02 7.050607e-02
<VARIANCE> 39
 9.407985e+01 7.779582e+01 5.797607e+01 9.375903e+01 8.019630e+01 6.865851e+01 9.763748e+01 7.187897e+01 5.293279e+01 4.638780e+01 3.271229e+01 3.153140e+01 4.452623e+01 7.850409e+00 7.962151e+00 5.571536e+00 6.997408e+00 5.325439e+00 5.388002e+00 8.263699e+00 4.625116e+00 4.489238e+00 3.821200e+00 2.896873e+00 2.456708e+00 2.241989e+00 1.071021e+00 1.218802e+00 8.100007e-01 1.052009e+00 7.872865e-01 8.419033e-01 1.316302e+00 7.861589e-01 7.352540e-01 6.067598e-01 4.611469e-01 4.166025e-01 4.028376e-01
<GCONST> 1.419609e+02
<STATE> 3
<MEAN> 39
 6.206111e+00 8.148317e-01 7.285141e-01 1.391169e-01 1.982917e+00 -6.895066e+00 -1.123424e+01 -6.751861e+00 -4.647349e+00 -2.658452e+00 -2.881185e+00 -4.730054e+00 6.220979e+01 2.889546e-01 -2.454650e-01 -2.154780e-01 5.491034e-01 4.353882e-01 -7.533097e-01 -1.108089e+00 -2.811714e-01 4.830646e-01 3.975010e-01 -4.747126e-03 -2.014456e-01 2.757015e-01 -3.709835e-01 -1.188139e-01 5.074596e-02 -1.049693e-01 -1.142857e-01 1.726467e-01 3.480781e-01 1.744806e-01 5.813451e-02 5.112335e-03 5.776265e-02 8.126380e-02 -2.077105e-01
<VARIANCE> 39
 7.443522e+01 6.599726e+01 6.930165e+01 1.186768e+02 8.569037e+01 8.097668e+01 1.194047e+02 7.628983e+01 5.085754e+01 6.177677e+01 4.080421e+01 4.002851e+01 4.250964e+01 4.042668e+00 3.678690e+00 4.277065e+00 4.401550e+00 3.409810e+00 4.997190e+00 5.407143e+00 3.695988e+00 2.717523e+00 2.548974e+00 1.966057e+00 2.182134e+00 1.716090e+00 5.442253e-01 7.258574e-01 6.270677e-01 7.179356e-01 5.865514e-01 7.219996e-01 9.685858e-01 6.047350e-01 5.610015e-01 4.740664e-01 4.015580e-01 3.722628e-01 2.074217e-01
<GCONST> 1.338322e+02
<STATE> 4
<MEAN> 39
 7.823411e+00 1.350768e+00 2.606766e+00 5.410871e+00 6.074672e+00 -1.041006e+01 -1.715536e+01 -8.732124e+00 -1.712439e+00 1.616564e-01 -3.511782e+00 -7.165446e+00 6.268000e+01 -4.961717e-01 2.217130e-01 4.231271e-01 -1.690514e-01 -1.089008e-01 4.946916e-01 6.521490e-01 1.630074e-01 -2.494436e-02 6.846152e-03 9.934711e-02 1.894117e-01 -3.405437e-01 -1.548433e-01 -6.005334e-03 2.744672e-02 -1.663824e-01 -1.183398e-01 1.960337e-01 2.753058e-01 6.621607e-02 -8.297288e-02 -6.372313e-02 5.877091e-02 1.174312e-01 -9.812900e-02
<VARIANCE> 39
 4.164348e+01 4.687659e+01 6.540255e+01 8.233252e+01 5.447713e+01 6.412180e+01 8.996188e+01 6.332697e+01 4.213422e+01 4.540816e+01 3.647755e+01 3.041584e+01 2.430244e+01 1.452201e+00 1.668697e+00 2.213516e+00 2.076353e+00 1.529461e+00 3.191280e+00 3.519329e+00 1.997571e+00 1.841627e+00 1.522526e+00 1.492344e+00 1.362427e+00 8.244473e-01 1.958257e-01 2.761343e-01 3.340803e-01 3.151047e-01 2.847772e-01 4.323829e-01 5.958114e-01 3.246115e-01 3.080109e-01 2.757432e-01 2.628753e-01 2.393434e-01 9.570450e-02
<GCONST> 1.134193e+02
<TRANSP> 5
 0.000000e+00 1.000000e+00 0.000000e+00 0.000000e+00 0.000000e+00
 0.000000e+00 5.635164e-01 4.364836e-01 0.000000e+00 0.000000e+00
 0.000000e+00 0.000000e+00 2.740146e-01 7.259855e-01 0.000000e+00
 0.000000e+00 0.000000e+00 0.000000e+00 7.936180e-01 2.063820e-01
 0.000000e+00 0.000000e+00 0.000000e+00 0.000000e+00 0.000000e+00
<ENDHMM>
~h "n"
<BEGINHMM>
<NUMSTATES> 5
<STATE> 2
<MEAN> 39
 5.519509e+00 1.014631e+00 -9.067960e-01 -3.435749e+00 -8.910280e-01 -5.827888e+00 -5.339984e+00 -2.270030e+00 -3.592936e+00 -3.212320e+00 -1.474356e+00 -1.555342e+00 6.091579e+01 -4.453195e-02 1.458888e-01 4.950307e-02 -2.667052e-01 -3.191691e-01 -5.586051e-02 2.872998e-01 2.913725e-01 6.854576e-02 -9.768745e-02 -7.013070e-02 2.363685e-02 -5.932765e-02 -1.299996e-01 -1.388815e-02 1.211356e-01 5.877367e-02 5.429961e-02 7.610507e-02 -2.102944e-02 -7.854764e-02 2.044602e-02 7.850158e-02 2.499002e-02 -3.244739e-02 -6.791148e-02
<VARIANCE> 39
 9.507463e+01 7.188956e+01 9.459880e+01 6.280206e+01 5.833591e+01 5.959468e+01 6.647843e+01 5.371207e+01 3.552985e+01 3.515346e+01 3.427671e+01 2.982566e+01 4.609431e+01 2.600561e+00 3.339767e+00 3.820156e+00 3.002753e+00 2.631422e+00 2.923679e+00 2.745292e+00 2.612893e+00 2.220808e+00 1.784792e+00 1.743080e+00 1.695020e+00 1.189804e+00 3.709660e-01 4.439754e-01 5.554753e-01 3.820470e-01 3.577308e-01 4.919837e-01 4.218252e-01 3.633125e-01 3.686515e-01 3.103059e-01 3.358926e-01 2.748738e-01 1.955672e-01
<GCONST> 1.215190e+02
<STATE> 3
<MEAN> 39
 4.927566e+00 1.562096e+00 1.092519e-01 -3.656778e+00 -1.544112e+00 -5.596087e+00 -4.717381e+00 -2.032829e+00 -3.465756e+00 -3.313784e+00 -1.804988e+00 -1.864163e+00 6.043667e+01 -2.627818e-01 1.051820e-01 2.602839e-01 -1.136336e-01 -1.572265e-01 5.507839e-02 1.065978e-01 8.095890e-02 1.485487e-01 9.951369e-02 2.110437e-03 2.383385e-03 -1.687510e-01 -1.193423e-01 -2.547586e-02 9.458774e-02 7.694218e-02 9.255831e-02 9.219925e-02 -4.353619e-02 -9.192622e-02 9.414092e-03 6.791946e-02 1.417926e-02 -2.185536e-02 -6.165422e-02
<VARIANCE> 39
 9.522083e+01 7.530480e+01 8.505121e+01 6.363272e+01 6.102237e+01 6.306110e+01 7.099287e+01 5.633762e+01 3.791765e+01 3.777774e+01 3.403146e+01 3.216624e+01 4.498693e+01 2.702173e+00 4.121034e+00 4.120377e+00 3.031728e+00 2.906037e+00 3.497956e+00 3.098234e+00 2.733449e+00 2.342059e+00 2.047227e+00 1.955016e+00 1.978495e+00 1.400887e+00 2.923728e-01 6.118909e-01 5.832118e-01 4.446702e-01 4.173788e-01 5.605208e-01 4.944999e-01 3.978663e-01 4.252286e-01 3.515051e-01 3.394415e-01 3.148832e-01 1.600966e-01
<GCONST> 1.243026e+02
<STATE> 4
<MEAN> 39
 5.023432e+00 3.236796e+00 3.310975e+00 -3.306787e+00 -2.726558e+00 -6.283633e+00 -3.786256e+00 -7.337584e-01 -3.247648e+00 -3.898194e+00 -2.537088e+00 -2.827654e+00 6.047867e+01 -3.675824e-01 -1.310004e-01 1.951393e-01 1.331325e-01 1.574657e-01 2.741110e-01 9.975135e-02 -1.663216e-01 -7.066082e-02 8.251926e-02 4.460050e-02 9.063613e-03 -1.875445e-01 -3.686785e-02 -5.123741e-02 -1.653857e-02 2.186630e-02 3.454489e-02 2.013289e-02 -1.389118e-02 -2.257780e-02 -1.526982e-02 2.723713e-03 -3.174369e-03 -4.134661e-03 -1.100104e-02
<VARIANCE> 39
 7.034118e+01 6.917670e+01 6.298162e+01 7.036012e+01 8.192632e+01 6.961536e+01 8.075546e+01 7.158361e+01 4.802623e+01 4.229064e+01 3.583614e+01 2.611849e+01 2.637365e+01 3.010028e+00 4.141626e+00 3.711706e+00 3.741274e+00 3.688327e+00 4.136886e+00 3.894777e+00 3.294408e+00 2.934172e+00 2.457016e+00 2.220938e+00 1.651711e+00 1.173069e+00 3.785187e-01 5.871524e-01 5.174125e-01 5.713143e-01 5.986776e-01 6.394488e-01 5.998098e-01 5.210226e-01 4.782562e-01 4.114157e-01 3.704803e-01 2.892178e-01 1.617573e-01
<GCONST> 1.269438e+02
<TRANSP> 5
 0.000000e+00 1.000000e+00 0.000000e+00 0.000000e+00 0.000000e+00
 0.000000e+00 3.146833e-01 6.853167e-01 0.000000e+00 0.000000e+00
 0.000000e+00 0.000000e+00 2.364790e-01 7.635210e-01 0.000000e+00
 0.000000e+00 0.000000e+00 0.000000e+00 7.509263e-01 2.490737e-01
 0.000000e+00 0.000000e+00 0.000000e+00 0.000000e+00 0.000000e+00
<ENDHMM>
~h "o"
<BEGINHMM>
<NUMSTATES> 5
<STATE> 2
<MEAN> 39
 5.247471e+00 1.040310e+00 -6.194969e-01 -2.960799e+00 -1.953607e-01 -4.971442e+00 -5.275320e+00 -2.800371e+00 -3.234122e+00 -2.546113e+00 -8.640025e-01 -1.472803e+00 6.079100e+01 -5.551755e-01 1.726672e-01 4.429275e-01 9.005319e-03 -2.521183e-01 3.105898e-01 7.232834e-01 4.494226e-01 -5.558530e-02 -2.704502e-01 -1.292793e-01 2.410570e-02 -4.124842e-01 -6.910448e-02 -2.208109e-02 6.488957e-02 6.334614e-02 1.696526e-02 -1.727512e-02 -6.508569e-02 -7.974314e-02 -2.736514e-02 3.813457e-02 -1.174418e-02 -3.893548e-02 -4.538894e-02
<VARIANCE> 39
 1.062547e+02 7.086022e+01 9.596318e+01 6.801321e+01 6.013342e+01 5.440190e+01 7.144317e+01 6.518103e+01 3.517048e+01 3.916016e+01 3.327639e+01 3.112739e+01 5.171677e+01 1.694914e+00 2.477579e+00 2.425391e+00 2.421775e+00 2.588032e+00 2.349019e+00 2.911404e+00 2.411888e+00 2.214257e+00 1.860103e+00 1.620489e+00 1.215540e+00 8.273155e-01 2.439519e-01 3.843264e-01 4.229625e-01 3.685537e-01 3.908468e-01 4.177811e-01 4.526376e-01 3.588287e-01 3.318790e-01 3.274499e-01 2.611496e-01 2.332447e-01 1.164470e-01
<GCONST> 1.178828e+02
<STATE> 3
<MEAN> 39
 2.568467e+00 -4.612572e-01 -5.572677e-03 -2.836988e+00 -1.231849e+00 -4.368877e+00 -3.692402e+00 -1.898143e+00 -3.759879e+00 -3.428159e+00 -1.426386e+00 -1.607963e+00 5.932249e+01 -4.806908e-01 9.573887e-02 3.636926e-01 1.399001e-01 -4.531499e-02 1.522417e-01 2.836732e-01 1.570395e-01 -6.292096e-02 -9.973709e-02 -1.106798e-01 -6.825817e-02 -3.629459e-01 7.267556e-02 -3.172526e-02 -4.973007e-02 2.571358e-02 8.069661e-02 -2.875637e-02 -1.418931e-01 -1.166591e-01 -1.369901e-02 8.583002e-02 3.459478e-02 -4.098946e-03 5.199529e-02
<VARIANCE> 39
 1.026007e+02 1.170240e+02 9.826031e+01 6.626897e+01 5.711051e+01 5.438942e+01 5.810925e+01 4.843481e+01 3.578170e+01 3.248475e+01 3.047922e+01 3.034599e+01 4.727267e+01 1.662475e+00 2.427206e+00 2.362659e+00 1.966816e+00 2.018521e+00 2.036643e+00 2.472768e+00 1.962255e+00 1.899299e+00 1.692164e+00 1.279980e+00 1.196970e+00 8.366302e-01 2.304963e-01 3.503725e-01 3.676467e-01 3.553716e-01 3.472372e-01 3.799589e-01 3.990830e-01 3.320085e-01 3.265130e-01 2.949101e-01 2.532514e-01 2.305600e-01 1.156731e-01
<GCONST> 1.149833e+02
<STATE> 4
<MEAN> 39
 1.736205e+00 2.564689e+00 3.065229e+00 -1.984221e+00 -6.514111e-01 -4.280343e+00 -4.039653e+00 -2.320187e+00 -2.566355e+00 -2.425404e+00 -2.407528e+00 -2.947082e+00 5.812419e+01 -4.169646e-01 -6.043785e-02 1.601648e-01 8.814608e-02 1.076856e-01 2.684951e-01 1.534115e-01 -4.138420e-02 -9.322783e-02 3.035601e-02 -8.398812e-03 -1.264266e-02 -2.926197e-01 1.157246e-01 -9.861004e-02 -1.405966e-01 -5.919942e-02 6.921661e-03 -4.601305e-02 -1.240119e-01 -1.122783e-01 -1.831874e-02 6.334987e-02 4.717365e-02 2.276519e-02 1.058301e-01
<VARIANCE> 39
 9.478313e+01 7.374027e+01 6.646073e+01 6.900629e+01 6.392168e+01 5.450594e+01 6.625654e+01 5.131997e+01 3.199809e+01 3.176825e+01 2.527259e+01 2.215816e+01 4.128855e+01 2.257689e+00 2.550454e+00 2.693496e+00 2.610247e+00 2.347452e+00 2.361747e+00 2.675500e+00 2.105877e+00 1.815234e+00 1.800690e+00 1.399523e+00 1.218017e+00 9.012831e-01 3.108395e-01 4.204273e-01 4.028161e-01 4.487114e-01 4.059537e-01 3.763923e-01 4.527403e-01 3.628922e-01 3.480228e-01 3.364517e-01 2.747741e-01 2.260258e-01 1.472730e-01
<GCONST> 1.167072e+02
<TRANSP> 5
 0.000000e+00 1.000000e+00 0.000000e+00 0.000000e+00 0.000000e+00
 0.000000e+00 3.675351e-01 6.324649e-01 0.000000e+00 0.000000e+00
 0.000000e+00 0.000000e+00 3.911383e-01 6.088617e-01 0.000000e+00
 0.000000e+00 0.000000e+00 0.000000e+00 4.897585e-01 5.102415e-01
 0.000000e+00 0.000000e+00 0.000000e+00 0.000000e+00 0.000000e+00
<ENDHMM>
~h "p"
<BEGINHMM>
<NUMSTATES> 5
<STATE> 2
<MEAN> 39
 -2.082558e+00 1.038242e+00 4.378670e+00 -1.155328e+00 -8.235275e-01 -2.889493e+00 -3.976751e+00 -4.038152e+00 -4.065457e+00 -2.100546e+00 -2.031579e+00 -2.511099e+00 5.576257e+01 7.495978e-02 -3.081021e-01 -2.218275e-01 -1.704869e-01 -1.608292e-01 1.014524e-01 1.457087e-01 -2.345294e-03 -5.293569e-02 2.318658e-03 4.992470e-02 2.901187e-02 1.339880e-01 4.960531e-01 -9.057988e-02 -1.492252e-01 -7.403887e-02 -8.230099e-03 -2.761854e-01 -2.803210e-01 -9.836453e-02 9.712835e-03 5.376333e-02 4.379309e-02 -5.892071e-02 4.230309e-01
<VARIANCE> 39
 8.879624e+01 6.939157e+01 5.110685e+01 6.459774e+01 5.310801e+01 4.517711e+01 4.429785e+01 3.736696e+01 2.451353e+01 2.822817e+01 2.292537e+01 1.995171e+01 3.731027e+01 5.378098e+00 6.488240e+00 5.123353e+00 4.752872e+00 4.746782e+00 4.677333e+00 3.951887e+00 3.337185e+00 2.838448e+00 2.753664e+00 2.781423e+00 1.983502e+00 2.249057e+00 7.746606e-01 9.823292e-01 7.412677e-01 8.152965e-01 7.587125e-01 8.493943e-01 7.090554e-01 7.190307e-01 5.517417e-01 5.024409e-01 4.984740e-01 3.867394e-01 4.215605e-01
<GCONST> 1.313006e+02
<STATE> 3
<MEAN> 39
 -2.063022e-01 7.131426e-01 3.016382e+00 -1.483510e+00 -6.627566e-01 -3.654020e+00 -4.942434e+00 -4.930754e+00 -4.049045e+00 -1.638696e+00 -1.926655e+00 -2.422694e+00 5.705133e+01 1.683082e+00 -3.300542e-01 -3.343929e-01 -1.821363e-01 -1.905432e-01 -1.019492e+00 -9.571187e-01 -3.394774e-01 2.338301e-03 8.230601e-02 -1.616202e-02 -2.599414e-01 1.471552e+00 2.380251e-01 -1.096987e-01 -4.209730e-02 -2.360664e-02 -3.036738e-02 -3.422535e-01 -2.876642e-01 2.312512e-02 3.889356e-02 -7.888116e-02 -2.869669e-02 -7.141493e-02 2.664653e-01
<VARIANCE> 39
 8.890247e+01 7.507477e+01 5.450306e+01 8.250706e+01 7.369450e+01 6.695524e+01 5.674863e+01 4.816416e+01 2.837943e+01 3.485894e+01 2.946456e+01 2.423378e+01 4.086734e+01 9.177243e+00 1.210236e+01 5.792892e+00 7.358481e+00 6.829085e+00 6.961224e+00 7.667158e+00 6.531049e+00 4.530699e+00 4.344357e+00 3.653270e+00 2.576775e+00 3.771469e+00 8.228674e-01 1.191015e+00 8.560752e-01 9.010504e-01 9.560035e-01 1.094774e+00 9.497185e-01 9.349256e-01 6.584327e-01 6.782804e-01 5.489019e-01 4.951647e-01 4.552057e-01
<GCONST> 1.420280e+02
<STATE> 4
<MEAN> 39
 4.385575e+00 -5.594671e+00 3.116455e+00 -2.720359e+00 7.887041e-01 -8.538775e+00 -6.029665e+00 -8.585207e-01 -6.503767e+00 -3.665453e+00 7.681276e-01 -4.898108e+00 6.549612e+01 1.294988e-01 -2.452656e-03 -7.449313e-02 -3.590145e-03 3.633411e-02 -9.400105e-02 -6.231795e-02 2.326861e-02 -4.777177e-02 -7.092582e-02 8.343551e-04 3.300763e-04 9.667154e-02 -5.498292e-02 4.327409e-02 6.767037e-03 -2.786198e-03 5.866177e-03 5.328757e-02 3.730350e-02 1.216668e-02 7.660570e-03 8.008357e-03 1.168422e-03 1.138829e-02 -6.913710e-02
<VARIANCE> 39
 1.356717e+02 8.797758e+01 1.126113e+02 1.025674e+02 8.486398e+01 8.230777e+01 1.081590e+02 1.033488e+02 6.135114e+01 6.187835e+01 4.581561e+01 4.111395e+01 4.085267e+01 7.829451e+00 6.526518e+00 6.233359e+00 5.635189e+00 4.296420e+00 7.099150e+00 6.288198e+00 5.898999e+00 4.844287e+00 4.103095e+00 3.430740e+00 3.048313e+00 3.212123e+00 9.491043e-01 1.147350e+00 8.874263e-01 8.999763e-01 7.073333e-01 1.211957e+00 1.039831e+00 9.534619e-01 8.490208e-01 7.377256e-01 6.314563e-01 5.528815e-01 5.418355e-01
<GCONST> 1.466775e+02
<TRANSP> 5
 0.000000e+00 1.000000e+00 0.000000e+00 0.000000e+00 0.000000e+00
 0.000000e+00 5.088361e-01 4.911639e-01 0.000000e+00 0.000000e+00
 0.000000e+00 0.000000e+00 4.934897e-01 5.065103e-01 0.000000e+00
 0.000000e+00 0.000000e+00 0.000000e+00 9.461426e-01 5.385736e-02
 0.000000e+00 0.000000e+00 0.000000e+00 0.000000e+00 0.000000e+00
<ENDHMM>
~h "r"
<BEGINHMM>
<NUMSTATES> 5
<STATE> 2
<MEAN> 39
 5.699353e+00 3.222018e+00 1.137642e+00 -3.613823e+00 -2.888958e+00 -8.030999e+00 -6.298944e+00 -2.444250e+00 -2.862506e+00 -3.485506e+00 -3.120115e+00 -3.651464e+00 6.054715e+01 -3.344802e-01 1.716857e-01 3.350661e-01 -1.570990e-01 -2.057815e-01 1.462379e-01 2.641905e-01 2.209930e-01 1.599937e-01 4.812462e-02 -8.696382e-02 -2.857917e-02 -2.503608e-01 -9.125780e-02 -4.716663e-02 4.880767e-02 9.969358e-02 1.088848e-01 1.327062e-01 5.576373e-03 -9.657100e-02 -5.920018e-02 6.182834e-02 7.140753e-02 3.550113e-02 -5.750132e-02
<VARIANCE> 39
 9.948559e+01 7.816924e+01 7.715263e+01 8.031873e+01 1.076927e+02 7.446038e+01 7.302094e+01 6.340316e+01 3.750385e+01 3.758007e+01 3.238784e+01 3.035292e+01 4.046385e+01 1.263227e+00 1.651129e+00 2.091799e+00 1.813234e+00 2.039087e+00 2.327607e+00 2.334886e+00 1.874408e+00 1.538975e+00 1.522187e+00 1.497342e+00 1.305905e+00 7.532021e-01 2.076210e-01 3.077690e-01 3.045825e-01 3.363970e-01 2.982944e-01 3.783080e-01 4.170030e-01 3.545489e-01 2.750306e-01 2.842734e-01 2.738667e-01 2.175584e-01 1.056585e-01
<GCONST> 1.142413e+02
<STATE> 3
<MEAN> 39
 3.362758e+00 2.940931e+00 2.346655e+00 -3.104690e+00 -1.918177e+00 -6.290711e+00 -5.382654e+00 -2.780203e+00 -2.686499e+00 -2.774452e+00 -3.134007e+00 -3.345943e+00 5.913640e+01 -4.646026e-01 -3.518927e-02 2.481928e-01 6.669466e-02 1.082777e-01 3.245765e-01 1.728056e-01 3.443785e-03 -6.712455e-03 8.503947e-02 1.859659e-02 3.236899e-02 -3.083676e-01 -8.436993e-03 -4.628243e-02 -3.258142e-02 6.470206e-02 9.357279e-02 8.347601e-02 -2.523788e-02 -1.041169e-01 -6.975317e-02 3.465908e-02 6.304815e-02 -4.457089e-03 -1.619468e-03
<VARIANCE> 39
 1.142422e+02 8.720193e+01 7.191278e+01 7.729510e+01 8.082186e+01 6.008345e+01 7.235787e+01 5.510740e+01 3.458987e+01 3.253706e+01 2.717686e+01 2.519066e+01 4.610206e+01 1.183555e+00 1.352889e+00 1.887961e+00 1.694264e+00 1.867863e+00 2.084097e+00 2.087994e+00 1.726982e+00 1.526106e+00 1.492429e+00 1.360447e+00 1.196618e+00 5.850476e-01 1.996459e-01 2.849335e-01 2.603399e-01 2.958833e-01 2.726448e-01 3.426401e-01 3.836262e-01 3.044363e-01 2.526573e-01 2.368560e-01 2.463153e-01 1.980052e-01 1.158686e-01
<GCONST> 1.107807e+02
<STATE> 4
<MEAN> 39
 2.074523e+00 1.209379e+00 2.541500e+00 -1.526425e+00 -5.217234e-01 -5.603852e+00 -6.146907e+00 -3.899444e+00 -2.664599e+00 -1.161437e+00 -2.258000e+00 -3.803757e+00 5.872734e+01 -4.168829e-01 -1.327993e-01 1.145970e-01 1.493514e-02 1.124248e-01 4.260699e-01 2.225842e-01 -1.041968e-01 -1.672059e-01 8.886759e-02 1.478058e-01 4.548478e-02 -2.565320e-01 4.998057e-02 -3.014906e-02 -7.853430e-02 4.005929e-03 2.728834e-02 2.186799e-02 -3.879588e-03 -2.961222e-02 -3.276147e-02 -3.086262e-02 4.024126e-02 1.985608e-02 3.054385e-02
<VARIANCE> 39
 1.149505e+02 9.490100e+01 6.812576e+01 7.646694e+01 8.267908e+01 5.578980e+01 9.098339e+01 5.368379e+01 3.532047e+01 3.921714e+01 2.794946e+01 2.555332e+01 4.597868e+01 2.219636e+00 2.242887e+00 2.134404e+00 2.379193e+00 2.495575e+00 2.331376e+00 3.018647e+00 2.465778e+00 2.164618e+00 1.912314e+00 1.371509e+00 1.416663e+00 8.763530e-01 3.478628e-01 3.824223e-01 3.335830e-01 3.797089e-01 3.537388e-01 3.946475e-01 5.044581e-01 3.774548e-01 3.588654e-01 3.056995e-01 2.835702e-01 2.240958e-01 1.887073e-01
<GCONST> 1.187027e+02
<TRANSP> 5
 0.000000e+00 1.000000e+00 0.000000e+00 0.000000e+00 0.000000e+00
 0.000000e+00 3.613339e-01 6.386660e-01 0.000000e+00 0.000000e+00
 0.000000e+00 0.000000e+00 3.529335e-01 6.470665e-01 0.000000e+00
 0.000000e+00 0.000000e+00 0.000000e+00 3.918891e-01 6.081109e-01
 0.000000e+00 0.000000e+00 0.000000e+00 0.000000e+00 0.000000e+00
<ENDHMM>
~h "s"
<BEGINHMM>
<NUMSTATES> 5
<STATE> 2
<MEAN> 39
 -1.522607e+00 -8.923640e-01 4.604762e+00 -9.969823e-01 1.007150e-01 -2.308179e+00 -3.742794e+00 -3.987360e+00 -4.202360e+00 -1.436476e+00 -1.486603e+00 -3.079899e+00 5.730074e+01 -3.513462e-01 -6.713917e-01 -3.462991e-02 -1.532911e-01 -2.837337e-01 -6.573689e-02 1.309648e-01 -3.165872e-02 -1.032936e-01 6.152178e-02 1.739052e-02 -8.521573e-02 5.239277e-02 2.879978e-01 -6.875304e-02 -1.876594e-01 -1.323100e-01 -5.747756e-02 -2.819230e-01 -2.653410e-01 -7.259753e-02 3.227158e-02 -8.392493e-03 5.949642e-03 1.528034e-02 2.511145e-01
<VARIANCE> 39
 8.887215e+01 8.210815e+01 8.048066e+01 7.409679e+01 6.073226e+01 5.665824e+01 6.695616e+01 4.422556e+01 3.284337e+01 3.657070e+01 2.638404e+01 2.394530e+01 4.238265e+01 5.805652e+00 6.570092e+00 6.178531e+00 5.327706e+00 4.414165e+00 4.951580e+00 4.917719e+00 3.292835e+00 3.039863e+00 2.977253e+00 2.475428e+00 2.309569e+00 2.387079e+00 7.199852e-01 1.008334e+00 8.818948e-01 7.978651e-01 7.498382e-01 8.423219e-01 8.673468e-01 5.839609e-01 5.037923e-01 5.466260e-01 4.148977e-01 3.605787e-01 4.109288e-01
<GCONST> 1.346197e+02
<STATE> 3
<MEAN> 39
 -1.400877e-01 -3.729047e+00 3.254269e+00 -3.109513e+00 -3.359658e-02 -5.392348e+00 -5.518085e+00 -4.673966e+00 -4.425282e+00 -1.704699e+00 -1.580829e+00 -3.341657e+00 6.083856e+01 7.864777e-01 -9.609520e-03 -4.945173e-01 -2.293584e-01 1.550496e-03 -5.432657e-01 -5.456486e-01 -1.584597e-01 4.435398e-02 -8.342791e-02 5.593471e-03 8.997987e-02 5.845495e-01 1.078343e-01 1.332501e-01 -6.793614e-02 1.494204e-02 2.345319e-02 -3.708941e-02 -8.893523e-02 4.334759e-02 5.599284e-02 -2.799617e-02 -1.798191e-02 2.459209e-02 -1.020649e-02
<VARIANCE> 39
 1.138360e+02 9.873207e+01 1.082845e+02 1.052634e+02 6.905721e+01 7.264853e+01 8.006512e+01 5.434169e+01 4.338469e+01 4.058328e+01 3.407583e+01 2.956245e+01 5.113202e+01 9.603922e+00 8.536748e+00 7.545029e+00 6.950740e+00 4.345619e+00 6.024110e+00 6.509749e+00 4.658151e+00 3.917903e+00 3.439212e+00 3.094189e+00 2.543159e+00 3.812829e+00 1.063691e+00 1.260215e+00 1.197053e+00 1.088706e+00 7.147140e-01 1.022265e+00 1.013011e+00 7.578909e-01 6.741064e-01 6.229696e-01 5.816973e-01 4.547814e-01 5.488548e-01
<GCONST> 1.437950e+02
<STATE> 4
<MEAN> 39
 3.838606e+00 -2.228482e-01 1.148240e+00 -2.163891e+00 7.186751e-01 -6.362130e+00 -8.079261e+00 -4.590684e+00 -3.304102e+00 -2.041814e+00 -1.291638e+00 -2.318535e+00 6.092991e+01 2.343661e-01 -3.433736e-02 -3.895606e-01 -1.893867e-01 -1.054288e-01 -2.525809e-01 -1.408900e-01 1.322598e-01 1.813408e-01 -2.635068e-02 1.175614e-02 1.356134e-01 1.209793e-01 -1.353447e-01 -2.296032e-02 7.071514e-02 2.005888e-02 -8.005794e-03 1.192017e-01 1.260334e-01 3.905070e-02 -2.147902e-02 -1.734899e-02 -1.413795e-02 -4.490692e-03 -9.198907e-02
<VARIANCE> 39
 1.087174e+02 7.533286e+01 8.188935e+01 8.457213e+01 7.018420e+01 5.769796e+01 9.270208e+01 7.926791e+01 3.329069e+01 4.084450e+01 2.869553e+01 3.005961e+01 4.910440e+01 4.822578e+00 4.030200e+00 4.811034e+00 3.605117e+00 3.312727e+00 4.125860e+00 4.520731e+00 3.373198e+00 2.487153e+00 2.524904e+00 2.000778e+00 1.815498e+00 2.007983e+00 6.540918e-01 6.479266e-01 6.685289e-01 5.781967e-01 5.056251e-01 6.228201e-01 7.408044e-01 5.884997e-01 4.256330e-01 4.373515e-01 3.670127e-01 3.334286e-01 2.882997e-01
<GCONST> 1.307724e+02
<TRANSP> 5
 0.000000e+00 1.000000e+00 0.000000e+00 0.000000e+00 0.000000e+00
 0.000000e+00 4.945110e-01 5.054890e-01 0.000000e+00 0.000000e+00
 0.000000e+00 0.000000e+00 6.177089e-01 3.822911e-01 0.000000e+00
 0.000000e+00 0.000000e+00 0.000000e+00 4.903501e-01 5.096499e-01
 0.000000e+00 0.000000e+00 0.000000e+00 0.000000e+00 0.000000e+00
<ENDHMM>
~h "t"
<BEGINHMM>
<NUMSTATES> 5
<STATE> 2
<MEAN> 39
 4.364291e+00 1.466566e+00 1.402456e+00 -2.447707e+00 -1.443997e+00 -5.949350e+00 -4.665301e+00 -1.762996e+00 -3.097363e+00 -2.912681e+00 -2.194042e+00 -2.615810e+00 6.023503e+01 -4.581318e-01 1.111869e-01 2.659320e-01 -6.668763e-02 -6.047397e-02 1.283733e-01 3.366597e-01 3.104552e-01 1.689521e-01 -5.061062e-02 -7.194656e-02 1.373567e-02 -3.050573e-01 -8.498549e-02 -2.060428e-02 5.304832e-02 8.425337e-02 1.063409e-01 1.066539e-01 -3.127439e-02 -1.109019e-01 -3.099757e-02 3.596452e-02 -1.919228e-02 -7.205391e-03 -6.061298e-02
<VARIANCE> 39
 9.979642e+01 9.566735e+01 8.504547e+01 7.529620e+01 7.107453e+01 6.431760e+01 7.068267e+01 6.318378e+01 3.804436e+01 4.492040e+01 3.178331e+01 2.703017e+01 4.323818e+01 1.256819e+00 1.769351e+00 2.116146e+00 2.095366e+00 2.220411e+00 2.286336e+00 2.049169e+00 1.956874e+00 1.815975e+00 1.603211e+00 1.377715e+00 1.046140e+00 7.438133e-01 2.270486e-01 3.319744e-01 3.246542e-01 3.081385e-01 3.578946e-01 4.266254e-01 4.258429e-01 3.466820e-01 3.211431e-01 2.978125e-01 2.666462e-01 2.086758e-01 1.059446e-01
<GCONST> 1.146833e+02
<STATE> 3
<MEAN> 39
 3.514224e+00 1.969886e+00 2.238166e+00 -2.343444e+00 -1.213453e+00 -5.178452e+00 -3.975234e+00 -1.578328e+00 -2.914575e+00 -2.927801e+00 -2.318121e+00 -2.598850e+00 5.957693e+01 -4.936752e-01 5.064773e-02 2.929572e-01 7.426897e-02 1.776343e-01 2.953942e-01 2.237613e-01 5.717342e-02 4.518260e-02 -4.639454e-02 -1.051664e-01 2.443725e-02 -3.240116e-01 9.529303e-03 -2.714162e-02 -1.452834e-02 6.322205e-02 7.861743e-02 5.333385e-02 -7.205157e-02 -1.062080e-01 -2.984370e-02 1.444708e-02 -2.738830e-02 -4.701277e-03 -6.227028e-04
<VARIANCE> 39
 9.819021e+01 9.304825e+01 8.073451e+01 7.464082e+01 6.717191e+01 6.131772e+01 6.409930e+01 5.459141e+01 3.702986e+01 3.831256e+01 3.055959e+01 2.684998e+01 4.237252e+01 9.897656e-01 1.682135e+00 1.688114e+00 1.589851e+00 1.911615e+00 2.057247e+00 1.890860e+00 1.637888e+00 1.361702e+00 1.413311e+00 1.107848e+00 8.251054e-01 5.776828e-01 1.696803e-01 1.916941e-01 2.938638e-01 2.594852e-01 3.089232e-01 3.685997e-01 3.385809e-01 2.972485e-01 2.934818e-01 2.423541e-01 2.517890e-01 1.787568e-01 7.576673e-02
<GCONST> 1.089190e+02
<STATE> 4
<MEAN> 39
 5.774942e-01 2.637781e+00 3.899027e+00 -1.413267e+00 -8.523184e-02 -3.375401e+00 -3.316019e+00 -2.316085e+00 -3.399856e+00 -3.267395e+00 -3.129117e+00 -2.321359e+00 5.720174e+01 -3.832660e-01 -1.309677e-01 8.170220e-02 7.064986e-02 1.093533e-01 2.140392e-01 7.182170e-02 -8.800067e-02 -7.565180e-04 6.223514e-03 -9.067020e-02 2.913252e-02 -2.249927e-01 7.045519e-02 -1.405025e-02 -3.497613e-02 1.494820e-02 7.819335e-03 2.120745e-03 -3.537443e-02 -4.689184e-02 -1.833584e-02 2.251937e-02 1.287118e-02 -5.479390e-03 4.227786e-02
<VARIANCE> 39
 8.822633e+01 6.339123e+01 6.371032e+01 5.760140e+01 4.777980e+01 4.615742e+01 5.058437e+01 3.985396e+01 2.871266e+01 3.112119e+01 2.372867e+01 2.287913e+01 4.086643e+01 1.033342e+00 1.198465e+00 1.509542e+00 1.535341e+00 1.660796e+00 1.932788e+00 1.812847e+00 1.540605e+00 1.311771e+00 1.206142e+00 1.138858e+00 9.369702e-01 4.523476e-01 1.931634e-01 1.872613e-01 2.885878e-01 2.555406e-01 2.546169e-01 3.156660e-01 3.250815e-01 2.703016e-01 2.738285e-01 2.316451e-01 2.276862e-01 1.947809e-01 8.868757e-02
<GCONST> 1.044268e+02
<TRANSP> 5
 0.000000e+00 1.000000e+00 0.000000e+00 0.000000e+00 0.000000e+00
 0.000000e+00 2.310491e-01 7.689509e-01 0.000000e+00 0.000000e+00
 0.000000e+00 0.000000e+00 3.039779e-01 6.960221e-01 0.000000e+00
 0.000000e+00 0.000000e+00 0.000000e+00 6.126761e-01 3.873239e-01
 0.000000e+00 0.000000e+00 0.000000e+00 0.000000e+00 0.000000e+00
<ENDHMM>
~h "u"
<BEGINHMM>
<NUMSTATES> 5
<STATE> 2
<MEAN> 39
 -3.353270e+00 -1.926307e+00 4.633170e+00 -2.610194e+00 -9.635858e-02 -2.070804e+00 -4.647468e+00 -3.902399e+00 -3.391546e+00 -1.819390e+00 -1.953395e+00 -2.027173e+00 5.664532e+01 1.330173e-01 -5.290103e-01 -5.876616e-02 -3.592938e-01 -1.874953e-01 3.310140e-01 -1.680108e-01 -2.586849e-01 -1.373644e-01 1.581015e-01 -1.549636e-01 -6.110925e-02 3.042302e-01 5.090975e-01 1.211683e-02 -1.520567e-01 -1.080262e-01 -6.561872e-02 -3.076975e-01 -2.532206e-01 -1.252149e-01 -1.547204e-02 2.235355e-02 -1.557454e-02 -1.040206e-01 4.164625e-01
<VARIANCE> 39
 9.567592e+01 7.059954e+01 8.316156e+01 6.885545e+01 4.964211e+01 4.879071e+01 5.935256e+01 3.817042e+01 3.072108e+01 3.465020e+01 2.813980e+01 2.292592e+01 4.247450e+01 8.949896e+00 7.284370e+00 8.442671e+00 6.111507e+00 4.100526e+00 5.379919e+00 4.675775e+00 3.567868e+00 2.943365e+00 3.024140e+00 2.687425e+00 2.241072e+00 3.187029e+00 1.203508e+00 1.121445e+00 9.878232e-01 1.102931e+00 5.963424e-01 7.920089e-01 7.847874e-01 5.984349e-01 5.123559e-01 6.148663e-01 4.791153e-01 3.806537e-01 5.819433e-01
<GCONST> 1.365059e+02
<STATE> 3
<MEAN> 39
 -2.793322e+00 -6.093307e+00 3.629315e+00 -5.653150e+00 -3.810643e+00 -6.212043e+00 -6.869291e+00 -4.658335e+00 -4.197459e+00 -3.349477e+00 -3.806706e+00 -3.103113e+00 6.128960e+01 1.007898e+00 2.241726e-01 -4.306419e-01 4.888405e-02 -7.833450e-02 -5.161501e-01 -4.212713e-01 -1.032684e-01 -5.941407e-02 -1.941166e-01 -6.184320e-02 -5.536740e-02 5.659707e-01 1.652041e-01 1.380677e-01 -1.323720e-01 6.936653e-02 4.797455e-02 -1.566735e-01 -7.652850e-02 9.131254e-02 6.670924e-02 -5.261569e-02 2.138384e-02 1.541518e-02 2.773656e-02
<VARIANCE> 39
 1.179873e+02 9.341106e+01 1.656011e+02 1.109318e+02 6.247827e+01 1.418437e+02 8.146966e+01 5.772634e+01 5.155950e+01 5.980264e+01 4.490268e+01 4.105651e+01 4.091462e+01 1.376691e+01 9.104992e+00 1.123424e+01 9.181893e+00 4.302957e+00 8.760083e+00 6.208763e+00 4.794635e+00 4.316905e+00 5.205105e+00 3.373658e+00 2.986043e+00 4.508266e+00 1.547771e+00 1.451309e+00 1.548156e+00 1.204893e+00 7.192721e-01 1.635332e+00 9.611723e-01 7.924414e-01 8.798103e-01 8.710760e-01 6.510092e-01 5.189450e-01 6.568776e-01
<GCONST> 1.505831e+02
<STATE> 4
<MEAN> 39
 2.957396e+00 -4.960222e+00 7.002925e-01 -1.800474e+00 3.617138e+00 -9.196954e+00 -1.383987e+01 -6.472200e+00 -2.406103e+00 -1.119194e+00 -2.579770e+00 -3.357940e+00 6.324447e+01 4.954254e-01 1.671410e-01 -3.882912e-01 -6.787665e-02 -1.035796e-02 -3.678423e-01 -1.294719e-01 2.223719e-01 9.538056e-02 -7.060283e-02 5.282290e-02 6.632945e-02 2.377696e-01 -2.921152e-01 -8.862389e-02 3.249904e-02 -5.114730e-02 -5.522541e-02 1.642416e-01 2.867038e-01 1.586409e-01 1.265744e-02 -9.393289e-03 1.702441e-02 5.562801e-02 -1.792469e-01
<VARIANCE> 39
 1.425068e+02 8.108372e+01 1.192609e+02 1.625880e+02 9.110462e+01 7.995143e+01 9.869022e+01 6.792798e+01 3.915198e+01 4.179582e+01 5.009621e+01 3.792662e+01 3.894390e+01 9.140377e+00 5.012010e+00 7.127009e+00 7.096315e+00 3.201324e+00 6.027812e+00 6.721337e+00 3.691781e+00 2.929890e+00 3.418548e+00 3.138535e+00 2.438146e+00 3.442011e+00 1.207134e+00 9.294863e-01 9.519758e-01 1.119576e+00 5.821255e-01 1.019440e+00 1.094584e+00 7.092046e-01 5.584137e-01 6.248640e-01 5.627661e-01 4.635209e-01 5.554006e-01
<GCONST> 1.431341e+02
<TRANSP> 5
 0.000000e+00 1.000000e+00 0.000000e+00 0.000000e+00 0.000000e+00
 0.000000e+00 4.744112e-01 5.255888e-01 0.000000e+00 0.000000e+00
 0.000000e+00 0.000000e+00 7.927042e-01 2.072958e-01 0.000000e+00
 0.000000e+00 0.000000e+00 0.000000e+00 7.714501e-01 2.285499e-01
 0.000000e+00 0.000000e+00 0.000000e+00 0.000000e+00 0.000000e+00
<ENDHMM>
~h "w"
<BEGINHMM>
<NUMSTATES> 5
<STATE> 2
<MEAN> 39
 4.379366e+00 1.729589e+00 6.040084e+00 4.184584e+00 3.634912e+00 -6.453612e+00 -1.091985e+01 -7.489289e+00 -1.686820e+00 -1.308776e+00 -4.372605e+00 -5.473172e+00 6.089141e+01 -6.200002e-01 3.407513e-02 4.232085e-01 2.211069e-02 -2.879896e-02 2.751477e-01 5.744019e-01 5.100910e-01 1.858877e-01 -2.198174e-01 -5.620342e-01 -3.433300e-01 -3.676569e-01 -6.623598e-03 7.424791e-02 -8.181257e-02 -1.537571e-01 -2.981901e-02 1.562325e-01 1.782234e-01 -4.518203e-02 -1.591336e-01 -8.234131e-02 1.075489e-01 2.375315e-01 -4.898943e-02
<VARIANCE> 39
 4.748170e+01 7.120365e+01 1.396481e+02 1.162826e+02 5.882850e+01 2.982690e+01 6.720596e+01 4.370528e+01 3.040074e+01 2.313859e+01 4.250881e+01 1.327386e+01 1.464947e+01 5.439422e-01 9.462423e-01 1.471632e+00 1.879787e+00 9.063847e-01 2.247139e+00 1.881205e+00 1.484493e+00 1.057107e+00 1.450716e+00 1.872482e+00 8.466129e-01 2.510374e-01 1.496604e-01 2.155824e-01 2.009609e-01 2.744284e-01 2.112976e-01 2.092672e-01 2.925691e-01 1.995891e-01 2.011576e-01 2.280332e-01 2.553626e-01 1.851613e-01 4.614490e-02
<GCONST> 1.006271e+02
<STATE> 3
<MEAN> 39
 2.413830e+00 -4.499194e-01 1.918285e+00 -3.554110e+00 2.998183e-01 -2.455009e+00 -5.527271e+00 -3.559968e+00 -7.097001e-01 -2.353120e+00 -3.874544e+00 -3.853654e+00 5.995409e+01 -8.593090e-01 -2.466700e-01 -6.785277e-02 -8.813670e-01 -5.175442e-01 5.025508e-01 1.072579e+00 2.805092e-01 -8.644060e-01 -7.502680e-01 2.702920e-01 6.699789e-01 -4.867119e-01 7.539663e-02 6.150053e-02 -4.260237e-02 6.093508e-02 -1.330693e-02 -1.253787e-01 -7.902571e-02 -8.690338e-02 -1.639598e-01 -1.141750e-01 -5.320286e-02 1.409886e-01 1.199756e-03
<VARIANCE> 39
 6.296875e+01 8.449054e+01 1.207019e+02 5.941827e+01 5.730613e+01 2.571654e+01 6.454948e+01 4.058561e+01 3.000114e+01 3.312613e+01 3.365900e+01 2.054856e+01 1.536128e+01 1.185010e+00 2.179372e+00 1.570354e+00 3.269720e+00 1.878741e+00 1.825134e+00 1.548728e+00 1.190639e+00 1.790143e+00 1.149122e+00 1.584367e+00 1.638975e+00 2.638792e-01 9.682585e-02 1.943287e-01 2.012461e-01 2.790833e-01 1.716676e-01 2.764635e-01 4.184862e-01 2.918420e-01 2.235643e-01 1.794851e-01 2.862426e-01 1.819209e-01 3.332089e-02
<GCONST> 1.036701e+02
<STATE> 4
<MEAN> 39
 -5.495226e+00 -6.936192e+00 7.297959e+00 -2.953731e+00 -3.881044e+00 -2.271450e-01 -3.942909e-01 -1.723348e+00 -4.466104e+00 -3.358361e+00 3.740504e-01 -2.370617e+00 5.778014e+01 -3.398894e-01 2.564341e-02 -6.921771e-01 2.783119e-01 -7.830375e-02 -2.768629e-01 5.978851e-01 1.192849e-01 -4.653341e-01 -2.273124e-01 5.568488e-02 9.233019e-02 -5.247813e-01 1.020238e-01 1.149343e-01 -1.261282e-01 6.255788e-02 3.967124e-02 -1.409983e-01 -2.099303e-01 -7.189764e-02 1.050693e-01 3.551258e-02 -8.157293e-02 -3.380616e-02 -2.009172e-02
<VARIANCE> 39
 7.583162e+01 1.537562e+02 9.773621e+01 3.775714e+01 8.037362e+01 1.738261e+01 7.379394e+01 2.608107e+01 3.242634e+01 2.355113e+01 1.808898e+01 1.156316e+01 1.547186e+01 5.537937e-01 1.065801e+00 1.015995e+00 1.623431e+00 1.204762e+00 1.395690e+00 1.758316e+00 1.263002e+00 1.089344e+00 1.220487e+00 7.897353e-01 5.971848e-01 2.999993e-01 5.791830e-02 1.915182e-01 1.471686e-01 2.190210e-01 1.667702e-01 1.403438e-01 4.751450e-01 1.856803e-01 2.552548e-01 2.775759e-01 1.443722e-01 1.414551e-01 5.077358e-02
<GCONST> 9.476184e+01
<TRANSP> 5
 0.000000e+00 1.000000e+00 0.000000e+00 0.000000e+00 0.000000e+00
 0.000000e+00 5.825949e-01 4.174051e-01 0.000000e+00 0.000000e+00
 0.000000e+00 0.000000e+00 4.274768e-01 5.725232e-01 0.000000e+00
 0.000000e+00 0.000000e+00 0.000000e+00 7.460057e-01 2.539943e-01
 0.000000e+00 0.000000e+00 0.000000e+00 0.000000e+00 0.000000e+00
<ENDHMM>
~h "x"
<BEGINHMM>
<NUMSTATES> 5
<STATE> 2
<MEAN> 39
 3.709548e+00 1.907564e+00 1.245543e+00 -1.716250e+00 3.125002e+00 -2.020760e+00 -6.389986e+00 -6.407115e+00 -3.683427e+00 -1.289429e+00 -1.666140e+00 -2.626620e+00 5.946404e+01 -6.407006e-01 -1.213441e-01 3.524461e-01 2.033720e-01 1.971759e-01 1.929768e-01 2.856585e-01 1.973536e-01 -8.374348e-02 -1.391331e-01 -4.053091e-02 3.689871e-02 -3.639107e-01 9.898865e-02 -6.215227e-02 -1.613283e-01 -9.584935e-02 -9.459266e-02 -1.668899e-01 -1.274441e-01 6.898926e-02 7.197927e-02 1.025660e-02 6.627908e-02 4.168867e-02 7.778118e-02
<VARIANCE> 39
 8.367663e+01 4.841128e+01 5.030492e+01 4.335419e+01 5.195446e+01 6.394743e+01 8.451748e+01 4.291208e+01 2.463549e+01 2.720605e+01 2.210001e+01 1.322323e+01 3.399053e+01 2.860334e+00 1.330927e+00 2.577997e+00 2.320704e+00 2.325181e+00 3.630534e+00 3.948915e+00 2.042535e+00 1.124285e+00 2.282081e+00 1.218620e+00 1.050957e+00 1.351818e+00 6.538925e-01 2.334489e-01 4.365000e-01 2.769729e-01 4.233761e-01 5.381870e-01 1.049718e+00 4.494087e-01 2.417434e-01 3.423770e-01 2.017018e-01 1.890318e-01 2.781704e-01
<GCONST> 1.152640e+02
<STATE> 3
<MEAN> 39
 1.345309e+00 -1.911845e-01 1.939379e+00 -1.469947e+00 1.778256e+00 -4.269562e+00 -8.384249e+00 -6.557294e+00 -4.211393e+00 -1.057956e+00 -1.177629e+00 -2.588588e+00 5.863754e+01 4.255685e-01 -5.202660e-01 -7.642235e-01 -1.484393e-01 1.607683e-01 -8.262721e-01 -1.211895e+00 -7.176483e-02 3.314053e-01 5.938869e-02 8.902772e-03 -1.295657e-01 4.210019e-01 7.470179e-02 -3.956969e-02 -1.173805e-01 1.311293e-01 -1.828379e-02 -1.153156e-01 -4.663799e-02 9.659602e-02 1.782406e-01 -5.792558e-02 -3.888827e-02 5.753780e-03 2.840463e-02
<VARIANCE> 39
 1.046784e+02 5.593939e+01 5.768814e+01 7.565777e+01 5.352061e+01 6.733298e+01 9.704844e+01 4.142061e+01 2.312681e+01 2.445187e+01 2.237815e+01 1.175887e+01 5.015968e+01 2.463231e+00 1.515959e+00 2.605751e+00 3.180486e+00 1.738137e+00 3.042254e+00 6.475287e+00 2.276939e+00 1.601981e+00 2.114113e+00 1.272419e+00 1.093317e+00 1.327242e+00 2.933959e-01 1.633366e-01 3.692233e-01 4.988234e-01 3.938829e-01 4.689702e-01 7.614000e-01 2.998866e-01 2.595327e-01 3.198156e-01 2.518184e-01 1.347938e-01 1.634329e-01
<GCONST> 1.150904e+02
<STATE> 4
<MEAN> 39
 1.049093e+01 -2.243135e-01 -3.653484e+00 1.458970e+00 5.863387e+00 -9.792684e+00 -1.627322e+01 -1.014606e+01 -2.917398e+00 8.497796e-01 9.085522e-01 -2.509921e+00 6.436818e+01 -1.980733e-01 2.683944e-01 2.399144e-01 -7.575324e-02 2.177576e-02 3.294378e-01 3.704006e-01 8.631098e-02 6.586862e-02 6.902966e-02 5.688566e-02 -8.936713e-03 -1.914715e-01 -1.112065e-01 9.268872e-02 1.529680e-01 -1.134711e-02 -3.294040e-02 1.623148e-01 2.051928e-01 4.711694e-02 -4.275884e-02 -2.573300e-02 -3.261869e-02 -5.163970e-03 -9.238575e-02
<VARIANCE> 39
 3.752009e+01 2.790413e+01 4.886784e+01 7.210867e+01 3.320409e+01 5.187986e+01 5.382070e+01 3.862042e+01 2.870992e+01 2.474845e+01 2.964975e+01 1.675056e+01 2.068662e+01 9.119431e-01 1.183886e+00 2.979356e+00 2.138130e+00 1.044211e+00 1.914900e+00 2.369152e+00 1.276714e+00 1.210456e+00 1.282532e+00 1.245555e+00 9.715738e-01 5.811982e-01 1.336230e-01 1.600073e-01 3.452121e-01 2.672426e-01 1.495696e-01 2.652903e-01 3.493401e-01 1.841445e-01 1.936541e-01 2.030850e-01 2.178190e-01 1.439149e-01 7.974885e-02
<GCONST> 1.000821e+02
<TRANSP> 5
 0.000000e+00 1.000000e+00 0.000000e+00 0.000000e+00 0.000000e+00
 0.000000e+00 5.178207e-01 4.821793e-01 0.000000e+00 0.000000e+00
 0.000000e+00 0.000000e+00 3.079886e-01 6.920114e-01 0.000000e+00
 0.000000e+00 0.000000e+00 0.000000e+00 8.612370e-01 1.387630e-01
 0.000000e+00 0.000000e+00 0.000000e+00 0.000000e+00 0.000000e+00
<ENDHMM>
~h "en"
<BEGINHMM>
<NUMSTATES> 5
<STATE> 2
<MEAN> 39
 -4.314049e-01 -5.443133e-01 7.105690e-01 -1.882667e+00 -3.413527e-01 -4.598181e+00 -6.314186e+00 -3.848403e+00 -3.601575e+00 -2.169887e+00 -1.884693e+00 -2.491360e+00 5.700534e+01 -2.864336e-03 -3.153083e-03 -6.210326e-04 -1.859146e-03 -1.025149e-03 4.018572e-05 -4.212186e-04 -9.370550e-04 -1.112693e-03 -1.571401e-03 -1.379302e-03 -1.582626e-03 3.459415e-04 -2.076533e-04 1.121370e-04 -6.082775e-04 5.937807e-05 7.690147e-05 -5.380236e-05 9.022583e-05 2.522134e-04 1.281000e-04 2.276354e-04 9.980684e-05 1.737125e-04 -8.036671e-04
<VARIANCE> 39
 1.333756e+02 6.639448e+01 7.486684e+01 6.636140e+01 5.702890e+01 5.689030e+01 7.521648e+01 5.588811e+01 3.375542e+01 3.396556e+01 2.727465e+01 2.558422e+01 7.908179e+01 3.510822e+00 2.990041e+00 3.288318e+00 2.986253e+00 2.462860e+00 3.071138e+00 3.491724e+00 2.597442e+00 2.153173e+00 2.003538e+00 1.724022e+00 1.500141e+00 1.490820e+00 4.316568e-01 4.629386e-01 4.683719e-01 4.500415e-01 3.964934e-01 5.051396e-01 5.511611e-01 4.319685e-01 3.792876e-01 3.504571e-01 3.135985e-01 2.653124e-01 2.156326e-01
<GCONST> 1.230944e+02
<STATE> 3
<MEAN> 39
 -4.314049e-01 -5.443133e-01 7.105690e-01 -1.882667e+00 -3.413527e-01 -4.598181e+00 -6.314186e+00 -3.848403e+00 -3.601575e+00 -2.169887e+00 -1.884693e+00 -2.491360e+00 5.700534e+01 -2.864336e-03 -3.153083e-03 -6.210326e-04 -1.859146e-03 -1.025149e-03 4.018572e-05 -4.212186e-04 -9.370550e-04 -1.112693e-03 -1.571401e-03 -1.379302e-03 -1.582626e-03 3.459415e-04 -2.076533e-04 1.121370e-04 -6.082775e-04 5.937807e-05 7.690147e-05 -5.380236e-05 9.022583e-05 2.522134e-04 1.281000e-04 2.276354e-04 9.980684e-05 1.737125e-04 -8.036671e-04
<VARIANCE> 39
 1.333756e+02 6.639448e+01 7.486684e+01 6.636140e+01 5.702890e+01 5.689030e+01 7.521648e+01 5.588811e+01 3.375542e+01 3.396556e+01 2.727465e+01 2.558422e+01 7.908179e+01 3.510822e+00 2.990041e+00 3.288318e+00 2.986253e+00 2.462860e+00 3.071138e+00 3.491724e+00 2.597442e+00 2.153173e+00 2.003538e+00 1.724022e+00 1.500141e+00 1.490820e+00 4.316568e-01 4.629386e-01 4.683719e-01 4.500415e-01 3.964934e-01 5.051396e-01 5.511611e-01 4.319685e-01 3.792876e-01 3.504571e-01 3.135985e-01 2.653124e-01 2.156326e-01
<GCONST> 1.230944e+02
<STATE> 4
<MEAN> 39
 -4.314049e-01 -5.443133e-01 7.105690e-01 -1.882667e+00 -3.413527e-01 -4.598181e+00 -6.314186e+00 -3.848403e+00 -3.601575e+00 -2.169887e+00 -1.884693e+00 -2.491360e+00 5.700534e+01 -2.864336e-03 -3.153083e-03 -6.210326e-04 -1.859146e-03 -1.025149e-03 4.018572e-05 -4.212186e-04 -9.370550e-04 -1.112693e-03 -1.571401e-03 -1.379302e-03 -1.582626e-03 3.459415e-04 -2.076533e-04 1.121370e-04 -6.082775e-04 5.937807e-05 7.690147e-05 -5.380236e-05 9.022583e-05 2.522134e-04 1.281000e-04 2.276354e-04 9.980684e-05 1.737125e-04 -8.036671e-04
<VARIANCE> 39
 1.333756e+02 6.639448e+01 7.486684e+01 6.636140e+01 5.702890e+01 5.689030e+01 7.521648e+01 5.588811e+01 3.375542e+01 3.396556e+01 2.727465e+01 2.558422e+01 7.908179e+01 3.510822e+00 2.990041e+00 3.288318e+00 2.986253e+00 2.462860e+00 3.071138e+00 3.491724e+00 2.597442e+00 2.153173e+00 2.003538e+00 1.724022e+00 1.500141e+00 1.490820e+00 4.316568e-01 4.629386e-01 4.683719e-01 4.500415e-01 3.964934e-01 5.051396e-01 5.511611e-01 4.319685e-01 3.792876e-01 3.504571e-01 3.135985e-01 2.653124e-01 2.156326e-01
<GCONST> 1.230944e+02
<TRANSP> 5
 0.000000e+00 1.000000e+00 0.000000e+00 0.000000e+00 0.000000e+00
 0.000000e+00 6.000000e-01 4.000000e-01 0.000000e+00 0.000000e+00
 0.000000e+00 0.000000e+00 6.000000e-01 4.000000e-01 0.000000e+00
 0.000000e+00 0.000000e+00 0.000000e+00 7.000000e-01 3.000000e-01
 0.000000e+00 0.000000e+00 0.000000e+00 0.000000e+00 0.000000e+00
<ENDHMM>
~h "js"
<BEGINHMM>
<NUMSTATES> 5
<STATE> 2
<MEAN> 39
 -4.314049e-01 -5.443133e-01 7.105690e-01 -1.882667e+00 -3.413527e-01 -4.598181e+00 -6.314186e+00 -3.848403e+00 -3.601575e+00 -2.169887e+00 -1.884693e+00 -2.491360e+00 5.700534e+01 -2.864336e-03 -3.153083e-03 -6.210326e-04 -1.859146e-03 -1.025149e-03 4.018572e-05 -4.212186e-04 -9.370550e-04 -1.112693e-03 -1.571401e-03 -1.379302e-03 -1.582626e-03 3.459415e-04 -2.076533e-04 1.121370e-04 -6.082775e-04 5.937807e-05 7.690147e-05 -5.380236e-05 9.022583e-05 2.522134e-04 1.281000e-04 2.276354e-04 9.980684e-05 1.737125e-04 -8.036671e-04
<VARIANCE> 39
 1.333756e+02 6.639448e+01 7.486684e+01 6.636140e+01 5.702890e+01 5.689030e+01 7.521648e+01 5.588811e+01 3.375542e+01 3.396556e+01 2.727465e+01 2.558422e+01 7.908179e+01 3.510822e+00 2.990041e+00 3.288318e+00 2.986253e+00 2.462860e+00 3.071138e+00 3.491724e+00 2.597442e+00 2.153173e+00 2.003538e+00 1.724022e+00 1.500141e+00 1.490820e+00 4.316568e-01 4.629386e-01 4.683719e-01 4.500415e-01 3.964934e-01 5.051396e-01 5.511611e-01 4.319685e-01 3.792876e-01 3.504571e-01 3.135985e-01 2.653124e-01 2.156326e-01
<GCONST> 1.230944e+02
<STATE> 3
<MEAN> 39
 -4.314049e-01 -5.443133e-01 7.105690e-01 -1.882667e+00 -3.413527e-01 -4.598181e+00 -6.314186e+00 -3.848403e+00 -3.601575e+00 -2.169887e+00 -1.884693e+00 -2.491360e+00 5.700534e+01 -2.864336e-03 -3.153083e-03 -6.210326e-04 -1.859146e-03 -1.025149e-03 4.018572e-05 -4.212186e-04 -9.370550e-04 -1.112693e-03 -1.571401e-03 -1.379302e-03 -1.582626e-03 3.459415e-04 -2.076533e-04 1.121370e-04 -6.082775e-04 5.937807e-05 7.690147e-05 -5.380236e-05 9.022583e-05 2.522134e-04 1.281000e-04 2.276354e-04 9.980684e-05 1.737125e-04 -8.036671e-04
<VARIANCE> 39
 1.333756e+02 6.639448e+01 7.486684e+01 6.636140e+01 5.702890e+01 5.689030e+01 7.521648e+01 5.588811e+01 3.375542e+01 3.396556e+01 2.727465e+01 2.558422e+01 7.908179e+01 3.510822e+00 2.990041e+00 3.288318e+00 2.986253e+00 2.462860e+00 3.071138e+00 3.491724e+00 2.597442e+00 2.153173e+00 2.003538e+00 1.724022e+00 1.500141e+00 1.490820e+00 4.316568e-01 4.629386e-01 4.683719e-01 4.500415e-01 3.964934e-01 5.051396e-01 5.511611e-01 4.319685e-01 3.792876e-01 3.504571e-01 3.135985e-01 2.653124e-01 2.156326e-01
<GCONST> 1.230944e+02
<STATE> 4
<MEAN> 39
 -4.314049e-01 -5.443133e-01 7.105690e-01 -1.882667e+00 -3.413527e-01 -4.598181e+00 -6.314186e+00 -3.848403e+00 -3.601575e+00 -2.169887e+00 -1.884693e+00 -2.491360e+00 5.700534e+01 -2.864336e-03 -3.153083e-03 -6.210326e-04 -1.859146e-03 -1.025149e-03 4.018572e-05 -4.212186e-04 -9.370550e-04 -1.112693e-03 -1.571401e-03 -1.379302e-03 -1.582626e-03 3.459415e-04 -2.076533e-04 1.121370e-04 -6.082775e-04 5.937807e-05 7.690147e-05 -5.380236e-05 9.022583e-05 2.522134e-04 1.281000e-04 2.276354e-04 9.980684e-05 1.737125e-04 -8.036671e-04
<VARIANCE> 39
 1.333756e+02 6.639448e+01 7.486684e+01 6.636140e+01 5.702890e+01 5.689030e+01 7.521648e+01 5.588811e+01 3.375542e+01 3.396556e+01 2.727465e+01 2.558422e+01 7.908179e+01 3.510822e+00 2.990041e+00 3.288318e+00 2.986253e+00 2.462860e+00 3.071138e+00 3.491724e+00 2.597442e+00 2.153173e+00 2.003538e+00 1.724022e+00 1.500141e+00 1.490820e+00 4.316568e-01 4.629386e-01 4.683719e-01 4.500415e-01 3.964934e-01 5.051396e-01 5.511611e-01 4.319685e-01 3.792876e-01 3.504571e-01 3.135985e-01 2.653124e-01 2.156326e-01
<GCONST> 1.230944e+02
<TRANSP> 5
 0.000000e+00 1.000000e+00 0.000000e+00 0.000000e+00 0.000000e+00
 0.000000e+00 6.000000e-01 4.000000e-01 0.000000e+00 0.000000e+00
 0.000000e+00 0.000000e+00 6.000000e-01 4.000000e-01 0.000000e+00
 0.000000e+00 0.000000e+00 0.000000e+00 7.000000e-01 3.000000e-01
 0.000000e+00 0.000000e+00 0.000000e+00 0.000000e+00 0.000000e+00
<ENDHMM>
~h "ks"
<BEGINHMM>
<NUMSTATES> 5
<STATE> 2
<MEAN> 39
 9.905083e+00 -1.746872e+00 -2.681973e+00 -2.410293e+00 -3.272943e+00 -1.250362e+01 -7.241075e+00 5.019340e+00 -7.813627e+00 -1.015704e+01 -4.167558e+00 -3.390171e+00 6.477522e+01 -3.432230e-01 2.069878e-01 3.337788e-01 -3.591464e-01 -1.007651e+00 -2.168591e-01 -2.930009e-02 7.348779e-01 7.065243e-01 2.268180e-03 3.502626e-01 -3.542159e-01 -2.711726e-01 -1.116920e-01 -1.193555e-01 8.967629e-02 -1.713698e-02 8.586361e-02 -1.909587e-02 -2.195371e-02 -1.532887e-01 -7.495643e-02 1.505174e-01 1.251426e-01 -1.692099e-01 3.287576e-02
<VARIANCE> 39
 9.194067e+01 4.759888e+01 5.685112e+01 4.917322e+01 3.515735e+01 1.058099e+02 1.843240e+01 3.079742e+01 7.307663e+01 1.081084e+02 3.122115e+01 1.727422e+01 3.626521e+01 1.063236e+00 2.092262e+00 1.759534e+00 2.413240e+00 2.605622e+00 3.255235e+00 1.559775e+00 2.541678e+00 1.474165e+00 2.462743e+00 1.902407e+00 7.626513e-01 7.802945e-01 1.314871e-01 5.752898e-01 2.252140e-01 2.814444e-01 5.716509e-01 5.510769e-01 2.656095e-01 2.428025e-01 4.128513e-01 5.579325e-01 4.762158e-01 1.473915e-01 2.969611e-01
<GCONST> 1.140146e+02
<STATE> 3
<MEAN> 39
 8.664656e-02 -1.042391e+00 3.974056e+00 -4.096924e+00 -3.929814e+00 -3.683276e+00 -6.475298e+00 2.664129e+00 -1.984755e-01 -2.372514e+00 -3.546494e-01 -2.803205e+00 5.945077e+01 -7.148036e-01 -5.175207e-01 1.752079e-03 2.948928e-01 -3.539276e-01 4.485118e-02 3.449365e-01 -2.081223e-02 -2.817741e-01 -2.193158e-01 5.980624e-01 -6.008217e-01 -3.903846e-01 1.434935e-01 -1.268571e-01 1.392755e-01 3.249476e-02 -1.893993e-02 -2.919109e-01 2.721748e-01 -3.157249e-01 -4.611387e-01 -3.143498e-02 7.313814e-03 1.049442e-01 2.218218e-01
<VARIANCE> 39
 1.297682e+02 5.435418e+01 4.192767e+01 5.544883e+01 4.139509e+01 1.015350e+02 3.220362e+01 6.944997e+01 3.365660e+01 6.286240e+01 2.835264e+01 2.837320e+01 5.900998e+01 1.720861e+00 2.012631e+00 3.655455e+00 4.118120e+00 7.047071e-01 8.142713e-01 7.338910e-01 1.156885e+00 2.335421e+00 2.286941e+00 1.906590e+00 8.209487e-01 3.092100e-01 2.360309e-01 3.258804e-01 2.147436e-01 4.210535e-01 4.546578e-01 6.453226e-01 6.333609e-01 4.997859e-01 2.903054e-01 3.695776e-01 1.967467e-01 1.772831e-01 7.342730e-01
<GCONST> 1.137139e+02
<STATE> 4
<MEAN> 39
 1.736247e+00 -5.843964e+00 2.448743e+00 -1.140738e+01 -3.307354e+00 -7.622139e+00 -5.613984e+00 6.967237e+00 -2.043958e+00 -6.106350e+00 9.347987e-02 6.145363e-01 6.439801e+01 1.914289e-01 6.681427e-01 7.516322e-02 -1.576209e-02 -3.505684e-01 -3.657686e-01 4.124830e-01 3.122875e-01 -9.896690e-02 -1.386470e-01 -1.604858e-01 -1.592416e-01 -1.758634e-01 -8.770793e-02 1.023317e-01 -1.061052e-03 -5.923109e-03 1.234552e-01 1.966398e-01 2.154768e-02 -7.960722e-02 1.251351e-01 5.767386e-02 -1.268532e-01 8.393816e-02 -1.125307e-01
<VARIANCE> 39
 1.964902e+02 8.202865e+01 1.135696e+02 5.587628e+01 8.983156e+01 5.673673e+01 3.223898e+01 4.015760e+01 5.613712e+01 5.228630e+01 2.386941e+01 4.441957e+01 2.408984e+01 1.161512e+01 6.026842e+00 6.743451e+00 4.212296e+00 3.564111e+00 4.111147e+00 2.560509e+00 2.377728e+00 2.985946e+00 3.154819e+00 1.641257e+00 1.336317e+00 2.750740e+00 1.190356e+00 9.728284e-01 6.519118e-01 9.432296e-01 6.901523e-01 7.606825e-01 5.352762e-01 4.688441e-01 4.233198e-01 4.362534e-01 3.005208e-01 2.112605e-01 4.820974e-01
<GCONST> 1.325395e+02
<TRANSP> 5
 0.000000e+00 1.000000e+00 0.000000e+00 0.000000e+00 0.000000e+00
 0.000000e+00 6.438339e-01 3.561661e-01 0.000000e+00 0.000000e+00
 0.000000e+00 0.000000e+00 1.232537e-02 9.876746e-01 0.000000e+00
 0.000000e+00 0.000000e+00 0.000000e+00 8.725636e-01 1.274364e-01
 0.000000e+00 0.000000e+00 0.000000e+00 0.000000e+00 0.000000e+00
<ENDHMM>
~h "ny"
<BEGINHMM>
<NUMSTATES> 5
<STATE> 2
<MEAN> 39
 -1.427337e+00 2.006208e+00 3.308584e+00 -1.430019e+00 7.640874e-01 1.074684e+00 -7.139601e-01 -2.667472e+00 -2.043432e+00 2.630490e-01 -1.472712e-02 -8.023934e-01 5.607354e+01 -8.936615e-01 -4.971029e-01 3.867498e-01 2.030686e-01 -2.332476e-01 7.952504e-02 3.361746e-01 1.280278e-01 -1.676976e-01 3.734138e-02 6.223351e-02 -1.088122e-01 -4.406345e-01 3.109158e-02 -5.108255e-02 -7.944772e-02 -8.008648e-02 -3.167756e-02 -9.987937e-02 -1.311075e-01 -3.411382e-02 -3.809939e-02 -7.112217e-02 -3.415030e-02 5.078248e-02 3.846711e-02
<VARIANCE> 39
 6.471243e+01 4.282953e+01 1.920189e+01 3.186081e+01 3.871312e+01 2.234044e+01 1.758999e+01 1.456125e+01 2.052462e+01 1.154634e+01 1.002847e+01 1.360380e+01 2.045505e+01 6.349686e-01 1.782373e+00 1.263430e+00 1.311775e+00 2.194707e+00 1.168437e+00 8.306023e-01 9.917835e-01 9.436902e-01 1.315097e+00 1.258920e+00 1.256231e+00 2.358617e-01 1.041124e-01 2.223190e-01 1.929253e-01 1.827769e-01 2.334740e-01 1.381027e-01 1.171353e-01 1.768668e-01 1.821537e-01 2.371651e-01 1.892973e-01 2.054705e-01 3.654733e-02
<GCONST> 8.821767e+01
<STATE> 3
<MEAN> 39
 -1.152699e+01 -4.592617e+00 2.895203e+00 -6.668782e-01 -4.493191e+00 1.283557e-01 -1.562892e+00 -3.369470e+00 -3.794993e+00 -2.314560e-01 -1.469614e+00 -2.120969e+00 5.121092e+01 -1.764788e-01 -9.371820e-02 -1.555337e-01 -4.367929e-02 -1.324679e-01 5.256886e-02 2.206412e-01 2.110224e-02 -1.202095e-01 -6.503102e-02 -1.332341e-01 -8.574703e-02 -1.562937e-01 5.971821e-02 4.753469e-02 -2.527140e-02 6.010101e-02 7.727920e-02 1.690811e-02 4.809949e-02 2.417539e-03 3.342693e-02 2.480703e-02 2.261028e-02 1.498455e-02 2.075107e-02
<VARIANCE> 39
 3.916425e+01 4.411449e+01 3.660447e+01 1.114463e+01 2.244796e+01 2.034726e+01 2.006311e+01 1.655548e+01 1.424028e+01 2.198154e+01 7.792577e+00 9.364594e+00 2.139416e+01 1.105043e-01 1.919727e-01 4.576761e-01 4.260148e-01 4.298442e-01 5.221518e-01 7.706547e-01 8.643623e-01 8.142047e-01 7.717512e-01 7.938671e-01 5.256149e-01 7.658651e-02 3.556632e-02 6.363363e-02 9.407271e-02 1.085356e-01 1.268771e-01 1.342071e-01 1.333988e-01 1.324877e-01 1.425635e-01 1.145158e-01 1.589247e-01 1.335155e-01 1.139318e-02
<GCONST> 6.764924e+01
<STATE> 4
<MEAN> 39
 5.157067e-01 5.169005e+00 6.608787e+00 2.105474e-02 2.988944e-01 -2.508218e-01 2.574170e+00 -9.050834e-01 -5.686157e+00 -4.511744e+00 -2.382951e+00 -2.643935e+00 5.672651e+01 4.312591e-02 9.464294e-03 -2.249992e-01 7.514548e-02 3.668606e-01 4.542630e-01 5.802310e-01 3.355312e-01 6.064880e-02 1.274824e-01 2.109624e-01 2.753475e-01 -4.957610e-02 9.622347e-02 -3.986063e-02 -1.050589e-01 -1.331704e-01 -2.102309e-01 -3.388773e-01 -4.003488e-01 -7.319926e-02 5.324538e-02 4.949129e-02 1.083606e-01 5.832742e-02 7.084162e-02
<VARIANCE> 39
 7.730977e+01 6.010011e+01 2.214929e+01 2.890908e+01 5.075374e+01 3.071731e+01 2.685146e+01 3.033097e+01 3.898227e+01 4.726290e+01 2.710604e+01 5.274058e+00 2.556400e+01 8.830581e-01 1.142272e+00 1.750509e+00 1.776383e+00 2.244626e+00 2.338031e+00 1.353405e+00 1.253994e+00 1.394544e+00 1.101763e+00 1.399922e+00 7.773985e-01 3.447698e-01 1.591662e-01 2.382470e-01 3.049335e-01 2.798974e-01 3.252253e-01 3.510733e-01 1.899266e-01 3.324542e-01 2.175261e-01 2.885838e-01 1.822370e-01 6.541963e-02 6.092267e-02
<GCONST> 9.847770e+01
<TRANSP> 5
 0.000000e+00 1.000000e+00 0.000000e+00 0.000000e+00 0.000000e+00
 0.000000e+00 7.862450e-01 2.137550e-01 0.000000e+00 0.000000e+00
 0.000000e+00 0.000000e+00 8.623710e-01 1.376290e-01 0.000000e+00
 0.000000e+00 0.000000e+00 0.000000e+00 6.743935e-01 3.256065e-01
 0.000000e+00 0.000000e+00 0.000000e+00 0.000000e+00 0.000000e+00
<ENDHMM>
~h "rr"
<BEGINHMM>
<NUMSTATES> 5
<STATE> 2
<MEAN> 39
 6.482832e+00 1.260285e+01 8.735619e+00 -3.761475e-01 -1.972681e+00 -4.705029e+00 -4.480401e+00 -2.402500e+00 -1.425754e+00 9.923496e-01 -9.350457e-01 -1.820199e+00 5.750737e+01 -9.639611e-01 7.937361e-01 2.043283e+00 -7.165684e-02 -4.398843e-01 1.083567e+00 2.081850e+00 1.332825e-01 -1.316840e+00 -1.248801e+00 -2.776244e-01 -5.072672e-01 -4.621187e-01 -6.303576e-02 -4.756417e-01 -1.551079e-01 4.449657e-01 1.523100e-01 -4.642733e-01 -5.430287e-01 -9.491782e-02 1.740176e-01 5.234150e-02 -1.532909e-01 -2.506586e-01 8.269957e-02
<VARIANCE> 39
 2.416618e+00 1.283688e+00 1.494803e+01 3.955823e+01 6.135817e+01 5.327190e+01 4.490917e+00 2.545537e+01 1.402186e+01 2.357566e+01 3.900463e+01 1.446562e+01 3.897326e+00 4.662797e-01 7.630587e-01 1.860767e+00 5.381451e-01 5.692195e-01 3.502410e+00 5.807375e+00 3.400490e-01 3.326582e+00 2.869625e+00 9.375557e-01 2.513031e-01 1.269287e-01 1.020641e-01 2.185325e-01 1.642556e-01 6.488340e-02 7.504500e-02 4.839011e-01 5.915407e-01 2.022558e-01 5.704480e-01 2.116281e-01 4.261064e-01 1.190208e-01 1.595053e-02
<GCONST> 8.158689e+01
<STATE> 3
<MEAN> 39
 5.828128e+00 1.317734e+01 1.065862e+01 -2.858478e+00 -7.760767e+00 -8.870928e+00 -2.634457e+00 7.781401e-01 2.592997e-01 -1.006110e+00 -4.101731e+00 -4.561154e+00 5.798076e+01 -6.321794e-01 3.477088e-02 1.008323e+00 6.715823e-01 1.290108e-01 -8.628502e-02 2.290849e-01 -1.623496e-01 -5.415111e-01 -5.917209e-02 2.819810e-01 -1.481063e-01 -2.320083e-01 -1.466463e-01 -4.144637e-01 -2.021710e-01 3.347509e-01 3.850050e-01 1.721375e-01 -7.496326e-02 -1.738563e-01 -2.037626e-02 6.018494e-02 1.032185e-01 2.690567e-03 -6.711183e-03
<VARIANCE> 39
 4.563568e+00 7.054443e-01 1.627553e+01 3.462367e+01 7.081329e+01 5.253913e+01 2.929989e+00 1.837626e+01 1.985565e+01 6.267736e+00 2.002818e+01 1.219750e+01 3.742875e+00 3.510822e-02 3.882642e-01 2.563280e-01 1.018103e-01 1.525667e+00 1.218033e+00 4.420519e-01 2.143524e-01 2.492805e+00 2.627608e+00 2.563827e+00 2.574832e-01 3.503425e-02 9.794533e-02 6.317744e-02 1.497876e-01 1.434770e-01 2.565086e-02 3.250725e-01 3.478438e-01 1.067225e-01 4.133047e-01 1.262692e-01 1.413208e-01 3.854556e-02 1.453738e-02
<GCONST> 6.206272e+01
<STATE> 4
<MEAN> 39
 1.528528e+00 1.082187e+01 1.248936e+01 1.671860e+00 -1.298322e+00 -4.207195e+00 -5.151117e-01 7.505610e-01 -2.389613e-01 -1.056927e+00 -3.459337e+00 -4.424319e+00 5.606757e+01 -1.194937e+00 -1.081796e+00 -6.907932e-02 6.987017e-01 9.678248e-01 9.754750e-01 9.004003e-01 5.331848e-01 1.669098e-01 3.359978e-02 1.430288e-01 9.356156e-02 -4.684533e-01 -1.260711e-01 -3.522034e-01 -2.559134e-01 -2.113723e-02 4.117088e-02 6.271648e-02 2.913691e-02 -8.849259e-03 -1.491794e-01 -9.960730e-02 -3.013454e-02 2.950259e-02 -2.197243e-02
<VARIANCE> 39
 1.594608e+01 8.586127e+00 1.523163e+01 5.216898e+01 7.433861e+01 5.591513e+01 1.278625e+01 1.652848e+01 1.764417e+01 2.221271e+00 7.695685e+00 8.718648e+00 5.822999e+00 2.452802e-01 1.063315e+00 1.689676e+00 1.464715e+00 1.366326e+00 1.541694e+00 6.186999e-01 4.543748e-01 7.307115e-01 4.819199e-01 9.119006e-01 8.759089e-01 6.006348e-02 2.328970e-02 8.752819e-02 1.587412e-01 1.410255e-01 2.938497e-01 4.565598e-01 2.150020e-01 1.074134e-01 2.369709e-01 8.885677e-02 1.372847e-01 1.257327e-01 7.677850e-03
<GCONST> 7.299329e+01
<TRANSP> 5
 0.000000e+00 1.000000e+00 0.000000e+00 0.000000e+00 0.000000e+00
 0.000000e+00 4.150748e-01 5.849252e-01 0.000000e+00 0.000000e+00
 0.000000e+00 0.000000e+00 1.842215e-04 9.998158e-01 0.000000e+00
 0.000000e+00 0.000000e+00 0.000000e+00 8.377943e-01 1.622057e-01
 0.000000e+00 0.000000e+00 0.000000e+00 0.000000e+00 0.000000e+00
<ENDHMM>
~h "sp"
<BEGINHMM>
<NUMSTATES> 3
<STATE> 2
~s "silst"
<TRANSP> 3
 0.000000e+00 7.000000e-01 3.000000e-01
 0.000000e+00 9.105624e-01 8.943763e-02
 0.000000e+00 0.000000e+00 0.000000e+00
<ENDHMM>
~h "sil"
<BEGINHMM>
<NUMSTATES> 5
<STATE> 2
<MEAN> 39
 8.722811e-01 1.878696e-01 5.689963e-01 -2.106841e+00 -5.392514e-01 -4.551775e+00 -7.393669e+00 -4.915905e+00 -3.716210e+00 -2.213131e+00 -2.245126e+00 -2.558078e+00 5.808578e+01 -7.121691e-03 -1.342493e-02 2.096582e-03 -6.816756e-03 -1.278628e-03 -2.347725e-05 -1.449223e-03 -5.603909e-03 -4.043571e-03 -4.243262e-03 -4.083123e-03 -6.277253e-03 8.815836e-03 -3.671534e-03 -1.888852e-03 -3.818285e-03 -1.442563e-03 -1.219903e-03 -1.548614e-03 -8.937439e-04 1.678128e-04 2.371023e-04 -1.416066e-04 -7.799978e-04 1.498583e-04 -4.616404e-03
<VARIANCE> 39
 1.349557e+02 6.876411e+01 8.178193e+01 6.775198e+01 6.001683e+01 6.222027e+01 8.031512e+01 6.694721e+01 3.715743e+01 3.730983e+01 2.966875e+01 2.674054e+01 7.109689e+01 3.775491e+00 2.933697e+00 3.448104e+00 2.845921e+00 2.697871e+00 2.836696e+00 3.688072e+00 2.869203e+00 2.210152e+00 1.956216e+00 1.745424e+00 1.500968e+00 1.590961e+00 4.521895e-01 4.353865e-01 4.673086e-01 4.225992e-01 4.254700e-01 4.476366e-01 5.638518e-01 4.657381e-01 3.796403e-01 3.276412e-01 3.093250e-01 2.622878e-01 2.179217e-01
<GCONST> 1.240345e+02
<STATE> 3
~s "silst"
<STATE> 4
<MEAN> 39
 -1.357835e+01 -1.927072e+00 -1.097871e+00 -1.356450e+00 -3.651360e+00 -2.471785e+00 -4.063744e+00 -2.467821e+00 -3.694014e+00 -2.553326e+00 -2.649607e+00 -1.616558e+00 4.470816e+01 -2.594393e-02 1.133230e-02 -1.656143e-02 1.089793e-02 -1.809785e-02 1.897743e-03 -1.061160e-02 3.927208e-03 -7.372389e-03 -5.657960e-03 -9.488848e-03 -2.716957e-03 -4.733357e-02 4.597859e-03 9.422214e-04 1.911088e-03 3.245041e-03 3.806739e-03 2.344464e-03 3.103630e-03 3.591854e-03 2.096330e-03 -4.675202e-04 -7.040291e-04 -8.297479e-05 3.773085e-03
<VARIANCE> 39
 1.510576e+01 1.007361e+01 9.037886e+00 7.675130e+00 9.331733e+00 9.825500e+00 1.004327e+01 9.556102e+00 9.771552e+00 8.587624e+00 7.729173e+00 6.775898e+00 1.140168e+01 8.896736e-02 1.685142e-01 2.675253e-01 3.743519e-01 4.677400e-01 6.050099e-01 6.685280e-01 7.325151e-01 7.548960e-01 7.491613e-01 7.040384e-01 6.486205e-01 4.666980e-02 1.864082e-02 3.571139e-02 5.531065e-02 7.803769e-02 9.547098e-02 1.270993e-01 1.372290e-01 1.498657e-01 1.562382e-01 1.579537e-01 1.449719e-01 1.339936e-01 8.537978e-03
<GCONST> 5.448780e+01
<TRANSP> 5
 0.000000e+00 1.000000e+00 0.000000e+00 0.000000e+00 0.000000e+00
 0.000000e+00 7.956897e-01 4.310329e-03 2.000000e-01 0.000000e+00
 0.000000e+00 0.000000e+00 9.105624e-01 8.943763e-02 0.000000e+00
 0.000000e+00 2.000000e-01 0.000000e+00 7.893554e-01 1.064461e-02
 0.000000e+00 0.000000e+00 0.000000e+00 0.000000e+00 0.000000e+00
<ENDHMM>
~h "tsh"
<BEGINHMM>
<NUMSTATES> 5
<STATE> 2
<MEAN> 39
 2.368223e+00 -9.242381e+00 4.012865e+00 -4.336544e+00 2.266781e+00 -5.987779e+00 -8.041857e+00 -4.262308e+00 -8.618947e+00 -1.921811e+00 4.272712e+00 -5.658588e+00 6.662646e+01 -9.688367e-02 -2.873095e-01 -9.562675e-02 -1.639180e-01 1.823247e-01 1.349862e-01 2.110117e-01 -1.913322e-01 -5.519076e-02 2.598389e-01 1.902595e-01 6.202315e-02 1.444361e-01 -1.428590e-02 2.605082e-02 1.063966e-02 6.472272e-02 -8.530322e-03 -2.097334e-02 -4.964298e-02 2.286710e-02 5.426944e-02 3.553199e-02 -1.237800e-02 1.785532e-05 -5.010053e-02
<VARIANCE> 39
 1.665555e+02 6.444170e+01 8.940008e+01 8.631725e+01 5.552280e+01 3.851031e+01 1.209280e+02 7.250866e+01 6.865061e+01 4.374733e+01 5.156535e+01 3.858511e+01 5.491413e+01 9.871543e+00 4.544219e+00 7.071805e+00 5.262132e+00 5.840675e+00 4.194519e+00 6.112175e+00 7.276241e+00 7.211426e+00 4.399745e+00 4.591718e+00 2.949135e+00 3.262266e+00 1.231721e+00 8.302687e-01 1.108380e+00 7.456926e-01 1.070756e+00 7.638613e-01 8.906766e-01 1.309898e+00 1.280455e+00 8.332949e-01 9.251075e-01 5.361862e-01 6.239583e-01
<GCONST> 1.466012e+02
<STATE> 3
<MEAN> 39
 -8.177531e-01 -3.159484e+00 -1.201723e+00 -7.483508e+00 1.161547e+00 -2.580628e+00 1.090962e+00 -7.500563e+00 -8.086213e+00 5.035720e-01 -2.138160e+00 -1.413391e+00 5.921359e+01 1.513520e+00 1.057697e+00 -5.886385e-01 5.747035e-01 -4.624507e-01 -7.271845e-01 -1.446168e+00 -2.267377e-01 6.526369e-01 4.981977e-01 -3.244394e-01 -4.774557e-01 7.288039e-02 -3.915983e-02 -7.189167e-02 2.585396e-01 1.303637e-01 -8.689986e-03 -4.245277e-02 6.437225e-02 6.995767e-03 -1.568823e-01 -2.764914e-01 1.392304e-01 -1.545534e-02 1.188475e-01
<VARIANCE> 39
 1.212372e+02 7.040277e+01 6.856989e+01 5.869922e+01 8.716576e+01 6.718547e+01 1.418814e+02 5.966874e+01 5.073599e+01 2.957393e+01 2.104672e+01 3.584790e+01 4.426582e+01 5.316051e+00 5.572547e+00 3.841319e+00 7.043979e+00 3.530942e+00 3.958423e+00 5.877144e+00 4.405342e+00 3.860260e+00 2.843725e+00 3.060157e+00 2.156899e+00 5.853144e+00 9.288025e-01 9.278104e-01 7.224634e-01 1.429129e+00 6.856146e-01 8.196293e-01 1.458500e+00 1.044629e+00 6.701546e-01 7.644282e-01 4.455895e-01 6.250058e-01 1.038580e+00
<GCONST> 1.409247e+02
<STATE> 4
<MEAN> 39
 7.639059e+00 7.306829e+00 3.962960e+00 2.446640e-01 2.932886e+00 -7.917010e+00 -1.583944e+01 -1.367953e+01 -3.082035e+00 3.123819e+00 -1.119025e-01 -5.421531e+00 6.078661e+01 -5.581750e-02 1.564440e-01 3.841523e-01 3.368549e-01 1.388416e-01 1.028054e-01 1.365097e-01 1.121465e-01 -2.171531e-02 -1.517452e-02 1.357375e-01 1.162807e-01 -5.421591e-02 -1.238028e-01 -2.723888e-02 6.679011e-02 -3.577078e-02 -6.169462e-02 1.675422e-02 1.482073e-01 1.157901e-01 -5.010065e-02 -1.150778e-01 -3.818625e-02 4.438109e-02 -6.196538e-02
<VARIANCE> 39
 1.769994e+01 2.215227e+01 7.416801e+01 5.658943e+01 7.071796e+01 2.882036e+01 8.309094e+01 7.893159e+01 3.038603e+01 4.560799e+01 2.906814e+01 2.533063e+01 1.231336e+01 1.247879e+00 1.577704e+00 3.570309e+00 1.987096e+00 1.849403e+00 1.219725e+00 5.685426e+00 2.698646e+00 1.696318e+00 3.318289e+00 1.021526e+00 1.210011e+00 5.838060e-01 1.757660e-01 2.304483e-01 4.815376e-01 3.196059e-01 2.800476e-01 2.515871e-01 8.111203e-01 4.491554e-01 2.942769e-01 4.041398e-01 1.643831e-01 1.585019e-01 9.490693e-02
<GCONST> 1.094562e+02
<TRANSP> 5
 0.000000e+00 1.000000e+00 0.000000e+00 0.000000e+00 0.000000e+00
 0.000000e+00 9.269972e-01 7.300283e-02 0.000000e+00 0.000000e+00
 0.000000e+00 0.000000e+00 6.753018e-01 3.246982e-01 0.000000e+00
 0.000000e+00 0.000000e+00 0.000000e+00 8.760899e-01 1.239101e-01
 0.000000e+00 0.000000e+00 0.000000e+00 0.000000e+00 0.000000e+00
<ENDHMM>
