~o
<STREAMINFO> 1 39
<VECSIZE> 39<NULLD><MFCC_D_A_0><DIAGC>
~s "silst"
<MEAN> 39
 -1.130338e+01 -3.484435e+00 -1.034486e+00 -2.667063e+00 -2.192644e+00 -2.084901e+00 -3.099405e+00 -2.341960e+00 -3.029527e+00 -2.092448e+00 -1.858320e+00 -1.266286e+00 4.863893e+01 -2.737472e-01 -1.443443e-01 -1.935016e-01 -9.310346e-02 -1.382414e-01 -8.764269e-02 -6.520794e-02 1.788982e-02 -8.583594e-03 -4.653365e-02 -3.394870e-02 2.822368e-02 -2.322085e-01 1.226681e-01 4.919320e-02 3.370255e-02 4.061463e-02 3.292834e-02 1.764993e-02 -1.780779e-03 -1.814561e-02 -1.720387e-02 1.294898e-02 1.341028e-02 -6.145181e-03 7.848045e-02
<VARIANCE> 39
 1.722381e+01 1.423573e+01 1.876140e+01 1.355572e+01 1.378382e+01 1.211085e+01 1.214660e+01 1.324499e+01 1.341626e+01 1.109685e+01 1.042521e+01 9.553353e+00 1.457643e+01 4.658734e-01 6.312898e-01 7.880801e-01 7.523163e-01 8.587494e-01 8.758259e-01 9.802939e-01 1.028333e+00 1.082558e+00 1.000838e+00 9.021429e-01 8.021123e-01 1.808813e-01 9.374537e-02 1.108457e-01 1.317919e-01 1.381688e-01 1.706496e-01 1.800960e-01 1.922961e-01 2.053720e-01 2.222119e-01 2.004583e-01 1.854002e-01 1.555386e-01 3.648021e-02
<GCONST> 7.596811e+01
~h "a"
<BEGINHMM>
<NUMSTATES> 5
<STATE> 2
<MEAN> 39
 9.567693e+00 1.555728e+00 -4.448253e+00 -4.879510e+00 3.738341e-02 -6.703044e+00 -8.019412e+00 -2.886870e+00 -1.610614e+00 -2.292062e+00 -1.311773e+00 -9.620996e-01 6.327948e+01 -3.958969e-01 4.443256e-01 5.296180e-01 -1.354209e-01 -1.514808e-01 4.671390e-01 6.713269e-01 1.113130e-01 -2.044417e-01 -1.347073e-01 -7.340410e-02 -3.844472e-02 -3.673767e-01 -1.303967e-01 5.563714e-02 2.255758e-01 1.504211e-01 6.968249e-02 1.192387e-01 7.081749e-02 -5.989708e-02 -9.752251e-02 -1.290369e-02 -1.378379e-02 -4.370483e-02 -9.518694e-02
<VARIANCE> 39
 7.406588e+01 5.190145e+01 8.727509e+01 6.842015e+01 5.668973e+01 4.725059e+01 7.594375e+01 8.041097e+01 3.007795e+01 4.549760e+01 3.167056e+01 3.119237e+01 3.647508e+01 6.031815e-01 1.122459e+00 2.057872e+00 1.523174e+00 1.593434e+00 1.816813e+00 2.116222e+00 1.992798e+00 1.440084e+00 1.595755e+00 1.291528e+00 1.119045e+00 3.807945e-01 1.026103e-01 1.687784e-01 2.781039e-01 2.012128e-01 2.232833e-01 2.703124e-01 2.978078e-01 3.056713e-01 2.330483e-01 2.364170e-01 2.138514e-01 1.846093e-01 5.819240e-02
<GCONST> 1.053217e+02
<STATE> 3
<MEAN> 39
 3.756605e+00 4.066967e+00 2.027537e+00 -3.711216e+00 -5.380479e-01 -2.982919e+00 -2.412142e+00 -1.936278e+00 -3.648186e+00 -3.999124e+00 -2.547124e+00 -1.491766e+00 5.899089e+01 -4.868265e-01 8.988488e-02 5.183063e-01 3.842401e-01 2.371826e-01 3.462250e-01 2.762080e-01 2.304799e-02 -6.546742e-02 -7.252451e-03 -7.120409e-02 -9.151012e-02 -3.419801e-01 -1.395371e-02 -9.728029e-02 -6.044436e-02 5.747021e-02 7.541467e-02 -3.014476e-03 -9.352630e-02 -3.730391e-02 4.032705e-02 7.518211e-02 5.498912e-02 1.349462e-02 9.543319e-03
<VARIANCE> 39
 7.092612e+01 7.983492e+01 9.337746e+01 6.692036e+01 4.827542e+01 3.572673e+01 4.394286e+01 3.718117e+01 2.394369e+01 1.968081e+01 2.233458e+01 2.627639e+01 2.820113e+01 4.989743e-01 6.318685e-01 1.269096e+00 1.136363e+00 1.250136e+00 1.229092e+00 1.246300e+00 1.183154e+00 1.084790e+00 1.038089e+00 9.505422e-01 8.595787e-01 2.375365e-01 7.748094e-02 1.175893e-01 1.739451e-01 1.632866e-01 1.925205e-01 2.192742e-01 2.084530e-01 1.875472e-01 1.941777e-01 1.603937e-01 1.755140e-01 1.516874e-01 3.570563e-02
<GCONST> 9.319523e+01
<STATE> 4
<MEAN> 39
 -7.073673e-01 2.427117e+00 5.554994e+00 -1.114126e+00 1.070719e+00 -9.181461e-01 -2.098195e+00 -2.281346e+00 -2.911003e+00 -1.925399e+00 -1.952839e+00 -2.272328e+00 5.691776e+01 -8.590919e-01 -6.169114e-01 -5.689961e-02 4.916574e-02 4.316282e-02 1.495527e-01 2.156733e-02 -2.309053e-02 6.185701e-02 1.741100e-01 8.688775e-02 5.060930e-02 -4.303602e-01 1.411349e-01 -1.320501e-01 -2.652785e-01 -1.784516e-01 -1.477526e-01 -1.932914e-01 -1.830187e-01 -7.966131e-02 -5.131923e-04 2.087735e-02 4.319883e-02 1.468371e-02 1.149297e-01
<VARIANCE> 39
 7.335289e+01 6.535298e+01 6.101028e+01 6.400382e+01 4.858089e+01 4.253960e+01 5.213886e+01 4.128885e+01 2.875177e+01 2.711209e+01 2.592810e+01 2.428378e+01 2.989838e+01 2.094769e+00 2.362956e+00 2.813794e+00 3.086168e+00 2.996416e+00 2.673975e+00 2.570115e+00 2.076061e+00 1.892745e+00 1.623244e+00 1.457709e+00 1.449970e+00 6.991295e-01 2.744156e-01 3.899066e-01 4.266806e-01 4.964372e-01 5.011644e-01 4.381405e-01 4.336072e-01 3.556619e-01 3.481787e-01 3.100781e-01 2.794757e-01 2.580407e-01 1.160451e-01
<GCONST> 1.150796e+02
<TRANSP> 5
 0.000000e+00 1.000000e+00 0.000000e+00 0.000000e+00 0.000000e+00
 0.000000e+00 6.439841e-01 3.560159e-01 0.000000e+00 0.000000e+00
 0.000000e+00 0.000000e+00 6.916227e-01 3.083773e-01 0.000000e+00
 0.000000e+00 0.000000e+00 0.000000e+00 5.918901e-01 4.081099e-01
 0.000000e+00 0.000000e+00 0.000000e+00 0.000000e+00 0.000000e+00
<ENDHMM>
~h "b"
<BEGINHMM>
<NUMSTATES> 5
<STATE> 2
<MEAN> 39
 1.451485e+00 -2.487230e+00 6.521081e-01 -2.024341e+00 2.712865e-01 -2.375981e+00 -5.017122e+00 -4.431593e+00 -4.979428e+00 -2.014669e+00 -1.596582e+00 -2.928301e+00 6.060125e+01 9.670226e-01 -1.180810e-01 -6.715540e-01 -3.114975e-01 -1.277652e-01 -6.074699e-01 -3.939508e-01 -1.360365e-01 -1.686732e-01 -1.047249e-01 1.765030e-01 8.128384e-02 7.487926e-01 9.640513e-02 -2.377799e-02 -1.066823e-01 -6.009877e-03 4.921125e-02 -5.302954e-02 -7.788122e-02 7.373124e-02 -1.253989e-02 -1.735879e-02 4.784022e-02 2.263197e-02 6.173285e-02
<VARIANCE> 39
 9.724982e+01 8.827826e+01 8.600583e+01 1.099531e+02 8.342038e+01 7.737191e+01 7.941392e+01 4.669503e+01 4.015470e+01 3.739752e+01 2.886183e+01 2.941997e+01 5.065199e+01 8.886461e+00 6.554833e+00 7.907607e+00 7.288476e+00 6.107474e+00 6.348891e+00 5.395995e+00 4.430258e+00 4.225765e+00 3.032315e+00 2.614881e+00 2.370087e+00 4.654435e+00 1.235110e+00 1.039533e+00 1.235115e+00 1.137580e+00 1.107712e+00 1.134443e+00 9.157010e-01 7.225172e-01 7.573414e-01 5.276982e-01 4.592763e-01 3.948424e-01 8.122201e-01
<GCONST> 1.432999e+02
<STATE> 3
<MEAN> 39
 9.525842e+00 -7.606559e-01 -3.533184e+00 -1.075990e+00 1.795903e+00 -4.268784e+00 -7.321075e+00 -3.823136e+00 -6.651945e+00 -3.623298e+00 -1.016561e+00 -9.382054e-01 6.502327e+01 1.893278e-01 -1.939692e-01 -4.462441e-01 -5.466297e-02 -5.122482e-02 2.187074e-01 2.835301e-01 2.404249e-01 -4.447387e-02 -1.786137e-01 2.085857e-01 2.309751e-01 7.910444e-02 -3.414884e-01 9.157840e-03 3.566383e-01 1.050242e-01 -5.613351e-02 1.323374e-01 1.715586e-01 -6.955075e-03 9.022510e-02 3.133573e-02 -1.142412e-01 -1.038804e-01 -1.911333e-01
<VARIANCE> 39
 6.216297e+01 7.396490e+01 8.471510e+01 8.768173e+01 7.351188e+01 1.102159e+02 7.248392e+01 6.235552e+01 4.840477e+01 5.401054e+01 4.936385e+01 3.116547e+01 3.571666e+01 2.902096e+00 3.676107e+00 3.842824e+00 2.979971e+00 3.191719e+00 3.420260e+00 3.180807e+00 2.528898e+00 2.675123e+00 2.619961e+00 2.013251e+00 1.994632e+00 1.312088e+00 4.771537e-01 5.616658e-01 6.113688e-01 4.690522e-01 5.098632e-01 6.425517e-01 4.762679e-01 3.932639e-01 5.913305e-01 4.931841e-01 3.917283e-01 3.498322e-01 2.059143e-01
<GCONST> 1.279553e+02
<STATE> 4
<MEAN> 39
 8.172605e+00 -4.201385e+00 -6.490147e+00 -1.045806e+00 1.430103e+00 -2.794521e+00 -6.167974e+00 -5.432116e+00 -7.302104e+00 -3.526848e+00 -4.044890e-02 -5.662135e-01 6.452097e+01 -2.134764e-01 2.507906e-01 3.791806e-01 6.671306e-02 -3.226438e-02 1.453360e-01 1.688862e-01 7.000577e-02 -7.033589e-02 -9.810878e-02 -1.630118e-01 -5.174138e-02 -1.916763e-01 -9.837337e-02 9.587686e-02 1.516957e-01 3.005191e-02 -2.357969e-03 6.222531e-02 2.749023e-02 -6.123073e-02 1.793501e-03 2.476158e-02 -4.411772e-02 -3.392175e-02 -8.792841e-02
<VARIANCE> 39
 7.295285e+01 1.402121e+02 6.788505e+01 8.424406e+01 6.231405e+01 7.955934e+01 6.838816e+01 4.454885e+01 4.896771e+01 2.934757e+01 3.519679e+01 2.765993e+01 2.903153e+01 4.674599e-01 1.025997e+00 1.443101e+00 1.831724e+00 1.674472e+00 1.444327e+00 1.561374e+00 1.262325e+00 1.795694e+00 1.303881e+00 1.045150e+00 1.062138e+00 2.947238e-01 1.040987e-01 1.416834e-01 2.271958e-01 2.227481e-01 2.106969e-01 2.566989e-01 2.700079e-01 1.995120e-01 2.816750e-01 1.893948e-01 1.979099e-01 1.843181e-01 4.783079e-02
<GCONST> 1.028236e+02
<TRANSP> 5
 0.000000e+00 1.000000e+00 0.000000e+00 0.000000e+00 0.000000e+00
 0.000000e+00 7.698208e-01 2.301792e-01 0.000000e+00 0.000000e+00
 0.000000e+00 0.000000e+00 6.103148e-01 3.896852e-01 0.000000e+00
 0.000000e+00 0.000000e+00 0.000000e+00 8.196586e-01 1.803415e-01
 0.000000e+00 0.000000e+00 0.000000e+00 0.000000e+00 0.000000e+00
<ENDHMM>
~h "d"
<BEGINHMM>
<NUMSTATES> 5
<STATE> 2
<MEAN> 39
 -3.103826e+00 -4.096609e+00 -3.906343e+00 -4.657097e+00 -3.890841e-01 -1.805224e+00 -2.237561e+00 -2.575920e+00 -4.411343e+00 -3.336100e+00 -9.004720e-01 2.059212e-01 5.547496e+01 -2.828274e-01 1.193538e-02 2.887746e-02 -8.328652e-03 -5.579478e-02 -2.567486e-02 3.523088e-03 3.623974e-02 9.103954e-03 -2.703395e-02 -2.280447e-02 -8.338710e-03 -2.361169e-01 9.490999e-03 3.615530e-02 4.532798e-02 3.707753e-02 9.698463e-04 -3.134590e-02 -5.260167e-02 -2.441463e-02 2.033204e-02 2.591638e-02 6.160013e-04 -2.199290e-02 -3.405994e-03
<VARIANCE> 39
 5.476347e+01 8.380894e+01 8.304754e+01 5.485330e+01 4.350846e+01 4.298860e+01 3.949317e+01 4.352145e+01 3.426855e+01 2.982304e+01 2.460630e+01 2.672810e+01 2.255211e+01 3.691177e-01 7.679636e-01 1.239270e+00 1.156332e+00 1.149910e+00 1.228539e+00 1.238338e+00 1.270365e+00 1.231741e+00 1.303420e+00 1.061294e+00 9.657873e-01 1.897308e-01 4.951383e-02 7.882289e-02 1.338145e-01 1.469437e-01 1.620187e-01 1.997465e-01 2.204752e-01 2.131359e-01 2.166215e-01 2.111647e-01 1.966029e-01 1.689639e-01 2.132757e-02
<GCONST> 9.248310e+01
<STATE> 3
<MEAN> 39
 -1.169316e+01 -1.777857e+00 -6.840775e-01 -2.158407e+00 -3.201899e+00 -2.809519e+00 -3.976027e+00 -2.633819e+00 -3.596342e+00 -2.342904e+00 -2.392243e+00 -1.566480e+00 4.685731e+01 -5.917406e-02 4.046669e-02 -2.342712e-03 3.613514e-02 -3.330383e-02 1.000227e-02 -2.005560e-02 2.033493e-02 -2.241463e-03 -8.455954e-03 -1.758144e-02 -9.327212e-03 -1.014426e-01 1.074319e-02 -2.028980e-03 -1.601097e-03 8.020121e-03 1.410456e-02 1.496713e-02 8.917389e-03 -1.136452e-04 1.504001e-03 4.382638e-03 1.483023e-03 5.628559e-05 8.638422e-03
<VARIANCE> 39
 2.460180e+01 1.377116e+01 1.103173e+01 1.071927e+01 1.066891e+01 1.193350e+01 1.103109e+01 1.072901e+01 1.085101e+01 8.935533e+00 8.215702e+00 8.187168e+00 1.881847e+01 9.374972e-02 1.669098e-01 3.061823e-01 3.686778e-01 4.765805e-01 5.858501e-01 6.641102e-01 7.482182e-01 7.796602e-01 7.029944e-01 6.962373e-01 6.878900e-01 4.309335e-02 1.759933e-02 3.408034e-02 5.948680e-02 7.574245e-02 9.992737e-02 1.208010e-01 1.330643e-01 1.511165e-01 1.563665e-01 1.420681e-01 1.419707e-01 1.441378e-01 6.745502e-03
<GCONST> 5.697773e+01
<STATE> 4
<MEAN> 39
 -4.910415e+00 1.569707e+00 2.437021e+00 -1.335684e+00 -1.343972e+00 -2.922073e+00 -4.534184e+00 -3.419371e+00 -4.158206e+00 -3.248575e+00 -2.745054e+00 -2.435645e+00 5.214563e+01 -8.543839e-02 9.618312e-02 2.239806e-01 3.313211e-01 3.676851e-01 2.512699e-01 -1.563549e-02 -1.828151e-02 7.956183e-02 3.652874e-02 -4.602890e-02 -1.551704e-02 -9.803644e-02 2.121226e-01 2.948855e-02 6.491370e-03 1.331128e-01 1.402006e-01 9.730923e-03 -1.760343e-02 -4.369704e-02 -1.668593e-02 8.152650e-02 -6.572401e-03 -6.767446e-02 1.396548e-01
<VARIANCE> 39
 9.824298e+01 6.450562e+01 6.615882e+01 3.942991e+01 2.855859e+01 2.576589e+01 2.781488e+01 2.850921e+01 2.322697e+01 1.907742e+01 1.648470e+01 1.822919e+01 5.472584e+01 5.422579e-01 6.710716e-01 9.098585e-01 8.038598e-01 8.317147e-01 8.116098e-01 9.483680e-01 9.677912e-01 1.028956e+00 8.616263e-01 9.995151e-01 7.270784e-01 2.290011e-01 2.540143e-01 3.102614e-01 3.310630e-01 2.861903e-01 2.532309e-01 2.537994e-01 3.338385e-01 2.570377e-01 2.572090e-01 2.202606e-01 2.210864e-01 1.726227e-01 9.886160e-02
<GCONST> 9.511210e+01
<TRANSP> 5
 0.000000e+00 1.000000e+00 0.000000e+00 0.000000e+00 0.000000e+00
 0.000000e+00 8.348762e-01 1.651238e-01 0.000000e+00 0.000000e+00
 0.000000e+00 0.000000e+00 9.373506e-01 6.264938e-02 0.000000e+00
 0.000000e+00 0.000000e+00 0.000000e+00 3.887530e-01 6.112469e-01
 0.000000e+00 0.000000e+00 0.000000e+00 0.000000e+00 0.000000e+00
<ENDHMM>
~h "e"
<BEGINHMM>
<NUMSTATES> 5
<STATE> 2
<MEAN> 39
 -3.718454e+00 3.467988e-01 4.048745e+00 -1.736411e+00 2.251295e-01 -1.643604e+00 -3.411830e+00 -3.765745e+00 -3.969909e+00 -2.197424e+00 -2.368932e+00 -2.299798e+00 5.482246e+01 -1.492131e-01 -2.195204e-01 -1.453667e-01 -2.268116e-02 -1.290044e-01 4.363471e-02 1.269963e-02 -1.094258e-01 -5.874092e-02 2.359519e-02 5.178574e-03 1.677591e-02 -9.421769e-02 5.732266e-01 -4.283231e-02 -2.578986e-01 -6.400611e-02 -7.885780e-03 -2.526658e-01 -3.087208e-01 -1.616489e-01 -3.032492e-02 6.351441e-02 7.814246e-02 -2.186757e-02 4.187659e-01
<VARIANCE> 39
 8.366067e+01 6.310087e+01 5.619466e+01 5.074267e+01 3.963749e+01 3.207270e+01 3.836689e+01 3.196541e+01 2.566314e+01 2.643226e+01 2.063080e+01 1.750539e+01 4.160801e+01 3.624768e+00 3.499011e+00 3.734240e+00 3.445478e+00 2.705207e+00 2.516690e+00 3.054880e+00 2.558352e+00 2.050849e+00 1.857867e+00 1.697999e+00 1.440657e+00 1.445813e+00 6.059710e-01 7.063022e-01 6.216181e-01 6.388450e-01 5.074471e-01 5.199190e-01 6.690932e-01 5.429794e-01 4.146797e-01 3.971235e-01 3.587640e-01 2.836492e-01 3.160207e-01
<GCONST> 1.209132e+02
<STATE> 3
<MEAN> 39
 1.034627e+00 -1.423699e+00 1.684207e+00 -1.835932e+00 -1.175579e+00 -4.565921e+00 -5.598856e+00 -4.376468e+00 -4.949460e+00 -2.776853e+00 -2.096146e+00 -2.663846e+00 5.869100e+01 2.250260e+00 1.056771e-01 -7.878367e-01 5.941809e-02 2.758464e-01 -1.046113e+00 -1.488903e+00 -5.350451e-01 -3.501372e-02 1.146844e-01 1.890350e-01 -1.119783e-01 1.548351e+00 6.848742e-02 3.507317e-02 -5.736791e-02 5.132192e-02 1.412614e-01 -1.597409e-01 -2.267988e-01 7.630858e-02 1.390509e-01 2.341701e-02 -4.206211e-03 -1.526268e-02 4.191713e-02
<VARIANCE> 39
 9.480978e+01 9.530661e+01 7.376740e+01 8.626630e+01 7.985610e+01 7.516661e+01 6.957941e+01 6.346673e+01 4.434079e+01 4.248693e+01 3.311427e+01 2.274624e+01 5.184348e+01 8.244538e+00 9.410268e+00 6.535972e+00 7.462952e+00 6.262375e+00 6.233764e+00 7.478783e+00 6.210179e+00 4.147316e+00 4.366092e+00 3.527704e+00 2.429048e+00 4.212107e+00 1.015319e+00 1.264181e+00 8.954823e-01 1.050855e+00 9.002936e-01 9.935855e-01 9.693077e-01 8.457893e-01 6.577412e-01 6.756883e-01 5.792346e-01 3.890216e-01 6.190609e-01
<GCONST> 1.440730e+02
<STATE> 4
<MEAN> 39
 9.553337e+00 -5.350344e-01 -1.917510e+00 1.711345e+00 5.260640e+00 -9.226128e+00 -1.506739e+01 -7.246956e+00 -3.075608e+00 -9.082630e-04 -3.812184e-01 -3.845926e+00 6.403084e+01 8.409744e-03 1.110111e-01 1.732955e-02 -1.062580e-02 9.216444e-02 8.751255e-02 1.283561e-01 1.056900e-01 1.202926e-01 4.936223e-02 1.511986e-02 1.359661e-02 -1.569925e-02 -3.415053e-01 1.731925e-02 1.907045e-01 -1.197836e-01 -1.615401e-01 2.430408e-01 4.215254e-01 1.386445e-01 -3.763329e-02 -9.265220e-02 -7.094356e-02 3.590154e-02 -2.140608e-01
<VARIANCE> 39
 4.608395e+01 5.003946e+01 6.763327e+01 7.840839e+01 5.872642e+01 6.020442e+01 8.934069e+01 7.610523e+01 4.190652e+01 5.237757e+01 3.909785e+01 3.217272e+01 3.256438e+01 2.613414e+00 2.890777e+00 3.657704e+00 3.281004e+00 2.331774e+00 4.418470e+00 4.894716e+00 2.790408e+00 2.455915e+00 2.315611e+00 2.176552e+00 1.804948e+00 1.532907e+00 3.431561e-01 4.716647e-01 5.125946e-01 4.654033e-01 3.561462e-01 5.708274e-01 7.123176e-01 5.063791e-01 4.205747e-01 4.042512e-01 3.912081e-01 3.001837e-01 1.861004e-01
<GCONST> 1.248314e+02
<TRANSP> 5
 0.000000e+00 1.000000e+00 0.000000e+00 0.000000e+00 0.000000e+00
 0.000000e+00 5.527306e-01 4.472694e-01 0.000000e+00 0.000000e+00
 0.000000e+00 0.000000e+00 6.407064e-01 3.592936e-01 0.000000e+00
 0.000000e+00 0.000000e+00 0.000000e+00 7.508914e-01 2.491086e-01
 0.000000e+00 0.000000e+00 0.000000e+00 0.000000e+00 0.000000e+00
<ENDHMM>
~h "f"
<BEGINHMM>
<NUMSTATES> 5
<STATE> 2
<MEAN> 39
 -1.691605e+00 -3.582052e-01 2.618067e+00 -2.225308e+00 -1.008901e+00 -3.688117e+00 -4.288157e+00 -3.090014e+00 -3.733726e+00 -2.582160e+00 -1.448650e+00 -2.466152e+00 5.621519e+01 -5.273897e-01 -1.070909e+00 -4.045002e-03 -1.033526e+00 -2.911289e-01 7.361396e-02 1.275923e-01 -6.015894e-01 4.120255e-01 1.167021e+00 6.009731e-02 -1.845867e-01 3.529879e-01 4.392550e-01 -4.206387e-01 1.906688e-02 -2.035991e-01 -1.857095e-01 -7.413937e-01 -4.850113e-01 -1.691421e-02 -1.078632e-01 8.397514e-02 -1.072504e-01 -2.732796e-01 6.745988e-01
<VARIANCE> 39
 7.042190e+01 3.057149e+01 3.703639e+01 3.232211e+01 3.826751e+01 4.342469e+01 3.178710e+01 4.470681e+01 3.061634e+01 5.802427e+01 2.205211e+01 2.062327e+01 3.742513e+01 1.074879e+01 1.169888e+01 1.353959e+01 6.360044e+00 5.005534e+00 8.727999e+00 5.135072e+00 3.450718e+00 3.782387e+00 4.413154e+00 2.629179e+00 4.636822e+00 4.801040e+00 9.780748e-01 1.703401e+00 7.754019e-01 1.158816e+00 7.674402e-01 6.748905e-01 5.555032e-01 4.479531e-01 8.511052e-01 9.004353e-01 2.361711e-01 6.982475e-01 5.841493e-01
<GCONST> 1.369136e+02
<STATE> 3
<MEAN> 39
 -6.643308e+00 -1.441750e+01 1.037459e+01 -9.293578e+00 -3.238607e+00 -2.558912e+00 -3.496354e+00 -4.263468e+00 -7.425701e+00 1.613618e+00 6.225010e-01 -4.920482e+00 6.340197e+01 2.183668e-02 -4.170004e-01 -4.893613e-01 -1.226442e-02 -1.575933e-01 -4.948266e-01 -6.338814e-02 -3.024726e-01 -9.191856e-02 -1.313500e-03 -3.470694e-02 -2.144688e-01 1.588160e-01 3.667475e-01 4.904943e-01 -2.256638e-01 2.806630e-01 9.430840e-02 -1.507469e-01 -2.927225e-02 8.079977e-02 7.132372e-02 -1.797149e-01 -5.926877e-02 3.731010e-02 -6.580643e-02
<VARIANCE> 39
 9.354136e+01 1.021914e+02 1.472354e+02 7.449448e+01 5.070980e+01 8.925977e+01 6.045183e+01 4.890462e+01 5.725987e+01 4.080247e+01 2.726477e+01 2.250158e+01 3.676175e+01 1.120524e+01 9.457355e+00 9.101828e+00 8.093615e+00 4.399408e+00 6.015264e+00 5.275695e+00 3.110831e+00 4.417607e+00 5.816988e+00 2.275983e+00 2.060727e+00 4.542641e+00 1.279079e+00 1.384050e+00 1.622718e+00 1.204005e+00 5.800108e-01 1.301095e+00 8.279131e-01 6.591068e-01 7.524364e-01 1.289920e+00 5.603543e-01 5.009195e-01 6.557164e-01
<GCONST> 1.443077e+02
<STATE> 4
<MEAN> 39
 4.839674e+00 -6.916613e+00 2.458737e+00 -1.817702e+00 3.589011e-01 -1.023645e+01 -1.092062e+01 -5.203397e+00 -5.308362e+00 1.463884e-01 -2.430199e-01 -5.686471e+00 6.528094e+01 2.967154e-01 4.763600e-01 7.205183e-02 2.234487e-01 2.899777e-01 3.071087e-01 -5.936769e-02 2.412599e-01 8.593637e-02 -1.956770e-01 -2.263865e-01 -1.130784e-01 -6.672554e-02 -2.756242e-01 1.525788e-01 1.791427e-01 5.739191e-02 5.825640e-02 2.651459e-01 1.852229e-01 -5.982269e-03 3.432513e-02 -1.434040e-02 -4.647686e-04 1.094598e-01 -2.593968e-01
<VARIANCE> 39
 1.054328e+02 1.107749e+02 1.022281e+02 8.447706e+01 7.890515e+01 6.639326e+01 8.192509e+01 6.726369e+01 5.561816e+01 5.737058e+01 4.367611e+01 5.094936e+01 3.700721e+01 7.060498e+00 5.105223e+00 5.308270e+00 6.877616e+00 3.043539e+00 7.407469e+00 7.061505e+00 3.934827e+00 4.582893e+00 2.595947e+00 2.795183e+00 3.743537e+00 3.188816e+00 9.456207e-01 1.369431e+00 1.170091e+00 1.149812e+00 6.181725e-01 1.524233e+00 1.078579e+00 8.587466e-01 7.323857e-01 5.164708e-01 5.671543e-01 6.456158e-01 4.844673e-01
<GCONST> 1.439952e+02
<TRANSP> 5
 0.000000e+00 1.000000e+00 0.000000e+00 0.000000e+00 0.000000e+00
 0.000000e+00 5.300390e-01 4.699611e-01 0.000000e+00 0.000000e+00
 0.000000e+00 0.000000e+00 7.266564e-01 2.733436e-01 0.000000e+00
 0.000000e+00 0.000000e+00 0.000000e+00 7.453458e-01 2.546543e-01
 0.000000e+00 0.000000e+00 0.000000e+00 0.000000e+00 0.000000e+00
<ENDHMM>
~h "g"
<BEGINHMM>
<NUMSTATES> 5
<STATE> 2
<MEAN> 39
 1.230491e+01 -3.753228e-01 -8.002311e+00 -8.549310e+00 -3.524994e+00 -8.648790e+00 -5.846331e+00 1.914290e+00 -2.819869e+00 -7.452600e+00 -2.588247e+00 6.161051e-01 6.578821e+01 3.802874e-01 2.093520e-01 -2.170831e-01 -5.758209e-01 -1.127822e+00 -6.251809e-01 8.657255e-01 1.467303e+00 6.872022e-01 -6.002352e-01 -6.584561e-01 -2.032012e-01 1.553075e-01 -3.239146e-01 1.403900e-01 4.091262e-01 1.463820e-01 1.030980e-01 1.676708e-01 1.952219e-02 -2.497365e-01 -5.451758e-02 1.884485e-01 1.983615e-02 -1.285086e-01 -2.250581e-01
<VARIANCE> 39
 4.113910e+01 7.087144e+01 8.718398e+01 2.401152e+01 4.149763e+01 4.101912e+01 2.919913e+01 8.888943e+01 6.539240e+01 3.367627e+01 3.976038e+01 2.166572e+01 3.434841e+01 2.054770e+00 2.149949e+00 3.070888e+00 2.330439e+00 2.350028e+00 1.969193e+00 1.579484e+00 2.111545e+00 2.249487e+00 1.808812e+00 1.885341e+00 1.666920e+00 9.978886e-01 1.771213e-01 3.170925e-01 2.764049e-01 2.870993e-01 3.263138e-01 3.531110e-01 2.757820e-01 3.196051e-01 4.399292e-01 2.405339e-01 3.173302e-01 2.140132e-01 8.158161e-02
<GCONST> 1.118870e+02
<STATE> 3
<MEAN> 39
 9.939491e+00 7.484576e+00 1.321522e+00 -8.426326e+00 -8.939975e+00 -1.009169e+01 -5.591933e-01 5.719734e+00 -1.140376e+00 -7.393665e+00 -5.289649e+00 -2.372797e+00 6.236884e+01 -5.638205e-01 3.146381e-01 8.768792e-01 6.022776e-01 5.301579e-01 6.781071e-01 3.329570e-01 -5.094268e-01 -5.053402e-01 6.262323e-02 1.476539e-01 -1.129467e-01 -4.081586e-01 -1.413581e-01 -1.683672e-01 2.048072e-02 2.362232e-01 3.548527e-01 2.887204e-01 -2.404684e-02 -2.564793e-01 -1.494325e-01 1.332335e-01 1.914632e-01 2.983099e-02 -5.524978e-02
<VARIANCE> 39
 2.576056e+01 4.014128e+01 5.275852e+01 1.851799e+01 3.152546e+01 5.511905e+01 3.662515e+01 5.629280e+01 3.750049e+01 3.065299e+01 2.306816e+01 2.323863e+01 1.846907e+01 6.337150e-01 1.406325e+00 2.321106e+00 1.410246e+00 2.738472e+00 3.055588e+00 1.647850e+00 2.083984e+00 1.872812e+00 1.722619e+00 1.259617e+00 1.220976e+00 3.917655e-01 1.362225e-01 2.450846e-01 2.696812e-01 2.144289e-01 3.499900e-01 4.163691e-01 3.226703e-01 3.624555e-01 2.400281e-01 2.814347e-01 3.029204e-01 2.212365e-01 7.242064e-02
<GCONST> 1.035905e+02
<STATE> 4
<MEAN> 39
 1.015308e+00 -1.890900e+00 6.713108e+00 -6.300698e-02 -3.723644e+00 -3.833642e+00 2.360186e+00 -1.073626e+00 -8.892378e+00 -4.459339e+00 8.735923e-01 -3.108091e+00 6.019692e+01 -9.433202e-01 -9.361647e-01 4.737143e-01 4.553354e-01 2.079601e-01 2.903537e-01 4.885637e-02 -5.075069e-01 -1.666569e-01 5.092041e-01 3.853078e-01 -6.531042e-02 -2.019820e-01 9.234440e-02 8.722198e-02 -1.424690e-01 -2.922085e-01 -1.932455e-01 -1.788030e-01 -1.135280e-01 1.061184e-01 1.967566e-01 -5.173912e-02 -1.838652e-01 8.852101e-03 4.385454e-02
<VARIANCE> 39
 8.599624e+01 1.289780e+02 8.430311e+01 6.143896e+01 7.880549e+01 4.540865e+01 7.663578e+01 3.752672e+01 7.212631e+01 4.302129e+01 3.624225e+01 2.605973e+01 2.137710e+01 4.122368e+00 8.562471e+00 4.364351e+00 4.541155e+00 4.902964e+00 3.814888e+00 5.633412e+00 3.019933e+00 4.617967e+00 3.699176e+00 3.825659e+00 2.023848e+00 1.073523e+00 3.461811e-01 9.677154e-01 6.271466e-01 5.689700e-01 8.524845e-01 6.461861e-01 8.889086e-01 4.182804e-01 6.613807e-01 6.255731e-01 5.314630e-01 3.670621e-01 1.201957e-01
<GCONST> 1.325672e+02
<TRANSP> 5
 0.000000e+00 1.000000e+00 0.000000e+00 0.000000e+00 0.000000e+00
 0.000000e+00 6.999471e-01 3.000529e-01 0.000000e+00 0.000000e+00
 0.000000e+00 0.000000e+00 7.888094e-01 2.111906e-01 0.000000e+00
 0.000000e+00 0.000000e+00 0.000000e+00 7.446675e-01 2.553325e-01
 0.000000e+00 0.000000e+00 0.000000e+00 0.000000e+00 0.000000e+00
<ENDHMM>
~h "i"
<BEGINHMM>
<NUMSTATES> 5
<STATE> 2
<MEAN> 39
 -6.924882e+00 -5.349689e+00 7.358494e+00 -4.410086e+00 -2.754603e-01 -1.464571e+00 -2.787023e+00 -5.423360e+00 -3.850381e+00 -1.221410e-01 -2.111108e+00 -3.334532e+00 5.751349e+01 3.112695e-01 -1.163584e-01 -1.918609e-01 4.357592e-01 1.905117e-01 -2.109362e-01 -4.521557e-01 -4.964485e-01 -1.136255e-01 8.423271e-02 -6.827408e-02 -9.257818e-02 1.609800e-01 5.960285e-01 1.461535e-01 -2.068108e-01 1.274886e-01 5.862819e-02 -4.150707e-01 -4.512945e-01 -6.358070e-02 -3.067880e-02 -4.971124e-02 3.540115e-02 -5.515119e-02 3.232409e-01
<VARIANCE> 39
 9.209180e+01 9.555342e+01 8.894529e+01 9.710650e+01 6.289883e+01 4.561747e+01 6.178737e+01 4.549215e+01 4.418763e+01 3.261471e+01 2.701362e+01 2.353497e+01 4.379987e+01 8.852362e+00 8.049952e+00 7.333939e+00 8.614331e+00 4.710417e+00 5.319998e+00 6.566365e+00 4.154932e+00 3.840331e+00 3.272935e+00 2.580219e+00 2.216220e+00 2.838367e+00 7.232147e-01 1.032329e+00 9.309231e-01 1.170209e+00 7.751925e-01 8.999077e-01 9.972223e-01 6.788853e-01 6.497612e-01 5.493819e-01 4.530704e-01 3.971723e-01 4.597497e-01
<GCONST> 1.390131e+02
<STATE> 3
<MEAN> 39
 5.613169e+00 -1.500473e+00 2.847881e+00 2.169260e+00 1.588636e+00 -9.376982e+00 -1.051110e+01 -4.531396e+00 -6.105045e+00 -3.567634e+00 -1.975250e+00 -5.140680e+00 6.266273e+01 1.731112e+00 2.550431e-01 -6.670007e-01 3.045314e-01 4.173410e-01 -1.129216e+00 -1.387800e+00 -7.683846e-02 4.942910e-02 -4.823255e-02 1.816578e-01 -6.751924e-02 1.055010e+00 -3.934520e-01 -1.568007e-01 3.735286e-04 -1.617467e-01 -9.996466e-02 1.241838e-01 2.796535e-01 2.600958e-01 1.866965e-01 2.542493e-02 -4.042980e-02 3.207327e-02 -1.989668e-01
<VARIANCE> 39
 6.075278e+01 7.625333e+01 7.994347e+01 1.091727e+02 8.894161e+01 9.184711e+01 1.124795e+02 1.022477e+02 4.893994e+01 5.328335e+01 3.784166e+01 4.808487e+01 3.843107e+01 6.585997e+00 7.094914e+00 5.520076e+00 8.041611e+00 5.284950e+00 8.206953e+00 9.733649e+00 6.034144e+00 4.410519e+00 4.577373e+00 3.733093e+00 4.009802e+00 3.412515e+00 6.762535e-01 1.284741e+00 8.727908e-01 1.114143e+00 8.402172e-01 1.190609e+00 1.353337e+00 9.658831e-01 8.282629e-01 8.220694e-01 6.799335e-01 6.689128e-01 4.383217e-01
<GCONST> 1.470934e+02
<STATE> 4
<MEAN> 39
 8.055099e+00 1.490721e-01 1.839381e+00 6.936316e+00 7.007504e+00 -1.151356e+01 -1.788284e+01 -8.891710e+00 -1.312764e+00 8.435759e-01 -2.612522e+00 -6.144942e+00 6.297418e+01 -1.754797e-01 1.709374e-01 4.296564e-04 -3.875274e-01 -2.028653e-01 3.616095e-01 5.052178e-01 2.337358e-01 1.242471e-01 6.320231e-03 7.998518e-02 1.984026e-01 -1.636027e-01 -2.313139e-01 3.564958e-02 9.817109e-02 -2.006461e-01 -1.457912e-01 2.786498e-01 3.827878e-01 7.861044e-02 -1.069898e-01 -1.067566e-01 -1.937700e-02 8.999030e-02 -1.550427e-01
<VARIANCE> 39
 4.010254e+01 3.562827e+01 6.315779e+01 8.505670e+01 4.333810e+01 6.464445e+01 7.593887e+01 6.776505e+01 4.103178e+01 3.430237e+01 3.776215e+01 3.122672e+01 2.370840e+01 1.542236e+00 2.149239e+00 2.806428e+00 3.288032e+00 1.893572e+00 3.637895e+00 4.488308e+00 2.370880e+00 2.541169e+00 2.253201e+00 1.975510e+00 1.856428e+00 8.319293e-01 2.473491e-01 3.463026e-01 3.870228e-01 4.272514e-01 3.009211e-01 5.037751e-01 6.674135e-01 4.424427e-01 3.864538e-01 3.911636e-01 3.433622e-01 3.030381e-01 1.243995e-01
<GCONST> 1.184784e+02
<TRANSP> 5
 0.000000e+00 1.000000e+00 0.000000e+00 0.000000e+00 0.000000e+00
 0.000000e+00 7.405725e-01 2.594276e-01 0.000000e+00 0.000000e+00
 0.000000e+00 0.000000e+00 6.911206e-01 3.088793e-01 0.000000e+00
 0.000000e+00 0.000000e+00 0.000000e+00 7.932955e-01 2.067045e-01
 0.000000e+00 0.000000e+00 0.000000e+00 0.000000e+00 0.000000e+00
<ENDHMM>
~h "j"
<BEGINHMM>
<NUMSTATES> 5
<STATE> 2
<MEAN> 39
 5.935910e+00 3.925518e+00 1.025127e+00 -3.310185e+00 1.702783e-01 -3.520472e+00 -4.480738e+00 -2.575952e+00 -1.507279e+00 -1.060959e+00 -1.451400e+00 -2.394972e+00 6.043694e+01 -1.164392e+00 1.501949e-01 8.366701e-01 3.869161e-01 4.551748e-01 1.038137e+00 9.544784e-01 2.032422e-01 1.357733e-01 1.053688e-01 -4.852998e-01 -2.110649e-01 -7.808752e-01 -2.250346e-01 -1.059176e-01 9.737472e-02 2.102074e-03 -3.245299e-02 6.189033e-03 1.107577e-01 1.501957e-01 -6.181535e-02 -1.196155e-01 -6.731023e-02 1.559607e-01 -1.158709e-01
<VARIANCE> 39
 7.043914e+01 7.460288e+01 7.118227e+01 4.065656e+01 3.997056e+01 2.557940e+01 3.323589e+01 4.509603e+01 3.545685e+01 3.125993e+01 3.236199e+01 1.594633e+01 2.781542e+01 3.157759e+00 3.616686e+00 3.857813e+00 2.736414e+00 3.005327e+00 2.199408e+00 1.989593e+00 2.575302e+00 2.141035e+00 1.766052e+00 2.041296e+00 1.299177e+00 1.688516e+00 3.472653e-01 6.353207e-01 5.574649e-01 3.629898e-01 3.815765e-01 3.765977e-01 2.757435e-01 4.184577e-01 3.638888e-01 3.218454e-01 4.608708e-01 2.370582e-01 1.910711e-01
<GCONST> 1.169609e+02
<STATE> 3
<MEAN> 39
 1.601405e+00 5.999291e+00 7.201285e+00 6.401166e-03 2.106885e+00 7.295978e-01 -1.466257e-01 -1.219924e+00 -2.339768e+00 -2.564710e+00 -2.960514e+00 -2.431065e+00 5.748575e+01 -8.896371e-01 -5.960041e-01 -1.247780e-01 -1.040583e-01 5.546006e-02 2.801230e-01 4.767511e-01 3.242999e-01 -1.080419e-01 -1.648894e-01 -1.263907e-01 2.709976e-01 -4.645014e-01 1.769921e-01 -1.380580e-01 -3.100773e-01 -1.837935e-01 -2.243258e-01 -3.628536e-01 -3.022337e-01 6.836893e-03 2.339791e-02 -5.613536e-03 7.032219e-02 5.740642e-02 1.294113e-01
<VARIANCE> 39
 5.218843e+01 4.991088e+01 6.872499e+01 4.574390e+01 2.492269e+01 2.669596e+01 2.533686e+01 3.469179e+01 3.445118e+01 2.360780e+01 1.612963e+01 1.581612e+01 2.053713e+01 1.036713e+00 1.437918e+00 2.467686e+00 2.231953e+00 1.986858e+00 1.725117e+00 1.536208e+00 1.806108e+00 1.331464e+00 1.298611e+00 1.263138e+00 1.109502e+00 3.964474e-01 1.716464e-01 1.488249e-01 2.492293e-01 2.569063e-01 2.882440e-01 2.917244e-01 2.770932e-01 3.263389e-01 3.268264e-01 2.059464e-01 2.499989e-01 1.961670e-01 9.915207e-02
<GCONST> 1.011377e+02
<STATE> 4
<MEAN> 39
 7.643216e+00 3.278365e+00 -2.573606e+00 -5.513160e+00 -9.918998e-01 -5.789304e-02 -2.150970e+00 -3.891438e-01 -2.765744e+00 -5.415174e+00 -5.012387e+00 -7.346228e-01 6.239567e+01 -2.277659e-01 -9.011255e-02 3.902281e-02 3.398903e-03 -1.333371e-01 -4.245105e-02 9.423026e-02 6.588779e-02 -1.093914e-01 -1.266074e-01 -7.428514e-02 8.245276e-03 -1.598320e-01 5.911466e-02 4.916892e-03 3.001136e-02 1.108335e-01 2.008470e-02 -8.420418e-02 -1.607389e-01 -1.657917e-01 -3.929569e-02 6.548859e-02 1.294507e-01 9.247038e-03 3.464382e-02
<VARIANCE> 39
 9.733353e+01 4.974371e+01 1.154263e+02 4.103875e+01 2.805101e+01 4.136761e+01 3.962720e+01 3.267062e+01 2.637443e+01 2.195659e+01 2.710635e+01 2.244613e+01 4.664085e+01 2.746151e-01 5.238721e-01 7.140580e-01 8.118751e-01 1.014707e+00 7.418346e-01 1.184194e+00 1.106772e+00 7.518701e-01 9.671425e-01 8.193847e-01 6.147765e-01 1.231078e-01 9.039594e-02 8.047158e-02 1.273794e-01 1.161809e-01 1.442974e-01 1.408734e-01 1.772343e-01 1.824817e-01 1.446357e-01 1.278713e-01 1.446349e-01 9.979332e-02 4.889009e-02
<GCONST> 8.615568e+01
<TRANSP> 5
 0.000000e+00 1.000000e+00 0.000000e+00 0.000000e+00 0.000000e+00
 0.000000e+00 4.964055e-01 5.035946e-01 0.000000e+00 0.000000e+00
 0.000000e+00 0.000000e+00 6.457081e-01 3.542919e-01 0.000000e+00
 0.000000e+00 0.000000e+00 0.000000e+00 7.389939e-01 2.610061e-01
 0.000000e+00 0.000000e+00 0.000000e+00 0.000000e+00 0.000000e+00
<ENDHMM>
~h "k"
<BEGINHMM>
<NUMSTATES> 5
<STATE> 2
<MEAN> 39
 8.021970e+00 -2.714535e-01 -2.609038e+00 -3.500535e-01 2.768970e+00 -7.166050e+00 -1.074069e+01 -5.698437e+00 -3.164288e+00 -1.785804e+00 -7.062195e-01 -1.287601e+00 6.257395e+01 8.110293e-01 -4.499191e-01 -8.148509e-01 4.728112e-01 7.947653e-01 -7.201228e-01 -1.280826e+00 -3.261884e-01 4.827541e-01 7.155852e-01 4.842359e-01 -2.143197e-01 6.452736e-01 -2.997135e-01 9.181812e-02 3.161620e-01 -1.072045e-02 -1.368092e-01 1.044265e-01 2.954253e-01 1.666134e-01 3.352771e-02 1.352953e-02 -9.921346e-02 -1.247662e-01 -1.927417e-01
<VARIANCE> 39
 7.918229e+01 5.211395e+01 7.397643e+01 8.680830e+01 6.399852e+01 6.364490e+01 7.558681e+01 7.014476e+01 3.106574e+01 3.547508e+01 2.562870e+01 2.468356e+01 4.686847e+01 3.147790e+00 2.796952e+00 3.791440e+00 3.230800e+00 3.292660e+00 3.272674e+00 5.616659e+00 3.225648e+00 2.316339e+00 2.854600e+00 1.630537e+00 1.722355e+00 1.722812e+00 5.025529e-01 4.977233e-01 5.812513e-01 4.516157e-01 5.365140e-01 5.590436e-01 7.285557e-01 5.030409e-01 4.083342e-01 4.265153e-01 3.013245e-01 2.593473e-01 2.787789e-01
<GCONST> 1.258748e+02
<STATE> 3
<MEAN> 39
 1.174220e+01 -2.049692e+00 -4.854469e+00 1.513265e+00 5.965403e+00 -1.097021e+01 -1.603438e+01 -6.473935e+00 -1.884788e+00 8.752976e-01 1.127391e+00 -2.615010e+00 6.591450e+01 -2.775695e-01 4.183881e-01 4.755324e-01 -2.271490e-02 1.221717e-01 3.640581e-01 1.123866e-01 -1.214542e-01 1.111942e-01 2.819682e-01 6.921808e-02 -1.594122e-01 -2.729187e-01 -1.680255e-01 1.506857e-01 2.326865e-01 1.266427e-03 -1.373929e-02 2.291601e-01 1.963640e-01 -4.074626e-02 -1.010840e-01 -7.786639e-02 -7.913975e-02 -1.028195e-02 -1.467135e-01
<VARIANCE> 39
 3.948579e+01 3.151404e+01 5.154478e+01 6.327945e+01 3.932763e+01 5.378483e+01 5.988741e+01 6.113393e+01 2.754972e+01 3.148805e+01 2.222080e+01 2.092560e+01 2.749555e+01 3.729720e-01 8.110495e-01 1.411891e+00 1.415553e+00 8.842628e-01 1.630644e+00 1.517401e+00 1.327085e+00 1.193856e+00 1.136079e+00 8.117721e-01 8.111815e-01 2.823928e-01 1.057819e-01 1.427669e-01 2.417082e-01 1.911549e-01 1.682164e-01 2.690863e-01 3.029334e-01 2.365726e-01 1.804148e-01 2.062747e-01 1.412423e-01 1.368898e-01 5.972084e-02
<GCONST> 9.510938e+01
<STATE> 4
<MEAN> 39
 6.478376e+00 3.732757e+00 4.079491e+00 4.135289e+00 7.206704e+00 -6.183593e+00 -1.341864e+01 -7.845622e+00 -9.606907e-01 1.315480e+00 -1.603321e+00 -4.954599e+00 6.113004e+01 -6.705968e-01 5.190123e-01 7.643034e-01 -2.597960e-01 -3.108366e-01 9.758185e-01 1.308678e+00 3.108394e-01 -3.082836e-01 -4.275469e-01 -2.257019e-01 1.154418e-01 -5.515137e-01 -4.426044e-02 -1.032447e-01 -7.204209e-02 -1.176587e-01 -1.793165e-01 -1.307476e-02 1.994357e-01 1.351825e-01 -7.423972e-02 -1.513978e-01 -2.088617e-02 1.117195e-01 -9.822268e-04
<VARIANCE> 39
 4.081688e+01 2.827367e+01 5.961889e+01 7.280642e+01 5.118410e+01 5.239865e+01 8.882736e+01 6.167560e+01 3.589187e+01 3.506141e+01 3.172705e+01 2.614313e+01 2.520389e+01 1.302729e+00 1.881010e+00 2.740167e+00 3.131949e+00 1.734416e+00 3.154988e+00 4.430616e+00 2.541282e+00 2.138644e+00 2.111950e+00 1.676301e+00 1.682559e+00 7.724497e-01 1.592559e-01 2.736849e-01 3.082115e-01 3.627911e-01 3.085620e-01 4.957648e-01 6.529723e-01 4.205364e-01 3.705396e-01 3.722673e-01 2.621347e-01 2.608515e-01 1.007647e-01
<GCONST> 1.146931e+02
<TRANSP> 5
 0.000000e+00 1.000000e+00 0.000000e+00 0.000000e+00 0.000000e+00
 0.000000e+00 4.555326e-01 5.444673e-01 0.000000e+00 0.000000e+00
 0.000000e+00 0.000000e+00 7.264789e-01 2.735211e-01 0.000000e+00
 0.000000e+00 0.000000e+00 0.000000e+00 6.531203e-01 3.468796e-01
 0.000000e+00 0.000000e+00 0.000000e+00 0.000000e+00 0.000000e+00
<ENDHMM>
~h "l"
<BEGINHMM>
<NUMSTATES> 5
<STATE> 2
<MEAN> 39
 1.460955e-01 -4.215897e+00 3.912856e+00 -3.493031e+00 9.932919e-01 -5.785201e+00 -5.490712e+00 -3.355551e+00 -6.454386e+00 -3.341121e+00 -9.542390e-01 -4.657954e+00 6.158836e+01 5.673522e-01 3.233934e-02 -4.299334e-01 -3.705351e-01 -1.956335e-01 -1.857952e-01 -1.657142e-01 -3.302255e-02 4.097515e-02 1.389395e-03 4.405545e-02 9.786011e-02 3.629034e-01 2.434281e-01 7.082819e-02 -9.642237e-02 6.157222e-02 1.241124e-02 -1.827534e-01 -1.533893e-01 6.152610e-02 6.235218e-02 -1.015757e-02 1.361453e-02 5.255826e-03 1.182630e-01
<VARIANCE> 39
 1.221860e+02 7.997210e+01 9.398826e+01 8.711691e+01 5.515467e+01 7.673074e+01 9.795882e+01 8.585449e+01 5.251072e+01 4.863770e+01 3.952428e+01 4.199511e+01 7.445100e+01 9.753405e+00 6.170470e+00 6.995568e+00 6.540939e+00 3.682268e+00 6.213483e+00 7.640019e+00 5.594956e+00 4.985837e+00 3.389276e+00 3.665159e+00 2.933278e+00 3.978923e+00 1.177157e+00 1.045480e+00 9.949233e-01 9.600010e-01 5.609496e-01 1.028714e+00 1.224275e+00 8.922361e-01 8.913726e-01 6.152955e-01 6.959001e-01 5.251034e-01 5.991142e-01
<GCONST> 1.458025e+02
<STATE> 3
<MEAN> 39
 8.657086e+00 6.785979e-01 -2.496886e+00 -3.751533e+00 -1.127681e+00 -8.908897e+00 -9.935351e+00 -3.669924e+00 -2.990351e+00 -2.497025e+00 -1.583805e+00 -1.844359e+00 6.299432e+01 1.681661e+00 -1.341534e-01 -1.175537e+00 -5.404671e-02 2.382789e-01 -1.069500e+00 -1.154108e+00 4.164654e-01 8.298988e-01 4.174919e-02 1.834581e-01 2.611432e-01 1.145632e+00 -7.004938e-01 -2.045069e-01 2.683174e-01 9.091105e-02 9.942888e-02 3.627442e-01 4.280944e-01 9.193680e-02 1.477809e-02 -2.897743e-02 -6.342416e-02 1.532037e-02 -3.675386e-01
<VARIANCE> 39
 7.445619e+01 6.499113e+01 7.979572e+01 8.975131e+01 7.214336e+01 7.414040e+01 8.926579e+01 7.410245e+01 3.704811e+01 4.218139e+01 3.305054e+01 2.683266e+01 3.923468e+01 5.963439e+00 5.611348e+00 5.132837e+00 5.802692e+00 4.382628e+00 5.021810e+00 5.350726e+00 4.891990e+00 3.311009e+00 3.198156e+00 2.675118e+00 2.000626e+00 2.579475e+00 6.407562e-01 8.454112e-01 8.258540e-01 6.868200e-01 6.854231e-01 7.502645e-01 7.676626e-01 7.615730e-01 6.297122e-01 4.972161e-01 4.649023e-01 3.122951e-01 2.392869e-01
<GCONST> 1.355739e+02
<STATE> 4
<MEAN> 39
 1.056432e+01 -1.013328e+00 -5.522010e+00 -3.665037e+00 2.038964e+00 -7.685604e+00 -1.087819e+01 -3.474857e+00 -2.362811e+00 -2.452563e+00 -1.188318e-01 -4.011996e-01 6.469625e+01 -3.115622e-01 1.573497e-01 2.497869e-01 7.888594e-02 4.283614e-02 2.733625e-01 3.866501e-01 1.086755e-01 1.292447e-01 2.032080e-02 -1.735445e-02 2.428645e-02 -2.323477e-01 -2.718855e-01 6.024075e-02 2.721407e-01 4.024068e-02 -4.630198e-02 1.744979e-01 1.946607e-01 4.812128e-03 -4.809743e-02 -1.981254e-02 -7.917532e-02 -7.031144e-02 -1.841024e-01
<VARIANCE> 39
 6.326241e+01 4.929858e+01 7.704932e+01 7.307101e+01 4.599128e+01 5.515367e+01 7.333468e+01 6.825506e+01 3.356512e+01 4.229674e+01 3.181088e+01 2.339624e+01 3.349001e+01 2.015347e+00 2.396669e+00 3.604826e+00 2.463487e+00 2.094401e+00 3.034260e+00 2.346949e+00 2.978256e+00 1.961668e+00 1.529881e+00 1.722004e+00 1.105346e+00 1.225504e+00 3.622468e-01 3.745883e-01 4.729429e-01 3.725543e-01 3.063686e-01 4.888090e-01 4.529678e-01 4.389471e-01 3.522029e-01 2.820041e-01 3.186515e-01 2.235820e-01 1.746146e-01
<GCONST> 1.176516e+02
<TRANSP> 5
 0.000000e+00 1.000000e+00 0.000000e+00 0.000000e+00 0.000000e+00
 0.000000e+00 8.202565e-01 1.797435e-01 0.000000e+00 0.000000e+00
 0.000000e+00 0.000000e+00 4.095134e-01 5.904865e-01 0.000000e+00
 0.000000e+00 0.000000e+00 0.000000e+00 6.986797e-01 3.013203e-01
 0.000000e+00 0.000000e+00 0.000000e+00 0.000000e+00 0.000000e+00
<ENDHMM>
~h "m"
<BEGINHMM>
<NUMSTATES> 5
<STATE> 2
<MEAN> 39
 -2.093767e+00 -1.448679e+00 3.307820e+00 -3.243372e+00 -4.138959e-01 -2.897797e+00 -6.576436e+00 -6.976256e+00 -4.785915e+00 -2.603755e+00 -2.011675e+00 -3.565410e+00 5.787991e+01 1.210829e+00 2.480411e-01 -1.791787e-01 7.973379e-01 7.277229e-01 -6.184257e-01 -1.264311e+00 -8.960259e-01 -1.051102e-01 3.061525e-01 1.403637e-01 -2.410723e-01 7.380366e-01 3.607691e-01 9.546675e-02 -5.839798e-02 1.990552e-01 1.398247e-01 -3.595715e-01 -4.304086e-01 -3.845030e-02 1.676262e-01 1.263930e-01 -3.542819e-02 -1.280306e-01 2.078170e-01
<VARIANCE> 39
 1.238350e+02 8.142889e+01 6.803094e+01 8.637859e+01 6.379480e+01 5.641982e+01 7.399260e+01 5.350754e+01 4.279182e+01 3.510064e+01 2.871338e+01 2.587447e+01 4.447711e+01 9.338555e+00 8.539611e+00 5.944176e+00 6.648483e+00 4.552202e+00 5.071724e+00 7.289515e+00 4.662350e+00 3.786515e+00 3.625942e+00 3.037050e+00 2.332606e+00 2.872659e+00 1.001963e+00 1.172688e+00 8.783133e-01 8.797755e-01 6.409404e-01 8.236850e-01 1.067335e+00 7.642499e-01 6.943449e-01 6.638913e-01 5.395423e-01 4.194247e-01 3.877611e-01
<GCONST> 1.399739e+02
<STATE> 3
<MEAN> 39
 8.346493e+00 -8.393328e-01 -8.116275e-01 2.639622e+00 4.778627e+00 -9.257235e+00 -1.610920e+01 -9.167994e+00 -3.942949e+00 -7.008499e-01 -9.491482e-01 -4.750431e+00 6.360612e+01 8.339624e-01 -3.198637e-01 -3.283667e-01 7.885937e-01 5.556147e-01 -1.284196e+00 -1.367451e+00 2.615261e-02 6.620258e-01 6.455003e-01 3.902806e-02 -5.374167e-01 6.929587e-01 -6.835116e-01 -3.325897e-02 2.307258e-01 -3.032693e-01 -3.446807e-01 4.175518e-01 8.408133e-01 4.642227e-01 2.110193e-02 -1.827859e-01 -1.207280e-01 1.069655e-01 -4.404039e-01
<VARIANCE> 39
 6.558945e+01 6.276930e+01 5.894804e+01 9.206619e+01 7.057698e+01 5.994769e+01 9.672271e+01 9.082256e+01 3.670721e+01 4.562360e+01 3.558175e+01 4.199678e+01 4.549428e+01 3.576224e+00 4.093399e+00 3.533577e+00 4.566293e+00 2.936296e+00 4.891207e+00 5.673610e+00 2.954767e+00 2.590831e+00 2.504746e+00 2.604235e+00 2.625076e+00 2.012370e+00 5.871267e-01 1.015998e+00 6.891034e-01 7.860751e-01 5.359558e-01 6.556506e-01 8.646988e-01 6.256474e-01 4.344772e-01 4.348930e-01 5.548257e-01 3.549013e-01 2.626408e-01
<GCONST> 1.326027e+02
<STATE> 4
<MEAN> 39
 7.562713e+00 2.759333e+00 3.770286e+00 5.443102e+00 5.721540e+00 -1.129010e+01 -1.772618e+01 -9.576656e+00 -1.342253e+00 1.181417e+00 -3.484164e+00 -7.631539e+00 6.220304e+01 -4.891346e-01 4.327189e-01 5.949190e-01 -1.459505e-01 -1.992096e-01 5.934035e-01 8.786477e-01 3.768806e-01 3.980522e-02 -1.340794e-01 -4.855511e-02 1.425891e-01 -4.209206e-01 -1.467139e-01 -3.487070e-02 6.449864e-03 -1.309546e-01 -7.552681e-02 2.176262e-01 2.648232e-01 4.153658e-02 -1.091766e-01 -7.957482e-02 4.665620e-02 1.269027e-01 -9.069458e-02
<VARIANCE> 39
 3.175876e+01 4.509978e+01 5.892678e+01 7.066798e+01 5.497082e+01 5.245149e+01 7.899553e+01 6.916802e+01 3.429590e+01 3.339285e+01 3.316721e+01 2.889504e+01 2.203345e+01 1.162128e+00 1.439526e+00 2.213499e+00 2.508794e+00 1.421660e+00 2.664672e+00 3.485599e+00 1.738869e+00 1.666165e+00 1.400337e+00 1.402071e+00 1.307758e+00 6.592264e-01 1.441682e-01 2.829162e-01 2.922037e-01 3.308961e-01 2.617312e-01 3.831863e-01 5.384215e-01 2.807418e-01 2.812540e-01 2.652350e-01 2.355199e-01 2.352182e-01 7.849425e-02
<GCONST> 1.094936e+02
<TRANSP> 5
 0.000000e+00 1.000000e+00 0.000000e+00 0.000000e+00 0.000000e+00
 0.000000e+00 6.933038e-01 3.066962e-01 0.000000e+00 0.000000e+00
 0.000000e+00 0.000000e+00 4.751928e-01 5.248072e-01 0.000000e+00
 0.000000e+00 0.000000e+00 0.000000e+00 8.093883e-01 1.906117e-01
 0.000000e+00 0.000000e+00 0.000000e+00 0.000000e+00 0.000000e+00
<ENDHMM>
~h "n"
<BEGINHMM>
<NUMSTATES> 5
<STATE> 2
<MEAN> 39
 8.739370e+00 5.084490e-01 -4.695057e+00 -6.563721e+00 -1.754160e+00 -6.442506e+00 -6.096674e+00 -1.186725e+00 -2.437684e+00 -4.501613e+00 -1.821404e+00 4.861434e-01 6.330882e+01 -2.391018e-01 2.306036e-01 2.310364e-01 -2.935972e-01 -3.123543e-01 1.658879e-01 4.334058e-01 2.143720e-01 -2.619856e-02 -1.467844e-01 -4.941673e-02 1.286627e-01 -2.179525e-01 -2.271834e-01 6.446647e-02 3.036303e-01 2.074345e-01 1.162581e-01 1.852086e-01 5.287558e-02 -1.761388e-01 -8.436337e-02 6.849732e-02 -3.038041e-02 -1.499867e-01 -1.661742e-01
<VARIANCE> 39
 8.657420e+01 6.052008e+01 8.700802e+01 4.911701e+01 4.359402e+01 4.282468e+01 4.950428e+01 5.222789e+01 3.025665e+01 3.271190e+01 3.170608e+01 3.342561e+01 5.025078e+01 1.487001e+00 2.220474e+00 2.945466e+00 2.362786e+00 2.141545e+00 2.474831e+00 2.179881e+00 2.383178e+00 1.803220e+00 1.789715e+00 1.524099e+00 1.342561e+00 7.718563e-01 2.125731e-01 3.238498e-01 4.230159e-01 2.894411e-01 2.592489e-01 3.802029e-01 3.473638e-01 2.855370e-01 2.678673e-01 2.444601e-01 2.610966e-01 2.241687e-01 1.028639e-01
<GCONST> 1.126077e+02
<STATE> 3
<MEAN> 39
 3.953431e+00 1.530191e+00 2.864424e-01 -3.893822e+00 -1.258549e+00 -5.345784e+00 -5.398997e+00 -2.455279e+00 -3.779420e+00 -3.567953e+00 -1.563656e+00 -1.183829e+00 5.980302e+01 -7.658890e-01 4.086973e-01 7.800813e-01 1.581039e-01 3.533506e-02 7.689477e-01 5.829023e-01 -1.348345e-01 -8.537403e-02 3.277896e-02 -2.032549e-01 -1.720691e-01 -6.601350e-01 -1.645895e-01 -1.164001e-01 9.312221e-02 1.648597e-01 1.203114e-01 1.474267e-01 2.913210e-02 -8.929170e-02 1.141397e-02 1.086136e-01 -1.868471e-02 -1.564615e-01 -6.746697e-02
<VARIANCE> 39
 1.047275e+02 6.287531e+01 6.620898e+01 5.278711e+01 5.209857e+01 5.288480e+01 5.689183e+01 5.039949e+01 3.012287e+01 3.460014e+01 3.138658e+01 2.922820e+01 5.488282e+01 2.185447e+00 3.294916e+00 3.948790e+00 2.961059e+00 2.519727e+00 3.429799e+00 3.026659e+00 2.812757e+00 2.074675e+00 2.290249e+00 1.720991e+00 1.714344e+00 1.231434e+00 2.785196e-01 4.839535e-01 5.135950e-01 3.544922e-01 3.570933e-01 4.300510e-01 4.659556e-01 3.598718e-01 3.381644e-01 3.806812e-01 3.165518e-01 2.951604e-01 1.344874e-01
<GCONST> 1.200736e+02
<STATE> 4
<MEAN> 39
 2.960188e+00 2.893580e+00 4.074204e+00 -3.213570e+00 -2.407908e+00 -4.453174e+00 -3.363409e+00 -3.161204e+00 -5.065725e+00 -3.978473e+00 -2.606944e+00 -2.994036e+00 5.922530e+01 -5.667728e-01 -9.444852e-02 2.971239e-01 1.503166e-01 1.613360e-01 3.110590e-01 2.131166e-01 -1.197889e-01 -4.013722e-02 9.714067e-02 -4.557031e-02 -9.424968e-02 -3.322695e-01 5.803357e-02 -1.429213e-01 -2.052397e-01 -6.828408e-02 3.121987e-03 -1.505320e-01 -1.256625e-01 5.344096e-02 7.447591e-02 1.168036e-02 3.700201e-02 5.537229e-02 7.892706e-02
<VARIANCE> 39
 7.325833e+01 6.914159e+01 5.904793e+01 4.720584e+01 6.463501e+01 6.324316e+01 6.238916e+01 5.485043e+01 4.212424e+01 4.109630e+01 3.631152e+01 2.606885e+01 3.052307e+01 3.286907e+00 4.002173e+00 4.399888e+00 3.226930e+00 3.374382e+00 3.965512e+00 3.412477e+00 3.247584e+00 2.691760e+00 2.900806e+00 2.293672e+00 2.029478e+00 1.228705e+00 3.628151e-01 6.339062e-01 5.678957e-01 4.968318e-01 5.931699e-01 6.421847e-01 5.400765e-01 5.038615e-01 4.825396e-01 5.388607e-01 3.957534e-01 3.248317e-01 1.544477e-01
<GCONST> 1.260820e+02
<TRANSP> 5
 0.000000e+00 1.000000e+00 0.000000e+00 0.000000e+00 0.000000e+00
 0.000000e+00 4.782928e-01 5.217072e-01 0.000000e+00 0.000000e+00
 0.000000e+00 0.000000e+00 7.570437e-02 9.242956e-01 0.000000e+00
 0.000000e+00 0.000000e+00 0.000000e+00 5.925067e-01 4.074933e-01
 0.000000e+00 0.000000e+00 0.000000e+00 0.000000e+00 0.000000e+00
<ENDHMM>
~h "o"
<BEGINHMM>
<NUMSTATES> 5
<STATE> 2
<MEAN> 39
 8.014156e+00 1.172196e+00 -1.989930e+00 -4.317772e+00 -1.041662e+00 -7.458190e+00 -7.630150e+00 -9.060417e-01 -2.366423e+00 -3.044637e+00 -9.797038e-01 -1.936497e+00 6.266259e+01 -5.639036e-01 3.252299e-01 7.111377e-01 5.513163e-02 -1.544023e-01 5.292331e-01 8.579757e-01 4.410347e-01 -6.868102e-02 -3.357243e-01 -2.153688e-01 -4.045907e-02 -4.192531e-01 -1.437736e-01 4.138783e-02 1.794939e-01 9.010314e-02 3.959122e-02 1.024466e-01 4.107513e-02 -9.604015e-02 -6.932403e-02 1.185361e-02 -4.793160e-02 -5.590638e-02 -1.021639e-01
<VARIANCE> 39
 7.622171e+01 5.777314e+01 8.072352e+01 6.733710e+01 6.319818e+01 6.625189e+01 6.854991e+01 1.090229e+02 3.803284e+01 5.975416e+01 3.808899e+01 3.806300e+01 4.272647e+01 1.167389e+00 1.772290e+00 2.223908e+00 1.805817e+00 2.204531e+00 2.636442e+00 3.055191e+00 2.677750e+00 1.738008e+00 1.820394e+00 1.454783e+00 1.369423e+00 7.031801e-01 1.413619e-01 2.404417e-01 2.870952e-01 2.620024e-01 2.975199e-01 3.676049e-01 3.820130e-01 3.479443e-01 2.751017e-01 2.680968e-01 2.485073e-01 2.209543e-01 8.272438e-02
<GCONST> 1.139562e+02
<STATE> 3
<MEAN> 39
 3.191582e+00 9.786870e-01 9.402500e-01 -3.950886e+00 -3.079138e+00 -5.338584e+00 -2.580372e+00 -1.870313e-01 -3.291091e+00 -4.164043e+00 -1.560626e+00 -1.289944e+00 5.955253e+01 -6.125036e-01 2.207697e-01 6.822834e-01 3.655351e-01 1.905410e-01 3.816508e-01 3.248773e-01 5.996813e-02 -1.239953e-01 -4.554925e-02 -4.211256e-02 -8.876199e-02 -4.632695e-01 -1.157122e-02 -9.437819e-02 -5.297505e-02 8.110284e-02 9.169571e-02 -3.296503e-02 -1.122146e-01 -9.294225e-02 4.224072e-03 9.626883e-02 2.799058e-02 -1.432038e-02 8.698560e-03
<VARIANCE> 39
 9.145140e+01 1.344516e+02 8.993820e+01 6.813180e+01 6.585222e+01 6.709225e+01 4.805524e+01 4.644023e+01 2.927008e+01 2.974029e+01 2.666347e+01 3.129216e+01 3.329832e+01 1.281507e+00 1.926717e+00 2.175364e+00 1.869483e+00 1.659786e+00 1.860675e+00 2.204896e+00 1.899688e+00 1.515174e+00 1.411553e+00 1.369292e+00 1.252555e+00 6.492832e-01 1.538149e-01 2.745297e-01 2.965654e-01 2.826854e-01 2.775692e-01 3.480170e-01 3.588880e-01 2.729481e-01 2.773092e-01 2.255940e-01 2.285614e-01 1.922649e-01 8.033717e-02
<GCONST> 1.099326e+02
<STATE> 4
<MEAN> 39
 -1.919436e-02 3.747198e+00 6.141318e+00 -1.478843e-01 3.961466e-01 -1.848868e+00 -2.187858e+00 -1.969911e+00 -3.096045e+00 -2.472706e+00 -2.321506e+00 -3.006303e+00 5.682308e+01 -8.095204e-01 -4.844695e-01 2.858169e-02 7.547915e-02 1.165732e-01 2.074447e-01 1.214027e-01 -4.447122e-02 -4.718398e-02 1.169228e-01 4.305910e-02 4.707600e-02 -4.114651e-01 1.403861e-01 -2.033841e-01 -3.162428e-01 -2.255851e-01 -1.628819e-01 -2.188772e-01 -1.756301e-01 -7.210657e-02 -3.011247e-03 6.339981e-02 6.950864e-02 5.350387e-02 1.450324e-01
<VARIANCE> 39
 6.496193e+01 6.096570e+01 5.491117e+01 5.371689e+01 5.227337e+01 5.046609e+01 5.094764e+01 3.894770e+01 2.837435e+01 2.663110e+01 2.118788e+01 1.938396e+01 2.869063e+01 2.430879e+00 2.988636e+00 2.856814e+00 2.599542e+00 2.701214e+00 2.426490e+00 2.756410e+00 1.973107e+00 2.109211e+00 1.794130e+00 1.593299e+00 1.272556e+00 8.191217e-01 3.315564e-01 4.404454e-01 4.443037e-01 4.016662e-01 4.413449e-01 4.667477e-01 5.663854e-01 3.878915e-01 3.966517e-01 3.648476e-01 2.807047e-01 2.169446e-01 1.490587e-01
<GCONST> 1.154459e+02
<TRANSP> 5
 0.000000e+00 1.000000e+00 0.000000e+00 0.000000e+00 0.000000e+00
 0.000000e+00 5.385132e-01 4.614868e-01 0.000000e+00 0.000000e+00
 0.000000e+00 0.000000e+00 5.500014e-01 4.499985e-01 0.000000e+00
 0.000000e+00 0.000000e+00 0.000000e+00 5.713162e-01 4.286838e-01
 0.000000e+00 0.000000e+00 0.000000e+00 0.000000e+00 0.000000e+00
<ENDHMM>
~h "p"
<BEGINHMM>
<NUMSTATES> 5
<STATE> 2
<MEAN> 39
 -4.112272e+00 -5.251389e-01 5.937699e+00 -8.284485e-01 -9.767445e-01 -1.412788e+00 -2.917077e+00 -4.859434e+00 -4.739772e+00 -1.166116e+00 -2.258879e+00 -3.211953e+00 5.514605e+01 -5.092262e-01 -8.600683e-01 -3.844886e-01 -3.497737e-01 -4.579274e-01 2.898747e-01 2.798947e-01 -1.526560e-01 -1.464201e-01 1.143353e-01 7.277966e-02 4.244204e-02 -1.149797e-01 5.575525e-01 -1.623413e-01 -2.630384e-01 -1.451495e-01 -1.296484e-01 -4.069816e-01 -3.131150e-01 -1.146490e-01 -1.702439e-02 -4.668328e-02 8.196501e-02 1.045660e-02 5.072551e-01
<VARIANCE> 39
 8.096743e+01 8.408022e+01 6.116284e+01 4.870824e+01 5.336863e+01 2.767018e+01 3.477281e+01 3.243445e+01 2.665462e+01 2.661621e+01 1.719191e+01 1.638475e+01 3.491547e+01 4.297029e+00 5.615707e+00 5.307605e+00 3.337027e+00 3.558358e+00 3.398715e+00 3.586143e+00 3.016421e+00 2.890883e+00 2.567281e+00 2.011387e+00 1.842589e+00 1.919671e+00 6.332675e-01 9.235830e-01 5.973173e-01 7.256616e-01 6.740046e-01 5.539550e-01 5.563455e-01 5.620470e-01 5.243993e-01 4.215709e-01 3.216685e-01 2.767591e-01 4.350131e-01
<GCONST> 1.252038e+02
<STATE> 3
<MEAN> 39
 -1.572636e+00 -9.032423e-01 2.734865e+00 -1.304241e+00 -1.132959e+00 -3.685811e+00 -5.767308e+00 -6.160216e+00 -3.996066e+00 -9.072737e-01 -1.859801e+00 -2.871740e+00 5.643559e+01 1.880085e+00 -1.304485e-01 -3.323682e-01 -5.083724e-01 -4.029333e-01 -1.225011e+00 -1.001882e+00 -6.630040e-01 -1.786894e-01 -2.223840e-01 1.205527e-01 -1.457845e-02 1.736137e+00 2.456210e-01 1.501084e-01 3.458481e-02 -1.001076e-01 -1.662903e-02 -3.816373e-01 -2.565612e-01 1.763564e-01 7.258441e-02 -1.825214e-01 -4.122227e-02 -2.559860e-03 2.065046e-01
<VARIANCE> 39
 8.552594e+01 8.603000e+01 5.707000e+01 7.444660e+01 7.576169e+01 5.490717e+01 7.025127e+01 5.163887e+01 2.564746e+01 2.941750e+01 1.973313e+01 2.105673e+01 4.559595e+01 9.839202e+00 1.192458e+01 6.820525e+00 5.968677e+00 6.291776e+00 6.629477e+00 8.916355e+00 6.699654e+00 4.689364e+00 4.128006e+00 3.001921e+00 2.055713e+00 4.848334e+00 8.308364e-01 1.125347e+00 8.733945e-01 8.023371e-01 9.414908e-01 1.033577e+00 1.214924e+00 8.819709e-01 5.501081e-01 5.770247e-01 3.664072e-01 2.636981e-01 5.514049e-01
<GCONST> 1.401331e+02
<STATE> 4
<MEAN> 39
 5.113817e+00 -4.572625e+00 1.204381e+00 -4.290395e+00 1.556685e+00 -9.448123e+00 -6.733826e+00 -1.093380e+00 -6.668610e+00 -4.470635e+00 -6.783721e-02 -4.259562e+00 6.576393e+01 2.643321e-01 -3.136564e-02 -1.585214e-01 -6.166492e-02 4.636206e-02 -1.769136e-01 -1.414741e-01 2.541826e-01 2.902695e-02 -1.178323e-01 -2.728225e-02 3.581560e-02 1.748452e-01 -1.300678e-01 7.989162e-02 5.465746e-02 3.604674e-02 3.455421e-02 1.199521e-01 7.145327e-02 4.717617e-02 2.689742e-02 4.570213e-02 -2.479598e-02 -2.229357e-02 -1.572043e-01
<VARIANCE> 39
 1.376875e+02 8.541465e+01 1.027191e+02 9.353825e+01 9.220430e+01 7.683844e+01 1.006751e+02 1.055530e+02 7.739639e+01 5.616822e+01 5.418719e+01 4.902019e+01 4.461800e+01 6.888152e+00 6.292107e+00 4.942461e+00 5.790700e+00 5.297521e+00 6.711276e+00 5.710407e+00 6.171158e+00 5.874530e+00 4.020251e+00 3.448542e+00 3.060309e+00 3.296474e+00 8.826700e-01 1.223509e+00 7.724208e-01 9.532042e-01 9.197249e-01 1.205604e+00 1.006882e+00 1.128580e+00 1.053607e+00 7.470436e-01 6.373476e-01 5.768239e-01 6.070986e-01
<GCONST> 1.476475e+02
<TRANSP> 5
 0.000000e+00 1.000000e+00 0.000000e+00 0.000000e+00 0.000000e+00
 0.000000e+00 5.297631e-01 4.702369e-01 0.000000e+00 0.000000e+00
 0.000000e+00 0.000000e+00 4.678650e-01 5.321350e-01 0.000000e+00
 0.000000e+00 0.000000e+00 0.000000e+00 8.437445e-01 1.562556e-01
 0.000000e+00 0.000000e+00 0.000000e+00 0.000000e+00 0.000000e+00
<ENDHMM>
~h "r"
<BEGINHMM>
<NUMSTATES> 5
<STATE> 2
<MEAN> 39
 9.262534e+00 2.929121e+00 -1.883671e+00 -6.169158e+00 -5.104397e+00 -1.005899e+01 -6.497737e+00 7.121882e-02 -2.417548e+00 -5.127420e+00 -3.825532e+00 -3.543386e+00 6.289854e+01 -1.831295e-01 3.125043e-01 3.074907e-01 -3.314328e-01 -3.995060e-01 -1.568957e-02 2.491388e-01 3.148910e-01 2.213848e-01 6.817591e-02 -6.209398e-02 -1.450028e-01 -1.823959e-01 -1.364721e-01 -9.870607e-03 1.346750e-01 1.622607e-01 1.650836e-01 2.135213e-01 6.274746e-02 -1.742191e-01 -1.095491e-01 7.852250e-02 7.062387e-02 4.288227e-02 -9.577255e-02
<VARIANCE> 39
 7.098008e+01 7.747565e+01 9.323614e+01 7.424770e+01 9.482014e+01 5.858831e+01 5.748264e+01 5.279620e+01 4.378383e+01 3.633233e+01 4.244099e+01 3.747860e+01 3.466138e+01 6.940430e-01 1.180011e+00 1.637345e+00 1.515817e+00 2.019326e+00 2.130041e+00 1.725471e+00 1.922014e+00 1.526462e+00 1.618763e+00 1.322807e+00 1.127941e+00 4.567301e-01 1.331232e-01 2.490778e-01 2.724003e-01 2.708513e-01 3.219101e-01 3.465827e-01 3.110031e-01 2.953743e-01 2.503894e-01 2.526261e-01 2.371635e-01 1.990291e-01 8.217651e-02
<GCONST> 1.090437e+02
<STATE> 3
<MEAN> 39
 4.231483e+00 5.210103e+00 4.769778e+00 -2.831468e+00 -2.804474e+00 -6.991498e+00 -5.284178e+00 -2.186648e+00 -2.709358e+00 -2.966205e+00 -3.507098e+00 -4.580185e+00 5.931820e+01 -4.748260e-01 4.144967e-03 2.915305e-01 2.369363e-01 3.610294e-01 6.116375e-01 3.974085e-01 -1.286989e-01 -1.366622e-01 4.538344e-02 2.986632e-02 5.999583e-02 -3.255019e-01 -4.273758e-02 -1.203820e-01 -7.760566e-02 1.185822e-01 1.471354e-01 1.413136e-01 5.055483e-02 -7.032627e-02 -6.206325e-02 1.644929e-02 3.194782e-02 8.224749e-02 -1.839820e-02
<VARIANCE> 39
 8.094248e+01 8.657213e+01 7.380479e+01 8.798515e+01 8.737566e+01 5.856485e+01 6.362309e+01 4.241334e+01 3.950482e+01 2.952092e+01 2.911244e+01 2.783912e+01 3.124770e+01 7.487575e-01 9.617471e-01 1.551899e+00 1.424117e+00 1.493751e+00 1.929231e+00 1.505597e+00 1.431451e+00 1.385195e+00 1.281546e+00 1.223235e+00 9.136304e-01 3.926267e-01 1.438300e-01 1.778357e-01 2.067837e-01 2.424177e-01 2.421886e-01 3.077040e-01 3.127614e-01 2.366841e-01 2.311571e-01 2.190969e-01 2.254441e-01 1.755249e-01 6.796709e-02
<GCONST> 1.042330e+02
<STATE> 4
<MEAN> 39
 2.974108e+00 1.905063e+00 2.396440e+00 -3.817600e+00 -1.258384e+00 -4.734716e+00 -5.134468e+00 -3.510100e+00 -2.968630e+00 -1.910614e+00 -1.991853e+00 -2.652315e+00 5.949901e+01 -7.913626e-01 -4.167289e-01 7.190669e-02 2.171590e-01 4.139215e-01 5.942325e-01 3.377005e-01 -2.908697e-01 -1.589028e-01 1.649816e-01 1.724116e-01 2.580127e-01 -4.166684e-01 1.074276e-02 -1.101342e-01 -9.990592e-02 -2.154806e-02 -6.439456e-02 -1.043131e-01 -9.600361e-02 -1.124555e-02 4.768263e-02 2.067405e-02 -1.373593e-03 1.819658e-02 2.857417e-02
<VARIANCE> 39
 1.011449e+02 8.014143e+01 8.504190e+01 6.336602e+01 5.734644e+01 4.829419e+01 7.206168e+01 5.750863e+01 4.027753e+01 3.082755e+01 3.073584e+01 2.612314e+01 3.716204e+01 3.569467e+00 3.429572e+00 3.454142e+00 2.763283e+00 3.075239e+00 3.534449e+00 3.713636e+00 2.568262e+00 2.080112e+00 1.871205e+00 1.770459e+00 1.435195e+00 1.368992e+00 4.381466e-01 4.931938e-01 4.408511e-01 3.959607e-01 4.520638e-01 5.546894e-01 5.660557e-01 4.183774e-01 3.452267e-01 3.128176e-01 3.076946e-01 2.458735e-01 1.688970e-01
<GCONST> 1.222739e+02
<TRANSP> 5
 0.000000e+00 1.000000e+00 0.000000e+00 0.000000e+00 0.000000e+00
 0.000000e+00 5.728072e-01 4.271927e-01 0.000000e+00 0.000000e+00
 0.000000e+00 0.000000e+00 4.645369e-01 5.354631e-01 0.000000e+00
 0.000000e+00 0.000000e+00 0.000000e+00 4.617681e-01 5.382320e-01
 0.000000e+00 0.000000e+00 0.000000e+00 0.000000e+00 0.000000e+00
<ENDHMM>
~h "s"
<BEGINHMM>
<NUMSTATES> 5
<STATE> 2
<MEAN> 39
 -3.016271e+00 -1.223087e+00 5.729411e+00 -3.339916e-03 3.701792e-02 -7.057010e-01 -2.560799e+00 -4.757621e+00 -4.459725e+00 -3.595351e-01 -9.008406e-01 -3.203781e+00 5.633566e+01 -8.906531e-01 -1.136345e+00 2.417724e-01 -4.563677e-01 -7.341300e-01 1.428750e-01 4.824252e-01 -4.684543e-02 -1.975717e-01 2.573533e-01 3.635782e-02 -8.328570e-02 -6.811142e-02 3.133207e-01 -1.115582e-01 -2.213181e-01 -2.390617e-01 -1.015531e-01 -3.817416e-01 -3.257635e-01 -4.028850e-02 -4.859293e-03 -6.288911e-02 -3.134421e-02 2.711563e-03 3.098283e-01
<VARIANCE> 39
 6.850648e+01 7.450156e+01 5.690042e+01 5.317472e+01 6.170932e+01 4.065192e+01 6.679329e+01 4.102293e+01 3.351551e+01 3.382352e+01 2.658393e+01 1.891870e+01 3.267275e+01 5.010186e+00 5.852444e+00 5.834017e+00 4.535564e+00 4.251944e+00 4.292193e+00 4.774020e+00 3.112851e+00 3.128123e+00 2.849302e+00 2.425874e+00 1.988234e+00 1.735046e+00 6.710914e-01 9.033763e-01 6.848040e-01 7.565718e-01 7.338083e-01 6.299914e-01 7.596259e-01 5.306918e-01 5.019761e-01 5.074996e-01 3.829179e-01 3.505841e-01 3.318461e-01
<GCONST> 1.299653e+02
<STATE> 3
<MEAN> 39
 -2.321487e+00 -6.799415e+00 5.144017e+00 -4.804538e+00 3.855619e-01 -5.863800e+00 -5.986272e+00 -4.592018e+00 -4.621449e+00 -1.307088e+00 -8.973082e-01 -3.767363e+00 6.214258e+01 7.438239e-01 -1.420698e-02 -5.079476e-01 -3.017453e-01 -2.987467e-02 -6.574855e-01 -4.244987e-01 5.141336e-02 -4.653262e-02 -2.783713e-01 -8.744533e-02 1.056653e-01 5.909997e-01 1.241255e-01 1.954946e-01 -1.451401e-01 9.612085e-02 5.114090e-02 -3.900594e-02 -7.296477e-02 1.060407e-01 8.125977e-02 -7.416950e-02 1.051466e-02 4.459652e-02 -6.918775e-02
<VARIANCE> 39
 1.398170e+02 9.842357e+01 1.301697e+02 1.122045e+02 7.606944e+01 8.931135e+01 9.883607e+01 6.282606e+01 5.545158e+01 4.639840e+01 4.055762e+01 3.263265e+01 5.677324e+01 1.253291e+01 8.692924e+00 8.399491e+00 8.137103e+00 4.406621e+00 7.028628e+00 7.152518e+00 5.158617e+00 4.667353e+00 3.974777e+00 3.511608e+00 2.952447e+00 4.778172e+00 1.335319e+00 1.322995e+00 1.202796e+00 1.235996e+00 7.758216e-01 1.344089e+00 1.093776e+00 8.818226e-01 8.337606e-01 7.010018e-01 6.689669e-01 5.294552e-01 7.143039e-01
<GCONST> 1.492734e+02
<STATE> 4
<MEAN> 39
 5.587403e+00 -1.670115e-01 -1.713240e-01 -2.964026e+00 -4.396567e-01 -7.528200e+00 -7.552608e+00 -1.920357e+00 -4.010397e+00 -3.383253e+00 -1.293071e+00 -2.193176e+00 6.173899e+01 -7.521938e-02 1.131520e-01 -2.453967e-01 -1.033072e-01 -4.086972e-02 2.893507e-02 3.233384e-02 1.936380e-01 2.369276e-01 -4.181021e-02 3.200311e-02 1.490627e-01 -1.753505e-01 -2.399560e-01 -1.436780e-02 1.763802e-01 6.856564e-02 4.176582e-02 1.774302e-01 1.125981e-01 -1.017936e-01 -3.424416e-02 6.858878e-02 3.556561e-03 -3.808054e-02 -1.513908e-01
<VARIANCE> 39
 9.790101e+01 7.202152e+01 8.383065e+01 8.422644e+01 6.782825e+01 7.142487e+01 9.054870e+01 8.717546e+01 4.610843e+01 4.740852e+01 3.226559e+01 4.081080e+01 4.601125e+01 3.035477e+00 2.890007e+00 4.351336e+00 2.990834e+00 2.775076e+00 3.681777e+00 3.705852e+00 3.802538e+00 2.435719e+00 2.344056e+00 1.921154e+00 1.953145e+00 1.561478e+00 5.455925e-01 5.414254e-01 6.311180e-01 5.049983e-01 4.543754e-01 6.472828e-01 7.425106e-01 5.706391e-01 4.249054e-01 4.463459e-01 3.954981e-01 3.631930e-01 2.263824e-01
<GCONST> 1.292450e+02
<TRANSP> 5
 0.000000e+00 1.000000e+00 0.000000e+00 0.000000e+00 0.000000e+00
 0.000000e+00 5.959902e-01 4.040097e-01 0.000000e+00 0.000000e+00
 0.000000e+00 0.000000e+00 7.354100e-01 2.645900e-01 0.000000e+00
 0.000000e+00 0.000000e+00 0.000000e+00 5.879980e-01 4.120020e-01
 0.000000e+00 0.000000e+00 0.000000e+00 0.000000e+00 0.000000e+00
<ENDHMM>
~h "t"
<BEGINHMM>
<NUMSTATES> 5
<STATE> 2
<MEAN> 39
 7.570467e+00 -6.395814e-01 -1.015512e+00 -3.369649e+00 -9.158336e-01 -7.284180e+00 -5.973974e+00 6.402544e-01 -5.766680e+00 -4.605640e+00 7.024407e-03 -1.944785e+00 6.303475e+01 -1.327142e-01 3.112896e-01 6.566560e-02 -2.294676e-01 -3.367417e-01 1.190403e-01 4.458633e-01 2.968256e-01 1.910317e-01 -2.230016e-01 -1.344768e-01 7.652749e-02 -2.127800e-01 -1.770352e-01 6.536236e-02 1.597471e-01 1.503999e-01 1.675338e-01 2.005024e-01 2.101693e-02 -1.903948e-01 -2.647232e-02 6.068624e-02 1.061104e-02 -8.471730e-02 -1.374440e-01
<VARIANCE> 39
 8.498072e+01 9.188672e+01 8.169339e+01 6.276126e+01 6.300478e+01 6.045425e+01 7.101779e+01 8.765293e+01 4.855773e+01 4.455914e+01 4.901175e+01 3.682926e+01 5.038937e+01 1.017841e+00 1.694443e+00 2.284432e+00 1.720854e+00 2.015544e+00 3.143329e+00 2.636516e+00 2.922162e+00 1.946864e+00 1.718178e+00 1.958916e+00 1.563361e+00 6.562284e-01 1.884661e-01 3.867914e-01 3.932387e-01 2.712203e-01 3.294537e-01 5.124653e-01 4.996466e-01 4.343058e-01 3.409192e-01 3.255469e-01 3.779586e-01 2.763120e-01 1.064651e-01
<GCONST> 1.181079e+02
<STATE> 3
<MEAN> 39
 7.327404e+00 2.340089e+00 -6.324426e-01 -5.091562e+00 -3.144563e+00 -6.204822e+00 -3.596164e+00 4.505691e-01 -3.330343e+00 -4.991568e+00 -2.247172e+00 -1.335419e+00 6.185163e+01 -4.888771e-01 3.768305e-01 5.790332e-01 2.691902e-01 2.894846e-01 5.723182e-01 2.738227e-01 -3.135986e-01 -7.366040e-02 9.686990e-02 -4.638399e-02 -1.579627e-01 -4.166813e-01 -9.134993e-02 -2.889493e-02 1.089957e-01 1.897653e-01 2.203079e-01 1.238613e-01 -3.277529e-02 -1.265409e-01 -7.513171e-02 3.829011e-02 1.072923e-02 -3.595008e-02 -4.767350e-02
<VARIANCE> 39
 8.341605e+01 8.755473e+01 8.553342e+01 5.761641e+01 5.634007e+01 4.942064e+01 5.374200e+01 6.651807e+01 4.053368e+01 4.142770e+01 3.990751e+01 3.312244e+01 3.486216e+01 5.247864e-01 9.166470e-01 1.829948e+00 1.392800e+00 1.563617e+00 1.943671e+00 1.634193e+00 1.785119e+00 1.160841e+00 1.240930e+00 1.006825e+00 9.944220e-01 3.357888e-01 8.294232e-02 1.623212e-01 2.094783e-01 1.747238e-01 2.120584e-01 2.879517e-01 3.298967e-01 3.018132e-01 2.242106e-01 2.384922e-01 2.069197e-01 1.964084e-01 4.504750e-02
<GCONST> 1.030648e+02
<STATE> 4
<MEAN> 39
 3.144076e+00 4.715820e+00 4.503006e+00 -2.414059e+00 3.579099e-01 -2.802108e+00 -3.821224e+00 -3.032988e+00 -3.844480e+00 -3.200576e+00 -2.269091e+00 -2.198468e+00 5.869103e+01 -3.612395e-01 2.627458e-02 3.233787e-01 3.585412e-01 2.723749e-01 1.897415e-01 7.747135e-02 -7.755522e-02 -1.443902e-02 4.479764e-02 -7.354128e-02 -1.421100e-01 -2.412885e-01 2.244586e-02 -8.757615e-02 -8.174264e-02 -6.211648e-03 -4.667832e-03 -5.871370e-02 -2.893190e-02 2.464753e-02 3.648001e-02 6.261062e-02 2.305326e-02 -1.590062e-03 3.490490e-02
<VARIANCE> 39
 5.877671e+01 6.632609e+01 7.448772e+01 6.991292e+01 5.511378e+01 3.595127e+01 4.853484e+01 4.147802e+01 2.571465e+01 2.434274e+01 2.603798e+01 2.272588e+01 2.154254e+01 6.818565e-01 6.966063e-01 1.667757e+00 1.725559e+00 1.783634e+00 1.815734e+00 1.626666e+00 1.455490e+00 1.143414e+00 1.334910e+00 1.160321e+00 1.092839e+00 3.117613e-01 1.128681e-01 1.248989e-01 2.661802e-01 2.490394e-01 2.247282e-01 2.973373e-01 2.864629e-01 2.553774e-01 2.268156e-01 2.324982e-01 2.207229e-01 1.928322e-01 5.242350e-02
<GCONST> 1.000951e+02
<TRANSP> 5
 0.000000e+00 1.000000e+00 0.000000e+00 0.000000e+00 0.000000e+00
 0.000000e+00 3.745746e-01 6.254254e-01 0.000000e+00 0.000000e+00
 0.000000e+00 0.000000e+00 4.575429e-01 5.424570e-01 0.000000e+00
 0.000000e+00 0.000000e+00 0.000000e+00 6.879772e-01 3.120228e-01
 0.000000e+00 0.000000e+00 0.000000e+00 0.000000e+00 0.000000e+00
<ENDHMM>
~h "u"
<BEGINHMM>
<NUMSTATES> 5
<STATE> 2
<MEAN> 39
 -3.889553e+00 -1.598794e-01 5.333189e+00 -6.345266e-01 1.019632e+00 -2.369077e+00 -5.453538e+00 -4.586623e+00 -3.948706e+00 -1.819950e+00 -1.787467e+00 -2.870293e+00 5.517290e+01 -6.429589e-02 -6.009709e-01 -1.105722e-01 -3.159672e-01 -1.743428e-01 -2.408737e-02 -5.169208e-03 -1.914860e-02 -1.763723e-02 -5.918602e-02 -1.511205e-01 -1.230347e-03 2.673946e-01 4.457983e-01 -1.083893e-01 -2.266707e-01 -1.752817e-01 -9.788526e-02 -3.301781e-01 -2.386006e-01 -8.160745e-02 -1.492052e-02 9.467512e-03 1.223266e-02 -2.072585e-02 4.084865e-01
<VARIANCE> 39
 6.986023e+01 6.814022e+01 5.893042e+01 5.859751e+01 4.009587e+01 4.100771e+01 4.900772e+01 3.322993e+01 2.685696e+01 2.816055e+01 2.058507e+01 1.550154e+01 3.620969e+01 7.357077e+00 7.969964e+00 6.370296e+00 5.491756e+00 4.165056e+00 4.018041e+00 4.427472e+00 3.404435e+00 3.337976e+00 2.463436e+00 2.509279e+00 1.760857e+00 2.819311e+00 9.103183e-01 1.119955e+00 8.671021e-01 9.648675e-01 6.865387e-01 7.911170e-01 6.918652e-01 5.323472e-01 5.080948e-01 3.959461e-01 3.929916e-01 3.288545e-01 4.405729e-01
<GCONST> 1.306243e+02
<STATE> 3
<MEAN> 39
 -1.938533e+00 -5.127985e+00 2.361713e+00 -7.707703e+00 -2.945310e+00 -8.164660e+00 -6.992795e+00 -4.864946e+00 -3.478252e+00 -4.376597e+00 -4.709464e+00 -3.659720e+00 6.274112e+01 9.316503e-01 -7.328483e-02 -6.152388e-01 2.531509e-03 -1.296814e-01 -5.693279e-01 -4.332638e-01 -3.757004e-02 -8.640525e-02 -2.217957e-01 -4.132338e-03 1.185523e-01 5.968149e-01 1.517772e-01 1.361851e-01 -1.144870e-01 1.233731e-01 2.421893e-02 -1.119723e-01 -1.059162e-01 9.122699e-02 5.548011e-02 -5.458115e-02 2.040190e-02 3.178206e-02 -1.558762e-02
<VARIANCE> 39
 1.372440e+02 9.499493e+01 1.347059e+02 1.018376e+02 9.380748e+01 1.223598e+02 8.723893e+01 6.753298e+01 6.074882e+01 6.079826e+01 4.674278e+01 4.727395e+01 4.212646e+01 1.349884e+01 8.234351e+00 9.799876e+00 8.200472e+00 4.991165e+00 9.821501e+00 6.897035e+00 4.767454e+00 4.303769e+00 5.659175e+00 3.562922e+00 3.591789e+00 4.220367e+00 1.475478e+00 1.423784e+00 1.468605e+00 1.138423e+00 8.367984e-01 1.658721e+00 9.024059e-01 8.352797e-01 7.936339e-01 1.054903e+00 6.937352e-01 6.340687e-01 5.304565e-01
<GCONST> 1.516973e+02
<STATE> 4
<MEAN> 39
 7.607978e+00 -2.684597e+00 -3.061277e+00 8.244343e-01 2.877286e+00 -8.609286e+00 -1.300058e+01 -6.308699e+00 -2.980512e+00 -1.814607e+00 -1.550039e+00 -2.840908e+00 6.305090e+01 4.242351e-01 1.384199e-01 -4.265074e-01 -1.981114e-01 -1.161494e-01 -1.336155e-01 6.121528e-02 3.682682e-01 3.582692e-01 7.078276e-02 1.455605e-01 1.936889e-01 2.049379e-01 -4.591196e-01 9.916884e-02 2.803471e-01 -1.458979e-01 -1.042021e-01 3.059670e-01 3.990980e-01 1.283201e-01 -1.601459e-02 6.712830e-03 -1.917157e-02 3.477359e-02 -3.062801e-01
<VARIANCE> 39
 7.159484e+01 5.633967e+01 9.307176e+01 1.195068e+02 6.772474e+01 6.671013e+01 8.161884e+01 6.006961e+01 4.233755e+01 4.501780e+01 4.379197e+01 3.672960e+01 3.934775e+01 5.401101e+00 4.697611e+00 6.474327e+00 4.946744e+00 2.784488e+00 5.167895e+00 5.250027e+00 3.045938e+00 2.902888e+00 2.713077e+00 2.693246e+00 2.103784e+00 2.733641e+00 7.931657e-01 8.881600e-01 9.057319e-01 8.281513e-01 4.559285e-01 7.988232e-01 9.777067e-01 6.095424e-01 4.710700e-01 5.618020e-01 5.177343e-01 3.883488e-01 4.259044e-01
<GCONST> 1.358081e+02
<TRANSP> 5
 0.000000e+00 1.000000e+00 0.000000e+00 0.000000e+00 0.000000e+00
 0.000000e+00 6.404236e-01 3.595764e-01 0.000000e+00 0.000000e+00
 0.000000e+00 0.000000e+00 7.392344e-01 2.607656e-01 0.000000e+00
 0.000000e+00 0.000000e+00 0.000000e+00 5.984412e-01 4.015588e-01
 0.000000e+00 0.000000e+00 0.000000e+00 0.000000e+00 0.000000e+00
<ENDHMM>
~h "w"
<BEGINHMM>
<NUMSTATES> 5
<STATE> 2
<MEAN> 39
 5.872196e+00 4.302553e+00 7.124513e+00 3.085408e+00 1.691012e+00 -6.200312e+00 -9.603878e+00 -7.752635e+00 -3.333822e+00 -2.908630e+00 -5.146667e+00 -5.446235e+00 6.105481e+01 -4.668061e-01 -8.584701e-03 4.886024e-01 2.680899e-01 -2.996817e-02 1.742615e-01 3.063406e-01 6.302354e-01 2.968390e-01 -4.984850e-01 -8.713872e-01 -4.917956e-01 -2.646642e-01 7.170212e-03 -1.115704e-01 -2.454899e-01 -1.923748e-01 -7.891599e-03 1.640144e-01 7.068816e-02 -1.353886e-01 -1.434459e-01 -1.898525e-02 1.175910e-01 1.509926e-01 1.743510e-02
<VARIANCE> 39
 3.725891e+01 6.759689e+01 1.380669e+02 1.215472e+02 5.067304e+01 2.488620e+01 5.555750e+01 4.839460e+01 1.638539e+01 8.827584e+00 3.897384e+01 1.334670e+01 1.335387e+01 4.129989e-01 3.622111e-01 1.511917e+00 1.506917e+00 7.273878e-01 1.548070e+00 1.118871e+00 8.926137e-01 7.092816e-01 1.338485e+00 1.438211e+00 1.461928e+00 1.707321e-01 1.591149e-01 1.939211e-01 2.705225e-01 1.067708e-01 2.190499e-01 2.121657e-01 3.449998e-01 2.023726e-01 2.451429e-01 2.058881e-01 1.949292e-01 1.647402e-01 8.162803e-02
<GCONST> 9.437399e+01
<STATE> 3
<MEAN> 39
 6.631204e+00 2.002136e+00 -1.592800e+00 -5.644981e+00 1.284664e+00 -5.711139e-01 -1.559957e+00 -9.091257e-01 -3.012803e+00 -6.235708e+00 -5.278723e+00 -1.166754e+00 6.161976e+01 -1.020805e+00 -1.985809e-01 4.349094e-01 -2.467601e-01 -1.634985e-01 6.864493e-01 7.529679e-01 -4.260659e-02 -4.430457e-01 -2.245666e-01 1.613741e-01 2.046206e-01 -5.935280e-01 -1.277326e-02 -1.053332e-01 -1.010159e-01 -4.783757e-03 -8.137743e-02 -1.922546e-01 -1.451895e-01 -1.399882e-01 -5.969781e-03 5.601666e-02 6.440390e-02 8.727582e-02 1.476814e-02
<VARIANCE> 39
 5.207917e+01 4.253636e+01 9.240388e+01 5.933965e+01 4.009240e+01 2.882112e+01 4.836457e+01 3.780540e+01 3.294688e+01 2.619085e+01 2.046920e+01 3.108806e+01 1.490225e+01 8.409218e-01 1.557174e+00 1.375540e+00 1.995599e+00 1.657347e+00 1.905636e+00 1.813307e+00 1.053480e+00 1.444823e+00 1.129568e+00 1.588332e+00 1.558892e+00 1.992048e-01 1.018078e-01 1.900292e-01 2.578007e-01 1.796141e-01 2.041396e-01 2.874051e-01 2.544864e-01 1.620399e-01 2.511231e-01 1.885556e-01 2.805565e-01 2.144236e-01 3.511596e-02
<GCONST> 9.907856e+01
<STATE> 4
<MEAN> 39
 -6.343352e+00 -7.091592e+00 1.067516e+01 -5.367757e-01 -4.978205e+00 -5.453914e-02 3.202675e-01 -2.326014e+00 -5.168940e+00 -4.474051e+00 2.410382e-01 -2.886397e+00 5.761141e+01 -4.323265e-01 -1.728534e-01 -7.625993e-01 9.242190e-03 -4.191499e-01 -5.142557e-01 5.935996e-01 1.273017e-01 -2.068785e-01 2.249002e-01 1.192881e-01 -2.954848e-02 -4.661084e-01 1.233173e-01 7.297017e-02 -2.249817e-01 -3.891338e-03 2.652378e-02 -2.371614e-01 -2.130783e-01 -5.306705e-02 -2.455784e-02 -1.364582e-02 -4.274405e-02 1.786749e-02 8.762999e-03
<VARIANCE> 39
 7.923595e+01 1.747948e+02 7.784640e+01 5.368894e+01 1.115317e+02 2.434521e+01 6.360903e+01 1.982169e+01 2.310680e+01 1.425747e+01 1.741109e+01 1.292221e+01 1.831006e+01 6.169491e-01 1.043274e+00 1.300418e+00 1.120139e+00 1.173771e+00 1.634815e+00 1.861767e+00 1.435002e+00 1.348369e+00 1.170092e+00 9.175358e-01 8.120220e-01 2.969234e-01 8.519727e-02 1.025939e-01 1.373743e-01 2.333058e-01 1.751674e-01 1.175735e-01 5.438837e-01 2.521737e-01 1.934889e-01 3.136845e-01 1.565698e-01 2.237086e-01 5.880906e-02
<GCONST> 9.619907e+01
<TRANSP> 5
 0.000000e+00 1.000000e+00 0.000000e+00 0.000000e+00 0.000000e+00
 0.000000e+00 5.607040e-01 4.392959e-01 0.000000e+00 0.000000e+00
 0.000000e+00 0.000000e+00 6.888783e-01 3.111217e-01 0.000000e+00
 0.000000e+00 0.000000e+00 0.000000e+00 6.373696e-01 3.626304e-01
 0.000000e+00 0.000000e+00 0.000000e+00 0.000000e+00 0.000000e+00
<ENDHMM>
~h "x"
<BEGINHMM>
<NUMSTATES> 5
<STATE> 2
<MEAN> 39
 2.569486e-01 -2.029426e+00 5.145239e-01 -2.386975e+00 8.061066e-01 -1.661691e+00 -6.447580e+00 -9.390916e+00 -5.138241e+00 -8.563079e-01 -1.768753e+00 -2.496831e+00 5.831500e+01 2.575969e-01 1.137952e-01 -3.718452e-01 -1.478800e-01 5.780968e-02 -2.343500e-01 -6.795491e-02 2.352277e-01 -1.568474e-01 -2.443393e-01 1.553964e-01 1.961017e-01 9.247361e-02 2.836797e-01 1.338970e-01 -1.639340e-01 -1.211425e-01 1.181150e-01 -7.239289e-02 -1.902678e-01 -4.770855e-02 6.965449e-02 1.645217e-01 1.130328e-01 4.760564e-02 1.465312e-01
<VARIANCE> 39
 1.261781e+02 5.665224e+01 6.075190e+01 5.254028e+01 4.319210e+01 7.741343e+01 8.033447e+01 4.294263e+01 2.598239e+01 2.864354e+01 2.251239e+01 1.284378e+01 5.356846e+01 3.641331e+00 1.720019e+00 3.116416e+00 2.135573e+00 1.807980e+00 2.245970e+00 2.553010e+00 2.935879e+00 1.394080e+00 2.509801e+00 8.524449e-01 6.718416e-01 1.381403e+00 8.160469e-01 3.499545e-01 5.773777e-01 4.250962e-01 4.330201e-01 3.936309e-01 8.384296e-01 6.369315e-01 2.745996e-01 5.956124e-01 2.096091e-01 1.399950e-01 3.260147e-01
<GCONST> 1.177905e+02
<STATE> 3
<MEAN> 39
 5.334945e+00 -1.362842e-01 -2.344661e+00 -9.929076e-01 2.025038e+00 -7.656645e+00 -1.233460e+01 -8.414180e+00 -4.158475e+00 -1.329699e+00 -1.059756e+00 -1.429803e+00 6.042078e+01 1.892669e+00 -2.085823e-01 -1.740600e+00 -5.944632e-01 4.268311e-01 -9.693786e-01 -1.535395e+00 -3.973898e-01 1.563479e-01 5.315176e-01 6.708082e-01 7.169852e-02 1.247656e+00 -2.837447e-01 -8.400407e-02 4.943162e-02 -8.909322e-03 1.086288e-01 2.327777e-01 2.695922e-01 2.522554e-01 1.190233e-01 9.058780e-03 -7.635076e-05 8.999762e-03 -1.484461e-01
<VARIANCE> 39
 1.029971e+02 3.815881e+01 4.379566e+01 7.197838e+01 3.977022e+01 7.712761e+01 8.444468e+01 3.210562e+01 2.697158e+01 1.927039e+01 2.400560e+01 1.207213e+01 5.826637e+01 5.099041e+00 2.343000e+00 3.392088e+00 1.923437e+00 1.924642e+00 2.407180e+00 4.139980e+00 3.027632e+00 1.756015e+00 2.250304e+00 1.469656e+00 7.008696e-01 1.997396e+00 6.387588e-01 2.702583e-01 4.226798e-01 2.929285e-01 2.762588e-01 4.023548e-01 6.325585e-01 3.439378e-01 2.397139e-01 2.613930e-01 1.976538e-01 1.094633e-01 2.456922e-01
<GCONST> 1.148693e+02
<STATE> 4
<MEAN> 39
 1.099621e+01 -4.150245e-01 -4.540506e+00 1.361548e+00 6.791160e+00 -9.232646e+00 -1.647849e+01 -1.023732e+01 -2.383873e+00 2.133969e+00 1.004919e+00 -2.995204e+00 6.459916e+01 -2.047368e-01 3.548613e-01 2.534372e-01 -2.245617e-01 2.708829e-02 5.133681e-01 3.433270e-01 -1.162756e-01 -9.395234e-02 5.521474e-02 1.005228e-01 2.565092e-02 -2.118576e-01 -7.722582e-02 1.220848e-02 8.880078e-02 4.695978e-03 -3.663205e-02 9.697802e-02 1.251562e-01 3.211972e-02 -2.535258e-02 -4.890690e-02 -4.584856e-02 1.261365e-02 -4.727256e-02
<VARIANCE> 39
 3.159109e+01 2.231975e+01 4.347188e+01 6.923193e+01 3.317371e+01 4.213511e+01 4.342963e+01 3.060638e+01 3.974998e+01 2.835803e+01 2.533479e+01 1.829424e+01 1.954839e+01 4.843955e-01 6.868983e-01 1.807506e+00 2.245733e+00 1.103694e+00 1.389677e+00 1.735615e+00 1.056145e+00 1.176967e+00 1.474357e+00 1.108224e+00 1.115690e+00 2.745766e-01 7.886939e-02 1.476756e-01 2.653803e-01 2.448476e-01 1.613971e-01 2.451561e-01 2.949681e-01 1.602412e-01 2.008285e-01 1.979131e-01 2.037432e-01 1.561452e-01 5.070561e-02
<GCONST> 9.450150e+01
<TRANSP> 5
 0.000000e+00 1.000000e+00 0.000000e+00 0.000000e+00 0.000000e+00
 0.000000e+00 5.757235e-01 4.242765e-01 0.000000e+00 0.000000e+00
 0.000000e+00 0.000000e+00 4.557208e-01 5.442792e-01 0.000000e+00
 0.000000e+00 0.000000e+00 0.000000e+00 8.832290e-01 1.167710e-01
 0.000000e+00 0.000000e+00 0.000000e+00 0.000000e+00 0.000000e+00
<ENDHMM>
~h "en"
<BEGINHMM>
<NUMSTATES> 5
<STATE> 2
<MEAN> 39
 -4.314049e-01 -5.443133e-01 7.105690e-01 -1.882667e+00 -3.413527e-01 -4.598181e+00 -6.314186e+00 -3.848403e+00 -3.601575e+00 -2.169887e+00 -1.884693e+00 -2.491360e+00 5.700534e+01 -2.864336e-03 -3.153083e-03 -6.210326e-04 -1.859146e-03 -1.025149e-03 4.018572e-05 -4.212186e-04 -9.370550e-04 -1.112693e-03 -1.571401e-03 -1.379302e-03 -1.582626e-03 3.459415e-04 -2.076533e-04 1.121370e-04 -6.082775e-04 5.937807e-05 7.690147e-05 -5.380236e-05 9.022583e-05 2.522134e-04 1.281000e-04 2.276354e-04 9.980684e-05 1.737125e-04 -8.036671e-04
<VARIANCE> 39
 1.333756e+02 6.639448e+01 7.486684e+01 6.636140e+01 5.702890e+01 5.689030e+01 7.521648e+01 5.588811e+01 3.375542e+01 3.396556e+01 2.727465e+01 2.558422e+01 7.908179e+01 3.510822e+00 2.990041e+00 3.288318e+00 2.986253e+00 2.462860e+00 3.071138e+00 3.491724e+00 2.597442e+00 2.153173e+00 2.003538e+00 1.724022e+00 1.500141e+00 1.490820e+00 4.316568e-01 4.629386e-01 4.683719e-01 4.500415e-01 3.964934e-01 5.051396e-01 5.511611e-01 4.319685e-01 3.792876e-01 3.504571e-01 3.135985e-01 2.653124e-01 2.156326e-01
<GCONST> 1.230944e+02
<STATE> 3
<MEAN> 39
 -4.314049e-01 -5.443133e-01 7.105690e-01 -1.882667e+00 -3.413527e-01 -4.598181e+00 -6.314186e+00 -3.848403e+00 -3.601575e+00 -2.169887e+00 -1.884693e+00 -2.491360e+00 5.700534e+01 -2.864336e-03 -3.153083e-03 -6.210326e-04 -1.859146e-03 -1.025149e-03 4.018572e-05 -4.212186e-04 -9.370550e-04 -1.112693e-03 -1.571401e-03 -1.379302e-03 -1.582626e-03 3.459415e-04 -2.076533e-04 1.121370e-04 -6.082775e-04 5.937807e-05 7.690147e-05 -5.380236e-05 9.022583e-05 2.522134e-04 1.281000e-04 2.276354e-04 9.980684e-05 1.737125e-04 -8.036671e-04
<VARIANCE> 39
 1.333756e+02 6.639448e+01 7.486684e+01 6.636140e+01 5.702890e+01 5.689030e+01 7.521648e+01 5.588811e+01 3.375542e+01 3.396556e+01 2.727465e+01 2.558422e+01 7.908179e+01 3.510822e+00 2.990041e+00 3.288318e+00 2.986253e+00 2.462860e+00 3.071138e+00 3.491724e+00 2.597442e+00 2.153173e+00 2.003538e+00 1.724022e+00 1.500141e+00 1.490820e+00 4.316568e-01 4.629386e-01 4.683719e-01 4.500415e-01 3.964934e-01 5.051396e-01 5.511611e-01 4.319685e-01 3.792876e-01 3.504571e-01 3.135985e-01 2.653124e-01 2.156326e-01
<GCONST> 1.230944e+02
<STATE> 4
<MEAN> 39
 -4.314049e-01 -5.443133e-01 7.105690e-01 -1.882667e+00 -3.413527e-01 -4.598181e+00 -6.314186e+00 -3.848403e+00 -3.601575e+00 -2.169887e+00 -1.884693e+00 -2.491360e+00 5.700534e+01 -2.864336e-03 -3.153083e-03 -6.210326e-04 -1.859146e-03 -1.025149e-03 4.018572e-05 -4.212186e-04 -9.370550e-04 -1.112693e-03 -1.571401e-03 -1.379302e-03 -1.582626e-03 3.459415e-04 -2.076533e-04 1.121370e-04 -6.082775e-04 5.937807e-05 7.690147e-05 -5.380236e-05 9.022583e-05 2.522134e-04 1.281000e-04 2.276354e-04 9.980684e-05 1.737125e-04 -8.036671e-04
<VARIANCE> 39
 1.333756e+02 6.639448e+01 7.486684e+01 6.636140e+01 5.702890e+01 5.689030e+01 7.521648e+01 5.588811e+01 3.375542e+01 3.396556e+01 2.727465e+01 2.558422e+01 7.908179e+01 3.510822e+00 2.990041e+00 3.288318e+00 2.986253e+00 2.462860e+00 3.071138e+00 3.491724e+00 2.597442e+00 2.153173e+00 2.003538e+00 1.724022e+00 1.500141e+00 1.490820e+00 4.316568e-01 4.629386e-01 4.683719e-01 4.500415e-01 3.964934e-01 5.051396e-01 5.511611e-01 4.319685e-01 3.792876e-01 3.504571e-01 3.135985e-01 2.653124e-01 2.156326e-01
<GCONST> 1.230944e+02
<TRANSP> 5
 0.000000e+00 1.000000e+00 0.000000e+00 0.000000e+00 0.000000e+00
 0.000000e+00 6.000000e-01 4.000000e-01 0.000000e+00 0.000000e+00
 0.000000e+00 0.000000e+00 6.000000e-01 4.000000e-01 0.000000e+00
 0.000000e+00 0.000000e+00 0.000000e+00 7.000000e-01 3.000000e-01
 0.000000e+00 0.000000e+00 0.000000e+00 0.000000e+00 0.000000e+00
<ENDHMM>
~h "js"
<BEGINHMM>
<NUMSTATES> 5
<STATE> 2
<MEAN> 39
 -4.314049e-01 -5.443133e-01 7.105690e-01 -1.882667e+00 -3.413527e-01 -4.598181e+00 -6.314186e+00 -3.848403e+00 -3.601575e+00 -2.169887e+00 -1.884693e+00 -2.491360e+00 5.700534e+01 -2.864336e-03 -3.153083e-03 -6.210326e-04 -1.859146e-03 -1.025149e-03 4.018572e-05 -4.212186e-04 -9.370550e-04 -1.112693e-03 -1.571401e-03 -1.379302e-03 -1.582626e-03 3.459415e-04 -2.076533e-04 1.121370e-04 -6.082775e-04 5.937807e-05 7.690147e-05 -5.380236e-05 9.022583e-05 2.522134e-04 1.281000e-04 2.276354e-04 9.980684e-05 1.737125e-04 -8.036671e-04
<VARIANCE> 39
 1.333756e+02 6.639448e+01 7.486684e+01 6.636140e+01 5.702890e+01 5.689030e+01 7.521648e+01 5.588811e+01 3.375542e+01 3.396556e+01 2.727465e+01 2.558422e+01 7.908179e+01 3.510822e+00 2.990041e+00 3.288318e+00 2.986253e+00 2.462860e+00 3.071138e+00 3.491724e+00 2.597442e+00 2.153173e+00 2.003538e+00 1.724022e+00 1.500141e+00 1.490820e+00 4.316568e-01 4.629386e-01 4.683719e-01 4.500415e-01 3.964934e-01 5.051396e-01 5.511611e-01 4.319685e-01 3.792876e-01 3.504571e-01 3.135985e-01 2.653124e-01 2.156326e-01
<GCONST> 1.230944e+02
<STATE> 3
<MEAN> 39
 -4.314049e-01 -5.443133e-01 7.105690e-01 -1.882667e+00 -3.413527e-01 -4.598181e+00 -6.314186e+00 -3.848403e+00 -3.601575e+00 -2.169887e+00 -1.884693e+00 -2.491360e+00 5.700534e+01 -2.864336e-03 -3.153083e-03 -6.210326e-04 -1.859146e-03 -1.025149e-03 4.018572e-05 -4.212186e-04 -9.370550e-04 -1.112693e-03 -1.571401e-03 -1.379302e-03 -1.582626e-03 3.459415e-04 -2.076533e-04 1.121370e-04 -6.082775e-04 5.937807e-05 7.690147e-05 -5.380236e-05 9.022583e-05 2.522134e-04 1.281000e-04 2.276354e-04 9.980684e-05 1.737125e-04 -8.036671e-04
<VARIANCE> 39
 1.333756e+02 6.639448e+01 7.486684e+01 6.636140e+01 5.702890e+01 5.689030e+01 7.521648e+01 5.588811e+01 3.375542e+01 3.396556e+01 2.727465e+01 2.558422e+01 7.908179e+01 3.510822e+00 2.990041e+00 3.288318e+00 2.986253e+00 2.462860e+00 3.071138e+00 3.491724e+00 2.597442e+00 2.153173e+00 2.003538e+00 1.724022e+00 1.500141e+00 1.490820e+00 4.316568e-01 4.629386e-01 4.683719e-01 4.500415e-01 3.964934e-01 5.051396e-01 5.511611e-01 4.319685e-01 3.792876e-01 3.504571e-01 3.135985e-01 2.653124e-01 2.156326e-01
<GCONST> 1.230944e+02
<STATE> 4
<MEAN> 39
 -4.314049e-01 -5.443133e-01 7.105690e-01 -1.882667e+00 -3.413527e-01 -4.598181e+00 -6.314186e+00 -3.848403e+00 -3.601575e+00 -2.169887e+00 -1.884693e+00 -2.491360e+00 5.700534e+01 -2.864336e-03 -3.153083e-03 -6.210326e-04 -1.859146e-03 -1.025149e-03 4.018572e-05 -4.212186e-04 -9.370550e-04 -1.112693e-03 -1.571401e-03 -1.379302e-03 -1.582626e-03 3.459415e-04 -2.076533e-04 1.121370e-04 -6.082775e-04 5.937807e-05 7.690147e-05 -5.380236e-05 9.022583e-05 2.522134e-04 1.281000e-04 2.276354e-04 9.980684e-05 1.737125e-04 -8.036671e-04
<VARIANCE> 39
 1.333756e+02 6.639448e+01 7.486684e+01 6.636140e+01 5.702890e+01 5.689030e+01 7.521648e+01 5.588811e+01 3.375542e+01 3.396556e+01 2.727465e+01 2.558422e+01 7.908179e+01 3.510822e+00 2.990041e+00 3.288318e+00 2.986253e+00 2.462860e+00 3.071138e+00 3.491724e+00 2.597442e+00 2.153173e+00 2.003538e+00 1.724022e+00 1.500141e+00 1.490820e+00 4.316568e-01 4.629386e-01 4.683719e-01 4.500415e-01 3.964934e-01 5.051396e-01 5.511611e-01 4.319685e-01 3.792876e-01 3.504571e-01 3.135985e-01 2.653124e-01 2.156326e-01
<GCONST> 1.230944e+02
<TRANSP> 5
 0.000000e+00 1.000000e+00 0.000000e+00 0.000000e+00 0.000000e+00
 0.000000e+00 6.000000e-01 4.000000e-01 0.000000e+00 0.000000e+00
 0.000000e+00 0.000000e+00 6.000000e-01 4.000000e-01 0.000000e+00
 0.000000e+00 0.000000e+00 0.000000e+00 7.000000e-01 3.000000e-01
 0.000000e+00 0.000000e+00 0.000000e+00 0.000000e+00 0.000000e+00
<ENDHMM>
~h "ks"
<BEGINHMM>
<NUMSTATES> 5
<STATE> 2
<MEAN> 39
 1.081277e+01 -6.555529e-01 -3.121337e+00 -6.344617e+00 -9.095998e-01 -7.281755e+00 -3.868058e+00 7.909150e+00 -7.300705e+00 -1.008984e+01 5.410352e+00 -1.964823e+00 6.623795e+01 -4.110929e-01 8.247465e-03 4.624491e-01 -1.464535e+00 -8.916646e-01 -9.827222e-02 -1.818673e-01 1.714907e+00 5.690386e-01 -1.018512e+00 6.692491e-01 4.266310e-02 -2.797386e-03 -2.984659e-01 3.326844e-01 4.807186e-01 2.114800e-01 1.276831e-01 2.424867e-01 -8.075928e-03 -5.630522e-01 -4.873866e-02 5.784338e-01 -1.669769e-01 -4.883549e-01 -3.264677e-01
<VARIANCE> 39
 2.252850e+01 5.816351e+01 3.949272e+01 4.999002e+01 1.667672e+01 2.441862e+01 5.327101e+01 1.211231e+02 3.403512e+01 8.951444e+01 4.129407e+01 1.508386e+01 2.613642e+01 9.395847e-01 4.181391e+00 2.473403e+00 2.413113e+00 3.882285e+00 3.762556e+00 3.540441e+00 2.147237e+00 1.635055e+00 4.142841e+00 2.581172e+00 1.985255e+00 1.452405e+00 1.429860e-01 4.506128e-01 2.942315e-01 4.789856e-01 6.409970e-01 6.712549e-01 3.750251e-01 2.570098e-01 4.182153e-01 7.995511e-01 3.942911e-01 3.233031e-01 1.001541e-01
<GCONST> 1.173886e+02
<STATE> 3
<MEAN> 39
 5.203146e+00 4.074832e+00 1.963817e+00 -4.548109e+00 -1.434962e+00 -4.160055e+00 -6.175533e+00 1.065107e+00 -3.562165e+00 -3.211406e+00 2.151179e+00 -1.795074e+00 6.031657e+01 -1.241734e+00 5.976844e-01 1.115528e+00 -3.192258e-01 -6.625409e-01 -3.082906e-01 4.393070e-01 4.528961e-02 -3.235745e-02 1.421902e-01 -6.009422e-01 -7.128695e-01 -9.783425e-01 1.616555e-01 -2.196169e-01 -2.699095e-01 -1.094707e-01 5.982811e-02 1.142690e-02 3.284237e-02 -3.122790e-01 -2.657939e-01 2.362309e-01 5.547638e-02 -1.228864e-01 1.953566e-01
<VARIANCE> 39
 6.366315e+01 4.816174e+01 6.968851e+01 8.820202e+01 1.951857e+01 4.467443e+01 7.430093e+01 1.448188e+02 4.445277e+01 7.314838e+01 2.071725e+01 1.544615e+01 5.205536e+01 3.925945e-01 3.171371e+00 2.947302e+00 3.065273e+00 1.995399e+00 8.334572e-01 6.815287e-01 9.924176e-01 1.078547e+00 3.332599e+00 1.996779e+00 7.534721e-01 1.596777e-01 3.325982e-01 4.575325e-01 2.338987e-01 1.263074e+00 3.941227e-01 5.899089e-01 9.097140e-01 8.003117e-01 6.295519e-01 6.773170e-01 3.031281e-01 3.084033e-01 4.868116e-01
<GCONST> 1.158616e+02
<STATE> 4
<MEAN> 39
 1.565417e+00 4.658785e-01 6.552235e+00 -1.043131e+01 -7.622544e+00 -8.386589e+00 -1.206388e+00 7.592510e+00 -9.311080e+00 -3.792984e+00 1.774532e+00 -4.871338e+00 6.052760e+01 1.680665e-01 -1.409363e-01 -1.293159e-01 -5.560486e-02 -2.369043e-01 -2.183358e-01 4.644823e-01 2.857691e-01 -1.295967e-01 6.681487e-03 -2.120490e-02 1.987024e-01 1.844035e-01 -5.556314e-02 -6.537949e-02 -1.053089e-02 4.268188e-02 1.347828e-01 1.471184e-01 1.010833e-02 -1.262344e-01 1.252863e-01 2.104416e-04 2.631471e-02 -3.980899e-03 2.608215e-02
<VARIANCE> 39
 1.304620e+02 1.165939e+02 7.005682e+01 9.237997e+01 4.069918e+01 8.353647e+01 2.819381e+01 1.346556e+02 8.429613e+01 6.043525e+01 1.801864e+01 4.868035e+01 4.202100e+01 5.820439e+00 6.813069e+00 7.228556e+00 1.061970e+01 2.981234e+00 5.432804e+00 3.210524e+00 6.323190e+00 4.910610e+00 4.922701e+00 2.832466e+00 2.585696e+00 4.310728e+00 7.886716e-01 9.304048e-01 1.204093e+00 1.617266e+00 5.816261e-01 9.479980e-01 5.233178e-01 8.394248e-01 8.138338e-01 7.500308e-01 5.053242e-01 5.857148e-01 6.497898e-01
<GCONST> 1.427570e+02
<TRANSP> 5
 0.000000e+00 1.000000e+00 0.000000e+00 0.000000e+00 0.000000e+00
 0.000000e+00 6.726490e-01 3.273510e-01 0.000000e+00 0.000000e+00
 0.000000e+00 0.000000e+00 2.499412e-01 7.500588e-01 0.000000e+00
 0.000000e+00 0.000000e+00 0.000000e+00 9.042168e-01 9.578322e-02
 0.000000e+00 0.000000e+00 0.000000e+00 0.000000e+00 0.000000e+00
<ENDHMM>
~h "ny"
<BEGINHMM>
<NUMSTATES> 5
<STATE> 2
<MEAN> 39
 4.366999e+00 3.768450e+00 2.568599e+00 -5.731300e+00 -1.823998e+00 -4.418303e-01 -1.158839e+00 -2.371186e+00 -1.800190e+00 9.174532e-01 2.655464e-01 -1.106068e-01 6.018414e+01 -5.792298e-01 -7.161084e-01 1.226341e-01 2.047081e-01 -2.565080e-01 3.306291e-02 7.072049e-02 -6.484558e-02 6.887785e-02 4.027871e-01 3.522433e-01 -2.807859e-01 -1.716498e-01 -3.985781e-02 -7.140579e-02 1.360692e-02 1.045395e-01 -3.367010e-02 -8.440117e-02 -1.527384e-02 6.287309e-02 1.521343e-01 3.725274e-02 -6.481135e-02 -1.112717e-01 -6.617248e-03
<VARIANCE> 39
 6.062010e+01 6.449480e+01 4.701375e+01 3.843384e+01 3.512975e+01 3.020558e+01 4.520652e+01 2.508360e+01 2.557342e+01 1.912842e+01 1.337823e+01 1.696263e+01 1.511917e+01 7.808117e-01 1.780069e+00 1.012911e+00 2.336303e+00 2.920936e+00 9.950618e-01 5.706274e-01 1.411310e+00 1.199167e+00 1.281024e+00 7.510260e-01 1.182763e+00 3.901799e-01 9.056848e-02 2.371808e-01 2.203846e-01 2.474243e-01 3.289101e-01 2.032874e-01 1.607702e-01 1.424885e-01 2.262841e-01 2.917952e-01 1.876567e-01 2.597532e-01 4.269547e-02
<GCONST> 9.506894e+01
<STATE> 3
<MEAN> 39
 -3.468079e+00 -6.291318e+00 7.219379e+00 -4.418617e+00 -6.896443e+00 1.918387e-02 -6.598065e-01 -8.158116e+00 -4.594073e+00 5.135772e+00 -2.541267e-01 -4.931250e+00 5.921043e+01 -1.249604e-01 -8.623968e-02 -1.599354e-01 4.109333e-01 -4.121723e-01 -1.374864e-01 4.368416e-01 -1.461247e-01 1.696384e-01 3.330452e-01 -1.450254e-01 -1.935702e-01 -1.684787e-01 3.020020e-02 5.972835e-02 -7.737473e-02 1.220828e-01 9.719253e-02 -5.155345e-02 2.831875e-02 5.500770e-02 4.481797e-02 1.187980e-02 1.960301e-02 -4.644891e-02 -2.605824e-02
<VARIANCE> 39
 1.187716e+02 9.708399e+01 7.673076e+01 2.107827e+01 4.886651e+01 4.744136e+01 6.796572e+01 1.444405e+01 2.644545e+01 2.626467e+01 1.607528e+01 6.804069e+00 1.786202e+01 1.584230e-01 2.844848e-01 8.589566e-01 1.338028e+00 7.152514e-01 5.528141e-01 9.468608e-01 1.290601e+00 1.323953e+00 6.695766e-01 8.954496e-01 4.563121e-01 1.358694e-01 6.459142e-02 8.293261e-02 1.833210e-01 1.170697e-01 1.318654e-01 6.290033e-02 1.020485e-01 2.262355e-01 1.688491e-01 1.245360e-01 2.160314e-01 8.557100e-02 2.954252e-02
<GCONST> 8.147175e+01
<STATE> 4
<MEAN> 39
 6.384019e+00 4.770762e+00 3.730880e+00 -3.882304e+00 -4.842132e+00 -4.983037e+00 -4.417777e-02 -1.634336e+00 -5.035654e+00 -2.556220e+00 -8.326321e-01 -4.192075e+00 6.152760e+01 -5.794470e-02 -2.789509e-01 -7.843825e-01 1.257619e-02 2.409821e-01 1.659289e-01 6.402985e-01 4.684738e-01 7.536037e-02 -4.699580e-01 -6.259768e-02 7.205465e-02 -1.311747e-01 3.862644e-02 9.388903e-02 1.269902e-01 -6.073814e-02 -1.640034e-02 -1.750864e-01 -2.221299e-01 6.168388e-02 -1.086550e-02 -1.359954e-01 -3.572978e-03 1.315948e-01 2.038119e-02
<VARIANCE> 39
 6.987119e+01 9.284276e+01 4.824473e+01 2.638236e+01 4.516906e+01 4.862112e+01 9.480093e+01 4.580742e+01 5.569641e+01 7.416497e+01 4.654723e+01 2.955335e+00 1.577211e+01 4.751484e-01 3.797389e-01 1.418167e+00 1.369669e+00 1.766006e+00 2.019567e+00 1.571290e+00 1.320796e+00 1.711964e+00 1.498564e+00 1.882401e+00 1.240350e+00 3.235517e-01 1.305179e-01 4.597731e-02 1.674791e-01 1.762192e-01 3.704007e-01 4.085054e-01 2.583520e-01 3.254016e-01 2.288864e-01 3.407216e-01 2.312066e-01 5.334468e-02 1.139714e-01
<GCONST> 9.917616e+01
<TRANSP> 5
 0.000000e+00 1.000000e+00 0.000000e+00 0.000000e+00 0.000000e+00
 0.000000e+00 7.010940e-01 2.989060e-01 0.000000e+00 0.000000e+00
 0.000000e+00 0.000000e+00 5.735314e-01 4.264685e-01 0.000000e+00
 0.000000e+00 0.000000e+00 0.000000e+00 5.902988e-01 4.097013e-01
 0.000000e+00 0.000000e+00 0.000000e+00 0.000000e+00 0.000000e+00
<ENDHMM>
~h "rr"
<BEGINHMM>
<NUMSTATES> 5
<STATE> 2
<MEAN> 39
 7.714702e+00 1.353577e+01 9.375343e+00 -2.922002e+00 -5.105732e+00 -8.235702e+00 -4.065727e+00 -1.232545e-01 -1.002124e+00 -3.504990e+00 -6.424678e+00 -3.828019e+00 5.906882e+01 6.721967e-02 -7.275702e-03 9.450817e-02 -4.165906e-01 -6.473221e-01 -7.962102e-01 -4.035987e-01 3.637240e-01 9.086701e-01 6.893951e-01 3.739058e-01 -6.045189e-02 1.112226e-01 -1.132518e-01 -2.100498e-01 8.437825e-02 2.821336e-01 2.369768e-01 1.975584e-01 -9.257402e-02 -4.334764e-01 -4.118151e-01 4.972414e-02 2.825486e-01 1.141862e-01 -1.153330e-02
<VARIANCE> 39
 1.333756e+00 1.078756e+00 5.152994e+00 1.193788e+01 1.491727e+01 1.756006e+01 4.103315e+00 8.597466e+00 6.765062e+00 1.396917e+01 1.594919e+01 4.539871e+00 7.908179e-01 6.201898e-02 9.861363e-02 3.478905e-02 1.045678e-01 2.749915e-01 9.431380e-01 4.982003e-01 9.735583e-01 7.717556e-01 4.881997e-01 7.328823e-01 2.419259e-01 5.917997e-02 6.379279e-02 1.635077e-01 2.409832e-02 1.402462e-01 1.190821e-01 1.882722e-01 3.817154e-01 3.271315e-01 1.288380e-01 3.485064e-01 3.615018e-01 2.585379e-02 1.814505e-02
<GCONST> 4.765176e+01
<STATE> 3
<MEAN> 39
 7.132506e+00 1.311746e+01 9.254633e+00 -7.110497e+00 -1.233963e+01 -1.414602e+01 -4.540791e+00 2.816459e+00 3.680302e+00 -1.249884e+00 -5.337588e+00 -6.220764e+00 5.933680e+01 -7.136250e-01 -1.044697e-02 1.058213e+00 8.641909e-01 1.158148e-03 2.272916e-01 3.566583e-01 -2.566862e-01 -2.176476e-01 5.454352e-01 9.254271e-01 1.369907e-01 -3.708140e-01 -2.010302e-01 -3.026086e-01 -3.042226e-02 3.328916e-01 4.897093e-01 5.298027e-01 2.684517e-01 -1.884434e-01 -4.791038e-01 -3.174616e-01 -4.732393e-02 1.391564e-01 -4.416936e-02
<VARIANCE> 39
 1.687266e+00 9.791571e-01 8.013515e+00 6.077870e+00 7.873639e+00 4.812731e+00 1.943630e+00 6.692204e+00 7.497982e+00 6.828256e+00 1.274952e+01 6.339791e+00 7.908179e-01 5.356193e-02 2.470249e-01 1.522177e-01 1.205662e-01 7.240349e-01 8.509815e-01 3.200131e-01 1.263104e-01 1.215501e+00 1.228068e+00 1.030335e+00 3.595461e-02 1.497167e-02 3.797712e-02 5.054338e-02 5.441070e-02 3.176719e-02 5.691902e-02 3.149364e-02 6.079791e-02 1.155551e-01 1.210183e-01 3.574434e-02 1.393046e-01 2.959764e-02 5.510747e-03
<GCONST> 3.121229e+01
<STATE> 4
<MEAN> 39
 3.363425e+00 1.045354e+01 9.980445e+00 -2.886799e+00 -6.580025e+00 -7.964137e+00 -5.019814e-02 3.767671e+00 2.878562e+00 -5.702370e-01 -3.549339e+00 -4.288324e+00 5.773991e+01 -1.101496e+00 -1.293083e+00 5.289565e-02 1.530417e+00 1.803456e+00 1.607473e+00 1.214614e+00 2.123201e-01 -6.265633e-01 -2.694813e-01 2.860489e-01 8.673733e-01 -3.848735e-01 -1.275889e-01 -4.918554e-01 -1.818815e-01 4.890101e-02 -4.501276e-02 -1.220697e-01 -3.566457e-02 -9.453633e-02 -2.888099e-01 -2.061764e-01 -7.064008e-02 1.705349e-02 5.708041e-02
<VARIANCE> 39
 6.671419e+00 6.832951e+00 2.507322e+00 8.198871e+00 2.854776e+01 2.992786e+01 1.333591e+01 7.933937e+00 5.011895e+00 1.891920e+00 6.214183e+00 9.993378e+00 1.497458e+00 2.239411e-01 1.001367e+00 7.809322e-02 2.926362e-01 9.933355e-01 1.759559e+00 4.880703e-01 6.201463e-01 1.367041e+00 4.107687e-01 6.637173e-01 6.275750e-01 4.746152e-02 5.119758e-02 1.003038e-01 8.000449e-02 5.482663e-02 4.436532e-01 7.697907e-01 1.585559e-01 1.154036e-01 3.981948e-01 5.078924e-02 9.851649e-02 2.098640e-01 1.195630e-02
<GCONST> 5.832043e+01
<TRANSP> 5
 0.000000e+00 1.000000e+00 0.000000e+00 0.000000e+00 0.000000e+00
 0.000000e+00 6.999765e-01 3.000235e-01 0.000000e+00 0.000000e+00
 0.000000e+00 0.000000e+00 5.446755e-01 4.553245e-01 0.000000e+00
 0.000000e+00 0.000000e+00 0.000000e+00 6.432847e-01 3.567152e-01
 0.000000e+00 0.000000e+00 0.000000e+00 0.000000e+00 0.000000e+00
<ENDHMM>
~h "sp"
<BEGINHMM>
<NUMSTATES> 3
<STATE> 2
~s "silst"
<TRANSP> 3
 0.000000e+00 1.787418e-01 8.212582e-01
 0.000000e+00 9.230846e-01 7.691540e-02
 0.000000e+00 0.000000e+00 0.000000e+00
<ENDHMM>
~h "sil"
<BEGINHMM>
<NUMSTATES> 5
<STATE> 2
<MEAN> 39
 4.010140e+00 2.015458e+00 1.385680e+00 -1.890550e+00 -2.080276e-01 -4.333554e+00 -8.096966e+00 -6.304011e+00 -3.503284e+00 -1.751530e+00 -2.531480e+00 -2.657883e+00 6.014004e+01 4.077303e-02 6.153154e-03 3.864076e-02 1.866265e-03 1.248942e-02 3.223837e-03 -5.001184e-03 -2.126272e-02 -9.796001e-03 -4.450353e-03 -4.242037e-03 -1.004393e-02 5.792828e-02 -2.056869e-02 -7.172946e-03 -1.077641e-02 -8.576013e-03 -5.728364e-03 -2.507922e-03 2.544823e-03 4.542942e-03 2.250182e-03 -3.305166e-03 -1.985942e-03 4.264470e-04 -1.748634e-02
<VARIANCE> 39
 9.817719e+01 7.148248e+01 9.576761e+01 7.759716e+01 7.130890e+01 6.749130e+01 9.298759e+01 7.250527e+01 3.816843e+01 4.284499e+01 3.133053e+01 2.644302e+01 4.025854e+01 4.682038e+00 3.467803e+00 4.345324e+00 3.276952e+00 3.252337e+00 3.090733e+00 4.105046e+00 3.228555e+00 2.265128e+00 2.158937e+00 1.845688e+00 1.569413e+00 1.708604e+00 5.620456e-01 5.116579e-01 5.875913e-01 4.819453e-01 4.899513e-01 4.750123e-01 6.090367e-01 5.173516e-01 3.877134e-01 3.508216e-01 3.229949e-01 2.729681e-01 2.329783e-01
<GCONST> 1.270773e+02
<STATE> 3
~s "silst"
<STATE> 4
<MEAN> 39
 -1.454838e+01 -2.478509e+00 -1.682413e+00 -8.770598e-01 -3.296792e+00 -1.868680e+00 -3.585411e+00 -2.093753e+00 -3.259526e+00 -2.196786e+00 -2.351518e+00 -1.540411e+00 4.394195e+01 -2.716742e-02 7.192492e-03 -1.894162e-02 1.170389e-02 -8.261599e-03 5.450157e-03 -8.251391e-03 4.044395e-03 -8.516107e-03 -6.338388e-03 -8.938636e-03 -6.198331e-03 -4.545301e-02 7.643531e-03 2.116854e-03 3.756994e-03 3.346737e-03 4.485383e-03 2.291952e-03 5.315093e-04 2.897963e-03 2.610264e-03 1.865906e-03 -3.267002e-04 -7.388899e-04 5.885508e-03
<VARIANCE> 39
 1.460616e+01 1.110808e+01 8.100666e+00 9.036111e+00 7.248349e+00 9.421269e+00 9.352190e+00 9.057424e+00 9.706932e+00 8.593754e+00 7.517650e+00 6.258346e+00 1.280440e+01 7.783324e-02 1.315253e-01 2.277995e-01 3.294880e-01 4.239924e-01 5.528541e-01 6.279230e-01 7.009140e-01 7.272158e-01 7.017635e-01 6.607600e-01 6.115968e-01 3.484780e-02 1.602279e-02 2.711838e-02 4.783092e-02 6.930589e-02 8.915631e-02 1.170039e-01 1.300307e-01 1.457555e-01 1.505712e-01 1.454250e-01 1.346622e-01 1.271811e-01 6.170819e-03
<GCONST> 5.121333e+01
<TRANSP> 5
 0.000000e+00 1.000000e+00 0.000000e+00 0.000000e+00 0.000000e+00
 0.000000e+00 9.755521e-01 1.934204e-02 5.105834e-03 0.000000e+00
 0.000000e+00 0.000000e+00 8.491839e-01 1.508161e-01 0.000000e+00
 0.000000e+00 1.714525e-02 0.000000e+00 9.717568e-01 1.109800e-02
 0.000000e+00 0.000000e+00 0.000000e+00 0.000000e+00 0.000000e+00
<ENDHMM>
~h "tsh"
<BEGINHMM>
<NUMSTATES> 5
<STATE> 2
<MEAN> 39
 2.767204e+00 -1.045058e+01 4.837345e+00 -4.740650e+00 3.633229e+00 -6.013170e+00 -8.082228e+00 -3.492212e+00 -8.696096e+00 -1.285237e+00 5.472158e+00 -5.733728e+00 6.839951e+01 -2.868847e-01 -2.047395e-01 1.183169e-01 -2.205770e-01 -5.202828e-02 -1.860813e-01 2.672960e-01 -7.071213e-02 1.815059e-01 1.728175e-01 -1.334489e-01 -8.202488e-02 6.960802e-02 -3.421182e-04 7.193173e-02 -2.885058e-02 6.830110e-02 -7.104855e-02 3.441466e-02 1.503083e-02 5.787095e-02 1.016006e-01 -6.670147e-02 -9.633391e-02 3.546312e-03 -9.811293e-02
<VARIANCE> 39
 1.758162e+02 5.037175e+01 9.184550e+01 9.432268e+01 5.460482e+01 3.743734e+01 1.326830e+02 5.767666e+01 7.470036e+01 4.233108e+01 4.101152e+01 3.905169e+01 3.094902e+01 1.004894e+01 3.434736e+00 7.361258e+00 5.441847e+00 5.268499e+00 4.169252e+00 6.574354e+00 4.926333e+00 6.241777e+00 3.956461e+00 3.828983e+00 2.945856e+00 2.443399e+00 1.324691e+00 6.833132e-01 1.218257e+00 7.649380e-01 9.845454e-01 7.795429e-01 8.957411e-01 8.691602e-01 1.216284e+00 7.385103e-01 7.769673e-01 5.482589e-01 5.432625e-01
<GCONST> 1.433346e+02
<STATE> 3
<MEAN> 39
 -1.265656e+00 -2.384010e+00 3.260070e-01 -5.678162e+00 1.421149e+00 -5.005908e+00 -3.219393e+00 -6.598896e+00 -6.760747e+00 3.484426e-01 -1.862351e+00 -2.963817e+00 5.823317e+01 2.057108e+00 1.411846e+00 -5.164931e-01 8.529041e-01 -5.945472e-01 -5.930362e-01 -1.632154e+00 -1.978718e-02 6.837994e-01 4.029796e-02 -1.968081e-01 -5.549460e-01 2.480769e-01 7.563668e-02 -3.053917e-02 9.760351e-02 -2.876411e-02 2.071586e-02 3.224387e-02 -1.617506e-02 -1.107441e-01 -5.105449e-02 2.202673e-02 1.491841e-01 -1.433350e-01 1.886619e-01
<VARIANCE> 39
 1.476496e+02 6.672950e+01 5.621341e+01 5.772282e+01 9.840319e+01 6.432311e+01 1.386087e+02 6.471040e+01 4.179997e+01 3.014608e+01 1.119433e+01 2.260597e+01 4.933345e+01 5.088957e+00 4.027750e+00 2.859663e+00 5.947824e+00 3.034438e+00 3.182817e+00 6.245090e+00 6.488246e+00 1.964652e+00 2.654417e+00 1.915298e+00 1.408761e+00 5.391111e+00 1.078398e+00 6.651892e-01 6.146846e-01 1.346251e+00 6.207623e-01 5.902820e-01 1.412357e+00 1.176634e+00 4.893129e-01 6.829012e-01 3.563472e-01 3.406211e-01 8.484892e-01
<GCONST> 1.351488e+02
<STATE> 4
<MEAN> 39
 9.323586e+00 6.224870e+00 3.506452e+00 2.614169e+00 4.958355e+00 -8.134769e+00 -1.576273e+01 -1.138002e+01 -4.638434e-01 4.533144e+00 -1.689329e-01 -6.369902e+00 6.226057e+01 -4.408625e-01 4.665240e-01 7.334039e-01 -1.320449e-01 -1.308461e-01 6.084972e-01 9.507391e-01 5.197662e-01 -2.564268e-02 -2.007882e-01 -4.360487e-02 2.554056e-01 -3.404517e-01 -1.488938e-01 -2.931673e-02 6.891702e-02 -4.391914e-02 6.999232e-02 2.860237e-01 2.489722e-01 7.770121e-02 -8.771037e-02 -2.474337e-01 -7.227767e-02 1.233686e-01 -8.103465e-02
<VARIANCE> 39
 3.147449e+01 2.597253e+01 7.654475e+01 2.944452e+01 2.860883e+01 2.898150e+01 6.512929e+01 3.343083e+01 3.551010e+01 2.735154e+01 1.154905e+01 1.245935e+01 2.121052e+01 5.198427e-01 7.272531e-01 1.743165e+00 9.008361e-01 7.010093e-01 1.160335e+00 1.912907e+00 9.315314e-01 1.385349e+00 1.773119e+00 7.087348e-01 8.427168e-01 3.067440e-01 1.336350e-01 1.810496e-01 2.439062e-01 8.663512e-02 1.341127e-01 1.459263e-01 2.281315e-01 1.813304e-01 2.112664e-01 1.097220e-01 1.440982e-01 1.100496e-01 6.221849e-02
<GCONST> 8.908020e+01
<TRANSP> 5
 0.000000e+00 1.000000e+00 0.000000e+00 0.000000e+00 0.000000e+00
 0.000000e+00 9.159414e-01 8.405863e-02 0.000000e+00 0.000000e+00
 0.000000e+00 0.000000e+00 7.804895e-01 2.195105e-01 0.000000e+00
 0.000000e+00 0.000000e+00 0.000000e+00 8.118607e-01 1.881393e-01
 0.000000e+00 0.000000e+00 0.000000e+00 0.000000e+00 0.000000e+00
<ENDHMM>
