~o
<STREAMINFO> 1 39
<VECSIZE> 39<NULLD><MFCC_D_A_0><DIAGC>
~h "a"
<BEGINHMM>
<NUMSTATES> 5
<STATE> 2
<MEAN> 39
 -4.526984e-01 -4.291082e-01 8.721611e-01 -1.719553e+00 -2.218223e-01 -4.418115e+00 -6.030966e+00 -3.724282e+00 -3.688216e+00 -2.191849e+00 -1.776961e+00 -2.385545e+00 5.685321e+01 1.027144e-04 6.387046e-03 -2.267758e-03 -1.200901e-04 5.739439e-03 2.349689e-03 -5.859983e-03 -4.669339e-03 3.150107e-03 2.814077e-03 -2.268781e-03 -1.353789e-03 -3.569351e-03 -9.834868e-06 1.125563e-03 5.889976e-04 -3.836378e-05 3.381133e-04 1.960258e-04 4.209207e-04 -7.569555e-04 -9.722170e-04 -3.216483e-05 2.025155e-04 2.428136e-04 -2.730846e-04
<VARIANCE> 39
 1.273258e+02 6.641144e+01 7.398566e+01 6.579112e+01 5.776596e+01 5.497504e+01 7.172842e+01 5.270119e+01 3.331553e+01 3.239929e+01 2.663816e+01 2.524989e+01 7.467867e+01 3.282878e+00 2.886961e+00 3.263699e+00 2.947263e+00 2.407231e+00 3.076811e+00 3.492193e+00 2.491984e+00 2.126414e+00 2.010085e+00 1.712929e+00 1.504222e+00 1.406249e+00 4.054567e-01 4.494453e-01 4.651386e-01 4.438723e-01 3.850741e-01 5.100374e-01 5.557998e-01 4.149861e-01 3.767250e-01 3.511272e-01 3.118358e-01 2.647611e-01 2.035806e-01
<GCONST> 1.222549e+02
<STATE> 3
<MEAN> 39
 -4.536229e-01 -4.087135e-01 8.671457e-01 -1.721339e+00 -2.108302e-01 -4.411580e+00 -6.044060e+00 -3.738482e+00 -3.678557e+00 -2.185850e+00 -1.787325e+00 -2.383916e+00 5.684061e+01 6.466203e-04 8.143798e-03 -8.896848e-04 -2.735527e-04 6.024981e-03 2.502384e-03 -5.080688e-03 -5.439945e-03 2.049295e-03 3.220257e-03 -1.638615e-03 -6.037633e-04 -3.539687e-03 -2.225034e-05 8.883649e-04 6.800721e-04 -4.204698e-04 5.223420e-05 1.489218e-04 4.955266e-04 -3.800299e-04 -3.909321e-04 5.345086e-04 3.349853e-04 3.615381e-04 -1.227831e-04
<VARIANCE> 39
 1.274324e+02 6.616764e+01 7.393070e+01 6.588737e+01 5.752783e+01 5.498849e+01 7.171790e+01 5.263779e+01 3.327524e+01 3.235775e+01 2.662031e+01 2.520924e+01 7.490697e+01 3.287457e+00 2.879459e+00 3.260152e+00 2.944533e+00 2.398462e+00 3.070635e+00 3.491293e+00 2.488010e+00 2.122573e+00 2.005192e+00 1.706450e+00 1.502072e+00 1.407123e+00 4.062342e-01 4.481947e-01 4.641461e-01 4.427421e-01 3.838294e-01 5.088605e-01 5.557561e-01 4.141804e-01 3.756103e-01 3.500923e-01 3.105327e-01 2.642757e-01 2.038566e-01
<GCONST> 1.222025e+02
<STATE> 4
<MEAN> 39
 -3.220408e-01 -3.088764e-01 8.918070e-01 -1.613289e+00 -3.174374e-01 -4.318009e+00 -6.073632e+00 -3.694429e+00 -3.674214e+00 -2.180250e+00 -1.832629e+00 -2.453099e+00 5.700367e+01 -6.168853e-04 6.709760e-03 8.632945e-04 -6.409773e-04 3.117608e-03 2.215058e-03 -2.748966e-03 -3.786650e-03 1.924610e-03 2.240118e-03 -1.725796e-03 9.025207e-04 -3.645067e-03 -1.654479e-04 1.564335e-04 3.152770e-04 -3.137672e-04 -1.619003e-04 -4.588520e-05 1.994576e-04 -1.638691e-05 -1.322456e-05 3.001781e-04 3.947531e-05 1.320220e-04 -4.387950e-05
<VARIANCE> 39
 1.293003e+02 6.731315e+01 7.494192e+01 6.811073e+01 5.845193e+01 5.757682e+01 7.165921e+01 5.372569e+01 3.470052e+01 3.318929e+01 2.697194e+01 2.554052e+01 7.553297e+01 3.415984e+00 2.904081e+00 3.282583e+00 3.008989e+00 2.480783e+00 3.088126e+00 3.545331e+00 2.549741e+00 2.157598e+00 2.023815e+00 1.726270e+00 1.523323e+00 1.452937e+00 4.189747e-01 4.473271e-01 4.624444e-01 4.514433e-01 3.950960e-01 5.077652e-01 5.631005e-01 4.235823e-01 3.794070e-01 3.526008e-01 3.144290e-01 2.683152e-01 2.074248e-01
<GCONST> 1.228716e+02
<TRANSP> 5
 0.000000e+00 1.000000e+00 0.000000e+00 0.000000e+00 0.000000e+00
 0.000000e+00 6.820153e-01 3.179847e-01 0.000000e+00 0.000000e+00
 0.000000e+00 0.000000e+00 6.820144e-01 3.179855e-01 0.000000e+00
 0.000000e+00 0.000000e+00 0.000000e+00 8.394402e-01 1.605598e-01
 0.000000e+00 0.000000e+00 0.000000e+00 0.000000e+00 0.000000e+00
<ENDHMM>
~h "b"
<BEGINHMM>
<NUMSTATES> 5
<STATE> 2
<MEAN> 39
 3.200465e-02 -1.007998e+00 1.790984e-01 -1.663948e+00 -1.364097e-01 -4.351690e+00 -6.015341e+00 -4.014461e+00 -3.963943e+00 -2.126009e+00 -1.494927e+00 -2.429037e+00 5.776997e+01 1.120870e-02 5.136415e-03 -1.440833e-02 1.073086e-02 8.055826e-03 2.407565e-03 -1.004396e-02 -1.884589e-03 -4.786349e-03 1.893671e-03 1.337188e-03 -4.279115e-03 -5.128519e-03 2.309512e-03 1.740832e-03 -6.326288e-04 -7.500931e-04 7.819890e-04 1.151168e-03 -1.633954e-03 -4.008073e-04 -5.428208e-04 -2.465975e-04 3.616091e-04 -3.343055e-04 6.376344e-04
<VARIANCE> 39
 1.318217e+02 7.633434e+01 8.127989e+01 7.062431e+01 6.346179e+01 5.752056e+01 7.783384e+01 5.301633e+01 3.638010e+01 3.251999e+01 2.715081e+01 2.415828e+01 6.797114e+01 3.683661e+00 3.166720e+00 3.421675e+00 3.051774e+00 2.483690e+00 3.260937e+00 3.510753e+00 2.632666e+00 2.137957e+00 1.940784e+00 1.740806e+00 1.448249e+00 1.687898e+00 4.515889e-01 4.973154e-01 4.786900e-01 4.520895e-01 4.007998e-01 5.411510e-01 5.626799e-01 4.447816e-01 3.765395e-01 3.372489e-01 3.160808e-01 2.546719e-01 2.519644e-01
<GCONST> 1.239477e+02
<STATE> 3
<MEAN> 39
 7.166237e-02 -9.728222e-01 1.514884e-01 -1.645874e+00 -1.149127e-01 -4.326822e+00 -6.037965e+00 -4.026290e+00 -3.976585e+00 -2.125189e+00 -1.496268e+00 -2.442034e+00 5.775884e+01 1.521689e-02 7.870191e-03 -1.551988e-02 8.172823e-03 8.508340e-03 4.187217e-03 -1.167084e-02 -2.295477e-03 -5.766375e-03 1.104146e-03 1.838374e-03 -4.669903e-03 -3.373947e-03 1.679664e-03 1.954441e-03 -2.069979e-04 -1.317853e-03 3.002593e-04 1.430265e-03 -1.007908e-03 -2.444476e-04 -1.165806e-04 -8.947268e-05 4.061412e-04 -3.493848e-05 3.366774e-04
<VARIANCE> 39
 1.317957e+02 7.603082e+01 8.109171e+01 6.991310e+01 6.325301e+01 5.718777e+01 7.765789e+01 5.269182e+01 3.623810e+01 3.245061e+01 2.696196e+01 2.422356e+01 6.823782e+01 3.653961e+00 3.159293e+00 3.420495e+00 3.022184e+00 2.479552e+00 3.229163e+00 3.496024e+00 2.612257e+00 2.120946e+00 1.937538e+00 1.737597e+00 1.453168e+00 1.677184e+00 4.470901e-01 4.960726e-01 4.793364e-01 4.463965e-01 4.009858e-01 5.368077e-01 5.591374e-01 4.404351e-01 3.729537e-01 3.366985e-01 3.154385e-01 2.557003e-01 2.492989e-01
<GCONST> 1.237813e+02
<STATE> 4
<MEAN> 39
 2.481061e-02 -7.512168e-01 -1.823925e-01 -1.567170e+00 -4.699564e-01 -3.839889e+00 -6.200676e+00 -4.104606e+00 -3.980792e+00 -2.119348e+00 -1.663595e+00 -2.415307e+00 5.767407e+01 1.581794e-02 9.627381e-03 -9.440267e-03 1.168671e-03 5.516437e-03 7.863141e-03 -6.279783e-03 -1.383259e-03 -5.520745e-03 -1.888845e-03 3.495878e-04 -3.043921e-03 1.055322e-03 4.460403e-04 9.748238e-04 1.468914e-04 -9.434096e-04 -1.702908e-04 7.544443e-04 -8.678153e-05 4.691389e-05 7.092437e-05 1.221278e-05 2.534853e-04 1.146173e-04 3.465347e-05
<VARIANCE> 39
 1.377932e+02 7.494448e+01 8.069165e+01 6.784686e+01 6.163922e+01 5.632954e+01 7.292313e+01 5.031643e+01 3.553776e+01 3.344189e+01 2.672999e+01 2.417563e+01 7.050420e+01 3.669009e+00 2.985977e+00 3.383052e+00 2.907952e+00 2.453293e+00 3.042924e+00 3.381895e+00 2.529316e+00 2.025531e+00 1.917383e+00 1.671452e+00 1.401382e+00 1.613764e+00 4.434490e-01 4.597870e-01 4.673078e-01 4.247186e-01 3.973268e-01 5.030551e-01 5.406016e-01 4.284973e-01 3.555136e-01 3.312272e-01 3.024020e-01 2.457747e-01 2.286271e-01
<GCONST> 1.227243e+02
<TRANSP> 5
 0.000000e+00 1.000000e+00 0.000000e+00 0.000000e+00 0.000000e+00
 0.000000e+00 7.047506e-01 2.952494e-01 0.000000e+00 0.000000e+00
 0.000000e+00 0.000000e+00 7.047507e-01 2.952494e-01 0.000000e+00
 0.000000e+00 0.000000e+00 0.000000e+00 8.643031e-01 1.356969e-01
 0.000000e+00 0.000000e+00 0.000000e+00 0.000000e+00 0.000000e+00
<ENDHMM>
~h "d"
<BEGINHMM>
<NUMSTATES> 5
<STATE> 2
<MEAN> 39
 -1.603181e+00 -9.235127e-01 6.161770e-01 -1.692659e+00 -2.514800e-01 -4.329007e+00 -5.935387e+00 -3.537028e+00 -3.480084e+00 -1.982700e+00 -1.695647e+00 -2.367567e+00 5.594456e+01 -3.120674e-03 5.671281e-03 -1.118139e-03 -9.571422e-03 -5.318969e-03 1.816576e-03 4.999958e-03 4.805625e-03 2.451092e-03 2.330614e-04 -1.248261e-03 -7.142508e-04 -5.261740e-03 5.715691e-04 1.305853e-03 5.904209e-04 8.266616e-04 8.423674e-06 -6.086723e-04 -3.242346e-04 1.874016e-05 5.478742e-04 5.303152e-04 -4.422676e-05 6.100883e-05 -6.752141e-05
<VARIANCE> 39
 1.365910e+02 6.272693e+01 7.249318e+01 6.136840e+01 5.099377e+01 5.146210e+01 6.969331e+01 5.214863e+01 3.078705e+01 3.167739e+01 2.525296e+01 2.410848e+01 8.407931e+01 3.175182e+00 2.799551e+00 3.041595e+00 2.859739e+00 2.222745e+00 2.822155e+00 3.106215e+00 2.417913e+00 2.013833e+00 1.885408e+00 1.626528e+00 1.382763e+00 1.309578e+00 3.891249e-01 4.345465e-01 4.319097e-01 4.338394e-01 3.613948e-01 4.602750e-01 4.882565e-01 4.058890e-01 3.571231e-01 3.354100e-01 2.955292e-01 2.507519e-01 1.893548e-01
<GCONST> 1.202923e+02
<STATE> 3
<MEAN> 39
 -1.602515e+00 -9.050719e-01 6.234728e-01 -1.702014e+00 -2.540447e-01 -4.327736e+00 -5.934999e+00 -3.532389e+00 -3.477907e+00 -1.977401e+00 -1.698080e+00 -2.376678e+00 5.593840e+01 -1.533681e-03 7.709143e-03 -1.663895e-05 -8.063340e-03 -4.978744e-03 8.510055e-04 4.152113e-03 4.519058e-03 2.976737e-03 5.877614e-04 -7.364195e-04 -7.192953e-04 -4.552147e-03 3.465260e-04 9.125933e-04 5.881285e-04 1.181182e-03 2.375824e-04 -2.474539e-04 -3.273030e-04 -2.226178e-04 3.177364e-04 3.050484e-04 -1.562565e-04 -2.340868e-04 -1.110777e-04
<VARIANCE> 39
 1.364622e+02 6.238205e+01 7.255479e+01 6.116976e+01 5.079467e+01 5.149569e+01 6.955190e+01 5.225190e+01 3.071821e+01 3.166705e+01 2.524080e+01 2.412613e+01 8.416021e+01 3.176137e+00 2.798867e+00 3.039560e+00 2.839500e+00 2.221531e+00 2.821419e+00 3.101270e+00 2.420797e+00 2.009184e+00 1.886380e+00 1.621844e+00 1.380121e+00 1.309486e+00 3.894069e-01 4.348255e-01 4.312770e-01 4.320250e-01 3.621576e-01 4.601158e-01 4.869092e-01 4.066079e-01 3.561246e-01 3.352738e-01 2.945670e-01 2.506484e-01 1.892562e-01
<GCONST> 1.202523e+02
<STATE> 4
<MEAN> 39
 -1.358667e+00 -6.814840e-01 7.703896e-01 -1.461254e+00 -2.667940e-01 -4.503788e+00 -6.262725e+00 -3.510645e+00 -3.400661e+00 -1.857285e+00 -1.637233e+00 -2.509226e+00 5.605636e+01 1.733063e-03 5.563082e-03 2.427517e-03 -1.764787e-03 -6.656884e-04 -4.716792e-04 -1.219019e-03 3.221206e-05 8.704152e-04 1.364953e-03 -1.056303e-03 -3.649956e-03 -4.654689e-04 2.934622e-04 3.127461e-04 2.081432e-04 6.641122e-04 1.452183e-04 -1.297724e-04 -4.034593e-04 -2.689626e-04 1.092647e-04 3.744369e-05 -1.778996e-04 -2.827175e-04 4.874321e-05
<VARIANCE> 39
 1.374942e+02 6.364406e+01 7.260777e+01 6.281884e+01 5.098896e+01 5.531586e+01 7.438856e+01 5.502044e+01 3.204046e+01 3.286173e+01 2.536355e+01 2.410254e+01 8.603020e+01 3.253344e+00 2.852887e+00 3.074885e+00 2.833721e+00 2.299587e+00 2.884223e+00 3.251374e+00 2.461688e+00 2.006866e+00 1.911456e+00 1.634919e+00 1.392055e+00 1.367122e+00 3.939993e-01 4.400019e-01 4.295126e-01 4.335760e-01 3.745416e-01 4.620736e-01 5.069080e-01 4.121566e-01 3.512336e-01 3.371678e-01 2.961805e-01 2.537095e-01 1.928149e-01
<GCONST> 1.209942e+02
<TRANSP> 5
 0.000000e+00 1.000000e+00 0.000000e+00 0.000000e+00 0.000000e+00
 0.000000e+00 6.899034e-01 3.100966e-01 0.000000e+00 0.000000e+00
 0.000000e+00 0.000000e+00 6.899050e-01 3.100950e-01 0.000000e+00
 0.000000e+00 0.000000e+00 0.000000e+00 8.517950e-01 1.482050e-01
 0.000000e+00 0.000000e+00 0.000000e+00 0.000000e+00 0.000000e+00
<ENDHMM>
~h "e"
<BEGINHMM>
<NUMSTATES> 5
<STATE> 2
<MEAN> 39
 8.035427e-02 -6.696043e-01 6.756782e-01 -2.117414e+00 -2.145496e-01 -4.756120e+00 -6.331937e+00 -3.914258e+00 -3.610715e+00 -2.279320e+00 -1.917420e+00 -2.463960e+00 5.750010e+01 4.029158e-03 -1.393012e-03 1.336557e-03 -1.135321e-04 -2.468263e-03 -3.776024e-03 -5.336151e-03 1.009602e-03 2.276016e-03 1.603240e-03 -6.708996e-04 -5.026859e-04 3.787083e-03 3.238348e-04 4.056296e-04 4.238749e-04 1.277397e-04 1.988893e-04 5.204288e-04 3.132869e-04 2.869444e-04 3.751221e-04 1.573247e-04 1.271921e-04 -2.913561e-05 1.708891e-04
<VARIANCE> 39
 1.316848e+02 6.720798e+01 7.829452e+01 6.704220e+01 5.731324e+01 5.486703e+01 7.632253e+01 5.805178e+01 3.410596e+01 3.563034e+01 2.772035e+01 2.637872e+01 7.719718e+01 3.600400e+00 3.091658e+00 3.432132e+00 3.055435e+00 2.493072e+00 3.164707e+00 3.554461e+00 2.645123e+00 2.171477e+00 2.039947e+00 1.769903e+00 1.526132e+00 1.528354e+00 4.435867e-01 4.856453e-01 4.886432e-01 4.607722e-01 4.030878e-01 5.220870e-01 5.578878e-01 4.399314e-01 3.825237e-01 3.584756e-01 3.232379e-01 2.683380e-01 2.229574e-01
<GCONST> 1.238753e+02
<STATE> 3
<MEAN> 39
 8.332402e-02 -6.733581e-01 6.795616e-01 -2.120637e+00 -2.173207e-01 -4.760927e+00 -6.343280e+00 -3.911093e+00 -3.604053e+00 -2.275961e+00 -1.919888e+00 -2.467742e+00 5.750569e+01 3.464516e-03 -4.651144e-04 2.243316e-03 7.072976e-05 -2.364226e-03 -1.996138e-03 -4.072552e-03 1.300736e-03 2.289449e-03 1.417916e-03 -7.697564e-04 -1.401995e-03 3.043354e-03 -3.207595e-04 1.447359e-05 3.524235e-05 -1.504748e-04 -1.129159e-04 5.563536e-04 5.077330e-04 2.260446e-05 1.171033e-04 -2.649755e-05 8.750735e-05 -5.182395e-04 -2.163360e-04
<VARIANCE> 39
 1.315730e+02 6.718310e+01 7.819038e+01 6.690498e+01 5.748531e+01 5.491912e+01 7.647530e+01 5.804509e+01 3.409476e+01 3.561883e+01 2.776161e+01 2.643997e+01 7.720861e+01 3.598212e+00 3.095872e+00 3.436733e+00 3.059068e+00 2.499480e+00 3.171283e+00 3.558831e+00 2.645623e+00 2.172487e+00 2.042551e+00 1.770374e+00 1.526624e+00 1.529643e+00 4.432709e-01 4.869444e-01 4.894955e-01 4.619209e-01 4.040653e-01 5.237963e-01 5.587091e-01 4.401903e-01 3.827038e-01 3.590182e-01 3.232726e-01 2.684487e-01 2.233460e-01
<GCONST> 1.239106e+02
<STATE> 4
<MEAN> 39
 2.679716e-01 -6.066768e-01 5.733079e-01 -2.072880e+00 -2.404781e-01 -4.797918e+00 -6.749686e+00 -4.190413e+00 -3.595054e+00 -2.159399e+00 -1.883480e+00 -2.507642e+00 5.766338e+01 -1.207337e-03 -9.578764e-04 4.753125e-04 -1.357568e-04 -1.291791e-03 1.941303e-04 -1.612843e-03 1.342337e-03 1.927056e-03 7.513955e-04 -4.463387e-04 -1.745535e-03 -8.750643e-04 -3.721053e-04 -1.048225e-04 -1.842111e-04 -1.056966e-04 -1.551669e-04 2.408833e-04 4.011922e-04 -1.836591e-05 -3.095789e-05 -4.794291e-05 1.378809e-04 -2.665572e-04 -2.688901e-04
<VARIANCE> 39
 1.331815e+02 6.747408e+01 7.839531e+01 6.711371e+01 5.792426e+01 5.638285e+01 7.830875e+01 6.158981e+01 3.441172e+01 3.643847e+01 2.800467e+01 2.619685e+01 7.614943e+01 3.674500e+00 3.070595e+00 3.422706e+00 3.041717e+00 2.533788e+00 3.135305e+00 3.600235e+00 2.703525e+00 2.167453e+00 2.036412e+00 1.756869e+00 1.508229e+00 1.550187e+00 4.490065e-01 4.794132e-01 4.818864e-01 4.588051e-01 4.064367e-01 5.129071e-01 5.625333e-01 4.482244e-01 3.792071e-01 3.550518e-01 3.190685e-01 2.658446e-01 2.209781e-01
<GCONST> 1.240249e+02
<TRANSP> 5
 0.000000e+00 1.000000e+00 0.000000e+00 0.000000e+00 0.000000e+00
 0.000000e+00 6.965038e-01 3.034962e-01 0.000000e+00 0.000000e+00
 0.000000e+00 0.000000e+00 6.965007e-01 3.034993e-01 0.000000e+00
 0.000000e+00 0.000000e+00 0.000000e+00 8.575324e-01 1.424676e-01
 0.000000e+00 0.000000e+00 0.000000e+00 0.000000e+00 0.000000e+00
<ENDHMM>
~h "f"
<BEGINHMM>
<NUMSTATES> 5
<STATE> 2
<MEAN> 39
 8.366993e-01 -7.214574e-01 1.680779e+00 -2.623399e+00 -3.550045e-01 -5.557519e+00 -6.922539e+00 -4.927376e+00 -3.752463e+00 -1.864353e+00 -1.837700e+00 -3.100208e+00 5.877356e+01 -2.491034e-02 -1.363668e-02 1.022667e-02 1.690246e-03 -1.727212e-02 -1.614829e-02 -4.543730e-03 -2.042995e-04 -5.188716e-03 -1.258987e-02 -2.173208e-02 5.823573e-03 -1.087735e-02 2.365123e-03 -3.609493e-04 -7.770049e-04 -1.025960e-03 -7.395976e-04 2.693832e-04 6.694191e-04 7.801069e-04 4.559916e-04 8.065319e-04 2.393786e-05 7.465625e-04 1.797263e-03
<VARIANCE> 39
 1.037299e+02 7.359042e+01 8.096988e+01 7.679874e+01 6.308598e+01 6.365847e+01 8.301544e+01 5.395607e+01 3.561253e+01 4.006314e+01 3.025595e+01 2.894818e+01 4.662617e+01 4.243208e+00 3.392224e+00 3.800267e+00 3.948530e+00 2.942376e+00 3.497149e+00 3.887840e+00 2.995857e+00 2.243944e+00 2.468828e+00 1.803378e+00 1.760777e+00 1.633309e+00 5.373034e-01 5.551261e-01 5.345504e-01 6.041249e-01 4.747088e-01 5.782369e-01 6.132442e-01 4.926673e-01 4.047296e-01 4.355493e-01 3.255008e-01 3.189964e-01 2.535130e-01
<GCONST> 1.272552e+02
<STATE> 3
<MEAN> 39
 7.488417e-01 -7.600709e-01 1.709965e+00 -2.629161e+00 -3.939492e-01 -5.583338e+00 -6.918408e+00 -4.894369e+00 -3.735780e+00 -1.906450e+00 -1.911888e+00 -3.090763e+00 5.873100e+01 -1.773494e-02 -1.302229e-02 7.321137e-03 8.145600e-04 -1.636562e-02 -1.557353e-02 -3.940011e-03 2.357285e-03 -3.522332e-03 -1.137137e-02 -2.249029e-02 6.329990e-03 -6.487959e-03 2.716198e-03 -3.797645e-04 -1.278329e-03 -1.567487e-03 -3.293750e-04 4.138119e-04 9.851390e-04 1.465515e-03 8.332256e-04 7.010852e-04 -3.003991e-04 2.104842e-04 2.054019e-03
<VARIANCE> 39
 1.041718e+02 7.363448e+01 8.127131e+01 7.881776e+01 6.282881e+01 6.258124e+01 8.244387e+01 5.368703e+01 3.523606e+01 3.957981e+01 3.011374e+01 2.895501e+01 4.669506e+01 4.275477e+00 3.393668e+00 3.822174e+00 4.022320e+00 2.932990e+00 3.519909e+00 3.875631e+00 2.979705e+00 2.235255e+00 2.443835e+00 1.811373e+00 1.765073e+00 1.643590e+00 5.413253e-01 5.565971e-01 5.368637e-01 6.122900e-01 4.732062e-01 5.837219e-01 6.133226e-01 4.913909e-01 4.029539e-01 4.317181e-01 3.275630e-01 3.193343e-01 2.542370e-01
<GCONST> 1.272856e+02
<STATE> 4
<MEAN> 39
 1.002728e+00 -5.714458e-01 1.876670e+00 -2.578096e+00 -3.643955e-01 -5.800012e+00 -7.056708e+00 -4.881610e+00 -3.569269e+00 -1.876100e+00 -2.085689e+00 -3.160887e+00 5.887201e+01 -1.294653e-02 -9.790294e-03 2.213057e-03 4.174447e-04 -7.700870e-03 -8.370097e-03 -1.691818e-04 1.037724e-02 5.524722e-03 -8.103221e-03 -1.996334e-02 5.538982e-03 -5.427892e-03 2.437206e-03 9.008720e-05 -1.248823e-03 -1.123329e-03 2.555231e-04 3.108848e-04 6.496514e-04 1.354780e-03 8.391034e-04 4.172818e-04 -2.179944e-04 2.764736e-05 1.656929e-03
<VARIANCE> 39
 1.033585e+02 7.263574e+01 8.147287e+01 8.057246e+01 6.388953e+01 5.964499e+01 8.099147e+01 5.600248e+01 3.410071e+01 3.965228e+01 2.947449e+01 2.877767e+01 4.473777e+01 4.271894e+00 3.400948e+00 3.869067e+00 4.134384e+00 3.059571e+00 3.555194e+00 3.928507e+00 3.069457e+00 2.286864e+00 2.436144e+00 1.835002e+00 1.783983e+00 1.616079e+00 5.371280e-01 5.615562e-01 5.346817e-01 6.187742e-01 4.845273e-01 5.864972e-01 6.151781e-01 5.038354e-01 4.116165e-01 4.304814e-01 3.327184e-01 3.228880e-01 2.471913e-01
<GCONST> 1.274242e+02
<TRANSP> 5
 0.000000e+00 1.000000e+00 0.000000e+00 0.000000e+00 0.000000e+00
 0.000000e+00 6.819659e-01 3.180341e-01 0.000000e+00 0.000000e+00
 0.000000e+00 0.000000e+00 6.819666e-01 3.180335e-01 0.000000e+00
 0.000000e+00 0.000000e+00 0.000000e+00 8.270663e-01 1.729337e-01
 0.000000e+00 0.000000e+00 0.000000e+00 0.000000e+00 0.000000e+00
<ENDHMM>
~h "g"
<BEGINHMM>
<NUMSTATES> 5
<STATE> 2
<MEAN> 39
 7.276883e-01 6.436467e-03 4.819934e-01 -2.304482e+00 -6.616390e-01 -5.026254e+00 -5.347223e+00 -2.692553e+00 -3.590998e+00 -2.902620e+00 -1.966953e+00 -1.951679e+00 5.753941e+01 -1.213781e-02 -1.550069e-02 2.282760e-02 -6.110606e-03 -3.374171e-02 -5.386204e-03 3.719136e-02 2.806282e-02 -5.894803e-03 -1.022602e-02 8.545936e-03 8.065650e-03 4.492893e-03 -2.403537e-03 -2.491592e-03 1.346840e-03 -1.770120e-03 -1.009918e-03 1.943500e-03 2.404774e-03 -1.443594e-04 -1.349744e-03 -3.443743e-05 2.074635e-04 6.687718e-05 7.803488e-05
<VARIANCE> 39
 1.247847e+02 6.287746e+01 7.957291e+01 6.182563e+01 5.788783e+01 5.336737e+01 6.932480e+01 6.190591e+01 3.676487e+01 3.234705e+01 2.883832e+01 2.531432e+01 7.319446e+01 3.364827e+00 2.984227e+00 3.413113e+00 2.793526e+00 2.571169e+00 3.265933e+00 3.546518e+00 2.689891e+00 2.323653e+00 2.106966e+00 1.835108e+00 1.585769e+00 1.547755e+00 4.338821e-01 4.610286e-01 5.052539e-01 4.311619e-01 4.203201e-01 5.516483e-01 5.826045e-01 4.408273e-01 4.032578e-01 3.691701e-01 3.337466e-01 2.743719e-01 2.241919e-01
<GCONST> 1.238070e+02
<STATE> 3
<MEAN> 39
 6.652232e-01 -5.513945e-02 5.620004e-01 -2.309998e+00 -7.653607e-01 -5.040659e+00 -5.240070e+00 -2.625844e+00 -3.611800e+00 -2.919784e+00 -1.938007e+00 -1.937321e+00 5.754052e+01 -1.542617e-02 -1.960055e-02 2.441250e-02 -6.570270e-03 -3.345842e-02 -2.332608e-03 4.033501e-02 2.678220e-02 -8.961740e-03 -9.140834e-03 9.890484e-03 7.097424e-03 4.667982e-03 -1.843579e-03 -2.148436e-03 1.007443e-03 -1.188212e-03 -6.530818e-04 1.872827e-03 1.960521e-03 -5.002567e-04 -1.916986e-03 -5.543120e-04 -4.276876e-04 -7.588859e-04 5.239423e-05
<VARIANCE> 39
 1.252015e+02 6.443248e+01 7.966788e+01 6.140837e+01 5.864492e+01 5.369777e+01 6.982282e+01 6.169258e+01 3.727341e+01 3.268065e+01 2.904947e+01 2.550110e+01 7.291637e+01 3.382995e+00 3.036992e+00 3.417652e+00 2.807182e+00 2.585080e+00 3.278721e+00 3.552356e+00 2.709277e+00 2.345775e+00 2.132405e+00 1.846756e+00 1.596198e+00 1.547907e+00 4.347793e-01 4.655872e-01 5.075333e-01 4.351051e-01 4.221369e-01 5.543880e-01 5.828951e-01 4.438890e-01 4.059845e-01 3.726627e-01 3.359776e-01 2.755866e-01 2.236717e-01
<GCONST> 1.240357e+02
<STATE> 4
<MEAN> 39
 1.041775e+00 -4.947135e-01 4.925073e-01 -2.317838e+00 -6.434553e-01 -5.199245e+00 -5.276598e+00 -2.386783e+00 -3.698750e+00 -2.942385e+00 -1.768016e+00 -2.144725e+00 5.804073e+01 -2.096057e-02 -1.992908e-02 2.458594e-02 1.074490e-03 -2.476859e-02 7.915813e-04 3.295988e-02 1.626925e-02 -1.195682e-02 -5.545483e-03 8.885410e-03 1.320407e-03 -6.424380e-04 -5.589700e-04 -7.057783e-04 3.066037e-04 8.887964e-06 5.752385e-04 9.111073e-04 2.433863e-04 -1.012835e-03 -1.441002e-03 -7.910533e-04 -7.715814e-04 -6.826189e-04 -3.040012e-05
<VARIANCE> 39
 1.227284e+02 6.817464e+01 8.305254e+01 6.305927e+01 6.073482e+01 5.377576e+01 7.247697e+01 6.068226e+01 3.870919e+01 3.330186e+01 3.009863e+01 2.701798e+01 7.137499e+01 3.314364e+00 3.085055e+00 3.469700e+00 2.993156e+00 2.734779e+00 3.452044e+00 3.725784e+00 2.822861e+00 2.392312e+00 2.192693e+00 1.923751e+00 1.684798e+00 1.600093e+00 4.129482e-01 4.683967e-01 5.070350e-01 4.676516e-01 4.463566e-01 5.853483e-01 6.137942e-01 4.647124e-01 4.136640e-01 3.830522e-01 3.503665e-01 2.920852e-01 2.267260e-01
<GCONST> 1.251659e+02
<TRANSP> 5
 0.000000e+00 1.000000e+00 0.000000e+00 0.000000e+00 0.000000e+00
 0.000000e+00 6.895713e-01 3.104287e-01 0.000000e+00 0.000000e+00
 0.000000e+00 0.000000e+00 6.895710e-01 3.104289e-01 0.000000e+00
 0.000000e+00 0.000000e+00 0.000000e+00 8.409014e-01 1.590987e-01
 0.000000e+00 0.000000e+00 0.000000e+00 0.000000e+00 0.000000e+00
<ENDHMM>
~h "i"
<BEGINHMM>
<NUMSTATES> 5
<STATE> 2
<MEAN> 39
 -1.667641e-01 -7.747104e-01 9.562337e-01 -1.908303e+00 -2.329565e-01 -4.830645e+00 -6.548657e+00 -4.036829e+00 -3.558268e+00 -1.957974e+00 -1.845741e+00 -2.579496e+00 5.748268e+01 2.107462e-04 -2.858112e-03 -5.222536e-03 1.364105e-03 6.838401e-03 3.343601e-03 -4.674483e-03 -6.761195e-03 -3.468654e-03 2.986759e-03 5.299400e-03 2.657374e-03 -1.031428e-03 -4.475971e-04 2.157628e-05 2.141396e-04 -5.666929e-05 1.148543e-04 3.079032e-04 4.715937e-04 -4.387536e-04 -1.052083e-04 -3.369770e-04 -4.834285e-04 -3.788270e-05 -5.245506e-05
<VARIANCE> 39
 1.312057e+02 6.824985e+01 7.357600e+01 7.049961e+01 5.908951e+01 5.985569e+01 7.944924e+01 5.532572e+01 3.417017e+01 3.434498e+01 2.847917e+01 2.583153e+01 7.244769e+01 3.686240e+00 3.224182e+00 3.389195e+00 3.197346e+00 2.619576e+00 3.275408e+00 3.563772e+00 2.646734e+00 2.235483e+00 2.099425e+00 1.793646e+00 1.556161e+00 1.546844e+00 4.502174e-01 4.950813e-01 4.861680e-01 4.769270e-01 4.203892e-01 5.345907e-01 5.595791e-01 4.399309e-01 3.944420e-01 3.732803e-01 3.263905e-01 2.789805e-01 2.260838e-01
<GCONST> 1.244465e+02
<STATE> 3
<MEAN> 39
 -1.695988e-01 -7.871460e-01 9.443247e-01 -1.900573e+00 -2.231581e-01 -4.824421e+00 -6.552381e+00 -4.052312e+00 -3.574128e+00 -1.946026e+00 -1.830469e+00 -2.578593e+00 5.747815e+01 -1.430650e-03 -2.863177e-03 -5.092441e-03 1.046466e-03 6.469073e-03 3.538610e-03 -4.092140e-03 -7.601855e-03 -3.612933e-03 2.057195e-03 4.137676e-03 2.155857e-03 -1.821347e-03 -5.896318e-04 -5.742989e-05 3.449791e-04 -1.222900e-04 -9.252488e-05 -1.833871e-05 2.728954e-04 -1.849922e-04 9.896117e-05 -2.630594e-04 -4.808064e-04 -2.220862e-04 -8.012995e-05
<VARIANCE> 39
 1.311449e+02 6.819622e+01 7.348612e+01 7.017416e+01 5.903039e+01 5.982542e+01 7.937850e+01 5.523712e+01 3.404630e+01 3.419214e+01 2.839263e+01 2.583769e+01 7.239359e+01 3.670955e+00 3.214385e+00 3.379064e+00 3.184664e+00 2.612280e+00 3.273554e+00 3.563375e+00 2.646441e+00 2.227759e+00 2.094689e+00 1.789002e+00 1.554548e+00 1.542996e+00 4.480976e-01 4.934006e-01 4.847124e-01 4.752701e-01 4.193138e-01 5.342966e-01 5.596761e-01 4.401557e-01 3.931987e-01 3.721256e-01 3.256552e-01 2.786264e-01 2.252376e-01
<GCONST> 1.243636e+02
<STATE> 4
<MEAN> 39
 2.391034e-01 -6.407534e-01 7.359774e-01 -1.852142e+00 -2.189875e-01 -4.799171e+00 -6.838757e+00 -4.186081e+00 -3.595259e+00 -1.947541e+00 -1.823540e+00 -2.582247e+00 5.774511e+01 -2.641854e-03 -1.349239e-03 -2.329788e-03 1.433537e-03 1.606437e-03 1.924941e-03 -2.276814e-04 -3.746653e-03 -3.176925e-03 1.153122e-03 2.459251e-03 -4.824607e-04 -2.900179e-03 -4.458606e-04 -8.157134e-06 2.052865e-04 9.815507e-06 -1.151589e-04 -4.708825e-05 1.431548e-04 7.063347e-05 1.459731e-04 -8.532507e-05 -2.483774e-04 -2.221839e-04 -2.154732e-04
<VARIANCE> 39
 1.333557e+02 6.808628e+01 7.530605e+01 7.003957e+01 5.983402e+01 6.096337e+01 8.062576e+01 5.828729e+01 3.460075e+01 3.488330e+01 2.824516e+01 2.616498e+01 7.264601e+01 3.707227e+00 3.126947e+00 3.388206e+00 3.114054e+00 2.642183e+00 3.204010e+00 3.628481e+00 2.718022e+00 2.208538e+00 2.059230e+00 1.759783e+00 1.544001e+00 1.569667e+00 4.466323e-01 4.738163e-01 4.753113e-01 4.627200e-01 4.193912e-01 5.153413e-01 5.659637e-01 4.493299e-01 3.859437e-01 3.620120e-01 3.204296e-01 2.754478e-01 2.227807e-01
<GCONST> 1.243362e+02
<TRANSP> 5
 0.000000e+00 1.000000e+00 0.000000e+00 0.000000e+00 0.000000e+00
 0.000000e+00 6.990448e-01 3.009553e-01 0.000000e+00 0.000000e+00
 0.000000e+00 0.000000e+00 6.990454e-01 3.009546e-01 0.000000e+00
 0.000000e+00 0.000000e+00 0.000000e+00 8.628350e-01 1.371650e-01
 0.000000e+00 0.000000e+00 0.000000e+00 0.000000e+00 0.000000e+00
<ENDHMM>
~h "j"
<BEGINHMM>
<NUMSTATES> 5
<STATE> 2
<MEAN> 39
 6.284079e-02 -1.559019e-01 9.730417e-01 -1.838276e+00 -5.928269e-02 -4.635814e+00 -5.978811e+00 -3.849195e+00 -3.729603e+00 -2.195977e+00 -1.988176e+00 -2.357727e+00 5.760956e+01 -4.254982e-02 -6.932495e-04 -6.625982e-03 -3.143223e-02 4.287930e-03 2.297371e-02 2.351560e-02 -3.871868e-03 1.193099e-02 1.906514e-03 8.310235e-03 5.570326e-03 -2.294878e-02 -4.610324e-04 -1.543439e-03 -1.719010e-03 7.053363e-04 -3.684079e-04 -5.604563e-04 -1.800369e-03 -2.002572e-03 2.068991e-04 2.875484e-04 -1.317919e-03 3.635723e-04 -6.374446e-04
<VARIANCE> 39
 1.278337e+02 6.398219e+01 7.112541e+01 5.988914e+01 5.244261e+01 5.370174e+01 7.304822e+01 5.567281e+01 3.283092e+01 3.074435e+01 2.639359e+01 2.563314e+01 6.568188e+01 3.274310e+00 3.130582e+00 3.213572e+00 2.817102e+00 2.564354e+00 3.100655e+00 3.491442e+00 2.560303e+00 2.194307e+00 1.895818e+00 1.771257e+00 1.495665e+00 1.400419e+00 3.967847e-01 4.883529e-01 4.516149e-01 4.204512e-01 4.084315e-01 5.271144e-01 5.397013e-01 4.206226e-01 3.906322e-01 3.312555e-01 3.226971e-01 2.675510e-01 2.019972e-01
<GCONST> 1.220321e+02
<STATE> 3
<MEAN> 39
 -3.401726e-02 -1.612210e-01 9.268028e-01 -1.900929e+00 -6.384334e-02 -4.590970e+00 -5.928483e+00 -3.838917e+00 -3.724002e+00 -2.215064e+00 -1.969763e+00 -2.332140e+00 5.753601e+01 -4.067984e-02 -1.698358e-03 -1.024127e-02 -2.956285e-02 3.511882e-03 2.137333e-02 1.883482e-02 -7.649071e-03 1.248252e-02 2.998450e-03 6.038699e-03 5.457111e-03 -2.345016e-02 9.407032e-04 -1.128376e-03 -2.626420e-03 1.314754e-03 -1.580811e-03 -9.645235e-04 -1.756662e-03 -1.051324e-03 -7.181198e-04 -2.557508e-05 -1.454810e-03 2.597649e-04 -8.508523e-04
<VARIANCE> 39
 1.288015e+02 6.371383e+01 7.121099e+01 5.923494e+01 5.170991e+01 5.312597e+01 7.219810e+01 5.579814e+01 3.278900e+01 3.055510e+01 2.620725e+01 2.546287e+01 6.616937e+01 3.285166e+00 3.100425e+00 3.201261e+00 2.807058e+00 2.538536e+00 3.096760e+00 3.477742e+00 2.555718e+00 2.197092e+00 1.884012e+00 1.758220e+00 1.493330e+00 1.405202e+00 3.987577e-01 4.835024e-01 4.506227e-01 4.213072e-01 4.061222e-01 5.279488e-01 5.400491e-01 4.196799e-01 3.914851e-01 3.290229e-01 3.206880e-01 2.681787e-01 2.029455e-01
<GCONST> 1.219215e+02
<STATE> 4
<MEAN> 39
 -6.706910e-01 -1.504349e-01 5.100958e-01 -1.855175e+00 -3.548808e-01 -4.066976e+00 -6.150749e+00 -4.260535e+00 -3.854274e+00 -2.134584e+00 -2.072763e+00 -2.338659e+00 5.707677e+01 -1.874630e-02 4.599851e-04 -1.216439e-02 -1.392956e-02 -1.208707e-03 9.783266e-03 7.243792e-03 -4.800748e-03 1.772341e-03 -1.716680e-03 2.821109e-03 3.995852e-03 -1.559213e-02 1.519100e-03 -1.405823e-04 -1.574197e-03 8.411524e-04 -1.268912e-03 -5.866181e-04 -9.423220e-04 -2.148273e-04 -7.603002e-04 -1.375898e-04 -6.548205e-04 1.453624e-04 -2.016742e-04
<VARIANCE> 39
 1.410104e+02 6.241611e+01 6.990715e+01 5.685146e+01 5.159821e+01 5.362522e+01 7.134937e+01 5.807480e+01 3.257049e+01 3.091610e+01 2.622005e+01 2.396331e+01 6.983204e+01 3.279618e+00 2.970132e+00 3.109260e+00 2.651818e+00 2.492358e+00 2.929309e+00 3.374589e+00 2.526080e+00 2.086144e+00 1.809982e+00 1.713430e+00 1.429486e+00 1.370251e+00 3.904921e-01 4.570736e-01 4.353015e-01 4.043798e-01 4.010653e-01 4.950677e-01 5.292822e-01 4.160793e-01 3.698453e-01 3.107160e-01 3.100813e-01 2.590943e-01 1.896724e-01
<GCONST> 1.210248e+02
<TRANSP> 5
 0.000000e+00 1.000000e+00 0.000000e+00 0.000000e+00 0.000000e+00
 0.000000e+00 7.024940e-01 2.975060e-01 0.000000e+00 0.000000e+00
 0.000000e+00 0.000000e+00 7.024934e-01 2.975067e-01 0.000000e+00
 0.000000e+00 0.000000e+00 0.000000e+00 8.703109e-01 1.296891e-01
 0.000000e+00 0.000000e+00 0.000000e+00 0.000000e+00 0.000000e+00
<ENDHMM>
~h "k"
<BEGINHMM>
<NUMSTATES> 5
<STATE> 2
<MEAN> 39
 5.487180e-01 -4.466038e-01 6.211213e-01 -1.818169e+00 5.144199e-01 -4.237137e+00 -6.645383e+00 -4.091786e+00 -3.334885e+00 -1.868290e+00 -1.604010e+00 -2.232981e+00 5.780260e+01 -1.187835e-03 -8.206164e-03 -3.307705e-04 9.644807e-03 -1.314192e-03 -7.454652e-04 -2.285345e-03 4.829117e-03 1.341404e-03 2.988026e-03 1.954895e-03 -1.266513e-03 -1.513570e-03 2.414123e-03 1.052783e-03 5.401811e-04 -4.551582e-04 -2.187000e-03 3.314701e-06 7.546286e-05 1.590638e-03 -7.432845e-04 -1.248797e-03 -6.645222e-04 -1.651754e-05 7.962306e-04
<VARIANCE> 39
 1.233920e+02 6.211740e+01 8.003689e+01 7.060107e+01 5.577163e+01 5.601603e+01 7.925729e+01 5.639603e+01 3.319502e+01 3.474229e+01 2.687619e+01 2.519526e+01 7.164017e+01 3.470801e+00 2.990440e+00 3.486643e+00 3.183247e+00 2.449652e+00 3.030950e+00 3.542551e+00 2.580465e+00 2.090685e+00 2.088716e+00 1.679242e+00 1.482163e+00 1.453219e+00 4.270628e-01 4.729168e-01 4.934722e-01 4.790359e-01 4.034404e-01 5.037206e-01 5.599532e-01 4.239322e-01 3.653344e-01 3.640084e-01 3.052213e-01 2.659788e-01 2.123652e-01
<GCONST> 1.231255e+02
<STATE> 3
<MEAN> 39
 5.561493e-01 -4.667309e-01 6.319596e-01 -1.796894e+00 5.100585e-01 -4.254443e+00 -6.653917e+00 -4.090486e+00 -3.335407e+00 -1.855172e+00 -1.598668e+00 -2.245083e+00 5.781599e+01 6.673273e-04 -6.843790e-03 2.507310e-03 9.014630e-03 -5.209687e-03 -1.646673e-04 -6.389231e-04 6.666184e-03 -3.565872e-04 5.371298e-05 -2.119858e-04 -2.031628e-03 -6.910316e-04 1.714933e-03 6.067503e-04 7.033264e-04 -7.648363e-04 -1.845266e-03 -3.372809e-05 3.464887e-04 1.214996e-03 -7.542926e-04 -1.524154e-03 -1.125767e-03 -3.827608e-04 9.761101e-04
<VARIANCE> 39
 1.229103e+02 6.237370e+01 8.002753e+01 7.117136e+01 5.610178e+01 5.598075e+01 7.956600e+01 5.648663e+01 3.337923e+01 3.475523e+01 2.689560e+01 2.518295e+01 7.147652e+01 3.463598e+00 2.991098e+00 3.479065e+00 3.199327e+00 2.457491e+00 3.023123e+00 3.553052e+00 2.577752e+00 2.093084e+00 2.094527e+00 1.681629e+00 1.488375e+00 1.465584e+00 4.259590e-01 4.725347e-01 4.917640e-01 4.812071e-01 4.039706e-01 5.014021e-01 5.616142e-01 4.236583e-01 3.650302e-01 3.648285e-01 3.054627e-01 2.669783e-01 2.147189e-01
<GCONST> 1.231834e+02
<STATE> 4
<MEAN> 39
 9.436135e-01 -3.596476e-01 6.217698e-01 -1.562912e+00 4.463761e-01 -4.099607e+00 -6.896963e+00 -4.213635e+00 -3.448738e+00 -1.929761e+00 -1.674698e+00 -2.322443e+00 5.823528e+01 -1.537768e-03 -6.532602e-03 5.204811e-03 5.531405e-03 -5.498412e-03 -2.968910e-04 3.708968e-03 4.636995e-03 -1.915137e-03 -5.097158e-04 -4.176810e-04 -1.883594e-03 6.897791e-04 3.503250e-04 8.631368e-05 4.501883e-04 -4.673940e-04 -8.002421e-04 7.557232e-06 5.049952e-04 5.004009e-04 -4.132544e-04 -7.646453e-04 -4.661093e-04 -8.185508e-05 4.182261e-04
<VARIANCE> 39
 1.222484e+02 6.452428e+01 8.089314e+01 7.374863e+01 5.876818e+01 6.185376e+01 8.126109e+01 5.983290e+01 3.465590e+01 3.595634e+01 2.733388e+01 2.540505e+01 6.805939e+01 3.568992e+00 3.052083e+00 3.494483e+00 3.192051e+00 2.567244e+00 3.053546e+00 3.614312e+00 2.685928e+00 2.130589e+00 2.108425e+00 1.695694e+00 1.493900e+00 1.526502e+00 4.358709e-01 4.755830e-01 4.890301e-01 4.785874e-01 4.107358e-01 4.954616e-01 5.644500e-01 4.381304e-01 3.683152e-01 3.628129e-01 3.042201e-01 2.668350e-01 2.219924e-01
<GCONST> 1.238657e+02
<TRANSP> 5
 0.000000e+00 1.000000e+00 0.000000e+00 0.000000e+00 0.000000e+00
 0.000000e+00 6.827857e-01 3.172143e-01 0.000000e+00 0.000000e+00
 0.000000e+00 0.000000e+00 6.827869e-01 3.172130e-01 0.000000e+00
 0.000000e+00 0.000000e+00 0.000000e+00 8.467797e-01 1.532203e-01
 0.000000e+00 0.000000e+00 0.000000e+00 0.000000e+00 0.000000e+00
<ENDHMM>
~h "l"
<BEGINHMM>
<NUMSTATES> 5
<STATE> 2
<MEAN> 39
 2.225003e-01 -8.868669e-01 4.385715e-01 -2.500711e+00 -1.727506e-01 -4.978786e+00 -6.598358e+00 -3.769134e+00 -3.696507e+00 -2.248950e+00 -1.767039e+00 -2.524400e+00 5.760828e+01 -8.858701e-04 -4.167377e-03 -1.624111e-03 5.021874e-03 -1.844372e-03 -2.469539e-03 4.397228e-03 5.410947e-04 -8.404547e-03 1.101388e-03 3.611299e-03 -6.142020e-03 -8.586070e-04 -1.152475e-03 -9.536161e-04 1.836303e-03 1.177146e-03 7.829135e-04 1.232396e-03 7.946657e-04 -3.846477e-04 -1.160058e-03 -4.033165e-04 6.322665e-05 -1.341782e-04 -4.273874e-05
<VARIANCE> 39
 1.298624e+02 6.547310e+01 7.619990e+01 6.546898e+01 5.692340e+01 5.523192e+01 7.620071e+01 5.644490e+01 3.548260e+01 3.345446e+01 2.749005e+01 2.739153e+01 7.690497e+01 3.527966e+00 3.005702e+00 3.334549e+00 3.068135e+00 2.441328e+00 3.161427e+00 3.691177e+00 2.710541e+00 2.196567e+00 2.108275e+00 1.789043e+00 1.605445e+00 1.577462e+00 4.348123e-01 4.688628e-01 4.700658e-01 4.638737e-01 3.945274e-01 5.258276e-01 5.825925e-01 4.519623e-01 3.827867e-01 3.695890e-01 3.303438e-01 2.806802e-01 2.344885e-01
<GCONST> 1.239782e+02
<STATE> 3
<MEAN> 39
 2.123374e-01 -9.007581e-01 4.368750e-01 -2.504213e+00 -1.886908e-01 -4.978899e+00 -6.566493e+00 -3.757890e+00 -3.723050e+00 -2.262256e+00 -1.763840e+00 -2.538164e+00 5.760666e+01 -2.256828e-03 -5.493553e-03 6.322306e-04 7.293291e-03 -4.374092e-04 -9.766396e-04 5.217791e-03 1.046748e-03 -9.294295e-03 2.248014e-04 4.500962e-03 -5.936338e-03 -8.628777e-04 -1.292879e-03 -9.125601e-04 1.738705e-03 1.256936e-03 6.296234e-04 8.782046e-04 2.546573e-04 -4.238886e-06 -3.354119e-04 -1.713891e-04 3.149130e-04 2.481863e-05 -1.490726e-04
<VARIANCE> 39
 1.301866e+02 6.564458e+01 7.617461e+01 6.511334e+01 5.700909e+01 5.485068e+01 7.597464e+01 5.605054e+01 3.543009e+01 3.346429e+01 2.767753e+01 2.735621e+01 7.693993e+01 3.533232e+00 3.006441e+00 3.329992e+00 3.067047e+00 2.445646e+00 3.149233e+00 3.681764e+00 2.700747e+00 2.196614e+00 2.107216e+00 1.795501e+00 1.605151e+00 1.580758e+00 4.353083e-01 4.683060e-01 4.687872e-01 4.638519e-01 3.954660e-01 5.240445e-01 5.818200e-01 4.502062e-01 3.820671e-01 3.687798e-01 3.311777e-01 2.811342e-01 2.347444e-01
<GCONST> 1.239558e+02
<STATE> 4
<MEAN> 39
 -3.086876e-01 -1.068002e+00 3.731813e-01 -2.429593e+00 -3.347405e-01 -5.137944e+00 -6.852909e+00 -3.869581e+00 -3.632048e+00 -2.178712e+00 -1.838904e+00 -2.696968e+00 5.720932e+01 4.075076e-04 -4.754156e-03 4.997553e-05 1.757678e-03 -1.768603e-03 -1.081545e-04 5.713439e-03 2.405629e-03 -6.269074e-03 -2.928640e-03 2.375896e-03 -2.056533e-03 2.591944e-03 -2.083698e-04 -2.747196e-04 6.940970e-04 5.943937e-04 2.145131e-04 3.114401e-04 9.251527e-05 -5.223931e-05 3.433691e-05 2.567991e-05 3.697798e-05 5.784380e-05 1.466972e-04
<VARIANCE> 39
 1.385984e+02 6.697517e+01 7.708651e+01 6.449678e+01 5.640158e+01 5.518938e+01 7.571523e+01 5.543542e+01 3.451245e+01 3.378340e+01 2.777764e+01 2.698412e+01 8.034320e+01 3.623292e+00 2.954421e+00 3.241209e+00 3.024251e+00 2.470939e+00 3.061983e+00 3.717257e+00 2.721581e+00 2.170747e+00 2.061600e+00 1.788749e+00 1.577915e+00 1.587723e+00 4.418588e-01 4.543490e-01 4.500746e-01 4.548530e-01 3.961509e-01 5.025266e-01 5.844743e-01 4.525637e-01 3.787901e-01 3.573416e-01 3.289768e-01 2.758360e-01 2.291332e-01
<GCONST> 1.237581e+02
<TRANSP> 5
 0.000000e+00 1.000000e+00 0.000000e+00 0.000000e+00 0.000000e+00
 0.000000e+00 7.055578e-01 2.944422e-01 0.000000e+00 0.000000e+00
 0.000000e+00 0.000000e+00 7.055580e-01 2.944420e-01 0.000000e+00
 0.000000e+00 0.000000e+00 0.000000e+00 8.743387e-01 1.256613e-01
 0.000000e+00 0.000000e+00 0.000000e+00 0.000000e+00 0.000000e+00
<ENDHMM>
~h "m"
<BEGINHMM>
<NUMSTATES> 5
<STATE> 2
<MEAN> 39
 2.759007e-01 -2.606961e-01 7.118969e-01 -2.004925e+00 -2.845508e-01 -4.501054e+00 -6.618545e+00 -4.288649e+00 -4.122325e+00 -2.577721e+00 -2.150420e+00 -2.669607e+00 5.776367e+01 8.355790e-03 3.669927e-03 -1.005409e-02 4.776631e-03 2.755424e-03 -2.321110e-03 -1.177466e-02 -8.523992e-04 6.822993e-03 5.299554e-04 2.858291e-03 -1.016632e-03 -4.226730e-04 5.751421e-04 2.605087e-03 2.055454e-03 1.761243e-03 1.129229e-03 7.366886e-04 6.480135e-04 -8.225903e-04 -8.343282e-05 1.059665e-03 3.205856e-04 3.963152e-04 -5.426701e-04
<VARIANCE> 39
 1.325913e+02 6.947774e+01 7.681779e+01 7.123213e+01 5.737073e+01 6.325562e+01 7.873119e+01 5.604987e+01 3.521279e+01 3.452035e+01 2.896065e+01 2.678540e+01 7.835046e+01 3.619849e+00 3.111434e+00 3.373698e+00 3.200758e+00 2.528341e+00 3.221955e+00 3.568423e+00 2.644827e+00 2.252721e+00 2.041625e+00 1.696934e+00 1.562216e+00 1.537996e+00 4.415843e-01 4.951968e-01 4.813228e-01 4.709837e-01 4.078097e-01 5.348669e-01 5.644861e-01 4.393282e-01 3.995235e-01 3.589346e-01 3.071626e-01 2.750391e-01 2.228837e-01
<GCONST> 1.243585e+02
<STATE> 3
<MEAN> 39
 3.108296e-01 -2.473146e-01 6.901105e-01 -1.979144e+00 -2.725992e-01 -4.519711e+00 -6.656879e+00 -4.292295e+00 -4.104423e+00 -2.579257e+00 -2.138890e+00 -2.661822e+00 5.777221e+01 7.467646e-03 6.782780e-03 -5.843390e-03 7.271932e-03 4.414882e-03 -1.892990e-03 -1.285971e-02 -3.078164e-03 6.323035e-03 1.779083e-03 2.547788e-03 -8.891745e-04 -1.382094e-03 -7.461415e-04 1.576872e-03 2.245148e-03 1.329730e-03 6.891856e-04 2.576081e-04 8.772273e-06 -1.042847e-03 -6.003527e-04 4.348017e-04 1.598314e-04 3.392268e-05 -7.014046e-04
<VARIANCE> 39
 1.324021e+02 6.956836e+01 7.697505e+01 7.038200e+01 5.713558e+01 6.331525e+01 7.886365e+01 5.573038e+01 3.503796e+01 3.448198e+01 2.896546e+01 2.680288e+01 7.812796e+01 3.591902e+00 3.098862e+00 3.374273e+00 3.173630e+00 2.520722e+00 3.235536e+00 3.577051e+00 2.634272e+00 2.246924e+00 2.035559e+00 1.698642e+00 1.560987e+00 1.527799e+00 4.383463e-01 4.938304e-01 4.818060e-01 4.681240e-01 4.059688e-01 5.377135e-01 5.665200e-01 4.378473e-01 3.987679e-01 3.576312e-01 3.074731e-01 2.744290e-01 2.208774e-01
<GCONST> 1.242706e+02
<STATE> 4
<MEAN> 39
 5.068308e-01 -1.350532e-01 5.782484e-01 -1.672516e+00 -3.534714e-01 -4.460417e+00 -7.130048e+00 -4.578849e+00 -4.026537e+00 -2.423621e+00 -2.113066e+00 -2.631066e+00 5.800511e+01 6.233194e-03 6.483891e-03 -4.829487e-04 6.219248e-03 4.416763e-03 -3.180683e-03 -1.015484e-02 -3.306294e-03 5.150787e-03 1.827316e-03 1.211963e-03 -5.582561e-04 9.555501e-04 -8.540994e-04 3.084771e-04 1.149085e-03 5.730151e-04 3.570758e-04 2.202790e-05 -1.917230e-05 -2.730240e-04 4.051859e-05 3.072988e-04 1.027326e-04 -1.120398e-04 -4.409876e-04
<VARIANCE> 39
 1.360824e+02 7.007368e+01 7.812339e+01 6.974743e+01 5.764561e+01 6.593736e+01 8.317822e+01 5.843806e+01 3.602209e+01 3.611430e+01 2.924052e+01 2.659741e+01 7.775624e+01 3.708672e+00 3.011830e+00 3.338656e+00 3.023245e+00 2.521143e+00 3.048281e+00 3.588888e+00 2.666305e+00 2.211294e+00 1.969292e+00 1.662121e+00 1.518818e+00 1.568170e+00 4.466546e-01 4.712902e-01 4.713369e-01 4.452991e-01 3.994362e-01 5.004253e-01 5.594280e-01 4.412865e-01 3.883921e-01 3.403084e-01 2.990688e-01 2.649137e-01 2.184193e-01
<GCONST> 1.240173e+02
<TRANSP> 5
 0.000000e+00 1.000000e+00 0.000000e+00 0.000000e+00 0.000000e+00
 0.000000e+00 7.143672e-01 2.856329e-01 0.000000e+00 0.000000e+00
 0.000000e+00 0.000000e+00 7.143673e-01 2.856326e-01 0.000000e+00
 0.000000e+00 0.000000e+00 0.000000e+00 8.811294e-01 1.188705e-01
 0.000000e+00 0.000000e+00 0.000000e+00 0.000000e+00 0.000000e+00
<ENDHMM>
~h "n"
<BEGINHMM>
<NUMSTATES> 5
<STATE> 2
<MEAN> 39
 1.911975e-01 -1.490651e-01 9.836140e-01 -2.076780e+00 -4.157802e-01 -4.741652e+00 -6.131315e+00 -3.817061e+00 -3.517615e+00 -2.222681e+00 -1.924663e+00 -2.468782e+00 5.742684e+01 2.048880e-02 4.497374e-03 2.364545e-03 -2.330869e-03 3.247969e-03 -1.824372e-03 -5.857935e-03 -1.299383e-03 1.612314e-03 -3.514219e-03 -2.554670e-03 -1.622146e-03 1.770411e-02 -4.463180e-04 1.351424e-04 -1.709786e-04 -1.156245e-03 -5.250674e-04 -4.525489e-04 8.233734e-04 2.203450e-04 4.445429e-04 -1.862808e-05 -4.698390e-05 -4.485831e-04 6.298773e-05
<VARIANCE> 39
 1.248130e+02 6.883895e+01 7.601771e+01 6.642233e+01 5.826946e+01 5.608112e+01 7.678101e+01 5.733081e+01 3.461623e+01 3.411932e+01 2.823590e+01 2.608285e+01 7.157945e+01 3.594579e+00 3.108941e+00 3.415118e+00 2.958074e+00 2.533190e+00 3.096399e+00 3.573024e+00 2.587565e+00 2.227152e+00 2.010584e+00 1.778992e+00 1.513025e+00 1.499361e+00 4.456538e-01 4.779410e-01 4.896259e-01 4.445195e-01 4.064318e-01 5.084226e-01 5.676222e-01 4.302468e-01 3.954922e-01 3.536645e-01 3.229788e-01 2.655559e-01 2.161906e-01
<GCONST> 1.235834e+02
<STATE> 3
<MEAN> 39
 2.366958e-01 -1.407675e-01 9.927394e-01 -2.087318e+00 -4.114420e-01 -4.744561e+00 -6.138894e+00 -3.819217e+00 -3.514201e+00 -2.234959e+00 -1.931058e+00 -2.474678e+00 5.747133e+01 1.995121e-02 4.478404e-03 1.433519e-03 -4.322866e-03 2.392165e-03 -2.309943e-03 -4.616132e-03 -5.992081e-04 2.445353e-03 -3.664979e-03 -2.891839e-03 -2.212667e-03 1.757959e-02 -1.011473e-03 3.109175e-04 3.103469e-04 -6.958715e-04 -5.459628e-04 -3.634247e-04 1.213694e-03 3.582819e-04 4.876243e-04 1.697981e-04 -6.730872e-06 -4.044999e-04 -5.158575e-04
<VARIANCE> 39
 1.245527e+02 6.902843e+01 7.643971e+01 6.657705e+01 5.856024e+01 5.627872e+01 7.703783e+01 5.752601e+01 3.479326e+01 3.441550e+01 2.835242e+01 2.612160e+01 7.134912e+01 3.605047e+00 3.130714e+00 3.450441e+00 2.975863e+00 2.544425e+00 3.112245e+00 3.589220e+00 2.602164e+00 2.245715e+00 2.019782e+00 1.786936e+00 1.513534e+00 1.502076e+00 4.476623e-01 4.818442e-01 4.962572e-01 4.471860e-01 4.077949e-01 5.107889e-01 5.705334e-01 4.327651e-01 3.990007e-01 3.550053e-01 3.242290e-01 2.654835e-01 2.172491e-01
<GCONST> 1.237607e+02
<STATE> 4
<MEAN> 39
 4.256953e-01 -7.624856e-02 9.199435e-01 -2.119273e+00 -3.653704e-01 -4.750976e+00 -6.466387e+00 -3.962868e+00 -3.474465e+00 -2.201451e+00 -1.932541e+00 -2.525928e+00 5.762780e+01 1.217595e-02 2.485154e-03 1.719367e-03 -5.049249e-03 -6.089869e-04 -1.704552e-03 -9.789587e-04 6.900663e-04 1.021864e-03 -3.957056e-03 -2.135953e-03 -1.421190e-03 1.149824e-02 -9.290974e-04 3.369172e-04 6.023629e-04 4.480433e-06 -3.255035e-04 -2.533831e-04 6.778543e-04 1.216596e-04 2.739181e-05 1.529702e-04 1.235873e-04 2.942195e-05 -7.139643e-04
<VARIANCE> 39
 1.266962e+02 6.919792e+01 7.782059e+01 6.812644e+01 5.960189e+01 5.755902e+01 7.857590e+01 6.149744e+01 3.566504e+01 3.509259e+01 2.847687e+01 2.618342e+01 7.088872e+01 3.648570e+00 3.116813e+00 3.473179e+00 3.007952e+00 2.588281e+00 3.063911e+00 3.632596e+00 2.686346e+00 2.260452e+00 2.003456e+00 1.781554e+00 1.512931e+00 1.500025e+00 4.479980e-01 4.758182e-01 4.912563e-01 4.481256e-01 4.123114e-01 4.986591e-01 5.735521e-01 4.446220e-01 3.981846e-01 3.486619e-01 3.229117e-01 2.652979e-01 2.131868e-01
<GCONST> 1.240118e+02
<TRANSP> 5
 0.000000e+00 1.000000e+00 0.000000e+00 0.000000e+00 0.000000e+00
 0.000000e+00 6.943315e-01 3.056685e-01 0.000000e+00 0.000000e+00
 0.000000e+00 0.000000e+00 6.943284e-01 3.056715e-01 0.000000e+00
 0.000000e+00 0.000000e+00 0.000000e+00 8.549782e-01 1.450218e-01
 0.000000e+00 0.000000e+00 0.000000e+00 0.000000e+00 0.000000e+00
<ENDHMM>
~h "o"
<BEGINHMM>
<NUMSTATES> 5
<STATE> 2
<MEAN> 39
 -4.100581e-01 -3.938440e-01 7.843155e-01 -1.913463e+00 -4.009478e-01 -4.494733e+00 -6.037392e+00 -3.790635e+00 -3.684820e+00 -2.225102e+00 -1.902948e+00 -2.556117e+00 5.705018e+01 -1.160851e-02 -5.972395e-03 -2.123565e-03 -3.710323e-03 -6.687130e-03 3.830090e-03 1.180652e-02 4.949041e-03 -1.368281e-03 -5.241200e-03 -1.626744e-03 1.260105e-03 -6.987703e-03 1.165711e-03 2.886585e-04 2.611197e-04 1.895371e-03 4.014366e-04 -4.075266e-04 -9.949853e-04 2.080524e-04 8.050828e-05 -1.699940e-04 3.821446e-05 -2.631952e-04 3.914463e-04
<VARIANCE> 39
 1.301801e+02 6.500362e+01 7.360631e+01 6.683543e+01 5.779595e+01 5.914627e+01 7.542420e+01 5.369932e+01 3.329578e+01 3.391026e+01 2.731876e+01 2.562171e+01 7.873727e+01 3.502028e+00 2.973165e+00 3.235490e+00 3.010514e+00 2.456191e+00 3.053915e+00 3.442742e+00 2.598940e+00 2.123960e+00 2.009366e+00 1.713929e+00 1.480333e+00 1.465845e+00 4.387958e-01 4.573599e-01 4.666241e-01 4.594525e-01 4.030824e-01 5.030375e-01 5.475245e-01 4.360644e-01 3.755836e-01 3.515863e-01 3.097662e-01 2.624370e-01 2.156348e-01
<GCONST> 1.229591e+02
<STATE> 3
<MEAN> 39
 -4.258438e-01 -4.069506e-01 7.810252e-01 -1.915575e+00 -4.133000e-01 -4.482584e+00 -6.010917e+00 -3.778519e+00 -3.692783e+00 -2.238575e+00 -1.900465e+00 -2.550904e+00 5.704091e+01 -8.658348e-03 -5.374734e-03 -1.966626e-03 -6.807105e-04 -5.360895e-03 3.010064e-03 9.880250e-03 5.646802e-03 -8.446016e-04 -5.258220e-03 -1.433011e-03 8.465620e-04 -5.528840e-03 1.544267e-03 6.704566e-05 -1.179432e-04 1.715914e-03 7.171216e-04 -4.634983e-04 -1.560932e-03 2.155442e-04 1.437239e-04 4.314809e-05 1.903028e-05 -4.298190e-04 6.497444e-04
<VARIANCE> 39
 1.301691e+02 6.522309e+01 7.393391e+01 6.699808e+01 5.772589e+01 5.908968e+01 7.527161e+01 5.379189e+01 3.342585e+01 3.397701e+01 2.730309e+01 2.555549e+01 7.864483e+01 3.501404e+00 2.976495e+00 3.241238e+00 3.012939e+00 2.456249e+00 3.055971e+00 3.440673e+00 2.597488e+00 2.126387e+00 2.009165e+00 1.717121e+00 1.482326e+00 1.464444e+00 4.387812e-01 4.576895e-01 4.679015e-01 4.596847e-01 4.029376e-01 5.030286e-01 5.469670e-01 4.356149e-01 3.754749e-01 3.512843e-01 3.101099e-01 2.627160e-01 2.153352e-01
<GCONST> 1.229758e+02
<STATE> 4
<MEAN> 39
 -4.090083e-01 -2.741936e-01 8.318169e-01 -1.630257e+00 -4.462226e-01 -4.486521e+00 -6.458387e+00 -3.859674e+00 -3.566652e+00 -2.139877e+00 -1.962389e+00 -2.662056e+00 5.703857e+01 -1.849984e-04 -2.958472e-03 -1.379159e-03 1.445895e-03 -1.203300e-04 2.105174e-03 4.001027e-03 3.104882e-03 -4.115264e-04 -2.762997e-03 6.863533e-04 9.329412e-04 5.435433e-04 1.130411e-03 -1.176955e-04 -3.727485e-04 6.818458e-04 6.797799e-04 -7.081781e-05 -1.087390e-03 -1.327945e-04 2.904474e-04 1.423446e-04 -6.852183e-05 -1.603062e-04 6.302812e-04
<VARIANCE> 39
 1.337124e+02 6.693966e+01 7.498365e+01 6.842410e+01 5.667668e+01 6.275838e+01 7.830733e+01 5.579689e+01 3.516912e+01 3.501665e+01 2.725799e+01 2.526962e+01 7.941211e+01 3.587083e+00 2.968895e+00 3.257247e+00 2.977004e+00 2.463129e+00 2.991070e+00 3.544331e+00 2.635582e+00 2.156657e+00 1.992080e+00 1.703779e+00 1.464841e+00 1.483329e+00 4.420319e-01 4.538835e-01 4.639041e-01 4.501849e-01 3.997024e-01 4.848225e-01 5.562558e-01 4.385419e-01 3.783810e-01 3.434627e-01 3.058302e-01 2.581514e-01 2.113544e-01
<GCONST> 1.231817e+02
<TRANSP> 5
 0.000000e+00 1.000000e+00 0.000000e+00 0.000000e+00 0.000000e+00
 0.000000e+00 6.967979e-01 3.032021e-01 0.000000e+00 0.000000e+00
 0.000000e+00 0.000000e+00 6.967971e-01 3.032029e-01 0.000000e+00
 0.000000e+00 0.000000e+00 0.000000e+00 8.640697e-01 1.359303e-01
 0.000000e+00 0.000000e+00 0.000000e+00 0.000000e+00 0.000000e+00
<ENDHMM>
~h "p"
<BEGINHMM>
<NUMSTATES> 5
<STATE> 2
<MEAN> 39
 6.717994e-01 -5.669138e-01 8.788403e-01 -2.491240e+00 -4.285860e-01 -5.107325e+00 -6.117369e+00 -3.610337e+00 -3.942183e+00 -2.500391e+00 -1.956370e+00 -2.604417e+00 5.808375e+01 1.492557e-02 -1.485727e-03 1.517092e-02 4.248653e-03 8.530366e-03 -1.070572e-02 -9.872740e-03 -1.574815e-02 2.435148e-03 3.866334e-03 -9.400431e-03 -1.113907e-02 2.376998e-02 1.797446e-04 -5.919446e-04 -1.554443e-04 3.649905e-04 9.058855e-04 1.572925e-03 1.888105e-03 4.882149e-04 1.171874e-03 -2.775207e-04 6.064617e-04 1.076281e-03 5.211417e-04
<VARIANCE> 39
 1.343473e+02 6.896430e+01 7.595821e+01 6.868329e+01 6.195051e+01 5.456629e+01 7.137235e+01 5.573448e+01 3.500021e+01 3.406377e+01 3.106621e+01 2.873615e+01 7.788931e+01 3.863508e+00 3.303568e+00 3.338241e+00 3.262906e+00 2.788687e+00 3.373664e+00 3.587435e+00 2.835233e+00 2.367678e+00 2.067326e+00 1.835168e+00 1.592690e+00 1.642631e+00 4.699149e-01 5.223281e-01 4.818597e-01 5.012962e-01 4.454957e-01 5.621998e-01 5.670125e-01 4.669642e-01 4.178078e-01 3.637066e-01 3.331644e-01 2.778853e-01 2.378756e-01
<GCONST> 1.254327e+02
<STATE> 3
<MEAN> 39
 7.232977e-01 -5.670226e-01 9.222597e-01 -2.501119e+00 -4.138205e-01 -5.144368e+00 -6.149318e+00 -3.648072e+00 -3.933216e+00 -2.492685e+00 -1.980009e+00 -2.628229e+00 5.816177e+01 1.402263e-02 -2.301813e-03 1.460512e-02 4.990117e-03 9.115832e-03 -8.388115e-03 -6.558737e-03 -1.420371e-02 4.405068e-03 2.913252e-03 -8.017007e-03 -8.885277e-03 2.315447e-02 -4.127322e-04 -1.194829e-03 -7.747773e-04 -2.567220e-04 1.373265e-04 9.579469e-04 1.161530e-03 2.920541e-04 8.059370e-04 -6.926942e-04 6.529439e-04 1.027519e-03 1.464016e-04
<VARIANCE> 39
 1.330387e+02 6.948448e+01 7.641013e+01 6.981237e+01 6.258585e+01 5.522735e+01 7.198232e+01 5.618148e+01 3.502829e+01 3.408275e+01 3.109437e+01 2.901986e+01 7.672746e+01 3.896474e+00 3.318662e+00 3.342246e+00 3.296272e+00 2.804621e+00 3.396101e+00 3.618325e+00 2.861032e+00 2.372037e+00 2.075553e+00 1.840554e+00 1.603742e+00 1.645724e+00 4.739323e-01 5.243467e-01 4.818859e-01 5.053779e-01 4.475074e-01 5.642861e-01 5.718554e-01 4.708238e-01 4.187170e-01 3.652336e-01 3.344885e-01 2.795817e-01 2.390296e-01
<GCONST> 1.256271e+02
<STATE> 4
<MEAN> 39
 1.096085e+00 -5.598477e-01 1.006525e+00 -2.627401e+00 -5.531789e-01 -5.470857e+00 -6.437842e+00 -3.723991e+00 -3.994447e+00 -2.497202e+00 -1.983810e+00 -2.810126e+00 5.864606e+01 6.777925e-03 -3.413600e-05 1.205645e-02 1.503362e-03 2.879618e-03 -7.469689e-03 -4.414528e-03 -9.027130e-03 3.775906e-03 2.566788e-03 -2.960564e-03 -5.101262e-03 1.317864e-02 -7.099041e-04 -6.339175e-04 -7.364299e-04 -2.157365e-04 -3.022484e-04 4.967013e-04 5.143121e-04 1.730678e-04 8.051265e-05 -3.334549e-04 5.440878e-04 6.021606e-04 -6.438257e-04
<VARIANCE> 39
 1.327115e+02 7.174999e+01 7.728751e+01 7.340714e+01 6.408631e+01 5.857467e+01 7.427558e+01 6.283463e+01 3.699643e+01 3.580648e+01 3.198248e+01 3.044010e+01 7.477457e+01 4.059574e+00 3.380101e+00 3.394175e+00 3.417726e+00 2.859693e+00 3.421558e+00 3.764284e+00 3.014125e+00 2.457025e+00 2.157215e+00 1.873508e+00 1.673878e+00 1.718905e+00 4.909299e-01 5.271426e-01 4.866584e-01 5.225749e-01 4.545328e-01 5.602269e-01 5.914081e-01 4.869807e-01 4.305197e-01 3.773376e-01 3.388564e-01 2.904427e-01 2.472470e-01
<GCONST> 1.268106e+02
<TRANSP> 5
 0.000000e+00 1.000000e+00 0.000000e+00 0.000000e+00 0.000000e+00
 0.000000e+00 6.850620e-01 3.149380e-01 0.000000e+00 0.000000e+00
 0.000000e+00 0.000000e+00 6.850619e-01 3.149381e-01 0.000000e+00
 0.000000e+00 0.000000e+00 0.000000e+00 8.426302e-01 1.573698e-01
 0.000000e+00 0.000000e+00 0.000000e+00 0.000000e+00 0.000000e+00
<ENDHMM>
~h "r"
<BEGINHMM>
<NUMSTATES> 5
<STATE> 2
<MEAN> 39
 -7.098564e-01 -4.375725e-01 8.372808e-01 -1.950320e+00 -6.062828e-01 -5.069121e+00 -6.019378e+00 -3.704788e+00 -3.682114e+00 -2.359928e+00 -2.074543e+00 -2.595922e+00 5.666059e+01 -9.526177e-03 -6.214111e-03 -4.794779e-03 -2.998464e-03 6.334119e-03 5.605723e-03 1.390154e-03 -2.906274e-03 -5.386914e-04 5.407234e-03 6.303640e-03 -1.269159e-03 -4.619838e-03 -5.804349e-04 -8.426799e-04 -3.858809e-04 -5.689695e-04 -1.471507e-03 -3.172841e-04 -2.948429e-04 2.322294e-04 -1.814012e-04 3.295030e-04 -3.473448e-04 -7.428494e-05 -3.925489e-04
<VARIANCE> 39
 1.316211e+02 6.467158e+01 7.186622e+01 6.553825e+01 6.018342e+01 5.752694e+01 7.325653e+01 5.659484e+01 3.347921e+01 3.348038e+01 2.730955e+01 2.765131e+01 8.129232e+01 3.379220e+00 2.956379e+00 3.124174e+00 2.935215e+00 2.489550e+00 3.195001e+00 3.442104e+00 2.664601e+00 2.182818e+00 1.988875e+00 1.756543e+00 1.596783e+00 1.458042e+00 4.165576e-01 4.558991e-01 4.562199e-01 4.427266e-01 3.991616e-01 5.285213e-01 5.415232e-01 4.445075e-01 3.863085e-01 3.501255e-01 3.225558e-01 2.792351e-01 2.103128e-01
<GCONST> 1.231864e+02
<STATE> 3
<MEAN> 39
 -7.252333e-01 -4.558064e-01 8.237196e-01 -1.949102e+00 -5.816475e-01 -5.059914e+00 -6.035049e+00 -3.718064e+00 -3.679288e+00 -2.335172e+00 -2.059746e+00 -2.603449e+00 5.665348e+01 -1.113336e-02 -7.914410e-03 -5.321584e-03 -4.140628e-03 3.417004e-03 4.942365e-03 2.793328e-04 -3.123278e-03 -1.047240e-03 6.177377e-03 5.533785e-03 -1.534565e-03 -5.685769e-03 -1.846057e-04 -6.387550e-04 -3.908039e-04 -4.087469e-04 -1.324655e-03 -6.465628e-04 -8.848927e-04 1.913602e-04 -7.632739e-05 2.556495e-04 -3.563289e-04 6.614562e-05 -2.273595e-04
<VARIANCE> 39
 1.317615e+02 6.437693e+01 7.181161e+01 6.573235e+01 6.003863e+01 5.741813e+01 7.330832e+01 5.677271e+01 3.349750e+01 3.347322e+01 2.729139e+01 2.768839e+01 8.121124e+01 3.380045e+00 2.957876e+00 3.120574e+00 2.938614e+00 2.480412e+00 3.189546e+00 3.438622e+00 2.662393e+00 2.176752e+00 1.989752e+00 1.753715e+00 1.596229e+00 1.457086e+00 4.169210e-01 4.557380e-01 4.556243e-01 4.427512e-01 3.975455e-01 5.275529e-01 5.404050e-01 4.436526e-01 3.853261e-01 3.503786e-01 3.218546e-01 2.790039e-01 2.105406e-01
<GCONST> 1.231588e+02
<STATE> 4
<MEAN> 39
 -7.542052e-01 -5.352746e-01 7.035389e-01 -1.912144e+00 -6.373256e-01 -5.198422e+00 -6.368976e+00 -3.959531e+00 -3.733307e+00 -2.211130e+00 -2.052214e+00 -2.740912e+00 5.660435e+01 -5.727474e-03 -6.049648e-03 -4.044596e-03 -1.853304e-03 2.536318e-03 1.556923e-03 -4.442549e-03 -3.375757e-03 -2.589608e-04 6.118759e-03 3.477223e-03 -2.293464e-03 -2.880417e-03 9.705682e-05 -1.667051e-04 -5.858456e-05 -1.924745e-04 -7.604311e-04 -5.118987e-04 -5.490536e-04 2.003633e-04 -8.293102e-05 3.910818e-05 -1.262498e-04 -2.750874e-05 -1.889886e-05
<VARIANCE> 39
 1.348312e+02 6.497538e+01 7.237794e+01 6.688676e+01 6.057031e+01 5.837637e+01 7.596246e+01 6.085999e+01 3.475100e+01 3.416209e+01 2.779845e+01 2.814604e+01 8.265064e+01 3.457979e+00 2.964065e+00 3.115614e+00 2.890091e+00 2.512919e+00 3.170288e+00 3.515631e+00 2.730881e+00 2.182435e+00 2.011172e+00 1.771741e+00 1.601804e+00 1.497605e+00 4.236389e-01 4.504447e-01 4.524353e-01 4.355510e-01 4.005772e-01 5.194605e-01 5.495415e-01 4.507571e-01 3.822295e-01 3.510996e-01 3.240260e-01 2.806354e-01 2.126516e-01
<GCONST> 1.235941e+02
<TRANSP> 5
 0.000000e+00 1.000000e+00 0.000000e+00 0.000000e+00 0.000000e+00
 0.000000e+00 6.821836e-01 3.178164e-01 0.000000e+00 0.000000e+00
 0.000000e+00 0.000000e+00 6.821825e-01 3.178175e-01 0.000000e+00
 0.000000e+00 0.000000e+00 0.000000e+00 8.387787e-01 1.612214e-01
 0.000000e+00 0.000000e+00 0.000000e+00 0.000000e+00 0.000000e+00
<ENDHMM>
~h "s"
<BEGINHMM>
<NUMSTATES> 5
<STATE> 2
<MEAN> 39
 -1.729412e-01 -6.247995e-01 8.125431e-01 -2.023453e+00 -2.219310e-01 -4.763006e+00 -6.366689e+00 -3.850235e+00 -3.552507e+00 -2.276913e+00 -1.941429e+00 -2.538391e+00 5.731560e+01 -7.684738e-03 -1.143013e-03 7.987414e-03 5.948625e-05 -2.042902e-03 -1.188319e-03 6.392396e-03 3.990111e-03 2.907201e-03 2.587639e-03 -5.707002e-04 2.118048e-03 -1.821752e-03 1.029250e-03 -2.244526e-04 -1.123636e-03 7.391293e-04 1.033552e-03 -5.192002e-04 -3.065107e-04 5.633928e-04 3.223009e-04 2.562032e-04 2.786705e-05 3.265320e-04 5.306657e-04
<VARIANCE> 39
 1.324984e+02 6.871220e+01 7.589648e+01 6.853747e+01 5.863665e+01 5.692535e+01 7.667921e+01 5.493087e+01 3.354624e+01 3.491057e+01 2.786542e+01 2.638577e+01 7.744096e+01 3.688750e+00 3.181587e+00 3.457875e+00 3.124926e+00 2.524175e+00 3.207642e+00 3.578375e+00 2.611696e+00 2.189560e+00 2.065328e+00 1.750504e+00 1.550730e+00 1.571584e+00 4.552974e-01 4.968888e-01 4.952904e-01 4.733979e-01 4.060628e-01 5.323144e-01 5.644535e-01 4.345582e-01 3.877148e-01 3.604235e-01 3.191943e-01 2.720026e-01 2.306857e-01
<GCONST> 1.242013e+02
<STATE> 3
<MEAN> 39
 -1.893383e-01 -6.261998e-01 8.251848e-01 -2.025443e+00 -2.247504e-01 -4.761622e+00 -6.346082e+00 -3.831583e+00 -3.540213e+00 -2.269386e+00 -1.941314e+00 -2.529394e+00 5.731025e+01 -5.182726e-03 -1.439053e-03 6.019068e-03 1.219568e-03 4.966097e-04 -1.949869e-03 5.728228e-03 4.866149e-03 3.565479e-03 3.013992e-03 -9.141176e-04 2.527918e-03 -1.474890e-04 1.174010e-03 -2.050015e-04 -1.199042e-03 3.707724e-04 1.184262e-03 -3.468072e-04 -3.206697e-04 3.347657e-04 1.828903e-04 3.792331e-05 -1.525754e-04 4.120803e-04 7.624440e-04
<VARIANCE> 39
 1.328411e+02 6.889462e+01 7.573811e+01 6.867321e+01 5.865772e+01 5.701172e+01 7.649079e+01 5.492712e+01 3.352672e+01 3.488801e+01 2.781276e+01 2.636170e+01 7.755869e+01 3.692975e+00 3.173915e+00 3.449179e+00 3.125673e+00 2.523006e+00 3.202236e+00 3.573395e+00 2.612175e+00 2.189923e+00 2.063109e+00 1.749702e+00 1.548092e+00 1.569073e+00 4.552473e-01 4.963737e-01 4.934205e-01 4.730078e-01 4.055704e-01 5.311368e-01 5.632033e-01 4.343094e-01 3.879171e-01 3.602086e-01 3.192881e-01 2.718531e-01 2.298543e-01
<GCONST> 1.241757e+02
<STATE> 4
<MEAN> 39
 -1.895255e-01 -4.805941e-01 7.975931e-01 -1.941241e+00 -2.561907e-01 -4.778087e+00 -6.653449e+00 -3.971376e+00 -3.373970e+00 -2.103847e+00 -1.945711e+00 -2.524053e+00 5.722964e+01 -2.778296e-03 -1.244296e-03 1.835057e-03 3.784507e-04 1.706806e-03 -9.845755e-04 3.949071e-03 4.607601e-03 3.612309e-03 2.200872e-03 -1.026449e-03 1.899742e-03 9.384647e-05 5.770847e-04 -1.038104e-04 -6.678706e-04 -7.776012e-05 5.576328e-04 -1.254575e-04 -1.964467e-04 6.295065e-05 1.512424e-04 -8.213823e-05 -1.489186e-04 1.188215e-04 4.239550e-04
<VARIANCE> 39
 1.349845e+02 6.861591e+01 7.511060e+01 6.863116e+01 5.810558e+01 5.782746e+01 7.777017e+01 5.736426e+01 3.372900e+01 3.520410e+01 2.751938e+01 2.583603e+01 7.870593e+01 3.747282e+00 3.083109e+00 3.399546e+00 3.070659e+00 2.512256e+00 3.100813e+00 3.617965e+00 2.660480e+00 2.178922e+00 2.031461e+00 1.733562e+00 1.511904e+00 1.565661e+00 4.569034e-01 4.791974e-01 4.795661e-01 4.619078e-01 4.000347e-01 5.069509e-01 5.652315e-01 4.396861e-01 3.845231e-01 3.529222e-01 3.150576e-01 2.661914e-01 2.238796e-01
<GCONST> 1.239162e+02
<TRANSP> 5
 0.000000e+00 1.000000e+00 0.000000e+00 0.000000e+00 0.000000e+00
 0.000000e+00 6.961759e-01 3.038240e-01 0.000000e+00 0.000000e+00
 0.000000e+00 0.000000e+00 6.961749e-01 3.038252e-01 0.000000e+00
 0.000000e+00 0.000000e+00 0.000000e+00 8.603222e-01 1.396778e-01
 0.000000e+00 0.000000e+00 0.000000e+00 0.000000e+00 0.000000e+00
<ENDHMM>
~h "t"
<BEGINHMM>
<NUMSTATES> 5
<STATE> 2
<MEAN> 39
 -1.098471e+00 -6.139228e-01 1.104166e+00 -1.683148e+00 -4.750383e-01 -4.693657e+00 -5.794332e+00 -3.504234e+00 -3.613685e+00 -2.094467e+00 -1.851139e+00 -2.443721e+00 5.652876e+01 7.653853e-04 -1.932653e-03 -1.617862e-02 -1.431546e-03 1.249864e-03 4.073657e-03 3.946153e-03 4.335641e-03 -2.989618e-03 -3.553405e-03 2.331722e-03 1.689999e-03 -4.626435e-03 6.902572e-04 2.129977e-04 -4.258684e-04 5.251014e-05 6.773854e-04 9.923701e-04 -2.668211e-04 -1.019661e-05 1.218696e-04 7.171104e-05 4.008515e-04 2.384956e-04 1.941173e-04
<VARIANCE> 39
 1.236103e+02 6.685929e+01 7.174523e+01 6.242465e+01 5.692757e+01 5.583574e+01 7.362000e+01 5.546214e+01 3.307691e+01 3.557883e+01 2.771065e+01 2.388004e+01 7.905583e+01 3.416286e+00 3.002810e+00 3.154969e+00 2.958977e+00 2.440892e+00 3.127414e+00 3.473837e+00 2.633349e+00 2.238730e+00 1.975510e+00 1.735254e+00 1.471763e+00 1.454257e+00 4.296678e-01 4.642236e-01 4.638778e-01 4.505735e-01 4.013677e-01 5.268102e-01 5.556718e-01 4.416523e-01 3.991294e-01 3.492572e-01 3.163991e-01 2.649490e-01 2.148334e-01
<GCONST> 1.229019e+02
<STATE> 3
<MEAN> 39
 -1.096571e+00 -6.116779e-01 1.074070e+00 -1.677510e+00 -4.655645e-01 -4.679754e+00 -5.782795e+00 -3.494236e+00 -3.618779e+00 -2.104187e+00 -1.850171e+00 -2.443056e+00 5.651609e+01 4.599816e-04 -2.271825e-03 -1.665348e-02 -1.732081e-03 2.120446e-03 6.183138e-03 3.885739e-03 4.188661e-03 -3.742236e-03 -4.142464e-03 2.920866e-03 2.749601e-03 -5.044802e-03 2.204137e-04 -1.249887e-04 -1.015678e-04 3.494439e-04 6.534543e-04 9.077290e-04 -3.323384e-04 -3.936329e-04 -9.339012e-04 -4.739227e-04 5.153645e-04 7.301812e-04 -9.136857e-06
<VARIANCE> 39
 1.238656e+02 6.658720e+01 7.141452e+01 6.214583e+01 5.658232e+01 5.573851e+01 7.353016e+01 5.536691e+01 3.298536e+01 3.546071e+01 2.767127e+01 2.376008e+01 7.920978e+01 3.402640e+00 2.998209e+00 3.151644e+00 2.950148e+00 2.439384e+00 3.119780e+00 3.463172e+00 2.628530e+00 2.235260e+00 1.976986e+00 1.738379e+00 1.471764e+00 1.451934e+00 4.279816e-01 4.632410e-01 4.636646e-01 4.491328e-01 4.007271e-01 5.257045e-01 5.536013e-01 4.410189e-01 3.988290e-01 3.497499e-01 3.169556e-01 2.648515e-01 2.142941e-01
<GCONST> 1.228322e+02
<STATE> 4
<MEAN> 39
 -7.659022e-01 -4.960092e-01 9.406850e-01 -1.584308e+00 -3.854714e-01 -4.546763e+00 -6.035927e+00 -3.517179e+00 -3.532255e+00 -2.094951e+00 -1.858883e+00 -2.436269e+00 5.669975e+01 -1.160285e-03 -3.583534e-04 -9.667048e-03 3.401133e-04 2.995088e-03 7.001980e-03 3.271121e-03 1.352806e-03 -3.513626e-03 -3.449386e-03 1.659912e-03 2.895527e-03 -5.044881e-03 -8.387250e-05 -8.367299e-05 2.013262e-04 1.313919e-04 1.332038e-04 6.154556e-04 -8.746912e-05 -4.050546e-04 -6.616124e-04 -2.223312e-04 3.976477e-04 5.660332e-04 -8.450792e-05
<VARIANCE> 39
 1.263191e+02 6.574551e+01 7.171931e+01 6.351478e+01 5.692923e+01 5.801399e+01 7.572324e+01 5.764204e+01 3.359150e+01 3.584943e+01 2.772906e+01 2.381870e+01 7.986201e+01 3.386355e+00 2.956643e+00 3.172763e+00 2.931063e+00 2.455782e+00 3.099560e+00 3.509881e+00 2.631385e+00 2.219142e+00 1.981367e+00 1.728123e+00 1.469282e+00 1.460020e+00 4.191259e-01 4.534594e-01 4.599984e-01 4.431023e-01 4.007548e-01 5.164660e-01 5.586398e-01 4.382350e-01 3.923356e-01 3.477203e-01 3.141968e-01 2.647081e-01 2.111044e-01
<GCONST> 1.228867e+02
<TRANSP> 5
 0.000000e+00 1.000000e+00 0.000000e+00 0.000000e+00 0.000000e+00
 0.000000e+00 6.816792e-01 3.183208e-01 0.000000e+00 0.000000e+00
 0.000000e+00 0.000000e+00 6.816809e-01 3.183190e-01 0.000000e+00
 0.000000e+00 0.000000e+00 0.000000e+00 8.394679e-01 1.605321e-01
 0.000000e+00 0.000000e+00 0.000000e+00 0.000000e+00 0.000000e+00
<ENDHMM>
~h "u"
<BEGINHMM>
<NUMSTATES> 5
<STATE> 2
<MEAN> 39
 2.351973e-01 -7.123178e-01 6.449656e-01 -1.975323e+00 -8.998144e-02 -4.787040e+00 -6.106812e+00 -3.699389e+00 -3.738222e+00 -2.393064e+00 -1.753660e+00 -2.365091e+00 5.771803e+01 1.409735e-02 -1.603779e-03 1.386556e-02 1.005920e-03 -2.921318e-03 -3.737927e-03 8.325757e-03 1.882453e-03 -7.112039e-03 -1.255961e-02 -2.710136e-03 3.250627e-04 2.056477e-02 -1.072915e-04 3.099844e-04 6.964670e-04 -1.573204e-03 -6.318911e-04 -3.617537e-04 6.599289e-05 -2.057790e-04 4.107683e-04 -3.086941e-04 -5.706276e-04 5.318001e-05 5.181652e-04
<VARIANCE> 39
 1.268931e+02 7.075783e+01 8.400656e+01 6.873798e+01 5.620050e+01 6.038008e+01 7.893844e+01 5.417628e+01 3.390842e+01 3.352736e+01 2.861574e+01 2.739555e+01 7.481832e+01 3.937231e+00 3.397578e+00 3.719826e+00 3.157388e+00 2.423718e+00 3.321705e+00 3.616090e+00 2.572818e+00 2.231906e+00 2.129935e+00 1.837727e+00 1.585295e+00 1.663528e+00 4.837486e-01 5.295101e-01 5.254442e-01 4.806635e-01 4.000918e-01 5.489767e-01 5.768870e-01 4.314108e-01 3.930002e-01 3.720154e-01 3.361710e-01 2.793353e-01 2.420807e-01
<GCONST> 1.251059e+02
<STATE> 3
<MEAN> 39
 2.931798e-01 -7.051443e-01 6.806960e-01 -1.967444e+00 -8.342922e-02 -4.801529e+00 -6.100183e+00 -3.703845e+00 -3.747874e+00 -2.421527e+00 -1.761347e+00 -2.367680e+00 5.778574e+01 1.340163e-02 -1.296477e-03 1.587970e-02 -4.952843e-04 -3.522513e-03 -4.445939e-03 7.729262e-03 1.171628e-03 -6.555441e-03 -1.291363e-02 -3.861623e-03 1.271480e-04 2.123833e-02 -2.351823e-04 6.093792e-04 3.981695e-04 -1.375871e-03 -3.236647e-04 -7.346931e-05 -2.687197e-04 -3.413403e-04 5.670787e-04 7.727125e-06 -3.515285e-04 -2.191347e-05 9.013974e-05
<VARIANCE> 39
 1.265841e+02 7.122383e+01 8.451051e+01 6.889546e+01 5.645988e+01 6.061560e+01 7.912613e+01 5.426024e+01 3.403873e+01 3.364397e+01 2.878250e+01 2.748252e+01 7.427736e+01 3.949625e+00 3.416775e+00 3.749565e+00 3.173466e+00 2.433242e+00 3.348817e+00 3.620013e+00 2.587986e+00 2.249869e+00 2.137244e+00 1.850811e+00 1.593316e+00 1.669913e+00 4.858999e-01 5.324734e-01 5.305011e-01 4.824828e-01 4.022620e-01 5.541399e-01 5.778974e-01 4.335256e-01 3.960249e-01 3.736277e-01 3.380177e-01 2.804118e-01 2.430022e-01
<GCONST> 1.252779e+02
<STATE> 4
<MEAN> 39
 3.687655e-01 -5.098609e-01 9.099165e-01 -1.768596e+00 -6.865239e-02 -4.890309e+00 -6.618953e+00 -3.964148e+00 -3.547262e+00 -2.156469e+00 -1.684439e+00 -2.504519e+00 5.780871e+01 1.315732e-02 1.708189e-03 1.222754e-02 2.523605e-03 3.996368e-04 -4.562732e-03 1.177126e-03 -1.728654e-03 -3.368760e-03 -7.641495e-03 -3.400637e-03 -1.123786e-03 1.664835e-02 -2.435140e-04 5.206265e-04 1.409613e-04 -4.884930e-04 -1.845900e-05 2.241487e-04 -2.678620e-04 -2.055358e-04 3.958799e-04 3.802146e-04 -1.427591e-05 -1.808195e-05 -3.505631e-04
<VARIANCE> 39
 1.276340e+02 7.208723e+01 8.381821e+01 6.957255e+01 5.720718e+01 6.069461e+01 8.199654e+01 5.532973e+01 3.438685e+01 3.361456e+01 2.841259e+01 2.713909e+01 7.326853e+01 4.008808e+00 3.362892e+00 3.784443e+00 3.157176e+00 2.445576e+00 3.253664e+00 3.694514e+00 2.630155e+00 2.231564e+00 2.115251e+00 1.841657e+00 1.571681e+00 1.655770e+00 4.891624e-01 5.194898e-01 5.309273e-01 4.760548e-01 4.009472e-01 5.357609e-01 5.877960e-01 4.408740e-01 3.919486e-01 3.707041e-01 3.352021e-01 2.775348e-01 2.384648e-01
<GCONST> 1.252201e+02
<TRANSP> 5
 0.000000e+00 1.000000e+00 0.000000e+00 0.000000e+00 0.000000e+00
 0.000000e+00 6.767401e-01 3.232599e-01 0.000000e+00 0.000000e+00
 0.000000e+00 0.000000e+00 6.767400e-01 3.232600e-01 0.000000e+00
 0.000000e+00 0.000000e+00 0.000000e+00 8.364124e-01 1.635876e-01
 0.000000e+00 0.000000e+00 0.000000e+00 0.000000e+00 0.000000e+00
<ENDHMM>
~h "w"
<BEGINHMM>
<NUMSTATES> 5
<STATE> 2
<MEAN> 39
 1.767321e-01 -1.073336e+00 1.144430e+00 -1.700388e+00 3.205389e-02 -5.316672e+00 -6.759670e+00 -4.008770e+00 -2.844726e+00 -1.891435e+00 -2.542574e+00 -2.890320e+00 5.773278e+01 -2.261523e-02 5.546016e-03 -2.783474e-02 -2.672325e-02 -3.417063e-02 -8.686118e-03 3.004348e-02 1.662759e-02 -8.353186e-03 -1.194800e-02 -5.792376e-03 2.758920e-02 -2.691653e-02 1.714153e-03 3.471579e-03 -1.877293e-03 -3.854773e-03 1.149083e-03 3.270496e-03 -2.932142e-04 1.182680e-03 4.348612e-04 -3.376292e-03 1.966326e-03 2.752485e-03 -2.590805e-04
<VARIANCE> 39
 1.386885e+02 7.420912e+01 8.527134e+01 6.305661e+01 6.700159e+01 5.326962e+01 7.593487e+01 5.746971e+01 3.344067e+01 3.999912e+01 2.827837e+01 2.369040e+01 7.348789e+01 3.091660e+00 2.919582e+00 3.302411e+00 2.897199e+00 2.658614e+00 3.114266e+00 3.835483e+00 2.509850e+00 2.073561e+00 2.078008e+00 1.692545e+00 1.566426e+00 1.338276e+00 3.521988e-01 4.190611e-01 4.532072e-01 4.396273e-01 4.451889e-01 5.075591e-01 6.284057e-01 4.145878e-01 3.641616e-01 3.646999e-01 2.946055e-01 2.952873e-01 1.815467e-01
<GCONST> 1.231083e+02
<STATE> 3
<MEAN> 39
 2.604148e-02 -1.073762e+00 1.084260e+00 -1.778757e+00 -9.040901e-02 -5.301557e+00 -6.642642e+00 -3.956996e+00 -2.854326e+00 -1.923581e+00 -2.551505e+00 -2.813717e+00 5.759234e+01 -2.115262e-02 1.168066e-02 -3.302934e-02 -3.298080e-02 -3.017998e-02 -2.949023e-03 2.875574e-02 1.822957e-02 -6.655234e-03 -1.513168e-02 -3.056921e-03 3.188906e-02 -2.939731e-02 1.731839e-03 2.663844e-03 -1.970446e-03 -3.239877e-03 1.180796e-03 3.793783e-03 -7.322288e-05 1.175791e-03 6.694981e-04 -3.439902e-03 1.914916e-03 2.466165e-03 -1.469855e-04
<VARIANCE> 39
 1.391346e+02 7.367895e+01 8.428693e+01 6.165821e+01 6.647091e+01 5.242310e+01 7.465816e+01 5.713426e+01 3.322038e+01 3.944029e+01 2.798044e+01 2.323615e+01 7.433884e+01 3.075000e+00 2.884242e+00 3.228001e+00 2.830987e+00 2.616575e+00 3.068692e+00 3.717485e+00 2.484886e+00 2.043521e+00 2.050808e+00 1.680779e+00 1.552969e+00 1.329739e+00 3.520752e-01 4.135030e-01 4.420155e-01 4.285938e-01 4.389864e-01 5.000328e-01 6.089250e-01 4.094887e-01 3.580477e-01 3.591923e-01 2.925528e-01 2.921696e-01 1.812596e-01
<GCONST> 1.226109e+02
<STATE> 4
<MEAN> 39
 -5.213968e-01 -1.238082e+00 7.497193e-01 -2.068218e+00 -6.907055e-01 -4.877196e+00 -5.979780e+00 -4.102881e+00 -3.250153e+00 -2.195428e+00 -2.380085e+00 -2.595748e+00 5.708120e+01 -3.165562e-02 9.340421e-03 -2.505361e-02 -2.229990e-02 -1.784834e-02 5.833221e-03 1.965868e-02 1.237838e-02 1.177212e-03 -9.790435e-03 -5.333424e-03 2.083334e-02 -3.699519e-02 8.773145e-04 9.634884e-04 -1.328262e-03 -1.068970e-03 9.668008e-04 1.902992e-03 -2.548316e-04 4.298467e-04 5.094546e-04 -1.376984e-03 4.881267e-04 8.643712e-04 -1.550805e-04
<VARIANCE> 39
 1.461814e+02 7.482819e+01 8.803065e+01 5.920643e+01 6.760240e+01 5.277894e+01 7.503997e+01 5.544603e+01 3.498781e+01 3.425360e+01 2.926763e+01 2.160695e+01 7.866727e+01 3.155577e+00 2.799015e+00 3.167134e+00 2.711403e+00 2.683035e+00 2.992966e+00 3.807467e+00 2.546455e+00 2.077426e+00 2.014280e+00 1.727336e+00 1.472876e+00 1.353554e+00 3.604550e-01 3.777210e-01 4.161192e-01 4.142230e-01 4.410510e-01 4.838629e-01 6.116278e-01 4.187472e-01 3.495712e-01 3.570975e-01 3.020695e-01 2.775659e-01 1.791295e-01
<GCONST> 1.223662e+02
<TRANSP> 5
 0.000000e+00 1.000000e+00 0.000000e+00 0.000000e+00 0.000000e+00
 0.000000e+00 7.103236e-01 2.896765e-01 0.000000e+00 0.000000e+00
 0.000000e+00 0.000000e+00 7.103230e-01 2.896769e-01 0.000000e+00
 0.000000e+00 0.000000e+00 0.000000e+00 8.857177e-01 1.142822e-01
 0.000000e+00 0.000000e+00 0.000000e+00 0.000000e+00 0.000000e+00
<ENDHMM>
~h "x"
<BEGINHMM>
<NUMSTATES> 5
<STATE> 2
<MEAN> 39
 -2.778694e-02 -5.012324e-01 3.074322e-01 -2.654053e+00 -1.917161e-01 -4.560438e+00 -6.961777e+00 -4.892546e+00 -3.664641e+00 -2.159861e+00 -2.247381e+00 -2.258468e+00 5.721842e+01 -4.737229e-03 -1.074894e-02 -8.013661e-04 8.682636e-03 -4.054355e-03 -2.624902e-02 -2.415452e-02 -1.573803e-02 -3.196148e-03 -1.280268e-02 -1.005669e-02 8.798797e-03 1.664251e-03 -1.279574e-03 -1.975337e-03 -1.507636e-03 5.938702e-04 1.050164e-03 1.185409e-03 9.083901e-04 1.994924e-03 7.672561e-04 9.125833e-04 -4.296598e-05 -1.706173e-03 -1.235850e-03
<VARIANCE> 39
 1.345592e+02 5.535996e+01 7.480004e+01 6.891106e+01 5.107994e+01 5.472686e+01 7.746634e+01 5.045729e+01 2.747766e+01 3.302515e+01 2.503200e+01 2.264071e+01 7.296464e+01 3.538350e+00 2.680008e+00 3.561967e+00 3.324221e+00 2.411319e+00 3.475250e+00 3.631521e+00 2.137960e+00 2.028453e+00 2.047829e+00 1.736578e+00 1.338869e+00 1.365856e+00 4.260486e-01 4.152374e-01 5.152909e-01 4.955256e-01 3.912386e-01 5.810756e-01 5.692571e-01 3.673998e-01 3.548448e-01 3.506762e-01 3.211523e-01 2.323615e-01 1.924270e-01
<GCONST> 1.217933e+02
<STATE> 3
<MEAN> 39
 -7.195860e-03 -5.214236e-01 2.926722e-01 -2.624897e+00 -1.962254e-01 -4.628592e+00 -7.029745e+00 -4.939940e+00 -3.667129e+00 -2.189853e+00 -2.267561e+00 -2.231614e+00 5.724145e+01 -9.463198e-03 -1.413355e-02 -3.612189e-03 9.896523e-03 -2.337939e-03 -2.138342e-02 -1.900079e-02 -1.273380e-02 -2.588209e-03 -1.032487e-02 -1.032974e-02 5.966436e-03 -2.909036e-03 -1.833191e-03 -1.366524e-03 -1.308521e-03 5.367653e-04 3.855066e-04 3.369794e-03 3.820967e-03 1.135635e-03 1.168791e-03 1.726527e-03 2.451125e-04 -8.667923e-04 -1.867680e-03
<VARIANCE> 39
 1.346886e+02 5.518121e+01 7.498795e+01 6.956581e+01 5.116662e+01 5.538883e+01 7.810585e+01 5.097167e+01 2.750403e+01 3.278271e+01 2.500607e+01 2.265977e+01 7.290393e+01 3.508736e+00 2.667111e+00 3.541019e+00 3.310079e+00 2.413597e+00 3.477916e+00 3.605991e+00 2.144031e+00 2.038623e+00 2.032388e+00 1.744928e+00 1.335997e+00 1.360517e+00 4.225160e-01 4.117180e-01 5.114491e-01 4.916385e-01 3.933335e-01 5.832585e-01 5.680578e-01 3.699001e-01 3.570887e-01 3.488464e-01 3.234513e-01 2.314618e-01 1.915221e-01
<GCONST> 1.217790e+02
<STATE> 4
<MEAN> 39
 9.998621e-01 -6.000508e-01 -3.319982e-01 -2.746431e+00 -4.509753e-02 -5.057115e+00 -7.590067e+00 -5.399570e+00 -3.607468e+00 -2.101570e+00 -2.247364e+00 -2.231970e+00 5.797473e+01 -5.770089e-03 -6.529898e-03 -4.401910e-03 6.679235e-03 -2.668373e-03 -8.630034e-03 -6.061133e-03 -1.088823e-02 -9.168409e-04 -6.168101e-03 -5.659751e-03 6.566509e-03 -3.710511e-03 -1.783287e-03 3.097470e-05 1.458451e-05 4.558248e-04 -6.202118e-04 2.882102e-03 3.171253e-03 5.524105e-05 1.881467e-04 3.725922e-04 3.681020e-04 -1.204832e-04 -1.742103e-03
<VARIANCE> 39
 1.365827e+02 5.394719e+01 7.773669e+01 7.140263e+01 5.410115e+01 5.544230e+01 8.329350e+01 5.671519e+01 2.840872e+01 3.393639e+01 2.507202e+01 2.201585e+01 6.952241e+01 3.641955e+00 2.720077e+00 3.560661e+00 3.252361e+00 2.449640e+00 3.473699e+00 3.663162e+00 2.196613e+00 2.059019e+00 1.984779e+00 1.749581e+00 1.327559e+00 1.412909e+00 4.382994e-01 4.225319e-01 5.193917e-01 4.826615e-01 3.956501e-01 5.801648e-01 5.753900e-01 3.760359e-01 3.584024e-01 3.381601e-01 3.247965e-01 2.328481e-01 1.916269e-01
<GCONST> 1.222450e+02
<TRANSP> 5
 0.000000e+00 1.000000e+00 0.000000e+00 0.000000e+00 0.000000e+00
 0.000000e+00 6.767601e-01 3.232399e-01 0.000000e+00 0.000000e+00
 0.000000e+00 0.000000e+00 6.767603e-01 3.232397e-01 0.000000e+00
 0.000000e+00 0.000000e+00 0.000000e+00 8.286372e-01 1.713627e-01
 0.000000e+00 0.000000e+00 0.000000e+00 0.000000e+00 0.000000e+00
<ENDHMM>
~h "en"
<BEGINHMM>
<NUMSTATES> 5
<STATE> 2
<MEAN> 39
 -4.314049e-01 -5.443133e-01 7.105690e-01 -1.882667e+00 -3.413527e-01 -4.598181e+00 -6.314186e+00 -3.848403e+00 -3.601575e+00 -2.169887e+00 -1.884693e+00 -2.491360e+00 5.700534e+01 -2.864336e-03 -3.153083e-03 -6.210326e-04 -1.859146e-03 -1.025149e-03 4.018572e-05 -4.212186e-04 -9.370550e-04 -1.112693e-03 -1.571401e-03 -1.379302e-03 -1.582626e-03 3.459415e-04 -2.076533e-04 1.121370e-04 -6.082775e-04 5.937807e-05 7.690147e-05 -5.380236e-05 9.022583e-05 2.522134e-04 1.281000e-04 2.276354e-04 9.980684e-05 1.737125e-04 -8.036671e-04
<VARIANCE> 39
 1.333756e+02 6.639448e+01 7.486684e+01 6.636140e+01 5.702890e+01 5.689030e+01 7.521648e+01 5.588811e+01 3.375542e+01 3.396556e+01 2.727465e+01 2.558422e+01 7.908179e+01 3.510822e+00 2.990041e+00 3.288318e+00 2.986253e+00 2.462860e+00 3.071138e+00 3.491724e+00 2.597442e+00 2.153173e+00 2.003538e+00 1.724022e+00 1.500141e+00 1.490820e+00 4.316568e-01 4.629386e-01 4.683719e-01 4.500415e-01 3.964934e-01 5.051396e-01 5.511611e-01 4.319685e-01 3.792876e-01 3.504571e-01 3.135985e-01 2.653124e-01 2.156326e-01
<GCONST> 1.230944e+02
<STATE> 3
<MEAN> 39
 -4.314049e-01 -5.443133e-01 7.105690e-01 -1.882667e+00 -3.413527e-01 -4.598181e+00 -6.314186e+00 -3.848403e+00 -3.601575e+00 -2.169887e+00 -1.884693e+00 -2.491360e+00 5.700534e+01 -2.864336e-03 -3.153083e-03 -6.210326e-04 -1.859146e-03 -1.025149e-03 4.018572e-05 -4.212186e-04 -9.370550e-04 -1.112693e-03 -1.571401e-03 -1.379302e-03 -1.582626e-03 3.459415e-04 -2.076533e-04 1.121370e-04 -6.082775e-04 5.937807e-05 7.690147e-05 -5.380236e-05 9.022583e-05 2.522134e-04 1.281000e-04 2.276354e-04 9.980684e-05 1.737125e-04 -8.036671e-04
<VARIANCE> 39
 1.333756e+02 6.639448e+01 7.486684e+01 6.636140e+01 5.702890e+01 5.689030e+01 7.521648e+01 5.588811e+01 3.375542e+01 3.396556e+01 2.727465e+01 2.558422e+01 7.908179e+01 3.510822e+00 2.990041e+00 3.288318e+00 2.986253e+00 2.462860e+00 3.071138e+00 3.491724e+00 2.597442e+00 2.153173e+00 2.003538e+00 1.724022e+00 1.500141e+00 1.490820e+00 4.316568e-01 4.629386e-01 4.683719e-01 4.500415e-01 3.964934e-01 5.051396e-01 5.511611e-01 4.319685e-01 3.792876e-01 3.504571e-01 3.135985e-01 2.653124e-01 2.156326e-01
<GCONST> 1.230944e+02
<STATE> 4
<MEAN> 39
 -4.314049e-01 -5.443133e-01 7.105690e-01 -1.882667e+00 -3.413527e-01 -4.598181e+00 -6.314186e+00 -3.848403e+00 -3.601575e+00 -2.169887e+00 -1.884693e+00 -2.491360e+00 5.700534e+01 -2.864336e-03 -3.153083e-03 -6.210326e-04 -1.859146e-03 -1.025149e-03 4.018572e-05 -4.212186e-04 -9.370550e-04 -1.112693e-03 -1.571401e-03 -1.379302e-03 -1.582626e-03 3.459415e-04 -2.076533e-04 1.121370e-04 -6.082775e-04 5.937807e-05 7.690147e-05 -5.380236e-05 9.022583e-05 2.522134e-04 1.281000e-04 2.276354e-04 9.980684e-05 1.737125e-04 -8.036671e-04
<VARIANCE> 39
 1.333756e+02 6.639448e+01 7.486684e+01 6.636140e+01 5.702890e+01 5.689030e+01 7.521648e+01 5.588811e+01 3.375542e+01 3.396556e+01 2.727465e+01 2.558422e+01 7.908179e+01 3.510822e+00 2.990041e+00 3.288318e+00 2.986253e+00 2.462860e+00 3.071138e+00 3.491724e+00 2.597442e+00 2.153173e+00 2.003538e+00 1.724022e+00 1.500141e+00 1.490820e+00 4.316568e-01 4.629386e-01 4.683719e-01 4.500415e-01 3.964934e-01 5.051396e-01 5.511611e-01 4.319685e-01 3.792876e-01 3.504571e-01 3.135985e-01 2.653124e-01 2.156326e-01
<GCONST> 1.230944e+02
<TRANSP> 5
 0.000000e+00 1.000000e+00 0.000000e+00 0.000000e+00 0.000000e+00
 0.000000e+00 6.000000e-01 4.000000e-01 0.000000e+00 0.000000e+00
 0.000000e+00 0.000000e+00 6.000000e-01 4.000000e-01 0.000000e+00
 0.000000e+00 0.000000e+00 0.000000e+00 7.000000e-01 3.000000e-01
 0.000000e+00 0.000000e+00 0.000000e+00 0.000000e+00 0.000000e+00
<ENDHMM>
~h "js"
<BEGINHMM>
<NUMSTATES> 5
<STATE> 2
<MEAN> 39
 -4.314049e-01 -5.443133e-01 7.105690e-01 -1.882667e+00 -3.413527e-01 -4.598181e+00 -6.314186e+00 -3.848403e+00 -3.601575e+00 -2.169887e+00 -1.884693e+00 -2.491360e+00 5.700534e+01 -2.864336e-03 -3.153083e-03 -6.210326e-04 -1.859146e-03 -1.025149e-03 4.018572e-05 -4.212186e-04 -9.370550e-04 -1.112693e-03 -1.571401e-03 -1.379302e-03 -1.582626e-03 3.459415e-04 -2.076533e-04 1.121370e-04 -6.082775e-04 5.937807e-05 7.690147e-05 -5.380236e-05 9.022583e-05 2.522134e-04 1.281000e-04 2.276354e-04 9.980684e-05 1.737125e-04 -8.036671e-04
<VARIANCE> 39
 1.333756e+02 6.639448e+01 7.486684e+01 6.636140e+01 5.702890e+01 5.689030e+01 7.521648e+01 5.588811e+01 3.375542e+01 3.396556e+01 2.727465e+01 2.558422e+01 7.908179e+01 3.510822e+00 2.990041e+00 3.288318e+00 2.986253e+00 2.462860e+00 3.071138e+00 3.491724e+00 2.597442e+00 2.153173e+00 2.003538e+00 1.724022e+00 1.500141e+00 1.490820e+00 4.316568e-01 4.629386e-01 4.683719e-01 4.500415e-01 3.964934e-01 5.051396e-01 5.511611e-01 4.319685e-01 3.792876e-01 3.504571e-01 3.135985e-01 2.653124e-01 2.156326e-01
<GCONST> 1.230944e+02
<STATE> 3
<MEAN> 39
 -4.314049e-01 -5.443133e-01 7.105690e-01 -1.882667e+00 -3.413527e-01 -4.598181e+00 -6.314186e+00 -3.848403e+00 -3.601575e+00 -2.169887e+00 -1.884693e+00 -2.491360e+00 5.700534e+01 -2.864336e-03 -3.153083e-03 -6.210326e-04 -1.859146e-03 -1.025149e-03 4.018572e-05 -4.212186e-04 -9.370550e-04 -1.112693e-03 -1.571401e-03 -1.379302e-03 -1.582626e-03 3.459415e-04 -2.076533e-04 1.121370e-04 -6.082775e-04 5.937807e-05 7.690147e-05 -5.380236e-05 9.022583e-05 2.522134e-04 1.281000e-04 2.276354e-04 9.980684e-05 1.737125e-04 -8.036671e-04
<VARIANCE> 39
 1.333756e+02 6.639448e+01 7.486684e+01 6.636140e+01 5.702890e+01 5.689030e+01 7.521648e+01 5.588811e+01 3.375542e+01 3.396556e+01 2.727465e+01 2.558422e+01 7.908179e+01 3.510822e+00 2.990041e+00 3.288318e+00 2.986253e+00 2.462860e+00 3.071138e+00 3.491724e+00 2.597442e+00 2.153173e+00 2.003538e+00 1.724022e+00 1.500141e+00 1.490820e+00 4.316568e-01 4.629386e-01 4.683719e-01 4.500415e-01 3.964934e-01 5.051396e-01 5.511611e-01 4.319685e-01 3.792876e-01 3.504571e-01 3.135985e-01 2.653124e-01 2.156326e-01
<GCONST> 1.230944e+02
<STATE> 4
<MEAN> 39
 -4.314049e-01 -5.443133e-01 7.105690e-01 -1.882667e+00 -3.413527e-01 -4.598181e+00 -6.314186e+00 -3.848403e+00 -3.601575e+00 -2.169887e+00 -1.884693e+00 -2.491360e+00 5.700534e+01 -2.864336e-03 -3.153083e-03 -6.210326e-04 -1.859146e-03 -1.025149e-03 4.018572e-05 -4.212186e-04 -9.370550e-04 -1.112693e-03 -1.571401e-03 -1.379302e-03 -1.582626e-03 3.459415e-04 -2.076533e-04 1.121370e-04 -6.082775e-04 5.937807e-05 7.690147e-05 -5.380236e-05 9.022583e-05 2.522134e-04 1.281000e-04 2.276354e-04 9.980684e-05 1.737125e-04 -8.036671e-04
<VARIANCE> 39
 1.333756e+02 6.639448e+01 7.486684e+01 6.636140e+01 5.702890e+01 5.689030e+01 7.521648e+01 5.588811e+01 3.375542e+01 3.396556e+01 2.727465e+01 2.558422e+01 7.908179e+01 3.510822e+00 2.990041e+00 3.288318e+00 2.986253e+00 2.462860e+00 3.071138e+00 3.491724e+00 2.597442e+00 2.153173e+00 2.003538e+00 1.724022e+00 1.500141e+00 1.490820e+00 4.316568e-01 4.629386e-01 4.683719e-01 4.500415e-01 3.964934e-01 5.051396e-01 5.511611e-01 4.319685e-01 3.792876e-01 3.504571e-01 3.135985e-01 2.653124e-01 2.156326e-01
<GCONST> 1.230944e+02
<TRANSP> 5
 0.000000e+00 1.000000e+00 0.000000e+00 0.000000e+00 0.000000e+00
 0.000000e+00 6.000000e-01 4.000000e-01 0.000000e+00 0.000000e+00
 0.000000e+00 0.000000e+00 6.000000e-01 4.000000e-01 0.000000e+00
 0.000000e+00 0.000000e+00 0.000000e+00 7.000000e-01 3.000000e-01
 0.000000e+00 0.000000e+00 0.000000e+00 0.000000e+00 0.000000e+00
<ENDHMM>
~h "ks"
<BEGINHMM>
<NUMSTATES> 5
<STATE> 2
<MEAN> 39
 -3.157241e+00 -2.312127e+00 4.158773e-01 -1.747596e+00 -5.091238e-01 -3.118249e+00 -3.948370e+00 -4.454868e-01 -3.883921e+00 -2.794673e+00 -7.506773e-01 -2.413053e+00 5.620029e+01 -1.024641e-01 -3.382980e-02 -4.420923e-02 9.016846e-03 -2.034450e-02 4.333664e-03 1.581553e-02 1.271450e-02 -6.204572e-03 -4.346128e-03 5.765715e-03 9.821215e-03 -9.564992e-02 2.654954e-03 1.291885e-03 -4.503780e-04 5.761512e-04 8.810709e-04 -2.822282e-04 -1.243419e-03 -1.364355e-03 -2.602464e-04 3.531064e-04 -6.389277e-04 -4.433003e-04 1.154417e-03
<VARIANCE> 39
 1.260909e+02 5.370442e+01 5.845218e+01 6.389052e+01 4.825579e+01 7.893376e+01 5.950177e+01 6.482475e+01 5.011495e+01 3.677135e+01 2.527245e+01 2.958387e+01 1.057447e+02 3.415314e+00 2.390840e+00 2.601255e+00 2.909569e+00 2.445106e+00 3.607688e+00 3.779262e+00 3.377280e+00 2.957110e+00 2.113044e+00 1.615574e+00 1.557014e+00 1.720853e+00 4.645861e-01 3.634404e-01 4.056724e-01 4.531007e-01 4.119804e-01 5.873644e-01 6.536949e-01 5.253204e-01 4.996728e-01 3.637559e-01 2.917447e-01 2.977330e-01 2.534310e-01
<GCONST> 1.246867e+02
<STATE> 3
<MEAN> 39
 -3.629958e+00 -2.472056e+00 1.997297e-01 -1.706599e+00 -6.034275e-01 -3.105896e+00 -3.875058e+00 -3.730705e-01 -3.878592e+00 -2.791422e+00 -7.131288e-01 -2.360807e+00 5.575881e+01 -9.133065e-02 -2.796094e-02 -4.610009e-02 1.122274e-02 -1.657974e-02 3.105303e-03 1.045613e-02 7.431176e-03 -7.273200e-03 -3.542393e-03 2.726773e-03 7.756921e-03 -9.081209e-02 2.797892e-03 1.462667e-03 -9.712478e-05 5.266386e-04 6.978987e-04 -1.308487e-04 -1.124631e-03 -9.614066e-04 3.049552e-05 8.155650e-05 -5.528312e-04 -2.246425e-04 1.408635e-03
<VARIANCE> 39
 1.282889e+02 5.063364e+01 5.677560e+01 6.321062e+01 4.679156e+01 7.583829e+01 5.773956e+01 6.266905e+01 4.838297e+01 3.538015e+01 2.495727e+01 2.821942e+01 1.076391e+02 3.317940e+00 2.298305e+00 2.557646e+00 2.836934e+00 2.331140e+00 3.528086e+00 3.709521e+00 3.304489e+00 2.843741e+00 2.055501e+00 1.579352e+00 1.526040e+00 1.704457e+00 4.541288e-01 3.515898e-01 3.996000e-01 4.436323e-01 3.918952e-01 5.799600e-01 6.485276e-01 5.172921e-01 4.805168e-01 3.538703e-01 2.835736e-01 2.923113e-01 2.514262e-01
<GCONST> 1.237153e+02
<STATE> 4
<MEAN> 39
 -3.101923e+00 -2.766940e+00 -1.018694e-01 -1.518193e+00 -8.039172e-01 -3.208337e+00 -4.073515e+00 -4.863071e-02 -4.170492e+00 -2.883645e+00 -3.423861e-01 -2.303817e+00 5.658937e+01 -8.760057e-02 -2.659346e-02 -4.952570e-02 1.172888e-02 -1.225255e-02 -2.566131e-03 4.642089e-03 9.116910e-03 5.733543e-03 3.025815e-03 2.534663e-03 6.275025e-03 -8.725864e-02 2.473931e-03 1.354413e-03 3.187424e-04 3.206938e-04 4.731150e-04 -1.048962e-04 -1.107301e-03 -7.712176e-04 -3.676202e-05 -3.670684e-04 -3.605339e-04 -1.264261e-04 1.472756e-03
<VARIANCE> 39
 1.360067e+02 5.353812e+01 5.912240e+01 6.936778e+01 4.865244e+01 7.868147e+01 5.783292e+01 6.388735e+01 4.941362e+01 3.670736e+01 2.631564e+01 2.777885e+01 1.025808e+02 3.380012e+00 2.399598e+00 2.722559e+00 2.982583e+00 2.380661e+00 3.780277e+00 3.826338e+00 3.524856e+00 2.912306e+00 2.217723e+00 1.606610e+00 1.590276e+00 1.907214e+00 4.618877e-01 3.659432e-01 4.225749e-01 4.648124e-01 3.980117e-01 6.286831e-01 6.820851e-01 5.579949e-01 4.870074e-01 3.809410e-01 2.844512e-01 3.031047e-01 2.802696e-01
<GCONST> 1.253539e+02
<TRANSP> 5
 0.000000e+00 1.000000e+00 0.000000e+00 0.000000e+00 0.000000e+00
 0.000000e+00 7.815347e-01 2.184653e-01 0.000000e+00 0.000000e+00
 0.000000e+00 0.000000e+00 7.815349e-01 2.184652e-01 0.000000e+00
 0.000000e+00 0.000000e+00 0.000000e+00 9.226901e-01 7.730986e-02
 0.000000e+00 0.000000e+00 0.000000e+00 0.000000e+00 0.000000e+00
<ENDHMM>
~h "ny"
<BEGINHMM>
<NUMSTATES> 5
<STATE> 2
<MEAN> 39
 -1.723088e-01 1.451420e+00 3.849243e+00 1.109983e+00 -4.854679e-01 -1.547558e+00 -4.806367e+00 -4.167781e+00 -4.424493e+00 -2.589049e+00 -1.959071e+00 -1.740215e+00 5.707502e+01 2.864954e-02 2.648020e-02 -1.894488e-02 -3.256335e-02 -1.735847e-02 -2.628328e-02 1.557558e-02 2.722389e-02 6.002220e-03 -2.314840e-02 -1.672472e-02 1.147494e-02 1.639525e-02 1.822732e-03 1.817127e-03 -4.662534e-03 -1.110071e-03 1.333914e-03 -4.623538e-03 -1.012428e-03 7.443663e-03 3.565481e-03 -3.351249e-03 -2.643809e-03 -1.824319e-03 -1.741308e-04
<VARIANCE> 39
 1.135434e+02 7.100139e+01 7.031828e+01 5.174994e+01 5.777996e+01 5.470699e+01 5.795291e+01 4.437476e+01 3.663483e+01 3.747356e+01 2.359621e+01 1.865025e+01 6.541325e+01 2.695830e+00 2.750074e+00 3.173752e+00 2.652445e+00 2.839477e+00 2.423608e+00 2.773970e+00 2.280764e+00 2.034677e+00 1.919956e+00 1.738884e+00 1.097941e+00 8.422179e-01 3.196799e-01 3.993405e-01 4.169306e-01 4.146200e-01 4.622095e-01 3.463907e-01 4.282651e-01 3.670613e-01 3.237758e-01 3.092375e-01 3.189754e-01 1.875654e-01 1.107280e-01
<GCONST> 1.172057e+02
<STATE> 3
<MEAN> 39
 -8.557463e-02 1.531916e+00 3.876147e+00 1.078383e+00 -5.377538e-01 -1.643116e+00 -4.791066e+00 -4.147273e+00 -4.428056e+00 -2.647187e+00 -1.994734e+00 -1.726229e+00 5.713922e+01 2.776312e-02 2.460234e-02 -2.811216e-02 -3.441764e-02 -1.731399e-02 -3.427092e-02 1.503693e-02 4.122367e-02 1.216933e-02 -3.048545e-02 -2.169354e-02 6.312915e-03 1.475963e-02 1.037557e-03 1.569294e-03 -3.485758e-03 1.696341e-04 1.502291e-03 -4.580864e-03 -1.193992e-03 5.997124e-03 2.856430e-03 -3.450584e-03 -2.941553e-03 -2.735337e-03 -5.186293e-04
<VARIANCE> 39
 1.124129e+02 7.044408e+01 6.938400e+01 5.242473e+01 5.874469e+01 5.639273e+01 5.790807e+01 4.542577e+01 3.675647e+01 3.829427e+01 2.383627e+01 1.862396e+01 6.394639e+01 2.697350e+00 2.667779e+00 3.094876e+00 2.640425e+00 2.801320e+00 2.450763e+00 2.780100e+00 2.298594e+00 2.031171e+00 1.945355e+00 1.715645e+00 1.082024e+00 8.483658e-01 3.198420e-01 3.851556e-01 4.090769e-01 4.141676e-01 4.545010e-01 3.470532e-01 4.271702e-01 3.681880e-01 3.224839e-01 3.105973e-01 3.116735e-01 1.834382e-01 1.112047e-01
<GCONST> 1.170958e+02
<STATE> 4
<MEAN> 39
 1.128087e+00 2.838247e+00 4.506560e+00 2.384573e+00 -2.733126e-01 -1.257915e-01 -4.762721e+00 -4.442663e+00 -5.219736e+00 -3.146408e+00 -2.225945e+00 -1.598808e+00 5.839517e+01 1.658022e-02 1.666151e-02 -1.635238e-02 -1.869716e-02 -1.477393e-02 -3.475769e-02 4.855607e-03 2.687168e-02 8.965687e-03 -2.424594e-02 -1.637098e-02 -2.091574e-03 9.246696e-03 -6.112878e-05 3.923638e-04 -1.887204e-03 2.313913e-04 8.040433e-04 -2.547954e-03 -8.628895e-04 2.305433e-03 8.543602e-04 -1.729458e-03 -1.910370e-03 -2.283924e-03 -6.062628e-04
<VARIANCE> 39
 1.026153e+02 6.889709e+01 6.797131e+01 5.745525e+01 5.959632e+01 7.089650e+01 5.684176e+01 4.853012e+01 4.847145e+01 4.175204e+01 2.425672e+01 2.064438e+01 5.453579e+01 2.968472e+00 2.635174e+00 3.037262e+00 2.868088e+00 2.851964e+00 2.593647e+00 2.929897e+00 2.534106e+00 2.327371e+00 1.976420e+00 1.685666e+00 1.098143e+00 9.148710e-01 3.516324e-01 3.728833e-01 4.141313e-01 4.356527e-01 4.555623e-01 3.596516e-01 4.346761e-01 3.997574e-01 3.603812e-01 3.065009e-01 3.013225e-01 1.809842e-01 1.161099e-01
<GCONST> 1.186219e+02
<TRANSP> 5
 0.000000e+00 1.000000e+00 0.000000e+00 0.000000e+00 0.000000e+00
 0.000000e+00 6.833277e-01 3.166723e-01 0.000000e+00 0.000000e+00
 0.000000e+00 0.000000e+00 6.833279e-01 3.166721e-01 0.000000e+00
 0.000000e+00 0.000000e+00 0.000000e+00 8.461668e-01 1.538332e-01
 0.000000e+00 0.000000e+00 0.000000e+00 0.000000e+00 0.000000e+00
<ENDHMM>
~h "rr"
<BEGINHMM>
<NUMSTATES> 5
<STATE> 2
<MEAN> 39
 1.092066e+00 2.569810e+00 4.347320e+00 -1.572306e-01 2.521255e+00 -2.223453e+00 -5.895148e+00 -5.951142e+00 -2.370584e+00 4.892890e-01 -4.229388e-01 -2.506339e+00 5.765851e+01 -4.840549e-02 -5.480222e-02 -2.583831e-02 -2.640873e-02 -2.923986e-02 -1.609985e-02 2.379530e-02 2.696895e-02 -6.749647e-03 -3.370631e-02 -3.991457e-02 -2.415599e-02 -1.349402e-02 -1.359017e-03 5.391208e-03 -4.958216e-04 -2.725006e-03 -3.857907e-03 -4.538158e-03 1.158023e-03 5.430847e-03 7.794972e-04 -4.253335e-03 -3.520015e-03 1.136014e-03 -3.659066e-03
<VARIANCE> 39
 6.484531e+01 6.466585e+01 7.247478e+01 7.037054e+01 6.236063e+01 5.071191e+01 6.068081e+01 4.452394e+01 2.351256e+01 2.989657e+01 2.737860e+01 2.792644e+01 1.952974e+01 2.136919e+00 2.078686e+00 3.114077e+00 3.503608e+00 3.523094e+00 3.318553e+00 3.872487e+00 2.103817e+00 1.920494e+00 2.188491e+00 1.700112e+00 1.218002e+00 7.316226e-01 2.513159e-01 2.578014e-01 5.281951e-01 5.260312e-01 4.862162e-01 4.610903e-01 5.890863e-01 3.374104e-01 3.463136e-01 3.579425e-01 2.977299e-01 2.410727e-01 9.670750e-02
<GCONST> 1.167851e+02
<STATE> 3
<MEAN> 39
 9.505935e-01 2.394105e+00 4.212181e+00 -2.304680e-01 2.478974e+00 -2.246753e+00 -5.856984e+00 -5.910906e+00 -2.416495e+00 4.132531e-01 -4.897790e-01 -2.537584e+00 5.760495e+01 -5.171261e-02 -4.315886e-02 -2.857600e-02 -3.272704e-02 -3.739043e-02 -2.583953e-02 2.585215e-02 3.860706e-02 -5.317609e-03 -4.278471e-02 -4.688608e-02 -2.073294e-02 -2.228901e-02 -3.368323e-05 6.020178e-03 -8.347144e-04 -2.504467e-03 -2.987881e-03 -4.164906e-03 3.805330e-04 4.568474e-03 6.292927e-04 -3.652074e-03 -2.805594e-03 1.421604e-03 -3.039991e-03
<VARIANCE> 39
 6.420767e+01 6.579790e+01 7.257999e+01 7.392680e+01 6.607394e+01 5.310595e+01 6.088634e+01 4.343839e+01 2.401838e+01 2.993583e+01 2.853393e+01 2.907019e+01 1.904444e+01 2.115890e+00 2.080130e+00 3.086687e+00 3.554413e+00 3.642105e+00 3.424092e+00 3.879949e+00 2.070329e+00 1.935785e+00 2.193511e+00 1.727574e+00 1.264507e+00 7.180964e-01 2.509744e-01 2.598520e-01 5.323453e-01 5.369668e-01 5.024228e-01 4.739601e-01 5.856621e-01 3.299923e-01 3.454678e-01 3.567365e-01 3.000382e-01 2.504322e-01 9.696810e-02
<GCONST> 1.172066e+02
<STATE> 4
<MEAN> 39
 4.531962e-01 2.624253e+00 3.891531e+00 -6.413841e-01 2.472557e+00 -1.905520e+00 -5.011726e+00 -5.026937e+00 -2.370208e+00 7.332683e-02 -4.738487e-01 -2.061471e+00 5.704807e+01 -5.024082e-02 -4.296210e-02 -4.675630e-02 -3.063659e-02 -2.390525e-02 -1.763996e-02 1.473255e-02 2.634463e-02 -1.220134e-02 -3.313180e-02 -2.815074e-02 -5.408805e-03 -2.884849e-02 3.800046e-04 4.061096e-03 -1.231199e-03 -1.712272e-03 -1.450432e-03 -2.227529e-03 -8.449999e-05 2.462955e-03 1.837038e-04 -2.008671e-03 -1.176900e-03 1.400990e-03 -1.982528e-03
<VARIANCE> 39
 5.873020e+01 6.436692e+01 7.200251e+01 7.175574e+01 6.462902e+01 5.292356e+01 6.211073e+01 4.252763e+01 2.456170e+01 2.883004e+01 2.867550e+01 2.734225e+01 1.851686e+01 2.006674e+00 1.810049e+00 2.863019e+00 3.368472e+00 3.561867e+00 3.348366e+00 3.991565e+00 2.155904e+00 1.978598e+00 2.263610e+00 1.711708e+00 1.329691e+00 6.748207e-01 2.458318e-01 2.330442e-01 4.950056e-01 5.091158e-01 5.092100e-01 4.590310e-01 5.959728e-01 3.472780e-01 3.533118e-01 3.609262e-01 2.967449e-01 2.650268e-01 9.225478e-02
<GCONST> 1.164907e+02
<TRANSP> 5
 0.000000e+00 1.000000e+00 0.000000e+00 0.000000e+00 0.000000e+00
 0.000000e+00 6.642000e-01 3.358000e-01 0.000000e+00 0.000000e+00
 0.000000e+00 0.000000e+00 6.642003e-01 3.357997e-01 0.000000e+00
 0.000000e+00 0.000000e+00 0.000000e+00 8.098579e-01 1.901421e-01
 0.000000e+00 0.000000e+00 0.000000e+00 0.000000e+00 0.000000e+00
<ENDHMM>
~h "sp"
<BEGINHMM>
<NUMSTATES> 5
<STATE> 2
<MEAN> 39
 -4.314049e-01 -5.443133e-01 7.105690e-01 -1.882667e+00 -3.413527e-01 -4.598181e+00 -6.314186e+00 -3.848403e+00 -3.601575e+00 -2.169887e+00 -1.884693e+00 -2.491360e+00 5.700534e+01 -2.864336e-03 -3.153083e-03 -6.210326e-04 -1.859146e-03 -1.025149e-03 4.018572e-05 -4.212186e-04 -9.370550e-04 -1.112693e-03 -1.571401e-03 -1.379302e-03 -1.582626e-03 3.459415e-04 -2.076533e-04 1.121370e-04 -6.082775e-04 5.937807e-05 7.690147e-05 -5.380236e-05 9.022583e-05 2.522134e-04 1.281000e-04 2.276354e-04 9.980684e-05 1.737125e-04 -8.036671e-04
<VARIANCE> 39
 1.333756e+02 6.639448e+01 7.486684e+01 6.636140e+01 5.702890e+01 5.689030e+01 7.521648e+01 5.588811e+01 3.375542e+01 3.396556e+01 2.727465e+01 2.558422e+01 7.908179e+01 3.510822e+00 2.990041e+00 3.288318e+00 2.986253e+00 2.462860e+00 3.071138e+00 3.491724e+00 2.597442e+00 2.153173e+00 2.003538e+00 1.724022e+00 1.500141e+00 1.490820e+00 4.316568e-01 4.629386e-01 4.683719e-01 4.500415e-01 3.964934e-01 5.051396e-01 5.511611e-01 4.319685e-01 3.792876e-01 3.504571e-01 3.135985e-01 2.653124e-01 2.156326e-01
<GCONST> 1.230944e+02
<STATE> 3
<MEAN> 39
 -4.314049e-01 -5.443133e-01 7.105690e-01 -1.882667e+00 -3.413527e-01 -4.598181e+00 -6.314186e+00 -3.848403e+00 -3.601575e+00 -2.169887e+00 -1.884693e+00 -2.491360e+00 5.700534e+01 -2.864336e-03 -3.153083e-03 -6.210326e-04 -1.859146e-03 -1.025149e-03 4.018572e-05 -4.212186e-04 -9.370550e-04 -1.112693e-03 -1.571401e-03 -1.379302e-03 -1.582626e-03 3.459415e-04 -2.076533e-04 1.121370e-04 -6.082775e-04 5.937807e-05 7.690147e-05 -5.380236e-05 9.022583e-05 2.522134e-04 1.281000e-04 2.276354e-04 9.980684e-05 1.737125e-04 -8.036671e-04
<VARIANCE> 39
 1.333756e+02 6.639448e+01 7.486684e+01 6.636140e+01 5.702890e+01 5.689030e+01 7.521648e+01 5.588811e+01 3.375542e+01 3.396556e+01 2.727465e+01 2.558422e+01 7.908179e+01 3.510822e+00 2.990041e+00 3.288318e+00 2.986253e+00 2.462860e+00 3.071138e+00 3.491724e+00 2.597442e+00 2.153173e+00 2.003538e+00 1.724022e+00 1.500141e+00 1.490820e+00 4.316568e-01 4.629386e-01 4.683719e-01 4.500415e-01 3.964934e-01 5.051396e-01 5.511611e-01 4.319685e-01 3.792876e-01 3.504571e-01 3.135985e-01 2.653124e-01 2.156326e-01
<GCONST> 1.230944e+02
<STATE> 4
<MEAN> 39
 -4.314049e-01 -5.443133e-01 7.105690e-01 -1.882667e+00 -3.413527e-01 -4.598181e+00 -6.314186e+00 -3.848403e+00 -3.601575e+00 -2.169887e+00 -1.884693e+00 -2.491360e+00 5.700534e+01 -2.864336e-03 -3.153083e-03 -6.210326e-04 -1.859146e-03 -1.025149e-03 4.018572e-05 -4.212186e-04 -9.370550e-04 -1.112693e-03 -1.571401e-03 -1.379302e-03 -1.582626e-03 3.459415e-04 -2.076533e-04 1.121370e-04 -6.082775e-04 5.937807e-05 7.690147e-05 -5.380236e-05 9.022583e-05 2.522134e-04 1.281000e-04 2.276354e-04 9.980684e-05 1.737125e-04 -8.036671e-04
<VARIANCE> 39
 1.333756e+02 6.639448e+01 7.486684e+01 6.636140e+01 5.702890e+01 5.689030e+01 7.521648e+01 5.588811e+01 3.375542e+01 3.396556e+01 2.727465e+01 2.558422e+01 7.908179e+01 3.510822e+00 2.990041e+00 3.288318e+00 2.986253e+00 2.462860e+00 3.071138e+00 3.491724e+00 2.597442e+00 2.153173e+00 2.003538e+00 1.724022e+00 1.500141e+00 1.490820e+00 4.316568e-01 4.629386e-01 4.683719e-01 4.500415e-01 3.964934e-01 5.051396e-01 5.511611e-01 4.319685e-01 3.792876e-01 3.504571e-01 3.135985e-01 2.653124e-01 2.156326e-01
<GCONST> 1.230944e+02
<TRANSP> 5
 0.000000e+00 1.000000e+00 0.000000e+00 0.000000e+00 0.000000e+00
 0.000000e+00 6.000000e-01 4.000000e-01 0.000000e+00 0.000000e+00
 0.000000e+00 0.000000e+00 6.000000e-01 4.000000e-01 0.000000e+00
 0.000000e+00 0.000000e+00 0.000000e+00 7.000000e-01 3.000000e-01
 0.000000e+00 0.000000e+00 0.000000e+00 0.000000e+00 0.000000e+00
<ENDHMM>
~h "sil"
<BEGINHMM>
<NUMSTATES> 5
<STATE> 2
<MEAN> 39
 -1.288527e+01 -6.461389e-01 -1.046251e+00 2.340242e-01 -2.692812e+00 -1.364778e+00 -3.370134e+00 -1.590756e+00 -2.824012e+00 -1.767263e+00 -2.201373e+00 -1.247975e+00 4.404142e+01 -1.676496e-01 -2.210805e-01 1.184217e-01 -1.244719e-01 -8.784634e-02 5.130897e-02 -5.534144e-02 -1.262528e-01 -1.471589e-01 -1.935120e-01 -1.532999e-01 -1.830525e-01 1.898837e-01 -9.949332e-02 -5.767600e-02 -1.040552e-01 -3.761847e-02 -2.705585e-02 -1.598122e-02 -9.159776e-04 2.105427e-02 1.597972e-02 2.287646e-02 4.083099e-03 1.879056e-02 -1.230655e-01
<VARIANCE> 39
 4.492393e+01 3.730251e+01 1.990387e+01 1.395927e+01 1.040775e+01 9.911161e+00 9.772981e+00 9.222246e+00 9.632455e+00 8.269336e+00 8.180266e+00 7.758357e+00 1.785211e+01 1.142524e+00 9.652406e-01 1.398683e+00 6.760038e-01 6.288414e-01 7.188247e-01 8.336068e-01 8.509495e-01 9.770870e-01 8.792031e-01 7.760084e-01 7.157348e-01 1.333128e+00 2.475634e-01 1.360265e-01 2.173540e-01 1.001114e-01 9.245359e-02 1.223592e-01 1.512761e-01 1.509834e-01 1.768758e-01 1.544244e-01 1.394022e-01 1.296938e-01 2.193093e-01
<GCONST> 7.911770e+01
<STATE> 3
<MEAN> 39
 -1.371572e+01 -1.497816e+00 -1.233565e+00 -2.888429e-01 -3.025281e+00 -1.341180e+00 -3.535723e+00 -1.858361e+00 -3.096832e+00 -2.158623e+00 -2.553856e+00 -1.634108e+00 4.404850e+01 -2.437050e-01 -2.375560e-01 -8.679246e-02 -1.442360e-01 -9.409875e-02 -2.205896e-02 -5.540494e-02 -7.203661e-02 -6.036070e-02 -7.504094e-02 -6.673576e-02 -7.166430e-02 -4.907852e-02 -7.465479e-04 1.190585e-02 -4.536227e-02 6.023305e-03 8.957095e-03 -1.633355e-02 6.600037e-03 1.721957e-02 2.390362e-02 2.771255e-02 2.416905e-02 2.690935e-02 -5.048753e-02
<VARIANCE> 39
 3.077144e+01 2.327328e+01 1.933876e+01 1.192251e+01 9.088028e+00 1.047757e+01 1.071211e+01 9.581696e+00 1.025270e+01 8.051014e+00 7.603836e+00 6.895922e+00 1.385280e+01 9.888300e-01 9.303008e-01 9.359319e-01 6.595671e-01 6.133012e-01 7.043617e-01 8.410287e-01 8.517293e-01 1.001397e+00 8.890674e-01 7.997057e-01 7.310030e-01 4.656005e-01 1.559738e-01 1.257076e-01 2.041501e-01 1.072077e-01 1.039628e-01 1.286458e-01 1.774878e-01 1.724416e-01 2.047577e-01 1.812800e-01 1.550854e-01 1.439226e-01 1.460621e-01
<GCONST> 7.614985e+01
<STATE> 4
<MEAN> 39
 -1.468196e+01 -2.606868e+00 -2.084185e+00 -6.735424e-01 -3.269951e+00 -1.424550e+00 -3.539257e+00 -1.787591e+00 -2.960240e+00 -1.987064e+00 -2.464554e+00 -1.607147e+00 4.368506e+01 -5.838158e-02 -5.982454e-02 -4.755614e-02 -4.062220e-02 -2.122368e-02 -3.157169e-02 -2.705217e-02 -3.192692e-02 -3.641887e-02 -1.881864e-02 -1.279122e-02 -7.191295e-03 -2.555158e-02 1.383280e-02 1.805457e-02 3.302844e-03 9.953225e-03 8.967918e-03 9.399651e-04 2.524485e-03 4.390808e-03 -5.151982e-03 -9.127893e-04 -1.366418e-03 -2.667876e-03 7.505540e-05
<VARIANCE> 39
 2.441257e+01 1.538758e+01 1.415144e+01 1.168533e+01 9.821354e+00 1.090041e+01 1.119719e+01 1.010880e+01 1.025777e+01 9.247213e+00 7.907455e+00 6.482217e+00 1.410959e+01 4.895536e-01 5.314704e-01 6.945234e-01 5.863183e-01 6.048203e-01 6.360443e-01 8.157567e-01 8.454269e-01 9.244774e-01 8.935000e-01 7.530816e-01 6.670318e-01 2.890103e-01 7.326925e-02 9.291288e-02 1.346155e-01 1.052932e-01 1.149923e-01 1.231462e-01 1.618950e-01 1.681391e-01 1.874864e-01 1.792317e-01 1.484916e-01 1.318191e-01 5.839783e-02
<GCONST> 7.028570e+01
<TRANSP> 5
 0.000000e+00 1.000000e+00 0.000000e+00 0.000000e+00 0.000000e+00
 0.000000e+00 7.238960e-01 2.761040e-01 0.000000e+00 0.000000e+00
 0.000000e+00 0.000000e+00 7.238960e-01 2.761041e-01 0.000000e+00
 0.000000e+00 0.000000e+00 0.000000e+00 8.849550e-01 1.150449e-01
 0.000000e+00 0.000000e+00 0.000000e+00 0.000000e+00 0.000000e+00
<ENDHMM>
~h "tsh"
<BEGINHMM>
<NUMSTATES> 5
<STATE> 2
<MEAN> 39
 1.413331e+00 -4.577881e-02 2.110063e+00 -2.413055e+00 8.073561e-01 -5.169676e+00 -8.205766e+00 -5.537861e+00 -3.261815e+00 -1.596245e+00 -1.764681e+00 -3.489728e+00 5.891862e+01 7.044828e-03 2.509660e-02 1.418006e-02 1.873441e-02 -3.079118e-02 -1.832867e-02 4.379302e-02 2.572740e-02 6.292849e-04 -8.796052e-04 4.204717e-03 -1.619037e-03 -7.577447e-03 1.754827e-03 -8.859458e-04 -7.457403e-04 2.886317e-03 7.353085e-04 1.295123e-05 1.886867e-03 -2.239637e-04 -2.115237e-03 -1.641332e-03 6.437474e-04 4.216114e-04 1.275472e-03
<VARIANCE> 39
