~o
<STREAMINFO> 1 39
<VECSIZE> 39<NULLD><MFCC_D_A_0><DIAGC>
~h "a"
<BEGINHMM>
<NUMSTATES> 5
<STATE> 2
<MEAN> 39
 2.134503e+00 1.185263e+00 1.092456e+00 -2.398610e+00 1.201504e-01 -4.088542e+00 -5.056650e+00 -3.522213e+00 -3.460874e+00 -2.440261e+00 -1.557454e+00 -1.915145e+00 5.845806e+01 -3.949319e-01 1.054075e-01 2.400187e-01 1.119052e-02 -2.165551e-02 2.512853e-01 3.422871e-01 7.903808e-02 -2.953056e-02 -7.169013e-02 -4.621332e-02 2.984306e-02 -2.941972e-01 -1.216092e-02 -2.579258e-02 -9.624941e-03 3.507950e-02 2.515443e-02 -8.721986e-03 -4.567841e-02 -9.597971e-03 9.495785e-03 1.817829e-02 -7.302811e-03 -8.784300e-03 -1.290330e-02
<VARIANCE> 39
 1.103653e+02 7.418006e+01 8.303886e+01 6.594657e+01 5.456931e+01 4.643707e+01 6.593923e+01 4.523121e+01 2.951076e+01 2.828790e+01 2.566920e+01 2.553436e+01 5.423878e+01 1.431750e+00 1.802370e+00 2.593226e+00 2.294675e+00 1.907475e+00 2.319663e+00 2.617188e+00 1.858798e+00 1.648240e+00 1.686744e+00 1.483471e+00 1.356243e+00 6.335415e-01 2.228393e-01 2.873613e-01 4.032568e-01 3.351688e-01 2.869523e-01 3.839440e-01 4.204345e-01 2.955097e-01 2.892456e-01 2.764796e-01 2.646456e-01 2.217430e-01 1.041259e-01
<GCONST> 1.127409e+02
<STATE> 3
<MEAN> 39
 1.129147e+00 1.280809e+00 1.512774e+00 -2.253953e+00 9.236868e-02 -3.644480e+00 -4.530720e+00 -3.405404e+00 -3.534519e+00 -2.586542e+00 -1.708158e+00 -1.881056e+00 5.766542e+01 -3.582277e-01 3.528082e-02 1.745998e-01 5.635276e-02 2.435438e-02 2.006615e-01 2.160168e-01 5.139633e-02 2.432407e-03 -3.498725e-02 -5.936619e-02 7.648648e-03 -2.669961e-01 3.276171e-02 -3.900706e-02 -4.300643e-02 1.405143e-02 1.734098e-02 -2.593229e-02 -6.244393e-02 -1.663924e-02 1.364299e-02 2.138067e-02 -4.994883e-03 -7.707598e-03 2.398795e-02
<VARIANCE> 39
 1.119734e+02 7.321265e+01 8.036620e+01 6.323774e+01 5.061238e+01 4.396171e+01 6.058452e+01 4.086014e+01 2.729469e+01 2.609581e+01 2.385786e+01 2.443247e+01 5.687757e+01 1.387938e+00 1.744019e+00 2.498092e+00 2.140187e+00 1.778641e+00 2.070538e+00 2.223158e+00 1.675819e+00 1.512902e+00 1.544469e+00 1.403230e+00 1.296374e+00 6.085902e-01 2.084617e-01 2.677126e-01 3.743424e-01 3.204534e-01 2.783305e-01 3.465360e-01 3.804223e-01 2.739400e-01 2.611839e-01 2.588122e-01 2.422563e-01 2.155125e-01 1.015255e-01
<GCONST> 1.103106e+02
<STATE> 4
<MEAN> 39
 1.184252e+00 1.658015e+00 2.393031e+00 -1.662504e+00 4.001310e-01 -3.516324e+00 -4.320675e+00 -3.347537e+00 -3.483556e+00 -2.683038e+00 -2.017265e+00 -2.063148e+00 5.774361e+01 -2.781581e-01 -9.548651e-02 5.814469e-03 1.547727e-02 1.258696e-02 1.062948e-01 8.478648e-02 9.597044e-03 3.098977e-02 1.377745e-02 -4.202148e-02 7.889482e-03 -1.893717e-01 7.008237e-02 -5.301481e-02 -7.361107e-02 -1.375417e-02 -5.681865e-03 -5.356079e-02 -7.851876e-02 -3.360605e-02 3.023235e-03 2.392926e-02 5.005388e-03 -2.825965e-03 5.808443e-02
<VARIANCE> 39
 1.013295e+02 7.375253e+01 7.962193e+01 6.912114e+01 5.129626e+01 4.835711e+01 6.367305e+01 4.168143e+01 2.918930e+01 2.662901e+01 2.455651e+01 2.404975e+01 4.960931e+01 1.927357e+00 2.115942e+00 3.012193e+00 2.536783e+00 2.063863e+00 2.337493e+00 2.518603e+00 1.827847e+00 1.666428e+00 1.633235e+00 1.496045e+00 1.399520e+00 8.301197e-01 2.700821e-01 3.129222e-01 4.049662e-01 3.768461e-01 3.329446e-01 3.745556e-01 4.350156e-01 3.160331e-01 2.883549e-01 2.893826e-01 2.554334e-01 2.368319e-01 1.340124e-01
<GCONST> 1.142289e+02
<TRANSP> 5
 0.000000e+00 1.000000e+00 0.000000e+00 0.000000e+00 0.000000e+00
 0.000000e+00 4.650860e-01 5.349140e-01 0.000000e+00 0.000000e+00
 0.000000e+00 0.000000e+00 4.737005e-01 5.262995e-01 0.000000e+00
 0.000000e+00 0.000000e+00 0.000000e+00 5.376760e-01 4.623240e-01
 0.000000e+00 0.000000e+00 0.000000e+00 0.000000e+00 0.000000e+00
<ENDHMM>
~h "b"
<BEGINHMM>
<NUMSTATES> 5
<STATE> 2
<MEAN> 39
 2.557320e+00 -3.158807e+00 -4.956015e-01 -1.149338e+00 1.313585e+00 -3.661790e+00 -5.472195e+00 -5.185993e+00 -5.011137e+00 -1.418222e+00 -3.271866e-01 -2.139102e+00 6.036293e+01 3.456881e-01 -1.467177e-01 -3.394108e-01 1.318690e-01 5.221738e-02 -6.714210e-02 -7.911858e-02 -8.265030e-02 -1.829756e-01 -8.131447e-02 1.315081e-01 9.032381e-02 2.039400e-01 5.397179e-02 9.503695e-02 -2.543963e-02 -1.097334e-02 -1.221293e-02 -4.454609e-02 -4.583265e-02 4.616579e-02 2.025338e-02 -4.242938e-02 2.827174e-03 1.830799e-02 -1.553782e-02
<VARIANCE> 39
 1.011990e+02 1.119841e+02 8.622762e+01 8.239068e+01 6.733945e+01 6.518655e+01 9.079408e+01 4.763619e+01 3.486828e+01 3.159932e+01 2.982847e+01 2.536633e+01 4.378350e+01 4.800499e+00 4.702638e+00 4.986883e+00 3.402914e+00 2.814330e+00 3.418750e+00 4.092640e+00 3.219550e+00 2.490219e+00 1.849309e+00 1.805520e+00 1.425555e+00 2.809734e+00 5.974271e-01 8.216166e-01 7.522238e-01 5.727910e-01 4.799251e-01 5.797986e-01 7.072358e-01 5.509992e-01 4.759521e-01 3.351049e-01 3.498171e-01 2.388684e-01 4.367755e-01
<GCONST> 1.294281e+02
<STATE> 3
<MEAN> 39
 4.247484e+00 -2.786005e+00 -1.520001e+00 -7.807768e-01 1.608348e+00 -4.174538e+00 -5.800819e+00 -5.236490e+00 -5.517339e+00 -1.725219e+00 -7.334816e-02 -2.011204e+00 6.118024e+01 3.504286e-01 1.135341e-01 -3.099728e-01 9.884642e-03 1.169093e-02 -1.346678e-01 -8.662276e-02 1.050826e-01 -2.283577e-02 -1.390007e-01 8.318778e-02 1.078699e-01 1.210823e-01 -6.511322e-02 4.453533e-02 3.703002e-02 -4.881031e-02 -3.417279e-02 -9.782011e-03 2.409489e-02 6.377856e-02 5.241754e-02 -1.674100e-02 -3.182035e-02 -9.555046e-03 -5.309470e-02
<VARIANCE> 39
 9.487420e+01 1.156824e+02 8.371611e+01 8.847522e+01 7.094542e+01 6.750603e+01 7.963496e+01 4.538309e+01 3.736457e+01 2.988618e+01 2.920072e+01 2.671514e+01 3.859691e+01 4.135296e+00 4.117285e+00 4.725753e+00 2.942372e+00 2.451060e+00 3.361296e+00 3.735693e+00 2.866518e+00 2.200769e+00 1.730213e+00 1.568022e+00 1.358680e+00 1.860249e+00 5.048298e-01 7.106999e-01 7.194995e-01 4.573710e-01 4.417610e-01 5.545947e-01 5.949677e-01 4.606710e-01 4.157080e-01 3.021373e-01 2.999659e-01 2.258530e-01 2.969585e-01
<GCONST> 1.257311e+02
<STATE> 4
<MEAN> 39
 4.365556e+00 -3.866891e+00 -4.830041e+00 -2.219863e+00 9.722972e-01 -4.018068e+00 -4.657681e+00 -4.045573e+00 -5.390325e+00 -2.849707e+00 5.741322e-02 -5.191913e-01 6.084121e+01 -1.705549e-01 1.723742e-01 8.944124e-02 -4.300840e-02 -5.955132e-02 9.203325e-04 7.820979e-02 1.549260e-01 1.331530e-01 -5.770032e-02 -1.019084e-01 1.607247e-02 -1.921390e-01 -8.609705e-02 -2.655067e-04 6.831893e-02 1.575160e-03 -3.689085e-03 7.712468e-03 -4.280953e-03 -1.197723e-02 1.254951e-02 2.330290e-02 -2.569706e-02 -3.367432e-02 -4.910954e-02
<VARIANCE> 39
 9.076592e+01 1.344904e+02 8.998428e+01 7.942979e+01 5.218703e+01 5.201622e+01 6.051989e+01 3.799096e+01 4.049448e+01 2.772910e+01 2.513059e+01 2.626446e+01 3.607829e+01 2.262735e+00 2.195638e+00 3.103943e+00 1.929829e+00 1.799405e+00 2.249564e+00 2.434043e+00 1.799854e+00 1.575827e+00 1.365156e+00 1.237119e+00 1.106369e+00 9.809114e-01 3.042805e-01 3.296626e-01 4.498878e-01 2.952881e-01 2.989326e-01 3.866330e-01 3.755546e-01 2.950014e-01 2.855731e-01 2.251272e-01 2.221558e-01 1.831316e-01 1.434781e-01
<GCONST> 1.134753e+02
<TRANSP> 5
 0.000000e+00 1.000000e+00 0.000000e+00 0.000000e+00 0.000000e+00
 0.000000e+00 5.282116e-01 4.717884e-01 0.000000e+00 0.000000e+00
 0.000000e+00 0.000000e+00 4.982682e-01 5.017318e-01 0.000000e+00
 0.000000e+00 0.000000e+00 0.000000e+00 7.012199e-01 2.987802e-01
 0.000000e+00 0.000000e+00 0.000000e+00 0.000000e+00 0.000000e+00
<ENDHMM>
~h "d"
<BEGINHMM>
<NUMSTATES> 5
<STATE> 2
<MEAN> 39
 -4.988702e+00 -1.897382e+00 -1.342566e+00 -3.211489e+00 -7.349308e-01 -2.831817e+00 -3.938133e+00 -2.977995e+00 -3.489071e+00 -2.313342e+00 -1.336251e+00 -8.248609e-01 5.312312e+01 -2.392895e-01 -2.716133e-02 -3.406473e-02 7.656267e-03 -3.204991e-02 1.803566e-02 5.911675e-02 6.353401e-02 -2.146379e-02 -7.047300e-02 -2.872395e-02 4.161287e-02 -2.064774e-01 1.353820e-02 1.104995e-02 3.231502e-02 2.748729e-02 3.613225e-03 1.889205e-03 -1.188641e-02 -2.642534e-02 -1.945546e-02 2.878611e-03 1.584862e-03 -1.637277e-02 8.945067e-03
<VARIANCE> 39
 9.067403e+01 4.703723e+01 5.292928e+01 3.290689e+01 2.914546e+01 2.478179e+01 3.320415e+01 2.716464e+01 1.878744e+01 1.892113e+01 1.587777e+01 1.767020e+01 5.297536e+01 5.702295e-01 8.227166e-01 1.163176e+00 1.041366e+00 9.757466e-01 1.039793e+00 1.267346e+00 1.183141e+00 1.094233e+00 1.044112e+00 9.434502e-01 8.592985e-01 2.544952e-01 7.698788e-02 1.207982e-01 1.692019e-01 1.546554e-01 1.621854e-01 1.976023e-01 2.138991e-01 2.085896e-01 2.115907e-01 1.928734e-01 1.817951e-01 1.595518e-01 3.623021e-02
<GCONST> 8.984638e+01
<STATE> 3
<MEAN> 39
 -7.979173e+00 -1.085948e+00 -1.111798e+00 -1.847914e+00 -1.485721e+00 -2.320402e+00 -3.683050e+00 -2.401102e+00 -3.260334e+00 -2.186607e+00 -1.651242e+00 -1.109574e+00 4.950653e+01 -1.359124e-01 5.402895e-02 7.466935e-02 3.565825e-02 -5.257324e-02 1.811519e-02 2.292029e-02 1.130914e-02 -1.327363e-02 -1.105669e-02 -2.285444e-02 -2.489272e-02 -1.385021e-01 1.293187e-02 5.347618e-03 1.493088e-02 1.354120e-02 7.758058e-03 7.784524e-03 -5.114054e-03 -1.581534e-02 -1.080357e-02 4.050611e-03 4.714950e-04 -6.947564e-03 9.307211e-03
<VARIANCE> 39
 7.278291e+01 3.236359e+01 3.469961e+01 2.739731e+01 2.197793e+01 2.079317e+01 2.306103e+01 1.980117e+01 1.626938e+01 1.472718e+01 1.332283e+01 1.346272e+01 5.475568e+01 3.689828e-01 5.410719e-01 8.216369e-01 7.069956e-01 6.973017e-01 8.396192e-01 8.850000e-01 9.156864e-01 9.257255e-01 8.348979e-01 7.880028e-01 7.329825e-01 1.723440e-01 5.481107e-02 9.047467e-02 1.342609e-01 1.244367e-01 1.245805e-01 1.612729e-01 1.654855e-01 1.760547e-01 1.844436e-01 1.612476e-01 1.545799e-01 1.440885e-01 2.699465e-02
<GCONST> 7.998048e+01
<STATE> 4
<MEAN> 39
 -3.973773e+00 3.138705e-01 5.587868e-01 -2.482524e+00 -1.126047e+00 -3.612545e+00 -4.757906e+00 -2.861061e+00 -2.925576e+00 -2.051816e+00 -1.881935e+00 -1.911182e+00 5.324492e+01 -1.582336e-01 6.625890e-02 2.093033e-01 1.282792e-01 4.047953e-02 1.563033e-01 6.694766e-02 -6.701858e-02 -9.032556e-02 -2.343771e-02 -3.039890e-02 -4.483183e-02 -1.300410e-01 7.746154e-02 -7.596278e-04 3.390055e-03 2.835231e-02 4.016148e-02 2.024157e-02 -8.194824e-03 -2.445525e-02 -1.961431e-02 6.455621e-03 -1.843050e-02 -1.446919e-02 5.921248e-02
<VARIANCE> 39
 1.112373e+02 4.634135e+01 5.237873e+01 4.006007e+01 3.211404e+01 2.898334e+01 3.985110e+01 3.063257e+01 2.055086e+01 2.174922e+01 1.639145e+01 1.642758e+01 6.456232e+01 1.139771e+00 1.259495e+00 1.605644e+00 1.499781e+00 1.171034e+00 1.281770e+00 1.457569e+00 1.266058e+00 1.181244e+00 1.088936e+00 9.922174e-01 8.452504e-01 4.343409e-01 1.854280e-01 2.146776e-01 2.582436e-01 2.586494e-01 2.105670e-01 2.285399e-01 2.594268e-01 2.349506e-01 2.145193e-01 2.049024e-01 1.951164e-01 1.609705e-01 7.895716e-02
<GCONST> 9.829836e+01
<TRANSP> 5
 0.000000e+00 1.000000e+00 0.000000e+00 0.000000e+00 0.000000e+00
 0.000000e+00 8.295208e-01 1.704792e-01 0.000000e+00 0.000000e+00
 0.000000e+00 0.000000e+00 8.708034e-01 1.291967e-01 0.000000e+00
 0.000000e+00 0.000000e+00 0.000000e+00 7.205907e-01 2.794093e-01
 0.000000e+00 0.000000e+00 0.000000e+00 0.000000e+00 0.000000e+00
<ENDHMM>
~h "e"
<BEGINHMM>
<NUMSTATES> 5
<STATE> 2
<MEAN> 39
 2.448362e+00 -3.576171e-01 -1.363748e-02 -2.828894e+00 3.018433e-01 -4.582609e+00 -6.321825e+00 -3.936321e+00 -3.434227e+00 -2.451007e+00 -2.007374e+00 -1.965848e+00 5.923339e+01 2.686474e-01 -1.017178e-02 -6.871256e-02 6.501408e-02 1.071468e-01 4.713856e-02 -4.879406e-02 -8.565835e-02 -4.190314e-02 5.082051e-03 5.018915e-03 2.155313e-02 1.926152e-01 6.498563e-02 1.679758e-02 -3.726478e-03 1.201045e-02 2.113788e-02 -2.650694e-02 -4.121621e-02 -3.066603e-02 1.171454e-02 3.935894e-02 8.845046e-03 -2.063493e-02 4.305952e-02
<VARIANCE> 39
 1.162487e+02 7.046744e+01 9.321246e+01 7.148784e+01 5.473731e+01 5.188456e+01 7.562791e+01 5.767226e+01 3.514655e+01 3.722025e+01 2.809086e+01 2.712758e+01 5.740225e+01 4.926584e+00 3.786925e+00 4.360031e+00 3.599293e+00 2.735464e+00 3.368891e+00 3.821621e+00 2.872198e+00 2.297842e+00 2.189616e+00 1.900355e+00 1.562834e+00 2.061326e+00 6.442977e-01 5.865411e-01 6.306213e-01 5.287978e-01 4.331545e-01 5.520741e-01 6.568341e-01 4.765572e-01 4.046150e-01 3.845918e-01 3.494711e-01 2.663379e-01 3.015491e-01
<GCONST> 1.273137e+02
<STATE> 3
<MEAN> 39
 3.144241e+00 -3.556207e-01 -2.111705e-01 -2.742760e+00 5.259185e-01 -4.597705e+00 -6.515087e+00 -4.147311e+00 -3.486300e+00 -2.351862e+00 -1.932969e+00 -1.904782e+00 5.973327e+01 3.292969e-01 1.861627e-02 -7.066907e-02 5.131388e-02 1.265750e-01 -4.430741e-02 -1.619433e-01 -1.565169e-01 6.174365e-04 1.055593e-01 3.835414e-02 -2.162459e-02 2.383660e-01 -9.307847e-03 1.551982e-02 1.406736e-02 -4.440759e-03 -2.860128e-03 -3.266086e-02 -3.210687e-02 -8.744625e-03 2.639199e-02 3.541721e-02 3.902817e-03 -2.644856e-02 -7.675618e-03
<VARIANCE> 39
 1.103847e+02 7.257138e+01 9.883110e+01 7.640743e+01 5.641734e+01 5.426728e+01 8.070691e+01 6.035635e+01 3.656659e+01 3.943348e+01 2.921447e+01 2.833168e+01 5.352283e+01 5.487079e+00 4.111537e+00 4.606869e+00 3.769439e+00 2.804076e+00 3.704714e+00 4.453283e+00 3.161727e+00 2.408437e+00 2.434194e+00 2.032208e+00 1.589563e+00 2.301902e+00 6.337188e-01 6.254110e-01 6.667313e-01 5.688424e-01 4.517986e-01 5.727412e-01 6.941370e-01 5.089682e-01 4.233902e-01 4.105834e-01 3.690545e-01 2.735462e-01 3.005224e-01
<GCONST> 1.292842e+02
<STATE> 4
<MEAN> 39
 5.250368e+00 -6.103462e-02 -1.008147e+00 -2.114207e+00 1.779442e+00 -5.546008e+00 -9.104475e+00 -6.052726e+00 -3.091395e+00 -1.180818e+00 -1.579265e+00 -2.180776e+00 6.105589e+01 1.245763e-01 9.404531e-02 7.004902e-02 2.480653e-02 6.641621e-02 -2.044171e-02 -3.052147e-02 -3.164697e-02 2.580708e-02 4.490843e-02 9.132984e-03 -3.505483e-02 8.719175e-02 -1.236046e-01 1.351327e-02 7.340409e-02 -7.959393e-03 -4.961272e-02 2.601257e-02 8.842095e-02 7.188911e-02 5.041039e-03 -3.270666e-02 -2.141432e-02 -6.217285e-03 -8.607675e-02
<VARIANCE> 39
 9.775043e+01 6.376781e+01 9.343204e+01 7.803453e+01 6.129172e+01 5.620050e+01 1.044899e+02 7.823492e+01 3.645541e+01 4.614755e+01 3.116093e+01 2.888985e+01 4.414859e+01 4.854714e+00 3.444091e+00 4.494228e+00 3.459892e+00 2.809725e+00 3.585588e+00 4.839725e+00 3.347777e+00 2.389540e+00 2.398942e+00 1.968719e+00 1.561843e+00 2.084442e+00 5.634603e-01 5.478196e-01 6.105558e-01 5.108036e-01 4.470720e-01 5.575401e-01 7.228418e-01 5.498015e-01 4.069207e-01 3.970274e-01 3.538740e-01 2.586054e-01 2.584774e-01
<GCONST> 1.285207e+02
<TRANSP> 5
 0.000000e+00 1.000000e+00 0.000000e+00 0.000000e+00 0.000000e+00
 0.000000e+00 3.940915e-01 6.059085e-01 0.000000e+00 0.000000e+00
 0.000000e+00 0.000000e+00 3.950989e-01 6.049011e-01 0.000000e+00
 0.000000e+00 0.000000e+00 0.000000e+00 5.851203e-01 4.148797e-01
 0.000000e+00 0.000000e+00 0.000000e+00 0.000000e+00 0.000000e+00
<ENDHMM>
~h "f"
<BEGINHMM>
<NUMSTATES> 5
<STATE> 2
<MEAN> 39
 -2.288968e-01 -3.621393e+00 5.334924e+00 -2.613747e+00 -2.088475e+00 -4.487717e+00 -6.685415e+00 -5.049083e+00 -5.089805e+00 -2.460166e-01 -1.345831e-01 -3.826945e+00 6.002736e+01 -2.998661e-02 -7.119141e-01 6.477281e-01 -2.656684e-02 -2.353851e-01 1.801277e-03 -2.868263e-02 -4.554625e-01 -3.463502e-01 2.301448e-01 -6.375227e-02 -1.353096e-01 5.474189e-01 8.187824e-02 -8.264138e-02 -9.307043e-02 3.402069e-02 8.648433e-02 -1.258895e-01 3.091999e-02 8.172258e-02 1.964293e-02 -1.142313e-01 -8.097131e-02 4.315573e-02 1.109749e-01
<VARIANCE> 39
 1.008360e+02 1.013007e+02 8.857289e+01 6.862104e+01 7.461438e+01 8.205816e+01 1.300485e+02 7.617936e+01 3.649627e+01 5.921989e+01 3.232298e+01 2.252791e+01 3.392431e+01 1.085413e+01 8.114691e+00 8.571708e+00 6.284180e+00 5.434076e+00 7.579689e+00 7.233803e+00 4.356100e+00 2.966172e+00 4.310711e+00 2.606494e+00 2.635161e+00 3.381126e+00 9.880227e-01 1.456371e+00 1.070947e+00 1.008052e+00 9.271824e-01 1.028560e+00 1.155161e+00 6.794243e-01 5.008860e-01 7.367242e-01 3.963903e-01 5.235744e-01 4.448360e-01
<GCONST> 1.434332e+02
<STATE> 3
<MEAN> 39
 -1.660188e+00 -6.898305e+00 6.479365e+00 -3.642084e+00 -1.870775e+00 -5.017584e+00 -6.703426e+00 -5.901208e+00 -6.149862e+00 -4.724834e-01 -7.782079e-01 -3.960004e+00 6.150342e+01 3.670495e-01 -1.219338e-01 -8.578756e-03 1.509738e-01 8.796871e-02 -5.054904e-01 -2.224537e-01 -1.015513e-01 -4.393474e-02 -2.268982e-01 -2.373658e-01 -1.316668e-02 4.255994e-01 1.071857e-01 1.763750e-01 -1.420580e-01 9.118163e-02 6.612024e-02 -9.164552e-02 -3.559240e-02 6.576359e-02 3.659149e-02 -1.250834e-01 -4.429553e-02 2.888089e-03 -5.052199e-02
<VARIANCE> 39
 1.243403e+02 1.233663e+02 1.282717e+02 1.033982e+02 8.317174e+01 1.005601e+02 1.208571e+02 6.336262e+01 4.080782e+01 5.318877e+01 3.693087e+01 2.684145e+01 3.247511e+01 9.934322e+00 9.698409e+00 8.180539e+00 8.040139e+00 4.606228e+00 6.576118e+00 6.025100e+00 3.623880e+00 3.091450e+00 4.089273e+00 2.509591e+00 2.463464e+00 3.115838e+00 1.043535e+00 1.543253e+00 1.114705e+00 1.077526e+00 7.299749e-01 1.131928e+00 9.887292e-01 6.106774e-01 5.207667e-01 7.348402e-01 4.472575e-01 4.824804e-01 4.750596e-01
<GCONST> 1.443153e+02
<STATE> 4
<MEAN> 39
 1.208376e+00 -3.936401e+00 3.432956e+00 -1.268652e+00 -5.731526e-01 -8.297933e+00 -7.772542e+00 -4.619839e+00 -5.096402e+00 -1.730141e+00 -1.967564e+00 -4.825178e+00 6.151291e+01 1.168372e-01 6.233243e-02 -7.867088e-02 4.361449e-02 2.836870e-02 -6.363926e-02 -3.773956e-02 2.047372e-02 1.547128e-02 -3.206793e-02 -1.368396e-02 3.182065e-03 3.697123e-02 -8.545230e-03 -4.328295e-03 -9.402137e-03 -1.084706e-02 1.051656e-03 8.660281e-03 6.630808e-03 9.058164e-03 1.351063e-03 4.645117e-04 1.019020e-02 8.507561e-03 -6.417749e-03
<VARIANCE> 39
 1.223932e+02 1.026141e+02 1.061108e+02 1.172400e+02 7.129336e+01 8.252628e+01 9.875904e+01 8.401578e+01 4.454738e+01 4.959756e+01 4.000324e+01 3.996029e+01 4.317377e+01 7.557935e+00 6.558178e+00 6.172628e+00 6.373984e+00 3.812509e+00 6.669552e+00 5.779893e+00 4.394345e+00 3.918046e+00 3.727996e+00 2.541716e+00 2.904975e+00 3.062230e+00 9.811517e-01 1.112186e+00 8.728311e-01 9.482476e-01 6.285154e-01 1.189109e+00 9.472409e-01 7.580411e-01 7.026058e-01 6.626476e-01 4.854311e-01 5.228982e-01 5.160398e-01
<GCONST> 1.434149e+02
<TRANSP> 5
 0.000000e+00 1.000000e+00 0.000000e+00 0.000000e+00 0.000000e+00
 0.000000e+00 7.364903e-01 2.635097e-01 0.000000e+00 0.000000e+00
 0.000000e+00 0.000000e+00 7.447812e-01 2.552188e-01 0.000000e+00
 0.000000e+00 0.000000e+00 0.000000e+00 9.839453e-01 1.605476e-02
 0.000000e+00 0.000000e+00 0.000000e+00 0.000000e+00 0.000000e+00
<ENDHMM>
~h "g"
<BEGINHMM>
<NUMSTATES> 5
<STATE> 2
<MEAN> 39
 6.323861e+00 2.561929e+00 -3.727689e-02 -4.265168e+00 -6.181778e-01 -5.610402e+00 -4.697936e+00 -1.105063e+00 -2.835597e+00 -5.211989e+00 -3.177945e+00 -1.175045e+00 6.140143e+01 -2.207308e-02 -7.338185e-02 -1.390698e-01 -2.573608e-01 -4.420308e-01 -5.191003e-02 5.888040e-01 6.130014e-01 3.782748e-02 -2.931895e-01 -4.700407e-02 2.020257e-01 -1.430017e-02 -2.280602e-02 -5.901454e-02 3.772015e-02 7.335085e-02 3.878608e-02 1.286142e-03 -5.884975e-02 -1.060174e-01 -3.874568e-02 1.004884e-01 3.103652e-02 -5.815773e-02 4.269632e-03
<VARIANCE> 39
 8.178924e+01 6.445406e+01 8.240668e+01 4.896279e+01 5.347216e+01 5.807465e+01 6.698360e+01 6.167696e+01 4.988688e+01 3.895340e+01 3.318084e+01 2.512226e+01 3.239618e+01 3.385790e+00 2.553937e+00 3.779844e+00 3.228993e+00 2.740056e+00 3.796546e+00 2.921983e+00 3.190986e+00 3.008422e+00 2.459154e+00 1.880138e+00 1.527170e+00 1.523465e+00 4.653796e-01 4.047622e-01 5.907469e-01 4.681340e-01 4.677708e-01 5.961770e-01 4.194385e-01 4.785018e-01 4.368732e-01 3.963613e-01 3.220859e-01 2.253803e-01 2.085022e-01
<GCONST> 1.236220e+02
<STATE> 3
<MEAN> 39
 6.014088e+00 2.565856e+00 1.890776e-01 -4.397014e+00 -1.337226e+00 -5.576489e+00 -3.494509e+00 -2.100861e-01 -2.933981e+00 -5.561592e+00 -3.221813e+00 -9.522637e-01 6.120758e+01 -1.387445e-01 -2.112509e-01 1.165074e-02 6.413794e-03 -1.920614e-01 5.707228e-02 3.783179e-01 2.209327e-01 -9.239344e-02 -1.053761e-02 7.976381e-02 7.708431e-02 -3.615515e-02 -5.666323e-03 -6.954354e-02 4.434338e-02 9.616090e-02 9.401666e-02 -2.746435e-02 -1.677358e-01 -1.525445e-01 7.324918e-03 1.480071e-01 3.247637e-02 -8.131427e-02 2.539668e-02
<VARIANCE> 39
 8.484350e+01 6.920137e+01 7.669485e+01 4.489788e+01 5.427234e+01 6.524014e+01 6.532790e+01 6.370006e+01 4.876362e+01 3.991998e+01 3.572101e+01 2.590446e+01 3.250970e+01 3.012904e+00 3.393208e+00 3.769567e+00 3.381454e+00 3.138713e+00 3.755658e+00 2.907761e+00 2.974909e+00 2.941201e+00 2.475208e+00 2.231192e+00 1.555764e+00 1.383391e+00 4.652452e-01 5.124696e-01 5.826674e-01 5.053379e-01 5.409855e-01 6.561588e-01 4.620572e-01 4.556088e-01 4.106121e-01 4.149024e-01 3.828976e-01 2.550903e-01 2.107142e-01
<GCONST> 1.250358e+02
<STATE> 4
<MEAN> 39
 5.339057e+00 5.051958e-01 1.785260e+00 -3.091578e+00 -2.288829e+00 -6.304371e+00 -1.397714e+00 1.081543e+00 -4.168555e+00 -4.923623e+00 -1.987098e+00 -1.529365e+00 6.184286e+01 -3.990096e-01 -6.065196e-01 1.494146e-01 -2.361408e-02 -1.703464e-01 6.162312e-02 7.008149e-02 -1.023572e-01 -1.186893e-01 2.622321e-01 2.478120e-01 -6.666187e-02 -8.556087e-03 -2.194435e-02 3.644223e-02 6.449699e-02 -2.145946e-02 2.432340e-02 -1.510689e-03 -9.951156e-02 -5.417737e-02 3.088027e-02 1.990235e-02 -4.945450e-02 -5.861336e-02 -9.542359e-03
<VARIANCE> 39
 8.969608e+01 8.719141e+01 7.299934e+01 6.424427e+01 7.459003e+01 6.669173e+01 9.399141e+01 6.953833e+01 7.154010e+01 4.138680e+01 4.141599e+01 2.862322e+01 2.918995e+01 3.313407e+00 5.492087e+00 4.750778e+00 5.354510e+00 4.841899e+00 4.810947e+00 6.382230e+00 3.688036e+00 4.318399e+00 3.159670e+00 3.109826e+00 1.986817e+00 1.205560e+00 3.807296e-01 6.859121e-01 6.491402e-01 8.329360e-01 7.602545e-01 7.977386e-01 1.071077e+00 5.489254e-01 6.754767e-01 5.675919e-01 5.756673e-01 3.518387e-01 1.799098e-01
<GCONST> 1.346431e+02
<TRANSP> 5
 0.000000e+00 1.000000e+00 0.000000e+00 0.000000e+00 0.000000e+00
 0.000000e+00 4.854819e-01 5.145181e-01 0.000000e+00 0.000000e+00
 0.000000e+00 0.000000e+00 4.862005e-01 5.137995e-01 0.000000e+00
 0.000000e+00 0.000000e+00 0.000000e+00 7.996774e-01 2.003226e-01
 0.000000e+00 0.000000e+00 0.000000e+00 0.000000e+00 0.000000e+00
<ENDHMM>
~h "i"
<BEGINHMM>
<NUMSTATES> 5
<STATE> 2
<MEAN> 39
 1.258858e+00 -1.019263e+00 2.851093e+00 -4.410704e-01 9.663514e-01 -4.454679e+00 -7.141693e+00 -5.280225e+00 -3.629780e+00 -1.003355e+00 -1.503201e+00 -3.176083e+00 5.908983e+01 2.472891e-01 -2.479022e-01 -5.285537e-02 3.341221e-02 6.680361e-02 -1.134685e-01 -2.934324e-01 -2.844262e-01 -7.459819e-02 2.473219e-01 2.071028e-01 -3.687944e-02 3.116979e-01 9.906847e-02 2.019667e-02 -7.185178e-02 -8.944403e-02 1.334200e-02 -4.614147e-02 -4.608168e-02 1.445347e-02 -6.406724e-03 -3.281656e-02 1.476341e-02 2.070123e-02 7.662235e-02
<VARIANCE> 39
 1.019323e+02 7.717400e+01 8.251400e+01 8.768095e+01 6.916402e+01 6.615691e+01 9.785999e+01 4.964175e+01 3.696417e+01 3.642590e+01 2.920314e+01 2.569493e+01 4.746281e+01 6.075549e+00 5.608333e+00 4.898391e+00 5.360151e+00 3.893173e+00 4.765956e+00 6.183937e+00 2.992427e+00 2.815712e+00 2.828948e+00 2.331477e+00 1.879481e+00 2.544975e+00 7.434461e-01 8.145559e-01 6.955330e-01 7.439731e-01 6.133470e-01 7.711428e-01 9.618431e-01 5.330343e-01 5.034454e-01 4.957589e-01 4.038510e-01 3.255980e-01 3.895824e-01
<GCONST> 1.343222e+02
<STATE> 3
<MEAN> 39
 2.243437e+00 -1.193768e+00 2.315438e+00 -6.496043e-01 1.096419e+00 -4.918339e+00 -7.844674e+00 -5.729628e+00 -3.759854e+00 -6.771098e-01 -1.104269e+00 -3.177116e+00 5.990389e+01 4.388111e-01 -6.421589e-02 -2.444382e-01 -9.572954e-02 1.190922e-01 -1.933237e-01 -3.763618e-01 -1.589144e-01 -2.985201e-03 8.616476e-02 1.499235e-01 4.009556e-02 3.590024e-01 1.228406e-02 3.110562e-02 -6.034229e-02 -5.796038e-02 -1.732633e-03 -2.291842e-02 1.653705e-02 8.539502e-02 3.531342e-02 -8.277285e-02 -3.472085e-02 3.501315e-02 -4.127770e-03
<VARIANCE> 39
 1.014856e+02 7.957778e+01 8.462894e+01 9.332397e+01 7.403111e+01 6.837585e+01 1.090109e+02 5.326957e+01 4.085900e+01 3.716334e+01 3.015708e+01 2.709363e+01 4.382451e+01 6.360695e+00 5.453247e+00 4.902200e+00 5.120070e+00 3.902953e+00 4.629969e+00 6.182577e+00 3.226370e+00 2.866885e+00 2.834518e+00 2.336917e+00 1.943489e+00 2.684006e+00 6.979690e-01 7.872958e-01 6.763079e-01 7.013603e-01 5.897804e-01 7.245470e-01 9.233286e-01 5.532329e-01 5.139492e-01 4.895915e-01 4.083292e-01 3.408733e-01 3.466541e-01
<GCONST> 1.346305e+02
<STATE> 4
<MEAN> 39
 4.769527e+00 -4.514413e-01 1.145758e+00 3.862864e-01 2.909727e+00 -6.488858e+00 -1.143854e+01 -7.083421e+00 -2.926511e+00 -1.196249e-01 -9.424842e-01 -3.635021e+00 6.118018e+01 1.731918e-01 4.222997e-02 -1.887978e-01 -1.943560e-01 7.446737e-03 -1.802561e-02 2.242735e-02 1.403402e-01 8.541251e-02 -8.736865e-02 1.386278e-02 9.587637e-02 1.213124e-01 -1.133579e-01 1.088894e-02 3.299214e-02 -3.024854e-02 -6.286118e-02 3.929796e-02 1.446861e-01 1.028202e-01 1.001782e-02 -6.125502e-02 -4.223426e-02 1.859080e-02 -8.445600e-02
<VARIANCE> 39
 9.283240e+01 6.572440e+01 7.650335e+01 9.530107e+01 7.544765e+01 6.423626e+01 1.212876e+02 6.504565e+01 3.852143e+01 3.866413e+01 3.291748e+01 3.062416e+01 3.810087e+01 4.698432e+00 3.673958e+00 4.025675e+00 4.234841e+00 3.385507e+00 3.982609e+00 5.751729e+00 3.514024e+00 2.484035e+00 2.422360e+00 2.083828e+00 1.965799e+00 2.028878e+00 5.463492e-01 5.745614e-01 5.491015e-01 5.371338e-01 4.837595e-01 6.046169e-01 8.470442e-01 5.979732e-01 4.481126e-01 4.127405e-01 3.628183e-01 3.434159e-01 2.523536e-01
<GCONST> 1.303773e+02
<TRANSP> 5
 0.000000e+00 1.000000e+00 0.000000e+00 0.000000e+00 0.000000e+00
 0.000000e+00 4.783584e-01 5.216417e-01 0.000000e+00 0.000000e+00
 0.000000e+00 0.000000e+00 4.603384e-01 5.396616e-01 0.000000e+00
 0.000000e+00 0.000000e+00 0.000000e+00 6.857654e-01 3.142346e-01
 0.000000e+00 0.000000e+00 0.000000e+00 0.000000e+00 0.000000e+00
<ENDHMM>
~h "j"
<BEGINHMM>
<NUMSTATES> 5
<STATE> 2
<MEAN> 39
 5.255977e+00 1.397683e+00 9.268383e-01 -1.725483e+00 1.988462e+00 -5.245942e+00 -6.730968e+00 -2.861253e+00 -2.068822e+00 -2.482673e+00 -2.273390e+00 -2.220594e+00 6.120152e+01 -4.699610e-01 5.420320e-02 1.442116e-01 -1.229033e-01 -1.075483e-01 2.870542e-01 4.292136e-01 1.509803e-01 1.245456e-02 -1.702959e-01 -3.607355e-02 1.810335e-01 -3.562401e-01 -7.673773e-02 -5.971052e-02 -1.167234e-02 2.061039e-02 -4.544872e-02 -5.975581e-03 -4.741018e-02 -1.348686e-01 -7.476954e-02 3.401249e-02 6.603042e-02 2.459687e-02 -5.608966e-02
<VARIANCE> 39
 9.964612e+01 7.023940e+01 7.673379e+01 8.020604e+01 6.000504e+01 6.149865e+01 8.123705e+01 5.844603e+01 3.544315e+01 2.826056e+01 2.480438e+01 2.534644e+01 3.834708e+01 2.740430e+00 2.710065e+00 2.940840e+00 2.333878e+00 1.988177e+00 2.459807e+00 3.159038e+00 2.618406e+00 2.408577e+00 1.472028e+00 1.637010e+00 1.127178e+00 9.712628e-01 2.579720e-01 4.417253e-01 3.898477e-01 4.123963e-01 3.019554e-01 5.184059e-01 4.754651e-01 4.386863e-01 4.136637e-01 3.080257e-01 3.144030e-01 2.298288e-01 1.800094e-01
<GCONST> 1.185907e+02
<STATE> 3
<MEAN> 39
 3.836381e+00 9.992958e-01 1.022507e+00 -2.064039e+00 1.738466e+00 -4.475759e+00 -5.721440e+00 -3.050205e+00 -2.453052e+00 -2.598322e+00 -1.912888e+00 -1.717476e+00 6.029173e+01 -5.065499e-01 -1.082429e-01 1.821044e-02 -1.584138e-01 -1.746064e-01 2.213900e-01 2.553482e-01 -7.058329e-02 -9.471782e-02 -5.783576e-02 9.429112e-02 1.895659e-01 -3.623908e-01 3.434291e-02 -5.873194e-02 -3.688087e-02 1.852828e-02 -1.704673e-02 -2.388113e-02 -9.118969e-02 -6.036154e-02 -2.021663e-02 5.240621e-02 2.191164e-02 -2.344424e-02 2.533978e-02
<VARIANCE> 39
 1.094996e+02 6.255062e+01 7.746446e+01 6.979301e+01 5.368319e+01 5.497224e+01 7.139389e+01 4.787639e+01 3.321643e+01 2.742690e+01 2.152372e+01 2.356531e+01 4.258752e+01 2.467747e+00 2.893814e+00 2.942493e+00 2.365142e+00 2.365028e+00 2.406968e+00 2.844670e+00 2.202142e+00 2.222215e+00 1.434787e+00 1.590597e+00 1.196020e+00 7.177481e-01 2.961160e-01 4.223948e-01 3.981756e-01 3.896020e-01 2.995299e-01 4.469340e-01 4.095395e-01 3.831157e-01 3.689706e-01 2.721717e-01 2.839621e-01 2.199226e-01 1.553346e-01
<GCONST> 1.162380e+02
<STATE> 4
<MEAN> 39
 -2.774513e+00 -1.481416e+00 -6.363998e-01 -3.963776e+00 -6.803954e-01 -3.830517e+00 -4.375285e+00 -3.195887e+00 -2.641516e+00 -2.144091e+00 -1.988108e+00 -1.432789e+00 5.545502e+01 -3.865915e-01 -1.666467e-01 1.423725e-02 2.282165e-02 -5.748698e-02 1.238224e-01 7.768553e-02 -4.531136e-02 -1.391394e-01 -2.079311e-02 6.924545e-02 9.313679e-02 -2.714727e-01 5.819072e-02 8.658171e-03 1.667414e-03 2.817097e-02 1.018225e-02 -2.019947e-02 -4.212070e-02 -2.696329e-03 4.899660e-03 2.159576e-02 -1.108778e-03 -2.150752e-02 3.562568e-02
<VARIANCE> 39
 1.271331e+02 4.975350e+01 6.576051e+01 4.278934e+01 3.812986e+01 2.757574e+01 3.841058e+01 3.225620e+01 2.016868e+01 1.925368e+01 1.534232e+01 1.755598e+01 5.681362e+01 1.469384e+00 1.657079e+00 1.848810e+00 1.569572e+00 1.733848e+00 1.311501e+00 1.538327e+00 1.453308e+00 1.188626e+00 1.094558e+00 1.285227e+00 1.023079e+00 4.730392e-01 2.093326e-01 2.359439e-01 2.140304e-01 2.145273e-01 2.785012e-01 2.521698e-01 2.549397e-01 2.588357e-01 2.066912e-01 1.909190e-01 2.521908e-01 1.923904e-01 8.561648e-02
<GCONST> 1.012397e+02
<TRANSP> 5
 0.000000e+00 1.000000e+00 0.000000e+00 0.000000e+00 0.000000e+00
 0.000000e+00 4.193960e-01 5.806040e-01 0.000000e+00 0.000000e+00
 0.000000e+00 0.000000e+00 4.194158e-01 5.805843e-01 0.000000e+00
 0.000000e+00 0.000000e+00 0.000000e+00 7.915254e-01 2.084746e-01
 0.000000e+00 0.000000e+00 0.000000e+00 0.000000e+00 0.000000e+00
<ENDHMM>
~h "k"
<BEGINHMM>
<NUMSTATES> 5
<STATE> 2
<MEAN> 39
 6.177173e+00 1.010797e+00 -6.074661e-01 -5.166079e-01 3.543339e+00 -4.893934e+00 -9.670427e+00 -6.058068e+00 -2.375499e+00 -3.424509e-01 -6.396552e-01 -2.084373e+00 6.113896e+01 -5.525916e-02 -5.032306e-03 1.029150e-01 2.157615e-01 3.188578e-01 4.916836e-02 -1.324691e-01 -6.266840e-02 9.575038e-02 2.071531e-01 8.333141e-02 -5.404198e-02 -2.072176e-02 -8.257402e-02 -2.296449e-03 8.368904e-02 -2.826409e-02 -7.752305e-02 5.780152e-03 8.192506e-02 2.378222e-02 -4.295273e-02 -4.115676e-02 -3.476309e-02 -3.027910e-02 -3.683837e-02
<VARIANCE> 39
 8.708316e+01 5.577644e+01 9.730991e+01 7.389971e+01 4.690870e+01 5.384710e+01 1.051935e+02 5.980503e+01 2.841907e+01 2.981887e+01 2.472176e+01 2.451285e+01 4.963919e+01 2.722667e+00 2.696818e+00 3.353328e+00 3.156297e+00 2.182623e+00 2.695791e+00 3.890482e+00 2.318751e+00 1.749859e+00 1.962965e+00 1.668744e+00 1.398913e+00 1.172461e+00 3.905400e-01 4.547820e-01 5.363058e-01 4.691989e-01 3.715240e-01 4.828630e-01 6.458895e-01 3.815277e-01 3.169141e-01 3.247421e-01 2.867477e-01 2.560095e-01 1.862038e-01
<GCONST> 1.204536e+02
<STATE> 3
<MEAN> 39
 5.654653e+00 1.149425e+00 1.407337e-01 3.405678e-02 4.126922e+00 -4.711241e+00 -9.784838e+00 -6.231275e+00 -2.243408e+00 6.960142e-02 -6.045320e-01 -2.411691e+00 6.084668e+01 -1.900205e-01 3.698507e-02 2.679825e-01 1.473453e-01 1.604695e-01 7.041959e-02 2.328100e-02 -3.397503e-02 -3.294983e-03 7.679664e-02 7.494313e-03 -9.224194e-02 -8.933339e-02 -3.413403e-02 1.357356e-02 3.763069e-02 -5.064152e-02 -8.893987e-02 1.578653e-03 8.812502e-02 2.158006e-02 -5.125435e-02 -6.826256e-02 -2.678886e-02 -9.311398e-03 -1.236964e-02
<VARIANCE> 39
 8.528327e+01 5.356780e+01 9.588061e+01 7.606687e+01 4.577476e+01 5.587914e+01 1.030453e+02 6.038103e+01 2.891437e+01 3.054333e+01 2.549779e+01 2.357963e+01 4.634831e+01 2.666975e+00 2.815179e+00 3.316116e+00 3.473739e+00 2.263508e+00 2.880244e+00 4.182607e+00 2.286445e+00 1.844072e+00 2.030989e+00 1.571954e+00 1.426301e+00 1.190211e+00 3.504986e-01 4.255126e-01 4.781153e-01 4.962509e-01 3.848824e-01 4.834016e-01 6.360165e-01 3.901811e-01 3.170086e-01 3.370414e-01 2.734598e-01 2.472092e-01 1.702526e-01
<GCONST> 1.203772e+02
<STATE> 4
<MEAN> 39
 5.819203e+00 1.272336e+00 1.640424e+00 1.080691e+00 5.479093e+00 -5.200134e+00 -1.191580e+01 -7.787384e+00 -1.970358e+00 8.640198e-01 -9.923379e-01 -3.308911e+00 6.139033e+01 -2.766706e-01 5.631636e-02 2.116887e-01 -1.661050e-01 -1.710646e-01 1.553131e-01 3.910346e-01 1.476586e-01 -8.569518e-02 -1.278904e-01 -4.414041e-02 -7.662828e-03 -1.306702e-01 -3.894360e-02 -1.769587e-03 -1.519287e-02 -6.293453e-02 -9.506465e-02 1.308350e-02 9.283483e-02 6.712116e-02 -2.672148e-02 -6.434545e-02 -2.371807e-02 1.258000e-02 -3.081805e-02
<VARIANCE> 39
 7.712292e+01 4.661268e+01 9.111987e+01 9.018593e+01 4.282703e+01 6.685985e+01 1.118272e+02 6.576729e+01 3.679858e+01 3.218114e+01 2.937379e+01 2.373649e+01 3.021447e+01 3.281367e+00 2.780218e+00 3.848297e+00 4.114854e+00 2.612273e+00 3.252990e+00 4.995952e+00 2.910922e+00 2.210973e+00 2.307586e+00 1.807909e+00 1.577221e+00 1.401451e+00 3.895331e-01 4.089110e-01 5.057628e-01 5.459678e-01 4.151304e-01 4.887122e-01 6.759873e-01 4.544286e-01 3.625934e-01 3.775110e-01 3.104467e-01 2.657565e-01 1.665993e-01
<GCONST> 1.234034e+02
<TRANSP> 5
 0.000000e+00 1.000000e+00 0.000000e+00 0.000000e+00 0.000000e+00
 0.000000e+00 4.831547e-01 5.168453e-01 0.000000e+00 0.000000e+00
 0.000000e+00 0.000000e+00 4.815710e-01 5.184290e-01 0.000000e+00
 0.000000e+00 0.000000e+00 0.000000e+00 7.565129e-01 2.434872e-01
 0.000000e+00 0.000000e+00 0.000000e+00 0.000000e+00 0.000000e+00
<ENDHMM>
~h "l"
<BEGINHMM>
<NUMSTATES> 5
<STATE> 2
<MEAN> 39
 4.152138e+00 -2.918029e-02 -6.993091e-01 -2.458688e+00 2.786131e-01 -5.378763e+00 -7.120086e+00 -3.754636e+00 -3.255639e+00 -2.209073e+00 -1.315781e+00 -2.292828e+00 5.999331e+01 2.224527e-01 3.628023e-04 -1.383425e-01 -4.796482e-02 4.660206e-02 -9.246844e-02 -1.201072e-01 -4.751864e-02 4.308342e-02 -8.519640e-03 1.046271e-02 2.977554e-02 1.698552e-01 -3.735788e-03 1.463809e-02 7.431914e-02 4.858124e-02 2.194169e-02 -4.911665e-03 -4.633751e-03 1.029031e-02 5.708494e-03 -2.341037e-03 -3.446069e-02 -2.746178e-02 6.753001e-03
<VARIANCE> 39
 1.122120e+02 6.228154e+01 8.775819e+01 6.792940e+01 6.217946e+01 4.804491e+01 8.469639e+01 6.562291e+01 3.739787e+01 3.817761e+01 2.844353e+01 3.125924e+01 5.533820e+01 4.601742e+00 3.461019e+00 3.919000e+00 3.701399e+00 2.895268e+00 3.902912e+00 5.151809e+00 3.321899e+00 2.602951e+00 2.729770e+00 2.133682e+00 2.037111e+00 2.299822e+00 6.290618e-01 5.005553e-01 5.850353e-01 5.816258e-01 4.678324e-01 6.394696e-01 8.152892e-01 5.256463e-01 4.250240e-01 4.758541e-01 3.766176e-01 3.626013e-01 3.394013e-01
<GCONST> 1.299279e+02
<STATE> 3
<MEAN> 39
 4.572044e+00 7.921606e-02 -7.619889e-01 -2.633151e+00 3.000343e-01 -5.550695e+00 -7.475465e+00 -3.957011e+00 -3.125143e+00 -2.130393e+00 -1.384258e+00 -2.367877e+00 6.034314e+01 1.627398e-01 8.130167e-02 5.728283e-02 7.717799e-02 6.958722e-02 -1.163930e-01 -1.434658e-01 -3.000196e-03 5.662276e-02 -2.413074e-02 -6.798062e-02 -3.127485e-02 1.153105e-01 -4.647084e-02 2.299543e-02 8.420021e-02 5.379536e-02 4.645588e-03 1.766885e-02 4.281332e-02 4.256086e-02 -2.647306e-03 -1.897462e-02 -3.039810e-02 -1.247315e-02 -3.604651e-02
<VARIANCE> 39
 1.078280e+02 6.411878e+01 8.325591e+01 6.180068e+01 5.789753e+01 4.795292e+01 8.406180e+01 6.258981e+01 3.713841e+01 3.655864e+01 2.901387e+01 3.243904e+01 5.228095e+01 4.732490e+00 3.385783e+00 3.785139e+00 3.551396e+00 3.022733e+00 3.939016e+00 5.291679e+00 3.250468e+00 2.586057e+00 2.563787e+00 2.146456e+00 2.131773e+00 2.504709e+00 5.960972e-01 4.980481e-01 5.537806e-01 5.379182e-01 4.584067e-01 6.212435e-01 7.947686e-01 5.242276e-01 4.349422e-01 4.519792e-01 3.829824e-01 3.620781e-01 3.313282e-01
<GCONST> 1.293398e+02
<STATE> 4
<MEAN> 39
 4.943131e+00 -1.034572e-01 -9.257666e-01 -2.308844e+00 4.039808e-01 -6.425768e+00 -8.744293e+00 -4.155666e+00 -2.597662e+00 -2.015981e+00 -1.757576e+00 -2.625982e+00 6.063057e+01 3.260188e-02 1.597107e-01 2.290516e-01 1.748722e-01 5.232580e-02 -2.897253e-02 2.557094e-02 9.669521e-02 1.652195e-02 -1.107834e-01 -1.146151e-01 -4.007901e-02 -6.125568e-03 -8.794400e-02 6.492483e-03 6.351700e-02 1.094807e-02 -9.416784e-03 6.933223e-02 9.607095e-02 2.618044e-02 -1.990555e-02 -1.677792e-02 -1.151476e-02 1.497717e-02 -6.226077e-02
<VARIANCE> 39
 1.095893e+02 6.774731e+01 7.820040e+01 6.079575e+01 5.383885e+01 4.878424e+01 9.092000e+01 5.811367e+01 3.324428e+01 3.433867e+01 2.951956e+01 3.169491e+01 5.494032e+01 4.121573e+00 3.036400e+00 3.327237e+00 3.142413e+00 2.735707e+00 3.546820e+00 4.785528e+00 2.875222e+00 2.190928e+00 2.152218e+00 1.886306e+00 1.829533e+00 2.138496e+00 4.956163e-01 4.417396e-01 4.530723e-01 4.494473e-01 3.884429e-01 5.235090e-01 7.263620e-01 4.715347e-01 3.766063e-01 3.712711e-01 3.497240e-01 3.080938e-01 2.922449e-01
<GCONST> 1.255075e+02
<TRANSP> 5
 0.000000e+00 1.000000e+00 0.000000e+00 0.000000e+00 0.000000e+00
 0.000000e+00 4.480624e-01 5.519376e-01 0.000000e+00 0.000000e+00
 0.000000e+00 0.000000e+00 4.456176e-01 5.543824e-01 0.000000e+00
 0.000000e+00 0.000000e+00 0.000000e+00 5.480512e-01 4.519488e-01
 0.000000e+00 0.000000e+00 0.000000e+00 0.000000e+00 0.000000e+00
<ENDHMM>
~h "m"
<BEGINHMM>
<NUMSTATES> 5
<STATE> 2
<MEAN> 39
 3.843469e+00 9.823281e-01 1.771412e+00 -1.159616e+00 1.382504e+00 -5.135944e+00 -7.143978e+00 -4.833971e+00 -4.390933e+00 -3.424877e+00 -2.711902e+00 -3.241137e+00 6.052911e+01 4.675736e-01 1.000118e-01 -1.144448e-01 -2.355125e-02 1.124945e-01 -1.748721e-01 -3.585784e-01 -7.854903e-02 6.234718e-02 -5.936868e-02 -1.878813e-01 -1.788286e-01 2.899839e-01 -2.140125e-02 -7.572257e-03 -1.328149e-03 -2.390616e-02 -2.043189e-02 -4.951074e-03 -2.251687e-02 -2.333360e-02 3.131506e-02 4.125943e-02 9.278471e-03 3.923561e-02 -1.635182e-02
<VARIANCE> 39
 1.040886e+02 7.742226e+01 8.776456e+01 1.013414e+02 6.355496e+01 6.711448e+01 8.936053e+01 5.757570e+01 4.219820e+01 4.437387e+01 3.248875e+01 3.413661e+01 4.163094e+01 5.326185e+00 4.800493e+00 4.419137e+00 4.427234e+00 3.186270e+00 4.038987e+00 5.525274e+00 3.546212e+00 3.001409e+00 2.698491e+00 2.429115e+00 1.916225e+00 2.038249e+00 6.317467e-01 7.575806e-01 6.020755e-01 6.593339e-01 4.551865e-01 6.915734e-01 8.442032e-01 5.738155e-01 4.727875e-01 4.426353e-01 4.145146e-01 3.229327e-01 2.815920e-01
<GCONST> 1.326472e+02
<STATE> 3
<MEAN> 39
 4.753633e+00 1.189105e+00 1.337767e+00 -1.218436e+00 1.615682e+00 -5.553907e+00 -7.931661e+00 -5.044250e+00 -4.097128e+00 -3.365358e+00 -2.963893e+00 -3.455241e+00 6.102967e+01 2.988146e-01 5.938689e-02 -7.167061e-02 -1.065003e-02 6.215732e-02 -1.337222e-01 -2.960769e-01 -1.216593e-01 1.233414e-01 7.871761e-02 -5.886175e-02 -4.819799e-02 1.838852e-01 -8.796441e-02 4.451242e-03 4.209851e-02 -7.664802e-03 -3.626068e-02 3.749378e-02 4.667163e-02 -7.744188e-03 9.224928e-03 4.668691e-02 4.120265e-02 4.822017e-02 -6.788988e-02
<VARIANCE> 39
 9.494639e+01 7.450639e+01 8.520094e+01 1.027031e+02 6.499834e+01 7.123354e+01 9.750697e+01 6.269566e+01 4.262072e+01 4.434285e+01 3.368457e+01 3.607914e+01 3.860440e+01 4.347724e+00 3.659891e+00 3.921392e+00 3.971188e+00 2.961810e+00 4.120525e+00 5.252438e+00 3.608801e+00 2.852355e+00 2.275107e+00 2.011781e+00 1.778495e+00 1.802758e+00 5.505084e-01 6.899845e-01 5.594674e-01 6.163138e-01 4.474009e-01 6.849424e-01 8.213285e-01 5.275980e-01 4.860175e-01 3.988189e-01 3.697588e-01 3.029970e-01 2.674838e-01
<GCONST> 1.305678e+02
<STATE> 4
<MEAN> 39
 5.877234e+00 1.950361e+00 1.620731e+00 2.045810e-01 2.900576e+00 -7.087041e+00 -1.141366e+01 -7.401253e+00 -3.177373e+00 -2.050824e+00 -3.361788e+00 -4.200245e+00 6.140729e+01 -1.017330e-01 5.049795e-02 8.779458e-02 -1.014396e-01 -3.928770e-02 1.761740e-01 1.575962e-01 5.062745e-02 4.036867e-02 8.669489e-02 7.234197e-02 7.606787e-02 -7.984700e-02 -1.271168e-01 -1.249367e-02 2.770692e-02 -5.087350e-02 -5.024523e-02 6.973661e-02 1.284232e-01 5.776178e-02 -1.154685e-02 8.059262e-04 3.926982e-02 3.980718e-02 -8.368850e-02
<VARIANCE> 39
 7.154260e+01 5.878936e+01 7.983819e+01 1.034858e+02 6.366990e+01 6.879435e+01 1.180025e+02 7.789615e+01 4.370005e+01 5.130544e+01 3.701715e+01 3.661147e+01 3.131707e+01 3.165734e+00 2.262999e+00 3.168656e+00 2.928689e+00 2.087802e+00 3.076811e+00 4.559875e+00 2.896937e+00 2.169188e+00 1.900411e+00 1.732420e+00 1.456837e+00 1.385654e+00 3.586482e-01 4.134220e-01 4.292102e-01 4.047975e-01 3.331134e-01 4.672471e-01 7.101164e-01 4.709954e-01 4.132735e-01 3.253969e-01 2.938037e-01 2.458307e-01 1.650359e-01
<GCONST> 1.231790e+02
<TRANSP> 5
 0.000000e+00 1.000000e+00 0.000000e+00 0.000000e+00 0.000000e+00
 0.000000e+00 4.379342e-01 5.620658e-01 0.000000e+00 0.000000e+00
 0.000000e+00 0.000000e+00 4.309213e-01 5.690786e-01 0.000000e+00
 0.000000e+00 0.000000e+00 0.000000e+00 6.653239e-01 3.346762e-01
 0.000000e+00 0.000000e+00 0.000000e+00 0.000000e+00 0.000000e+00
<ENDHMM>
~h "n"
<BEGINHMM>
<NUMSTATES> 5
<STATE> 2
<MEAN> 39
 4.262746e+00 1.714000e+00 9.908289e-01 -3.276826e+00 -8.533772e-01 -5.152990e+00 -5.462796e+00 -3.428305e+00 -3.741170e+00 -2.754281e+00 -1.964626e+00 -2.181661e+00 6.007608e+01 4.422840e-02 1.365275e-01 1.203846e-01 -6.305355e-02 -1.116815e-01 -4.150582e-02 1.096909e-01 1.469316e-01 1.157976e-01 2.887996e-02 -7.247030e-02 -7.526223e-02 9.323973e-03 -5.493899e-02 -5.857269e-02 1.827955e-03 2.115367e-02 3.818780e-02 3.483720e-02 1.629656e-03 -1.345475e-02 2.691979e-03 3.295749e-02 2.448506e-02 5.364681e-03 -1.952656e-02
<VARIANCE> 39
 9.104358e+01 7.757746e+01 8.608834e+01 6.850272e+01 6.499521e+01 5.797929e+01 7.988548e+01 5.715879e+01 3.782339e+01 3.671125e+01 3.045504e+01 2.737131e+01 4.343913e+01 3.461717e+00 3.418824e+00 3.798241e+00 3.035249e+00 2.639775e+00 3.098427e+00 3.298712e+00 2.557391e+00 2.193756e+00 2.089598e+00 1.895972e+00 1.672555e+00 1.509437e+00 4.172127e-01 5.554929e-01 5.524588e-01 4.236548e-01 4.016549e-01 4.836201e-01 5.359379e-01 4.088209e-01 3.948868e-01 3.605478e-01 3.495587e-01 2.832488e-01 2.228170e-01
<GCONST> 1.240201e+02
<STATE> 3
<MEAN> 39
 4.318762e+00 1.783083e+00 1.199619e+00 -3.309966e+00 -9.515128e-01 -5.098083e+00 -5.260745e+00 -3.263537e+00 -3.632873e+00 -2.695364e+00 -2.064285e+00 -2.369406e+00 6.013969e+01 -2.899951e-02 2.442794e-02 9.035479e-02 -1.894483e-02 -1.261597e-02 1.062200e-02 6.107942e-02 7.312865e-02 9.223755e-02 7.143456e-02 -2.128517e-02 -6.190176e-02 -5.743157e-03 -6.851389e-02 -5.110668e-02 -3.472570e-03 1.629318e-02 4.601907e-02 3.058655e-02 -1.366329e-02 -2.873166e-02 -1.338443e-02 1.732438e-02 2.431744e-02 1.705689e-02 -2.997617e-02
<VARIANCE> 39
 8.750072e+01 7.702255e+01 8.529230e+01 7.052968e+01 6.761309e+01 5.837077e+01 8.114958e+01 5.910938e+01 3.817712e+01 3.885648e+01 3.118230e+01 2.760254e+01 4.094418e+01 3.604794e+00 3.535538e+00 3.943805e+00 3.101740e+00 2.871938e+00 3.291415e+00 3.611794e+00 2.625820e+00 2.382038e+00 2.192472e+00 2.012823e+00 1.714435e+00 1.606171e+00 4.053768e-01 5.785415e-01 5.824383e-01 4.520386e-01 4.465516e-01 5.081497e-01 5.697006e-01 4.267859e-01 4.196341e-01 3.903746e-01 3.701858e-01 2.927448e-01 2.161207e-01
<GCONST> 1.253889e+02
<STATE> 4
<MEAN> 39
 5.063447e+00 2.539106e+00 1.933022e+00 -3.726873e+00 -1.029949e+00 -5.206445e+00 -5.518752e+00 -3.135045e+00 -3.157057e+00 -2.414238e+00 -2.399462e+00 -2.898067e+00 6.065880e+01 -2.052928e-01 -7.486830e-02 8.908670e-02 3.843776e-02 5.797969e-02 9.911714e-02 9.971640e-02 1.343849e-02 3.003001e-02 5.714365e-02 -3.758939e-03 -1.871114e-02 -1.000129e-01 -7.518822e-02 -3.445765e-02 6.466446e-03 1.254437e-02 1.438631e-02 2.499275e-02 1.458350e-02 -1.540486e-02 -1.276582e-02 -2.247702e-03 3.418884e-03 1.581970e-02 -4.071705e-02
<VARIANCE> 39
 8.014223e+01 6.980008e+01 8.164466e+01 7.954298e+01 7.807989e+01 6.025734e+01 9.184945e+01 7.408610e+01 4.209084e+01 4.405528e+01 2.999591e+01 2.620250e+01 3.148812e+01 3.633653e+00 3.725956e+00 4.051715e+00 3.455532e+00 3.232555e+00 3.244988e+00 4.020522e+00 2.911765e+00 2.716477e+00 2.285130e+00 2.026208e+00 1.625706e+00 1.399511e+00 4.379477e-01 5.585027e-01 5.671747e-01 5.373242e-01 4.788907e-01 4.927067e-01 6.258804e-01 4.765081e-01 4.581811e-01 3.875608e-01 3.512078e-01 2.824804e-01 1.830904e-01
<GCONST> 1.264310e+02
<TRANSP> 5
 0.000000e+00 1.000000e+00 0.000000e+00 0.000000e+00 0.000000e+00
 0.000000e+00 4.037238e-01 5.962762e-01 0.000000e+00 0.000000e+00
 0.000000e+00 0.000000e+00 4.082910e-01 5.917090e-01 0.000000e+00
 0.000000e+00 0.000000e+00 0.000000e+00 6.501297e-01 3.498702e-01
 0.000000e+00 0.000000e+00 0.000000e+00 0.000000e+00 0.000000e+00
<ENDHMM>
~h "o"
<BEGINHMM>
<NUMSTATES> 5
<STATE> 2
<MEAN> 39
 3.011950e+00 1.335405e+00 7.901354e-01 -2.435535e+00 3.019978e-01 -4.344054e+00 -5.659450e+00 -3.529549e+00 -3.309365e+00 -2.366231e+00 -1.697089e+00 -2.231882e+00 5.913831e+01 -2.721375e-01 5.872152e-02 1.327177e-01 -4.849651e-02 -9.695997e-02 1.429206e-02 2.137592e-01 2.208674e-01 2.045159e-02 -9.129858e-02 -3.305132e-02 -9.500941e-03 -1.847342e-01 -2.549932e-02 -2.160831e-02 1.575764e-02 4.166944e-02 6.447368e-04 -2.302552e-02 -5.202991e-02 -3.600825e-02 3.655545e-03 2.181490e-02 -2.763241e-03 -1.473682e-02 -2.049310e-02
<VARIANCE> 39
 1.137338e+02 6.464075e+01 8.481230e+01 6.966939e+01 6.138877e+01 6.066199e+01 7.422384e+01 5.033853e+01 3.355846e+01 3.318565e+01 2.666683e+01 2.707304e+01 5.593761e+01 2.533664e+00 2.675655e+00 2.888367e+00 2.777042e+00 2.527871e+00 2.967329e+00 3.110811e+00 2.387429e+00 2.102791e+00 1.826828e+00 1.559203e+00 1.342083e+00 1.109876e+00 3.290471e-01 3.960450e-01 4.468386e-01 4.332545e-01 3.907560e-01 4.722013e-01 4.946102e-01 3.798361e-01 3.665786e-01 3.087357e-01 2.792480e-01 2.376146e-01 1.549596e-01
<GCONST> 1.197407e+02
<STATE> 3
<MEAN> 39
 2.391480e+00 1.362233e+00 1.107635e+00 -2.496962e+00 1.004533e-01 -4.296714e+00 -5.321844e+00 -3.225210e+00 -3.281455e+00 -2.502016e+00 -1.803744e+00 -2.272757e+00 5.873772e+01 -2.591386e-01 6.625726e-03 1.271556e-01 2.698888e-02 -7.548145e-02 -3.209300e-02 8.285567e-02 1.071577e-01 2.701791e-02 -2.648335e-02 -2.334083e-02 -3.447547e-02 -1.770335e-01 3.450657e-02 -2.217313e-02 -6.884512e-03 3.726464e-02 9.240295e-03 -1.336428e-02 -5.497497e-02 -6.280132e-02 -7.979346e-03 3.582742e-02 9.594263e-03 -8.704413e-03 2.142718e-02
<VARIANCE> 39
 1.153899e+02 6.539951e+01 8.237122e+01 6.942738e+01 6.027340e+01 6.170710e+01 7.208526e+01 4.744436e+01 3.201721e+01 3.203105e+01 2.601944e+01 2.613094e+01 5.573909e+01 2.395883e+00 2.690437e+00 2.822301e+00 2.601778e+00 2.267503e+00 2.776173e+00 2.836175e+00 2.315671e+00 2.058315e+00 1.785195e+00 1.506687e+00 1.291529e+00 1.077966e+00 3.406561e-01 3.884856e-01 4.352936e-01 4.253716e-01 3.874000e-01 4.589105e-01 4.592127e-01 3.652962e-01 3.567659e-01 3.027778e-01 2.818013e-01 2.391313e-01 1.622014e-01
<GCONST> 1.187501e+02
<STATE> 4
<MEAN> 39
 2.279193e+00 1.566845e+00 1.597450e+00 -1.835306e+00 2.843519e-01 -4.823042e+00 -5.908990e+00 -3.315618e+00 -2.831396e+00 -2.144879e+00 -1.987586e+00 -2.699440e+00 5.859278e+01 -1.973458e-01 -3.971187e-02 9.794088e-02 5.633965e-02 -3.357358e-02 2.836557e-02 7.082906e-02 7.764679e-03 -1.704337e-02 3.012569e-02 1.756742e-02 -2.130252e-02 -1.307820e-01 6.950623e-02 -2.799227e-02 -3.590544e-02 -8.606961e-03 3.926507e-03 1.283915e-02 -2.544936e-02 -5.770721e-02 -2.478429e-02 2.673132e-02 1.953368e-02 4.353803e-03 5.206382e-02
<VARIANCE> 39
 1.133212e+02 6.594885e+01 7.743285e+01 7.260446e+01 6.184612e+01 6.581551e+01 7.838630e+01 4.868568e+01 3.365657e+01 3.302391e+01 2.482551e+01 2.517216e+01 5.493817e+01 2.527303e+00 2.659109e+00 2.987671e+00 2.619630e+00 2.177139e+00 2.679012e+00 2.952710e+00 2.263811e+00 1.979477e+00 1.744579e+00 1.493540e+00 1.295009e+00 1.129422e+00 3.783854e-01 3.946831e-01 4.239884e-01 4.113770e-01 3.559193e-01 4.538785e-01 4.905927e-01 3.712735e-01 3.523362e-01 3.028054e-01 2.692259e-01 2.365983e-01 1.806707e-01
<GCONST> 1.190169e+02
<TRANSP> 5
 0.000000e+00 1.000000e+00 0.000000e+00 0.000000e+00 0.000000e+00
 0.000000e+00 3.939146e-01 6.060854e-01 0.000000e+00 0.000000e+00
 0.000000e+00 0.000000e+00 3.930852e-01 6.069149e-01 0.000000e+00
 0.000000e+00 0.000000e+00 0.000000e+00 5.143641e-01 4.856359e-01
 0.000000e+00 0.000000e+00 0.000000e+00 0.000000e+00 0.000000e+00
<ENDHMM>
~h "p"
<BEGINHMM>
<NUMSTATES> 5
<STATE> 2
<MEAN> 39
 2.960320e-01 5.936986e-01 2.514503e+00 -2.340595e+00 -7.597536e-01 -4.123688e+00 -4.775526e+00 -3.789898e+00 -3.550221e+00 -3.176410e+00 -2.979787e+00 -2.129729e+00 5.759639e+01 4.428653e-01 -2.111830e-01 -1.871292e-01 -1.939147e-01 -1.242165e-01 -2.118729e-01 -2.326752e-01 -1.847691e-01 5.361634e-02 7.551219e-02 -9.612894e-02 -7.818452e-02 4.377949e-01 2.994234e-01 -5.383817e-03 -6.357893e-02 -2.040335e-02 -2.457277e-03 -9.179088e-02 -1.648177e-01 -4.998864e-02 9.954474e-03 6.432298e-02 6.843734e-02 -4.861629e-02 2.327080e-01
<VARIANCE> 39
 1.057485e+02 8.284287e+01 7.022158e+01 6.388644e+01 6.274189e+01 5.288741e+01 4.950375e+01 4.290614e+01 3.014040e+01 3.542411e+01 2.608234e+01 2.387936e+01 4.697289e+01 6.016782e+00 6.043515e+00 5.089815e+00 4.564956e+00 4.239884e+00 4.608919e+00 4.517045e+00 4.074684e+00 3.022122e+00 2.516495e+00 2.566487e+00 1.827993e+00 2.591564e+00 8.159922e-01 9.978344e-01 8.008129e-01 8.000793e-01 7.952496e-01 8.193614e-01 6.807002e-01 7.021002e-01 5.073314e-01 4.811862e-01 4.644842e-01 3.414787e-01 4.203524e-01
<GCONST> 1.334052e+02
<STATE> 3
<MEAN> 39
 1.181313e+00 1.512254e-01 2.258265e+00 -2.812012e+00 -8.894730e-01 -4.447198e+00 -5.383582e+00 -4.172729e+00 -3.355019e+00 -2.744970e+00 -2.891169e+00 -2.363261e+00 5.854522e+01 8.265430e-01 -2.493240e-01 -2.470333e-01 -1.753407e-01 -7.168840e-02 -3.562753e-01 -5.406173e-01 -2.423801e-01 5.582937e-02 1.559103e-01 6.950985e-02 -1.477181e-01 7.545529e-01 1.827379e-01 -3.123042e-03 -3.729175e-02 1.872413e-02 1.811924e-02 -1.158688e-01 -1.540759e-01 1.007722e-02 -1.650236e-02 -1.246257e-02 5.314701e-02 -3.026356e-02 1.439000e-01
<VARIANCE> 39
 1.028870e+02 8.723209e+01 7.355692e+01 7.271909e+01 6.879940e+01 6.029281e+01 5.491482e+01 5.091266e+01 3.243361e+01 3.534242e+01 2.925189e+01 2.572782e+01 4.506371e+01 8.279058e+00 7.535077e+00 5.799893e+00 5.929999e+00 5.155027e+00 5.699159e+00 5.503929e+00 5.245070e+00 3.646123e+00 3.075873e+00 2.904519e+00 2.169801e+00 3.112521e+00 8.838033e-01 1.076703e+00 8.593372e-01 8.830681e-01 8.965289e-01 9.560505e-01 8.130279e-01 7.651679e-01 5.739970e-01 5.478942e-01 5.307367e-01 3.779006e-01 4.652133e-01
<GCONST> 1.384310e+02
<STATE> 4
<MEAN> 39
 4.305097e+00 -4.402976e+00 1.308684e+00 -3.592208e+00 9.058529e-02 -8.610640e+00 -7.705100e+00 -2.449816e+00 -5.319326e+00 -3.874953e+00 -1.119999e+00 -4.209957e+00 6.443470e+01 1.757208e-01 1.031778e-02 -8.815414e-02 -1.141339e-02 7.730834e-04 -6.173743e-02 -6.264324e-02 2.765599e-03 -2.096999e-02 -2.438657e-02 2.572365e-02 -7.127435e-04 1.121016e-01 -2.927939e-02 9.607282e-03 5.311928e-04 -2.633557e-03 3.043161e-03 1.930053e-02 1.811361e-02 7.342417e-03 3.059466e-03 1.855181e-03 4.506097e-03 5.542611e-03 -2.844196e-02
<VARIANCE> 39
 1.330040e+02 8.511899e+01 1.057870e+02 1.085307e+02 9.232039e+01 8.747984e+01 9.217606e+01 9.581647e+01 5.613551e+01 5.165261e+01 4.937464e+01 4.378698e+01 4.933271e+01 7.474699e+00 5.765126e+00 5.495931e+00 5.954423e+00 4.120144e+00 6.587566e+00 5.414183e+00 4.992527e+00 4.105301e+00 3.604816e+00 3.175112e+00 2.716794e+00 3.250950e+00 8.971819e-01 9.572340e-01 7.780121e-01 9.293282e-01 6.712360e-01 1.131936e+00 8.809445e-01 7.980614e-01 7.154196e-01 6.474164e-01 5.734425e-01 4.734823e-01 5.196285e-01
<GCONST> 1.440389e+02
<TRANSP> 5
 0.000000e+00 1.000000e+00 0.000000e+00 0.000000e+00 0.000000e+00
 0.000000e+00 4.219124e-01 5.780876e-01 0.000000e+00 0.000000e+00
 0.000000e+00 0.000000e+00 4.438170e-01 5.561830e-01 0.000000e+00
 0.000000e+00 0.000000e+00 0.000000e+00 9.648455e-01 3.515451e-02
 0.000000e+00 0.000000e+00 0.000000e+00 0.000000e+00 0.000000e+00
<ENDHMM>
~h "r"
<BEGINHMM>
<NUMSTATES> 5
<STATE> 2
<MEAN> 39
 1.746779e+00 8.476816e-01 9.912396e-01 -2.785958e+00 -1.326418e+00 -5.566564e+00 -5.602234e+00 -3.264091e+00 -3.235185e+00 -2.726548e+00 -2.486527e+00 -2.790180e+00 5.823056e+01 -3.481812e-01 -7.411110e-02 1.268601e-01 3.940075e-02 -6.972166e-02 6.388779e-02 1.306751e-01 1.451947e-01 7.942951e-02 4.986606e-03 -3.695966e-02 6.623946e-04 -2.369350e-01 -3.110494e-02 -2.443499e-02 1.274383e-02 3.294080e-02 2.298640e-02 3.580128e-02 7.905648e-03 -2.103895e-02 -2.896356e-02 1.271311e-02 1.245447e-02 9.911611e-03 -1.920123e-02
<VARIANCE> 39
 1.189081e+02 7.908621e+01 7.647581e+01 7.230934e+01 7.535135e+01 5.839370e+01 7.371780e+01 5.370616e+01 3.292513e+01 3.132250e+01 2.931331e+01 3.002757e+01 5.955978e+01 2.187977e+00 2.378154e+00 2.903831e+00 2.459770e+00 2.342843e+00 2.688982e+00 2.982502e+00 2.285259e+00 1.916002e+00 1.747501e+00 1.612481e+00 1.395536e+00 8.631710e-01 2.977540e-01 3.607123e-01 3.962083e-01 3.867122e-01 3.655644e-01 4.597817e-01 4.955294e-01 3.785071e-01 3.250775e-01 3.082691e-01 3.041441e-01 2.306920e-01 1.245567e-01
<GCONST> 1.185660e+02
<STATE> 3
<MEAN> 39
 9.220387e-01 5.250717e-01 1.128378e+00 -2.553022e+00 -1.162036e+00 -5.220324e+00 -5.360614e+00 -3.121503e+00 -3.207535e+00 -2.633382e+00 -2.415650e+00 -2.692099e+00 5.768428e+01 -3.287166e-01 -7.746498e-02 1.305269e-01 9.272519e-02 -7.212187e-03 1.211397e-01 9.859237e-02 7.022835e-02 1.392349e-02 3.560871e-02 9.260466e-03 1.153300e-02 -2.312957e-01 2.324251e-02 1.015021e-02 -1.008900e-03 2.829785e-02 4.089746e-02 4.128278e-02 -7.167765e-03 -4.496236e-02 -3.971855e-02 8.680065e-03 1.699226e-02 2.846899e-03 8.099842e-03
<VARIANCE> 39
 1.230091e+02 7.999677e+01 7.373395e+01 6.937614e+01 7.039919e+01 5.450853e+01 7.142104e+01 5.169993e+01 3.270287e+01 3.113597e+01 2.834615e+01 2.961954e+01 6.179493e+01 2.092649e+00 2.171241e+00 2.694756e+00 2.336612e+00 2.271719e+00 2.538010e+00 2.873776e+00 2.178561e+00 1.873817e+00 1.731321e+00 1.555227e+00 1.418246e+00 8.121805e-01 2.880562e-01 3.506737e-01 3.736382e-01 3.685938e-01 3.558702e-01 4.510344e-01 4.692163e-01 3.792713e-01 3.244650e-01 2.945707e-01 2.963046e-01 2.332481e-01 1.259387e-01
<GCONST> 1.174380e+02
<STATE> 4
<MEAN> 39
 3.934050e-01 2.311214e-01 1.539146e+00 -1.711580e+00 -6.481400e-01 -5.567065e+00 -6.298518e+00 -3.299565e+00 -3.235768e+00 -2.282459e+00 -2.248198e+00 -3.291455e+00 5.732993e+01 -2.125506e-01 3.562770e-02 1.146591e-01 8.831732e-02 4.557957e-02 2.133324e-01 1.289059e-01 -1.154614e-02 -2.365982e-02 3.368699e-02 9.077323e-03 1.237558e-02 -1.919807e-01 6.015169e-02 3.440976e-02 -1.598142e-02 3.991309e-03 2.449022e-02 3.264608e-02 6.738099e-03 -4.632185e-02 -3.412396e-02 -9.086936e-03 6.025220e-03 1.930945e-02 2.821252e-02
<VARIANCE> 39
 1.237007e+02 7.918738e+01 6.993601e+01 6.786144e+01 7.417664e+01 5.656950e+01 8.742358e+01 6.236921e+01 3.256813e+01 3.364837e+01 2.778861e+01 3.362083e+01 6.357878e+01 2.442479e+00 2.430865e+00 2.537238e+00 2.378036e+00 2.399104e+00 2.693118e+00 3.422637e+00 2.430914e+00 1.982867e+00 1.900061e+00 1.681630e+00 1.484185e+00 9.548854e-01 3.429631e-01 3.625861e-01 3.598617e-01 3.513104e-01 3.601216e-01 4.417426e-01 5.341054e-01 4.101594e-01 3.435758e-01 3.123672e-01 3.002999e-01 2.507592e-01 1.535282e-01
<GCONST> 1.198255e+02
<TRANSP> 5
 0.000000e+00 1.000000e+00 0.000000e+00 0.000000e+00 0.000000e+00
 0.000000e+00 3.967448e-01 6.032552e-01 0.000000e+00 0.000000e+00
 0.000000e+00 0.000000e+00 3.971836e-01 6.028164e-01 0.000000e+00
 0.000000e+00 0.000000e+00 0.000000e+00 5.047667e-01 4.952333e-01
 0.000000e+00 0.000000e+00 0.000000e+00 0.000000e+00 0.000000e+00
<ENDHMM>
~h "s"
<BEGINHMM>
<NUMSTATES> 5
<STATE> 2
<MEAN> 39
 1.180893e+00 -4.184748e-01 1.786634e+00 -1.870388e+00 6.611000e-01 -3.926994e+00 -5.989020e+00 -3.906456e+00 -3.586257e+00 -2.158291e+00 -1.988400e+00 -2.554874e+00 5.860086e+01 1.123372e-01 -2.049008e-01 -1.092895e-01 -6.734795e-02 -1.592510e-02 -2.484091e-02 -9.555082e-02 -5.637553e-02 -1.366979e-02 6.851424e-02 6.797634e-02 1.131001e-02 1.578124e-01 1.064099e-01 6.911786e-03 -4.636524e-02 -3.352500e-02 -4.385672e-03 -8.168899e-02 -7.274631e-02 -2.353920e-02 1.803143e-02 1.857793e-03 1.615915e-02 3.006554e-03 9.034316e-02
<VARIANCE> 39
 1.018224e+02 7.898977e+01 9.166993e+01 7.657395e+01 5.893052e+01 6.514443e+01 8.164301e+01 4.890129e+01 3.264367e+01 3.415538e+01 2.889899e+01 2.769892e+01 5.026092e+01 5.346947e+00 5.040252e+00 5.423023e+00 4.374180e+00 3.237771e+00 4.368489e+00 4.663076e+00 2.849890e+00 2.566098e+00 2.365870e+00 2.132582e+00 1.944440e+00 2.523934e+00 6.926487e-01 7.941415e-01 7.828789e-01 6.764988e-01 5.455642e-01 7.456759e-01 7.678623e-01 4.892624e-01 4.557306e-01 4.385777e-01 3.873601e-01 3.323241e-01 3.781416e-01
<GCONST> 1.317943e+02
<STATE> 3
<MEAN> 39
 1.803934e+00 -7.337497e-01 1.443574e+00 -2.150045e+00 5.921286e-01 -4.268498e+00 -6.347836e+00 -4.007105e+00 -3.553747e+00 -2.079064e+00 -1.815539e+00 -2.482491e+00 5.924415e+01 2.753129e-01 -8.343631e-02 -1.996410e-01 -9.187625e-02 -1.471534e-04 -1.892944e-01 -2.267394e-01 -7.813144e-02 5.961471e-02 5.236797e-02 8.645407e-02 4.825570e-02 2.450103e-01 5.214266e-02 2.908854e-02 -3.117360e-02 -4.642718e-03 1.018253e-02 -5.418674e-02 -4.692002e-02 -1.071072e-02 2.110039e-02 -8.498940e-03 3.810962e-03 6.726654e-03 3.330189e-02
<VARIANCE> 39
 1.016468e+02 7.968232e+01 9.429354e+01 7.949799e+01 5.984204e+01 6.393065e+01 8.355802e+01 5.137505e+01 3.330478e+01 3.409056e+01 2.901218e+01 2.776070e+01 4.831170e+01 6.015791e+00 5.317671e+00 5.555442e+00 4.629586e+00 3.305814e+00 4.399313e+00 5.020346e+00 3.048384e+00 2.659110e+00 2.489993e+00 2.165955e+00 1.920251e+00 2.603103e+00 7.053343e-01 7.976391e-01 7.905607e-01 7.108971e-01 5.365366e-01 7.125394e-01 7.891491e-01 5.130908e-01 4.689544e-01 4.448964e-01 3.995806e-01 3.215410e-01 3.818632e-01
<GCONST> 1.326081e+02
<STATE> 4
<MEAN> 39
 3.077042e+00 -1.420970e-01 7.447079e-01 -1.909110e+00 1.091480e+00 -5.175951e+00 -7.720702e+00 -4.481783e+00 -2.751849e+00 -1.572785e+00 -1.666362e+00 -2.438690e+00 5.984128e+01 2.010877e-01 -3.261848e-02 -2.249586e-01 -9.484152e-02 9.171419e-03 -1.161905e-01 -1.316050e-01 -6.185202e-02 6.616428e-02 4.399054e-02 8.819421e-02 8.228506e-02 1.594633e-01 -2.266759e-02 -2.189528e-02 -5.982688e-04 2.408586e-03 -2.159545e-03 2.183493e-02 4.205168e-02 1.224521e-02 -2.049156e-02 -1.643393e-02 -3.536455e-03 -5.212343e-03 -8.771639e-03
<VARIANCE> 39
 1.065805e+02 7.052969e+01 8.860133e+01 7.883700e+01 5.833384e+01 5.893446e+01 9.324608e+01 5.947276e+01 3.389092e+01 3.412363e+01 2.723887e+01 2.618075e+01 4.912633e+01 5.088955e+00 4.031831e+00 4.643141e+00 3.740133e+00 2.876703e+00 3.691837e+00 4.748958e+00 2.938376e+00 2.397828e+00 2.207168e+00 1.924125e+00 1.653703e+00 2.061302e+00 6.171622e-01 5.901619e-01 6.225430e-01 5.566651e-01 4.552457e-01 5.727895e-01 7.272022e-01 4.913404e-01 4.165587e-01 3.886375e-01 3.418846e-01 2.662869e-01 2.921975e-01
<GCONST> 1.282650e+02
<TRANSP> 5
 0.000000e+00 1.000000e+00 0.000000e+00 0.000000e+00 0.000000e+00
 0.000000e+00 4.261696e-01 5.738304e-01 0.000000e+00 0.000000e+00
 0.000000e+00 0.000000e+00 4.198118e-01 5.801883e-01 0.000000e+00
 0.000000e+00 0.000000e+00 0.000000e+00 5.282626e-01 4.717375e-01
 0.000000e+00 0.000000e+00 0.000000e+00 0.000000e+00 0.000000e+00
<ENDHMM>
~h "t"
<BEGINHMM>
<NUMSTATES> 5
<STATE> 2
<MEAN> 39
 5.778286e-01 -6.726271e-02 1.194191e+00 -2.199020e+00 -1.060254e+00 -4.720162e+00 -4.786266e+00 -2.739161e+00 -3.747734e+00 -2.149164e+00 -1.697392e+00 -2.308121e+00 5.755801e+01 -2.779448e-01 6.919818e-02 1.415173e-01 1.763514e-02 4.712705e-03 1.039813e-01 1.707760e-01 1.428349e-01 -5.315278e-02 -5.474909e-02 -5.337609e-02 -4.286684e-02 -2.307048e-01 -3.820360e-02 -6.091869e-03 -1.096372e-02 -2.750919e-02 2.190260e-02 2.175413e-02 -2.196589e-02 -5.663034e-02 6.712693e-03 1.871107e-03 -3.108869e-03 1.782728e-02 -1.831051e-02
<VARIANCE> 39
 1.101275e+02 7.904248e+01 6.893548e+01 6.091611e+01 5.603267e+01 5.686597e+01 6.423361e+01 4.620762e+01 3.430355e+01 3.802037e+01 2.618574e+01 2.076268e+01 5.693470e+01 2.224223e+00 2.558814e+00 2.705197e+00 2.244889e+00 2.271786e+00 2.589396e+00 2.467572e+00 2.187368e+00 2.016386e+00 1.606912e+00 1.404972e+00 1.160299e+00 7.922385e-01 3.073667e-01 3.508927e-01 4.238251e-01 3.304588e-01 3.671965e-01 4.868062e-01 4.346603e-01 3.790816e-01 3.310145e-01 3.176856e-01 2.706386e-01 2.203144e-01 1.480152e-01
<GCONST> 1.163996e+02
<STATE> 3
<MEAN> 39
 -6.815791e-02 -2.595186e-02 1.328434e+00 -2.191459e+00 -1.009761e+00 -4.480846e+00 -4.568951e+00 -2.680498e+00 -3.856483e+00 -2.250813e+00 -1.805507e+00 -2.344034e+00 5.703021e+01 -2.669632e-01 3.287541e-02 1.130565e-01 -1.342478e-02 3.078270e-02 1.261946e-01 9.437953e-02 1.995592e-02 -2.565101e-02 -2.796756e-02 -5.689317e-02 -2.557524e-02 -1.967918e-01 7.541598e-03 -3.391118e-02 -2.368714e-02 -1.115737e-02 8.502601e-03 8.627484e-03 -2.857758e-02 -6.257544e-02 1.927372e-02 1.591655e-02 2.146135e-03 1.055988e-02 2.357365e-02
<VARIANCE> 39
 1.100449e+02 7.608615e+01 6.718858e+01 5.864495e+01 5.355355e+01 5.405452e+01 6.201549e+01 4.345562e+01 3.426168e+01 3.619782e+01 2.556697e+01 2.023905e+01 5.812229e+01 1.900065e+00 2.319648e+00 2.425417e+00 1.971400e+00 2.194404e+00 2.528085e+00 2.321775e+00 1.978873e+00 1.912807e+00 1.526798e+00 1.338329e+00 1.136252e+00 7.017756e-01 2.974383e-01 3.276159e-01 4.137662e-01 3.156129e-01 3.626379e-01 4.530087e-01 4.216643e-01 3.661609e-01 3.306226e-01 3.063491e-01 2.683831e-01 2.263329e-01 1.368537e-01
<GCONST> 1.145980e+02
<STATE> 4
<MEAN> 39
 -7.621648e-01 1.612162e-01 1.337342e+00 -1.981035e+00 -1.015839e+00 -4.331091e+00 -4.676680e+00 -2.761228e+00 -3.729942e+00 -2.300484e+00 -1.945375e+00 -2.321213e+00 5.623124e+01 -1.949854e-01 -3.977372e-02 6.295684e-02 -4.163617e-03 3.667320e-02 1.491722e-01 5.418390e-02 -8.783899e-02 -2.645608e-03 1.973052e-02 -4.076188e-02 -1.996509e-02 -1.156707e-01 3.976073e-02 -3.728208e-02 -3.221813e-02 2.477324e-04 -3.261502e-03 -9.452082e-03 -2.402127e-02 -4.243283e-02 1.451926e-02 2.307142e-02 1.710694e-02 8.779915e-03 4.343034e-02
<VARIANCE> 39
 1.111089e+02 6.976857e+01 6.427024e+01 5.653017e+01 5.044320e+01 5.196093e+01 6.179895e+01 4.145650e+01 3.374718e+01 3.494953e+01 2.410988e+01 1.944706e+01 6.326149e+01 1.830748e+00 2.165448e+00 2.472128e+00 1.905434e+00 2.124791e+00 2.586399e+00 2.437459e+00 1.900714e+00 1.824867e+00 1.585670e+00 1.320421e+00 1.188599e+00 7.843273e-01 2.934010e-01 3.243085e-01 3.816220e-01 3.019329e-01 3.357234e-01 4.158169e-01 4.255263e-01 3.270708e-01 3.161170e-01 2.878919e-01 2.576402e-01 2.241147e-01 1.341923e-01
<GCONST> 1.136444e+02
<TRANSP> 5
 0.000000e+00 1.000000e+00 0.000000e+00 0.000000e+00 0.000000e+00
 0.000000e+00 3.700658e-01 6.299342e-01 0.000000e+00 0.000000e+00
 0.000000e+00 0.000000e+00 3.782094e-01 6.217905e-01 0.000000e+00
 0.000000e+00 0.000000e+00 0.000000e+00 5.103677e-01 4.896323e-01
 0.000000e+00 0.000000e+00 0.000000e+00 0.000000e+00 0.000000e+00
<ENDHMM>
~h "u"
<BEGINHMM>
<NUMSTATES> 5
<STATE> 2
<MEAN> 39
 3.708694e-01 -2.230342e+00 1.122795e+00 -2.364059e+00 -1.732647e-01 -4.116654e+00 -5.057941e+00 -3.551259e+00 -4.210754e+00 -2.501187e+00 -1.296557e+00 -2.145593e+00 5.892991e+01 2.349237e-01 -2.818704e-01 -2.131556e-02 1.913387e-03 8.331999e-02 -5.674370e-02 -1.096417e-01 -1.721094e-01 -1.176601e-01 6.902448e-03 -6.011282e-02 -6.590942e-02 3.406731e-01 2.145851e-01 1.049713e-01 4.007433e-04 -4.907183e-02 3.400302e-03 -7.908908e-02 -1.279212e-01 -4.761303e-02 2.494141e-02 -4.536406e-02 -3.910468e-02 -1.183890e-02 1.428383e-01
<VARIANCE> 39
 1.107720e+02 7.757056e+01 1.107313e+02 7.936754e+01 5.458565e+01 7.943813e+01 8.272767e+01 4.953161e+01 3.562359e+01 3.721144e+01 3.483028e+01 2.821177e+01 4.929692e+01 7.626543e+00 6.713506e+00 7.363101e+00 6.040233e+00 3.292877e+00 5.216427e+00 5.442420e+00 3.262921e+00 2.915243e+00 3.077412e+00 2.834400e+00 2.112452e+00 3.078160e+00 9.741445e-01 1.050318e+00 1.038300e+00 9.416777e-01 5.910311e-01 8.414512e-01 8.381220e-01 5.722743e-01 4.869049e-01 5.608113e-01 5.344544e-01 3.891130e-01 4.743373e-01
<GCONST> 1.379997e+02
<STATE> 3
<MEAN> 39
 9.481210e-01 -2.888694e+00 1.449686e+00 -2.636521e+00 -2.008507e-01 -4.967752e+00 -6.019824e+00 -4.055710e+00 -4.305717e+00 -2.826766e+00 -1.747604e+00 -2.398863e+00 6.018732e+01 7.069058e-01 1.458570e-01 -2.454965e-02 -5.914078e-02 9.427191e-02 -3.505792e-01 -4.966440e-01 -2.246998e-01 2.493756e-02 -8.639593e-02 -1.459379e-01 -1.983659e-02 5.528277e-01 1.141257e-01 1.639194e-01 -3.363799e-02 -3.830468e-02 -1.648849e-02 -7.952328e-02 -1.170490e-01 -1.492469e-03 9.038188e-02 1.391241e-02 -1.403505e-02 1.552719e-02 1.320686e-02
<VARIANCE> 39
 1.113326e+02 8.490083e+01 1.250424e+02 1.066018e+02 5.813871e+01 9.852547e+01 9.454211e+01 5.287988e+01 4.155639e+01 4.228218e+01 3.825941e+01 2.965875e+01 4.098852e+01 9.098062e+00 8.256894e+00 7.659523e+00 7.087667e+00 3.620724e+00 6.196531e+00 6.685698e+00 3.825600e+00 3.319882e+00 3.300355e+00 3.267780e+00 2.160852e+00 3.539673e+00 1.077193e+00 1.249272e+00 1.236743e+00 1.056320e+00 6.278822e-01 1.108936e+00 9.794815e-01 6.677845e-01 6.225340e-01 6.203411e-01 6.052272e-01 4.052596e-01 5.168032e-01
<GCONST> 1.427571e+02
<STATE> 4
<MEAN> 39
 3.181748e+00 -3.773008e+00 1.887716e+00 -1.358722e+00 3.140728e+00 -6.929888e+00 -1.177594e+01 -4.936281e+00 -3.133464e+00 -1.084709e+00 -4.259118e-01 -3.861068e+00 6.240720e+01 5.318065e-01 2.783490e-01 -2.905752e-01 -1.431604e-01 -7.091300e-02 -2.262817e-01 -2.020096e-01 2.391309e-03 9.568429e-02 -5.228554e-02 -3.068138e-02 5.563533e-02 2.414889e-01 -6.831175e-02 -3.575986e-03 -1.622233e-02 -2.770327e-02 -2.987392e-02 3.163182e-02 9.056115e-02 8.418020e-02 1.255037e-02 -7.916656e-03 2.018725e-02 7.281076e-03 -5.805438e-02
<VARIANCE> 39
 1.253876e+02 8.028703e+01 1.228364e+02 1.172750e+02 6.242463e+01 7.628268e+01 1.271035e+02 6.379036e+01 3.197715e+01 3.681220e+01 4.169208e+01 3.251241e+01 4.321857e+01 8.518492e+00 6.057526e+00 7.380137e+00 5.661175e+00 3.062815e+00 5.396957e+00 7.294195e+00 3.659477e+00 2.629272e+00 2.954787e+00 2.852474e+00 1.948882e+00 3.455343e+00 1.104272e+00 9.749978e-01 1.094170e+00 8.628742e-01 5.418947e-01 9.299422e-01 1.195888e+00 6.288653e-01 4.820449e-01 5.371127e-01 5.327885e-01 3.501556e-01 5.391206e-01
<GCONST> 1.401567e+02
<TRANSP> 5
 0.000000e+00 1.000000e+00 0.000000e+00 0.000000e+00 0.000000e+00
 0.000000e+00 5.127649e-01 4.872351e-01 0.000000e+00 0.000000e+00
 0.000000e+00 0.000000e+00 5.684686e-01 4.315315e-01 0.000000e+00
 0.000000e+00 0.000000e+00 0.000000e+00 8.137525e-01 1.862475e-01
 0.000000e+00 0.000000e+00 0.000000e+00 0.000000e+00 0.000000e+00
<ENDHMM>
~h "w"
<BEGINHMM>
<NUMSTATES> 5
<STATE> 2
<MEAN> 39
 3.649531e+00 1.193751e+00 6.158366e+00 4.782407e+00 3.398132e+00 -8.022276e+00 -1.202618e+01 -5.499998e+00 1.905461e+00 6.779099e-02 -5.159821e+00 -6.214784e+00 6.044888e+01 -1.054415e-01 -5.715058e-02 -2.322457e-01 -2.292643e-01 -6.643473e-02 2.143649e-01 -8.264167e-02 1.744418e-02 1.973885e-01 2.744597e-01 5.617423e-02 3.937167e-02 -1.834836e-01 -1.512854e-03 1.159242e-01 -7.126669e-02 -1.421841e-01 -1.849542e-02 1.715541e-01 2.435012e-01 2.234581e-02 -1.666502e-01 -9.374995e-02 1.467818e-01 1.616749e-01 -4.399819e-02
<VARIANCE> 39
 6.661787e+01 5.934554e+01 1.016625e+02 1.174833e+02 6.034765e+01 4.224448e+01 8.648483e+01 5.822367e+01 4.067770e+01 3.374487e+01 3.290755e+01 2.475153e+01 2.050735e+01 1.558234e+00 1.652361e+00 3.859220e+00 2.814523e+00 1.700842e+00 2.689655e+00 3.744191e+00 2.124922e+00 1.834704e+00 1.977887e+00 1.964372e+00 1.298779e+00 5.279916e-01 1.526794e-01 2.424456e-01 3.437574e-01 3.978347e-01 2.934926e-01 4.178870e-01 6.109991e-01 3.390726e-01 3.197746e-01 2.984859e-01 2.718357e-01 1.624489e-01 5.701037e-02
<GCONST> 1.138833e+02
<STATE> 3
<MEAN> 39
 1.922765e+00 -6.484747e-03 3.208673e+00 -1.539600e-02 2.139662e+00 -4.581005e+00 -9.125547e+00 -4.772478e+00 1.157896e+00 4.429102e-02 -3.229745e+00 -4.036210e+00 5.927871e+01 -3.225043e-01 -5.648116e-02 -2.512411e-01 -5.460492e-01 -2.969391e-01 5.793709e-01 5.562770e-01 1.426186e-01 -3.148557e-01 -1.281323e-01 4.210528e-01 3.742052e-01 -3.189965e-01 -6.101533e-02 7.014462e-02 8.498526e-02 3.454136e-02 -3.865635e-02 -1.592132e-02 1.249150e-01 3.474133e-02 -1.110166e-01 -1.489708e-01 8.660176e-03 5.204033e-02 -3.193958e-02
<VARIANCE> 39
 9.032668e+01 7.993122e+01 1.154191e+02 8.391156e+01 6.661272e+01 3.499810e+01 7.134639e+01 5.009503e+01 2.904797e+01 3.432993e+01 3.099029e+01 2.320920e+01 2.744293e+01 1.772908e+00 2.054238e+00 3.339994e+00 2.758633e+00 1.609627e+00 2.295674e+00 3.791956e+00 1.721924e+00 1.657496e+00 2.202737e+00 1.545265e+00 1.351657e+00 5.499290e-01 1.719690e-01 2.339719e-01 3.085333e-01 2.644045e-01 2.299317e-01 3.302940e-01 5.026557e-01 2.582497e-01 2.333194e-01 3.040076e-01 2.538522e-01 1.781548e-01 5.772700e-02
<GCONST> 1.116685e+02
<STATE> 4
<MEAN> 39
 -4.639002e+00 -6.514251e+00 5.328348e+00 -2.048235e+00 -4.102806e+00 -2.286000e+00 -2.984804e+00 -2.795392e+00 -2.766990e+00 -2.296456e+00 -1.061759e-01 -2.504567e+00 5.745310e+01 -2.349160e-01 2.788659e-01 -2.960963e-01 6.878866e-02 -2.225587e-01 -2.303017e-01 5.114957e-01 1.533441e-01 -5.090948e-01 -1.603370e-01 1.558620e-01 1.345850e-01 -4.240120e-01 3.094249e-02 7.973561e-02 -6.856655e-03 5.080094e-02 6.252144e-02 -8.247119e-02 -7.064790e-02 -1.853871e-02 1.992439e-04 -3.937342e-02 -6.822667e-02 -2.452353e-02 -4.172433e-03
<VARIANCE> 39
 1.055758e+02 1.378331e+02 1.280976e+02 4.022802e+01 9.254688e+01 2.976846e+01 6.559483e+01 2.923108e+01 3.460686e+01 2.565862e+01 2.199436e+01 1.395087e+01 3.249442e+01 1.017816e+00 1.390126e+00 2.002309e+00 1.422258e+00 1.355225e+00 1.773544e+00 2.719618e+00 1.552089e+00 1.306900e+00 1.973008e+00 1.118916e+00 9.314399e-01 4.538792e-01 1.300769e-01 1.624788e-01 2.088917e-01 1.875900e-01 1.956965e-01 2.237049e-01 5.642277e-01 2.433072e-01 2.393510e-01 3.851765e-01 1.950504e-01 1.586935e-01 6.906360e-02
<GCONST> 1.044530e+02
<TRANSP> 5
 0.000000e+00 1.000000e+00 0.000000e+00 0.000000e+00 0.000000e+00
 0.000000e+00 6.398600e-01 3.601399e-01 0.000000e+00 0.000000e+00
 0.000000e+00 0.000000e+00 5.607848e-01 4.392152e-01 0.000000e+00
 0.000000e+00 0.000000e+00 0.000000e+00 7.438695e-01 2.561306e-01
 0.000000e+00 0.000000e+00 0.000000e+00 0.000000e+00 0.000000e+00
<ENDHMM>
~h "x"
<BEGINHMM>
<NUMSTATES> 5
<STATE> 2
<MEAN> 39
 2.825518e+00 1.854875e-01 6.262411e-01 -2.886594e+00 1.972988e+00 -3.920218e+00 -6.769754e+00 -5.480857e+00 -3.329550e+00 -2.332810e+00 -2.337111e+00 -1.784930e+00 5.993836e+01 -3.058438e-01 -3.139171e-01 -1.955208e-01 -1.844466e-01 4.460199e-03 2.209973e-01 -3.146204e-02 -9.150030e-02 -8.808026e-02 -7.412402e-02 -5.506839e-02 7.068566e-02 -1.475727e-01 1.070326e-01 -1.545700e-02 -1.030153e-01 1.284356e-03 -8.757991e-02 -1.426704e-01 -4.902810e-02 4.223870e-02 2.545912e-02 1.203050e-02 3.048723e-02 -1.826950e-02 4.764799e-02
<VARIANCE> 39
 1.194628e+02 4.926436e+01 9.758470e+01 7.796571e+01 4.472022e+01 5.934661e+01 8.876701e+01 4.538649e+01 2.024437e+01 3.366923e+01 2.614961e+01 1.489194e+01 4.105869e+01 2.904003e+00 1.322163e+00 2.545755e+00 3.901716e+00 3.020848e+00 5.394121e+00 3.741709e+00 1.590302e+00 1.659265e+00 1.729822e+00 1.626127e+00 1.153102e+00 1.184164e+00 4.345793e-01 2.311181e-01 4.870469e-01 5.283952e-01 4.163809e-01 6.910439e-01 5.811203e-01 2.789944e-01 2.929638e-01 2.575279e-01 2.523634e-01 2.056673e-01 1.821025e-01
<GCONST> 1.177847e+02
<STATE> 3
<MEAN> 39
 2.495657e+00 -8.010979e-01 -1.280501e-01 -3.266811e+00 1.862132e+00 -4.324385e+00 -7.455087e+00 -5.698755e+00 -3.444420e+00 -2.404042e+00 -2.402843e+00 -1.569576e+00 5.995078e+01 7.640568e-02 -2.876644e-01 -3.865934e-01 -1.666398e-01 -9.750576e-02 -8.771929e-02 -1.812799e-01 -3.840212e-03 -2.012456e-02 -9.867860e-02 -1.211141e-02 4.331232e-02 7.668899e-02 1.451748e-01 1.683459e-02 -4.800134e-02 9.541571e-02 -2.421410e-02 -1.346771e-01 -3.505739e-02 3.588210e-02 1.178866e-03 -1.066653e-02 1.931078e-02 -3.085521e-02 7.227577e-02
<VARIANCE> 39
 1.296989e+02 4.621378e+01 9.824786e+01 9.563774e+01 5.214153e+01 6.025834e+01 8.323598e+01 4.372283e+01 1.998636e+01 3.396191e+01 2.757493e+01 1.261974e+01 4.413454e+01 2.639637e+00 1.462273e+00 2.953371e+00 4.349652e+00 3.638514e+00 5.214614e+00 3.768405e+00 1.438380e+00 1.532183e+00 1.473500e+00 1.395355e+00 1.012707e+00 1.117049e+00 4.029761e-01 2.491636e-01 4.806575e-01 5.800166e-01 5.116547e-01 7.705370e-01 5.721562e-01 2.508334e-01 2.739401e-01 2.471994e-01 2.499311e-01 1.815922e-01 1.712081e-01
<GCONST> 1.177455e+02
<STATE> 4
<MEAN> 39
 9.563351e+00 -2.458561e+00 -6.263686e+00 -1.817819e+00 4.108269e+00 -7.858130e+00 -1.225097e+01 -7.167109e+00 -3.124040e+00 -1.999717e+00 -1.083638e+00 -1.231613e+00 6.442400e+01 -1.884042e-01 -7.958664e-03 1.268481e-01 -2.968181e-02 -5.892736e-02 5.316784e-02 1.259050e-01 5.189374e-02 -2.613072e-03 5.265859e-02 6.709042e-02 -3.409898e-02 -1.076465e-01 -3.892682e-02 2.104812e-02 7.841731e-02 7.032325e-02 1.756801e-02 1.887395e-02 6.752107e-02 2.727149e-02 -1.511891e-02 -5.024854e-03 -1.056658e-02 -1.603404e-02 -2.638387e-02
<VARIANCE> 39
 7.581917e+01 3.613269e+01 7.853677e+01 9.319093e+01 4.681441e+01 5.798230e+01 6.570486e+01 5.345758e+01 2.882156e+01 3.814406e+01 3.442745e+01 1.751027e+01 3.098531e+01 2.392939e+00 2.085318e+00 3.517236e+00 3.748233e+00 2.001127e+00 3.777244e+00 3.151194e+00 1.477508e+00 1.504272e+00 1.413794e+00 1.632898e+00 1.008205e+00 1.095076e+00 2.890825e-01 3.466058e-01 4.788699e-01 5.240822e-01 3.617262e-01 6.483694e-01 4.575132e-01 2.450866e-01 2.427328e-01 1.932703e-01 2.851282e-01 1.485128e-01 1.420023e-01
<GCONST> 1.149956e+02
<TRANSP> 5
 0.000000e+00 1.000000e+00 0.000000e+00 0.000000e+00 0.000000e+00
 0.000000e+00 5.112492e-01 4.887508e-01 0.000000e+00 0.000000e+00
 0.000000e+00 0.000000e+00 5.128959e-01 4.871041e-01 0.000000e+00
 0.000000e+00 0.000000e+00 0.000000e+00 8.876940e-01 1.123061e-01
 0.000000e+00 0.000000e+00 0.000000e+00 0.000000e+00 0.000000e+00
<ENDHMM>
~h "en"
<BEGINHMM>
<NUMSTATES> 5
<STATE> 2
<MEAN> 39
 -4.314049e-01 -5.443133e-01 7.105690e-01 -1.882667e+00 -3.413527e-01 -4.598181e+00 -6.314186e+00 -3.848403e+00 -3.601575e+00 -2.169887e+00 -1.884693e+00 -2.491360e+00 5.700534e+01 -2.864336e-03 -3.153083e-03 -6.210326e-04 -1.859146e-03 -1.025149e-03 4.018572e-05 -4.212186e-04 -9.370550e-04 -1.112693e-03 -1.571401e-03 -1.379302e-03 -1.582626e-03 3.459415e-04 -2.076533e-04 1.121370e-04 -6.082775e-04 5.937807e-05 7.690147e-05 -5.380236e-05 9.022583e-05 2.522134e-04 1.281000e-04 2.276354e-04 9.980684e-05 1.737125e-04 -8.036671e-04
<VARIANCE> 39
 1.333756e+02 6.639448e+01 7.486684e+01 6.636140e+01 5.702890e+01 5.689030e+01 7.521648e+01 5.588811e+01 3.375542e+01 3.396556e+01 2.727465e+01 2.558422e+01 7.908179e+01 3.510822e+00 2.990041e+00 3.288318e+00 2.986253e+00 2.462860e+00 3.071138e+00 3.491724e+00 2.597442e+00 2.153173e+00 2.003538e+00 1.724022e+00 1.500141e+00 1.490820e+00 4.316568e-01 4.629386e-01 4.683719e-01 4.500415e-01 3.964934e-01 5.051396e-01 5.511611e-01 4.319685e-01 3.792876e-01 3.504571e-01 3.135985e-01 2.653124e-01 2.156326e-01
<GCONST> 1.230944e+02
<STATE> 3
<MEAN> 39
 -4.314049e-01 -5.443133e-01 7.105690e-01 -1.882667e+00 -3.413527e-01 -4.598181e+00 -6.314186e+00 -3.848403e+00 -3.601575e+00 -2.169887e+00 -1.884693e+00 -2.491360e+00 5.700534e+01 -2.864336e-03 -3.153083e-03 -6.210326e-04 -1.859146e-03 -1.025149e-03 4.018572e-05 -4.212186e-04 -9.370550e-04 -1.112693e-03 -1.571401e-03 -1.379302e-03 -1.582626e-03 3.459415e-04 -2.076533e-04 1.121370e-04 -6.082775e-04 5.937807e-05 7.690147e-05 -5.380236e-05 9.022583e-05 2.522134e-04 1.281000e-04 2.276354e-04 9.980684e-05 1.737125e-04 -8.036671e-04
<VARIANCE> 39
 1.333756e+02 6.639448e+01 7.486684e+01 6.636140e+01 5.702890e+01 5.689030e+01 7.521648e+01 5.588811e+01 3.375542e+01 3.396556e+01 2.727465e+01 2.558422e+01 7.908179e+01 3.510822e+00 2.990041e+00 3.288318e+00 2.986253e+00 2.462860e+00 3.071138e+00 3.491724e+00 2.597442e+00 2.153173e+00 2.003538e+00 1.724022e+00 1.500141e+00 1.490820e+00 4.316568e-01 4.629386e-01 4.683719e-01 4.500415e-01 3.964934e-01 5.051396e-01 5.511611e-01 4.319685e-01 3.792876e-01 3.504571e-01 3.135985e-01 2.653124e-01 2.156326e-01
<GCONST> 1.230944e+02
<STATE> 4
<MEAN> 39
 -4.314049e-01 -5.443133e-01 7.105690e-01 -1.882667e+00 -3.413527e-01 -4.598181e+00 -6.314186e+00 -3.848403e+00 -3.601575e+00 -2.169887e+00 -1.884693e+00 -2.491360e+00 5.700534e+01 -2.864336e-03 -3.153083e-03 -6.210326e-04 -1.859146e-03 -1.025149e-03 4.018572e-05 -4.212186e-04 -9.370550e-04 -1.112693e-03 -1.571401e-03 -1.379302e-03 -1.582626e-03 3.459415e-04 -2.076533e-04 1.121370e-04 -6.082775e-04 5.937807e-05 7.690147e-05 -5.380236e-05 9.022583e-05 2.522134e-04 1.281000e-04 2.276354e-04 9.980684e-05 1.737125e-04 -8.036671e-04
<VARIANCE> 39
 1.333756e+02 6.639448e+01 7.486684e+01 6.636140e+01 5.702890e+01 5.689030e+01 7.521648e+01 5.588811e+01 3.375542e+01 3.396556e+01 2.727465e+01 2.558422e+01 7.908179e+01 3.510822e+00 2.990041e+00 3.288318e+00 2.986253e+00 2.462860e+00 3.071138e+00 3.491724e+00 2.597442e+00 2.153173e+00 2.003538e+00 1.724022e+00 1.500141e+00 1.490820e+00 4.316568e-01 4.629386e-01 4.683719e-01 4.500415e-01 3.964934e-01 5.051396e-01 5.511611e-01 4.319685e-01 3.792876e-01 3.504571e-01 3.135985e-01 2.653124e-01 2.156326e-01
<GCONST> 1.230944e+02
<TRANSP> 5
 0.000000e+00 1.000000e+00 0.000000e+00 0.000000e+00 0.000000e+00
 0.000000e+00 6.000000e-01 4.000000e-01 0.000000e+00 0.000000e+00
 0.000000e+00 0.000000e+00 6.000000e-01 4.000000e-01 0.000000e+00
 0.000000e+00 0.000000e+00 0.000000e+00 7.000000e-01 3.000000e-01
 0.000000e+00 0.000000e+00 0.000000e+00 0.000000e+00 0.000000e+00
<ENDHMM>
~h "js"
<BEGINHMM>
<NUMSTATES> 5
<STATE> 2
<MEAN> 39
 -4.314049e-01 -5.443133e-01 7.105690e-01 -1.882667e+00 -3.413527e-01 -4.598181e+00 -6.314186e+00 -3.848403e+00 -3.601575e+00 -2.169887e+00 -1.884693e+00 -2.491360e+00 5.700534e+01 -2.864336e-03 -3.153083e-03 -6.210326e-04 -1.859146e-03 -1.025149e-03 4.018572e-05 -4.212186e-04 -9.370550e-04 -1.112693e-03 -1.571401e-03 -1.379302e-03 -1.582626e-03 3.459415e-04 -2.076533e-04 1.121370e-04 -6.082775e-04 5.937807e-05 7.690147e-05 -5.380236e-05 9.022583e-05 2.522134e-04 1.281000e-04 2.276354e-04 9.980684e-05 1.737125e-04 -8.036671e-04
<VARIANCE> 39
 1.333756e+02 6.639448e+01 7.486684e+01 6.636140e+01 5.702890e+01 5.689030e+01 7.521648e+01 5.588811e+01 3.375542e+01 3.396556e+01 2.727465e+01 2.558422e+01 7.908179e+01 3.510822e+00 2.990041e+00 3.288318e+00 2.986253e+00 2.462860e+00 3.071138e+00 3.491724e+00 2.597442e+00 2.153173e+00 2.003538e+00 1.724022e+00 1.500141e+00 1.490820e+00 4.316568e-01 4.629386e-01 4.683719e-01 4.500415e-01 3.964934e-01 5.051396e-01 5.511611e-01 4.319685e-01 3.792876e-01 3.504571e-01 3.135985e-01 2.653124e-01 2.156326e-01
<GCONST> 1.230944e+02
<STATE> 3
<MEAN> 39
 -4.314049e-01 -5.443133e-01 7.105690e-01 -1.882667e+00 -3.413527e-01 -4.598181e+00 -6.314186e+00 -3.848403e+00 -3.601575e+00 -2.169887e+00 -1.884693e+00 -2.491360e+00 5.700534e+01 -2.864336e-03 -3.153083e-03 -6.210326e-04 -1.859146e-03 -1.025149e-03 4.018572e-05 -4.212186e-04 -9.370550e-04 -1.112693e-03 -1.571401e-03 -1.379302e-03 -1.582626e-03 3.459415e-04 -2.076533e-04 1.121370e-04 -6.082775e-04 5.937807e-05 7.690147e-05 -5.380236e-05 9.022583e-05 2.522134e-04 1.281000e-04 2.276354e-04 9.980684e-05 1.737125e-04 -8.036671e-04
<VARIANCE> 39
 1.333756e+02 6.639448e+01 7.486684e+01 6.636140e+01 5.702890e+01 5.689030e+01 7.521648e+01 5.588811e+01 3.375542e+01 3.396556e+01 2.727465e+01 2.558422e+01 7.908179e+01 3.510822e+00 2.990041e+00 3.288318e+00 2.986253e+00 2.462860e+00 3.071138e+00 3.491724e+00 2.597442e+00 2.153173e+00 2.003538e+00 1.724022e+00 1.500141e+00 1.490820e+00 4.316568e-01 4.629386e-01 4.683719e-01 4.500415e-01 3.964934e-01 5.051396e-01 5.511611e-01 4.319685e-01 3.792876e-01 3.504571e-01 3.135985e-01 2.653124e-01 2.156326e-01
<GCONST> 1.230944e+02
<STATE> 4
<MEAN> 39
 -4.314049e-01 -5.443133e-01 7.105690e-01 -1.882667e+00 -3.413527e-01 -4.598181e+00 -6.314186e+00 -3.848403e+00 -3.601575e+00 -2.169887e+00 -1.884693e+00 -2.491360e+00 5.700534e+01 -2.864336e-03 -3.153083e-03 -6.210326e-04 -1.859146e-03 -1.025149e-03 4.018572e-05 -4.212186e-04 -9.370550e-04 -1.112693e-03 -1.571401e-03 -1.379302e-03 -1.582626e-03 3.459415e-04 -2.076533e-04 1.121370e-04 -6.082775e-04 5.937807e-05 7.690147e-05 -5.380236e-05 9.022583e-05 2.522134e-04 1.281000e-04 2.276354e-04 9.980684e-05 1.737125e-04 -8.036671e-04
<VARIANCE> 39
 1.333756e+02 6.639448e+01 7.486684e+01 6.636140e+01 5.702890e+01 5.689030e+01 7.521648e+01 5.588811e+01 3.375542e+01 3.396556e+01 2.727465e+01 2.558422e+01 7.908179e+01 3.510822e+00 2.990041e+00 3.288318e+00 2.986253e+00 2.462860e+00 3.071138e+00 3.491724e+00 2.597442e+00 2.153173e+00 2.003538e+00 1.724022e+00 1.500141e+00 1.490820e+00 4.316568e-01 4.629386e-01 4.683719e-01 4.500415e-01 3.964934e-01 5.051396e-01 5.511611e-01 4.319685e-01 3.792876e-01 3.504571e-01 3.135985e-01 2.653124e-01 2.156326e-01
<GCONST> 1.230944e+02
<TRANSP> 5
 0.000000e+00 1.000000e+00 0.000000e+00 0.000000e+00 0.000000e+00
 0.000000e+00 6.000000e-01 4.000000e-01 0.000000e+00 0.000000e+00
 0.000000e+00 0.000000e+00 6.000000e-01 4.000000e-01 0.000000e+00
 0.000000e+00 0.000000e+00 0.000000e+00 7.000000e-01 3.000000e-01
 0.000000e+00 0.000000e+00 0.000000e+00 0.000000e+00 0.000000e+00
<ENDHMM>
~h "ks"
<BEGINHMM>
<NUMSTATES> 5
<STATE> 2
<MEAN> 39
 4.806656e+00 -1.660591e+00 -8.790016e-01 -3.968634e+00 -1.840430e+00 -6.455297e+00 -3.246931e+00 7.260320e+00 -3.767408e+00 -4.587811e+00 -6.157196e-02 -3.928230e+00 6.097604e+01 -3.069347e-01 1.989690e-01 2.305129e-01 1.763985e-02 -1.121225e+00 -2.193482e-01 6.165675e-01 9.644905e-01 7.521110e-01 -9.110352e-02 1.984416e-01 -2.548040e-01 -3.936316e-01 1.857108e-02 -9.554012e-02 -9.512685e-02 1.039127e-01 2.932921e-01 2.287340e-01 3.244290e-02 -4.550316e-01 -1.425567e-01 7.837262e-03 -1.360548e-01 1.710818e-01 6.408925e-02
<VARIANCE> 39
 1.613163e+02 3.304427e+01 4.699591e+01 4.100106e+01 2.589561e+01 7.832721e+01 3.237347e+01 1.032625e+02 4.396667e+01 5.485457e+01 2.244841e+01 2.204987e+01 8.143358e+01 1.111566e+00 3.059964e+00 2.749669e+00 3.122008e+00 2.831888e+00 3.133717e+00 2.962907e+00 5.105287e+00 2.300298e+00 1.254105e+00 3.453025e+00 2.519433e+00 9.638181e-01 1.294756e-01 5.822317e-01 2.783344e-01 3.404364e-01 4.482772e-01 6.722405e-01 5.370381e-01 5.344776e-01 5.761244e-01 2.837581e-01 7.491450e-01 5.456892e-01 3.595417e-01
<GCONST> 1.222859e+02
<STATE> 3
<MEAN> 39
 -2.535802e+00 2.824976e-01 1.081672e+00 -5.930747e-01 -1.661390e+00 -9.827392e-01 8.903615e-01 4.613204e+00 -1.518262e+00 -2.338722e+00 -1.122770e+00 -2.706767e+00 5.368218e+01 -1.130707e-01 -9.834481e-02 -1.922150e-01 1.259396e-01 -9.630211e-02 3.120059e-01 5.012807e-01 9.726522e-02 -4.175121e-02 -2.309123e-01 -1.326693e-01 -1.293765e-01 -1.612663e-01 1.360334e-01 -1.180580e-01 -8.795699e-02 -4.104121e-02 1.064629e-01 -2.852402e-02 -4.255514e-02 -6.164386e-02 -1.239743e-01 -1.179208e-01 -4.296628e-02 5.129443e-02 1.691311e-01
<VARIANCE> 39
 1.356770e+02 1.959355e+01 1.887446e+01 3.011555e+01 1.650032e+01 4.121175e+01 3.118245e+01 4.643851e+01 2.909516e+01 2.980009e+01 1.413576e+01 1.633907e+01 7.689122e+01 9.357943e-01 1.406213e+00 1.214484e+00 1.542876e+00 1.082201e+00 1.998971e+00 1.842685e+00 2.401903e+00 1.897159e+00 1.679255e+00 1.695742e+00 1.091549e+00 6.244117e-01 1.683391e-01 2.160302e-01 1.478629e-01 2.480277e-01 2.510684e-01 3.709258e-01 4.511016e-01 5.117976e-01 3.537606e-01 2.494784e-01 3.109749e-01 2.673609e-01 2.280188e-01
<GCONST> 1.038680e+02
<STATE> 4
<MEAN> 39
 3.004822e+00 -4.939857e+00 -2.334860e+00 -3.548507e+00 1.189058e+00 -5.206338e+00 -5.373337e+00 5.462832e+00 -4.430001e+00 -5.650773e+00 3.034880e+00 3.333788e-01 6.082238e+01 6.678838e-02 -3.170565e-02 7.380717e-03 3.993156e-02 4.563911e-02 -6.100966e-02 -6.975256e-02 -4.706324e-02 -7.673267e-02 -2.094156e-02 2.459283e-02 2.166449e-02 7.176864e-02 -7.353477e-03 1.639453e-02 1.955095e-02 2.702788e-05 9.183588e-03 1.638137e-02 1.125059e-03 -1.737817e-02 1.706269e-03 1.081923e-02 -1.269988e-02 2.835604e-03 -8.307809e-03
<VARIANCE> 39
 1.049988e+02 7.957375e+01 6.579659e+01 7.097488e+01 6.408040e+01 7.459672e+01 8.332536e+01 5.760241e+01 5.636631e+01 4.911845e+01 2.456875e+01 3.031591e+01 7.856210e+01 3.989263e+00 3.716500e+00 3.210057e+00 3.647601e+00 2.711060e+00 5.189299e+00 4.280056e+00 3.759917e+00 2.952308e+00 3.366296e+00 1.839904e+00 1.889723e+00 3.247132e+00 4.393499e-01 5.147651e-01 4.618568e-01 6.434122e-01 4.673749e-01 8.728350e-01 6.961939e-01 5.831009e-01 5.069170e-01 5.421220e-01 3.516487e-01 3.389418e-01 4.207076e-01
<GCONST> 1.315251e+02
<TRANSP> 5
 0.000000e+00 1.000000e+00 0.000000e+00 0.000000e+00 0.000000e+00
 0.000000e+00 5.762333e-01 4.237666e-01 0.000000e+00 0.000000e+00
 0.000000e+00 0.000000e+00 7.162044e-01 2.837957e-01 0.000000e+00
 0.000000e+00 0.000000e+00 0.000000e+00 9.806231e-01 1.937690e-02
 0.000000e+00 0.000000e+00 0.000000e+00 0.000000e+00 0.000000e+00
<ENDHMM>
~h "ny"
<BEGINHMM>
<NUMSTATES> 5
<STATE> 2
<MEAN> 39
 -7.187046e+00 -2.749100e+00 3.236959e+00 -2.184756e+00 -9.501480e-01 -3.989013e-01 -2.520356e+00 -4.218900e+00 -2.863211e+00 5.934243e-01 -1.023015e+00 -1.903786e+00 5.293167e+01 -3.981791e-01 -1.894395e-01 1.379102e-01 -7.841016e-02 -2.660774e-01 1.229526e-01 2.648426e-01 1.397372e-01 -5.217413e-02 -7.750913e-02 -4.666102e-02 5.171410e-02 -2.206640e-01 2.916616e-02 6.527145e-04 -2.800492e-02 -2.009967e-02 -2.563607e-02 -5.866290e-02 -6.100759e-02 -6.459387e-03 1.079973e-02 3.038750e-03 -1.042480e-02 -1.670900e-02 1.637790e-02
<VARIANCE> 39
 8.399364e+01 4.790144e+01 3.840648e+01 2.028458e+01 3.107547e+01 1.770503e+01 2.194944e+01 2.612077e+01 1.545479e+01 1.744323e+01 1.544585e+01 1.739391e+01 4.998631e+01 6.932544e-01 1.231966e+00 1.362816e+00 1.540689e+00 1.983549e+00 8.902621e-01 1.398791e+00 1.279978e+00 1.256627e+00 1.170386e+00 1.266661e+00 8.486660e-01 1.739281e-01 6.853741e-02 1.536850e-01 1.453771e-01 2.126382e-01 2.890193e-01 1.363938e-01 2.113529e-01 2.305008e-01 2.275479e-01 2.329653e-01 2.417798e-01 1.516311e-01 2.646767e-02
<GCONST> 9.068294e+01
<STATE> 3
<MEAN> 39
 -7.061517e+00 -2.133514e+00 4.039408e+00 -2.677760e+00 -2.754524e+00 -1.106891e+00 -1.884669e+00 -4.250592e+00 -3.837926e+00 -5.084329e-01 -2.209866e+00 -2.621314e+00 5.300913e+01 -1.520052e-01 7.131100e-04 -7.120971e-02 4.548319e-04 -9.094396e-02 1.973853e-03 8.716492e-02 5.723313e-02 -6.425893e-02 -1.298511e-01 -1.279841e-01 -3.122187e-02 -1.531734e-01 2.853672e-02 5.477217e-03 -1.233783e-02 4.650535e-02 5.582897e-02 1.273856e-02 -6.159557e-04 -6.136803e-03 5.432448e-03 1.677078e-02 1.598370e-02 -5.453575e-03 1.232903e-02
<VARIANCE> 39
 7.620105e+01 5.431678e+01 3.080430e+01 1.466847e+01 2.873805e+01 2.552293e+01 2.054598e+01 2.647681e+01 1.698011e+01 3.012687e+01 1.473450e+01 1.391195e+01 4.317706e+01 4.276199e-01 1.076263e+00 1.147699e+00 1.185817e+00 1.500142e+00 9.499929e-01 1.110949e+00 1.384418e+00 1.063016e+00 1.218460e+00 1.075594e+00 8.534797e-01 1.678069e-01 4.741390e-02 1.563559e-01 1.545092e-01 2.203840e-01 2.345205e-01 1.666988e-01 2.000383e-01 2.471328e-01 2.029213e-01 2.035159e-01 2.034830e-01 1.689330e-01 2.116801e-02
<GCONST> 8.810052e+01
<STATE> 4
<MEAN> 39
 2.277851e+00 4.705817e+00 7.212261e+00 4.634469e+00 2.832663e+00 3.863313e+00 2.593884e-01 -4.202535e+00 -7.940741e+00 -3.551292e+00 -1.822110e+00 -2.396051e+00 5.945012e+01 -2.278428e-01 -2.645240e-01 9.412884e-02 4.359628e-01 1.440422e-01 -1.580382e-01 7.319675e-02 2.040876e-01 -3.072786e-02 -2.358595e-03 1.093678e-01 3.277858e-02 -9.364958e-02 4.008670e-02 -5.282296e-02 -8.574662e-02 -1.875027e-02 -1.373977e-03 -1.121591e-01 -1.335196e-01 1.804611e-02 4.772304e-02 -1.425123e-02 1.888830e-02 2.704672e-02 3.416453e-02
<VARIANCE> 39
 6.257842e+01 6.465450e+01 6.426059e+01 1.224567e+02 7.142726e+01 6.004121e+01 4.160431e+01 5.144520e+01 3.273282e+01 3.891866e+01 3.317494e+01 1.016283e+01 2.044504e+01 1.045679e+00 1.160855e+00 1.988011e+00 1.467351e+00 2.915534e+00 2.403752e+00 1.829927e+00 2.365869e+00 2.000614e+00 1.140069e+00 1.008285e+00 1.023242e+00 3.548558e-01 1.729427e-01 1.986277e-01 2.744653e-01 2.607075e-01 4.560896e-01 3.986683e-01 2.545716e-01 4.182450e-01 3.533085e-01 2.011593e-01 1.739832e-01 1.652092e-01 6.122020e-02
<GCONST> 1.065309e+02
<TRANSP> 5
 0.000000e+00 1.000000e+00 0.000000e+00 0.000000e+00 0.000000e+00
 0.000000e+00 9.239957e-01 7.600431e-02 0.000000e+00 0.000000e+00
 0.000000e+00 0.000000e+00 8.993624e-01 1.006377e-01 0.000000e+00
 0.000000e+00 0.000000e+00 0.000000e+00 8.649561e-01 1.350438e-01
 0.000000e+00 0.000000e+00 0.000000e+00 0.000000e+00 0.000000e+00
<ENDHMM>
~h "rr"
<BEGINHMM>
<NUMSTATES> 5
<STATE> 2
<MEAN> 39
 3.170045e+00 5.576071e+00 9.194939e+00 3.360984e+00 4.409111e+00 -2.717370e+00 -1.053692e+01 -1.093663e+01 -1.914064e+00 3.118621e+00 -6.175098e-02 -3.917640e+00 5.890193e+01 -5.726545e-01 -2.168434e-01 5.498928e-01 2.053789e-01 -3.870570e-02 3.862193e-01 4.580195e-01 2.330381e-02 -1.704499e-01 -1.002713e-01 -1.481526e-01 -2.550160e-01 -2.241898e-01 5.048265e-03 -1.170639e-03 1.986726e-02 -2.764126e-02 -9.417464e-02 -8.910334e-02 -4.142619e-02 3.607221e-02 4.068512e-02 -2.053754e-02 -3.978809e-02 -3.958913e-02 9.998928e-03
<VARIANCE> 39
 3.841661e+01 5.998106e+01 2.467428e+01 2.283439e+01 2.045860e+01 2.359582e+01 3.891120e+01 2.705535e+01 1.407104e+01 2.377226e+01 1.443521e+01 1.932194e+01 5.485056e+00 1.089349e+00 1.911529e+00 2.193424e+00 1.577242e+00 1.854874e+00 2.035515e+00 3.420062e+00 1.262614e+00 2.028727e+00 1.816741e+00 9.450480e-01 4.124498e-01 3.919000e-01 1.387630e-01 1.974528e-01 3.575577e-01 2.084916e-01 2.357480e-01 2.562139e-01 3.921766e-01 2.176649e-01 2.915574e-01 2.922758e-01 1.953281e-01 7.601235e-02 6.292479e-02
<GCONST> 9.533009e+01
<STATE> 3
<MEAN> 39
 -3.072660e+00 -2.059000e+00 1.128764e+01 6.916702e+00 3.475780e+00 -3.319690e+00 -8.613691e+00 -7.906090e+00 -7.218926e-01 2.078077e+00 -4.589966e+00 -9.064801e+00 5.752263e+01 2.285441e-01 4.214855e-01 2.086874e-01 4.049425e-01 2.509117e-01 -4.767753e-01 -2.709652e-01 1.869391e-01 9.223617e-02 -3.282571e-01 -4.229730e-01 -1.931831e-01 3.087959e-02 3.287221e-02 2.635967e-02 -3.461249e-02 -2.799718e-02 -1.763196e-02 -3.369036e-02 -3.897480e-02 -1.116049e-02 2.075343e-02 1.761938e-02 3.031286e-03 -2.103329e-03 7.454969e-03
<VARIANCE> 39
 5.378730e+01 1.159324e+02 1.463932e+01 8.862257e+01 8.501147e+01 6.532172e+01 5.582861e+01 3.109976e+01 1.616765e+01 4.197809e+01 3.854414e+01 1.874988e+01 3.828677e+00 1.939137e+00 3.616677e+00 2.427424e+00 4.219501e+00 4.312944e+00 2.861963e+00 3.208454e+00 1.438641e+00 1.709205e+00 2.526126e+00 1.513300e+00 9.563801e-01 4.821494e-01 1.889984e-01 3.846169e-01 4.693283e-01 5.976920e-01 4.410628e-01 4.356739e-01 4.096894e-01 2.048199e-01 2.981122e-01 3.766899e-01 2.235501e-01 2.253677e-01 9.619415e-02
<GCONST> 1.119943e+02
<STATE> 4
<MEAN> 39
 2.648650e+00 1.017935e+01 1.157937e+01 2.990387e+00 1.157686e+00 -5.547947e+00 -4.295442e+00 -5.970640e-01 7.043967e-01 -1.354654e+00 -5.537614e+00 -5.517102e+00 5.703424e+01 -7.202170e-01 -4.411952e-01 -7.281554e-02 -5.867194e-02 8.253475e-02 4.258056e-01 4.937725e-01 5.486543e-02 -5.356648e-02 8.213924e-02 4.696131e-02 -1.855990e-01 -3.429889e-01 -1.236809e-01 -2.045466e-01 -1.954015e-01 -7.282760e-02 1.269810e-03 5.921583e-02 3.721711e-02 2.223955e-03 -1.062882e-01 -5.087666e-02 8.327254e-02 1.337644e-01 -5.774473e-02
<VARIANCE> 39
 1.804859e+01 1.278290e+01 1.359929e+01 6.914151e+01 7.025342e+01 3.742836e+01 5.098088e+01 3.057301e+01 1.496799e+01 4.302435e+00 1.476537e+01 1.884382e+01 6.565284e+00 9.696442e-01 1.385673e+00 1.331081e+00 1.735892e+00 1.975967e+00 1.348444e+00 9.646639e-01 1.064555e+00 1.438333e+00 5.454882e-01 8.405626e-01 7.404833e-01 1.947338e-01 7.456546e-02 1.301584e-01 2.122541e-01 3.126841e-01 2.901808e-01 2.352986e-01 2.172846e-01 1.706454e-01 2.410226e-01 1.001632e-01 1.522068e-01 2.312066e-01 2.168259e-02
<GCONST> 8.642414e+01
<TRANSP> 5
 0.000000e+00 1.000000e+00 0.000000e+00 0.000000e+00 0.000000e+00
 0.000000e+00 9.096463e-01 9.035370e-02 0.000000e+00 0.000000e+00
 0.000000e+00 0.000000e+00 9.002150e-01 9.978508e-02 0.000000e+00
 0.000000e+00 0.000000e+00 0.000000e+00 8.858922e-01 1.141079e-01
 0.000000e+00 0.000000e+00 0.000000e+00 0.000000e+00 0.000000e+00
<ENDHMM>
~h "sp"
<BEGINHMM>
<NUMSTATES> 5
<STATE> 2
<MEAN> 39
 -4.314049e-01 -5.443133e-01 7.105690e-01 -1.882667e+00 -3.413527e-01 -4.598181e+00 -6.314186e+00 -3.848403e+00 -3.601575e+00 -2.169887e+00 -1.884693e+00 -2.491360e+00 5.700534e+01 -2.864336e-03 -3.153083e-03 -6.210326e-04 -1.859146e-03 -1.025149e-03 4.018572e-05 -4.212186e-04 -9.370550e-04 -1.112693e-03 -1.571401e-03 -1.379302e-03 -1.582626e-03 3.459415e-04 -2.076533e-04 1.121370e-04 -6.082775e-04 5.937807e-05 7.690147e-05 -5.380236e-05 9.022583e-05 2.522134e-04 1.281000e-04 2.276354e-04 9.980684e-05 1.737125e-04 -8.036671e-04
<VARIANCE> 39
 1.333756e+02 6.639448e+01 7.486684e+01 6.636140e+01 5.702890e+01 5.689030e+01 7.521648e+01 5.588811e+01 3.375542e+01 3.396556e+01 2.727465e+01 2.558422e+01 7.908179e+01 3.510822e+00 2.990041e+00 3.288318e+00 2.986253e+00 2.462860e+00 3.071138e+00 3.491724e+00 2.597442e+00 2.153173e+00 2.003538e+00 1.724022e+00 1.500141e+00 1.490820e+00 4.316568e-01 4.629386e-01 4.683719e-01 4.500415e-01 3.964934e-01 5.051396e-01 5.511611e-01 4.319685e-01 3.792876e-01 3.504571e-01 3.135985e-01 2.653124e-01 2.156326e-01
<GCONST> 1.230944e+02
<STATE> 3
<MEAN> 39
 -4.314049e-01 -5.443133e-01 7.105690e-01 -1.882667e+00 -3.413527e-01 -4.598181e+00 -6.314186e+00 -3.848403e+00 -3.601575e+00 -2.169887e+00 -1.884693e+00 -2.491360e+00 5.700534e+01 -2.864336e-03 -3.153083e-03 -6.210326e-04 -1.859146e-03 -1.025149e-03 4.018572e-05 -4.212186e-04 -9.370550e-04 -1.112693e-03 -1.571401e-03 -1.379302e-03 -1.582626e-03 3.459415e-04 -2.076533e-04 1.121370e-04 -6.082775e-04 5.937807e-05 7.690147e-05 -5.380236e-05 9.022583e-05 2.522134e-04 1.281000e-04 2.276354e-04 9.980684e-05 1.737125e-04 -8.036671e-04
<VARIANCE> 39
 1.333756e+02 6.639448e+01 7.486684e+01 6.636140e+01 5.702890e+01 5.689030e+01 7.521648e+01 5.588811e+01 3.375542e+01 3.396556e+01 2.727465e+01 2.558422e+01 7.908179e+01 3.510822e+00 2.990041e+00 3.288318e+00 2.986253e+00 2.462860e+00 3.071138e+00 3.491724e+00 2.597442e+00 2.153173e+00 2.003538e+00 1.724022e+00 1.500141e+00 1.490820e+00 4.316568e-01 4.629386e-01 4.683719e-01 4.500415e-01 3.964934e-01 5.051396e-01 5.511611e-01 4.319685e-01 3.792876e-01 3.504571e-01 3.135985e-01 2.653124e-01 2.156326e-01
<GCONST> 1.230944e+02
<STATE> 4
<MEAN> 39
 -4.314049e-01 -5.443133e-01 7.105690e-01 -1.882667e+00 -3.413527e-01 -4.598181e+00 -6.314186e+00 -3.848403e+00 -3.601575e+00 -2.169887e+00 -1.884693e+00 -2.491360e+00 5.700534e+01 -2.864336e-03 -3.153083e-03 -6.210326e-04 -1.859146e-03 -1.025149e-03 4.018572e-05 -4.212186e-04 -9.370550e-04 -1.112693e-03 -1.571401e-03 -1.379302e-03 -1.582626e-03 3.459415e-04 -2.076533e-04 1.121370e-04 -6.082775e-04 5.937807e-05 7.690147e-05 -5.380236e-05 9.022583e-05 2.522134e-04 1.281000e-04 2.276354e-04 9.980684e-05 1.737125e-04 -8.036671e-04
<VARIANCE> 39
 1.333756e+02 6.639448e+01 7.486684e+01 6.636140e+01 5.702890e+01 5.689030e+01 7.521648e+01 5.588811e+01 3.375542e+01 3.396556e+01 2.727465e+01 2.558422e+01 7.908179e+01 3.510822e+00 2.990041e+00 3.288318e+00 2.986253e+00 2.462860e+00 3.071138e+00 3.491724e+00 2.597442e+00 2.153173e+00 2.003538e+00 1.724022e+00 1.500141e+00 1.490820e+00 4.316568e-01 4.629386e-01 4.683719e-01 4.500415e-01 3.964934e-01 5.051396e-01 5.511611e-01 4.319685e-01 3.792876e-01 3.504571e-01 3.135985e-01 2.653124e-01 2.156326e-01
<GCONST> 1.230944e+02
<TRANSP> 5
 0.000000e+00 1.000000e+00 0.000000e+00 0.000000e+00 0.000000e+00
 0.000000e+00 6.000000e-01 4.000000e-01 0.000000e+00 0.000000e+00
 0.000000e+00 0.000000e+00 6.000000e-01 4.000000e-01 0.000000e+00
 0.000000e+00 0.000000e+00 0.000000e+00 7.000000e-01 3.000000e-01
 0.000000e+00 0.000000e+00 0.000000e+00 0.000000e+00 0.000000e+00
<ENDHMM>
~h "sil"
<BEGINHMM>
<NUMSTATES> 5
<STATE> 2
<MEAN> 39
 2.182732e-01 4.751621e-01 1.077941e+00 -1.701264e+00 -6.945637e-01 -4.408463e+00 -6.664721e+00 -4.353782e+00 -3.550271e+00 -2.063866e+00 -2.210316e+00 -2.559968e+00 5.750174e+01 -2.361894e-03 -1.270312e-02 3.962167e-03 -5.387634e-03 -1.932673e-03 -1.058336e-03 -1.603581e-03 -7.348724e-03 -5.930051e-03 -3.208548e-03 -2.454236e-03 -5.452216e-03 1.202120e-02 -2.045967e-03 -1.533609e-03 -3.527246e-03 -1.272466e-03 -9.064991e-04 -3.992068e-04 8.645794e-04 1.050675e-03 8.062348e-04 6.999206e-04 -2.570339e-04 6.665904e-04 -3.254324e-03
<VARIANCE> 39
 1.297442e+02 6.682365e+01 7.507422e+01 6.529871e+01 6.111671e+01 6.265021e+01 7.792191e+01 6.342878e+01 3.700604e+01 3.704404e+01 2.775378e+01 2.494974e+01 6.872316e+01 3.485776e+00 2.872285e+00 3.174598e+00 2.756269e+00 2.716664e+00 2.835522e+00 3.536399e+00 2.759995e+00 2.168192e+00 1.968955e+00 1.678464e+00 1.446359e+00 1.447772e+00 4.169056e-01 4.262802e-01 4.417318e-01 4.113211e-01 4.281653e-01 4.423046e-01 5.379065e-01 4.481320e-01 3.750370e-01 3.324320e-01 3.010382e-01 2.569155e-01 1.983332e-01
<GCONST> 1.227138e+02
<STATE> 3
<MEAN> 39
 -1.232159e+01 -3.305511e+00 -1.600693e-01 -8.568236e-01 -2.157344e+00 -1.192283e+00 -2.496325e+00 -2.529744e+00 -3.355849e+00 -2.112019e+00 -2.103275e+00 -1.132804e+00 4.699601e+01 -3.673030e-01 -2.751926e-01 -3.037563e-01 -2.575660e-01 -1.427085e-01 -1.308305e-01 -1.452295e-01 -9.031862e-02 -5.118329e-02 -1.075147e-01 -1.066279e-01 4.956137e-02 -2.322404e-01 1.356011e-01 1.032078e-01 3.855249e-02 4.203874e-02 4.712151e-02 2.526144e-02 6.808033e-03 4.588073e-02 5.997155e-02 5.474470e-02 6.839730e-02 2.827236e-02 6.465274e-02
<VARIANCE> 39
 1.795484e+01 1.819795e+01 2.622308e+01 1.122762e+01 1.290951e+01 1.456065e+01 1.454278e+01 2.078459e+01 2.128506e+01 1.192362e+01 1.102005e+01 9.947228e+00 2.692457e+01 1.041838e+00 1.409654e+00 1.405123e+00 9.372367e-01 1.137450e+00 1.363737e+00 1.320423e+00 1.507011e+00 1.740673e+00 1.267068e+00 1.043889e+00 7.634011e-01 4.400140e-01 1.935986e-01 2.216822e-01 2.359066e-01 1.480618e-01 2.048324e-01 2.757387e-01 2.553333e-01 2.679348e-01 3.420675e-01 2.595653e-01 2.001053e-01 1.538061e-01 9.148972e-02
<GCONST> 8.880235e+01
<STATE> 4
<MEAN> 39
 -1.382427e+01 -2.112726e+00 -1.299402e+00 -1.111355e+00 -3.255906e+00 -2.173030e+00 -3.800056e+00 -2.333742e+00 -3.479362e+00 -2.281963e+00 -2.444508e+00 -1.582852e+00 4.444300e+01 -2.714996e-02 1.326136e-02 -2.285974e-02 1.017946e-02 -1.730471e-02 3.220290e-04 -1.277198e-02 5.549338e-03 -3.672108e-03 -5.447030e-03 -9.661352e-03 -3.225991e-03 -5.128769e-02 6.684992e-03 3.186359e-03 4.085433e-03 5.239243e-03 5.632313e-03 3.655468e-03 1.587988e-03 4.682713e-04 -6.751479e-04 -1.749389e-04 -5.836764e-04 -1.833839e-03 4.900295e-03
<VARIANCE> 39
 1.502202e+01 1.037764e+01 9.860679e+00 7.711891e+00 8.915544e+00 9.365810e+00 9.919503e+00 9.913521e+00 9.973601e+00 9.033502e+00 8.211221e+00 6.987113e+00 1.364726e+01 1.085317e-01 1.779864e-01 3.020707e-01 3.777261e-01 4.938575e-01 6.074781e-01 6.786914e-01 7.641593e-01 7.795326e-01 7.655638e-01 6.899474e-01 6.627055e-01 5.851035e-02 2.420833e-02 3.795195e-02 6.308526e-02 7.919182e-02 1.026292e-01 1.292176e-01 1.387327e-01 1.567773e-01 1.639706e-01 1.597555e-01 1.414179e-01 1.360260e-01 1.130130e-02
<GCONST> 5.660104e+01
<TRANSP> 5
 0.000000e+00 1.000000e+00 0.000000e+00 0.000000e+00 0.000000e+00
 0.000000e+00 9.952931e-01 4.706855e-03 0.000000e+00 0.000000e+00
 0.000000e+00 0.000000e+00 7.270786e-01 2.729214e-01 0.000000e+00
 0.000000e+00 0.000000e+00 0.000000e+00 9.882308e-01 1.176921e-02
 0.000000e+00 0.000000e+00 0.000000e+00 0.000000e+00 0.000000e+00
<ENDHMM>
~h "tsh"
<BEGINHMM>
<NUMSTATES> 5
<STATE> 2
<MEAN> 39
 4.236572e+00 -5.298400e+00 2.502671e+00 -3.154493e+00 1.382599e+00 -7.272308e+00 -1.010329e+01 -5.140021e+00 -8.384228e+00 -4.778451e+00 -5.994112e-01 -5.731428e+00 6.464966e+01 1.052666e-01 -1.653616e-02 -9.940132e-03 -3.751817e-02 5.561612e-02 1.451889e-02 -7.853916e-02 -1.591613e-01 -1.604321e-02 9.475935e-02 3.314509e-02 -4.421854e-02 1.094978e-01 2.011356e-04 -3.609435e-03 -3.281446e-02 4.325460e-03 -6.856276e-03 1.774332e-03 3.791387e-02 1.675170e-02 1.520406e-02 6.000582e-03 8.308995e-03 9.404509e-03 -8.437644e-03
<VARIANCE> 39
